{"layers":[{"out_depth":36,"out_sx":1,"out_sy":1,"layer_type":"input"},{"out_depth":64,"out_sx":1,"out_sy":1,"layer_type":"fc","num_inputs":36,"l1_decay_mul":0,"l2_decay_mul":1,"filters":[{"sx":1,"sy":1,"depth":36,"w":{"0":-0.013871370562141584,"1":0.07935491374414196,"2":0.0801184315480354,"3":-0.1663200325856215,"4":0.003812864166052141,"5":0.09830939759285434,"6":-0.48219663995224954,"7":-0.7542151864860193,"8":0.8902857119621371,"9":-1.3318504180743211,"10":-0.19007332563342935,"11":-1.0887640605720086,"12":0.07785358680968736,"13":0.06909870320458161,"14":-0.478012655350979,"15":-0.13296293897298947,"16":-0.06381477274741985,"17":-0.061097056433762204,"18":0.10270125848661263,"19":-0.05408931412482479,"20":-0.004514489957569402,"21":0.04574117859088111,"22":0.022335649517689977,"23":0.30280500568267454,"24":0.25950647549217376,"25":-0.5718569112569792,"26":0.11227649166724182,"27":-0.35128129868332464,"28":0.1354571577436891,"29":-0.15414069679014006,"30":-0.2697886977190203,"31":-0.23951122068772723,"32":0.6789156042773834,"33":0.37030414278661294,"34":-0.10915462531988988,"35":0.08419814435156439}},{"sx":1,"sy":1,"depth":36,"w":{"0":-0.16970031727802437,"1":0.23795047304519382,"2":-0.17786676769519016,"3":-0.3238678841614741,"4":0.17539260421719507,"5":-0.2703179934319028,"6":-0.4745442319104122,"7":-0.5265396105541531,"8":0.147965727668605,"9":-0.134623370716089,"10":0.278729441984031,"11":-0.8530758447650885,"12":0.3011226364624901,"13":0.0027713565372195106,"14":-0.28784691609716967,"15":0.5841977796354109,"16":-0.1685987452785441,"17":0.10605088186916191,"18":-0.12122079618547552,"19":-0.2638949342295649,"20":-0.25011239012129,"21":0.2917581715713581,"22":-0.30181865150272696,"23":-0.564125553897081,"24":-0.2059537364359095,"25":-0.036561831023676994,"26":-0.12950605997969028,"27":-0.04389598365125522,"28":0.3311162903729256,"29":0.21764422670774952,"30":-0.08551372118118176,"31":0.023834961513080486,"32":1.5641502068340842,"33":0.08498364700654497,"34":0.08968311175103318,"35":0.25906000336371643}},{"sx":1,"sy":1,"depth":36,"w":{"0":-0.09088592405786136,"1":0.16719038345812884,"2":-0.4646204342394268,"3":0.2759412979568718,"4":-0.3996479888548728,"5":-0.028937343413292526,"6":-0.24985877271842488,"7":0.6610239554075859,"8":-0.5739061128888503,"9":-0.7989641635542871,"10":-0.1834554347760018,"11":-0.014948537311465346,"12":0.021768569855273995,"13":-0.13863676352193907,"14":0.5926536038141943,"15":0.07067032437064705,"16":0.19258057511689716,"17":0.13877669356899563,"18":-0.6603700332494055,"19":-0.44224770507434114,"20":0.09714283106061523,"21":0.5796060091899436,"22":-1.114291955869854,"23":-0.2593406124996825,"24":0.8316626921261803,"25":0.5108440780731783,"26":-0.09357172876125018,"27":-0.656929584439659,"28":0.23067763745440936,"29":0.22580672438255547,"30":0.4572983179010654,"31":0.07993287663585465,"32":0.08636618600911994,"33":0.22350931331532214,"34":-0.06820418782939927,"35":-0.05549152231525565}},{"sx":1,"sy":1,"depth":36,"w":{"0":0.2251660087776707,"1":-0.3128614042849227,"2":0.4471811435692095,"3":-0.5712759409041425,"4":-0.37259812982256696,"5":-0.411781909623191,"6":-0.6698060751140206,"7":0.6336930048508129,"8":-0.008606233221214586,"9":-0.289203943505592,"10":-0.40283245202406864,"11":0.5172161969804819,"12":0.10890961210477262,"13":0.016529873615927237,"14":0.41714985324466464,"15":-0.11655667667399214,"16":0.5185952920706167,"17":0.38544691441895995,"18":0.47082383531671074,"19":-0.05958530281289616,"20":-0.0524687113179727,"21":-0.09094403188113552,"22":-0.3290171164676258,"23":-0.40783118805312935,"24":0.25398384377683886,"25":0.08243161181118921,"26":-0.5336665359349312,"27":0.2153129542791273,"28":0.033441489538593605,"29":-0.032400193051687495,"30":-0.3714262348778795,"31":-0.35038319676724816,"32":-0.46676443982823557,"33":0.2785838088646482,"34":-0.8706818368308974,"35":0.02839603345599888}},{"sx":1,"sy":1,"depth":36,"w":{"0":0.33812675396143393,"1":-0.37025558949445847,"2":0.8339053380945525,"3":0.392317238686202,"4":0.2507233861017748,"5":0.4686949830617988,"6":-0.14784291747380982,"7":0.0982134624019543,"8":-0.03426983854829958,"9":-0.3256276222650313,"10":0.37095318111237324,"11":-1.0934685734328375,"12":-0.31144445387301495,"13":0.07371614605005673,"14":0.3680865444325406,"15":-0.8010655168111016,"16":0.08695270482254497,"17":0.022631930012739405,"18":-0.33007296088013205,"19":-0.12232104496654508,"20":0.07418579336548398,"21":-0.054798475999592186,"22":0.017755964880082718,"23":-0.2813068594568748,"24":-0.5245957171440538,"25":0.27274806416449165,"26":0.021363934013154152,"27":-0.5721601375487947,"28":-0.5863670994912377,"29":-0.12079140747062399,"30":-0.44298341526959195,"31":-0.9521713431578965,"32":0.6418971532128385,"33":-0.12394171034456879,"34":0.6972448015828354,"35":-0.0930505266890037}},{"sx":1,"sy":1,"depth":36,"w":{"0":0.4922884116178411,"1":0.19421826026490363,"2":0.4565537244955772,"3":0.3632246795104106,"4":0.5692653896175117,"5":0.3449498389230048,"6":0.5875168308297227,"7":0.5457605538485838,"8":0.1222629342679451,"9":0.14138259191953723,"10":0.021123343163999678,"11":-0.3485748551497505,"12":0.23313871338168576,"13":0.21147687291870376,"14":0.0282779425629205,"15":0.3001113092308441,"16":-0.07921736279713269,"17":-0.25496341321808913,"18":-0.08789588294344011,"19":-0.22353695447897606,"20":-0.2028187260017728,"21":-0.4138705072661489,"22":-0.06445464340945968,"23":-0.2350889326012595,"24":-0.07511595711209974,"25":-0.3219649142261105,"26":-0.22579065815583343,"27":-0.4828107313563322,"28":-0.09514200566875958,"29":0.09383278105347477,"30":0.002200354278135279,"31":0.031787290309076656,"32":1.8757367617944425,"33":0.23146188420850147,"34":2.2359983600644657,"35":0.5589940638458274}},{"sx":1,"sy":1,"depth":36,"w":{"0":-0.2000145793861357,"1":-0.0004181101271655926,"2":0.6928166634010577,"3":0.134243007008877,"4":0.09672737563085734,"5":-0.14577962386748763,"6":-0.23361648102512178,"7":-0.2112238500126392,"8":-0.4763824075233025,"9":0.4025930673258361,"10":0.11808569840718236,"11":0.3591112278394141,"12":-0.6432584986527965,"13":0.22259758754046677,"14":0.07963787554475729,"15":0.3508723892146497,"16":-0.17337968307360463,"17":-0.24044480587555253,"18":0.44386821545279403,"19":-0.4693403831729359,"20":0.3616560614742306,"21":-0.24631558185883584,"22":-0.25360600415443496,"23":-0.16624254053185783,"24":-0.6195009389120189,"25":-0.036910149075026925,"26":-0.01473437872147175,"27":0.02178357214879676,"28":0.041265263752583804,"29":-0.1398216631244363,"30":0.09987331793212997,"31":-0.174395549304989,"32":0.8075031394745484,"33":-0.5706926202408191,"34":0.02475118362498823,"35":-0.8839991982365287}},{"sx":1,"sy":1,"depth":36,"w":{"0":-0.33359233749267836,"1":0.18125660712794892,"2":0.4138868950375456,"3":0.723437047679987,"4":0.5159631735546131,"5":0.4805096545899019,"6":-0.07992802489595653,"7":0.01666256480552669,"8":-0.10327406297436288,"9":-0.879431508980762,"10":0.1273893163025625,"11":0.22363033909618016,"12":0.18356836840146298,"13":0.35657169136275035,"14":0.5543258186658698,"15":0.335845422469756,"16":-0.3502848011239462,"17":-0.2351150520771118,"18":0.017606339220123744,"19":-0.04890244788114202,"20":-0.1632160400334865,"21":-0.1694855081988739,"22":-0.12619561195813828,"23":-0.1126616847127091,"24":-0.0549070799747694,"25":-0.6315939150080917,"26":-0.3408381871230224,"27":-0.012218531621665928,"28":0.19321366876785628,"29":0.00868835693541585,"30":0.15333350569820617,"31":0.48168336507474624,"32":0.6084962738049303,"33":0.19698829669536974,"34":0.30217451125411715,"35":0.2825309793645165}},{"sx":1,"sy":1,"depth":36,"w":{"0":-0.0791972835239389,"1":0.2966902309486753,"2":-0.1953876975651555,"3":0.3275390556060153,"4":0.21126379008685506,"5":-0.24017849546444037,"6":0.3738105560529922,"7":-0.2855305011613286,"8":-0.5058575479951903,"9":0.17108220042090594,"10":-0.17178391332363688,"11":-0.10485983839234429,"12":-0.835516403411787,"13":-1.2866184812324961,"14":0.09554126998988602,"15":-0.6744749321611574,"16":-0.20635627024978356,"17":0.18153936633922624,"18":-0.4070994381957235,"19":-0.11719286973142345,"20":0.48494325893289303,"21":0.11736941110000704,"22":-0.17556778653479171,"23":-0.744971242095785,"24":0.05167201163185562,"25":0.09272635908032319,"26":-0.24726249593409227,"27":0.1008642125194265,"28":-0.19441307587785678,"29":-0.7150314197156611,"30":-0.9524126264476269,"31":-0.8987169454071209,"32":0.5084786313311493,"33":-0.36606200290253094,"34":1.4552619965444333,"35":-0.010381064678192851}},{"sx":1,"sy":1,"depth":36,"w":{"0":0.02673437547275794,"1":0.09839558831025233,"2":-0.07026907282349139,"3":-0.6566522737255553,"4":0.15924711690944657,"5":0.24195628748490908,"6":-0.05655207019596033,"7":-0.8648769472885283,"8":-0.20720268410362302,"9":0.22378299042221078,"10":-0.5948535097932632,"11":-1.0166442622154122,"12":0.8051913218538475,"13":-0.7079957488332418,"14":0.36812479320379127,"15":-0.16739242179360636,"16":0.1749538010631076,"17":-0.08794927863679594,"18":0.5209979959329172,"19":0.25702801028069705,"20":-0.22201990003757938,"21":-0.17179402594830348,"22":0.045284380450384604,"23":0.11021586699662027,"24":0.09582878723532891,"25":-0.2304549784700042,"26":-0.21593346881246261,"27":-0.183187024002361,"28":-0.027457976091081925,"29":-0.4374733169692139,"30":-0.2450281557688968,"31":0.028307024018976442,"32":0.12781222286800437,"33":-0.05379048319507092,"34":-0.45132382850896624,"35":0.06829306545821405}},{"sx":1,"sy":1,"depth":36,"w":{"0":-0.15273794746248262,"1":-0.17307326399519773,"2":-0.20933590632002946,"3":-0.025367387185218748,"4":-0.3987752648242892,"5":0.0638494823324889,"6":-1.5472435383437693,"7":0.3212332501672497,"8":-0.03152815976551267,"9":-1.0814836635102125,"10":0.9480848285587178,"11":-0.04125996889569609,"12":-0.23554227329483202,"13":-0.17106117246336788,"14":-0.20473198425727324,"15":0.3449139105111532,"16":0.2662098678544205,"17":0.16981988176435212,"18":-0.12145095349021802,"19":0.14779925142185157,"20":0.07248176945840511,"21":0.058878410254950594,"22":-0.0617030385607188,"23":0.1763578670403499,"24":0.2731793072460679,"25":-0.022170489539110546,"26":-0.18496228623189565,"27":0.12091403517967356,"28":-0.1459558008631484,"29":-0.18706767985653971,"30":-0.1416851701500471,"31":0.5181816202514166,"32":0.28790426518477863,"33":-0.0142856114111216,"34":0.4606777640278618,"35":0.3260310011787029}},{"sx":1,"sy":1,"depth":36,"w":{"0":-0.03295714654079479,"1":0.3757103265139104,"2":0.08310630673756035,"3":-0.15996046263553396,"4":-0.028422198974993852,"5":-0.16000419155583884,"6":-0.349756806375265,"7":-0.24091508115688878,"8":-0.5131761628917125,"9":-0.3328355093497045,"10":-0.23827700705629956,"11":-0.29420428330293685,"12":-0.03627241318040368,"13":-0.23215283715013174,"14":-0.15689615002768315,"15":0.15768161892114405,"16":0.17820533872412217,"17":0.19308814367958269,"18":0.2239898722071588,"19":0.751456431302331,"20":0.4931242549580053,"21":0.42036107432376757,"22":0.40099436774249914,"23":0.42312178641672504,"24":0.3051006540227569,"25":0.4522045419004619,"26":0.4537504739612465,"27":0.5981316450730876,"28":0.9033312131574003,"29":0.5800413407031025,"30":0.6584126536576046,"31":0.9493189800776081,"32":-2.51366807897819,"33":-2.017003953499524,"34":-2.2588009983343595,"35":-2.599660837499105}},{"sx":1,"sy":1,"depth":36,"w":{"0":0.028520028351924926,"1":0.44318708725766354,"2":0.4777313669080395,"3":0.008087595803117536,"4":-0.5955303868757169,"5":0.10309221898845267,"6":-0.021382521542786134,"7":-0.1206837118384896,"8":-0.37906337702086834,"9":0.5074888845586621,"10":-0.09897343335891956,"11":0.4718410754991124,"12":-0.019611526768042096,"13":-0.1489692662480578,"14":-0.006736755350806855,"15":0.2566107923677711,"16":-0.2370092378135358,"17":0.18334964790327674,"18":0.019284531130133634,"19":-0.0802648799013914,"20":-0.6793753286572509,"21":-0.3909301228254466,"22":0.22167593035079244,"23":-0.22460223795845585,"24":-0.4083243486766921,"25":0.013042447507054494,"26":-0.6776315380044771,"27":-0.2508055972415192,"28":-0.2156121114028254,"29":-0.2999779162921078,"30":-0.12139929157092381,"31":0.15929144930112896,"32":0.8506377972759596,"33":0.9204314489509626,"34":0.9458840339408257,"35":0.4110417046336726}},{"sx":1,"sy":1,"depth":36,"w":{"0":-0.002312037117584076,"1":-0.25080117923692047,"2":0.3172477619460806,"3":-0.11630189225832449,"4":0.34694541840209475,"5":-0.9674277528727594,"6":0.09069378716890089,"7":0.4080882029362726,"8":-0.29461470999987066,"9":-1.181756611316638,"10":-0.29966167328276794,"11":-0.3992601805813798,"12":0.18639227290249064,"13":0.3749776341321023,"14":-0.29137216367534086,"15":0.03963243817883684,"16":-0.3350648595817218,"17":-0.0803769078950294,"18":0.1638838482296714,"19":0.1552817230754547,"20":0.34517077170623894,"21":-0.4362364091485693,"22":0.07577994018583044,"23":-0.10858062937584129,"24":-0.27692848319318203,"25":-0.3200703701841856,"26":-0.06066770133946089,"27":0.018666617725388905,"28":0.4649943944743424,"29":0.11737877022417856,"30":0.135412583003763,"31":0.1553715506479153,"32":0.4025470691484341,"33":0.7351042838711656,"34":0.600476947609684,"35":0.2953049242886948}},{"sx":1,"sy":1,"depth":36,"w":{"0":0.11106604992543692,"1":0.10728666100438057,"2":-0.18221468179491176,"3":0.4854792764847839,"4":0.2139963878826671,"5":-0.8859942028238168,"6":0.35476182913169124,"7":-0.648779966952941,"8":-0.0027357214335013568,"9":-0.7895690974782164,"10":0.25084491574442125,"11":-0.265708126848998,"12":-0.0003499930003939457,"13":0.313332733583394,"14":0.31663671265883214,"15":-0.09850541808421533,"16":-0.22153237467273795,"17":-0.21542674765543063,"18":-0.12954794899275196,"19":0.1073673956273899,"20":0.3118436615724396,"21":-0.6666918811871383,"22":0.16285591925314713,"23":-0.3818316865613623,"24":0.1600431946802986,"25":-0.05688341314111125,"26":-0.15223479680737484,"27":-0.4733850038301223,"28":-0.023894367225481657,"29":-0.18113949524326278,"30":-0.15710632711230482,"31":-0.09149033868273952,"32":0.5912743134580816,"33":0.6481932141464453,"34":0.0010743124375029722,"35":0.8308629069806476}},{"sx":1,"sy":1,"depth":36,"w":{"0":0.15887269092611117,"1":0.2611218327085856,"2":0.21183296501497423,"3":0.21200974422116992,"4":-0.4651853348616458,"5":-0.47462821425168067,"6":-0.7277135463136372,"7":-0.7422255615433003,"8":1.280292320973358,"9":0.1401896491489847,"10":-0.42616306341670807,"11":0.16524259349316295,"12":0.15377427955970976,"13":0.493581005882066,"14":0.1323441962211247,"15":0.36726250551528744,"16":0.002158193834823731,"17":0.03455273084249815,"18":-0.3701142023761472,"19":-0.1046342956525357,"20":-0.040323119056581,"21":-0.24507406712645627,"22":-0.06152062623468143,"23":-0.2594444866523274,"24":0.6720572762004493,"25":-0.023700672870776998,"26":-0.04937674950162432,"27":0.035923100688021715,"28":0.23985949099055945,"29":0.04813418910348082,"30":-0.30424365275230647,"31":0.21466941277797857,"32":0.8916389451728605,"33":0.47149109353476326,"34":0.16777419688779827,"35":0.09366948424473796}},{"sx":1,"sy":1,"depth":36,"w":{"0":0.031065560114138087,"1":-1.1240127390155625,"2":-0.8222669207295639,"3":0.5372837418751298,"4":0.44051075757486335,"5":-0.23636748681629594,"6":0.09318407034543084,"7":0.9985543959586994,"8":-1.1602156957322236,"9":0.07633811848421812,"10":-0.1769133992485466,"11":0.489826781202274,"12":-0.157899817264136,"13":-1.1703241309846995,"14":-0.5124385379058707,"15":0.29780148453622324,"16":-0.3855870606590191,"17":-0.6325224951865618,"18":-0.5295294362229505,"19":0.16798665073951768,"20":0.009881240795237682,"21":0.0635297482323548,"22":0.1402045727389715,"23":0.5703879967708536,"24":-0.30868874094515825,"25":-0.01894144033735376,"26":-0.15872389426246,"27":-0.1481275681892615,"28":0.05880477791651769,"29":-0.8182413135100812,"30":-0.1815270670874581,"31":0.3175483609810925,"32":0.19235487603654675,"33":0.2916017252062046,"34":0.318340988371354,"35":0.39554119090261214}},{"sx":1,"sy":1,"depth":36,"w":{"0":-0.5069490547516323,"1":0.08147936695220166,"2":0.13547319167623556,"3":0.21285847291722887,"4":-0.6527893895048734,"5":0.11230815084017817,"6":-0.284765431115366,"7":-0.5336187070648883,"8":0.10864335454152727,"9":0.00045532993898949497,"10":-0.40789009010553046,"11":0.1513857282946764,"12":-0.47188295728748664,"13":0.40492373196790304,"14":-0.9729216199123464,"15":0.4079249450995872,"16":0.03944079875720388,"17":0.4560235768408124,"18":0.15172216338172573,"19":0.38327799050771755,"20":-0.029267695806234114,"21":-0.024437029699833555,"22":-0.3496325167179269,"23":-0.12487568047049959,"24":0.24294061522601465,"25":0.27162078518736543,"26":0.13391166209567207,"27":0.21006748262310002,"28":-0.5715444569417293,"29":0.48360362076697516,"30":-0.7094339417943895,"31":0.3613449294930536,"32":-0.9579228100913332,"33":-0.4479984128971049,"34":-0.6013483507765519,"35":-0.521675198957874}},{"sx":1,"sy":1,"depth":36,"w":{"0":0.20379296850203288,"1":0.5893966609140933,"2":-0.09631883099623036,"3":-0.3048134845474854,"4":-0.11601134264672892,"5":-0.27999426864898846,"6":0.19565283787496587,"7":0.09381725337412157,"8":0.2882072920633663,"9":-0.7545896386779889,"10":0.030094091783678282,"11":-0.25475030700920204,"12":-0.6913265529978483,"13":0.6971603981276988,"14":-1.2706874930536847,"15":-0.19135565585614375,"16":-0.20488224618021308,"17":0.01589583954226936,"18":0.11912448133459053,"19":0.08004359410639308,"20":0.1943382496866284,"21":-0.05764364775797378,"22":0.20584654678085618,"23":0.1205873665908145,"24":-0.05008727676875115,"25":-0.3629726296891198,"26":0.1895480738995937,"27":-0.18534300229878042,"28":-0.05153125742972658,"29":0.7920349657543152,"30":-0.36222313521130267,"31":-0.24998028816593323,"32":0.08315875387507238,"33":0.15875082723020967,"34":0.09337927667543962,"35":-0.07549237880550236}},{"sx":1,"sy":1,"depth":36,"w":{"0":0.04667334684264638,"1":-0.08935248426796265,"2":0.8431951764988845,"3":-0.19881990567205196,"4":0.038676714765353705,"5":-0.2799062182200261,"6":0.4868859576858379,"7":-0.08869250115201197,"8":0.24376024285385967,"9":-0.6139233623342365,"10":-0.8771555249431761,"11":-0.2477144615627649,"12":0.3570536710476279,"13":-0.47231150006209116,"14":0.45582036146120253,"15":-0.2988166660072343,"16":-0.3468744988548986,"17":0.07595713579099268,"18":0.4660924463121842,"19":-0.003654936648240047,"20":0.1977417939332477,"21":-0.4135669287766986,"22":0.16871507106252395,"23":-0.19520542752026365,"24":0.42201418596413826,"25":0.0396851499126025,"26":-0.007412849322211938,"27":0.35731559250756884,"28":0.2220610212158637,"29":-0.5935197359264448,"30":0.5629376851336214,"31":-0.17446682251598777,"32":-0.7580995330298046,"33":-0.4486441722144664,"34":-1.366260292385476,"35":-0.32911918804512813}},{"sx":1,"sy":1,"depth":36,"w":{"0":-0.8663203130887702,"1":0.1663335705158202,"2":1.4267852801315748,"3":0.0886205186565646,"4":0.15767600150576633,"5":0.5869986818887518,"6":0.06889693313200002,"7":-0.2536900927372334,"8":-0.34072335427233286,"9":-0.09785895873959202,"10":-1.1890229977977624,"11":-0.07264980354266752,"12":-0.5297637136987896,"13":-0.9125794246072538,"14":-0.875038228428498,"15":0.27981149621260687,"16":-0.37189117730268445,"17":0.03556230163337651,"18":0.10773577118541161,"19":-0.2582009893867721,"20":-0.15971757999198022,"21":-0.03319847896144263,"22":-0.09319136182814093,"23":-0.08155708550290272,"24":-0.08440603754170056,"25":0.10175172952152735,"26":-0.143938639653159,"27":-0.16686497594777444,"28":-0.19124613840473467,"29":0.02348152147757261,"30":0.24577998878950544,"31":0.418694756571147,"32":0.1947439683706063,"33":0.30072673265544886,"34":0.08662396063958012,"35":0.2618753462692627}},{"sx":1,"sy":1,"depth":36,"w":{"0":-0.598140717241861,"1":-0.26145310020223916,"2":-0.5510597692000043,"3":-0.10733229396706723,"4":-0.35993193763463466,"5":-0.2873119679484351,"6":0.6161240359353026,"7":-0.10135035927639914,"8":-0.14313840209226872,"9":0.5428248502170075,"10":-1.6010636160519356,"11":0.35540208038516197,"12":-0.4197821549462148,"13":0.14972143499696408,"14":0.14811476379257757,"15":-0.44487114894539603,"16":0.07072756611104007,"17":0.19969550159338012,"18":-0.2001447818424286,"19":-0.44134214849597886,"20":-0.30516904486205854,"21":0.05509879224148176,"22":-0.1714274035432223,"23":0.3830910339453745,"24":-0.007322243806777812,"25":-0.14503916025674554,"26":-0.7735071865592683,"27":0.08581559155798645,"28":-0.22721932910520778,"29":0.07922616579586746,"30":-0.2261324527433141,"31":-0.48872096510215923,"32":0.33280678088314364,"33":0.4431718255308216,"34":0.5911044662633346,"35":-0.24842427833694705}},{"sx":1,"sy":1,"depth":36,"w":{"0":-0.567281921720573,"1":-0.7444855840022169,"2":-1.0021534085710604,"3":-0.5211533761139225,"4":0.12089119282704375,"5":0.05688879643333514,"6":-0.46023390699392747,"7":-0.009730344909503339,"8":0.5337458690158783,"9":0.15991496241086084,"10":-0.678405415645226,"11":0.07591248573728171,"12":-0.5214263313593119,"13":0.9112215839010591,"14":0.8276329791164114,"15":-0.03476616391023765,"16":-0.2944848861914767,"17":-0.25176019951409345,"18":-0.08025511566958458,"19":0.17178443596969473,"20":0.5718665034425143,"21":0.07951280890029028,"22":-0.33011196488601036,"23":-0.09791704125060212,"24":0.3605569109795306,"25":-0.15068186091976982,"26":0.10719922624808681,"27":-0.17811304841724332,"28":-0.41632736433357953,"29":-0.277718212240105,"30":-0.03457628798793686,"31":0.08714478485880765,"32":-0.056436562844039556,"33":0.5627333125372397,"34":0.16788039738598748,"35":0.26790798770691465}},{"sx":1,"sy":1,"depth":36,"w":{"0":-0.33677828305676294,"1":0.06359068291218929,"2":0.01186152682919617,"3":0.05625390834576622,"4":0.713589633780027,"5":0.2271481917780902,"6":-0.868901720891686,"7":0.30197922843942626,"8":-0.3827990196862903,"9":0.6441428498241869,"10":-0.09168195711946608,"11":-1.2647616862549373,"12":0.5660337708328532,"13":-0.12879681461386902,"14":-0.7808664847135797,"15":0.7011413017188758,"16":-0.2793542229483473,"17":-0.12531515774717117,"18":0.41794120904309817,"19":-0.22331045695944388,"20":0.2785421286781286,"21":-0.0006169202802285097,"22":-0.5987564437965261,"23":0.12592722298383507,"24":-0.3320149414438425,"25":-0.14862817784070229,"26":-0.15383538081031062,"27":-0.5462616958436021,"28":-0.10912231905001417,"29":-0.3772915379690818,"30":-0.5410652731422865,"31":0.9112054045682842,"32":-0.13349664356842755,"33":-0.3502179767653646,"34":0.08776258232485895,"35":-0.026947550403252588}},{"sx":1,"sy":1,"depth":36,"w":{"0":-0.4384674094617475,"1":0.08354585178106619,"2":-0.07655030612807842,"3":-0.17964094641085976,"4":0.15719256975025356,"5":-0.05688209624082556,"6":0.060428856985724776,"7":0.39287121625970467,"8":0.2814891261392376,"9":0.23998594525688338,"10":-0.42863435136712263,"11":-0.3929267798046131,"12":-0.45106632743264113,"13":-0.3288272534323299,"14":0.015827576867426026,"15":-0.4230064463399797,"16":-0.745799359475924,"17":-0.3913619076283324,"18":-0.5987615053859446,"19":-0.7068376424853277,"20":-0.1062024816261277,"21":-0.9979763723004416,"22":0.2514339097142333,"23":0.37872104111005406,"24":0.05072028166917705,"25":0.13371902244043712,"26":-0.0067904214733402225,"27":0.18253731252492308,"28":-0.14777004563937948,"29":0.08857008859793762,"30":0.5167675924296233,"31":0.1361787372672531,"32":0.22370246619807274,"33":0.1959376131396105,"34":0.14845176247154035,"35":0.03851190307947813}},{"sx":1,"sy":1,"depth":36,"w":{"0":-0.38034283862283075,"1":-0.5100201206592142,"2":-0.16828221214694564,"3":0.4011217785526795,"4":0.6358892716430806,"5":-0.2304927919008974,"6":0.3262489645957662,"7":-0.9513285982108821,"8":-0.9672912648731137,"9":-0.0050026606061598896,"10":0.09568891349839324,"11":-0.005186445671857918,"12":-0.2676360433920924,"13":-0.04998410661266115,"14":-0.28160458500399316,"15":-0.5395091008693265,"16":-0.3931803661317348,"17":-0.21147047811648104,"18":0.15470884416923733,"19":0.1510767805306914,"20":0.1656211948673839,"21":-0.06513895355291277,"22":-0.6197203465669452,"23":-0.1880893098240352,"24":0.07313852864419854,"25":-0.018770454056097365,"26":0.6213714552692282,"27":-0.7774617696632481,"28":-0.15602682261765288,"29":0.8276392825825113,"30":-0.839924160883142,"31":-0.6431707556716227,"32":0.2298844019815032,"33":0.20522216413356173,"34":0.2842082141157356,"35":0.5794365364911719}},{"sx":1,"sy":1,"depth":36,"w":{"0":-0.26085998667586285,"1":-0.4041468928795435,"2":-1.3148513865292553,"3":-0.5011323070782427,"4":-0.09775513647728197,"5":0.6927712204918258,"6":0.6905953513517253,"7":0.43307216909507995,"8":0.48123221447341685,"9":0.5023159408358235,"10":0.30915438531287087,"11":-1.4090469235268575,"12":0.573653041002906,"13":-1.6368201880579498,"14":-1.2565753783005427,"15":-0.3053641420079709,"16":-0.055248352756727855,"17":-0.16096037840982114,"18":-0.00759872007610285,"19":-0.3324075244421292,"20":-0.07619327446726754,"21":-0.6740848992422868,"22":-0.04741362138958849,"23":-0.2715116827311357,"24":-0.49057174167772677,"25":-0.14553924845241567,"26":-0.16249933021747592,"27":-0.4619521869451568,"28":-0.19084663050294695,"29":-0.609412384496039,"30":0.05727393936044571,"31":-0.3680934926803279,"32":0.5935976173486566,"33":0.6083714484000872,"34":-0.4828409317742595,"35":0.8775884298478813}},{"sx":1,"sy":1,"depth":36,"w":{"0":-0.7704101641028532,"1":-0.3649773136640939,"2":0.2204777062626779,"3":-0.16428111348435345,"4":-0.036044089458455386,"5":-0.028739102093570133,"6":-0.1914190056749159,"7":0.016930668337556593,"8":0.7062671396110024,"9":-0.05144859226575499,"10":0.4482778124148247,"11":0.22348488977441539,"12":-0.31934319795307015,"13":-0.5492607036865815,"14":-0.8840816395304224,"15":-0.5486207001824743,"16":-0.1861261690134677,"17":-0.1971721427444839,"18":-0.1707118499857685,"19":-0.0953504284911518,"20":0.7527186210565256,"21":0.22562136673972713,"22":0.31950488368355423,"23":0.4299890808327019,"24":-0.22254255566234143,"25":-0.22469462488326825,"26":-0.392508026572618,"27":-0.1517027126181317,"28":-0.7389082814822817,"29":-0.8048020529559207,"30":-0.00044645353719241027,"31":-0.4232180791970135,"32":-0.282978027352434,"33":0.8790009304366163,"34":-0.5584689936892281,"35":0.04049945299218108}},{"sx":1,"sy":1,"depth":36,"w":{"0":-0.5136623224008312,"1":-0.09181457791291954,"2":-0.39836104538684347,"3":-0.37069229899615586,"4":-0.9028503491912993,"5":-0.4513505263641218,"6":0.6804693012009396,"7":0.10788594984479064,"8":-1.1568567543099681,"9":-0.47438332275478956,"10":-0.03369293246254418,"11":0.48909230331867853,"12":0.4015174934381729,"13":0.0838228554494216,"14":0.0064064044429290885,"15":0.48630233945141504,"16":-0.3914242106691694,"17":-0.11453195408485821,"18":0.010766294608906605,"19":-0.19371773599633177,"20":0.007928500767993278,"21":0.2021488348823806,"22":0.17403674899516078,"23":0.1119145573293144,"24":-1.14012178707838,"25":-0.017352113305571567,"26":-0.3120506933847446,"27":0.15903446739514623,"28":0.29155928415893595,"29":-0.41343558605952013,"30":-0.22056431646309205,"31":0.17582908174015746,"32":-0.8665308733538741,"33":-0.6065792156063172,"34":-0.14057733379821735,"35":-0.45960759341232127}},{"sx":1,"sy":1,"depth":36,"w":{"0":-0.1521775732888148,"1":-0.4047337557308611,"2":-0.06055159561290767,"3":-0.3332717719698407,"4":-0.40039244060337115,"5":-0.2211655041452413,"6":-0.7006080087688515,"7":-0.5190721888450994,"8":-0.5280239938017841,"9":0.1679987892351849,"10":0.04706907498930448,"11":-0.0673874985272952,"12":0.3182531973021656,"13":0.3618546685934343,"14":0.45127099239533325,"15":0.1572281525387786,"16":-0.5831919318356615,"17":0.467713454586021,"18":0.43712104282531455,"19":0.5211449889658137,"20":-1.2778950344289313,"21":-0.11884322449416637,"22":0.7501028760747545,"23":0.5068106939525516,"24":-0.940082926234966,"25":-0.7393435130703085,"26":0.14952888914544946,"27":0.5659853253485447,"28":-0.2540328410576661,"29":-0.6504973795558697,"30":-0.1525586976080865,"31":0.12159361148409378,"32":0.34286765920098594,"33":0.4652577326447304,"34":0.6431838893041416,"35":0.19449222797831323}},{"sx":1,"sy":1,"depth":36,"w":{"0":-0.04090580119720293,"1":-0.1984865346773028,"2":0.4292563567164075,"3":-0.012497664746902228,"4":-0.403158645571052,"5":-0.26856302547850847,"6":0.009959847669005838,"7":0.24417568971166193,"8":-0.09054743313171591,"9":-0.6313667286516329,"10":0.019567186436682298,"11":0.33620775848007123,"12":0.002547437477763024,"13":-0.2641012186165766,"14":0.1696744539706505,"15":-0.3877845299317594,"16":0.04783874650543388,"17":-0.43225804794497535,"18":0.21191454576681418,"19":0.09356838851898501,"20":-0.12189535636648482,"21":-0.5416815904655167,"22":-0.4957682703549167,"23":0.3509327508877234,"24":-0.004871150402843323,"25":-0.36166424876286596,"26":-0.06253921218736583,"27":0.3319595177656398,"28":-0.09524011984248908,"29":0.01920252121125498,"30":0.45328876953670666,"31":0.12467438331615262,"32":-0.25218675387575423,"33":-0.21818913954241778,"34":-0.3954780770726101,"35":0.49791115506665495}},{"sx":1,"sy":1,"depth":36,"w":{"0":0.42603945438053004,"1":0.308383340485976,"2":-0.38977831621876746,"3":0.3545958911835576,"4":0.3422051270756189,"5":-0.06266046873949188,"6":-0.40441639349079883,"7":-0.10828682689036143,"8":0.22722314839739746,"9":-0.3192934273697809,"10":-1.9069177482753792,"11":0.027990143791757287,"12":-0.33522398033555373,"13":0.15775162595557535,"14":-0.08649761980203256,"15":-0.41014464427108976,"16":0.37026304401199317,"17":-0.008015532187855175,"18":-0.006883073336511752,"19":0.5007771170772589,"20":-0.046809283418280404,"21":0.371194759553054,"22":0.4850943315260794,"23":0.18018253971047604,"24":-0.48914688784868166,"25":-0.013290983163089487,"26":-0.9300503266907835,"27":0.07680048787476454,"28":-0.45649798117069607,"29":-0.8531582951869691,"30":0.24479262946415478,"31":-0.1856026790756399,"32":-0.24677344546186544,"33":-0.055472805627428685,"34":0.016636063926030384,"35":0.4394416433914984}},{"sx":1,"sy":1,"depth":36,"w":{"0":-0.7607480754354387,"1":-0.7114446308192612,"2":-0.7850769515105726,"3":-0.1263292167261601,"4":-0.15200792518514122,"5":0.27855935524450925,"6":-1.4968683770071451,"7":-0.37886433031204236,"8":-0.11352619597520498,"9":0.03103958479010918,"10":0.38160152277833853,"11":0.2671849502204235,"12":0.38365502400052354,"13":0.1260349673138717,"14":0.008375708871435834,"15":0.5179443687305719,"16":-0.12059304373390213,"17":0.5813266942513747,"18":-0.6391720980834685,"19":-0.6509419011998903,"20":0.5255030123012638,"21":0.11870228246433524,"22":-0.5842132653649951,"23":-1.1534750960017175,"24":-0.035846937702877626,"25":0.2562481993590361,"26":-0.03556985376584261,"27":-0.07135114110974311,"28":0.06341905612463436,"29":-0.21713765397193277,"30":-0.3027718824011874,"31":0.3271409047386248,"32":0.36800582824126105,"33":0.5471337245435269,"34":0.4577324546666968,"35":-0.043535424371878406}},{"sx":1,"sy":1,"depth":36,"w":{"0":-0.3360842950086902,"1":0.10480557644481805,"2":-0.5206175541413274,"3":-0.08659755980557676,"4":-0.015869567724968135,"5":-0.5589889716789849,"6":0.16349592910903368,"7":0.31522368064769973,"8":-1.112719114711424,"9":-0.08702743516141823,"10":-0.16334419070680484,"11":0.31182630573425907,"12":0.6535288808125372,"13":-0.489479678063397,"14":-0.28630463490502933,"15":0.4019793205692691,"16":0.3838253217075818,"17":-0.3989314890280186,"18":-1.0481071084316524,"19":-0.1810181170228418,"20":-0.12976936713339718,"21":-0.5312160256186976,"22":-0.21018946250096218,"23":-0.9852284671043902,"24":0.1528558519030569,"25":0.30900796660089014,"26":0.22788154299365632,"27":0.07666169603102704,"28":0.5309266488831962,"29":0.870165364194095,"30":0.3663757418079401,"31":-0.14978811644890475,"32":-0.058834417697484,"33":0.000889675070679856,"34":-0.1487323560514082,"35":0.3225884934513719}},{"sx":1,"sy":1,"depth":36,"w":{"0":-0.46922442785218893,"1":-0.6194667320349394,"2":-0.12399982293841724,"3":0.27859733381981416,"4":-1.47618836872863,"5":-0.06636879458064368,"6":0.09609461218803621,"7":0.34975580337991863,"8":-0.6154796371482554,"9":-0.3401307410756581,"10":0.190170177758464,"11":0.08560658886033232,"12":0.1811363171970887,"13":0.07629697047620758,"14":0.5181052897445818,"15":-0.1265601326818423,"16":-0.8315166386490876,"17":-0.6202981419576131,"18":0.5517222626649485,"19":-0.1224249038544511,"20":-1.029558907257044,"21":-0.09221141718918634,"22":0.25737495578637937,"23":0.012508278226367917,"24":-0.4918489392094184,"25":0.06572371937115853,"26":-0.243475783885412,"27":-0.1457336274115769,"28":0.5492560494272416,"29":0.42382828367628866,"30":0.23561847485861143,"31":0.5369343034851441,"32":-0.4973443775675237,"33":1.5350824483926513,"34":0.1310396207679875,"35":0.6190672372172422}},{"sx":1,"sy":1,"depth":36,"w":{"0":0.48302145588846235,"1":-0.8751554295043973,"2":0.09289296859071099,"3":-0.12306704937438685,"4":-0.3513959332560814,"5":-0.7983980243402717,"6":-0.42075343885891625,"7":-0.4187385855803067,"8":-0.04849745820204185,"9":0.6577462097193363,"10":0.47121427875054,"11":0.3837370544715865,"12":-0.09700541071609195,"13":-0.4780662064908967,"14":0.10309683832273046,"15":-0.017622541012337328,"16":0.524378039258015,"17":-0.5282814318046943,"18":-0.2627070338792219,"19":0.07055892854715008,"20":-0.2513909075162123,"21":0.26215749688461126,"22":0.06141204928490698,"23":-0.5886661927301863,"24":-0.35595107470268506,"25":0.06514676654048326,"26":0.40121142918572356,"27":-0.6732257294497923,"28":-0.13892893185402239,"29":0.05625043272717066,"30":0.0006576698317311779,"31":0.1280079635651126,"32":-0.35250792392927766,"33":0.49758350104238463,"34":0.6325381496737741,"35":-0.28139680098877445}},{"sx":1,"sy":1,"depth":36,"w":{"0":-0.11853144349266169,"1":0.7550709884832897,"2":0.32920020663813193,"3":0.18481990356291542,"4":-0.22197566004668703,"5":-1.4395651011787278,"6":-0.5055794274224367,"7":-0.23835586714159687,"8":-0.1911352613758462,"9":0.4850413221559691,"10":-0.05119561453869198,"11":0.1307446905879208,"12":0.6289134820584511,"13":0.38092699710951183,"14":-0.47547723826280375,"15":-0.5072057803674301,"16":0.052100956475205414,"17":0.05033140606101482,"18":0.003382999499846826,"19":-0.31472235250549335,"20":-0.34818071185368504,"21":-0.6632390836804151,"22":0.06519137568489737,"23":0.24584191991432303,"24":0.16418059344834413,"25":-0.03120907859146053,"26":0.13007715889271126,"27":0.34472206446854564,"28":0.39381865588009185,"29":-0.08298717238504444,"30":0.2697418190301149,"31":0.11382121278771523,"32":-0.08205420581815272,"33":0.5959230013156145,"34":0.0970692173692418,"35":0.2531445088580362}},{"sx":1,"sy":1,"depth":36,"w":{"0":-0.22700707443336018,"1":-0.5316878096423461,"2":-0.2516416079091016,"3":-0.31571003166993844,"4":-0.7622639880743174,"5":0.08027383684306592,"6":0.3078286805660038,"7":0.20698612529018418,"8":0.3305430539298485,"9":-0.7693560952044741,"10":-0.7890834926717568,"11":0.02558476437821007,"12":0.4001908371753554,"13":0.4844432268970834,"14":-0.16515350738750456,"15":-0.1124842809260702,"16":-0.08000542792142122,"17":-0.6806711693610598,"18":-0.23473811795047753,"19":0.15340425244288056,"20":-0.21202319653906346,"21":-0.19363656568878146,"22":0.04040904779252127,"23":0.4411313787697763,"24":0.1715426501598046,"25":-0.05687827364543895,"26":-0.38731603734669745,"27":0.2193958834168268,"28":-0.04327155689316907,"29":0.13962028179006358,"30":-0.022986267324941863,"31":0.3205320329886405,"32":0.5736695915823844,"33":0.2441288615314044,"34":0.522989834880035,"35":-0.08419087538399839}},{"sx":1,"sy":1,"depth":36,"w":{"0":0.17101123568472218,"1":-0.38838682850119727,"2":0.8060829658238979,"3":-0.42649672840858677,"4":-0.04299839190612444,"5":-0.13547872692308757,"6":-0.6127358555427395,"7":-0.43277350427748973,"8":0.13951285142069678,"9":0.5313686036095043,"10":-0.5680063259030513,"11":-1.4406205898550075,"12":0.02798464786516451,"13":0.1240561041720382,"14":-0.5747274506528772,"15":-0.6096304755709658,"16":0.02260690758062612,"17":0.6815393748321975,"18":-0.2588494540579286,"19":-0.6652515853642718,"20":0.282229111501753,"21":0.18245334171738767,"22":-0.12022384983322858,"23":-0.43680795321440846,"24":0.5429794031715932,"25":0.01191852977852253,"26":-0.3384743697922852,"27":-1.3001168743407783,"28":0.23702493639107308,"29":-0.3216784067728249,"30":0.10084593181861541,"31":-0.18555065304784896,"32":-0.18896299939701952,"33":0.023659752536997213,"34":-0.5461791642260589,"35":-0.010613292421304115}},{"sx":1,"sy":1,"depth":36,"w":{"0":0.3626644076932685,"1":-0.7858680308665199,"2":0.12319349073029624,"3":-0.034969943907622376,"4":-0.7491483996695173,"5":-0.480846928777673,"6":0.3348939280005365,"7":-0.4801649818620574,"8":0.14806327884187526,"9":-0.8780688948365741,"10":0.06646528588360674,"11":-0.09123128582426616,"12":0.17877214252892715,"13":0.7053026837535634,"14":-0.06768890873757417,"15":-0.2562025671139519,"16":-0.056497734855435494,"17":-0.330398510742086,"18":-0.30307878430288365,"19":-0.4699246087778324,"20":-0.33148094402045253,"21":-0.13135811845686493,"22":0.4961004348497096,"23":-0.041568279113371756,"24":0.1278196150837384,"25":-0.32063170369938243,"26":-0.1991700733471733,"27":-0.15442624265498228,"28":-0.1274465017779113,"29":-0.31102150926862737,"30":0.4212337416089009,"31":0.213153333669982,"32":0.32169791650270446,"33":-0.12739081511751182,"34":0.2538832208583753,"35":0.08593353231223519}},{"sx":1,"sy":1,"depth":36,"w":{"0":0.032234995036205444,"1":0.32648541665430175,"2":-0.19991377219613063,"3":-0.7056862416263497,"4":-0.08620028626478908,"5":-0.4375868410365827,"6":0.307932967175253,"7":-0.46729847082306347,"8":0.3872866864694519,"9":0.35076398310357015,"10":-0.1641117525133389,"11":0.05116668639278716,"12":0.3597488208931439,"13":0.7423578629114801,"14":0.1402552743685012,"15":0.08804455657049556,"16":-0.4202421819844893,"17":-0.22725188425521659,"18":0.4162512357800373,"19":0.36880601421993264,"20":0.11661204014155685,"21":0.3640425492120223,"22":-0.2268670117776275,"23":0.5319350954700971,"24":-0.9185924193223223,"25":-0.36776920172501754,"26":-0.09257888497775858,"27":-0.14864482023293174,"28":-0.19086226547161408,"29":-0.7731484699394182,"30":-0.28940511931496266,"31":-0.015566345283324134,"32":1.293958521561839,"33":1.2159457925339274,"34":-0.07393861731979302,"35":-0.0945057682695443}},{"sx":1,"sy":1,"depth":36,"w":{"0":0.4224032269348537,"1":0.5770064060878128,"2":-1.1967277483909642,"3":-0.4401426052220323,"4":-0.17902874325481438,"5":-0.07806966447673756,"6":0.14868343276429316,"7":0.07495093241269493,"8":-0.5784834343268813,"9":-0.23119639482451435,"10":0.12504934720786892,"11":-0.16591751318377929,"12":-0.16777924938496888,"13":-0.015012738635277429,"14":-0.3914755237236096,"15":-0.4675474474348806,"16":0.7690805758790632,"17":0.8115599226715494,"18":-0.3151656748264887,"19":-0.6747768291373369,"20":-0.4268958646525106,"21":0.3338868927902029,"22":0.23737817723017215,"23":0.22190868896966973,"24":-0.052879690818234265,"25":0.1747353534761701,"26":0.19823604655271929,"27":0.0013647461048355476,"28":0.12274256115596517,"29":0.07127423837687498,"30":-0.11563080112284733,"31":-0.10155903280766027,"32":-0.960415165674176,"33":-0.7812490143831069,"34":-1.2957805976084034,"35":-0.9272753534724844}},{"sx":1,"sy":1,"depth":36,"w":{"0":0.4839680816389831,"1":1.4215477995091879,"2":-0.32721559154435126,"3":-0.35603757165944394,"4":-0.37660771821071193,"5":-0.11757617069444717,"6":0.20591823104655477,"7":0.013697895557901563,"8":-0.20288975057294098,"9":-0.4312938046429753,"10":-0.25078271444613964,"11":-0.19789404189986312,"12":-0.0776899483120521,"13":0.15755013933728015,"14":-0.5457554326815018,"15":0.010146301411920551,"16":-0.12430057317587322,"17":-0.3111412409085151,"18":-0.03982981063542157,"19":0.036433013762340635,"20":-0.3115845959419578,"21":0.39716331786530823,"22":-0.18312225208443395,"23":-0.2225435564649832,"24":-0.42345402191001885,"25":0.34034360110904815,"26":0.09137883804737582,"27":-0.22298616763351392,"28":-0.28836128388917903,"29":-0.28964262759054343,"30":-0.11417471426324556,"31":0.5685106076000742,"32":0.5527808326910704,"33":0.9430621705574747,"34":-0.17028198006877313,"35":1.1664949212318856}},{"sx":1,"sy":1,"depth":36,"w":{"0":0.08502428582465761,"1":0.8174189897044774,"2":0.32197245301252714,"3":0.3704443394249988,"4":0.3774544592435336,"5":-0.10984490844293805,"6":-0.7052792489130253,"7":0.9345523119920578,"8":0.3702491868360887,"9":-0.14702288988247023,"10":0.049152133223747105,"11":0.23383655714328974,"12":0.7917292848916533,"13":0.7937023566282038,"14":0.5734885902048776,"15":0.49235058562405537,"16":-0.4232846645167677,"17":-0.04240903872387883,"18":0.21053685694672594,"19":0.22016570454273252,"20":-0.085854465078246,"21":-0.28242606978815915,"22":-0.1909693144305572,"23":-0.24359450858834872,"24":-0.10318722202634073,"25":-0.18968667942666392,"26":0.032979621662063065,"27":0.03982115943972823,"28":-0.04149138558243324,"29":0.19858302092867527,"30":-0.028401329733646972,"31":-0.03384650641592668,"32":1.1524434470194966,"33":0.15315760348443314,"34":0.45565933590691465,"35":0.5221052929232726}},{"sx":1,"sy":1,"depth":36,"w":{"0":-0.243980839880691,"1":0.13684000133781218,"2":0.3649437932472978,"3":-0.01415597227821105,"4":-0.8925515540565517,"5":-0.8902113681341609,"6":0.1265702200459833,"7":0.8033182458011902,"8":-0.6665736654322378,"9":-1.055122420655083,"10":-0.15506834510917153,"11":0.7268267719779308,"12":-0.37327397638530324,"13":-0.3551810651428958,"14":0.5544633630144254,"15":0.0793618868115796,"16":0.10362138090513505,"17":0.1675330864031596,"18":0.3679017840652094,"19":0.12573317470845113,"20":-0.11328828787747736,"21":-0.6164590106234066,"22":-0.13333953965288303,"23":-0.1759666432391197,"24":-0.45722566663539665,"25":-0.15898901639819546,"26":-0.1169957275033139,"27":0.11804249590364861,"28":-0.2237994835528923,"29":-0.08508644192433927,"30":0.3424114532598595,"31":-0.36491927567093335,"32":0.21271688527117072,"33":-0.0772145087168936,"34":0.9793996997503723,"35":0.011533086220807749}},{"sx":1,"sy":1,"depth":36,"w":{"0":0.2846182172466827,"1":0.2694994918889503,"2":0.1298573596994637,"3":0.10576539208447157,"4":0.08004847129665886,"5":0.12215100126843999,"6":0.3268874132212817,"7":0.2208000605808984,"8":0.36352075896981895,"9":0.22462619980939297,"10":0.554112498257884,"11":0.7076868443507878,"12":-0.3364962039527162,"13":-0.1129878298112808,"14":-0.5748413802034802,"15":0.19440938915653974,"16":-0.0031473376300856933,"17":0.33304200500292724,"18":-0.34840930455273,"19":-0.009115911414262207,"20":-0.07548836892006962,"21":-0.3974320707814673,"22":-0.50354004196277,"23":-0.18747485656262064,"24":-0.16330377364938434,"25":-0.06419954500123988,"26":-0.5132389524731904,"27":-0.3638886003520384,"28":-0.5250997968048391,"29":-0.47024946589898686,"30":-0.03132323275163479,"31":-0.11178679558136684,"32":1.7189174288289462,"33":0.5534330911729533,"34":2.065402880286991,"35":0.2870520335004672}},{"sx":1,"sy":1,"depth":36,"w":{"0":0.4565234126788099,"1":0.33924779311767955,"2":0.681876520929848,"3":0.0786372131352133,"4":0.7605555563996675,"5":-0.036703008196421624,"6":-0.8882690785007403,"7":-1.1470635869935286,"8":-0.3439157608276395,"9":-0.15714477851540462,"10":0.5689487051663611,"11":-0.07700290162156839,"12":0.4764747621265307,"13":0.09908041735417021,"14":-0.4909860802201196,"15":0.9372871741166229,"16":-0.04686174651491987,"17":-0.021123265654158827,"18":0.2674871485315679,"19":0.20723081564696166,"20":0.1625987967154746,"21":-0.03714969613509844,"22":-0.4256220443880006,"23":-0.2931390926242828,"24":0.13943883571400395,"25":-0.2161934095892555,"26":-0.5592247767378707,"27":-0.459450873019119,"28":0.035183739787945076,"29":0.04155708256924708,"30":-0.31633534627181026,"31":0.20035549423548882,"32":-0.19752063560207597,"33":0.4676324472539572,"34":0.06080486786974673,"35":-0.12793082126312652}},{"sx":1,"sy":1,"depth":36,"w":{"0":-0.4471791379545591,"1":0.3411254634375186,"2":0.5990200476364667,"3":0.05327539312354811,"4":-2.2511827914147093,"5":0.3296541946694676,"6":0.21947046924218527,"7":-0.1748156854967483,"8":-1.4583212924973386,"9":0.362979195584177,"10":0.14941670410904828,"11":0.010941799924126465,"12":0.0073141593958935556,"13":0.5590442169829059,"14":0.3858049295919636,"15":0.4624488387077743,"16":-0.08999772838030799,"17":-0.29280623930164207,"18":-0.2590806478850776,"19":0.02409808425664245,"20":-0.5112530804374666,"21":-0.238057500578817,"22":-0.41830228823408105,"23":-0.2635914826938238,"24":0.14878853279133145,"25":-0.2641348666376745,"26":-0.2982028953602665,"27":-0.09953014490666963,"28":0.008937057345978118,"29":-0.11313735322273918,"30":-0.18293314257384777,"31":0.3769109334492133,"32":1.5007670483012387,"33":-0.22082169424965242,"34":1.3128592715505638,"35":-0.410930447569303}},{"sx":1,"sy":1,"depth":36,"w":{"0":0.028184894837011747,"1":-0.00602186443160426,"2":-0.21717893519272063,"3":0.12259365456630558,"4":0.4403994462210771,"5":0.1963950467342344,"6":-0.1319662990028802,"7":-1.7341339187007239,"8":-0.14418493711410454,"9":0.5115865294340977,"10":-0.3260549555146129,"11":-0.5165866550890896,"12":-0.22279547855267437,"13":0.6691736098198038,"14":-0.10889083601156678,"15":-0.37902814626576453,"16":0.277127741162653,"17":-0.365039942375507,"18":-0.28577525465197107,"19":0.022324073653752812,"20":0.3410620069308927,"21":-0.3304657961098601,"22":0.18459685990358063,"23":-0.8418933437678418,"24":-0.36845636751220606,"25":-0.33566623088611547,"26":0.21908034268221727,"27":-0.14727361160315536,"28":0.14799774512928568,"29":-0.12932757466859654,"30":0.040096726726982716,"31":-0.5802374659831195,"32":0.8039970742365056,"33":1.390633850860036,"34":0.035205965986447714,"35":0.8573049497362413}},{"sx":1,"sy":1,"depth":36,"w":{"0":0.2657566567769639,"1":-0.05103604486856632,"2":0.5059475899531264,"3":0.025675952000934154,"4":-0.6666402738784678,"5":-0.0558024176148861,"6":-0.6899468010869507,"7":-0.1435893681837404,"8":0.4860271508925769,"9":-0.3797805685371749,"10":0.18395000613305304,"11":-0.2144552057681628,"12":0.11562023840454867,"13":-0.5539180795032241,"14":-0.9782551700917075,"15":-0.25039243130021627,"16":0.5959625763502584,"17":0.14994081820334007,"18":0.49444608482422553,"19":0.3887162140055761,"20":-0.19437075402825127,"21":0.45673485692367355,"22":-0.7454387882366901,"23":0.2208975509088412,"24":0.16833729860361094,"25":-0.406452254291976,"26":0.05804160343672458,"27":-0.6893619791029733,"28":0.12307048168085777,"29":-0.6302442150350002,"30":-0.8084450774913291,"31":-0.7374705276832594,"32":0.03485773318795244,"33":0.6837448369135198,"34":-0.02000890966834872,"35":0.6897217658312317}},{"sx":1,"sy":1,"depth":36,"w":{"0":-0.04135427633846996,"1":-0.2720892959729637,"2":-0.4563602595551843,"3":-0.08997850785960912,"4":-0.23119245883631973,"5":-0.21967515108483313,"6":-0.6241018982425596,"7":-0.3620630356752449,"8":0.4826654461427074,"9":-0.8929677322444229,"10":0.30035523711380174,"11":-0.009934382491428985,"12":0.11761139459502822,"13":-0.2492338159401762,"14":0.07997111042588301,"15":-0.053462914079648906,"16":0.375054705193651,"17":0.21411062601089142,"18":-0.13069018480782163,"19":-0.26363791082660326,"20":-0.05508053383656871,"21":-0.13971721841288828,"22":-0.5034426980559539,"23":0.08691551941595257,"24":0.19625061502702953,"25":-0.37069681961374157,"26":0.09665420766467456,"27":-0.03138640867677273,"28":-0.24165099642357,"29":-0.46798474988329836,"30":-0.22447797110728293,"31":0.3767598490968723,"32":-0.4772442796924075,"33":-0.0007288853491463869,"34":-0.2659645700063143,"35":0.17456421896255322}},{"sx":1,"sy":1,"depth":36,"w":{"0":0.20885197168154723,"1":-0.40024581457291336,"2":0.3560722188296203,"3":0.37708183087554925,"4":-0.08269899272496684,"5":-0.5343902299780047,"6":0.13860511501446923,"7":0.6877424464242572,"8":0.09289365991494254,"9":0.20694848823369547,"10":-0.0029627279212188244,"11":-0.2761122310191045,"12":-0.6585808557099125,"13":-0.11401121515585778,"14":-0.5096375437598798,"15":0.48237214103037956,"16":0.4461845410198731,"17":-0.08631087632818935,"18":0.6039896631490687,"19":0.41693563799953853,"20":0.23223990908748843,"21":-0.20339377257013663,"22":-0.46351448466985684,"23":0.12499358710439602,"24":0.19981676226452436,"25":0.1248903205197207,"26":0.1143389964949176,"27":-0.23852908225982883,"28":-0.1839101003085859,"29":-0.7200249102239514,"30":-0.02237280342367057,"31":0.5400286416463267,"32":-1.199108868761428,"33":-1.0343598635850384,"34":-0.19977333033699546,"35":-0.8894852327091388}},{"sx":1,"sy":1,"depth":36,"w":{"0":0.35642256892265867,"1":-0.574871546843702,"2":0.08531032395060231,"3":0.007623178690409714,"4":-0.4594810497754174,"5":-0.36976830698156243,"6":-0.3184808964395573,"7":-0.19459897671732673,"8":-0.26648576737470836,"9":0.3285588374441106,"10":0.29630800611867103,"11":-0.29424446815538075,"12":-0.46235823897983064,"13":0.08829069662672623,"14":-0.30634295513654,"15":0.008802263835386676,"16":0.18012407462267066,"17":-0.5805489800851438,"18":0.15262027234449563,"19":-0.39368328910428746,"20":-0.19839687987809843,"21":-0.9023489396610019,"22":-0.591366834467745,"23":0.44191114476763055,"24":-0.784471713852321,"25":0.25996406009662565,"26":0.46941913105329885,"27":-0.039989770752913545,"28":-0.7606238563059483,"29":-0.16848511283007,"30":-0.01777093936817666,"31":0.09309031699503836,"32":-0.02678232526177129,"33":0.16542258244614166,"34":-0.06783879915450741,"35":0.4539533928322771}},{"sx":1,"sy":1,"depth":36,"w":{"0":0.09264308768491059,"1":0.22773251954906068,"2":0.4788257840789225,"3":-0.13377709749607694,"4":-0.01712873890319301,"5":0.2704587740220927,"6":-0.036185569367543045,"7":-0.06397067623370774,"8":0.5301067971039469,"9":0.09454616092231331,"10":-0.39085830504975394,"11":-0.16134156308974884,"12":-0.49865717959641337,"13":0.4285011650095726,"14":-0.27614597330881346,"15":-0.24565729030695993,"16":-0.08383867303997102,"17":0.012114471386151954,"18":0.6586506433505435,"19":-0.08864667835679087,"20":0.3289886620156325,"21":0.11584808402811977,"22":0.25659301937490525,"23":0.39926627201534515,"24":0.3076774709887839,"25":0.2679539033307593,"26":0.21268546534560318,"27":0.3280626887809755,"28":0.01232428626082165,"29":0.21298896338375553,"30":0.16750089693580986,"31":0.20102603336566385,"32":-1.5719527229343446,"33":-1.4545906166903833,"34":-1.8958429615435886,"35":-1.7189068002358565}},{"sx":1,"sy":1,"depth":36,"w":{"0":-0.2150960492102612,"1":0.41265158768915283,"2":-0.754857621682844,"3":-0.3059326484098053,"4":-0.4538727500082285,"5":-0.30523161463760645,"6":0.2483432044221535,"7":0.5113498682307939,"8":0.6211950003212607,"9":-0.5095096481855871,"10":-0.3161765084288415,"11":-0.007642162209104838,"12":-0.016608126203627577,"13":0.1515565093466395,"14":-0.018043449005014353,"15":0.5228297482007329,"16":0.12257866732248374,"17":0.470686584378189,"18":-0.4191767911331349,"19":0.15584373852484532,"20":-0.26904937400881845,"21":0.1225341365967291,"22":-0.164026664804881,"23":0.1922692635171197,"24":0.4365112585145147,"25":-0.2969733896678946,"26":-0.33736816281321064,"27":0.19111772393502696,"28":0.22173237907662682,"29":-0.013568768543289898,"30":0.02009396595883138,"31":0.3839550112294642,"32":-0.4300534854441865,"33":-0.318160119159735,"34":-0.7353232655195527,"35":-0.2132130712477442}},{"sx":1,"sy":1,"depth":36,"w":{"0":0.4061628703248845,"1":0.1784612763009239,"2":0.3969277516606417,"3":0.43474974217630546,"4":0.4131562092681261,"5":0.38641384718145827,"6":0.3476698251916047,"7":0.3989359314675108,"8":0.4433331583766233,"9":0.26057320728299566,"10":0.47570800285398357,"11":0.25062549116421473,"12":0.4986021435124163,"13":0.2660562509981947,"14":0.24377934684530056,"15":0.2681061572192813,"16":-0.3271780404210186,"17":-0.1553774338750305,"18":-0.32889216337207766,"19":-0.3578122585202144,"20":-0.4105028333647643,"21":-0.40598081971374655,"22":-0.39680163190256246,"23":-0.32608890886464326,"24":-0.3335256196293858,"25":-0.2817141133875909,"26":-0.47002668640925094,"27":-0.05203120253293074,"28":-0.15100760494735244,"29":-0.03850630783335166,"30":-0.35240871503095345,"31":-0.14652067614905323,"32":-0.8745986065469632,"33":3.332202727815423,"34":-0.40856979218079115,"35":3.166694219384577}},{"sx":1,"sy":1,"depth":36,"w":{"0":-0.3477343838026645,"1":-0.04742196266616305,"2":-0.04631607599527848,"3":0.16747981255898328,"4":-0.6687385172984109,"5":-0.17538133022451802,"6":-0.06461678144749693,"7":-0.27749540477652007,"8":-0.30974750131757084,"9":-0.8735642222014649,"10":0.22641421712502593,"11":-0.152867032327959,"12":-0.5164586101941712,"13":0.08134499942514199,"14":-0.5583744558640378,"15":0.11662332696016625,"16":-0.007368849622747452,"17":0.18304688144312323,"18":0.31634742447805,"19":-0.0687299688410552,"20":-0.1183874721859735,"21":0.18957556387522662,"22":0.25689544732592656,"23":-0.022068737784815707,"24":-0.6226083006712192,"25":-0.8471910584770478,"26":0.3259381611015413,"27":0.09642519211779456,"28":-0.7344599590023185,"29":-0.4375990918726839,"30":0.06999948064645284,"31":0.07286751566421747,"32":-0.6143706967241,"33":-0.5306063966918834,"34":0.45957511458756767,"35":0.49113184534931015}},{"sx":1,"sy":1,"depth":36,"w":{"0":0.6825976952257209,"1":0.8539348828137255,"2":-0.09606160366473773,"3":0.03742268223980061,"4":0.43462014343413696,"5":0.4207765044174701,"6":-0.04903079148874099,"7":0.05889278718354385,"8":0.1044635846743567,"9":-0.3190893213759085,"10":-0.268959111180959,"11":-1.2485121109368083,"12":0.24912001799545655,"13":0.23832714954966278,"14":-0.2228853683604123,"15":-0.4075340717445125,"16":0.23478879469937994,"17":0.11382495081181888,"18":-0.8024027650096796,"19":0.023414452993955552,"20":0.38132057652543777,"21":-0.40969225779486906,"22":-0.375195027220362,"23":-0.3801174570160773,"24":-0.2946605011631835,"25":0.043263805990428,"26":-0.04122433182777086,"27":-0.25003863627515394,"28":0.04409549443266086,"29":0.30574464159330855,"30":0.35961916830575014,"31":-0.18343226192396533,"32":0.8134613467345128,"33":0.5977687980973143,"34":0.2048789187452522,"35":0.43951864504181554}},{"sx":1,"sy":1,"depth":36,"w":{"0":-0.723832573344933,"1":-0.10750145462728122,"2":0.337633443251429,"3":-0.6505901253503331,"4":0.034058334781727394,"5":-0.545039384110846,"6":-0.13331341973016478,"7":0.28298154152166943,"8":-0.10241478553261472,"9":-0.020933296035661887,"10":0.2694092677473689,"11":0.47176213230447533,"12":-0.3216101482568976,"13":-0.4343539518131546,"14":0.29340744238448285,"15":0.3239537919958746,"16":0.30959401938440656,"17":0.6366411044763249,"18":0.5854220238490134,"19":-0.09353197546445033,"20":0.886789573219481,"21":0.34827071099103113,"22":0.0879420166639867,"23":0.3281732568615707,"24":0.36583672068089607,"25":0.3165569832109835,"26":0.054288734579830945,"27":-0.10886025942233069,"28":-0.37720419243121395,"29":-0.5936656743698772,"30":-0.2002436647034302,"31":-0.2862605546379856,"32":-0.8322287218644475,"33":-1.5334407198399977,"34":-1.141463582243803,"35":-0.7647084840186918}},{"sx":1,"sy":1,"depth":36,"w":{"0":0.24484310364847514,"1":0.8028818814550845,"2":-0.13561274859487266,"3":-0.2548450448201262,"4":-0.22040196039356355,"5":0.40827564775157293,"6":0.08892385465270851,"7":-1.0276860105138064,"8":-0.44656671370358364,"9":0.3543617341408094,"10":-0.005627863962538103,"11":0.39675653944521033,"12":0.041854176183356434,"13":0.12176070289284707,"14":0.6759063988249794,"15":-0.24212852930623577,"16":0.24380558275191763,"17":-0.2339000252959901,"18":0.2082563417292484,"19":-0.4057293140426325,"20":0.2530006929886305,"21":-0.1510765710652468,"22":-0.2900872107380774,"23":-0.011947252274606378,"24":0.05267489745372432,"25":-0.7524593921489152,"26":-0.26235221231190836,"27":0.6711718835725075,"28":0.11695420895946863,"29":0.12982488960896357,"30":-0.09534982111821737,"31":-0.38083258551584753,"32":0.9102213886388842,"33":-0.42795879363646033,"34":0.21622628182094852,"35":-0.6871315987877061}},{"sx":1,"sy":1,"depth":36,"w":{"0":-0.3692255312942343,"1":0.5541026767106059,"2":-0.881437868808631,"3":0.2403971573951637,"4":0.35298180253267686,"5":-1.7542238193618727,"6":0.41667110922339873,"7":-0.30930491956345807,"8":0.17373617686764314,"9":0.21498741323799211,"10":-0.14888720649012543,"11":-0.14525602887247163,"12":0.0072873691807267835,"13":0.06750854357376185,"14":0.08211781375252379,"15":0.21237152095452208,"16":0.15914150638523045,"17":0.16930789158640197,"18":0.24490209392598902,"19":0.46404432239479915,"20":-0.25494824793390153,"21":-0.44191361979976124,"22":0.21058536147293,"23":0.20298481014448447,"24":0.1722516943639772,"25":-0.28058785672218006,"26":0.02300376845287458,"27":0.23811410457097482,"28":0.006984891709252333,"29":-0.10224462347688713,"30":0.018725462758829914,"31":0.22689246814263397,"32":0.25711780203494233,"33":0.27413158287625106,"34":-0.0315299812665636,"35":-0.013465487511272555}},{"sx":1,"sy":1,"depth":36,"w":{"0":0.24076705332332238,"1":0.15828258450507626,"2":0.41884152405797015,"3":-0.5549985035621593,"4":0.25882079069274083,"5":-0.2134980938750889,"6":-1.6957004813104262,"7":-0.08369267842743133,"8":-0.0915746723047791,"9":-0.15774981962644807,"10":-0.46188549837384424,"11":0.43601192760723173,"12":-0.33614566052327766,"13":0.005025982885620652,"14":-0.1265550097835657,"15":-0.33570421738444234,"16":-0.3931957439286946,"17":-0.20816980072317534,"18":0.009050634491016797,"19":-0.11494538534185599,"20":0.07504522860804454,"21":-0.5158989635481329,"22":-0.4651010169366509,"23":0.08678121576395727,"24":0.06961307068313684,"25":0.14323579447811596,"26":0.1890031356190791,"27":0.257754583422848,"28":0.24869704541897356,"29":0.5124573419719707,"30":0.15622462530621214,"31":0.17239134626494185,"32":0.737499259772008,"33":0.24589146120060096,"34":0.8490368055723079,"35":0.36265059731405885}},{"sx":1,"sy":1,"depth":36,"w":{"0":-0.5182698984184823,"1":-0.8227341507035923,"2":-0.7228892942763749,"3":0.13399959269435835,"4":-0.09892707392720135,"5":0.3480171761475556,"6":-0.597527925928057,"7":-0.4827375348397706,"8":-0.3277711418155518,"9":0.6248080567838502,"10":-0.3537356003373456,"11":-0.42175099723271325,"12":0.1199461916983698,"13":0.44185706610567693,"14":-0.02713354456081222,"15":-0.023772235440018406,"16":-0.08720643324078176,"17":-0.5686948893038668,"18":-0.3497366968893999,"19":-0.2938945816246099,"20":0.4224683006289007,"21":0.05418236103392646,"22":-0.31796947239621043,"23":-0.2767875620155214,"24":-0.07460358017781621,"25":0.0468098449026118,"26":-0.17184443837964083,"27":-0.32398027120962786,"28":0.26959423957496603,"29":0.306180781620108,"30":-0.7807035192701365,"31":-0.28449230875089576,"32":-0.31878944647699475,"33":0.06498161468673261,"34":0.45964230690322766,"35":-0.14565712609131926}},{"sx":1,"sy":1,"depth":36,"w":{"0":0.009442448827776055,"1":0.41751207287509723,"2":0.9810552232740622,"3":0.8364782379045218,"4":-0.7106670988666989,"5":0.30210457458835505,"6":0.23947337894855494,"7":0.47848355927459774,"8":-1.6346005975781295,"9":-0.7897031967747176,"10":-0.012896165269152136,"11":0.2777183204377187,"12":-0.9258738966899068,"13":-1.5263669445316475,"14":-0.003801056175282321,"15":-0.15184604036302465,"16":0.5636553319801868,"17":-0.01225609923064914,"18":-0.2222550547179624,"19":0.22581838322011502,"20":0.10709716265424288,"21":-0.20447538242843916,"22":0.0642801414156736,"23":-0.37857681261452825,"24":-0.09461854020693224,"25":-0.41518845322701853,"26":-0.04217771154998737,"27":-0.23132229109660182,"28":-0.4948800939544336,"29":-0.4473506080370437,"30":0.18668660061211667,"31":-0.13256343315344304,"32":0.1705383228666425,"33":-0.20347004224023993,"34":-0.20890711789769084,"35":0.1458147967943591}}],"biases":{"sx":1,"sy":1,"depth":64,"w":{"0":0.15159039574925348,"1":0.21152882887177216,"2":0.10918712151944544,"3":0.04194005204125677,"4":0.16670956103243081,"5":0.3969764030001058,"6":0.07086957254739275,"7":0.187501592802058,"8":0.18315653173774507,"9":0.07724632358306434,"10":0.16514261875208489,"11":-0.48374905244012445,"12":0.2789383636268156,"13":0.1960018370295336,"14":0.22577767580778277,"15":0.19584671968512987,"16":0.14211713311802995,"17":-0.04326631861713276,"18":0.10388969649300943,"19":-0.06421356613636013,"20":0.13427210789235405,"21":0.16333067217816738,"22":0.11366232222864736,"23":0.06898467032990249,"24":0.16680814748974362,"25":0.17233481120952,"26":0.20163514493162857,"27":0.08345115473628922,"28":-0.011634417352892263,"29":0.1812474896941445,"30":0.093672421721645,"31":0.11681912295698822,"32":0.17186314606162936,"33":0.12023883279245513,"34":0.22196331978499098,"35":0.13378211858142192,"36":0.15167988588098055,"37":0.16702788787291797,"38":0.08001594628947693,"39":0.13850697526733477,"40":0.23059980817314382,"41":-0.13354736331613654,"42":0.21657327292148829,"43":0.25363356377404045,"44":0.14801822182049829,"45":0.3804207984442919,"46":0.1221265974671463,"47":0.22616036326087735,"48":0.28921085113506384,"49":0.15850855599204586,"50":0.11110234918759694,"51":-0.08564186983939126,"52":0.12326798949444798,"53":-0.32718792445850803,"54":-0.010444423984810438,"55":0.40219123430235565,"56":0.11127630271214117,"57":0.2225269026992626,"58":-0.1687509086477168,"59":0.12111251527127102,"60":0.15576957223991114,"61":0.2300495094834123,"62":0.11278065212115818,"63":0.11184576456280834}}},{"out_depth":64,"out_sx":1,"out_sy":1,"layer_type":"relu"},{"out_depth":32,"out_sx":1,"out_sy":1,"layer_type":"fc","num_inputs":64,"l1_decay_mul":0,"l2_decay_mul":1,"filters":[{"sx":1,"sy":1,"depth":64,"w":{"0":-0.3983921994509586,"1":0.051997315124876875,"2":0.3235168579926446,"3":0.5243157612574925,"4":0.4489133111283147,"5":0.45539732422260965,"6":0.06435264485231407,"7":0.08749393727999775,"8":-0.00726174227609426,"9":-0.23289523183869384,"10":-0.1355722040035877,"11":-0.46074705247372555,"12":0.0648505175331618,"13":-0.21333435609284374,"14":0.3190680391704087,"15":-0.06529115119895915,"16":0.20080673992220674,"17":-0.06144273563449768,"18":-0.03175974679560018,"19":-0.06546317290690619,"20":0.3201216542393077,"21":-0.3685004044208469,"22":-0.41292761737517114,"23":-0.2664729925217158,"24":-0.6491662944784192,"25":0.37114159886086634,"26":-0.03873288314626786,"27":0.07380031355283247,"28":0.5086002157789916,"29":0.040095347348319405,"30":0.42122465762457845,"31":0.10817122193586688,"32":0.030234148018953404,"33":0.421223192831088,"34":0.2560790843660881,"35":0.17807147275846436,"36":-0.5586564877953629,"37":0.09871168009389604,"38":-0.5956900754903263,"39":-0.20523768753590466,"40":0.5418553494820302,"41":-0.17256531806783007,"42":-0.13806108063450034,"43":0.2059426548411302,"44":0.7566594546913622,"45":0.10319542594935793,"46":0.07251239293478848,"47":0.1985678639067714,"48":0.07049072377534621,"49":-0.2685223495501811,"50":0.07298953184075502,"51":0.4708888716440128,"52":0.08905978845515797,"53":-1.0001640023588338,"54":-0.27654635690535195,"55":0.3965454224577752,"56":-0.08012263909761012,"57":-0.3576553583492246,"58":-0.13862646138626988,"59":-0.38200760733248157,"60":-0.4167685497480491,"61":-0.42830530385060306,"62":-0.22746914167571797,"63":-0.33219240920343857}},{"sx":1,"sy":1,"depth":64,"w":{"0":-0.1599759468894375,"1":-0.0662077125247143,"2":-0.5515300389660847,"3":-0.3153541900388737,"4":0.25912195855285863,"5":0.08672725440836161,"6":0.0005974131816325917,"7":-0.2809098835163823,"8":-0.07367449670999841,"9":-0.23167124815148338,"10":-0.30469596968777773,"11":0.015967270573117004,"12":0.04891646951227265,"13":-0.4173962745447861,"14":-0.10409303508001716,"15":-0.24083098829476401,"16":0.38837438136107477,"17":-0.16187735148718904,"18":-0.191705762889351,"19":0.611429513211639,"20":-0.38541094237913387,"21":-0.17515021785145582,"22":-0.4374935634887716,"23":-0.2854930386357902,"24":-0.2704751411146568,"25":0.5722033812499067,"26":-0.26956374072917527,"27":-0.19322931777088764,"28":-0.4631574883938213,"29":-0.6964065601875179,"30":-0.42628445318490366,"31":-0.34588441394215375,"32":-0.0471621556757201,"33":-0.16154859512413655,"34":-0.23164684325732474,"35":-0.26411707666501977,"36":-0.5597550214658419,"37":-0.5015726848992882,"38":-0.36832858328616674,"39":0.5400128134927289,"40":-0.3522273394210356,"41":-0.5079155582391524,"42":-0.20897477808397594,"43":-0.503576755340114,"44":-0.21166985256627324,"45":-0.1508378964292205,"46":-0.2937810994852038,"47":-0.19479874120318866,"48":-0.40835596727648754,"49":-0.17319551648949993,"50":0.23952623448043792,"51":-0.19168831223225385,"52":-0.6757551329994246,"53":0.19051441281455492,"54":-0.10908519229822407,"55":0.12381694026273421,"56":-0.2003947416131644,"57":-0.20980095986267003,"58":0.1684517291926652,"59":0.6322021393207058,"60":-0.14360499087353681,"61":-0.4334868292124197,"62":-0.23796608303077016,"63":-0.6931896729809482}},{"sx":1,"sy":1,"depth":64,"w":{"0":-0.39209496023124407,"1":0.14903917736543823,"2":-0.027628368167887555,"3":0.09678498092852264,"4":-0.44476774133418556,"5":0.3319880368800172,"6":-0.21384495087510944,"7":0.33405692605204435,"8":-0.31698155856797355,"9":-0.5807551978156402,"10":-0.04796897262529529,"11":0.08049429659269819,"12":-0.3379816820713433,"13":0.05779060872822414,"14":-0.5282539555205975,"15":-0.11723887438513438,"16":0.008155774578381167,"17":0.32075151810050145,"18":-0.17639690446244546,"19":-0.6024800320274344,"20":-0.9833587043975447,"21":-0.2620779190205708,"22":0.07196949403639007,"23":-0.2265247247625608,"24":0.09914803756479061,"25":-0.5001392459298538,"26":-0.6091441661380371,"27":-0.1791391642683753,"28":-0.9012245733840192,"29":-0.3377933320344635,"30":-0.45079132583842874,"31":-0.5322158525702219,"32":0.09451343126327523,"33":-0.2096660683795192,"34":-0.05045512908432558,"35":-0.016518192826465144,"36":0.3414915644592646,"37":-0.24669833906520636,"38":-0.30793239987523663,"39":-0.5682754324610809,"40":-0.01601377461204097,"41":0.22362444359106928,"42":-0.0643201286572796,"43":0.6254235256994884,"44":-0.3975214718092389,"45":0.3225631193264918,"46":-0.2670742380200226,"47":0.14535502625517005,"48":0.022069865571905056,"49":-0.12475929282164004,"50":-0.19362444038290189,"51":0.08359408755856816,"52":0.5046249973370344,"53":-0.1864913420435451,"54":-0.5578678841053005,"55":0.40634743223358827,"56":-0.6601778930208925,"57":0.07924815525575361,"58":-0.26920442267958894,"59":0.21138695322725168,"60":-0.21008806005799274,"61":-0.7911582919435574,"62":0.2651439633948707,"63":0.10977640077664975}},{"sx":1,"sy":1,"depth":64,"w":{"0":-0.03286228820760815,"1":-0.09154630306534203,"2":-0.04080727097199654,"3":0.4182970748114223,"4":0.05404928823881068,"5":-0.04572257486300469,"6":-0.19672806322983982,"7":-0.2993212886777074,"8":0.06454912878787475,"9":-0.3373393635422996,"10":-0.8854575392771697,"11":-0.24356136495141406,"12":-0.28942091244076223,"13":0.4713554736067517,"14":0.3841384433271503,"15":-0.38154262030434527,"16":-0.19927918729542912,"17":-0.6118775769036574,"18":-0.09835909717547492,"19":-0.5225799523958558,"20":-0.25540494522292834,"21":-0.4546577311393923,"22":-0.04015875688962429,"23":-0.04413548895391376,"24":-0.5965921080854506,"25":-0.06085195780404244,"26":-0.4699404906119174,"27":-0.39431249012099395,"28":0.37404620884391343,"29":-0.23847844656881087,"30":0.46851501229321035,"31":-0.5406204450971795,"32":-0.18361009816772314,"33":0.27246604704691,"34":0.1383756156645557,"35":0.4604952167995383,"36":-0.7440460265015895,"37":-0.6036074451832265,"38":-0.47941068147133103,"39":-0.12305596383207294,"40":-0.2330450842641714,"41":-0.03438205510112264,"42":-0.3099485515503625,"43":-0.16685147775126427,"44":0.05151006796070986,"45":0.15466592985727187,"46":-0.3757235915337572,"47":-0.29545414276711485,"48":-0.16847363264538545,"49":0.3334163004305356,"50":0.1265308189031631,"51":0.24668539774711,"52":-0.11529446045976918,"53":-0.2582459687060847,"54":-0.8104373844602506,"55":0.1500357601775183,"56":-0.10202021763563036,"57":-0.336975312266688,"58":-0.1453791126869667,"59":-0.000004308162198889734,"60":0.1987389880470035,"61":-0.07041871405967433,"62":-0.5112925612677964,"63":-0.16205903490127668}},{"sx":1,"sy":1,"depth":64,"w":{"0":-0.6428423537640174,"1":-0.9199060549967454,"2":-0.5398339559894393,"3":-0.4475532994393163,"4":0.33540711947061796,"5":0.6449737239559618,"6":0.12586644793471524,"7":-0.027950733643459933,"8":-0.0737381171413562,"9":-0.006911737001003713,"10":-0.22615121657933412,"11":-0.20974271936282074,"12":0.18409379610747134,"13":-0.3013050337986254,"14":-0.6756232678903407,"15":0.6852884470100843,"16":0.02444798050039301,"17":-0.02984887496493249,"18":0.25061127444455833,"19":-0.14099048167580047,"20":-0.5082687957570838,"21":-0.6181866031679613,"22":0.13992483759454905,"23":0.269053227739815,"24":-0.32629616195785516,"25":-0.08125341367214853,"26":0.047980993280906256,"27":-0.21480097248973345,"28":0.09945937068770912,"29":0.05228694844843872,"30":0.4109288243278077,"31":-0.20655258107586857,"32":-0.261279738528395,"33":-0.22800969220739092,"34":-0.2050262371405485,"35":-0.2894991078218387,"36":-0.3368099482967836,"37":-0.4415533088347396,"38":0.2514078428235677,"39":-0.4349231615883909,"40":0.2611139117121393,"41":0.19664461370728503,"42":0.0056733115078606835,"43":0.22163894299295084,"44":-0.3615950065803989,"45":0.1339644609164133,"46":0.28571090691623663,"47":0.5258527810380834,"48":0.16528335430549518,"49":-0.6043060462758277,"50":-0.19335629715628713,"51":-0.2785160632980152,"52":-0.49133268507537375,"53":-0.44994917222550307,"54":0.06616495751625831,"55":0.34182363198499305,"56":-0.8365472667997977,"57":0.1454388408897015,"58":-0.33307989186222664,"59":0.3526156316244607,"60":0.16747006462920327,"61":-1.027085570868108,"62":-0.18876071246605886,"63":-0.49012549700433317}},{"sx":1,"sy":1,"depth":64,"w":{"0":0.16421074303658317,"1":0.15900442367667977,"2":0.20833991217675235,"3":-0.2001127842330726,"4":0.3473989703019908,"5":0.22535515413517604,"6":-0.01025004696635419,"7":-0.07601220900065143,"8":-0.29282594451962773,"9":-0.21341889267752445,"10":0.25528369680250995,"11":-0.25132034273315057,"12":0.18931987028872443,"13":-0.3517679194236229,"14":0.04991329946614852,"15":-0.8296689069034201,"16":-0.4519776306621365,"17":0.22897195516115657,"18":-0.29606522241893163,"19":-0.49848608359972163,"20":-0.24922041700277262,"21":0.28747608842562045,"22":0.25286779371642865,"23":-0.5245478939437576,"24":0.520646215961138,"25":0.12464016127339646,"26":-0.7271400870070359,"27":0.0548787263284855,"28":-0.32549648510810336,"29":-0.31029410265065943,"30":-0.386262848627246,"31":-0.14340588902298995,"32":0.10823881823562827,"33":-0.4609639407577191,"34":-0.11677853345521624,"35":0.49999575420451114,"36":-0.21873176190475968,"37":0.19346417344079814,"38":-0.30884724078940673,"39":0.18871904282828947,"40":0.341856569537555,"41":-0.5555259376692574,"42":0.4945700517209574,"43":-0.31821148355490364,"44":-0.3846751365380764,"45":0.28987294356501875,"46":-0.5154099934951153,"47":0.4535572403675322,"48":0.2960447671399812,"49":0.05663956095891219,"50":-0.1306615887026732,"51":-0.3398320064281273,"52":-0.19976621646771678,"53":-0.3616313105987278,"54":0.1464323553275516,"55":0.08291705146321052,"56":0.05438711473909998,"57":-0.021546141067495132,"58":0.10072602833305641,"59":0.2877458262589917,"60":-0.14140103831078663,"61":-0.5013912090404586,"62":-0.21696074659023395,"63":-0.35574794485636163}},{"sx":1,"sy":1,"depth":64,"w":{"0":-0.13167483444068317,"1":0.26202690410375057,"2":0.5723624374693037,"3":0.7825826785172267,"4":-0.008031074634899372,"5":-0.19739956814572238,"6":-0.7586976025385344,"7":-0.5795201655886172,"8":-0.0008210512293415183,"9":0.4038048550452053,"10":0.3717448109984218,"11":-0.03776301368745683,"12":-0.2748040815371364,"13":0.39980125216103124,"14":0.007929238902347428,"15":0.4027541492641899,"16":0.22311650477033548,"17":0.03240758798465726,"18":-0.4915365879392888,"19":0.5343611298267678,"20":-0.19977310317175287,"21":-0.5046598104209488,"22":-0.3531191838140773,"23":-0.4994343166522557,"24":0.30837576030980157,"25":-0.5088329244625035,"26":0.3042618084840567,"27":0.2634204958228055,"28":0.295774051375409,"29":0.049995685322684495,"30":0.34637995917822645,"31":-0.14480790528982082,"32":0.6460911154732982,"33":0.03438071436724021,"34":0.09216389101361457,"35":0.540799448283241,"36":-0.17302496496194142,"37":-0.4241891425798415,"38":0.013263913633345859,"39":0.06703252780288178,"40":0.33521913585861773,"41":0.0974671054422144,"42":-0.06322559621468789,"43":-0.12560316639321215,"44":-0.16784570567722043,"45":-0.3196515001719395,"46":-0.10032173279244795,"47":-0.3575765500967896,"48":-0.09408888689724675,"49":0.06206574434808293,"50":0.13398644566919754,"51":0.46649049880210547,"52":0.034812880436559175,"53":0.09498385412331946,"54":0.08037986993611801,"55":-0.009397973062185426,"56":0.11012685119285066,"57":0.38682794510799523,"58":0.15902755681844336,"59":-0.4152376418425859,"60":0.0473420472952041,"61":0.5098646053654994,"62":0.3052953945731465,"63":0.49978723355082827}},{"sx":1,"sy":1,"depth":64,"w":{"0":-0.36818983886334505,"1":-0.21625350974299096,"2":-0.02506907791872282,"3":-0.04579920227354216,"4":0.12053790859015823,"5":0.04727294959962573,"6":-0.08578945583961022,"7":-0.267361382987204,"8":-0.12219571556602166,"9":0.16668078884726092,"10":0.03738855502886182,"11":-0.08663278584812531,"12":-0.25238028301808846,"13":0.03657343890063679,"14":0.36327580873678983,"15":-0.16929375031882216,"16":-0.0050735694801761705,"17":-0.06706647726156519,"18":0.05264281323534293,"19":-0.07219784940452413,"20":-0.1285854456007416,"21":0.10802663011007527,"22":0.028410469681754303,"23":-0.2506735161307105,"24":-0.014121288092854114,"25":-0.09399384566907945,"26":-0.2093767088359102,"27":-0.2828389036882389,"28":-0.12223167260102431,"29":0.18388047946073557,"30":-0.13682191984304876,"31":-0.22613198439107235,"32":-0.2525508388200186,"33":-0.06690657858086799,"34":-0.051894267770624995,"35":-0.14139207323307437,"36":-0.030660236722849676,"37":-0.3682063479755128,"38":-0.009147030811662222,"39":-0.0037186426706106923,"40":-0.09959850583325656,"41":-0.1064008065915065,"42":0.09627517616675711,"43":-0.36765763414483926,"44":-0.02418546624195616,"45":-0.12484362142882464,"46":-0.17497436694950239,"47":0.13174912465490388,"48":-0.4455598660724822,"49":-0.16688738578839193,"50":-0.21707223232974435,"51":-0.2142047533708792,"52":-0.22910181021660386,"53":-0.1847507173662795,"54":0.18323069539116063,"55":0.09302478670363117,"56":-0.10213964142494529,"57":-0.1311999654722136,"58":-0.28845553882942215,"59":-0.010164133509988156,"60":-0.3238813425837946,"61":-0.15629704564398786,"62":0.02069477788822999,"63":-0.12969763980388083}},{"sx":1,"sy":1,"depth":64,"w":{"0":0.10438191050847066,"1":-0.17622085372890367,"2":-0.32699325831942827,"3":0.45040926261376923,"4":-0.027890096070477863,"5":0.06715149699987012,"6":0.13501398883061141,"7":-0.9713250996646561,"8":-0.4915109988761797,"9":-0.21942483785472544,"10":-0.6044709912399798,"11":0.18120433061810914,"12":0.2828189978127564,"13":-0.3585811778238783,"14":0.0011030406548539933,"15":-0.09699751567891315,"16":-0.8268683212718779,"17":0.2971841177689373,"18":-0.052121753121400084,"19":0.1684472324944079,"20":-0.5230161634613815,"21":-0.344671039124703,"22":-0.3836359909077046,"23":-0.10977171154148153,"24":0.5926994348911978,"25":-0.026579844154174796,"26":-0.1777817596279166,"27":-0.40847856706628194,"28":0.25969574969335835,"29":-0.3074636606404525,"30":-0.6070036090137111,"31":-0.7996807349455366,"32":-0.314126126722315,"33":-0.46831874755441355,"34":-0.4013456644607274,"35":0.034844967770319396,"36":-0.043948366302820355,"37":-0.4091564872667751,"38":-0.4966678866685691,"39":0.0019298789874768768,"40":-0.3896257853101543,"41":0.31119144526592296,"42":-0.24469898153042724,"43":-0.7703883484934345,"44":0.0060874048020959646,"45":-0.04259824376851658,"46":-0.7438487728261773,"47":-0.38591247404213286,"48":-0.40235316086229556,"49":-0.7512117671585411,"50":-0.05671807928812057,"51":0.3039454367579909,"52":0.23931695454937307,"53":0.38658302738661376,"54":0.19228386187048915,"55":0.014134708752322794,"56":-0.1796550049236677,"57":-0.04297695600123524,"58":0.03203529178364664,"59":-0.4378671253799581,"60":-0.03402366126477599,"61":-0.10101913434171457,"62":-0.30526015180473226,"63":-0.8029500154565276}},{"sx":1,"sy":1,"depth":64,"w":{"0":-0.2872895995262785,"1":-0.07275089971499363,"2":-0.46884011247369545,"3":0.10996166399400299,"4":-0.10136309014071822,"5":-0.07886312786228493,"6":-0.1071104264679715,"7":0.3906890114201153,"8":0.09000015806913916,"9":-0.061788141671659844,"10":-0.19197346271448598,"11":-0.3795426703330315,"12":0.1106391603757613,"13":-0.6724741894935258,"14":-0.5179828840376463,"15":0.09815191946632036,"16":0.37433489680730875,"17":0.08172095144767015,"18":0.18224035064068803,"19":0.09678540071124846,"20":0.01202348256092553,"21":-0.43351583586188225,"22":-0.7251490790101619,"23":-0.5216191181515308,"24":-0.0963853424663714,"25":0.02413701311190197,"26":0.0777245181771922,"27":0.6257365654030272,"28":-0.30519976007325744,"29":0.15817120818313268,"30":-0.22688341646588595,"31":-0.6850860110803437,"32":0.38302141219458496,"33":0.5652215576528504,"34":-0.01701170359301954,"35":0.246551686663765,"36":0.30061305094536356,"37":-0.22488013381022698,"38":-0.13753495908476165,"39":-0.2559153390242663,"40":-0.09495406484074095,"41":-0.4698320468344159,"42":-0.4160178402150091,"43":0.2165014343822669,"44":-0.24537885481384925,"45":0.5200726885286565,"46":-0.000023470986348770818,"47":-0.1450094707381224,"48":-0.47250431077889277,"49":-0.15343296528870778,"50":-0.029029978316107725,"51":0.2603189805248377,"52":-0.06325375529620708,"53":-0.8221744718959143,"54":0.08901707734452165,"55":0.14112407060427543,"56":0.15478486522984208,"57":0.018338153492268847,"58":0.48701595573851875,"59":0.10977181348852988,"60":-0.3606186392659836,"61":0.044326296772797785,"62":0.23601802070007433,"63":0.08724954324626204}},{"sx":1,"sy":1,"depth":64,"w":{"0":0.025493359166294905,"1":-0.30477119599553987,"2":0.023844756100909182,"3":-0.0453727506373755,"4":-0.19025483367898582,"5":-0.5752868276790267,"6":-0.12565027345264304,"7":0.010955169060817777,"8":-0.2502777672510711,"9":-0.06630566572732874,"10":-0.19928902371449256,"11":-0.11170421119460616,"12":-0.06721365467377698,"13":-0.05378837069078751,"14":-0.012730817792087385,"15":0.021155634449707264,"16":0.000851948234385433,"17":0.28481022041166154,"18":0.218355286829636,"19":0.3348663079759881,"20":0.10498210835069595,"21":0.14318645910453498,"22":0.36344161959087967,"23":-0.001531339473760629,"24":-0.14582548106663026,"25":0.2350288474398751,"26":0.25534310027854895,"27":0.4067177865342883,"28":-0.1551558722787124,"29":0.041846300577033126,"30":0.02822679674116476,"31":-0.1250330606473454,"32":-0.09459815320251473,"33":-0.0016566645660927586,"34":0.5793648623952148,"35":0.07823096986184598,"36":0.34721801992223295,"37":-0.111086774121949,"38":0.05613003898006571,"39":-0.1310846371400239,"40":0.09366723702103187,"41":-0.0064446875523952426,"42":0.1888288728675436,"43":-0.09029786337272988,"44":-0.3385068866509253,"45":-0.4137339165342424,"46":0.09708318863691903,"47":-0.5622151482860398,"48":0.10461215880551389,"49":0.058311303351138356,"50":-0.09328091207316586,"51":0.27990319884448683,"52":0.0442459892280844,"53":0.007411990955090888,"54":0.208078477784458,"55":1.6951863170694608,"56":-0.010980481887828948,"57":0.20923477982713842,"58":-0.12948385010831323,"59":-0.3198702302660093,"60":0.013736437604238106,"61":-0.08048720431948182,"62":-0.09013469024039933,"63":0.01500416051520988}},{"sx":1,"sy":1,"depth":64,"w":{"0":0.6839501235855576,"1":-0.12035534993316875,"2":0.07729648082441666,"3":-0.3966219064710222,"4":0.34087000337033,"5":0.4834456738342876,"6":0.15211538553567594,"7":-0.04891329200576614,"8":0.05128775559321185,"9":0.10220951362772634,"10":-0.8567665090285616,"11":-0.6171205124202002,"12":0.18647169667039676,"13":0.032804078912288606,"14":0.0209081766847357,"15":0.022146842386624236,"16":0.09920100494685805,"17":0.4609059165338858,"18":0.20933041163886149,"19":-0.029502408805858964,"20":0.42852561863307265,"21":0.3738278951704153,"22":0.37023451834407606,"23":0.09662480138742165,"24":-0.01450892885715218,"25":0.35523684866916466,"26":0.43561043370677743,"27":0.17481663372614725,"28":-0.3666732989532791,"29":-0.2949539496094474,"30":0.04359329345720319,"31":0.010479572714803287,"32":-0.3285431036991718,"33":-0.020138333812290247,"34":-0.377697448580714,"35":-0.09580605131934498,"36":0.4616372098296779,"37":-0.46014900249219237,"38":0.3694285772970496,"39":0.07284835732438635,"40":0.21397909713483568,"41":-0.24695978356751916,"42":-0.11623722564838262,"43":-0.45460952334933635,"44":-0.6882202688073289,"45":-0.04825288066760644,"46":0.09092796512978295,"47":0.13148981271510687,"48":0.10062284693232185,"49":0.6143805634096516,"50":-0.10295602157216988,"51":0.560592444938635,"52":0.3351272821421955,"53":-0.05660740271166477,"54":0.14193799381455643,"55":0.061356622393464406,"56":-0.24648129471698696,"57":-0.016941006972922206,"58":-0.27822904814280125,"59":-0.38036739203205805,"60":-0.23205152769144877,"61":-0.13085668763102903,"62":-0.20358079642357177,"63":0.24256396730776772}},{"sx":1,"sy":1,"depth":64,"w":{"0":-0.3785780108666197,"1":-0.16966830856673298,"2":0.019054678239379674,"3":-0.4771822042301303,"4":0.44130947465385556,"5":-0.16741362791128753,"6":0.25164980878241694,"7":-0.22680458193060274,"8":-0.7043719228525256,"9":0.3064757111590577,"10":-0.019893597371752864,"11":0.029568393225338864,"12":-0.00796476906684745,"13":-0.16034999033295524,"14":0.13259237480108263,"15":-0.061496135605200224,"16":-0.3019605585052522,"17":-0.3780544090419824,"18":0.20899625589278778,"19":-0.6141548189554824,"20":-0.056854562368148426,"21":-0.689861585552949,"22":-0.19183967104629987,"23":-0.4643620469401929,"24":0.28609455236157466,"25":-0.2908740447662973,"26":-0.010176537207247809,"27":-0.645333279984351,"28":-0.673034804061475,"29":-0.22170162037263394,"30":0.34639634833005667,"31":-0.14939805122489025,"32":-0.5578503007916032,"33":-0.3970235208207124,"34":-0.4669120060631362,"35":0.5581784482776047,"36":-0.2783063396737891,"37":-0.20039849666130682,"38":0.4157630070313898,"39":-0.21713871742205268,"40":-0.23506557294202243,"41":0.22648192332308895,"42":-0.3781666534217269,"43":-0.3784235450623385,"44":-0.5506457311078753,"45":-0.38363827447821824,"46":-0.4980878202022703,"47":-0.001348829220355728,"48":-0.32517366407847476,"49":-0.1161775657218454,"50":-0.45333630547108306,"51":-0.23864587090466158,"52":-0.2568374200223465,"53":0.09731103368564169,"54":0.0842990996189131,"55":-0.10709361369721986,"56":-0.1435907339200898,"57":-0.3144362802684646,"58":0.22925193365645052,"59":0.34990912011481184,"60":0.14051119189679823,"61":-0.40646313299150993,"62":-0.06894716316849522,"63":0.18373272058128717}},{"sx":1,"sy":1,"depth":64,"w":{"0":-0.021084279665128595,"1":0.20845113709526858,"2":0.0009404625458309786,"3":0.08343758510388778,"4":-0.30340465039801,"5":-0.24496723590484865,"6":0.12577341740602394,"7":-0.05663832229936352,"8":0.4639249321756901,"9":0.5897603813158485,"10":0.20241475492754515,"11":0.036761982606667264,"12":0.26594634906567727,"13":-0.6046301570025565,"14":0.14345794435951578,"15":-0.01813424011170975,"16":0.22174347778591547,"17":0.3151824934843258,"18":-0.1289587794755222,"19":-0.6782668607594405,"20":0.1118212833208663,"21":-0.22658897335149086,"22":0.19327247120802396,"23":-0.2622156106127664,"24":0.48227237663855116,"25":-0.24831234518847928,"26":0.11270699775604862,"27":-0.45283622318524164,"28":0.0820038474836342,"29":0.04192762516519529,"30":0.3079459422138541,"31":0.7960957263615117,"32":0.5543895795717464,"33":0.2726581801067722,"34":0.2601652635709174,"35":-0.16953843865995005,"36":-0.03232696955709207,"37":-0.22400000957459734,"38":0.5176365220374483,"39":0.0880596085810902,"40":-0.09657807673922748,"41":-0.22486908851731935,"42":0.04890947125462568,"43":-0.6338587683269369,"44":-0.06381388533320988,"45":0.2303092715789367,"46":0.25600966936743447,"47":0.1912023165043329,"48":0.27523982492852495,"49":-0.21786791967214594,"50":0.26385548677374554,"51":0.014522159988899911,"52":0.1332728208903371,"53":0.09092222360310137,"54":0.10530003370675757,"55":0.16682544645656489,"56":-0.36619060923307484,"57":0.5232039886003392,"58":-0.1695650334841631,"59":0.15082708833816696,"60":0.3588179056202924,"61":-0.033313836223517246,"62":-0.09158243390352738,"63":0.02246937825329026}},{"sx":1,"sy":1,"depth":64,"w":{"0":-0.13247682197083988,"1":-0.4983837941442797,"2":-0.07174421053732881,"3":-0.19275064808051795,"4":0.4473299168583496,"5":0.5051761883358947,"6":0.15953387539652086,"7":-0.183255156570807,"8":0.24190449109470333,"9":0.14487034733233137,"10":-0.4062917772706873,"11":-0.2105373524587233,"12":-0.003955652368935452,"13":-0.2263256371579979,"14":-0.013556252153654145,"15":-0.6330345179200159,"16":0.5471198104409567,"17":-0.06017939999189318,"18":-0.7662647938346369,"19":0.6552746180775615,"20":-0.06025576021581103,"21":-0.2899219623819762,"22":-0.5384478159254888,"23":-0.5796966396875133,"24":0.26594255569341163,"25":-0.3077158681442776,"26":-0.2212473928040978,"27":-0.419661893216861,"28":-0.5264748160764141,"29":0.19066174483986018,"30":0.17109642000792172,"31":-0.3638401356872358,"32":0.2741180839289436,"33":-0.21184921826190817,"34":-0.011370490219704644,"35":-0.3257869484615315,"36":-0.5829409178908276,"37":0.0619552370251647,"38":-0.45867586669003096,"39":-0.18933622700626052,"40":-0.004186337668171281,"41":-0.27252560324462793,"42":-0.052176249545848236,"43":-0.47135688248772134,"44":0.014571693381222498,"45":-0.21260066584014237,"46":0.15167650463194382,"47":-0.06389973937490784,"48":-0.35984104664448924,"49":-0.31048548010248345,"50":0.28958649645002793,"51":0.14516230216237463,"52":-0.2139640596225847,"53":-0.3977967560861255,"54":0.1326539376676658,"55":0.367713540278467,"56":-0.010249190762481842,"57":-0.31773283346181447,"58":-0.20524119287518103,"59":0.31710383640175754,"60":0.20439715128427152,"61":0.25945771303976384,"62":-0.4034755675239488,"63":0.051097455718369024}},{"sx":1,"sy":1,"depth":64,"w":{"0":0.6860824068923518,"1":0.057251799859280125,"2":-0.43403209612446647,"3":-0.044291111484986635,"4":-0.20287809119040098,"5":-0.28486190201441985,"6":-0.34307081624597563,"7":-0.3759015558826973,"8":-0.022224373442451092,"9":0.17556066697859488,"10":-0.007032578465857226,"11":-0.28738974739901774,"12":-0.0032848896971674484,"13":0.5375097008860661,"14":0.17140440215205893,"15":-0.07257950419876251,"16":0.26368746039629704,"17":0.11714436883191681,"18":0.3415942930457587,"19":-0.5254891950001367,"20":0.5466158151021485,"21":0.024407910736338592,"22":0.18097411093864915,"23":0.42362583532578607,"24":-0.2107686330484485,"25":-0.16057540327626146,"26":-0.044081518478093995,"27":-0.17821613474713935,"28":-0.39401591286137355,"29":0.12722793940893934,"30":0.2801763130548808,"31":-0.13239382609210573,"32":0.17290563860740038,"33":-0.06209914246302782,"34":0.22653181270054337,"35":-0.25469699844653704,"36":0.3831347503439398,"37":0.09628908250535687,"38":-0.13999778607541177,"39":-0.15692013366048743,"40":-0.38239134214082415,"41":-0.4869251409963998,"42":0.20574002367583014,"43":-0.09156798805071385,"44":0.37178171133807053,"45":-0.32573296568862437,"46":-0.43279350455642385,"47":0.04300731551263381,"48":0.28746986551585196,"49":0.29062807050564315,"50":0.27552818136615226,"51":-0.4444898040973067,"52":0.1439482353186706,"53":-0.13488839549866377,"54":-0.1584778289697206,"55":0.07096832500246571,"56":0.10394860133982133,"57":0.1550970254103567,"58":-0.21608421380086423,"59":-0.20451740171787722,"60":-0.27399514467452357,"61":0.31562346980612593,"62":-0.22110007336365203,"63":-0.22501395275862066}},{"sx":1,"sy":1,"depth":64,"w":{"0":-0.06798673234753282,"1":-0.3099405898506511,"2":0.389520776569164,"3":-0.6305868394417564,"4":-0.5614612656631748,"5":0.2654610542352263,"6":-0.17126994105512972,"7":-0.1874376303998373,"8":-0.2264382445921741,"9":0.05674419247571078,"10":-0.696450582697937,"11":-0.3612914450721647,"12":0.4777463043523004,"13":-0.18115801420363875,"14":-0.1545622668738278,"15":-0.07759448795207506,"16":0.101810593004172,"17":-0.5814171235919,"18":-0.03872670036089448,"19":0.4480539915699492,"20":0.05127936264016648,"21":0.2964605142070402,"22":0.042300459560790246,"23":0.016230813035274762,"24":-0.2064687321728779,"25":-0.2648345382047429,"26":-0.14576327019703147,"27":-0.09220321227074701,"28":0.508571639188146,"29":-0.15747925087557002,"30":-0.20145030330228372,"31":-0.19882334234274934,"32":-0.5082006110202353,"33":-0.12556069719190435,"34":-0.34604111251220593,"35":-0.7716983838846638,"36":-0.008325597312026884,"37":-0.1687709876348538,"38":-0.300573320311617,"39":-0.11392978400648546,"40":-0.003064066665259263,"41":-0.665669906333987,"42":0.30120415616153745,"43":0.424459225995255,"44":0.21631034890109455,"45":0.08771582899555143,"46":-0.6004648292665768,"47":-0.20180909884648443,"48":-0.45483655523601896,"49":-0.09769575134668702,"50":0.10360512054354408,"51":-0.26541704191966686,"52":-0.1129248419756275,"53":-0.4234731302104999,"54":-0.19270046020028087,"55":0.09576412075934711,"56":-0.243485696884721,"57":0.4708071052164596,"58":-0.23601744834566699,"59":0.1425256570744146,"60":0.23313336045048821,"61":-0.287833862875985,"62":0.18002809410595064,"63":0.20745023417042543}},{"sx":1,"sy":1,"depth":64,"w":{"0":0.15756817581943613,"1":0.574878061734689,"2":-0.0708794275980276,"3":-0.03301038125474854,"4":0.1173190932074344,"5":0.32505187245059675,"6":-0.13523631062453975,"7":-0.5833263686977119,"8":0.2501418729616119,"9":-0.0824333073931212,"10":0.18238007809181042,"11":-0.8340495502738347,"12":0.20302414582923362,"13":0.08387960511451753,"14":0.2582336861869275,"15":0.058196246901754185,"16":0.38838184255296,"17":-0.5523482155564214,"18":-0.24363286459333208,"19":-0.09874660218235307,"20":0.16375666518302454,"21":0.15751386869988837,"22":0.03626702810351285,"23":-0.5666119011048382,"24":-0.008512436172131047,"25":0.003922847251809767,"26":0.1363055979175138,"27":0.2874838330780146,"28":-0.294201487679179,"29":0.19628541388461668,"30":0.09670453854157306,"31":-0.4270838020934167,"32":0.13798373377530557,"33":0.029639486615250364,"34":-0.03814765584109972,"35":0.4868373041342951,"36":0.29333900788135187,"37":0.2336265220247088,"38":-0.34712954981158517,"39":0.3437572680613407,"40":0.30628885870897615,"41":-0.01418401488234676,"42":-0.05071602613903698,"43":0.3522870824779785,"44":-0.1758470479176182,"45":0.39592186544533614,"46":-0.4767312438536168,"47":0.17072555001988143,"48":-0.11464274259233159,"49":0.6418144876769784,"50":-0.22177722431649488,"51":-0.295814321447581,"52":0.08588056460723756,"53":-0.6661375150030381,"54":0.2519298656120174,"55":0.3278540437178794,"56":-0.28187900662505455,"57":-0.15592133001758385,"58":-0.8696248526850304,"59":-0.21553405961146244,"60":-0.2644874517474882,"61":0.25314617198104755,"62":-0.12933529859374965,"63":-0.24951642814807865}},{"sx":1,"sy":1,"depth":64,"w":{"0":-0.2776162224359294,"1":-0.3644247164278187,"2":-0.29293395780568987,"3":0.18157313077488313,"4":0.12075013481138566,"5":0.1485557842184098,"6":0.38484437925464865,"7":-0.0064477546309727116,"8":-0.3548978838789869,"9":-0.2000579236430375,"10":-0.1792029224509338,"11":-0.43359293530248505,"12":-0.6544905812132458,"13":-0.026397230580120067,"14":0.17641958197075888,"15":-0.3557234297280112,"16":-0.5079405050909257,"17":0.08810460550071772,"18":-0.4477089770318104,"19":0.25976267216718973,"20":-0.18697779828563768,"21":0.008537256647134554,"22":-0.08077466744276537,"23":-0.0788065248486973,"24":-0.3809253410722604,"25":-0.46591875475536954,"26":-0.5145813218922675,"27":-0.21976626540079727,"28":0.19535672876369484,"29":-0.24227536167197658,"30":-0.07735745170364383,"31":-0.15284267452930114,"32":-0.31291284435058003,"33":-0.26565944579638023,"34":-0.2898357542661371,"35":-0.4517617152252889,"36":-0.2490637015453873,"37":-0.34026114066852187,"38":-0.45438507117034604,"39":-0.107391600862809,"40":-0.12067351062375459,"41":-0.011679462808010849,"42":-0.09959880570061908,"43":0.12628978769879093,"44":-0.40824311940233626,"45":0.14458185148914446,"46":-0.1581768121037929,"47":-0.08174306392351102,"48":-0.16507671634140678,"49":0.32210319599560844,"50":0.042338973255300304,"51":-0.35019887013526024,"52":-0.019556558540367426,"53":-0.192642628733445,"54":-0.08039320118480256,"55":0.15280063472896002,"56":-0.17703806170857517,"57":0.2474186843210298,"58":-0.33856570581451345,"59":-0.34635203099265593,"60":-0.17178386929328765,"61":-0.04880016790028425,"62":-0.4300243474054176,"63":-0.3593114282054103}},{"sx":1,"sy":1,"depth":64,"w":{"0":0.15351577404591432,"1":0.14722605931303923,"2":0.44032626427545274,"3":-0.143464092203605,"4":0.1406119522804949,"5":-0.48714169559201076,"6":0.06646562899868463,"7":-0.06377228206656092,"8":0.23090448136344677,"9":0.3604310823039325,"10":0.4056228093627369,"11":-0.49335724613514387,"12":0.1152999218067865,"13":0.024826131977019234,"14":0.3278528818703745,"15":0.5295946858109414,"16":0.21376310450088948,"17":-0.1113217635099488,"18":0.32524158980678586,"19":-0.49105395072680075,"20":0.3214743513881243,"21":0.42181941873212003,"22":0.17947463361431326,"23":0.2143197490000918,"24":0.23696469599903475,"25":0.06997874369576843,"26":0.16122810037201316,"27":-0.4190934034646779,"28":0.4892714115809724,"29":0.657256248213184,"30":-0.14702835193249045,"31":0.5462210210748571,"32":0.3431275025801172,"33":0.3193705927334036,"34":0.37774006577318175,"35":-0.023167751992857158,"36":0.1740863388745629,"37":0.3164281203240406,"38":0.2079377500042896,"39":0.6116362222934958,"40":0.3651502459380461,"41":0.11952261599004724,"42":0.00025535165395682013,"43":0.20149278666428494,"44":-0.43624849592972187,"45":-0.16222607983520812,"46":0.6142027875836366,"47":0.7157582126208578,"48":0.28834546303616937,"49":-0.36029488101539003,"50":-0.3819734892054286,"51":0.08209820017788683,"52":0.3530475723431295,"53":-0.5273579205973807,"54":-0.09055980635016626,"55":-0.07985698131470635,"56":0.36303397351451344,"57":0.13277638292777388,"58":-0.1839491685583797,"59":0.18523622571462592,"60":-0.122515780294899,"61":0.093857842093451,"62":0.060329995756766085,"63":0.34689424531495017}},{"sx":1,"sy":1,"depth":64,"w":{"0":-0.22712768337316794,"1":-0.5404124899388268,"2":-0.3510549435067174,"3":-0.4127897505513986,"4":0.37478637540531673,"5":0.09939568066190674,"6":-0.003984801552839958,"7":0.17338356094275778,"8":-0.5178429845776782,"9":-0.49570783477295133,"10":0.17173136942702302,"11":-0.02013770999856738,"12":0.3549426638932387,"13":-0.12528096588332224,"14":-0.13200046345926972,"15":-0.4842576592069868,"16":-0.8498422883155033,"17":-0.3558686776922347,"18":-0.7785286049623663,"19":-0.29059876876867474,"20":0.17541729534717923,"21":-0.02953572797598604,"22":-0.8429453498231058,"23":0.13250542803772208,"24":-0.6705465712697714,"25":-0.1599647628185043,"26":-0.665552151138395,"27":-0.22078055267071323,"28":-0.13156360072915757,"29":-0.46385160448887014,"30":-0.09232824853152775,"31":-0.12385346572872019,"32":-0.4049937999590616,"33":-0.18568511704205265,"34":-0.6692188613012957,"35":0.09830630155815259,"36":-0.5208713906733934,"37":0.05514237809858081,"38":-0.5968870330623647,"39":-0.1473899102650807,"40":-0.05878900979990878,"41":0.3923838065721749,"42":-0.6517178551030861,"43":0.3322093623470744,"44":-0.7790180682148169,"45":0.24263248055545864,"46":-0.37621730438870443,"47":-0.33400111391745585,"48":-0.6569891470976785,"49":-1.1808135581525225,"50":0.06670881129636223,"51":0.15067933182373086,"52":-0.8241253517000275,"53":0.01683475533851922,"54":-0.18770204213439634,"55":0.3269813197274925,"56":-0.34795189667249626,"57":-0.6330070822847339,"58":0.09236753649245846,"59":0.14123190773782798,"60":-0.1468473165305034,"61":-0.9083826019058419,"62":-0.4480326298122102,"63":-0.5253584088522875}},{"sx":1,"sy":1,"depth":64,"w":{"0":-0.37562460778007756,"1":0.699828332838945,"2":-0.2902269837962487,"3":-0.22219433540274353,"4":-0.2939037031256236,"5":-0.06319733995819346,"6":0.4252761936336362,"7":0.2789765703614056,"8":0.25277292694091724,"9":-0.2663616851072175,"10":-0.6267307035727284,"11":-0.2015949058450644,"12":-0.2401951227347648,"13":0.4369111018645272,"14":-0.14227489105701044,"15":0.45636582512928425,"16":0.05786112067557336,"17":-0.21016954671985183,"18":-0.4060146032103911,"19":0.0054802335425092686,"20":-0.031223991151177563,"21":0.10042831255333699,"22":-0.4210017357814654,"23":-0.4009094335062455,"24":-0.36427367340623606,"25":0.05958662932371978,"26":-0.03285026547788,"27":-0.21322479738484143,"28":-0.3591370671167863,"29":0.26297990951849193,"30":0.023493788028447368,"31":0.06929049018042005,"32":-0.4961843894767659,"33":-0.33811816031441705,"34":0.007905688756961814,"35":0.24857824863265807,"36":-0.012626797307194085,"37":-0.5203553614362554,"38":0.19444258378605092,"39":-0.490097498918963,"40":-0.09130356487431236,"41":-0.29925217676268395,"42":0.1812490950676613,"43":0.485729030299862,"44":0.2166983977173368,"45":-0.12180259664795151,"46":0.3262131037448928,"47":-0.014673796067558472,"48":0.16507436508008663,"49":-0.1083332165431344,"50":-0.08530223223243023,"51":-0.06503761173478562,"52":0.11819904377821193,"53":-0.34719861157658166,"54":-0.23281844909890342,"55":0.10863998407065747,"56":-0.1399357712086218,"57":0.05330674868059835,"58":-0.1362786041250333,"59":-0.09478382603487555,"60":-0.6367019330488294,"61":-0.08803781468302134,"62":0.05234682923298359,"63":0.17686478610658435}},{"sx":1,"sy":1,"depth":64,"w":{"0":-0.19274222204105598,"1":-0.20200698701671113,"2":-0.6877790042236129,"3":-0.12597584688418045,"4":-0.163850820138332,"5":0.7343413516765935,"6":-0.06622319539279674,"7":0.43984490611112015,"8":-0.5342975797599573,"9":-0.45926240450864475,"10":-0.38252976152979423,"11":-0.4722754128490423,"12":0.034446719556767445,"13":-0.15074675197503468,"14":-0.14660812991314354,"15":0.43645240979982663,"16":-0.26997107864505987,"17":0.048361494852024865,"18":-0.6629069637695868,"19":-0.11412051250143268,"20":-0.43509531967120213,"21":-0.14753600392262514,"22":-0.20149755188337498,"23":-0.6647087397463614,"24":-1.0256961351720237,"25":-0.5624224439164868,"26":-0.38033164887350135,"27":-0.11345497844330911,"28":-0.3177229462483158,"29":-0.3666354214690399,"30":0.014074980143341463,"31":-0.2749778154679517,"32":-0.5129727771179998,"33":-0.8433563151683462,"34":0.1523436301887311,"35":0.17783613473778945,"36":0.1514356093798145,"37":0.46232705470979385,"38":-0.6904851483554876,"39":-0.6590127702912884,"40":-0.08738587649583748,"41":0.39264159845392277,"42":-0.20922000394172155,"43":0.34084438175609855,"44":-0.5550393239778866,"45":0.4251584943032719,"46":-0.09803700135400432,"47":-0.1877799788973508,"48":0.051686221654351196,"49":0.20992143335093721,"50":-0.14803357511963317,"51":0.0610285421015579,"52":-0.13573541728443378,"53":-0.048226271321235456,"54":0.302679734314866,"55":0.4388985702771074,"56":-0.12178172516323144,"57":-0.33123229241098523,"58":-0.0972885348587634,"59":-0.09766519914056264,"60":-0.8811697805529085,"61":0.013888176944941925,"62":-0.2828196800379501,"63":-0.4889758257629152}},{"sx":1,"sy":1,"depth":64,"w":{"0":-0.4158176192181347,"1":-0.17600069638675842,"2":0.17866837390971751,"3":-0.11273481341346486,"4":-0.28525572289751666,"5":-0.03497080422181255,"6":0.40457226095074833,"7":-0.2800691636643942,"8":-0.07493377247102889,"9":-0.223902145300141,"10":-0.11778560929410005,"11":-0.4693620302082049,"12":0.19101786676175006,"13":-0.49766674266988015,"14":-0.08725765362952521,"15":-0.0664999047520748,"16":0.16231794938420432,"17":0.33354432487423946,"18":-0.10229963838719083,"19":-0.5058455567301514,"20":-0.21794289822441845,"21":-0.1072709162049917,"22":-0.39037323771702664,"23":0.014909912605260893,"24":0.11641203518173761,"25":0.09369293220430007,"26":0.255775937373628,"27":0.32646651482750555,"28":-0.0723543658649086,"29":-0.6303714248933299,"30":-0.0432655777657761,"31":-0.7214532626038229,"32":-0.10594241829255986,"33":-0.005173626264975284,"34":-0.04771483737779017,"35":-0.166557485149486,"36":-0.22948905022237237,"37":0.382641361124073,"38":-0.167165559570287,"39":0.15636180755554643,"40":0.3997283507488734,