{"layers":[{"out_depth":36,"out_sx":1,"out_sy":1,"layer_type":"input"},{"out_depth":16,"out_sx":1,"out_sy":1,"layer_type":"fc","num_inputs":36,"l1_decay_mul":0,"l2_decay_mul":1,"filters":[{"sx":1,"sy":1,"depth":36,"w":{"0":0.5426462854658711,"1":0.5431727181470348,"2":0.675016683058132,"3":0.28289249117797466,"4":0.598691354147927,"5":0.5563295438659805,"6":0.5801092324794035,"7":0.49721436402103475,"8":0.5251684740855559,"9":0.5070674241160918,"10":0.6601561349806987,"11":0.6446482428026943,"12":0.5813010657520103,"13":0.464646567253937,"14":0.6588979949981706,"15":0.6511155204824937,"16":-0.565403624419294,"17":-0.4998713924075278,"18":-0.59962929874368,"19":-0.636958538669934,"20":-0.6861211025297046,"21":-0.5667238282711335,"22":-0.6624906917731942,"23":-0.6233204698546971,"24":-0.6301711618892673,"25":-0.6080694223922264,"26":-0.6147952789365296,"27":-0.722847763645674,"28":-0.6751956288428826,"29":-0.4638526058494306,"30":-0.6572078284216454,"31":-0.8400810605575182,"32":2.8336101161714105,"33":-0.5523378358505858,"34":3.953977113316588,"35":-0.5715389953399025}},{"sx":1,"sy":1,"depth":36,"w":{"0":-0.19048288991571602,"1":-0.8504028896565053,"2":-0.4561689839962186,"3":0.28290526767294205,"4":-0.808682052809489,"5":-0.5059901610427492,"6":-0.21825342115638613,"7":0.046092586805256436,"8":-1.2467183422544996,"9":-0.5634554284351933,"10":-0.14469478410494316,"11":-0.4745020084510598,"12":-1.523167046507122,"13":-1.1322906442863556,"14":-0.6457679765417355,"15":-0.36838316845848473,"16":1.615688550167979,"17":1.3061686005912254,"18":0.6761502295260574,"19":0.2876244666468878,"20":1.1119008895542872,"21":0.8119194303287378,"22":0.33213827061911794,"23":0.5545303086645604,"24":1.499889857408206,"25":0.8025878749710611,"26":0.3682320019821552,"27":0.5961557615002744,"28":2.1170806631251704,"29":1.71110931139777,"30":0.9411381311434547,"31":0.9519040386090426,"32":-1.9244471508819179,"33":-2.1653550358862015,"34":-2.256537504328022,"35":-1.9520356099386187}},{"sx":1,"sy":1,"depth":36,"w":{"0":1.282466513255765,"1":1.1365179057447918,"2":1.077044691139385,"3":0.9055350843000785,"4":1.0728870684631278,"5":1.1800530995321956,"6":1.0940125757332637,"7":0.6236981374911256,"8":1.1067655481884555,"9":1.1151447806786137,"10":1.1084350950362893,"11":0.9888429857649764,"12":1.0383060775148163,"13":1.376041563293271,"14":0.9011818889917559,"15":0.9021581421286935,"16":-0.7367687822626906,"17":-1.1227423244855024,"18":-1.2546080894717464,"19":-1.2043692813960438,"20":-1.1928628106558097,"21":-1.2126019544172149,"22":-1.2725735667404,"23":-1.2578915482187651,"24":-1.0642715645563088,"25":-1.2953566518806832,"26":-1.188832898830363,"27":-1.1564718852015168,"28":-0.9952371297040338,"29":-0.8909397420491377,"30":-1.2732615614964282,"31":-1.0300360606785852,"32":3.226939276232279,"33":3.1651665758372465,"34":2.9797502990359814,"35":3.110072061582959}},{"sx":1,"sy":1,"depth":36,"w":{"0":-0.39348701719705487,"1":-0.2547737014758397,"2":-0.2060443710410893,"3":-0.1375977576423455,"4":-0.12148821778038212,"5":-0.13877047595682646,"6":-0.1043280756322231,"7":-0.20675505077637607,"8":-0.1271760215009782,"9":-0.10600327253982904,"10":-1.4047794816678982,"11":-0.030174501718251492,"12":-0.289874410948438,"13":-0.054320280144440826,"14":-0.08385221823841851,"15":-1.4307916924979864,"16":0.17436353169518073,"17":0.0895491112492324,"18":0.21230661458770653,"19":-0.23313569907613624,"20":0.11744546144907976,"21":0.1147855974115363,"22":0.06304906837888785,"23":-0.16109001827432798,"24":0.07831860183605659,"25":0.1327515022565057,"26":-0.18679898872900386,"27":-0.2066719795856298,"28":0.10487512080591224,"29":-0.11808639907775899,"30":-0.2226878582339453,"31":-0.9642802912649204,"32":1.2643910046951006,"33":0.998417652369283,"34":1.214650584600752,"35":1.2814030004033017}},{"sx":1,"sy":1,"depth":36,"w":{"0":1.0139427977781668,"1":0.9059513359780759,"2":0.9525427366386959,"3":1.2700478238916524,"4":0.9456239247761358,"5":1.0158156617615544,"6":1.0411868938239128,"7":1.2134366735635118,"8":0.8117098423472123,"9":1.010038220226431,"10":1.043088001351132,"11":1.0050010691231503,"12":0.7498639823037718,"13":0.8854411630142333,"14":0.973445481143045,"15":1.0477723800885232,"16":-0.9698487455445605,"17":-0.9759770834262365,"18":-0.9493972212353378,"19":-0.942585409255085,"20":-0.8441360998553172,"21":-1.0035818765313356,"22":-1.04192935908297,"23":-1.0113506382892095,"24":-0.8992915198805095,"25":-0.9862701380005262,"26":-1.0767262553487489,"27":-1.0358111221143234,"28":-0.7950913960321354,"29":-1.0019153105823526,"30":-0.9167610361081012,"31":-0.9763549008767473,"32":0.9260582097869398,"33":2.89517796956896,"34":0.2455500284820895,"35":3.0671147902664018}},{"sx":1,"sy":1,"depth":36,"w":{"0":0.8772298464475783,"1":0.8793820029864063,"2":0.26430884040537495,"3":-1.2034332836695403,"4":0.7977449825958743,"5":0.3894379188662432,"6":0.5461631288447468,"7":-3.032810151028119,"8":0.5496338562576785,"9":0.7645472786180036,"10":0.7136560854984714,"11":-2.7737246579969774,"12":0.4846043316844499,"13":0.7524186782748553,"14":0.6563569918419532,"15":0.2667309122538969,"16":-0.06650964379283374,"17":-0.3715574260761059,"18":-0.6126577709510176,"19":-1.8858820260629414,"20":-0.17626744778271597,"21":-0.5561082161613695,"22":-0.646075006598115,"23":-0.5039413710957886,"24":-0.3740400747104025,"25":-0.2453003009815528,"26":-0.4568165779640037,"27":-0.5033033725458443,"28":-0.04869697131176907,"29":-0.39363147201754467,"30":-0.12369294592406233,"31":0.17494000085094888,"32":0.9366267142248466,"33":0.8410344894225819,"34":0.5165855411457024,"35":0.5630658497142448}},{"sx":1,"sy":1,"depth":36,"w":{"0":0.15459780173370685,"1":-0.345931264941993,"2":-0.42676328163580135,"3":-0.6852136244728815,"4":-0.616525543209932,"5":-0.9466140079769246,"6":-2.0176580247200886,"7":-0.31678586347838744,"8":-0.20003836020893095,"9":-0.5365158240731112,"10":-1.421980390027895,"11":-0.032004281386149594,"12":0.5004081410319687,"13":0.19829738920939288,"14":-0.21023625095279155,"15":0.2984699147860344,"16":-0.0996634922100596,"17":-0.12820828843294707,"18":-0.06035244220427422,"19":0.393210994661836,"20":0.6376327906177853,"21":0.8240634907622004,"22":1.4266727654746927,"23":0.2695618164860213,"24":0.4805410745335754,"25":0.6150222352953147,"26":0.6368109961069549,"27":0.18545597051095097,"28":0.23012888747666985,"29":-0.11176064269111682,"30":0.3942562049107703,"31":0.7584097106425165,"32":1.128695625758662,"33":0.9875925088903403,"34":0.7539922104760605,"35":0.9699237489927193}},{"sx":1,"sy":1,"depth":36,"w":{"0":0.18546395281909378,"1":-0.7515982954074414,"2":-1.5041788749417373,"3":0.15210378950235656,"4":0.09703938353081101,"5":-0.6289448456305075,"6":0.05903572145868813,"7":-0.3827445312479423,"8":-0.1911227710092157,"9":-1.0648947362688146,"10":-0.6695285271428376,"11":-0.1836468412055083,"12":0.13029915060520816,"13":-0.023326782521734573,"14":-0.4459932641701633,"15":0.17133402885042961,"16":0.050329466174708154,"17":-0.06875782684242171,"18":-0.49447959479927756,"19":-0.10339667832770502,"20":-0.1556683104409699,"21":-0.3028257379319666,"22":-0.08344272810079627,"23":-0.008995558076610972,"24":-0.2801827367774116,"25":-0.6916240707906375,"26":-0.3308335759486431,"27":0.11071263207169188,"28":-0.026223819886156845,"29":-0.2301471937505243,"30":-0.08432028493101838,"31":-0.04517975766419084,"32":0.3915008460480965,"33":0.6053823448735142,"34":0.6064730808868406,"35":0.47831462309892453}},{"sx":1,"sy":1,"depth":36,"w":{"0":0.8729045735052952,"1":1.2288377392431755,"2":0.6666834516001507,"3":1.4001429340129625,"4":-0.30430030763964483,"5":0.16450255112220105,"6":-0.039124604431949005,"7":1.0145473683784318,"8":-0.8800784465580428,"9":-1.216220058069621,"10":-0.33542520835500883,"11":0.5940590420949912,"12":-1.3214783462667334,"13":-0.31759745207103773,"14":-1.1732851214125843,"15":-1.0370129260822052,"16":0.02990593743507728,"17":-1.122399325409818,"18":-1.003052854118244,"19":-0.09024735849423696,"20":-0.16758957706237818,"21":-0.0693804132391766,"22":-0.04453568034690451,"23":-0.13264662225499868,"24":0.529773577375967,"25":-0.36053666816549174,"26":0.3051740288845329,"27":-0.356893400948541,"28":-0.5685861380088788,"29":0.11202287822452413,"30":0.2014982995552091,"31":-0.1156603974861314,"32":0.2893678940744071,"33":0.18886303934854562,"34":0.5082102123115003,"35":0.2927677454544891}},{"sx":1,"sy":1,"depth":36,"w":{"0":-0.6510248399676589,"1":-1.3421055247930849,"2":0.17703388122338115,"3":-0.7086984001840557,"4":-1.229737637040618,"5":-1.327278914845644,"6":0.34951283990140525,"7":0.07863452621923614,"8":-0.8743010379012578,"9":0.5635249846732671,"10":0.7908759424496618,"11":0.5953687418339968,"12":0.14489856652200528,"13":0.9113076965045048,"14":0.9532085937291065,"15":0.4259285394878574,"16":-0.4754814265476646,"17":-0.3154134048680999,"18":-0.36156796373459704,"19":0.5955247998112787,"20":-1.8555086506867382,"21":-0.23163137812162765,"22":-0.3105164965999935,"23":-0.39554475520880894,"24":-0.37127433764192086,"25":-0.49187704886341455,"26":-0.1049308020884902,"27":-0.5343950993551293,"28":-1.302746767746296,"29":-0.29435710241404917,"30":-0.09600013353146399,"31":-0.24820944436467884,"32":0.23074089275440313,"33":0.7218813830540942,"34":0.8164916185976182,"35":0.9385515708857732}},{"sx":1,"sy":1,"depth":36,"w":{"0":-0.9217594072119569,"1":-0.0026754877348799336,"2":-0.056965112269825986,"3":-0.28822980371119994,"4":-0.015834157455315218,"5":-1.685351846301183,"6":-1.2395731382066641,"7":0.015362036020033089,"8":-0.002286218466767436,"9":-0.8270492051700253,"10":-0.01666838048131438,"11":-0.030371200821452615,"12":-0.6732736587944534,"13":-0.004231197906666422,"14":-0.03798299056758264,"15":0.09692190728687788,"16":-0.5287868590507229,"17":-0.025088667264069206,"18":0.05278039247612452,"19":-0.15997467907521304,"20":0.02683598745974453,"21":-0.008239375498017468,"22":-0.07293073495621973,"23":-0.1436226547830771,"24":0.015721780363895835,"25":0.0012998516811986221,"26":0.011411517295733158,"27":0.015849965364215807,"28":0.13033803546343764,"29":0.04359103794389631,"30":0.07683305756262925,"31":-0.06581863033041091,"32":1.0151616454261483,"33":0.9046341344472419,"34":1.0408897869675793,"35":1.0390083036902837}},{"sx":1,"sy":1,"depth":36,"w":{"0":-0.7812964267842746,"1":0.5218265985583544,"2":-0.3143226518708402,"3":-1.6815920789553316,"4":-0.18978104108325325,"5":1.7030609396203156,"6":0.8760247751157928,"7":0.5280102007025852,"8":1.0525862340945231,"9":-0.17042493893248023,"10":0.23221410923427227,"11":1.1564967803007336,"12":1.2969947337977747,"13":-0.5290088232038326,"14":0.21612864656450145,"15":1.3966294489184756,"16":0.9101238367344967,"17":-0.4761448167271258,"18":0.5290714648094149,"19":1.392562854991869,"20":0.19285278315535848,"21":-1.6748980091690264,"22":-1.0020063769201035,"23":0.38967017977763024,"24":-1.1233193600734068,"25":0.15635537459357543,"26":-0.24063428283229324,"27":-1.2581757775113134,"28":-1.5098851696819668,"29":-0.05295771685808216,"30":-0.5243070127214403,"31":-1.46585835251269,"32":0.31419655935842294,"33":0.27019398377637727,"34":0.03415046590181617,"35":-0.03441729668268807}},{"sx":1,"sy":1,"depth":36,"w":{"0":1.1697650287850923,"1":0.78710862189979,"2":0.8290817123233704,"3":0.2014757891454289,"4":0.4872307292168268,"5":0.48057115473530665,"6":0.5032369469831159,"7":-0.2794189022926699,"8":0.14265539163698723,"9":0.5501635078778104,"10":-1.5062982388598425,"11":-1.6052119441231656,"12":0.3027555120475223,"13":-0.6153612954134927,"14":-1.559305226990812,"15":-0.5158518528567161,"16":-0.4052144165353321,"17":0.22909990512034242,"18":-0.7102296512599737,"19":0.030783932296945562,"20":-0.3007798953479708,"21":0.04936000460369419,"22":-0.09883217735842856,"23":0.061276423816240794,"24":-0.20512764473590436,"25":-0.3630387925673134,"26":0.16184920035632575,"27":0.10338822209185444,"28":-1.012561891595963,"29":-0.3372426439310791,"30":-1.1969733513560283,"31":-0.46431201323867627,"32":-0.047530882642789096,"33":-0.8371096687920985,"34":-0.4272814270393085,"35":0.08204604222612732}},{"sx":1,"sy":1,"depth":36,"w":{"0":0.0469893083195657,"1":-0.9330893412143385,"2":1.05718689359735,"3":2.5851746639957183,"4":0.5547779161463933,"5":0.5071595054104481,"6":1.7474945439337402,"7":2.293433631702939,"8":-0.44345254336164047,"9":1.2611725413801416,"10":2.33752384001198,"11":0.8467282623541965,"12":-2.638180248981377,"13":-0.9820435517290496,"14":0.3565707069787013,"15":0.7554209178010557,"16":0.08196099521035506,"17":0.8423851136876754,"18":-1.0555718244511272,"19":-2.6077418357637425,"20":-0.5347248198765472,"21":-0.5684280625441416,"22":-1.6919958751424222,"23":-2.2219179086665264,"24":0.4435346238394397,"25":-1.3214673110163562,"26":-2.339631021489984,"27":-0.8706029903742883,"28":2.696059099177934,"29":1.0075375740861323,"30":-0.36940358217021885,"31":-0.6839469253774125,"32":-0.3018461938836468,"33":-0.04118238096620619,"34":0.05733290729542795,"35":0.06459952834700647}},{"sx":1,"sy":1,"depth":36,"w":{"0":0.15055153427654253,"1":0.20756842787841728,"2":0.492723167892335,"3":0.5262696070745515,"4":-0.19370737402753344,"5":-0.19071183882471002,"6":0.4343500817167878,"7":0.12002648319480633,"8":-1.8492740430429333,"9":-1.1596962141108489,"10":0.4471273868714054,"11":-0.8769565439367791,"12":0.4680282104421583,"13":-1.0999303446034236,"14":-0.2936327409922571,"15":-0.0721433659188613,"16":-0.19914773158462074,"17":-0.06585418595362173,"18":-0.25864276862744023,"19":-0.49102023904989023,"20":-0.32740159476306163,"21":-0.4592306179635194,"22":-0.001483118520847435,"23":-0.146098473312649,"24":-0.9763784235616084,"25":-0.0629921815572816,"26":-0.45357023975708427,"27":-0.23299160631373428,"28":-0.23148628667825233,"29":-1.822428225265458,"30":-0.9396630121548264,"31":0.02444679709381157,"32":0.2834836801280489,"33":0.1863594589979352,"34":0.1021227483459082,"35":0.023803346764156973}},{"sx":1,"sy":1,"depth":36,"w":{"0":0.5060926949508464,"1":-0.7823742874213204,"2":-1.9589830057700626,"3":-0.6925237244230252,"4":-3.069550564573956,"5":0.906664620293891,"6":0.6765275865878101,"7":-0.17003955467909576,"8":-0.01142429942076755,"9":0.4871927622510072,"10":0.40881747640496835,"11":0.6969863747229139,"12":0.6481481681725839,"13":0.5388119164142254,"14":0.7725334925741912,"15":0.4014690653435821,"16":-1.7802583895985502,"17":-1.845392993699712,"18":-0.2605482456051505,"19":-0.34516391006301195,"20":-0.20353385887153075,"21":-0.3982807533480953,"22":-0.3703099415329093,"23":-0.3572541992385606,"24":-0.32594069803846637,"25":-0.1912357866891811,"26":-0.16663006149083712,"27":-0.5473738776626966,"28":-0.20428193482575474,"29":-0.08141568436512363,"30":-0.46023865735978814,"31":-0.5029782265112981,"32":0.6594015047458496,"33":0.2936516638177723,"34":0.3112684195208221,"35":0.7469690961482168}}],"biases":{"sx":1,"sy":1,"depth":16,"w":{"0":0.4638193989473831,"1":-0.45149549590710825,"2":0.9452740820985923,"3":0.46997903140883623,"4":0.5940521127517423,"5":0.2888777148349365,"6":0.35439326188540965,"7":0.2325181370269869,"8":0.17080956923834734,"9":0.2871091035914509,"10":0.3493470641245086,"11":0.16428790079041738,"12":0.0760004171617963,"13":0.10988676802798633,"14":0.1441330248370012,"15":0.25479303434018363}}},{"out_depth":16,"out_sx":1,"out_sy":1,"layer_type":"relu"},{"out_depth":8,"out_sx":1,"out_sy":1,"layer_type":"fc","num_inputs":16,"l1_decay_mul":0,"l2_decay_mul":1,"filters":[{"sx":1,"sy":1,"depth":16,"w":{"0":0.002336525652850552,"1":0.05970039440294631,"2":0.0375015740726436,"3":0.1587694815361985,"4":0.060076198101766065,"5":-1.1005821806482308,"6":0.21617725456193526,"7":-0.20392539171253182,"8":-0.212777667776931,"9":0.39518708215163106,"10":0.6255491289225656,"11":-0.07404737335022601,"12":-0.4810577007180756,"13":0.01258023256246119,"14":0.16896205425969088,"15":-0.28247416724213825}},{"sx":1,"sy":1,"depth":16,"w":{"0":0.4721415070126203,"1":-0.43058683121299945,"2":0.47024544768462145,"3":-0.8537155929550145,"4":0.8110882154684798,"5":0.15096933149996553,"6":0.11429466183851954,"7":-1.578739180681361,"8":-0.01015282988416821,"9":-0.018190164131202346,"10":-1.2900653806205606,"11":0.10791247139112302,"12":0.1798825885993169,"13":0.31071851022388947,"14":0.13639411166866072,"15":0.17828783718710417}},{"sx":1,"sy":1,"depth":16,"w":{"0":0.0038710400805874617,"1":-0.1396271781324137,"2":0.577248855361299,"3":0.4175858630675258,"4":-0.04088882045472417,"5":-1.4425821906297676,"6":-1.8082427318508518,"7":0.021775816855623808,"8":-1.087212019770243,"9":-1.5359887273476753,"10":-0.20611900345704828,"11":-1.097382417759036,"12":-1.4954676008251895,"13":-0.7340215126687124,"14":-1.2844483728423555,"15":-1.1200959295383008}},{"sx":1,"sy":1,"depth":16,"w":{"0":-0.3829604042425627,"1":-0.4305250221999271,"2":0.16440999700301562,"3":0.4591161536360944,"4":-0.391283724535869,"5":0.2462187791965816,"6":0.11016160659540086,"7":0.8738104739829403,"8":0.058082176102018365,"9":0.07411967532616164,"10":0.7083938757410471,"11":0.20933058272367264,"12":0.29124379604546713,"13":0.5139278482823278,"14":0.11067858871578751,"15":0.23686173476078942}},{"sx":1,"sy":1,"depth":16,"w":{"0":-0.05281285907868479,"1":-0.38982927634509174,"2":0.4628551397005682,"3":-0.6690148835611809,"4":-0.07198234774548329,"5":0.4650145938131563,"6":-0.11669011964635198,"7":0.3431262254277164,"8":-0.5499609730022362,"9":-0.22177639712310918,"10":0.18143997909339754,"11":-0.1108419651386204,"12":-0.3695504119831199,"13":0.0906422569609024,"14":0.13212990101250974,"15":0.4498515001423561}},{"sx":1,"sy":1,"depth":16,"w":{"0":-1.6135724402547964,"1":0.1166483149700047,"2":0.08536287045223355,"3":-0.040607089232109074,"4":0.33287300643940554,"5":-0.041640495921024555,"6":0.05239102466346023,"7":-0.06134083948889234,"8":-0.10386944332852233,"9":0.07563348668212044,"10":-0.6688055756860131,"11":0.05706924497890198,"12":-0.09372121338015921,"13":-0.03713954945059997,"14":-0.061258519775238184,"15":-0.023115817427991275}},{"sx":1,"sy":1,"depth":16,"w":{"0":0.3036115385781891,"1":-1.0219524948214118,"2":0.011225861221176494,"3":0.3475152456793882,"4":0.49452122610013877,"5":-0.3533348355079044,"6":-0.18806733725278907,"7":-0.6838577455339414,"8":-0.8166939380017003,"9":-0.49817805865617976,"10":0.477069461607749,"11":-0.11798367745084978,"12":-0.8673903807371385,"13":-0.03495094911215104,"14":-0.8881647315985107,"15":-0.46624188491794105}},{"sx":1,"sy":1,"depth":16,"w":{"0":0.478553507298917,"1":0.054642139813633146,"2":-0.10727768906640014,"3":0.09354740236214044,"4":0.39372391081308683,"5":0.15837254754488905,"6":-0.19574098183128463,"7":-0.16543869266426225,"8":-0.9618150988788703,"9":-0.1162698506531729,"10":-0.16736611893738515,"11":-1.1376083620160518,"12":-0.21240698749023146,"13":-1.7392876866402267,"14":-0.2833280972108306,"15":0.08595565536894896}}],"biases":{"sx":1,"sy":1,"depth":8,"w":{"0":0.5500130432197433,"1":1.0571081581824917,"2":0.5313047118854628,"3":-0.5293677083250321,"4":1.2339362707921409,"5":0.46087418944040565,"6":0.24006125677326173,"7":0.838788361937484}}},{"out_depth":8,"out_sx":1,"out_sy":1,"layer_type":"relu"},{"out_depth":8,"out_sx":1,"out_sy":1,"layer_type":"fc","num_inputs":8,"l1_decay_mul":0,"l2_decay_mul":1,"filters":[{"sx":1,"sy":1,"depth":8,"w":{"0":-0.005213112643707917,"1":-0.6469364608063984,"2":-0.007568350634707675,"3":-0.44255891283516147,"4":-0.34529043483642097,"5":-0.6242292863344616,"6":0.03973332008887391,"7":-0.5873148173464287}},{"sx":1,"sy":1,"depth":8,"w":{"0":-0.04371098083823843,"1":-0.588963346085413,"2":-0.3876783298131434,"3":-0.03918364954581208,"4":-0.08791187916850281,"5":-0.2569437085613727,"6":0.05896863644621605,"7":-0.5054659249835377}},{"sx":1,"sy":1,"depth":8,"w":{"0":-0.33426849031364236,"1":-0.5754147096972286,"2":-0.002283501239848548,"3":-0.19418015887943557,"4":-0.5512157270508069,"5":-0.2810964110160507,"6":-0.012787517051106952,"7":-0.21737017429207062}},{"sx":1,"sy":1,"depth":8,"w":{"0":-0.25197715580908964,"1":0.15589850583372702,"2":-0.28627591269787533,"3":-0.04718795011616053,"4":-0.0031072969343687697,"5":-1.1226242064963303,"6":0.11846494041624668,"7":-0.052336458489543214}},{"sx":1,"sy":1,"depth":8,"w":{"0":0.3225164476249937,"1":0.16180307253630874,"2":-0.4606503256211226,"3":-0.25525634856390966,"4":-0.07839621438853787,"5":-0.028027255129609425,"6":0.08471360237418502,"7":-0.29026806874527694}},{"sx":1,"sy":1,"depth":8,"w":{"0":-0.05237062864688265,"1":0.3041881664226074,"2":-0.9326346291894396,"3":-0.12131091385410167,"4":0.11394101452081129,"5":0.04844437704110221,"6":0.29084259935830126,"7":-0.12990607425899087}},{"sx":1,"sy":1,"depth":8,"w":{"0":0.3565581813754001,"1":0.16389317519609414,"2":-0.22469368901068382,"3":-0.20050682217332494,"4":0.1013293538433183,"5":-0.7251771731321974,"6":0.0731529742070052,"7":-0.0039596633483305445}},{"sx":1,"sy":1,"depth":8,"w":{"0":-0.6676711392467618,"1":-0.23960474248479544,"2":0.8688056585708167,"3":-0.6616777718867835,"4":-0.5307000712105878,"5":0.3623089319100201,"6":-0.7099790562869821,"7":0.4901105953675127}}],"biases":{"sx":1,"sy":1,"depth":8,"w":{"0":0.008941109047053407,"1":0.3034814659366414,"2":0.09778248368772446,"3":2.898725987874152,"4":2.2857413701333704,"5":4.348439378735044,"6":0.6680406742685591,"7":1.006448306982375}}},{"out_depth":8,"out_sx":1,"out_sy":1,"layer_type":"relu"},{"out_depth":4,"out_sx":1,"out_sy":1,"layer_type":"fc","num_inputs":8,"l1_decay_mul":0,"l2_decay_mul":1,"filters":[{"sx":1,"sy":1,"depth":8,"w":{"0":-0.07050619321798203,"1":0.17536029963522726,"2":-0.7915049135379509,"3":-0.07412364121615565,"4":0.15912444552984867,"5":0.3069037552530348,"6":-0.07227327772417158,"7":-0.286637616148914}},{"sx":1,"sy":1,"depth":8,"w":{"0":0.10872017029406955,"1":0.35636494042741146,"2":-0.46503069142853104,"3":0.23113718004884068,"4":0.09268658757944209,"5":0.2035324464270736,"6":0.09352197973276939,"7":-0.36510220490304646}},{"sx":1,"sy":1,"depth":8,"w":{"0":-0.20893692662180288,"1":0.2529883942877284,"2":0.17234400780994236,"3":-0.02009612056053539,"4":0.08666224658250217,"5":0.34090045069399105,"6":-0.08305223000919727,"7":-0.31107175147038996}},{"sx":1,"sy":1,"depth":8,"w":{"0":-0.8201790831355094,"1":0.12256289289594105,"2":0.023832224165189236,"3":0.13259802515257346,"4":0.03135047215149702,"5":0.2290589896543374,"6":0.1946612478785815,"7":-0.3059555972604472}}],"biases":{"sx":1,"sy":1,"depth":4,"w":{"0":3.768119603294883,"1":4.862102113443246,"2":3.7832524014327062,"3":4.556161049363074}}},{"out_depth":4,"out_sx":1,"out_sy":1,"layer_type":"regression","num_inputs":4}]}