{"layers":[{"out_depth":36,"out_sx":1,"out_sy":1,"layer_type":"input"},{"out_depth":512,"out_sx":1,"out_sy":1,"layer_type":"fc","num_inputs":36,"l1_decay_mul":0,"l2_decay_mul":1,"filters":[{"sx":1,"sy":1,"depth":36,"w":{"0":-27161299025086968000,"1":-34442398974773658000,"2":-84732700008372080000,"3":-20141505010632000000,"4":-77893865308230200000,"5":-340624587304855600000,"6":-565398270025554700000,"7":-80299204966787960000,"8":-157898715223233230000,"9":-142862456318967270000,"10":-98322278818775250000,"11":-147524706047575050000,"12":-48956199394044150000,"13":-189996587018693000000,"14":-16038611236903756000,"15":-83842767654658850000,"16":-33158637246551888000,"17":-61142162662871480000,"18":-61261921554717580000,"19":-22335687914237207000,"20":-119322754748398830000,"21":-299969859348906900000,"22":-557229329987812000000,"23":-147791184827466200000,"24":-227622730728230200000,"25":-156374343152466900000,"26":-203755634722667700000,"27":63801947321203310000,"28":-51558154088633380000,"29":-158724646461707060000,"30":-35525541231208970000,"31":-66400910565124880000,"32":-32209801493138750000,"33":-66632534874624420000,"34":-42193125731175870000,"35":-11230640780170689000}},{"sx":1,"sy":1,"depth":36,"w":{"0":-18.636490905505507,"1":-15.172248784759995,"2":-55.76074545568593,"3":-11.408985721299732,"4":-7.723512059051217,"5":-50.18525986729825,"6":-53.75762623110909,"7":-5.371031456147042,"8":-23.03565927875539,"9":-88.69431945137202,"10":-54.004343433848014,"11":-177.89817077291366,"12":-5.846165750859512,"13":-43.10696084259056,"14":-13.666235436044941,"15":-10.122972302291274,"16":-14.493082533701399,"17":-58.327524098938156,"18":-14.519637800595076,"19":-2.79477841517241,"20":-25.34672463419156,"21":-43.67723679152413,"22":-50.40929006361534,"23":-172.72258024196682,"24":-28.058932462150278,"25":-88.15169693886479,"26":-52.73360424029207,"27":-5.463230916037941,"28":-8.149627375667045,"29":-45.57467599401834,"30":-11.979504976867823,"31":-5.664483782463465,"32":-0.7527990268955375,"33":-21.88453780747409,"34":-14.215577660950675,"35":-7.928149103292904}},{"sx":1,"sy":1,"depth":36,"w":{"0":-13.41002485779829,"1":-33.59190727710931,"2":-11.433713540794376,"3":-4.068469977187815,"4":-6.430817427732307,"5":-7.528588720066258,"6":-22.96681707503723,"7":-5.557795703241841,"8":-3.4339517964732056,"9":-28.17407200332312,"10":-42.14261525676693,"11":-8.644832630542085,"12":-2.083731427868047,"13":-6.819579605301092,"14":-5.162094281747977,"15":-5.2118759485161705,"16":-6.8179919941236395,"17":-32.320729514687436,"18":-11.190369067466646,"19":-4.395309744540084,"20":-11.085046226340603,"21":-4.501756789970445,"22":-23.384344075349745,"23":-5.587800881204177,"24":-2.769675946350988,"25":-14.742973224920464,"26":-55.8144674550112,"27":-10.380477403439162,"28":-2.7153806714337523,"29":-5.965635905485041,"30":-5.107871919892328,"31":-6.641854649325795,"32":-4.204581979685779,"33":-0.546796119064581,"34":-6.904413085968792,"35":-14.615872887885537}},{"sx":1,"sy":1,"depth":36,"w":{"0":-61627603580569.62,"1":-30813801790284.938,"2":-61627603580569.35,"3":-30813801790284.58,"4":-0.2966683736007639,"5":-0.1241350038536784,"6":-30813801790284.895,"7":-30813801790284.92,"8":-0.12178892073152853,"9":-0.07063027242851054,"10":-0.1869536565704932,"11":0.040972965773266645,"12":-0.34817583807515645,"13":-0.4644788975763133,"14":-0.2444627194365525,"15":-0.14143047813558132,"16":0.14572986020316475,"17":-0.46080978304980114,"18":-0.0808506926530207,"19":-0.18289492718466524,"20":0.10151945252434327,"21":-0.062463798236971756,"22":-0.17162975014097226,"23":-0.01872273251098049,"24":-0.07374095287451417,"25":-0.22752707590768884,"26":-61627603580569.4,"27":0.05962851429993404,"28":-61627603580569.52,"29":-30813801790284.75,"30":-30813801790284.574,"31":-30813801790284.723,"32":0.10581770310157565,"33":0.09952773705806292,"34":-0.14784550571501107,"35":-246510414322277.66}},{"sx":1,"sy":1,"depth":36,"w":{"0":-9.92209935599281,"1":-7.890970926817911,"2":-4.28715560302268,"3":-3.919492917043858,"4":-6.84480071997952,"5":-31.989053530345057,"6":-35.01866226449931,"7":-9.310220066510167,"8":-26.141574126024352,"9":-60.737082969054356,"10":-18.584541665382847,"11":-104.24882613443248,"12":-9.28672184288912,"13":-27.994517295026835,"14":-10.75733167723297,"15":-3.4729264274168066,"16":-8.877536829207148,"17":-7.854102340010082,"18":-4.783124850670914,"19":-1.9045418019095064,"20":-7.809672487991351,"21":-30.242987388986066,"22":-31.67383358027027,"23":-99.68812998564535,"24":-28.37803458087537,"25":-63.7626563902961,"26":-21.200235717761363,"27":-15.303049601849755,"28":-10.713519607088282,"29":-28.45761150557706,"30":-11.892521101478286,"31":-1.7267492684301569,"32":-1.4791129107322174,"33":-12.41629428323135,"34":-3.8047393935115674,"35":-11.443746303261596}},{"sx":1,"sy":1,"depth":36,"w":{"0":-44146472276778250,"1":-56689032883939840,"2":-138424179698846480,"3":-32813922800497948,"4":-126067242441016270,"5":-558604908256618700,"6":-911067183566683000,"7":-135602653632000220,"8":-259047985358110600,"9":-239329618330324320,"10":-159551199823758700,"11":-246877123035159600,"12":-80307709271371920,"13":-321048062846679600,"14":-24674041203938290,"15":-140770871412680540,"16":-54167205796975600,"17":-99232029872015600,"18":-100162422280061010,"19":-36742372749812210,"20":-194130223730546240,"21":-486665238447704300,"22":-897780915729618200,"23":-251989752992652580,"24":-375985605889660540,"25":-259301818730412600,"26":-329645127498234700,"27":98656772032674980,"28":-85873025592750770,"29":-267944854509377440,"30":-58124575651427410,"31":-111215797260165230,"32":-52816701787636210,"33":-109322056265384020,"34":-69731195560315064,"35":-18187781333417844}},{"sx":1,"sy":1,"depth":36,"w":{"0":-1846706215279246300,"1":-2336897916363861000,"2":-5756094457609194000,"3":-1369006555273788000,"4":-5300400920255880000,"5":-23123640205405434000,"6":-38502139972852810000,"7":-5421210824181167000,"8":-10718224568081474000,"9":-9658697867355914000,"10":-6686884248727661000,"11":-9980775157248926000,"12":-3323162206457444400,"13":-12825659223269861000,"14":-1101124530303006200,"15":-5667660221040865000,"16":-2252902505805169000,"17":-4158526938883742700,"18":-4160936385435515400,"19":-1515362669912386800,"20":-8112767070685182000,"21":-20402469047952974000,"22":-37946648343820450000,"23":-9959907360381483000,"24":-15435565650196347000,"25":-10592912424483914000,"26":-13866179262501904000,"27":4377403109539290600,"28":-3490934407260177400,"29":-10716673544629180000,"30":-2412626596284365000,"31":-4489914042657324000,"32":-2186397549354997500,"33":-4522725017725243400,"34":-2860625234585968000,"35":-764077428966607700}},{"sx":1,"sy":1,"depth":36,"w":{"0":-7197335221202277000,"1":-9147897946626030000,"2":-22479088490025185000,"3":-5340727079655612000,"4":-20634117423630135000,"5":-90394069738972460000,"6":-149699737406204900000,"7":-21387948687682780000,"8":-41896049718086180000,"9":-38000773662384505000,"10":-26051424666576720000,"11":-39294316145777570000,"12":-12990916232814803000,"13":-50605450053759660000,"14":-4221538823901677600,"15":-22324544023014044000,"16":-8798690042691367000,"17":-16204965505912982000,"18":-16252383790232592000,"19":-5929336385534994000,"20":-31641850665946436000,"21":-79488180057511230000,"22":-147533635733286260000,"23":-39412191579725610000,"24":-60499224483393135000,"25":-41541511607332460000,"26":-53969775976816980000,"27":16807653356877460000,"28":-13719400415643204000,"29":-42270425909175560000,"30":-9422883048372273000,"31":-17664689994028032000,"32":-8545615487697295000,"33":-17678548864151020000,"34":-11212810854435518000,"35":-2975397950576794000}},{"sx":1,"sy":1,"depth":36,"w":{"0":-26.602436970070677,"1":-14.97748088835449,"2":-10.399547291966877,"3":-8.059819468265975,"4":-12.5358316018758,"5":-72.356873198127,"6":-111.75227443883747,"7":-1.7760527313159553,"8":-51.458732854658244,"9":-207.60746337031742,"10":-53.071630201548,"11":-408.87388533868386,"12":-13.529202608540746,"13":-101.33983242021401,"14":-28.543208775737934,"15":-7.260321681833928,"16":-27.076032328760032,"17":-14.239696639268828,"18":-10.683927342132801,"19":-1.3079682901829288,"20":-12.720388968157945,"21":-72.07823630958826,"22":-111.9559116653644,"23":-405.81444206760705,"24":-56.365027054592204,"25":-204.453670332806,"26":-54.21680488963163,"27":-8.822822085926667,"28":-13.720699436061913,"29":-104.24018828567772,"30":-25.741186567056026,"31":-0.6935723301894772,"32":-1.4656375192807904,"33":-50.799135278680346,"34":-3.6713778563427013,"35":-0.6301801375768271}},{"sx":1,"sy":1,"depth":36,"w":{"0":-3.262426739193767,"1":-32.354792285785855,"2":-12.341594090505762,"3":-3.981853195982245,"4":-2.3668129425189797,"5":-8.236767840398812,"6":-26.700294664132127,"7":-19.244072799845448,"8":-0.43020269257351423,"9":-6.145307769933664,"10":-20.363179981081206,"11":-16.951199670938415,"12":-1.9233868940325238,"13":-6.66684075799476,"14":-7.069742726166223,"15":-7.147217055579773,"16":-3.795561062819697,"17":-30.18906787280174,"18":-12.944080758084292,"19":-3.396884270395027,"20":-1.8638844480101724,"21":-3.803937576267515,"22":-35.613259836668746,"23":-9.024241239474271,"24":-4.948031161499511,"25":-14.548722794120543,"26":-10.375456431900043,"27":-15.499379227603889,"28":-1.7215920378561351,"29":-11.100392603844881,"30":-7.528508998629378,"31":-6.744391190148281,"32":-0.08652552672514371,"33":-0.5400692412308794,"34":-12.357818264418484,"35":-14.876250227566779}},{"sx":1,"sy":1,"depth":36,"w":{"0":-12.534011301604924,"1":-7.810828910711203,"2":-4.522382347575127,"3":-3.107530577360471,"4":-3.803022101335557,"5":-24.761877255410372,"6":-49.68754386906549,"7":-0.363931915240386,"8":-24.698999203690345,"9":-98.24176933148486,"10":-25.157105573554084,"11":-195.69437647171912,"12":-6.418382003856211,"13":-49.682610937765325,"14":-13.608033832397046,"15":-3.474865120685762,"16":-12.359227268959996,"17":-6.5600322365541714,"18":-5.378070624895016,"19":-0.0962512805440025,"20":-3.4855863115677357,"21":-24.73160075369323,"22":-49.17004707623823,"23":-196.0900387171183,"24":-25.39085096033355,"25":-103.7134746741604,"26":-25.70748908751644,"27":-4.040405690425849,"28":-7.770164487263509,"29":-52.85555666269552,"30":-12.297559807607279,"31":-0.03665590593808948,"32":-1.0674257488926984,"33":-24.80918731027762,"34":-0.2104869582489265,"35":-0.5112442971401213}},{"sx":1,"sy":1,"depth":36,"w":{"0":-0.6925708425927577,"1":-1.892750474861796,"2":-1.8619877000368563,"3":-1.8890123136486698,"4":-8.935709355211909,"5":-5.411680596399938,"6":-4.594755394818887,"7":-11.150642418375934,"8":-8.329620880931373,"9":-3.293730987000893,"10":-3.5687034767110974,"11":-0.4386974590722541,"12":-3.9796515270016393,"13":-4.221357804708751,"14":-0.44642469709994403,"15":-1.96024588893296,"16":-1.0000010837309516,"17":-1.4298546940657904,"18":-1.842798053239781,"19":-1.2212139511995297,"20":-9.358845248794497,"21":-5.5900181150291965,"22":-9.26700816215065,"23":-0.8406355081669585,"24":-9.266726480574885,"25":-1.9149113771911068,"26":-4.941398712989899,"27":-4.379806121936092,"28":-4.034908438003971,"29":-4.793061654425897,"30":-0.5566325825212293,"31":-1.7253644273650686,"32":-0.5728557940833199,"33":0.13735727807474432,"34":-0.955779378535207,"35":-4.880025378413702}},{"sx":1,"sy":1,"depth":36,"w":{"0":-33.3897493873503,"1":-76.70398036134954,"2":-91.42842669107371,"3":-19.618477047321004,"4":-18.332231367378917,"5":-64.67100018248281,"6":-83.10866448495324,"7":-50.70505607560157,"8":-33.724558422483554,"9":-136.6486904426784,"10":-78.74137606254679,"11":-171.8861865344222,"12":-11.176890109225743,"13":-63.111200753032456,"14":-19.479450257611315,"15":-20.724206954611258,"16":-30.294763987682785,"17":-132.79783242751725,"18":-36.46646353821285,"19":-10.35565453560504,"20":-37.71977622057284,"21":-52.45438458250823,"22":-89.55351249446973,"23":-167.2563172683942,"24":-44.91907866664177,"25":-118.24893580244488,"26":-94.50359335657772,"27":-35.83358112626736,"28":-13.876049300318794,"29":-64.66295386566283,"30":-21.328928905351336,"31":-19.17966863334678,"32":-13.747565870329051,"33":-18.43551124946741,"34":-35.01876050187015,"35":-29.971562459120342}},{"sx":1,"sy":1,"depth":36,"w":{"0":null,"1":null,"2":null,"3":null,"4":null,"5":null,"6":null,"7":null,"8":null,"9":null,"10":null,"11":null,"12":null,"13":null,"14":null,"15":null,"16":null,"17":null,"18":null,"19":null,"20":null,"21":null,"22":null,"23":null,"24":null,"25":null,"26":null,"27":null,"28":null,"29":null,"30":null,"31":null,"32":null,"33":null,"34":null,"35":null}},{"sx":1,"sy":1,"depth":36,"w":{"0":0.05120663890254012,"1":-0.45611593326528294,"2":-0.4321423372301378,"3":-0.3880495396480026,"4":-0.9193490660793584,"5":0.0025479382205441806,"6":-0.036850423619414194,"7":-0.8811226332027093,"8":-0.14787737371163442,"9":-0.8405237567510944,"10":-2.0058920705535157,"11":-0.9694740075975568,"12":-0.141964670231434,"13":-0.008666192143864642,"14":-5.006580143666084,"15":0.09430483654952648,"16":-0.11573295736376882,"17":-0.12542070176498868,"18":-0.3328170228058967,"19":-0.49380475471512825,"20":-0.45369500046533745,"21":0.12942348990735703,"22":0.000548835271815615,"23":-0.7057678989159744,"24":-0.5939351416887434,"25":-1.3904647445915104,"26":-0.29424398559963416,"27":-1.7495096639669738,"28":-0.21769771749689837,"29":-5.269052185634878,"30":0.007019478991251361,"31":-0.11251228082189102,"32":-0.682165205395848,"33":-0.08623214388761673,"34":-0.8025570202742405,"35":-0.4571323470739243}},{"sx":1,"sy":1,"depth":36,"w":{"0":-0.22349784831890915,"1":-1.0404068450210266,"2":-0.2952421718993469,"3":-0.12890624526720404,"4":-0.14872882032044035,"5":-0.13768631143560078,"6":-1.7266114356810374,"7":-6.138515657958938,"8":-0.046322848468070874,"9":-0.7909014275565942,"10":-0.37086815491653524,"11":-0.73131216338166,"12":-0.452479876396877,"13":-2.9256928126796464,"14":-0.1017553009147306,"15":-1.616395274298723,"16":-0.3429059133167208,"17":0.04853891890342266,"18":-0.3893243739755641,"19":-0.14411731489088594,"20":-0.002138323015835627,"21":-0.19035665501588359,"22":-7.151493060903059,"23":-0.486319998457825,"24":-1.0086260523026074,"25":-0.14619925990209165,"26":-0.37740813521173733,"27":-0.6157495398806795,"28":-0.32348894380802107,"29":-3.839404850607791,"30":-0.15573795373728777,"31":-1.200088308656198,"32":-0.2930488279390749,"33":-0.12434170315014699,"34":-1.0105954674693525,"35":-0.3421240733998835}},{"sx":1,"sy":1,"depth":36,"w":{"0":-347953403887217860,"1":-411144638332915700,"2":-420710476792075460,"3":-255001106313182500,"4":-1026141817440182700,"5":-4473295203381734000,"6":-7415575145084107000,"7":-1003852031128906000,"8":-2074278006877586000,"9":-1850386656401450000,"10":-1273057142048467500,"11":-1839597351782512600,"12":-631552781997539200,"13":-2472808583794312000,"14":-214034867277666700,"15":-1079708016947268700,"16":-425605278051498500,"17":-765216975033052300,"18":-112147553261441620,"19":-283081887950103680,"20":-1528419076989318700,"21":-3932619400487696000,"22":-7328259744076576000,"23":-1917663974598686700,"24":-2938218657230674400,"25":-2002875846906556700,"26":-2665303259731644400,"27":853438342630962600,"28":-651220566135780100,"29":-2066249697768063500,"30":-466512871721081800,"31":-864303345929204000,"32":-423380371802993800,"33":-869966766571103700,"34":-471630076189825800,"35":-148119228824490980}},{"sx":1,"sy":1,"depth":36,"w":{"0":-9.062798897570193,"1":-12.57270745937233,"2":-5.331563314546034,"3":-3.51319385829755,"4":-10.377385547417072,"5":-12.395556266364702,"6":-14.34457930758092,"7":-15.618116687572064,"8":-21.185305574277493,"9":-9.596669272052525,"10":-5.333907014617981,"11":-7.854278780628629,"12":-10.27798868687153,"13":-4.045781667897653,"14":-1.916017276512297,"15":-1.0308234353466266,"16":-5.592790460042288,"17":-11.84680178973676,"18":-5.227859884732998,"19":-1.9738683861872692,"20":-12.164070941112561,"21":-12.211699664833267,"22":-7.533423385452379,"23":-6.483319089046472,"24":-21.713498604608244,"25":-7.064780938371895,"26":-8.724629180244593,"27":-17.9818430857342,"28":-11.455918101097197,"29":-4.712556724419707,"30":-3.623980988917706,"31":-0.8604902801490711,"32":-1.0014684985940097,"33":-0.07726029478911117,"34":-0.052489993388368524,"35":-27.684061037905515}},{"sx":1,"sy":1,"depth":36,"w":{"0":-12838620551285756,"1":-51009082422708690,"2":-816318018654552300,"3":-12838620551285756,"4":-0.256807672600771,"5":-0.14322620911269196,"6":-51009082422708690,"7":-51354482205143020,"8":-0.03705491822565459,"9":-12752270605677172,"10":-0.9152657221989453,"11":-102104514791026540,"12":-0.18687179648612887,"13":-0.04484788491106391,"14":0.06520745927280404,"15":-12838620551285756,"16":-12924970496893922,"17":-51095432368317000,"18":-816145318763339000,"19":-12752270605677172,"20":-51354482205143020,"21":-25504541211354344,"22":-25504541211354344,"23":-0.15255179661243226,"24":-51095432368317000,"25":-51009082422708690,"26":-0.36198737193364844,"27":-0.4473089903531426,"28":-12752270605677172,"29":-0.455514287364943,"30":-86349945608451.98,"31":0.17936956562355166,"32":-0.14825022848289549,"33":0.06966789403159937,"34":-102708964410286050,"35":-0.0126021335363651}},{"sx":1,"sy":1,"depth":36,"w":{"0":-2.5033516358189436,"1":-30.912736364777125,"2":-40.05232597928781,"3":-6.005097782752929,"4":-7.04600350237151,"5":-10.310638778235694,"6":-11.740608332780985,"7":-4.867302215427051,"8":-0.16665854704253677,"9":-0.8664684393225999,"10":-3.138313048610308,"11":-7.1015662380067734,"12":-1.1325687413882393,"13":-0.32258411681199556,"14":-0.5117152304969438,"15":-3.9698529038441985,"16":-4.578930690452497,"17":-61.301276717337345,"18":-11.728996581090524,"19":-2.110400527956319,"20":-13.889674925893233,"21":-6.422957729919897,"22":-9.439670325405432,"23":-3.2932828091927018,"24":-3.077638574922916,"25":-0.5857069507570093,"26":-2.109126959322044,"27":-5.042206557953016,"28":-1.2465476299592564,"29":-0.5673501973732844,"30":-0.4473267523626801,"31":-2.802848775957677,"32":-0.6283748900398844,"33":0.1807060367739506,"34":-14.927895797639948,"35":-2.4105894200334324}},{"sx":1,"sy":1,"depth":36,"w":{"0":-17656144489960436,"1":-20352948116955396,"2":-52754853503716024,"3":-12521159790796090,"4":-51718106001156560,"5":-209230947858974600,"6":-383393387939113100,"7":-40986777214609240,"8":-97514401452380670,"9":-78192405894729920,"10":-64654532660953730,"11":-76068666788762480,"12":-29884135689571510,"13":-97047396077195970,"14":-13502956740740044,"15":-43758958541252750,"16":-19994512208703090,"17":-39498967199532024,"18":-37680549318659870,"19":-13249988807042302,"20":-75669267620026100,"21":-195402772296790500,"22":-376161153775724900,"23":-69450914060312650,"24":-128480999691624030,"25":-90964999851536740,"26":-131496670813784530,"27":60465864202259090,"28":-26769660918768510,"29":-80590460786745310,"30":-21715089793068890,"31":-31937455568223610,"32":-19978698798173260,"33":-41280023678979336,"34":-22262082723544116,"35":-6980254668683311}},{"sx":1,"sy":1,"depth":36,"w":{"0":-2476287924148860000,"1":-3111314012353992000,"2":-7690316637639144000,"3":-1831756794102164700,"4":-7112393682072367000,"5":-30869769567739830000,"6":-51734930240154430000,"7":-7162885575110465000,"8":-14317312411508621000,"9":-12814643952734224000,"10":-8968339295545211000,"11":-13172621317319698000,"12":-4437716793811663400,"13":-16948144887369730000,"14":-1503578365416097800,"15":-7492455541328406000,"16":-3007345997264818700,"17":-5571393658159000000,"18":-5559711076045450000,"19":-2021269741763283500,"20":-10850665426175380000,"21":-27352375294619160000,"22":-50991870956879070000,"23":-13114090507901827000,"24":-20504815635317436000,"25":-14104583636121360000,"26":-18611637396170674000,"27":5961940119264077000,"28":-4621777639294902000,"29":-14166859777193191000,"30":-3225971172724508000,"31":-5953584327613167000,"32":-2921519972728953000,"33":-6043372755304017000,"34":-3802430060257571000,"35":-1024889956407381000}},{"sx":1,"sy":1,"depth":36,"w":{"0":-21.540471012825858,"1":-63.25207897372097,"2":-72.1563085166759,"3":-18.573251864014345,"4":-21.627842567768887,"5":-39.870349965394034,"6":-46.19480761260124,"7":-13.186569339331362,"8":-24.020411709093334,"9":-55.99689026160795,"10":-69.80697169597236,"11":-15.831130333070535,"12":-10.693469272024192,"13":-13.252116397970783,"14":-9.709710449588886,"15":-13.974201069910675,"16":-17.104286228032063,"17":-113.95408952446638,"18":-23.624877327618066,"19":-8.431862009493976,"20":-43.12736966368325,"21":-42.91347403400451,"22":-29.61730908388581,"23":-8.437509822113466,"24":-29.56120087668086,"25":-30.26912225951711,"26":-90.29531982468286,"27":-13.496429284817495,"28":-13.525543429860056,"29":-11.21806243078897,"30":-11.84882201326562,"31":-13.885291580782836,"32":-7.170744150575288,"33":-0.3683548347975272,"34":-36.224525402670096,"35":-20.1041611392172}},{"sx":1,"sy":1,"depth":36,"w":{"0":-306346790368557100,"1":-389729755310340860,"2":-957123292641815300,"3":-227332918141655740,"4":-877792257326722300,"5":-3850461747472496000,"6":-6365458218189799000,"7":-913924929799012200,"8":-1784879582179441400,"9":-1622643759312741400,"10":-1108585627295219200,"11":-1676470523432889600,"12":-553413321125077000,"13":-2162713370759462000,"14":-178642361945539040,"15":-953159454654519000,"16":-374570617126972100,"17":-689522536913593900,"18":-692081501805249700,"19":-252655141850705570,"20":-1346543774266648600,"21":-3382271812518658600,"22":-6273280216730394000,"23":-1685893333921971200,"24":-2578225669077787600,"25":-1771896036521795300,"26":-2295865306452460300,"27":711686790503235500,"28":-585156385172989800,"29":-1806311865934696000,"30":-401322624603109300,"31":-754215804392975100,"32":-364060420362798600,"33":-753176151178486300,"34":-477919213146846600,"35":-126588096859133180}},{"sx":1,"sy":1,"depth":36,"w":{"0":-8.904237352316496e+136,"1":-7.123389881853197e+137,"2":-8.904237352316496e+136,"3":-1.7808474704632992e+137,"4":-7.123389881853197e+137,"5":-5.6987119054825576e+138,"6":-1.7808474704632992e+137,"7":-8.904237352316496e+136,"8":-0.1933081887370677,"9":-0.4895794316417559,"10":-0.9795548528626876,"11":-1.7808474704632992e+137,"12":0.3088481335717744,"13":-0.2850259508530713,"14":-0.4450312647707364,"15":-8.904237352316496e+136,"16":-8.904237352316496e+136,"17":-7.123389881853197e+137,"18":-8.904237352316496e+136,"19":-1.7808474704632992e+137,"20":-7.123389881853197e+137,"21":-5.6987119054825576e+138,"22":-1.7808474704632992e+137,"23":-8.904237352316496e+136,"24":-1.7808474704632992e+137,"25":-0.4098229334125441,"26":-0.5771041694775523,"27":-0.9663089822501372,"28":0.005628696746013566,"29":-0.13406794623670884,"30":-0.04683825680083586,"31":-0.014252112955210172,"32":-0.0720861487052594,"33":0.0879415967305143,"34":-7.123389881853197e+137,"35":-0.3174277533114361}},{"sx":1,"sy":1,"depth":36,"w":{"0":-1.2028901659527462,"1":-1.9105265997490144,"2":-1.2235119667833005,"3":-3.6551371636411982,"4":-5.5241415602789115,"5":-13.283089923135224,"6":-13.378868586572828,"7":-4.623058770078707,"8":-16.605939364771483,"9":-7.94766160712601,"10":-8.36473174806183,"11":-6.286804777864669,"12":-8.100094159394741,"13":-3.9830686375938713,"14":-1.96438008329468,"15":-1.7902187713197601,"16":-1.8700059646586737,"17":-3.8694053926667102,"18":-1.0507475061315,"19":-0.8256051215390412,"20":-8.17505747802722,"21":-20.063455396451303,"22":-3.2542834911324263,"23":-1.3086918921271087,"24":-17.946888762914693,"25":-6.237284363361199,"26":-9.664385197446892,"27":-8.505150220322363,"28":-8.148095420146284,"29":-4.322342298550619,"30":-2.460169354064169,"31":-1.4828342295426886,"32":-0.8497342930348238,"33":-0.27154435351153755,"34":-5.455788707856704,"35":-3.611154245236664}},{"sx":1,"sy":1,"depth":36,"w":{"0":-578921424727507100,"1":-731865096066414000,"2":-1803344496521252400,"3":-428934260799725200,"4":-1660985811293049900,"5":-7246001359702555000,"6":-12064524467497404000,"7":-1699710223955892000,"8":-3359551190498163700,"9":-3029373451437887000,"10":-2095928029466936000,"11":-3123001003941203500,"12":-1041501580828156400,"13":-4021741767207887000,"14":-344910852231277630,"15":-1775588815587877000,"16":-705495908585297800,"17":-1302896730405285600,"18":-1303809433091811600,"19":-474920589319624770,"20":-2540926498778027000,"21":-6393634260170542000,"22":-11890549100676585000,"23":-3123234684204820000,"24":-4832385981373721000,"25":-3321682029939896000,"26":-4345351774668158500,"27":1370606691698228500,"28":-1092866959499708200,"29":-3360423017298102000,"30":-756215671509436700,"31":-1407813560803734800,"32":-685402529213919700,"33":-1417841002934979600,"34":-895910746318895000,"35":-239440445983828300}},{"sx":1,"sy":1,"depth":36,"w":{"0":null,"1":null,"2":null,"3":null,"4":null,"5":null,"6":null,"7":null,"8":null,"9":null,"10":null,"11":null,"12":null,"13":null,"14":null,"15":null,"16":null,"17":null,"18":null,"19":null,"20":null,"21":null,"22":null,"23":null,"24":null,"25":null,"26":null,"27":null,"28":null,"29":null,"30":null,"31":null,"32":null,"33":null,"34":null,"35":null}},{"sx":1,"sy":1,"depth":36,"w":{"0":-4.069393208236803,"1":-49.57305749439937,"2":-59.2164009529797,"3":-9.437814285360648,"4":-4.222132265055591,"5":-18.662609327505884,"6":-30.546469111131557,"7":-11.19845592573849,"8":-0.6275082365101845,"9":-2.79951482632959,"10":-11.375238276705625,"11":-20.829716017163992,"12":-1.9232992793249848,"13":-0.9303330260048097,"14":-4.388810116975351,"15":-8.095467801854015,"16":-6.063576735188814,"17":-88.39423735287289,"18":-20.930034059087205,"19":-2.9205918181377135,"20":-13.018163606469923,"21":-8.627048407516531,"22":-27.736499250692347,"23":-8.832520245345062,"24":-5.162294234678233,"25":-6.45911988634359,"26":-7.495997025555034,"27":-17.50217728087003,"28":-2.7183409208470684,"29":-4.613723057408499,"30":-5.416948110355026,"31":-7.258700918003915,"32":-0.7339687752674844,"33":-0.0726659997927115,"34":-21.476709119711764,"35":-13.038073654719083}},{"sx":1,"sy":1,"depth":36,"w":{"0":-546697853934395.1,"1":-2671077085819312.5,"2":-350295853540189.75,"3":-149614270087069.47,"4":-1125324276179496.8,"5":-3635851862299130.5,"6":-651277200041646.8,"7":-347548659052124.06,"8":-9584853618833662,"9":-2263455973972808,"10":-12714620870931032,"11":-504143954586790.2,"12":-1252421084276649.8,"13":-1001563606739513.4,"14":-1292016318062469.8,"15":-568821836772211.6,"16":-524256757481706.4,"17":-2659856537592992.5,"18":-337109377310747.56,"19":-211544957784428.7,"20":-1050827170019214.5,"21":-3349809798354400.5,"22":-1207513469593097,"23":-238653424628907.22,"24":-9261752044517458,"25":-2235692113303046,"26":-12764825828053500,"27":-508771264698414.2,"28":-1163305564197592.5,"29":-916370495824328,"30":-1395023215318720.5,"31":-385954039660161.4,"32":-1841440567125016,"33":-1354567063526350,"34":-0.37835548567680494,"35":-71255145364264.73}},{"sx":1,"sy":1,"depth":36,"w":{"0":-5.803591606024775,"1":-37.211851004846174,"2":-43.955675676653634,"3":-11.504413707633669,"4":-7.412207230773146,"5":-35.76193972673902,"6":-39.635834377969566,"7":-14.810533817343972,"8":-34.9260639158732,"9":-13.094154243470918,"10":-12.676885273248745,"11":-9.031253162438002,"12":-18.304520060565753,"13":-4.37312978338057,"14":-1.8539372119120667,"15":-6.775366286944737,"16":-7.847738546125213,"17":-73.18138538236144,"18":-13.11356969937936,"19":-1.874145142400726,"20":-20.737912412329877,"21":-45.465175480633725,"22":-15.996782997735503,"23":-3.6855362867788837,"24":-41.07365354644834,"25":-9.009150872375022,"26":-15.397882278583795,"27":-12.915142139729944,"28":-19.02084544585445,"29":-5.468973132032452,"30":-2.4572581881895004,"31":-5.349788678235891,"32":-0.5863349813903671,"33":-0.3320636158653076,"34":-26.760920826354653,"35":-10.315451504593817}},{"sx":1,"sy":1,"depth":36,"w":{"0":-3.209528618864033,"1":-3.148255021960211,"2":-0.01578694356922744,"3":-0.6303200599952329,"4":-0.7379235412972918,"5":-0.24759267170854388,"6":-0.8109620547004438,"7":-0.24481082413853397,"8":0.15402251985935092,"9":-1.8102700967823795,"10":-0.21593176755504728,"11":-0.26672210382886585,"12":-0.22901718032932883,"13":-0.8177737477504435,"14":-0.33317885968332184,"15":-0.4097758556360281,"16":-1.2871417135720074,"17":-3.2125165044973545,"18":-0.14490520210262828,"19":-0.5579663871536316,"20":-1.8311584166422785,"21":-0.6058914754427809,"22":-0.016121450794150786,"23":-0.2152491772713514,"24":-0.9839396640811111,"25":-1.910404838078835,"26":-0.18291012174663251,"27":-0.21646810925634016,"28":-0.4480660118070326,"29":-0.807509643258794,"30":0.024164269085184445,"31":-0.1907585498331961,"32":-0.003710903549556471,"33":0.02123476705777137,"34":0.014157115460269666,"35":-3.132880047637735}},{"sx":1,"sy":1,"depth":36,"w":{"0":-985132995342402600,"1":-1240691829180237000,"2":-3062886417035986400,"3":-729137692196982100,"4":-2828039704870688300,"5":-12300270848690704000,"6":-20558409787868800000,"7":-2867274041891102700,"8":-5704361562141792000,"9":-5122063810666061000,"10":-3567205881750556000,"11":-5269051832749720000,"12":-1768190284952031000,"13":-6784503867624162000,"14":-593455072760481200,"15":-2997117107558465000,"16":-1197854438516995000,"17":-2216480531063993000,"18":-2214454707549608000,"19":-805749376672498800,"20":-4318874713994175000,"21":-10880214728185029000,"22":-20262680215230440000,"23":-5257572961266944000,"24":-8182420809862856000,"25":-5628526080039381000,"26":-7399651070739975000,"27":2354963488797072400,"28":-1846857361485974500,"29":-5670187822100820000,"30":-1284773293824815900,"31":-2379759994928128500,"32":-1163930359358157300,"33":-2407745917493081000,"34":-1517316508195753200,"35":-407580772979863000}},{"sx":1,"sy":1,"depth":36,"w":{"0":-1359767307219513600,"1":-1713762405988680700,"2":-4229167934462407700,"3":-1006639250779059800,"4":-3903217047354104000,"5":-16985613963820286000,"6":-28370306252956180000,"7":-3963780466165289000,"8":-7876771314076163000,"9":-7077777475439904000,"10":-4923725509906071000,"11":-7284621618094844000,"12":-2441663963271201000,"13":-9378966636006445000,"14":-817555683029979400,"15":-4143009081726749000,"16":-1654134520681646300,"17":-3059632709901846500,"18":-3057634999537331000,"19":-1112770412646702600,"20":-5962828354081806000,"21":-15017954306893703000,"22":-27962008374309392000,"23":-7270877409941615000,"24":-11304890046764740000,"25":-7774698983439510000,"26":-10212577607576078000,"27":3245177958093557000,"28":-2552538783445501000,"29":-7838192726972895000,"30":-1773872830075231200,"31":-3288616773002929700,"32":-1607143323928405800,"33":-3324593315537468000,"34":-2096205968906274600,"35":-562557691554957700}},{"sx":1,"sy":1,"depth":36,"w":{"0":-0.28739385298582465,"1":-4.36047157071574,"2":-53.88580440678587,"3":-7.119244769491205,"4":-4.712411122309363,"5":-20.401577649396106,"6":-6.859571703576202,"7":-3.720330129637254,"8":-0.3027948876979008,"9":-1.7366139595095669,"10":-0.5141074399447334,"11":-4.261183740548745,"12":-0.2742694229181259,"13":-0.013705952911162347,"14":-1.47677834014623,"15":-3.7126211676747203,"16":-3.867737746435531,"17":-53.61175055193498,"18":-8.040119358047496,"19":-0.3991917440384987,"20":-16.160231126688444,"21":-13.695668240638875,"22":-3.705977589851597,"23":-0.5573344201492202,"24":-5.139912452505938,"25":-0.9792161347000142,"26":-1.2942527657432834,"27":-0.22806496652370067,"28":-1.9597615034013927,"29":-1.2917467495272026,"30":-0.15418979080532175,"31":-1.7372794071882618,"32":-0.9382507246799718,"33":0.0970789926643681,"34":-14.436542754888194,"35":-0.2895149190236384}},{"sx":1,"sy":1,"depth":36,"w":{"0":-1424650525107827200,"1":-3810988651004155000,"2":-2587305724396620300,"3":-914575645364447200,"4":-5796854279836688000,"5":-14624163201944607000,"6":-54250575702423390000,"7":-6339787367562868000,"8":-5281267246952576000,"9":-12203313749893894000,"10":-11245255302333526000,"11":-4137622345215485400,"12":-1804354145893294800,"13":-14328545270340166000,"14":28692879981537930,"15":-5297000481730400000,"16":-1185763651128174800,"17":-3895680754126321000,"18":-2154568338065104600,"19":-1501433271501121000,"20":-5678291215859780000,"21":-10154067530729572000,"22":-54512927004155680000,"23":-13339587884228260000,"24":-4461142548123999000,"25":-9994280123146550000,"26":-12048481438056714000,"27":-6017590945615486000,"28":-1842767509035683600,"29":-12715895198857687000,"30":-1916063364854558700,"31":-5910939158282085000,"32":-2227741066501055200,"33":-4473458724848525300,"34":-1114847928186234900,"35":-1035348504204505900}},{"sx":1,"sy":1,"depth":36,"w":{"0":-11.721164302165704,"1":-43.45026487982467,"2":-13.556751015756216,"3":-7.604551593835631,"4":-12.951990167998954,"5":-17.633021853159942,"6":-30.379524424073637,"7":-9.154355987216487,"8":-10.577290227684697,"9":-17.03482289615473,"10":-53.24202209550442,"11":-20.169274741289485,"12":-5.001978921403886,"13":-8.36477988155524,"14":-7.148556623308808,"15":-8.68734408320821,"16":-6.249054344749864,"17":-43.53100929224283,"18":-14.013610426137113,"19":-5.370716799688642,"20":-18.711651340732487,"21":-19.398449424450202,"22":-23.856544314060294,"23":-7.737189757483894,"24":-12.714085651343517,"25":-22.279663377336462,"26":-47.47822578984891,"27":-19.17932307175021,"28":-6.522813607634325,"29":-9.108610448579078,"30":-7.8327651577479465,"31":-7.724108446050008,"32":-1.4563329333776585,"33":-0.8225760314761763,"34":-14.249749148425378,"35":-19.77050011791159}},{"sx":1,"sy":1,"depth":36,"w":{"0":-2446794388717488600,"1":-3079708586380339000,"2":-7605268665249537000,"3":-1810743554950708500,"4":-7025222819131945000,"5":-30537924633293394000,"6":-51078825434604446000,"7":-7109466864376945000,"8":-14162215172633004000,"9":-12705024673637802000,"10":-8860541260110500000,"11":-13068800634796902000,"12":-4389889266522194000,"13":-16822035090357310000,"14":-1477191423513931800,"15":-7433150522519038000,"16":-2974337433566273500,"17":-5505294386723298000,"18":-5498398641073560000,"19":-2000173115958205400,"20":-10725993328929850000,"21":-27024724197581850000,"22":-50344348633210370000,"23":-13030732465542920000,"24":-20307303019761234000,"25":-13967612127549266000,"26":-18382063691774341000,"27":5860806065683558000,"28":-4581881742386382300,"29":-14059732146856580000,"30":-3190074222447631000,"31":-5902941569054978000,"32":-2889753506229484000,"33":-5977731473256164000,"34":-3765659997248182000,"35":-1012446504437980400}},{"sx":1,"sy":1,"depth":36,"w":{"0":null,"1":null,"2":null,"3":null,"4":null,"5":null,"6":null,"7":null,"8":null,"9":null,"10":null,"11":null,"12":null,"13":null,"14":null,"15":null,"16":null,"17":null,"18":null,"19":null,"20":null,"21":null,"22":null,"23":null,"24":null,"25":null,"26":null,"27":null,"28":null,"29":null,"30":null,"31":null,"32":null,"33":null,"34":null,"35":null}},{"sx":1,"sy":1,"depth":36,"w":{"0":-0.9599460786495302,"1":-1.7920520131406048,"2":-1.7197225188363692,"3":-2.0915196389883874,"4":-2.592947758153528,"5":-3.6633852240560585,"6":-8.946575548883022,"7":-4.248910424207056,"8":-11.625326572516679,"9":-9.191210130480185,"10":-8.115449807507877,"11":-2.381794394803137,"12":-4.808736089177526,"13":-4.3924168760754325,"14":-1.6274382429260954,"15":-1.0162312688141544,"16":-1.245761995336759,"17":-2.7483471871404994,"18":-1.4309092359994908,"19":-0.360766421542097,"20":-4.0035533724418,"21":-8.76278861922656,"22":-2.9207246198337535,"23":-2.819820655896623,"24":-11.456770326789902,"25":-9.853101424554794,"26":-9.348795905888865,"27":-4.287880567821538,"28":-5.553264466912406,"29":-4.764657583860916,"30":-1.5444302302336277,"31":-1.0621189307485674,"32":-0.7438627606387669,"33":-0.2594055142178411,"34":-3.5423290853624954,"35":-2.8651856190115432}},{"sx":1,"sy":1,"depth":36,"w":{"0":null,"1":null,"2":null,"3":null,"4":null,"5":null,"6":null,"7":null,"8":null,"9":null,"10":null,"11":null,"12":null,"13":null,"14":null,"15":null,"16":null,"17":null,"18":null,"19":null,"20":null,"21":null,"22":null,"23":null,"24":null,"25":null,"26":null,"27":null,"28":null,"29":null,"30":null,"31":null,"32":null,"33":null,"34":null,"35":null}},{"sx":1,"sy":1,"depth":36,"w":{"0":-801011078605573400,"1":-1015031918124960300,"2":-2497846198837676500,"3":-593812040091056400,"4":-2296907351804211000,"5":-10041781408713996000,"6":-16672787269801904000,"7":-2366663113924394500,"8":-4655551019835299000,"9":-4211945282113001500,"10":-2899466625822573600,"11":-4344555607302111000,"12":-1443347703483506400,"13":-5600140620867278000,"14":-473227567437409400,"15":-2470460977520401400,"16":-977285455028497500,"17":-1802673939511288300,"18":-1806055345973041000,"19":-658475377459776900,"20":-3517317314756705300,"21":-8845032834293127000,"22":-16431983751848649000,"23":-4355531218799660000,"24":-6706672333626752000,"25":-4610678890146989000,"26":-6008406633632542000,"27":1882042381115076400,"28":-1518865634131263000,"29":-4678478306542037000,"30":-1047486762210139100,"31":-1957409897545909800,"32":-949741875728663600,"33":-1964754395525806800,"34":-1243381422512788000,"35":-331155497581763800}},{"sx":1,"sy":1,"depth":36,"w":{"0":-1579143625559544600,"1":-1994261071506097400,"2":-4916400667091673000,"3":-1169725104738831000,"4":-4531781729221323000,"5":-19751065660741652000,"6":-32925166910898606000,"7":-4623518324503967000,"8":-9157871101120276000,"9":-8246106061878599000,"10":-5717586373790737000,"11":-8498087203790276000,"12":-2838985487900398000,"13":-10939807257457834000,"14":-944256892919370100,"15":-4831421602482564000,"16":-1923349698748783900,"17":-3553928662722940400,"18":-3554458917003864600,"19":-1294291400610446600,"20":-6929381540394014000,"21":-17441301123061264000,"22":-32450712481090253000,"23":-8489909246655429000,"24":-13163404329891652000,"25":-9048230098160976000,"26":-11856304550883200000,"27":3750803221989790000,"28":-2975133510183343000,"29":-9141549758930730000,"30":-2061769856307970000,"31":-3831972235000877000,"32":-1868364457192025900,"33":-3865015892092979000,"34":-2440467171463862300,"35":-653223416659883300}},{"sx":1,"sy":1,"depth":36,"w":{"0":-7.824534580213732,"1":-57.75122027993287,"2":-66.56473852496673,"3":-15.340242420981351,"4":-5.643304107427303,"5":-34.89756202455152,"6":-45.1213032780417,"7":-9.964622506129713,"8":-22.249867492726178,"9":-11.214646824281383,"10":-16.021647343612365,"11":-14.447026262750839,"12":-12.156552990388397,"13":-4.416181869853488,"14":-1.9048867108047232,"15":-9.807975539323746,"16":-10.629386094108286,"17":-111.3287746400597,"18":-19.10868171580798,"19":-2.529752707693259,"20":-23.003417901258352,"21":-43.012444392822545,"22":-21.760003015556926,"23":-4.410479709545335,"24":-30.409746417233332,"25":-8.733705969439892,"26":-13.436905137405335,"27":-9.368774685706818,"28":-13.491616141911265,"29":-5.049338256407243,"30":-3.993628071704155,"31":-7.834441910929829,"32":-0.6203213904839239,"33":-0.4464787864039172,"34":-36.799382215809075,"35":-6.68852490418748}},{"sx":1,"sy":1,"depth":36,"w":{"0":-1.0580928902283464,"1":-2.097114878841675,"2":-0.3170730316235375,"3":-0.27218735486904405,"4":0.03693513967557476,"5":-1.2936352765567567,"6":-3.9132965655906675,"7":-1.6341234984888044,"8":-2.213688141764484,"9":-7.328670701105078,"10":-4.643967757930118,"11":-11.242142944102063,"12":-0.7112547701342871,"13":-4.175069600428634,"14":-1.0659029915541183,"15":-0.7452028286335582,"16":-0.8017629918572732,"17":-1.5261994606624398,"18":-1.1777015467895005,"19":0.07634864850450272,"20":-0.28065201238747844,"21":-1.6724085033287819,"22":-5.481444451302953,"23":-11.741789715300861,"24":-2.2368328922324476,"25":-8.220974063383354,"26":-4.5012772580367795,"27":-0.9052875609673651,"28":-0.8724486193593185,"29":-4.1205686978913265,"30":-0.457048329465585,"31":-0.4784803528170036,"32":-0.2531659701005201,"33":-1.4045543214095826,"34":-0.7459743146610089,"35":-1.1345742318772956}},{"sx":1,"sy":1,"depth":36,"w":{"0":-30.226026302234548,"1":-49.70848654075858,"2":-22.23859651755019,"3":-12.727417068451535,"4":-24.011898240328378,"5":-37.89858288969748,"6":-78.52336228667404,"7":-27.474835187492385,"8":-41.33163410736446,"9":-153.79907174841102,"10":-106.44563082677153,"11":-176.36163023408048,"12":-11.996737993098431,"13":-63.3286960874574,"14":-23.033395006740893,"15":-13.823250838223258,"16":-23.691842787622353,"17":-47.96437636241056,"18":-20.89658504247854,"19":-10.417709722048512,"20":-30.275706034820203,"21":-36.81237833577143,"22":-74.86955602853875,"23":-175.19178877478424,"24":-41.26243915849326,"25":-132.2466117876532,"26":-129.18812792561172,"27":-31.93936528995713,"28":-13.923007778169955,"29":-61.8955003404097,"30":-25.242636834610078,"31":-14.02905000589842,"32":-12.58271145852063,"33":-19.39797743850613,"34":-15.226628725721739,"35":-28.693687803599044}},{"sx":1,"sy":1,"depth":36,"w":{"0":-5.069186921182825,"1":-16.811802781822074,"2":-23.91488119216893,"3":-4.541254097009585,"4":-5.2645948996357825,"5":-8.025275598768825,"6":-11.242661018250441,"7":-4.290859196606868,"8":-0.9234753406899502,"9":-2.6045951172698305,"10":-18.417895596990203,"11":-7.988361486266084,"12":-0.647810593106367,"13":-1.1807849488819007,"14":-2.7402089365152436,"15":-4.137832408995668,"16":-2.9576750334108084,"17":-31.550220924576706,"18":-8.616358577420899,"19":-2.3840991530018902,"20":-11.418877132848262,"21":-5.039239124133744,"22":-9.73611651513132,"23":-3.6689995137899207,"24":-3.2225012071381065,"25":-7.978388576360608,"26":-14.499955912880354,"27":-6.328571576363634,"28":-2.0666387028620856,"29":-3.1299638581668177,"30":-2.4016213365482497,"31":-3.3656526688407027,"32":-0.7521886439067992,"33":-0.28162643959921374,"34":-8.76713114250128,"35":-8.025181514772688}},{"sx":1,"sy":1,"depth":36,"w":{"0":-19.15618700306536,"1":-57.54135003979014,"2":-18.68393136411229,"3":-9.072285765030758,"4":-14.877626837572521,"5":-32.45659756097497,"6":-67.59184872706989,"7":-9.872617046036543,"8":-26.77862805198945,"9":-101.98519999401036,"10":-44.81627784791727,"11":-189.96254376781835,"12":-8.610691261597566,"13":-48.290796787671766,"14":-21.99933276869219,"15":-10.31483942761789,"16":-17.835527092041,"17":-55.775894420012875,"18":-19.602373881167484,"19":-6.616291463040722,"20":-15.689789808890716,"21":-29.904619328691034,"22":-66.89335522147299,"23":-172.3360842039336,"24":-31.02370842838197,"25":-115.8048556308203,"26":-35.12731453848547,"27":-28.89198785240888,"28":-9.221295711713447,"29":-51.96258645013428,"30":-20.254252122174325,"31":-7.4356054167907555,"32":-2.8506297878306612,"33":-21.058026416985147,"34":-19.186658106441964,"35":-13.766832669604279}},{"sx":1,"sy":1,"depth":36,"w":{"0":-2331039313786664000,"1":-13865468019476025000,"2":-1799611925918084400,"3":-1799611925918084400,"4":-7046611307138419000,"5":-11753539599688735000,"6":-1214691172271032300,"7":-151836396533879040,"8":-111531089741944200000,"9":-6970693108871512000,"10":-55310035681370820000,"11":-1799611925918084400,"12":-7046611307138419000,"13":-2027366520718905000,"14":-6894774910604547000,"15":-1875530124185019100,"16":-2331039313786664000,"17":-13865468019476025000,"18":-1723693727651136800,"19":-0.9998797359050898,"20":-3599223851836168700,"21":-8306152144386557000,"22":-6970693108871512000,"23":-75918198266939550,"24":-111531089741944200000,"25":-6970693108871512000,"26":-56372890457107350000,"27":-1875530124185019100,"28":-7046611307138419000,"29":-2027366520718905000,"30":-7046611307138419000,"31":-1799611925918084400,"32":-13789549821209094000,"33":-2.8862016835042814,"34":0.6942802637606579,"35":-607345586135516200}},{"sx":1,"sy":1,"depth":36,"w":{"0":-5.8503637510105015,"1":-41.41817604261559,"2":-49.882759530226714,"3":-9.818149887281818,"4":-4.00684470087642,"5":-20.310946671112177,"6":-24.277544970140827,"7":-8.279310174794485,"8":-12.773227935800467,"9":-15.020881299757919,"10":-15.265926566425716,"11":-10.18263437630457,"12":-6.756513769679298,"13":-3.543727267884157,"14":-6.297568102372084,"15":-7.222185357378552,"16":-8.40946001741234,"17":-79.34675747712859,"18":-16.795336135524572,"19":-3.050159592451131,"20":-15.697224753467767,"21":-23.028490655815794,"22":-13.129342720446997,"23":-5.015445900819373,"24":-19.313263803940025,"25":-23.140643693065353,"26":-7.926747813209704,"27":-6.238653501313734,"28":-8.28184425259446,"29":-5.189405913316063,"30":-4.873168331053809,"31":-5.540987521159018,"32":-1.07680923624722,"33":-0.6484801401736549,"34":-29.21496574610196,"35":-3.4592986366525924}},{"sx":1,"sy":1,"depth":36,"w":{"0":-37.83788792883696,"1":-20.10864606598935,"2":-14.544290057934932,"3":-8.622596061546593,"4":-14.3197053776005,"5":-76.81642164703767,"6":-100.81635427560819,"7":-51.99664325755973,"8":-44.964225758732184,"9":-226.4581416526293,"10":-48.804620840616266,"11":-325.9810561052201,"12":-14.230917247787183,"13":-106.45870573520273,"14":-26.355368771398755,"15":-14.662910007184863,"16":-38.874810236806184,"17":-18.549267802421934,"18":-12.034863973886573,"19":-5.625457036335844,"20":-14.94000901675117,"21":-77.1366708341011,"22":-129.52467279179314,"23":-338.4919150897292,"24":-52.647734389352046,"25":-163.3955499059489,"26":-102.35870210320951,"27":-12.598847453360394,"28":-12.86362893724898,"29":-103.19642558646407,"30":-25.29265979366883,"31":-14.972124008552058,"32":-22.939492284960373,"33":-40.638529072017775,"34":-8.007512062211212,"35":-0.5145424405660655}},{"sx":1,"sy":1,"depth":36,"w":{"0":-3.2674632228889997e+136,"1":-6.534926445777999e+136,"2":-2.0911764626489598e+138,"3":-5.2279411566223994e+137,"4":-1.3069852891555999e+137,"5":-1.3069852891555999e+137,"6":-6.534926445777999e+136,"7":-0.11750910566916013,"8":-3.2674632228889997e+136,"9":-1.0455882313244799e+138,"10":-0.38183638092298516,"11":-0.11730907474918029,"12":-0.17918276883347986,"13":-0.08328987528299936,"14":-3.2674632228889997e+136,"15":-0.06204847597904815,"16":-3.2674632228889997e+136,"17":-3.2674632228889997e+136,"18":-0.17847304664636535,"19":-0.035030426786457416,"20":-6.534926445777999e+136,"21":-3.2674632228889997e+136,"22":0.06854723664832295,"23":0.11857470596992732,"24":-6.534926445777999e+136,"25":-1.3069852891555999e+137,"26":-2.0911764626489598e+138,"27":-0.0557206419361845,"28":-3.2674632228889997e+136,"29":-1.0455882313244799e+138,"30":-6.534926445777999e+136,"31":-5.2279411566223994e+137,"32":0.030962993672996306,"33":0.3005027436556239,"34":-0.3676367798755427,"35":-2.6139705783111997e+137}},{"sx":1,"sy":1,"depth":36,"w":{"0":-7.112615475239728,"1":-50.5118183673069,"2":-60.39016157015077,"3":-8.774989137486653,"4":-3.8459010267945795,"5":-14.50645753653793,"6":-19.31125536758542,"7":-6.619145508227418,"8":-0.563501558130252,"9":-3.265259170939247,"10":-3.766770624311683,"11":-9.449258102888301,"12":-1.5498830027937545,"13":-1.3982632505741612,"14":-1.0223471977773066,"15":-5.909942307091787,"16":-8.456361262204036,"17":-94.59763940354715,"18":-18.46424641213423,"19":-2.445588680871725,"20":-15.442911724809035,"21":-8.68769310712826,"22":-14.275625378728094,"23":-4.5660560513350905,"24":-6.0196933477252745,"25":-7.029957168538875,"26":-1.96027542199306,"27":-6.238621003490332,"28":-3.6339215134787723,"29":-4.521201076741651,"30":-2.5378095394037268,"31":-4.639288717890624,"32":-0.5580311098767224,"33":-0.3437742023563933,"34":-22.315226850763977,"35":-7.9091600849958885}},{"sx":1,"sy":1,"depth":36,"w":{"0":null,"1":null,"2":null,"3":null,"4":null,"5":null,"6":null,"7":null,"8":null,"9":null,"10":null,"11":null,"12":null,"13":null,"14":null,"15":null,"16":null,"17":null,"18":null,"19":null,"20":null,"21":null,"22":null,"23":null,"24":null,"25":null,"26":null,"27":null,"28":null,"29":null,"30":null,"31":null,"32":null,"33":null,"34":null,"35":null}},{"sx":1,"sy":1,"depth":36,"w":{"0":-6.998576196732837,"1":-18.089566933071758,"2":-19.769410408972746,"3":-4.823777130204872,"4":-4.464157062766073,"5":-14.673273242907678,"6":-24.884555421611978,"7":-14.049136067852665,"8":-7.402785530071764,"9":-29.606998890571766,"10":-17.65266931216273,"11":-59.00772515214266,"12":-2.88396175389128,"13":-17.96699075099113,"14":-5.176475836712714,"15":-6.340191193414656,"16":-6.183973183565195,"17":-29.51690804832188,"18":-8.819246151257015,"19":-1.7806198856939852,"20":-9.026700722815864,"21":-11.788082933920663,"22":-31.12897361298442,"23":-57.77652180339244,"24":-9.206159744390659,"25":-29.19446334340914,"26":-17.426415663024194,"27":-7.27125093905163,"28":-2.977091647432694,"29":-18.2845878473657,"30":-5.161984407458214,"31":-4.651082998792591,"32":-2.1843847664121117,"33":-6.794294924108976,"34":-7.775337122616433,"35":-5.255186543771817}},{"sx":1,"sy":1,"depth":36,"w":{"0":-0.30483773665709574,"1":0.03268042623573192,"2":-2.6429105995634856,"3":-0.10780431901500105,"4":-0.5056868316148253,"5":-0.4776900470350686,"6":-0.25747583794188267,"7":-0.38155624097852464,"8":-0.3470098471501976,"9":-0.7631184197559471,"10":-1.005027965263446,"11":-0.375462710061245,"12":-0.21441424437923862,"13":0.10133155171141575,"14":-1.6727810101991638,"15":-0.12246896664954883,"16":-0.24243449793014882,"17":-0.3739690284273269,"18":-2.6705139398369186,"19":0.23953136568092437,"20":-0.15595049518170673,"21":-0.07511091919278544,"22":0.04148239717731369,"23":-0.24052003108496253,"24":-0.34988564986100196,"25":-0.4551413821044486,"26":-0.3101106710965026,"27":-0.9758967781300798,"28":-0.09312256205022448,"29":-1.8539199628320493,"30":-0.265867635433913,"31":-0.18912398937318323,"32":-0.5771058418089947,"33":0.04436215614561492,"34":-0.5223761550510165,"35":-0.13107295440768027}},{"sx":1,"sy":1,"depth":36,"w":{"0":-2.7209599471334823e+136,"1":-2.176767957706786e+137,"2":-2.7209599471334823e+136,"3":-5.441919894266965e+136,"4":-2.176767957706786e+137,"5":-1.7414143661654287e+138,"6":-5.441919894266965e+136,"7":-2.7209599471334823e+136,"8":-0.47388615346728113,"9":-1.4339077018659487,"10":-3.0933806867765097,"11":-5.441919894266965e+136,"12":-0.12254450949605829,"13":-0.5632979989826045,"14":-0.04372166932931051,"15":-2.7209599471334823e+136,"16":-2.7209599471334823e+136,"17":-2.176767957706786e+137,"18":-2.7209599471334823e+136,"19":-5.441919894266965e+136,"20":-2.176767957706786e+137,"21":-1.7414143661654287e+138,"22":-5.441919894266965e+136,"23":-2.7209599471334823e+136,"24":-5.441919894266965e+136,"25":-0.7546960150499036,"26":-0.9618182354901408,"27":-2.1494549880425504,"28":-0.07824024915813675,"29":-0.5664321263127071,"30":-0.056499923598056355,"31":0.18461172148345123,"32":0.051211046070023754,"33":-0.28380177212860275,"34":-2.176767957706786e+137,"35":-0.11885510807801683}},{"sx":1,"sy":1,"depth":36,"w":{"0":-0.16709716148285955,"1":-0.8285061613180849,"2":-0.5424434122481446,"3":-0.55323786363933,"4":-0.6549015703196108,"5":-0.319474209300713,"6":-4.058171291521693,"7":-17.15191829352504,"8":0.09594879266681093,"9":-1.008104419344011,"10":-1.076748106987364,"11":-1.3134086750373806,"12":-0.4963650462541048,"13":-8.502058315408414,"14":-0.6962286793815263,"15":-4.314630729669863,"16":-0.4412518885433023,"17":-0.1997100885557607,"18":-1.4583788864284832,"19":-0.48930788324645824,"20":-0.6715015394224054,"21":-0.9953168806586978,"22":-21.640149980460507,"23":-1.245489857138524,"24":-2.4217512061108892,"25":-6.564538645952636,"26":-0.20656551898968747,"27":-1.2527091231947576,"28":-2.484642294635267,"29":-9.008616108846027,"30":-0.7145408605232064,"31":-4.244753063858405,"32":-0.8288872650239707,"33":0.06628079631630227,"34":-2.6426373149148685,"35":-0.002307539611715854}},{"sx":1,"sy":1,"depth":36,"w":{"0":-48.854500794968004,"1":-101.24284259844366,"2":-106.56867872407616,"3":-29.866495350002438,"4":-43.451681201422105,"5":-75.67188456167854,"6":-116.04470290366972,"7":-64.72820752894526,"8":-64.71037205912951,"9":-229.1088460283832,"10":-151.69265641051604,"11":-263.3745968136821,"12":-18.902694915252884,"13":-103.21118626319057,"14":-33.626731678389305,"15":-28.171079840185378,"16":-43.09265387144164,"17":-163.0704780190272,"18":-43.213916427753595,"19":-16.187929005217413,"20":-69.20359068111816,"21":-73.13144163200056,"22":-116.82413039097125,"23":-264.6568985122172,"24":-73.78175124777428,"25":-199.89200379423377,"26":-178.22895741922363,"27":-44.408312714292265,"28":-24.559172759659205,"29":-103.52570954203907,"30":-36.23436138758671,"31":-25.672685455359584,"32":-19.9792710332495,"33":-28.470678102624472,"34":-47.420106033929365,"35":-44.286599321747666}},{"sx":1,"sy":1,"depth":36,"w":{"0":-0.5991362960597982,"1":-9.83067774305406,"2":-130.1176201938552,"3":-16.587752391657734,"4":-9.455666330898394,"5":-33.53409217077116,"6":-16.875032480495012,"7":-37.79346729085273,"8":-0.4014772139446973,"9":-4.172556307390009,"10":-2.500295310418463,"11":-8.529055915327783,"12":-0.9978373805504329,"13":-14.714181605901599,"14":-0.897667305261856,"15":-15.102262129459122,"16":-8.964977234709295,"17":-127.60503191883707,"18":-19.71096410944537,"19":-0.16263350060315068,"20":-37.45021570975747,"21":-18.178331540876368,"22":-37.754923719266095,"23":-0.17097815235122749,"24":-11.810826217624706,"25":-1.615042330401538,"26":-0.909306745206279,"27":-1.426546891714942,"28":-4.716778413897317,"29":-15.230626842516527,"30":-0.4067324597966541,"31":-11.503748890517777,"32":-1.6711899747346488,"33":0.11865325060375749,"34":-35.421285756010754,"35":-0.28264560901767216}},{"sx":1,"sy":1,"depth":36,"w":{"0":-483673056506712450,"1":-970218850083462300,"2":-1526405302684388900,"3":-350410150792382400,"4":-1355203126668877000,"5":-5975203920117500000,"6":-9910115591953529000,"7":-1434337777543413500,"8":-2762315046079583700,"9":-2504349923915944400,"10":-1699299486221264600,"11":-2582449315496108500,"12":-876475439959342600,"13":-3341631869459101000,"14":-273638640085291070,"15":-1478828760869476600,"16":-566045249219123650,"17":-1076680103900489300,"18":-1448307846819482600,"19":-425116400990099800,"20":-2078991668332049200,"21":-5247506710145594000,"22":-9768093610027004000,"23":-2629365938192717300,"24":-3966188737923489300,"25":-2732240627846925300,"26":-3549032173157934000,"27":1101214158904750600,"28":-904271126025049100,"29":-2790653804786280400,"30":-618230591882162200,"31":-1193625345962561800,"32":-655310158664401900,"33":-1160405507949866000,"34":-760492264795746000,"35":-137080634441548420}},{"sx":1,"sy":1,"depth":36,"w":{"0":-16817658184775.355,"1":0.0804480355723194,"2":-33635316369551.05,"3":-16817658184775.346,"4":-0.08912215778983157,"5":0.0034733858079491814,"6":-0.32266509884181416,"7":-67270632739101.5,"8":-0.1359357155338463,"9":-0.4410736963773245,"10":-1.2690495918388949,"11":-16817658184775.383,"12":-0.08499881232373593,"13":0.025895167890709468,"14":0.048806831054723054,"15":-16817658184775.451,"16":-33635316369550.72,"17":-16817658184775.533,"18":-0.0210379726160152,"19":-0.1924586413063729,"20":-67270632739101.305,"21":0.12256857830811893,"22":-0.1065634319923922,"23":-0.15762107669247855,"24":-16817658184775.492,"25":-0.2403407844588395,"26":-0.3208997234110093,"27":-0.9414289574975203,"28":0.08158087965141245,"29":-0.23029827832347904,"30":-16817658184775.422,"31":0.17409261097493633,"32":-0.04268898356328287,"33":-0.1494614304329128,"34":-134541265478201.9,"35":-0.11922256337838323}},{"sx":1,"sy":1,"depth":36,"w":{"0":-16.229819297325474,"1":-42.64014602198861,"2":-44.850291858087175,"3":-11.33619415195446,"4":-17.993960131253612,"5":-18.90292410993656,"6":-28.726505824104663,"7":-16.928686817937933,"8":-18.949587423998867,"9":-50.32660147125745,"10":-48.99073401593843,"11":-11.155257841668636,"12":-6.842781558177126,"13":-15.725745634941816,"14":-3.8441556309314033,"15":-7.802322910804364,"16":-12.409694866404807,"17":-71.80752556790422,"18":-16.014291165319953,"19":-6.353767493319579,"20":-30.646348223050854,"21":-18.151456524393502,"22":-20.486813382285355,"23":-13.402647515903757,"24":-21.53932118914169,"25":-32.897006948187645,"26":-67.86938572086096,"27":-12.225121995739087,"28":-9.632266404711576,"29":-15.157991870074394,"30":-6.3042971674193815,"31":-9.229239954533229,"32":-6.871894673206071,"33":-0.3164916277611809,"34":-17.291192685669127,"35":-20.019676668091893}},{"sx":1,"sy":1,"depth":36,"w":{"0":-7.582887060935286,"1":-54.37068969850798,"2":-69.07071823803322,"3":-9.193733072413261,"4":-6.237985089235666,"5":-17.563974110362473,"6":-19.63662691155138,"7":-6.555969149263434,"8":-0.2687598734912122,"9":-2.5715717350412812,"10":-2.07397367149871,"11":-10.182735242405306,"12":-1.439872547783473,"13":-1.60873369490968,"14":-0.07005934438204102,"15":-6.41407135372171,"16":-9.381777383545861,"17":-108.0261211275159,"18":-18.49614457655576,"19":-1.9127797171260181,"20":-20.511155869070432,"21":-10.284197087942704,"22":-14.557422364560406,"23":-2.94225410935879,"24":-5.843869327339303,"25":-2.8501043429937156,"26":-0.34581691892646144,"27":-6.499615488608656,"28":-2.576552941889794,"29":-1.8894737690574455,"30":-0.47892518528208944,"31":-4.8403827238249555,"32":-1.053279331948291,"33":0.10401928646228398,"34":-25.41261327684312,"35":-4.386714802511254}},{"sx":1,"sy":1,"depth":36,"w":{"0":-5.266680793909778,"1":-18.40384993909224,"2":-6.724857491651128,"3":-4.928502519708347,"4":-3.618291617489231,"5":-14.845664779442714,"6":-20.29429135074609,"7":-8.14432552458289,"8":-16.30822171681316,"9":-10.223708756087182,"10":-20.458214652004266,"11":-10.743330915198854,"12":-7.821451206667946,"13":-2.99995417680005,"14":-4.83517957703919,"15":-4.7441200589567245,"16":-2.587178338926059,"17":-18.71713098849019,"18":-6.113140062877021,"19":-2.3640064677970924,"20":-7.561912641685985,"21":-18.61167980093729,"22":-12.317865135571086,"23":-4.644274986517401,"24":-17.999154084264333,"25":-10.398309372039959,"26":-20.584224786560714,"27":-13.25501733544518,"28":-7.786595628989296,"29":-5.354705684040876,"30":-5.643157580702283,"31":-4.763666058745277,"32":-0.6597145871414068,"33":-0.46100035382101606,"34":-9.35485398528239,"35":-10.83334210388122}},{"sx":1,"sy":1,"depth":36,"w":{"0":-4.814287032022451,"1":-15.318163760095604,"2":-4.436581594247193,"3":-0.8524014283475572,"4":-1.2922087467541434,"5":-5.53404050997125,"6":-14.625929121962898,"7":-2.223078341293482,"8":-3.6632121732947223,"9":-27.01262836284577,"10":-5.865637165336625,"11":-55.2623035707493,"12":-0.5616928500397742,"13":-13.651546774997156,"14":-3.8391850990792173,"15":-1.4774685151525777,"16":-4.549377724973042,"17":-15.029657901472758,"18":-5.048810621743953,"19":-0.5523208176973784,"20":-0.7581620578207912,"21":-2.849182878485046,"22":-17.512676390069668,"23":-56.0409519992701,"24":-3.882345206386001,"25":-28.533465695985072,"26":-6.139209234331426,"27":-3.1277099382628837,"28":-0.6233555955922069,"29":-13.638923593485048,"30":-3.5867827905736593,"31":-0.8224761917458272,"32":-1.3076108767174637,"33":-6.663284102773509,"34":-1.6410063155285954,"35":-0.47652503171187816}},{"sx":1,"sy":1,"depth":36,"w":{"0":-1.6957038512400062,"1":-2.1835098551179866,"2":-9.070631675722952,"3":-4.186351638141081,"4":-2.6741281664130927,"5":-6.249679790817063,"6":-11.792292229579651,"7":-4.150717096517945,"8":-11.423105615548893,"9":-13.359412023108568,"10":-9.183975104397247,"11":-2.1182270434662667,"12":-5.101355642389984,"13":-2.847921071883995,"14":-3.190731340745314,"15":-2.2547729994491057,"16":-2.897500676654243,"17":-10.757776926399368,"18":-1.8529827050066943,"19":-1.224930251209759,"20":-6.709568550444203,"21":-12.451196112206965,"22":-3.2253701198051328,"23":-2.0146648235706235,"24":-12.320953304004759,"25":-8.445122430928953,"26":-13.370938542499893,"27":-1.8898737135131356,"28":-5.121173787719173,"29":-2.8457348977713575,"30":-2.7610256294949025,"31":-2.6465347923392915,"32":-2.0674399712482674,"33":-0.32901273915318946,"34":-8.473247214616302,"35":-0.7749579314650984}},{"sx":1,"sy":1,"depth":36,"w":{"0":-3.0953924047096693,"1":-10.66108017326398,"2":-16.1379029184386,"3":-5.153546957136953,"4":-6.29181446769711,"5":-11.900402152892989,"6":-20.188048562094867,"7":-17.616733372833462,"8":-11.514163181603815,"9":-10.175656570808707,"10":-14.53816582644866,"11":-7.202468374107301,"12":-5.83876670902688,"13":-6.924421852682903,"14":-3.4949445468777003,"15":-5.077162522378495,"16":-3.9617385464876422,"17":-20.745783685390492,"18":-6.54293864980428,"19":-1.6347594476897551,"20":-10.312009909089584,"21":-14.040175049104343,"22":-18.676374219049297,"23":-8.896003778810902,"24":-12.683694979478155,"25":-10.015880427636763,"26":-15.477927651749717,"27":-8.356178207696797,"28":-7.222242123187301,"29":-8.514943904104095,"30":-4.618818077251396,"31":-4.39616081261888,"32":-3.2525537612853594,"33":-0.06852147719248576,"34":-7.962660507646071,"35":-8.951166673553363}},{"sx":1,"sy":1,"depth":36,"w":{"0":-0.10344300475588399,"1":-2.2315946943939315,"2":-34.470078034762935,"3":-4.150060851427075,"4":-1.367610205597341,"5":-9.871562818769842,"6":-4.397213889324032,"7":-2.286762303687119,"8":-0.5682501311264682,"9":-0.18674732259812182,"10":-0.4037724293674025,"11":-2.4276247568534095,"12":0.059241713283173424,"13":-0.2644879290609527,"14":-0.04770274422793374,"15":-1.9130495994940027,"16":-2.104606425314614,"17":-34.44738173760173,"18":-4.352928390756283,"19":-0.27288789950500114,"20":-8.57000949693434,"21":-6.007313863018395,"22":-2.3619171023299224,"23":0.056395522763718293,"24":-2.352035934746534,"25":-0.11783378103167852,"26":-0.3809180061255224,"27":-0.2018961771810132,"28":-1.360879351664302,"29":-0.1257922066837542,"30":-0.3402770369711114,"31":-1.0595911816692836,"32":-0.07784437299991852,"33":-0.15765472069698513,"34":-8.700247839887401,"35":-0.09192537488133842}},{"sx":1,"sy":1,"depth":36,"w":{"0":-38.523985333121715,"1":-67.74323198541083,"2":-29.235720954433084,"3":-13.413406735473027,"4":-20.66950338442778,"5":-44.60771076403859,"6":-99.71600073150827,"7":-16.469311068623774,"8":-33.8354789425186,"9":-177.1470548561002,"10":-145.37264220744098,"11":-246.9121992668382,"12":-9.326014631562401,"13":-72.92111528127339,"14":-32.755628414906425,"15":-18.67706159759929,"16":-27.157696662491915,"17":-64.07166363953544,"18":-29.18772464685264,"19":-11.086928593125478,"20":-28.456161767971167,"21":-35.618742912433376,"22":-103.87934992634707,"23":-225.49442584422854,"24":-34.75455655094362,"25":-159.4360657238881,"26":-159.64669969015975,"27":-42.383625463551475,"28":-11.421071838810128,"29":-71.81367990918963,"30":-35.48396437527742,"31":-17.445534074788096,"32":-9.953007887479009,"33":-26.983428203016416,"34":-18.477842021668398,"35":-37.11536257607428}},{"sx":1,"sy":1,"depth":36,"w":{"0":-0.12786324934578863,"1":-0.36270219751130117,"2":-0.12469099914063618,"3":-0.21743641676064235,"4":-0.8249962657187618,"5":-0.48006237577603866,"6":-1.8306489959359185,"7":-5.357006134737692,"8":-0.3495455590900531,"9":-0.7902664710162921,"10":-0.346536902686432,"11":-0.3486920667415798,"12":-0.3349910337020955,"13":-2.6742458693707256,"14":-0.2851386348919129,"15":-1.3774943290644253,"16":-0.1648514393609997,"17":-0.37110619554820284,"18":-0.029979566545759326,"19":-0.19147886410076043,"20":-1.01354329020033,"21":-0.17124679207012747,"22":-6.698196153138115,"23":-0.10364912498860616,"24":-0.8839868216839913,"25":-0.5048670020754251,"26":-0.3662393755102813,"27":-0.7658215383555218,"28":-0.3637493123409981,"29":-2.834743128400144,"30":-0.19619255065132943,"31":-1.277544439382449,"32":0.056676146400974764,"33":-0.3184385967341972,"34":-1.1533296828518995,"35":0.010507260766746287}},{"sx":1,"sy":1,"depth":36,"w":{"0":-8.339170107864188,"1":-8.544517394038461,"2":-0.6201353364709373,"3":-1.3570572779910504,"4":-7.016280890559486,"5":-24.275793979892295,"6":-2.9233073709675645,"7":-1.6559555999564037,"8":-1.2854821421799323,"9":-8.951967051069525,"10":-2.113592146579016,"11":-3.1772658674975354,"12":-0.6093136318071402,"13":-2.000441569583379,"14":-3.222160079845028,"15":-0.8300173006959967,"16":-4.6619809762975954,"17":-8.40279198538585,"18":-0.5873172713794904,"19":-1.7131980330683827,"20":-8.815934906983523,"21":-24.024319167766865,"22":-0.6091533549879575,"23":-1.452122088897373,"24":-6.858525700450266,"25":-5.5454595173842325,"26":-3.2313845924722457,"27":-0.10644829889995797,"28":-1.7733554879041944,"29":-4.715744514966275,"30":-0.36171794794310974,"31":-0.3572650791837046,"32":-1.1397144525384562,"33":-0.41712368609788625,"34":-2.8410594525355704,"35":-7.49060889283969}},{"sx":1,"sy":1,"depth":36,"w":{"0":-614652415459000800,"1":-779866142136235600,"2":-1918373530206221000,"3":-455995666037556400,"4":-1763517656046089700,"5":-7709480665979438000,"6":-12802910444327248000,"7":-1815183596498793000,"8":-3572894988715919400,"9":-3229023962086962700,"10":-2225371435802183700,"11":-3341761540883287000,"12":-1107868449105761400,"13":-4294441031950613000,"14":-363674506882203000,"15":-1896956895529095400,"16":-751028615666061800,"17":-1384418528327911400,"18":-1386720464684380000,"19":-505419037028653800,"20":-2702456663606646000,"21":-6790700972960817000,"22":-12617883727244272000,"23":-3339615928454770700,"24":-5155395165890191000,"25":-3536055806356863500,"26":-4612969054680973000,"27":1447240806413519400,"28":-1167523783611767300,"29":-3587706339216890000,"30":-803912871820816800,"31":-1501251310070019300,"32":-728751604568921200,"33":-1507494840296952000,"34":-955273639767010800,"35":-254257235246390200}},{"sx":1,"sy":1,"depth":36,"w":{"0":-977589926180053100,"1":-1243244957661634300,"2":-3053741010793168000,"3":-725391564327983400,"4":-2801353211783550500,"5":-12284411835589014000,"6":-20316260657136644000,"7":-2913740251824684000,"8":-5694430575599426000,"9":-5174441471048927000,"10":-3537697712012871700,"11":-5345594212392102000,"12":-1765584138072314000,"13":-6894991187550706000,"14":-570820982260401900,"15":-3039157197278287400,"16":-1195088726403512000,"17":-2200336979015901200,"18":-2208103452970320000,"19":-806012718662764200,"20":-4296660336341072400,"21":-10793576701142150000,"22":-20022128427389770000,"23":-5373684513632858000,"24":-8223662445144929000,"25":-5651715887259615000,"26":-7327037348884590000,"27":2273587616921093600,"28":-1866065317950784500,"29":-5758883478892957000,"30":-1280457714795904300,"31":-2405070419965209000,"32":-1161489728860757000,"33":-2402955794398516700,"34":-1524409749658803000,"35":-403973276142961600}},{"sx":1,"sy":1,"depth":36,"w":{"0":-1789274694578010000,"1":-2262671022373100000,"2":-5574146522069583000,"3":-1325833547647243000,"4":-5133566463703885000,"5":-22398888376256115000,"6":-37285687407928920000,"7":-5255953492639813000,"8":-10384849121109262000,"9":-9366386118082126000,"10":-6478021813584318000,"11":-9658018322761490000,"12":-3219519167987031600,"13":-12436159850020660000,"14":-1065412011900938600,"15":-5490544890610514000,"16":-2180869270508670000,"17":-4027070316491989500,"18":-4030065035136113700,"19":-1468141892929648000,"20":-7854163793250881000,"21":-19761462486732567000,"22":-36747953952478695000,"23":-9658753275875080000,"24":-14940789281654397000,"25":-10268826892116922000,"26":-13429936893402722000,"27":4233807003026793500,"28":-3379319279458265000,"29":-10391044263775324000,"30":-2337502560090119700,"31":-4352764731246574000,"32":-2118636377494502100,"33":-4382736525975283000,"34":-2769874296407803000,"35":-740031223888335100}},{"sx":1,"sy":1,"depth":36,"w":{"0":-0.7920900267981139,"1":-6.362962523852066,"2":-5.403315009706863,"3":-11.24773785571735,"4":-2.5711318029408297,"5":-27.40360398151067,"6":-44.71734378137321,"7":-33.35544204419801,"8":-32.506100102350146,"9":-19.11376215144162,"10":-36.32271164428519,"11":-9.564793723821579,"12":-17.24096015873063,"13":-19.660668186540764,"14":-9.444556814705715,"15":-12.321063338440192,"16":-5.496010306105478,"17":-8.816966957711632,"18":-1.5358644824091998,"19":-2.285791324088977,"20":-11.221366390061887,"21":-53.592811676710895,"22":-39.61978924572065,"23":-2.094934013727283,"24":-44.4100251897545,"25":-25.359986591284663,"26":-23.354797841997243,"27":-4.881789973352407,"28":-19.141848492771977,"29":-26.939656067330247,"30":-4.570371372115602,"31":-11.088347504851601,"32":-0.10784731127606158,"33":-1.2970764637081031,"34":-30.432938555750706,"35":-1.0835909724200354}},{"sx":1,"sy":1,"depth":36,"w":{"0":-17.273366125168206,"1":-64.01831717413609,"2":-21.517041520499482,"3":-11.430697108683308,"4":-7.768561111610616,"5":-27.200751325116094,"6":-66.91647293738319,"7":-35.43942099560494,"8":-43.70757884299795,"9":-56.52994010745131,"10":-25.47280512081742,"11":-17.869622521349854,"12":-24.044005289467986,"13":-18.63581449518714,"14":-10.112843396056922,"15":-13.031754409658966,"16":-16.718944559167383,"17":-65.73835861342398,"18":-18.646290720994283,"19":-6.3785324973007995,"20":-14.989027555758039,"21":-38.206043136858725,"22":-57.22964993915189,"23":-11.460765222799209,"24":-48.124302772869015,"25":-32.785249296207155,"26":-54.68448659893062,"27":-26.63118725459955,"28":-23.377055499358587,"29":-20.03100500531277,"30":-10.83525670111734,"31":-16.52354317337217,"32":-8.672738746114469,"33":-1.198324178429065,"34":-30.13704563476366,"35":-19.779414407323173}},{"sx":1,"sy":1,"depth":36,"w":{"0":null,"1":null,"2":null,"3":null,"4":null,"5":null,"6":null,"7":null,"8":null,"9":null,"10":null,"11":null,"12":null,"13":null,"14":null,"15":null,"16":null,"17":null,"18":null,"19":null,"20":null,"21":null,"22":null,"23":null,"24":null,"25":null,"26":null,"27":null,"28":null,"29":null,"30":null,"31":null,"32":null,"33":null,"34":null,"35":null}},{"sx":1,"sy":1,"depth":36,"w":{"0":-13554036594996472000,"1":-17196669047866479000,"2":-42294449006257780000,"3":-10052472743844352000,"4":-38867085287259260000,"5":-170037988670032700000,"6":-282083979967863800000,"7":-40121863780580920000,"8":-78819913810382080000,"9":-71359166229274290000,"10":-49063319757953890000,"11":-73706983535757770000,"12":-24438369863005350000,"13":-94933010158173200000,"14":-7990162153373774000,"15":-41888102078908770000,"16":-16551864391000988000,"17":-30512052077837910000,"18":-30579089560765518000,"19":-11150804123450558000,"20":-59553362329883870000,"21":-149689307642597640000,"22":-278006945213880300000,"23":-73867115215142260000,"24":-113667940564786250000,"25":-78083134535850890000,"26":-101666698608440640000,"27":31791587606603182000,"28":-25753933671956283000,"29":-79305096023291050000,"30":-17732108564261313000,"31":-33167770065306910000,"32":-16078159123263226000,"33":-33261154629792900000,"34":-21069474908869906000,"35":-5603980382595793000}},{"sx":1,"sy":1,"depth":36,"w":{"0":-2415572873737144300,"1":-3050631871849109500,"2":-7520855524653462000,"3":-1789382637215364400,"4":-6932693094023886000,"5":-30212189819049950000,"6":-50370875581085000000,"7":-7070368218751647000,"8":-14007851296348092000,"9":-12610322848511746000,"10":-8746358128878978000,"11":-12999438663561146000,"12":-4342564762837461500,"13":-16729167274818884000,"14":-1445031338380737300,"15":-7389346782608352000,"16":-2942374044035335000,"17":-5436798554683229000,"18":-5437261880406835000,"19":-1979728647543076900,"20":-10600810355751242000,"21":-26680822223556907000,"22":-49645018376595680000,"23":-12981815974196097000,"24":-20136617451340590000,"25":-13838371179938046000,"26":-18137620677852252000,"27":5740248760357537000,"28":-4550938000375659500,"29":-13979360599531778000,"30":-3153731596056786400,"31":-5860256429591654000,"32":-2857814143375798000,"33":-5911784686495672000,"34":-3733102121426241000,"35":-999289872696017200}},{"sx":1,"sy":1,"depth":36,"w":{"0":-430007522424203100,"1":-543567910210345700,"2":-1339214372181333500,"3":-318575823343226050,"4":-1233598059585623800,"5":-5382069801180061000,"6":-8959517763271504000,"7":-1262880309955976200,"8":-2495548105749256000,"9":-2250934459326022400,"10":-1556713342702398700,"11":-2319360976165547500,"12":-773620999268945900,"13":-2988264221917482500,"14":-256071644405360830,"15":-1319008583715765000,"16":-523928583229708540,"17":-967620150843033600,"18":-968277676054322000,"19":-352775730560551230,"20":-1886986773169342700,"21":-4748704699440794000,"22":-8830324727162138000,"23":-2320796037058740700,"24":-3588892268296065500,"25":-2467810339518793000,"26":-3227312488230767600,"27":1017458915940065300,"28":-811682435313399300,"29":-2496862569684562000,"30":-561721037154312960,"31":-1045967714374523500,"32":-509119514563598140,"33":-1053243325317296000,"34":-665404939144927100,"35":-177825195376055100}},{"sx":1,"sy":1,"depth":36,"w":{"0":null,"1":null,"2":null,"3":null,"4":null,"5":null,"6":null,"7":null,"8":null,"9":null,"10":null,"11":null,"12":null,"13":null,"14":null,"15":null,"16":null,"17":null,"18":null,"19":null,"20":null,"21":null,"22":null,"23":null,"24":null,"25":null,"26":null,"27":null,"28":null,"29":null,"30":null,"31":null,"32":null,"33":null,"34":null,"35":null}},{"sx":1,"sy":1,"depth":36,"w":{"0":-31.069278085650772,"1":-25.469725705216945,"2":-6.454512617041835,"3":-8.64158076654122,"4":-12.903700131069618,"5":-46.850944613796614,"6":-99.46987212090569,"7":-32.1522794503458,"8":-44.46932595837576,"9":-184.6001472006822,"10":-45.97777213046439,"11":-353.1372593130614,"12":-11.974142627425058,"13":-106.81877689506358,"14":-25.78721126156826,"15":-13.892519863582873,"16":-27.70774484753716,"17":-20.408894284716666,"18":-6.817475737151635,"19":-1.8751940078777545,"20":-15.659836711586578,"21":-47.437869439655515,"22":-129.22493517605616,"23":-349.8739060913122,"24":-49.65169764789866,"25":-181.57026251154227,"26":-43.68222242235008,"27":-8.642122309576537,"28":-13.077304941146378,"29":-113.10484665820339,"30":-22.802134626938784,"31":-8.207160449632271,"32":-1.5927570576571943,"33":-44.25789709696581,"34":-5.398149700051343,"35":-9.896688621760815}},{"sx":1,"sy":1,"depth":36,"w":{"0":-1.6534994463848363,"1":-5.945907926646089,"2":-6.9439849870831845,"3":-3.413817645924212,"4":-0.5672567768019522,"5":-8.691665199564207,"6":-24.025494780242873,"7":-9.426883372958914,"8":-0.3017405044975874,"9":-3.289124499017078,"10":-12.870537237451659,"11":-17.406099100376927,"12":-1.3985690018030486,"13":-0.9912278109670553,"14":-7.119059522803051,"15":-3.045783277481985,"16":-0.9541824994192761,"17":-2.225430899688454,"18":-7.392251023994193,"19":-2.729281464664765,"20":-0.757164625365385,"21":-1.38349426268881,"22":-25.363234476038773,"23":-9.3598241652001,"24":-0.17118711061865127,"25":-9.92530073754912,"26":-10.933367909293436,"27":-17.44549576680381,"28":-1.3648538869798512,"29":-5.201380733103252,"30":-6.233435339090882,"31":-3.441492448021575,"32":-0.03382326990877577,"33":0.16706272468940075,"34":-1.0650092127509743,"35":-18.41092750074454}},{"sx":1,"sy":1,"depth":36,"w":{"0":-172279859830786850,"1":-215985401092720160,"2":-534494176470455940,"3":-127349214429013230,"4":-494862143746448260,"5":-2144961559705196300,"6":-3600939485572347000,"7":-496372091070088060,"8":-994974687287793900,"9":-889107784827731100,"10":-623937282687271400,"11":-912158855993474200,"12":-308360885313150800,"13":-1174497967207570400,"14":-105089355175884100,"15":-519190350385849400,"16":-208924760256133540,"17":-387468468127693060,"18":-386437046127737900,"19":-140416477025468320,"20":-754213637706046200,"21":-1902733367858121000,"22":-3549286334894345700,"23":-907952556667606300,"24":-1422499637633069000,"25":-979484853408110000,"26":-1295009826841907500,"27":416311480506386800,"28":-320333772598443900,"29":-981861252568831600,"30":-224250238909773100,"31":-412968056204727040,"32":-203065281299026300,"33":-420041061900789570,"34":-263869024409750300,"35":-71304976567304504}},{"sx":1,"sy":1,"depth":36,"w":{"0":-4.88516276734704,"1":-52.94363110323762,"2":-74.00549177869942,"3":-13.732263928021203,"4":-5.757445850465129,"5":-30.831800772310157,"6":-51.946438845832255,"7":-35.25851412577801,"8":-21.03752614261495,"9":-9.870085932534472,"10":-20.59051921662666,"11":-26.224341068511357,"12":-12.912320505355964,"13":-10.578282330760562,"14":-7.324235410737783,"15":-14.542501938470297,"16":-8.688135104633211,"17":-105.00160626580788,"18":-27.74135144758785,"19":-3.797548648371523,"20":-20.05474440032324,"21":-25.13803766002498,"22":-52.541033548320456,"23":-11.415262417836148,"24":-27.965960226030678,"25":-11.380618527548712,"26":-17.878130277351687,"27":-27.271446845230678,"28":-13.199935208492182,"29":-13.664517617976884,"30":-6.496395486760297,"31":-12.882009158281653,"32":-0.5232823046837366,"33":-1.1210722121915075,"34":-31.916477699876623,"35":-19.881480544722084}},{"sx":1,"sy":1,"depth":36,"w":{"0":-6.674791602903702,"1":-29.131574381248043,"2":-10.960375314481901,"3":-4.172686399806358,"4":-2.8881594805040685,"5":-13.116779649103357,"6":-22.867610251287033,"7":-8.246789103040904,"8":-9.464133740313816,"9":-4.8097680304508925,"10":-25.737163530326917,"11":-11.821818447438611,"12":-5.883917930265399,"13":-1.5565003514890534,"14":-3.184603124861073,"15":-5.823025416659907,"16":-2.6757658975912975,"17":-28.53248671490323,"18":-11.892464537556775,"19":-2.9008699624175183,"20":-6.915252971656481,"21":-13.180989997797857,"22":-18.827315971274395,"23":-6.321618741105575,"24":-10.86338113836996,"25":-6.140087233092946,"26":-23.67414434228707,"27":-13.551757543272148,"28":-5.486216667657034,"29":-2.8343844498139616,"30":-4.409545254903398,"31":-5.5222192227596905,"32":-0.4643095451230997,"33":-0.5530345771611501,"34":-8.677818412277185,"35":-13.39402089451328}},{"sx":1,"sy":1,"depth":36,"w":{"0":-4.942894108970132,"1":-4.635460384879824,"2":-31.310062309432418,"3":-4.612823595991339,"4":-2.302354730023053,"5":-21.899860397321287,"6":-6.703222798693056,"7":-3.790132881095838,"8":-4.048033031125187,"9":-29.36412957662139,"10":-4.451773655537709,"11":-8.9642686917568,"12":-1.630017941606119,"13":-5.356580865986524,"14":-3.6007514945533687,"15":-2.9244697519992036,"16":-6.865141808434834,"17":-31.43604528822367,"18":-5.519603591164909,"19":-1.7980735307133893,"20":-8.685831115816208,"21":-17.839328288956057,"22":-4.732339450191315,"23":-2.511439032184533,"24":-8.220355649497147,"25":-9.366966010829014,"26":-22.42611284053224,"27":-6.484751985488048,"28":-2.0238374444212175,"29":-2.926508609030538,"30":-4.079392480523057,"31":-3.772941677566915,"32":-5.076084518535101,"33":-0.7234844160171812,"34":-10.644668127525327,"35":-0.06934225169572937}},{"sx":1,"sy":1,"depth":36,"w":{"0":-26.652243427262565,"1":-59.28309802733466,"2":-19.85117839428127,"3":-12.964961112370856,"4":-27.53109669288284,"5":-45.25809856696477,"6":-76.53120321824007,"7":-44.5385068177068,"8":-42.27948694425788,"9":-118.75271192901634,"10":-93.47692759368364,"11":-163.11669461324345,"12":-12.856636354961335,"13":-62.21296728570442,"14":-18.320783050548236,"15":-15.442581931225169,"16":-18.54935200191907,"17":-56.092441579430954,"18":-22.263412453835997,"19":-8.748587927645959,"20":-33.99576705980413,"21":-41.83730979710603,"22":-84.52866872358335,"23":-170.0943467561031,"24":-44.727380482851196,"25":-122.49252895695716,"26":-94.35762071966005,"27":-29.376040855762525,"28":-16.44171866123795,"29":-65.19924523204672,"30":-20.26697166447435,"31":-13.062302524963805,"32":-5.992273206138052,"33":-18.63953084356116,"34":-12.044911626075164,"35":-35.96630212099652}},{"sx":1,"sy":1,"depth":36,"w":{"0":-1.8303876656249978,"1":-1.1991401801559702,"2":-0.9139816590685688,"3":-0.5350535663689583,"4":-1.8155013521690477,"5":-0.6781814233633167,"6":-0.9402988549241273,"7":-0.5029670147051017,"8":-0.4830408911330492,"9":-4.508105159168321,"10":-3.888221201767931,"11":-0.5034949553231799,"12":-0.08671970714611174,"13":-0.5937123184261487,"14":-0.29488628438234316,"15":-0.4997588229204727,"16":-0.9379231417372009,"17":-0.9926853797058163,"18":-0.6450758861315988,"19":-0.8783284044659033,"20":-2.235487911442974,"21":-0.9151685164289712,"22":-0.9352824869438118,"23":-0.4167436433381073,"24":-0.29902558732884604,"25":-1.8476371127866336,"26":-7.678726256003098,"27":-0.9039042888070105,"28":-0.27112478136462964,"29":-0.7610242642585789,"30":-0.6881536568274015,"31":-0.800762436892884,"32":-1.3203077934492338,"33":-0.14773618178283407,"34":-0.03423855270601009,"35":-0.9860533568409765}},{"sx":1,"sy":1,"depth":36,"w":{"0":-4439320139440593000,"1":-5633659983904684000,"2":-13854223349146400000,"3":-3292701580603260000,"4":-12729873938819103000,"5":-55699740156295400000,"6":-92385590374419380000,"7":-13146533624807178000,"8":-25818642690772464000,"9":-23378895927872800000,"10":-16069505758995720000,"11":-24152930411200120000,"12":-8005245844796785000,"13":-31105919815497900000,"14":-2615659171864145000,"15":-13725256626865916000,"16":-5422021592169649000,"17":-9993908480023978000,"18":-10016613171720313000,"19":-3652771379400015000,"20":-19507183129113797000,"21":-49028100451684140000,"22":-91050141639984330000,"23":-24205865654548260000,"24":-37240459970935400000,"25":-25579361007061254000,"26":-33297985308210630000,"27":10408221901798375000,"28":-8438440082057272000,"29":-25984970785809060000,"30":-5808254944284286000,"31":-10866786458366392000,"32":-5266583596522810000,"33":-10895040102915877000,"34":-6902706351103925000,"35":-1835464442094838800}},{"sx":1,"sy":1,"depth":36,"w":{"0":null,"1":null,"2":null,"3":null,"4":null,"5":null,"6":null,"7":null,"8":null,"9":null,"10":null,"11":null,"12":null,"13":null,"14":null,"15":null,"16":null,"17":null,"18":null,"19":null,"20":null,"21":null,"22":null,"23":null,"24":null,"25":null,"26":null,"27":null,"28":null,"29":null,"30":null,"31":null,"32":null,"33":null,"34":null,"35":null}},{"sx":1,"sy":1,"depth":36,"w":{"0":-1197018707011816200,"1":-1524440977986702800,"2":-3742337568305998000,"3":-888764825585479400,"4":-3430996195068133400,"5":-15052583467510632000,"6":-24881911128136237000,"7":-3571956661866755600,"8":-6975490460567309000,"9":-6339202376882202000,"10":-4332452689105848000,"11":-6563884722340014000,"12":-2163101557597045500,"13":-8451268045412222000,"14":-698306670578399700,"15":-3727710168572356600,"16":-1465163546199301400,"17":-2695714698711077400,"18":-2705630353310672000,"19":-987604735439667600,"20":-5266138554498006000,"21":-13220529055299530000,"22":-24521422306916008000,"23":-6588480350568226000,"24":-10088052115772998000,"25":-6922861235720273000,"26":-8973270045058968000,"27":2782402298905596000,"28":-2289821348399650600,"29":-7058528792842298000,"30":-1568419492275887000,"31":-2947239154883985000,"32":-1422688123914432500,"33":-2943137412922744300,"34":-1869402333402164000,"35":-494800732834805800}},{"sx":1,"sy":1,"depth":36,"w":{"0":-1.064173946943633,"1":-4.484209333365643,"2":-38.93017215254617,"3":-5.900057864690803,"4":-7.1284126752163415,"5":-16.072352216957288,"6":-8.096446317690424,"7":-10.898995593938844,"8":-1.103397323648818,"9":-4.604946775302372,"10":-4.801038487671305,"11":-10.000437606814515,"12":-0.35626062327244273,"13":-6.492691784811848,"14":-2.2111913005452544,"15":-5.117143591390365,"16":-3.3027305921138264,"17":-38.86451574129349,"18":-8.06602378645436,"19":-1.309915226328975,"20":-15.258590422752544,"21":-11.405210113222996,"22":-13.178200911185616,"23":-1.1346361686287403,"24":-4.977825435787044,"25":-2.962610798450079,"26":-3.98251597067674,"27":-6.712724266064333,"28":-1.8813246795872705,"29":-7.119195456334749,"30":-1.7281531919767275,"31":-3.71648627366976,"32":-1.529660965800153,"33":-0.5994609653285513,"34":-11.227387324467427,"35":-0.7439205036641892}},{"sx":1,"sy":1,"depth":36,"w":{"0":-0.17439110074959552,"1":-1.1663768264503203,"2":-0.6094884899990136,"3":-1.3235793389949901,"4":0.03119522384610186,"5":-0.7138215337538595,"6":-4.288916939806257,"7":-11.412102529791838,"8":-0.24034145197526288,"9":-2.1508648583733754,"10":-2.4202129987961296,"11":-1.7630393832131945,"12":-0.3390322955921558,"13":-5.281856856722448,"14":-0.8131834370369965,"15":-3.1355803982495196,"16":-0.7601186947459246,"17":-0.9197025499566055,"18":-2.785776643011074,"19":-0.610985351179718,"20":-0.8561667070551248,"21":-1.2179256996319272,"22":-14.4384358000594,"23":-1.9590278951929203,"24":-1.8015278271614976,"25":-5.324609900816607,"26":-1.2163954955351404,"27":-1.7020584231247697,"28":-1.1702197237494794,"29":-5.379421408371208,"30":-0.6508260138271191,"31":-2.6399601965154345,"32":-0.7313093562719807,"33":-0.5889998441478195,"34":-1.6482384241985903,"35":-1.7975323261582707}},{"sx":1,"sy":1,"depth":36,"w":{"0":-11.294506722178527,"1":-32.39747212069655,"2":-40.58766077423518,"3":-10.053080921533585,"4":-10.88714541082542,"5":-22.12502424245609,"6":-27.787528765806442,"7":-20.640535801171627,"8":-20.182439346350126,"9":-36.66980931139815,"10":-24.864038552485816,"11":-10.589677106551452,"12":-9.434292554019795,"13":-12.140072105528644,"14":-5.737444636187244,"15":-8.717615562848174,"16":-11.254512031685307,"17":-59.58026928256276,"18":-14.311195178955803,"19":-4.712547842380124,"20":-22.01409251843796,"21":-24.91695410177338,"22":-22.073687974810806,"23":-10.351491485797668,"24":-24.666842011521712,"25":-21.707952487494687,"26":-39.46807770983741,"27":-10.7044670639466,"28":-9.97219561180485,"29":-12.307804813582344,"30":-5.445619586223047,"31":-8.893911955213033,"32":-6.569931545686405,"33":-0.4288683188459568,"34":-21.69788918056879,"35":-8.720516988000956}},{"sx":1,"sy":1,"depth":36,"w":{"0":-11.296000610164613,"1":-17.709164247896194,"2":-13.852737968118621,"3":-5.893808556082234,"4":-9.774035459256698,"5":-16.868370267864133,"6":-32.618309703594605,"7":-17.861905989141697,"8":-15.827936009376732,"9":-59.372092841028845,"10":-43.61852951430651,"11":-70.27950904662957,"12":-4.303993625613948,"13":-27.628226039084318,"14":-9.99064063782675,"15":-6.8675052136271235,"16":-9.43024475283763,"17":-21.71774089280768,"18":-8.301078701483776,"19":-3.7069558876329305,"20":-13.213534289043656,"21":-14.611047487594385,"22":-36.41533306790205,"23":-71.1424962291554,"24":-16.136188784125313,"25":-52.64227517325693,"26":-49.872154769686574,"27":-12.733546679117273,"28":-5.231025931320254,"29":-27.67212025070974,"30":-11.587053752541621,"31":-6.236471894460937,"32":-4.665841188583767,"33":-7.31455967774623,"34":-6.481831082437314,"35":-14.000046381004815}},{"sx":1,"sy":1,"depth":36,"w":{"0":-1.541049104425128,"1":-3.322406008029057,"2":-1.4940401825583411,"3":-3.269614035306063,"4":-3.6459227905591733,"5":-7.062851553955203,"6":-14.154787699063236,"7":-5.467686626603025,"8":-17.685684959259596,"9":-5.168606460260704,"10":-6.218235279208139,"11":-1.41586511248697,"12":-9.10986946872041,"13":-2.563339176400638,"14":-0.9787250376735187,"15":-1.6239641605727309,"16":-1.4370203997572244,"17":-4.924540719009742,"18":-0.6621539032622338,"19":0.10180369932386786,"20":-5.805003434663578,"21":-14.351272458916574,"22":-3.5389114548561027,"23":-0.8089377150319669,"24":-17.86399045667809,"25":-4.279362376637959,"26":-7.834710160638476,"27":-4.912446538743457,"28":-8.716590025633783,"29":-3.5846467331866463,"30":-1.233245693178767,"31":-1.4309314943712224,"32":-0.24805271419819372,"33":-0.16083447353133615,"34":-4.860952555870813,"35":-5.167211655275705}},{"sx":1,"sy":1,"depth":36,"w":{"0":-13718103514721223000,"1":-26988011568106566000,"2":-87619671658131240000,"3":-18877748751609370000,"4":-65824194935159760000,"5":-234801627850023900000,"6":-543838746728991200000,"7":-74046563042377520000,"8":-53123019826316370000,"9":-152155413323914350000,"10":-115617047578910110000,"11":-139355913937603220000,"12":-18931837879730954000,"13":-165989946465925230000,"14":-7197858774585985000,"15":-75674202674866650000,"16":-22753127168344097000,"17":-47295046748503230000,"18":-60218947758420910000,"19":-20617283705110760000,"20":-90090130699644750000,"21":-188913614374904920000,"22":-530954776590567000000,"23":-139944045621316000000,"24":-120285616156993340000,"25":-133373302890323670000,"26":-112576711828153170000,"27":-56665579703706140000,"28":-37435384157416380000,"29":-142892859188327280000,"30":-23454889583621920000,"31":-54404714792743090000,"32":-15224044388727101000,"33":-53411601290357580000,"34":-38043467236944670000,"35":-10030051547348386000}},{"sx":1,"sy":1,"depth":36,"w":{"0":-10.613331460862678,"1":-71.41407341066045,"2":-76.3211102257269,"3":-13.130527857571915,"4":-11.976697172339843,"5":-26.088989831698978,"6":-36.54299753387313,"7":-34.01472153509387,"8":-13.823198929972085,"9":-10.125970166426276,"10":-11.433295350226818,"11":-20.282003215437882,"12":-8.75312221675986,"13":-11.659704446851233,"14":-3.311467171657259,"15":-12.406583070108415,"16":-12.198474446245507,"17":-122.15985767989693,"18":-28.397618477775932,"19":-4.060122569975735,"20":-25.379557485983586,"21":-18.57513807612162,"22":-43.46076662257513,"23":-9.254912904237326,"24":-21.98502045407443,"25":-6.624284227473064,"26":-7.649740611796748,"27":-21.630727155409783,"28":-9.907104078990143,"29":-16.17964279864466,"30":-6.169245122675392,"31":-10.667080949856027,"32":-1.6076023776135513,"33":-0.8440532531392783,"34":-30.180738430554413,"35":-22.86720655410717}},{"sx":1,"sy":1,"depth":36,"w":{"0":-265815082830381540,"1":-337804642171771970,"2":-832308540144660100,"3":-208151130414352600,"4":-774203162796390900,"5":-3323318813612786000,"6":-5549162975507071000,"7":-778555980711220500,"8":-1542906702796812000,"9":-1385162735790460400,"10":-962414000870487200,"11":-1469386263838511000,"12":-477368163399780300,"13":-1835719430821900000,"14":-342092839082746240,"15":-813172103356645500,"16":-326067258100069600,"17":-603618965170676900,"18":-603397983530804400,"19":-223277427266578560,"20":-1176524326865340200,"21":-2937958388660438500,"22":-5469383464709806000,"23":-1426250933475338500,"24":-2232120243853244000,"25":-1543740665780512800,"26":-1995772715856222700,"27":633115480041925800,"28":-498951239066960400,"29":-1716672698123012900,"30":-346798784967782140,"31":-646311330163748700,"32":-314240838634256640,"33":-650090131404227600,"34":-432573258721936500,"35":-109938857452914140}},{"sx":1,"sy":1,"depth":36,"w":{"0":-20.339243866076735,"1":-16.321382963377637,"2":-18.315508704048487,"3":-18.510501576035566,"4":-14.691953716458993,"5":-75.09622897465167,"6":-112.34095682884121,"7":-64.69040383925478,"8":-78.67614814309255,"9":-173.5427697780115,"10":-84.87043096945031,"11":-244.19427011449926,"12":-27.87159730217134,"13":-90.64677277216717,"14":-33.43723556245664,"15":-21.047065348620286,"16":-23.523683165505826,"17":-20.347543577913466,"18":-18.381510148851262,"19":-7.859121657719338,"20":-22.034200681804148,"21":-92.21238896917984,"22":-107.18510932312904,"23":-244.94196026943885,"24":-87.73266874296218,"25":-182.07022636039883,"26":-81.16103687293634,"27":-38.800670980791025,"28":-29.630242071029905,"29":-91.34575891183596,"30":-33.21737358206186,"31":-16.911997462064097,"32":-9.749934832507689,"33":-28.152966884166435,"34":-31.736091999167158,"35":-22.03169102724369}},{"sx":1,"sy":1,"depth":36,"w":{"0":-1697495984692812300,"1":-1603412901983743200,"2":-5539803086338497000,"3":-1145097573288281500,"4":-4867731906308882000,"5":-23361054257602780000,"6":-39681347465641150000,"7":-5254870288749355000,"8":-3809246551078004000,"9":-6274290402342644000,"10":-2235204015977124000,"11":-8955658789869950000,"12":-2419753577670646000,"13":-8549772468630338000,"14":-115975233013275310,"15":-5161851952993857000,"16":-2107362949142741000,"17":-3561943361810484700,"18":-3958760256573017000,"19":-1347185444938360300,"20":-7943268420936331000,"21":-19127392085934846000,"22":-38718624610733100000,"23":-9873687466404495000,"24":-8619747753125949000,"25":-8545085012795326000,"26":-9718839386041856000,"27":5843664020339028000,"28":-2566895865512528000,"29":-6817219887147097000,"30":-1448718587926279700,"31":-3966374680787813000,"32":-1536699965031044000,"33":-3368688241115927000,"34":-2546576467508765700,"35":-794015995667696100}},{"sx":1,"sy":1,"depth":36,"w":{"0":-6.799976837389351,"1":-5.607814200988926,"2":-4.236423352904589,"3":-3.739391386489761,"4":-7.337623856641172,"5":-13.694145482531464,"6":-21.858049923864964,"7":-15.75052188416057,"8":-12.95993808350626,"9":-43.810772605229374,"10":-30.357205380028724,"11":-56.89018473264844,"12":-3.3964489260424893,"13":-23.828866388505823,"14":-6.713376510592373,"15":-4.850398194641071,"16":-5.157569323022906,"17":-5.184569200087382,"18":-5.438604429935285,"19":-2.685579671089953,"20":-8.521196822557267,"21":-11.989624944531522,"22":-27.700308193964766,"23":-58.58507626630174,"24":-13.519691938217552,"25":-43.08454102756453,"26":-31.151112847509438,"27":-9.737553418260399,"28":-3.933888978729753,"29":-23.682520896474383,"30":-7.615907408019682,"31":-3.7714733769094333,"32":-2.188515571403262,"33":-6.5857508947738825,"34":-1.2787712435770784,"35":-9.809288213668314}},{"sx":1,"sy":1,"depth":36,"w":{"0":-0.963726202877371,"1":-0.8849811111666837,"2":-0.4186780546589519,"3":-0.2773585694054342,"4":-0.5018922891245674,"5":-2.6601365820287657,"6":-6.15746140123497,"7":-3.8105816428052868,"8":-2.8714473633764586,"9":-12.529438302580411,"10":-3.3121885923989454,"11":-23.84866179936329,"12":-0.8308815686607727,"13":-8.308344084417984,"14":-1.3762612662235527,"15":-1.4869206210165788,"16":-1.455780736518196,"17":-0.7281470866733896,"18":-0.5598641440077028,"19":-0.07194236056162504,"20":-0.6570930407805629,"21":-3.215007824803794,"22":-10.421576032927916,"23":-23.146292353795573,"24":-3.7374972155495794,"25":-12.683973595308862,"26":-3.0008276570734354,"27":-0.6044271649244501,"28":-0.8289263101664304,"29":-8.014542683350387,"30":-1.4887259646285051,"31":-1.3923645832126825,"32":0.3874654351423352,"33":-3.168080923027807,"34":-0.43013073716499667,"35":0.0018681727334159098}},{"sx":1,"sy":1,"depth":36,"w":{"0":-7.525855690295788,"1":-9.736926788093795,"2":-35.35227328623346,"3":-10.614445414209209,"4":-8.07053221783442,"5":-34.81376963919655,"6":-33.27555308777574,"7":-13.149011445116294,"8":-38.23727577820507,"9":-44.23899162881551,"10":-15.419315053434538,"11":-9.844863085409248,"12":-18.098473404004658,"13":-8.58628199193276,"14":-5.338216116455631,"15":-5.892787690716807,"16":-10.559406055835629,"17":-41.86193843250125,"18":-6.788339441995336,"19":-2.851458934009679,"20":-19.752411691228776,"21":-45.403924948210324,"22":-11.819586593770847,"23":-3.491946508528085,"24":-42.372460786404964,"25":-15.953022539944492,"26":-40.965544560020724,"27":-14.481729450057323,"28":-18.111638184559663,"29":-6.399204390531565,"30":-7.066258703730158,"31":-7.407061211615178,"32":-6.923408693978649,"33":-0.35112312825413233,"34":-21.717688243068512,"35":-6.767178210236933}},{"sx":1,"sy":1,"depth":36,"w":{"0":-16.09298475174024,"1":-47.641671528185455,"2":-14.039756625547813,"3":-5.138025218224368,"4":-10.370156193391615,"5":-21.438393643468395,"6":-45.141767377089856,"7":-11.448414874153144,"8":-26.103204691071003,"9":-89.4299325018849,"10":-29.670418911011666,"11":-145.8514866224203,"12":-7.129612675125993,"13":-46.05882506503862,"14":-9.972173331055798,"15":-5.603527852300625,"16":-13.704581964385353,"17":-48.78086938645062,"18":-16.353244357196328,"19":-3.1929127841910456,"20":-11.677335597716572,"21":-21.24094913641751,"22":-44.259199197555176,"23":-144.95295805531234,"24":-27.92344206782239,"25":-93.71127898957681,"26":-27.293139606196817,"27":-15.705534479167653,"28":-7.993050859829688,"29":-44.907499446982385,"30":-10.657049591259797,"31":-3.126422999860052,"32":-2.8056676985323215,"33":-17.740962879010823,"34":-9.723060162600556,"35":-7.322441234977754}},{"sx":1,"sy":1,"depth":36,"w":{"0":null,"1":null,"2":null,"3":null,"4":null,"5":null,"6":null,"7":null,"8":null,"9":null,"10":null,"11":null,"12":null,"13":null,"14":null,"15":null,"16":null,"17":null,"18":null,"19":null,"20":null,"21":null,"22":null,"23":null,"24":null,"25":null,"26":null,"27":null,"28":null,"29":null,"30":null,"31":null,"32":null,"33":null,"34":null,"35":null}},{"sx":1,"sy":1,"depth":36,"w":{"0":-0.5129663361289852,"1":-1.0452469603001604,"2":-0.24797048376003755,"3":-0.5545617897999701,"4":-1.6799137197748049,"5":-3.039131968298203,"6":-3.2835418235982763,"7":-7.216361733597351,"8":-6.1526043631365654,"9":-1.993336829662935,"10":-0.8096009287045052,"11":-0.13797832677724672,"12":-2.959831681388124,"13":-2.427328972439219,"14":-0.19904092811047233,"15":-1.0841263363155074,"16":-0.6633110838375391,"17":-1.0511696574665657,"18":-0.6766297058924919,"19":-0.12748877109194884,"20":-1.7073880018105572,"21":-3.4384808126516124,"22":-5.5813936646189015,"23":-0.5155306660540252,"24":-6.518545447297461,"25":-1.045130867899827,"26":-1.7080443219303074,"27":-3.2532192571197647,"28":-2.96197865629435,"29":-2.7681872365861957,"30":-0.6997704907317939,"31":-1.0569371225777504,"32":-0.20313343168878387,"33":-0.02678336121285925,"34":-0.2881653037189252,"35":-2.9516730758687824}},{"sx":1,"sy":1,"depth":36,"w":{"0":-24.443143453334386,"1":-24.372245287637707,"2":-12.126021090611806,"3":-9.59625255814269,"4":-25.80300035591454,"5":-9.537492921425144,"6":-20.842605607696974,"7":-19.304721588550102,"8":-17.347649243448938,"9":-82.40213702660199,"10":-99.18391598568068,"11":-24.192563129665785,"12":-1.9348427624033113,"13":-29.54027622393734,"14":-9.922816117003558,"15":-8.913082209715798,"16":-14.079459809109375,"17":-21.342780618422086,"18":-9.739676079262132,"19":-9.712623550810495,"20":-33.681624167509725,"21":-9.724488902352297,"22":-20.24654367599307,"23":-18.858218526610024,"24":-17.530588821098824,"25":-56.595103587591396,"26":-120.51740358731762,"27":-25.231141305300117,"28":-5.783832526125661,"29":-26.486977053335757,"30":-13.894260643482312,"31":-11.64324695759242,"32":-9.486568639891052,"33":-0.19660535544754001,"34":-4.630947751547682,"35":-36.8482129196916}},{"sx":1,"sy":1,"depth":36,"w":{"0":null,"1":null,"2":null,"3":null,"4":null,"5":null,"6":null,"7":null,"8":null,"9":null,"10":null,"11":null,"12":null,"13":null,"14":null,"15":null,"16":null,"17":null,"18":null,"19":null,"20":null,"21":null,"22":null,"23":null,"24":null,"25":null,"26":null,"27":null,"28":null,"29":null,"30":null,"31":null,"32":null,"33":null,"34":null,"35":null}},{"sx":1,"sy":1,"depth":36,"w":{"0":-0.11757782630672006,"1":-0.1950631976074389,"2":-0.15156338275256895,"3":-0.20745938935474603,"4":-0.18363214710205805,"5":-4.700050631290236,"6":-0.16614152131464868,"7":-0.4659387872348201,"8":0.12525918686635718,"9":-1.1014732322619256,"10":-0.7901016007783689,"11":-0.4144075402193605,"12":-0.1852466537067211,"13":-0.23720193530746436,"14":-0.36914120624132574,"15":-0.11888320075600295,"16":-0.08836350329405172,"17":-0.48236993643527915,"18":-0.13999025841115237,"19":-0.19665467391844818,"20":-0.2181696093143002,"21":-4.673643742472074,"22":-0.3130306897778535,"23":-0.2637469678583866,"24":-1.1901435335491692,"25":-0.34074589630734636,"26":-0.7013448337109376,"27":-0.3197389389004806,"28":-0.26759548050120646,"29":-0.26770399857245236,"30":-0.09978491448415128,"31":-0.08307463820879982,"32":0.02847600529970717,"33":-0.13684715176646364,"34":-0.433184480259239,"35":0.006164641724867302}},{"sx":1,"sy":1,"depth":36,"w":{"0":-5701439855403251000,"1":-71153612209855910,"2":-182354926473731100,"3":-784497497387484200,"4":-1457793680511095800,"5":-46056324100281220000,"6":-1295795109215949300,"7":-1568994994774968300,"8":-11384346158429135000,"9":-710363287878229200,"10":-10925668606433176000,"11":-747430392632862000,"12":-1420726575756458500,"13":-2841453151512917000,"14":-1352553560845973200,"15":-68173014910462550,"16":-2996332733711207400,"17":-2776260733901879000,"18":-148268419018499040,"19":-74134209509249520,"20":-1457793680511095800,"21":-46056324100281220000,"22":-784497497387484200,"23":-1534908487319744000,"24":-11384346158429135000,"25":-710363287878229200,"26":-11402879710806501000,"27":-781516900088087900,"28":-1420726575756458500,"29":-2841453151512917000,"30":-1420726575756458500,"31":-34086507455231276,"32":-5410214243383893000,"33":-3.8392327422222987,"34":1.267095374501388,"35":-420960478660348860}},{"sx":1,"sy":1,"depth":36,"w":{"0":null,"1":null,"2":null,"3":null,"4":null,"5":null,"6":null,"7":null,"8":null,"9":null,"10":null,"11":null,"12":null,"13":null,"14":null,"15":null,"16":null,"17":null,"18":null,"19":null,"20":null,"21":null,"22":null,"23":null,"24":null,"25":null,"26":null,"27":null,"28":null,"29":null,"30":null,"31":null,"32":null,"33":null,"34":null,"35":null}},{"sx":1,"sy":1,"depth":36,"w":{"0":null,"1":null,"2":null,"3":null,"4":null,"5":null,"6":null,"7":null,"8":null,"9":null,"10":null,"11":null,"12":null,"13":null,"14":null,"15":null,"16":null,"17":null,"18":null,