{"layers":[{"out_depth":36,"out_sx":1,"out_sy":1,"layer_type":"input"},{"out_depth":64,"out_sx":1,"out_sy":1,"layer_type":"fc","num_inputs":36,"l1_decay_mul":0,"l2_decay_mul":1,"filters":[{"sx":1,"sy":1,"depth":36,"w":{"0":0.08523053981571412,"1":0.03490005980653014,"2":-0.07356528737709839,"3":-0.14745333502607091,"4":-0.18030988356806701,"5":-0.24685635366923855,"6":-0.47406823669318543,"7":-0.19600477571150798,"8":0.14074366735483573,"9":-0.10884631093637807,"10":-0.22775188428816212,"11":-0.014599318729972945,"12":0.1252007050848362,"13":-0.2732723861411623,"14":-0.14703339365996596,"15":0.01414712815497067,"16":0.09216034537196532,"17":0.15294761465896614,"18":0.2011034009798044,"19":-0.04256121606823064,"20":-0.17208618315910262,"21":0.17611175800794165,"22":0.2964882377935628,"23":-0.19097710682206792,"24":0.12831386541969353,"25":-0.07505062111081838,"26":0.001119529096409149,"27":-0.12296782494888275,"28":0.004048764005179856,"29":-0.15854479077062572,"30":-0.14367073622882984,"31":-0.08967765126174411,"32":0.038725215856823515,"33":0.25455412008473044,"34":-0.18542908529768712,"35":0.11498353605134887}},{"sx":1,"sy":1,"depth":36,"w":{"0":-0.1418320457755364,"1":-0.1810939787962435,"2":0.006267905130949807,"3":-0.09207180830722547,"4":-0.032137600885790485,"5":0.03790964096079988,"6":-0.04341263885154108,"7":0.13360377694022194,"8":0.20589244525461567,"9":-0.17302240364888768,"10":0.1575164186735635,"11":0.02452154101065736,"12":-0.021892459498995685,"13":-0.11221763734876514,"14":0.06679068107006639,"15":-0.005098606634553021,"16":0.011630092887408072,"17":0.1338725792708567,"18":0.07021699733722503,"19":-0.11558819922832758,"20":0.14746534519090782,"21":0.2208422667293489,"22":-0.2114186650366151,"23":-0.12274128478156385,"24":-0.13091260659522394,"25":0.19662293204706927,"26":-0.07399154268544185,"27":-0.0006605143558804925,"28":-0.09114944901160243,"29":0.007016961162197551,"30":0.07986287417765896,"31":0.06016205355231265,"32":0.2775303353289558,"33":-0.12268910019964704,"34":-0.03908386637415794,"35":0.27240140046363726}},{"sx":1,"sy":1,"depth":36,"w":{"0":-0.1793958895666669,"1":0.2582878113180823,"2":-0.36917698188935805,"3":0.2693481628985775,"4":-0.15852318705532734,"5":0.024669178715201922,"6":-0.03652524128938104,"7":-0.026003293004339754,"8":-0.3787033601462106,"9":-0.14901033595596377,"10":-0.23168469511153564,"11":0.08688743323564437,"12":0.07331040907723549,"13":0.20813232166297563,"14":0.009323041186076693,"15":-0.014326493326461841,"16":0.20065627316610624,"17":-0.014491629100997954,"18":-0.18240096952534376,"19":0.020905711474583206,"20":0.16266031449162383,"21":0.12825847962090747,"22":-0.5716097153216322,"23":0.22285989328812583,"24":0.34546415698435246,"25":0.17114641570834965,"26":0.18891417118813045,"27":-0.27412521879856583,"28":-0.13128268186096945,"29":-0.040275208213586086,"30":-0.25015305162346857,"31":0.2308534491401264,"32":0.10533001585590833,"33":-0.1065157249169387,"34":-0.11462967404414671,"35":0.1335185946011354}},{"sx":1,"sy":1,"depth":36,"w":{"0":0.03618638269445359,"1":-0.2482579620070425,"2":0.10142464427834072,"3":0.10786211597723086,"4":0.008041143298630711,"5":-0.3576018892565133,"6":-0.10366128272005906,"7":0.11567820388726492,"8":-0.052016320817502064,"9":0.10710482337951258,"10":0.2478576463187847,"11":-0.08385576792735346,"12":0.17193520266441426,"13":0.260051732970414,"14":0.16308605252273564,"15":-0.2166833522716554,"16":0.16466212886859136,"17":0.1257415701273712,"18":0.017463241267173742,"19":0.019262363143905312,"20":0.024854808469706578,"21":0.22662831021357802,"22":0.24763208913953852,"23":-0.23782539102102424,"24":0.13213697981471495,"25":-0.154609667558469,"26":-0.13345204005993386,"27":-0.04388775912672441,"28":0.03858703443398294,"29":-0.19829375306511104,"30":-0.14928762595006365,"31":-0.18956791733462186,"32":-0.264553203663019,"33":0.161332573440505,"34":-0.033185687174957165,"35":0.0037844300379878035}},{"sx":1,"sy":1,"depth":36,"w":{"0":0.027076871119660086,"1":-0.0580194903687963,"2":-0.057882324352473605,"3":0.12845500998899614,"4":0.01447518310420785,"5":0.05874106432927723,"6":0.1717316464728989,"7":0.35380083785908983,"8":0.10160437459206369,"9":-0.15729843735214416,"10":0.33853373083202204,"11":0.10850426435988493,"12":-0.21186168455967722,"13":0.20330095411093757,"14":0.2643803646970402,"15":0.22528214196773377,"16":0.08976511725661424,"17":-0.14642667363087744,"18":-0.0027124736451366225,"19":0.17919529899286263,"20":0.1315584421191308,"21":-0.13288336315200108,"22":-0.05333181987702608,"23":-0.011670224309330231,"24":-0.117422317847999,"25":0.13162300023360962,"26":0.13181968503775846,"27":-0.21814231783541976,"28":0.13220406143130858,"29":-0.021040270076642463,"30":0.2858072205454963,"31":-0.3104535652624129,"32":-0.007440888340995059,"33":-0.024105806803877985,"34":0.31048822920202235,"35":-0.13091703391561785}},{"sx":1,"sy":1,"depth":36,"w":{"0":-0.07115662236277108,"1":-0.15983722948444207,"2":-0.04580989979774989,"3":0.08951461790918802,"4":0.35034730578875906,"5":0.0112942201077706,"6":0.013583155886811662,"7":0.1650308597236808,"8":0.018036489843766986,"9":0.11782197066516609,"10":-0.12091301448267018,"11":-0.10857958184701025,"12":-0.13930656820378565,"13":0.039537960137007035,"14":-0.26805489618997097,"15":0.030372587813944696,"16":-0.17562413328356968,"17":-0.3392224794902143,"18":0.1898717253384877,"19":0.25444110481541027,"20":0.1735443791054893,"21":-0.01327551328122319,"22":-0.11307417877811829,"23":-0.048391334026635036,"24":0.24649136952352207,"25":0.2729080233126506,"26":0.027983820064871944,"27":-0.13028809487626986,"28":-0.19331691107717744,"29":0.0018034681827143939,"30":0.11384449167418341,"31":0.10421140357583877,"32":-0.0012681907702206644,"33":-0.16205683841574628,"34":0.42734047916199924,"35":0.15487549800797631}},{"sx":1,"sy":1,"depth":36,"w":{"0":0.05272163664662251,"1":0.23655194397610593,"2":0.023713987388794853,"3":0.46828125538122534,"4":-0.00996479665141634,"5":0.0524486793804626,"6":0.14822464147479536,"7":0.0446984858412982,"8":-0.11568032552058229,"9":0.15710981411114794,"10":0.08882488065621948,"11":0.08693002546878582,"12":-0.16555724851663736,"13":0.2005805307632124,"14":-0.013830101120595508,"15":0.10227203073121473,"16":-0.0730854859012536,"17":0.2262627377440667,"18":0.023271021095321896,"19":-0.0360184525127338,"20":0.09702360460887802,"21":-0.16261625457765566,"22":-0.004692340499663993,"23":-0.08931950647716369,"24":-0.18152763708708494,"25":-0.22938725149472353,"26":0.14703835477230562,"27":-0.20679924132742772,"28":0.10335380693036983,"29":-0.10383788373885733,"30":0.18671639182300032,"31":0.03245049137310952,"32":0.225873605301903,"33":-0.07071865211378107,"34":-0.23613210905809268,"35":-0.11296341511626475}},{"sx":1,"sy":1,"depth":36,"w":{"0":-0.15282328133485254,"1":0.295305948873265,"2":-0.012504993142518047,"3":0.21309061699450388,"4":0.1527885943211304,"5":-0.016967214982150997,"6":-0.03220180524339765,"7":0.13899306887145238,"8":-0.025173216986928863,"9":0.1740809785693149,"10":0.21409522322497337,"11":0.14141878281654907,"12":-0.26401519550314123,"13":-0.0066931251954732455,"14":-0.1363083236660365,"15":-0.10356594071289293,"16":0.25107744479739375,"17":-0.09940122148571125,"18":0.08048858654710683,"19":-0.009982724441007371,"20":0.0885413627458328,"21":0.09069998715784273,"22":0.016298466270233753,"23":-0.1495281485528887,"24":-0.07355596250693053,"25":0.0710111404272471,"26":0.10272777952894639,"27":0.1577495462143041,"28":0.14013618843244144,"29":0.12024966277704327,"30":0.03564762977995462,"31":0.1510948234734581,"32":0.15795726342041075,"33":0.019151918131655787,"34":-0.007974604071741461,"35":-0.08295759806431778}},{"sx":1,"sy":1,"depth":36,"w":{"0":-0.23583308763688204,"1":0.13132368498969066,"2":-0.03545861766293015,"3":0.0673024579701002,"4":-0.17620136206487153,"5":0.00619522661130779,"6":-0.10694418924307851,"7":0.05119704062337341,"8":-0.30719483966662364,"9":0.31258448798903316,"10":0.1504596744778148,"11":-0.06894935713702895,"12":-0.43066787748430646,"13":-0.2454242401260785,"14":0.10733100753991438,"15":-0.2677789193424756,"16":0.038101383214151845,"17":0.05056948541761265,"18":0.10266453644198224,"19":-0.07368231863131336,"20":0.3427818761107734,"21":0.4507279279158758,"22":0.023093746968829924,"23":-0.27910735172154205,"24":-0.061856565199161516,"25":-0.281895473263696,"26":0.10305989468017455,"27":-0.1254608921898504,"28":-0.019484604560258023,"29":-0.4043716766584761,"30":-0.3551599989421627,"31":-0.10712752081585049,"32":0.05530304070304131,"33":-0.05230013449923555,"34":0.45425420522148324,"35":-0.08024179200916232}},{"sx":1,"sy":1,"depth":36,"w":{"0":-0.024814229518198845,"1":0.20731523092800566,"2":-0.10334922254134705,"3":-0.26561973405816686,"4":-0.0842040133150647,"5":-0.06634177692074819,"6":0.18870613991833143,"7":0.023617704310350793,"8":-0.22524888151722144,"9":0.288561708581281,"10":-0.13760924451163775,"11":-0.49389923071804787,"12":0.2175603595552268,"13":-0.23987723590316087,"14":0.19247412524907712,"15":0.05388122844486701,"16":0.1557118486562594,"17":-0.036266160866900654,"18":0.0746598300709648,"19":-0.04798958632276154,"20":0.04094647287763064,"21":-0.33857568882738415,"22":-0.05510055928837341,"23":-0.09142627888487961,"24":-0.05078984794011563,"25":-0.23929043557291133,"26":-0.11571600556546291,"27":-0.06718060371923383,"28":0.2149420524524106,"29":0.0020094597334527143,"30":0.1336873925929086,"31":0.19015274116406364,"32":-0.23074413618553585,"33":0.21905769633973626,"34":-0.007228377921833632,"35":0.06891814285572256}},{"sx":1,"sy":1,"depth":36,"w":{"0":-0.22282851575478274,"1":0.05926204830732773,"2":0.07297361438274505,"3":-0.21997486115638465,"4":0.02533071333788788,"5":0.05510214879222894,"6":-0.2108895023323989,"7":0.2651282369079938,"8":-0.11919639623951059,"9":-0.1511374816246573,"10":0.18767759693308395,"11":-0.01929165521510699,"12":0.046028078194047035,"13":-0.19627250320122436,"14":-0.060055315662973126,"15":0.1874295696146831,"16":0.08072438330952578,"17":0.18386838256368968,"18":0.09549402338016727,"19":0.1370366863077412,"20":0.09035591854162517,"21":0.0945933447179481,"22":-0.2676691679254894,"23":-0.1256287085998174,"24":0.029662042434440965,"25":-0.2974355809305333,"26":-0.1557406803441687,"27":0.040911049082004464,"28":0.033586246804444594,"29":-0.09018453237421727,"30":-0.11608676084951855,"31":-0.11361813659784423,"32":0.12144034474967311,"33":-0.12532675134211946,"34":0.13109214399899308,"35":-0.07238403148868429}},{"sx":1,"sy":1,"depth":36,"w":{"0":-0.07818022944951772,"1":0.24119456251622548,"2":0.02758160345238013,"3":0.15764845219017057,"4":-0.03214472579997846,"5":0.04112568910743758,"6":-0.26927424756365004,"7":-0.1615266197570841,"8":0.0032276171196942314,"9":0.1328896097775597,"10":0.04448965245148457,"11":0.03509606017339871,"12":-0.030364295201051834,"13":-0.10229390675564855,"14":0.09511693172419572,"15":-0.29890289138448456,"16":-0.1604640255593427,"17":-0.015959409897367296,"18":-0.07928236419045427,"19":0.005644251423649482,"20":0.11439270830181411,"21":0.05626976063316319,"22":-0.1663593670083192,"23":-0.020745136351114524,"24":-0.021044062032132,"25":0.1983073127815439,"26":0.4379756669995418,"27":-0.02611016349233123,"28":0.21396795856707893,"29":0.026507005128925815,"30":-0.13952452330224538,"31":-0.1398543271840839,"32":-0.21494087027339456,"33":-0.10690347105304993,"34":-0.07285978795090195,"35":-0.20049761396870747}},{"sx":1,"sy":1,"depth":36,"w":{"0":-0.0732320354365913,"1":0.0048022086427030675,"2":-0.0025239598424690746,"3":-0.02583231998057072,"4":0.00951058753013109,"5":0.22329685837044036,"6":-0.020532029572246487,"7":0.09322280557617928,"8":0.11893072881975011,"9":0.32828976730240833,"10":-0.016027085524227228,"11":0.15330794956332414,"12":-0.005380370165975066,"13":0.059138801298437085,"14":-0.07873954924772286,"15":0.08391288081381365,"16":-0.007148230319166729,"17":0.3092035990088015,"18":0.06336901427552906,"19":-0.3175703672317098,"20":-0.0774936385585839,"21":-0.07536178515459152,"22":-0.01761385566548405,"23":0.15583100480894463,"24":-0.18105338870806045,"25":0.07298958965187964,"26":0.029474412512258796,"27":0.04511661959406219,"28":0.30685760862649025,"29":-0.2772616539776094,"30":-0.1292637882871387,"31":0.3347286953407054,"32":-0.02074330046355637,"33":0.3036457650199748,"34":0.35346091270327584,"35":-0.241496593337785}},{"sx":1,"sy":1,"depth":36,"w":{"0":0.1982800948089664,"1":-0.09356239455277918,"2":0.036115390730557174,"3":-0.09114510485260581,"4":0.057482803621961336,"5":-0.23878515042194975,"6":-0.1391138336331731,"7":0.11362901641349954,"8":0.03691966263933192,"9":-0.3055654600131396,"10":-0.36526557321377695,"11":-0.387848519039685,"12":0.25023121068572374,"13":-0.039987799008338695,"14":-0.12507110926846077,"15":0.10801744053326336,"16":-0.2647887188509321,"17":-0.025720179745728097,"18":0.044234108501629184,"19":0.03392587704547424,"20":0.1373331243068066,"21":-0.12756034511327552,"22":0.1248379793144617,"23":0.057482039303816554,"24":-0.035709169287811315,"25":0.042360629058389554,"26":0.16052349488747913,"27":-0.051615649902538537,"28":0.4852271610682186,"29":0.22678920515447737,"30":0.1970112846924293,"31":0.002039025743425104,"32":0.3673801410068908,"33":0.26940650597360294,"34":-0.014370026986128204,"35":-0.07102311768553911}},{"sx":1,"sy":1,"depth":36,"w":{"0":0.1421059072502955,"1":-0.09363168784020022,"2":0.02722666985875317,"3":0.19344805092176287,"4":-0.09435650162480096,"5":-0.11791229471916137,"6":0.08303284509819477,"7":-0.08222866623161858,"8":0.13175125448826844,"9":-0.22405377423041553,"10":0.23492181071442336,"11":-0.18448064837762218,"12":-0.054207605245452345,"13":0.2674702544400269,"14":0.5336929689499825,"15":-0.03384923961211352,"16":0.04472387194831529,"17":-0.31261178947558826,"18":0.02580108713978112,"19":0.2353800701034313,"20":0.21963687450610153,"21":-0.30157792850990117,"22":0.19437305118252635,"23":-0.016849569165019302,"24":-0.09535926509011607,"25":0.04787193329851371,"26":0.009452653257285832,"27":-0.2616291490784636,"28":0.15526876182691457,"29":0.04744052007290467,"30":0.05753128246196977,"31":0.10956644775265534,"32":0.09682642803487967,"33":0.22009315594586906,"34":-0.41553870853651076,"35":0.2725481731361502}},{"sx":1,"sy":1,"depth":36,"w":{"0":0.17722800746375147,"1":-0.05608969064145482,"2":0.30677328997815634,"3":0.22246346323291633,"4":-0.31551992003014656,"5":0.12445386178525875,"6":-0.33823631969618784,"7":-0.15852131814575993,"8":0.2709533558086503,"9":-0.022452431267397606,"10":-0.10982124043312523,"11":-0.2728508383253906,"12":0.04043476981185593,"13":0.05267864136593477,"14":0.19739671719530238,"15":-0.1927078797475468,"16":0.0993319241429249,"17":-0.031957277128944285,"18":-0.19936849278211655,"19":-0.11320487525800119,"20":0.018249450530532778,"21":0.06105157367688516,"22":0.0976072587757839,"23":-0.05707435490296978,"24":0.4740192425331155,"25":-0.040472647225775135,"26":0.16530948161660577,"27":-0.28636637127540454,"28":0.19421175009627564,"29":-0.09345933594135229,"30":-0.07890161713607623,"31":0.0850710239278461,"32":0.045954359171576684,"33":0.17570523518377906,"34":-0.07733692350589128,"35":0.08160802128043261}},{"sx":1,"sy":1,"depth":36,"w":{"0":0.13007349801876386,"1":-0.021285826069904666,"2":-0.22879415535746933,"3":0.11415072288256743,"4":0.004766302060481819,"5":-0.1636319253463535,"6":0.07755096457538582,"7":0.02149452242922176,"8":-0.10308657367446541,"9":-0.1827416071779172,"10":-0.006861976257628723,"11":0.09950014026240135,"12":-0.3376820343498915,"13":-0.1808796499510266,"14":-0.22422498008758193,"15":0.07155005518773992,"16":0.024195839320519656,"17":-0.022720279054674854,"18":0.006297546776765031,"19":0.0008229146149002591,"20":0.11737144676294449,"21":-0.06132002069169449,"22":0.049195393847255305,"23":0.0941037746010457,"24":-0.2629703575314455,"25":-0.08998819032823585,"26":0.06426565750261044,"27":0.2757869661614117,"28":0.2595250643743136,"29":-0.2210213240036861,"30":0.10166211029335909,"31":-0.017985667084256717,"32":0.12779626224764953,"33":0.06742812961803886,"34":0.20984601221534294,"35":0.2386285206293082}},{"sx":1,"sy":1,"depth":36,"w":{"0":-0.2545837695027509,"1":0.14942565479120604,"2":0.11676706115914878,"3":-0.013978566158336942,"4":-0.32372759699992015,"5":-0.017778423169721343,"6":-0.07518919961959183,"7":-0.18200817763660673,"8":-0.09163100006998001,"9":0.14108790995004836,"10":-0.39151468945642803,"11":0.007804938207264473,"12":-0.15988656806508783,"13":0.16918553822907276,"14":-0.13009855573514473,"15":0.2722062872954182,"16":0.23193897185051596,"17":-0.15081153295996025,"18":0.2061159850118704,"19":0.23655790117397693,"20":0.14534129229454953,"21":-0.07901418705356782,"22":0.041564444513995435,"23":-0.12445860501580597,"24":0.06737416175353778,"25":0.033953743877238374,"26":0.3840808791630973,"27":0.11808610743223044,"28":-0.2789512904795895,"29":-0.05540930896815126,"30":0.05700727396348752,"31":-0.0014609008110110136,"32":0.020082515514091005,"33":-0.23076083320043406,"34":-0.04639654413795347,"35":-0.13488370561368743}},{"sx":1,"sy":1,"depth":36,"w":{"0":0.3391801872763663,"1":0.25100492821836956,"2":-0.029933005241455098,"3":0.08682850506793979,"4":-0.12289272602398674,"5":-0.1707383158193411,"6":-0.03777086223904755,"7":-0.32759487400539733,"8":0.005310293390665323,"9":-0.1389977245055857,"10":-0.12256947615333764,"11":-0.11905827491586923,"12":-0.3664927520401939,"13":0.054279887270923276,"14":-0.31696124076399596,"15":0.1143588473749111,"16":0.13320919082847926,"17":-0.13120116729975445,"18":-0.00816395734990567,"19":0.15224717545862831,"20":0.10064808537065904,"21":0.04069114242333339,"22":0.12058773233639788,"23":-0.08230664429158964,"24":-0.28840776602364276,"25":-0.18955766654674233,"26":0.2000257278852585,"27":0.008334332840211081,"28":0.1255660852443818,"29":0.4352723887090999,"30":-0.24584377000529828,"31":-0.07243615680558782,"32":0.11145300868208496,"33":0.019459507440271914,"34":0.16220348008480318,"35":-0.04364682315130771}},{"sx":1,"sy":1,"depth":36,"w":{"0":-0.13248951542804047,"1":0.13147228355695934,"2":0.2034578111690044,"3":-0.21851496418833477,"4":0.1811784814437597,"5":-0.019967292407570333,"6":-0.022787707681098095,"7":-0.12186526514479787,"8":-0.224555543748241,"9":0.09762862392276767,"10":-0.036957007809687005,"11":-0.1422540194616497,"12":0.07505209741387107,"13":0.183750735029183,"14":-0.0344699637335074,"15":0.0853423742816081,"16":-0.296431948240705,"17":0.07744529873540854,"18":-0.13684861393432002,"19":0.026643801438054157,"20":0.06551034349544718,"21":0.20927698483009158,"22":0.14045791971965182,"23":0.18015971738231648,"24":-0.04483434595451943,"25":-0.05027428295529758,"26":0.033163414310988196,"27":0.15138794733866623,"28":0.12507265501898016,"29":-0.05373316619607507,"30":0.08917210077742367,"31":-0.13224576456972048,"32":0.05084808172305276,"33":-0.0035136349046123033,"34":-0.4337582009335603,"35":-0.07129760150495651}},{"sx":1,"sy":1,"depth":36,"w":{"0":-0.5288421425791412,"1":-0.09421319897119618,"2":0.18048731993378045,"3":0.11296711384542042,"4":0.038412150429400875,"5":0.10315714708316753,"6":0.00807892362040747,"7":-0.031818156274079315,"8":-0.33109010404745165,"9":-0.07232050624619729,"10":-0.442332351580087,"11":-0.03177905162336195,"12":-0.15879188483639017,"13":-0.031961091191108154,"14":-0.2236108535540005,"15":0.03927672337924774,"16":-0.1847692960490693,"17":0.15326155585589385,"18":0.0059140321900932385,"19":-0.06807138107501656,"20":-0.08555296646204262,"21":0.12447357748791768,"22":-0.3431714296444382,"23":0.16587326939765948,"24":0.20689649076534655,"25":-0.12465148696669996,"26":-0.11303805468566357,"27":-0.07032630557914114,"28":-0.07727125431799715,"29":-0.02211846021327931,"30":0.18532346962353324,"31":0.10523663999886253,"32":0.11565280753721835,"33":0.03287793263063175,"34":0.028537649268030436,"35":0.21324990690636614}},{"sx":1,"sy":1,"depth":36,"w":{"0":-0.3669754819210508,"1":-0.0041141581057099535,"2":-0.05586561503921944,"3":0.19649756033889904,"4":0.26509934666838164,"5":0.18556288289168277,"6":-0.2116830130701507,"7":0.12412981682029932,"8":-0.036587436206319504,"9":-0.08006889990866606,"10":-0.23618059032875494,"11":0.1388816601608808,"12":-0.15641923490549076,"13":0.25051919129255207,"14":0.14161213172252204,"15":-0.12730100658515928,"16":0.1458975308114277,"17":0.05312325738202705,"18":-0.3088334198946523,"19":-0.24297134192618394,"20":-0.09684212995627905,"21":0.04680519876911056,"22":-0.09900961738149265,"23":0.20566705841227978,"24":0.08707604441437544,"25":0.11830529288170835,"26":-0.1471898411609032,"27":0.18027485344106206,"28":-0.008608485086967536,"29":0.23465107983987818,"30":0.10316771925970149,"31":-0.015978179764955146,"32":0.15183163116956414,"33":0.07673212871337043,"34":0.05761085551165291,"35":-0.10859114354706859}},{"sx":1,"sy":1,"depth":36,"w":{"0":-0.3564960396742167,"1":-0.07861063581080256,"2":-0.20590076821886105,"3":-0.29006376699334674,"4":-0.003445244817974441,"5":0.17625232927466944,"6":-0.03099804926096553,"7":0.20984609952516872,"8":0.013001640814817096,"9":0.017576679912716518,"10":0.015925905920912017,"11":0.3194825894519921,"12":-0.16459771874242346,"13":-0.08734490562704857,"14":0.1862917289365004,"15":0.04934469651247714,"16":-0.23008767202897387,"17":-0.08368664273637438,"18":0.1682696952257089,"19":0.16053945524057303,"20":0.2330686793605426,"21":-0.040745837131293115,"22":-0.11686393369997915,"23":-0.06690684278690734,"24":-0.11398246717630924,"25":-0.17849428385235563,"26":-0.09232207907143052,"27":-0.027987757893975753,"28":-0.16592563733110943,"29":0.08042360625987052,"30":0.3195145122775224,"31":-0.05491549014799989,"32":0.28774393152479366,"33":0.23147179060940626,"34":0.07599611426043279,"35":0.1965764781492851}},{"sx":1,"sy":1,"depth":36,"w":{"0":0.007629796671610378,"1":-0.07141076615913336,"2":-0.1312089688632248,"3":0.15815248187182268,"4":0.09931730380653453,"5":0.11345844476771925,"6":-0.0029781704827474657,"7":-0.14088818266029715,"8":-0.16797920486407997,"9":0.30593131269567797,"10":0.5315137990987074,"11":-0.39765431413754143,"12":0.2611108138188542,"13":0.07153871599828915,"14":0.016587036882731353,"15":0.17863781598704562,"16":-0.08136981324920126,"17":0.3033126226762942,"18":0.10398647744513347,"19":0.08299685256616693,"20":0.059068010741670424,"21":0.02170731104923457,"22":-0.293335074063647,"23":0.39688487532895944,"24":-0.029209556630093354,"25":-0.2995899618349252,"26":0.15073887633136535,"27":-0.35396540237488267,"28":-0.07690727316911083,"29":0.0010335768804055356,"30":-0.17155076342426254,"31":0.24546315101146082,"32":-0.07935836735593073,"33":0.16471584274575213,"34":0.025840151736837638,"35":-0.16492624883965323}},{"sx":1,"sy":1,"depth":36,"w":{"0":0.03982672283308314,"1":-0.0104983854579556,"2":-0.05237870952350864,"3":-0.04454877155031759,"4":-0.019967881164497978,"5":0.05774231042699389,"6":0.10405657708933802,"7":0.06314174897993413,"8":-0.05260819716619884,"9":-0.03336524298321857,"10":-0.2026022313758261,"11":-0.2793562931705426,"12":-0.08808492698005971,"13":0.024210847393718083,"14":0.04110604178748214,"15":-0.14050541662434105,"16":-0.06879527711283706,"17":-0.015543903419957865,"18":-0.0481664704232554,"19":-0.3139864917166458,"20":-0.19502290764269295,"21":-0.24348499247064936,"22":0.06535591642396466,"23":0.04736859590966447,"24":0.052803223386756484,"25":0.0859597608279247,"26":-0.21326410716823932,"27":-0.015725531012744574,"28":-0.15663442017601759,"29":0.06678931065528543,"30":0.15693791972725926,"31":-0.025628037585437805,"32":0.17593871448915022,"33":-0.49253320968596453,"34":0.05226598449736914,"35":-0.17539272502548253}},{"sx":1,"sy":1,"depth":36,"w":{"0":0.021918320469789723,"1":-0.2680676428677372,"2":0.01651881413566684,"3":-0.13437032978549818,"4":0.040904977234808494,"5":-0.15538808746554608,"6":0.2923937486254793,"7":-0.16654419569843112,"8":-0.2898741120735234,"9":0.11053489760974497,"10":-0.016566352105515835,"11":0.12284497338672332,"12":-0.1558800173786235,"13":0.006709995450061422,"14":0.12133317932216348,"15":-0.12042032549224324,"16":-0.27784724856344706,"17":-0.10621827723651867,"18":0.2213041286448899,"19":0.009434174976285079,"20":-0.012646933038375878,"21":0.06672069876571003,"22":-0.1629943108657843,"23":0.05885866580068937,"24":-0.012722627331916573,"25":0.25644408009576974,"26":0.04474775366556536,"27":-0.16026949054924336,"28":-0.04380668248904233,"29":0.026956339906730634,"30":-0.08265630180251636,"31":-0.018937110913246766,"32":0.16581408908629322,"33":-0.023711590815109252,"34":0.1815569424184117,"35":-0.12074060475293584}},{"sx":1,"sy":1,"depth":36,"w":{"0":-0.305869755545118,"1":-0.08106533273707352,"2":-0.3173315468147816,"3":0.149917412804883,"4":-0.009223114550987465,"5":0.06401803924608898,"6":-0.04894811194996815,"7":-0.03495707409252615,"8":0.047471172377530006,"9":0.1927333808626274,"10":0.03947343863760033,"11":-0.13394770511845353,"12":-0.00894591222822953,"13":-0.10180642766955039,"14":-0.3326544073707881,"15":0.12064097914634646,"16":0.30689007872811275,"17":0.20640902702869338,"18":0.19293947154245084,"19":-0.03327546908095068,"20":-0.0989598430259535,"21":-0.11059991628237711,"22":0.06842896304626804,"23":-0.06878151259840609,"24":-0.19720424106293372,"25":-0.1622835579347221,"26":-0.032249336371345506,"27":0.022281928110547113,"28":-0.17101117763038676,"29":0.010609800836924319,"30":0.4580711742854636,"31":-0.06916365824807445,"32":0.26638977323451546,"33":0.06710644636691303,"34":-0.23651823739247707,"35":0.0266006768084525}},{"sx":1,"sy":1,"depth":36,"w":{"0":-0.23274636528912968,"1":-0.00451954305928983,"2":0.11700257041856682,"3":-0.2612343441988228,"4":-0.14821797844346796,"5":-0.08846606764705027,"6":-0.17040651243560728,"7":-0.025517803715532184,"8":-0.02386492243002124,"9":0.1456367399159977,"10":0.029701184368034747,"11":0.08876991422213583,"12":-0.055100650423386924,"13":0.157276988631426,"14":-0.22598625785961846,"15":-0.20657793841869468,"16":0.06465767257070124,"17":-0.0740519617923289,"18":-0.07091845236258656,"19":-0.032392259158198676,"20":0.11400852862448492,"21":0.06112346834372211,"22":-0.12103946613638433,"23":0.29351358951064105,"24":0.14500500160712199,"25":-0.0053610917744049925,"26":0.027454532332809485,"27":-0.0009354823216624463,"28":-0.2739320896433139,"29":-0.03062311612458016,"30":0.1428458224530269,"31":-0.11152468167572932,"32":0.01341375640501258,"33":0.32513585041956927,"34":0.051476537984671444,"35":0.008205311337871854}},{"sx":1,"sy":1,"depth":36,"w":{"0":-0.26346436061929196,"1":0.022874255814533593,"2":-0.17241121069656568,"3":0.020656970368361064,"4":0.16585367205482116,"5":0.21746974523173676,"6":0.12827010796565463,"7":0.13975677598188466,"8":0.07980017250910353,"9":-0.13791010447949695,"10":0.12586382828445425,"11":0.03030941904578796,"12":-0.07008055714325896,"13":0.17500288232656255,"14":0.02484199151118248,"15":0.17291923951430313,"16":-0.013166634830874418,"17":0.012845961538814165,"18":0.09310101304973054,"19":-0.07140812357826525,"20":0.0443576359426217,"21":-0.042326376868130414,"22":0.3746446561005137,"23":0.09837095029401972,"24":-0.262228522843576,"25":-0.14555074112801583,"26":-0.1031732710294374,"27":-0.08285727868997746,"28":0.22812611890904352,"29":0.038307363802319055,"30":-0.25000050127634144,"31":-0.11949842854550688,"32":-0.17808318354333919,"33":-0.05632416909207254,"34":-0.06488042204405356,"35":-0.14547583792200783}},{"sx":1,"sy":1,"depth":36,"w":{"0":0.14736124990185792,"1":-0.223468667931944,"2":-0.10207810159567654,"3":-0.2388990217296278,"4":-0.050313424503342356,"5":-0.18608513650758476,"6":-0.1638113541997921,"7":0.2880321694513726,"8":0.1390508111694093,"9":0.044973857551050836,"10":0.15561052648528748,"11":-0.032703706465957924,"12":0.3446286591038971,"13":-0.013636435832556503,"14":-0.007061974881221975,"15":-0.05456463207443739,"16":-0.1356983705916981,"17":0.053673691583867124,"18":0.038703565525468914,"19":-0.04921706982421946,"20":-0.12144790642973538,"21":-0.04632155825157738,"22":-0.21043273950246644,"23":0.006156112722625865,"24":-0.06120718863098108,"25":-0.11549876798272828,"26":0.3986002018045849,"27":0.042817915358248304,"28":0.04858671794252834,"29":-0.185954207095013,"30":0.09726029270333364,"31":-0.27255540085566204,"32":0.2548278139982632,"33":-0.11522642770614581,"34":0.1984693888038463,"35":0.1417878499606392}},{"sx":1,"sy":1,"depth":36,"w":{"0":-0.14973478377836677,"1":0.10834489006975552,"2":-0.12905855678029488,"3":0.08111464574028052,"4":-0.012232150665764493,"5":-0.3051634020330636,"6":-0.09564700640318105,"7":-0.06641175548997084,"8":-0.06499512820866789,"9":0.017970905994028043,"10":0.0880243878046664,"11":0.08180777252353963,"12":0.036949460748739116,"13":0.018656003029657676,"14":0.1728090461761429,"15":-0.14060919219178641,"16":0.24245247849572218,"17":-0.21905011337107233,"18":-0.14856701142318787,"19":0.1842293028945082,"20":-0.098908830076742,"21":-0.019189218096596967,"22":-0.19203655993404917,"23":0.22898363260603483,"24":0.22925919472851902,"25":-0.21000073158186922,"26":0.08030801473567899,"27":0.1268416070144165,"28":-0.04111368401447676,"29":0.299272483152936,"30":0.13570328901863643,"31":0.06446480560774817,"32":-0.19150095359046998,"33":-0.11575308952619813,"34":-0.15001380538574635,"35":0.15660410596654126}},{"sx":1,"sy":1,"depth":36,"w":{"0":0.032224174308604976,"1":0.014737716507784873,"2":0.06920269817226188,"3":0.23586137387278072,"4":-0.40412484095830975,"5":-0.08283599993084834,"6":-0.11470568311863423,"7":-0.015426288988412763,"8":-0.06148781877084048,"9":0.13699950562169425,"10":-0.28463287364515105,"11":-0.06004104959313634,"12":-0.06498450409556142,"13":0.15805304737929857,"14":0.08753127464856485,"15":-0.12069957509344997,"16":0.277170414001802,"17":0.10957398046044597,"18":0.012567368549854083,"19":0.05782407348273321,"20":0.21422985273078138,"21":0.02973810843353861,"22":-0.04778152239095638,"23":0.3004966732618979,"24":-0.23644016257611594,"25":-0.06444079491242442,"26":0.09512098842735382,"27":-0.015195576372906703,"28":-0.1898716215719721,"29":-0.47176226602948873,"30":0.09758918518670083,"31":0.05047571497646199,"32":0.1598852518787443,"33":-0.16312582831792652,"34":0.19850659890239966,"35":-0.2802330656969361}},{"sx":1,"sy":1,"depth":36,"w":{"0":-0.37649057460923147,"1":-0.11843697759598448,"2":0.11333983890933917,"3":0.01899786255552263,"4":0.12039852707028773,"5":0.2010441196300579,"6":-0.1158578779719109,"7":-0.05667069824150578,"8":0.13223911873347774,"9":0.2424619148429018,"10":0.26676518915245023,"11":0.25186841489393536,"12":0.05502201229207048,"13":-0.13434322179899502,"14":-0.009224594883606637,"15":-0.06710348826113026,"16":-0.22988891531464406,"17":0.29767402826595113,"18":0.0834467815179501,"19":-0.26713002168735095,"20":0.16538744356945032,"21":0.37210602407050447,"22":-0.2457066985291558,"23":-0.28405548566102334,"24":-0.04930237549823707,"25":-0.03721111664686864,"26":0.17350930729739275,"27":0.21945021906592546,"28":0.2734133762453667,"29":-0.2515575339975132,"30":0.39528197867766396,"31":-0.05610875696832059,"32":0.09351655110604776,"33":-0.032136631628405805,"34":0.1873033505390069,"35":0.0010147779400318635}},{"sx":1,"sy":1,"depth":36,"w":{"0":0.1293059708776845,"1":-0.07061072987184715,"2":-0.1278390359413724,"3":0.21317127184735912,"4":0.26971831665300156,"5":-0.028138105502095154,"6":0.1501888233509497,"7":-0.03794572442444769,"8":-0.15418552272984565,"9":0.12230410320442554,"10":-0.09922154763519939,"11":0.09607533239949645,"12":-0.08257413031283466,"13":-0.0043628906005071235,"14":-0.15109567422513537,"15":0.2464863345920425,"16":0.42201158164222613,"17":-0.1755392925602468,"18":-0.35031562572750075,"19":-0.04454491459748843,"20":0.13911184554073852,"21":-0.3211517039264625,"22":-0.019249168778389968,"23":-0.13268738688430118,"24":0.08879763701448874,"25":0.11869983510610356,"26":-0.03491397491596988,"27":-0.12906991054203398,"28":0.031377619581093655,"29":0.18359378474153668,"30":0.28785061323955946,"31":0.09762079893320175,"32":0.004479427289315192,"33":-0.12943823627049017,"34":0.11511992323822187,"35":-0.23080716238797896}},{"sx":1,"sy":1,"depth":36,"w":{"0":0.09961063300643477,"1":0.16148532301277221,"2":0.08523962906413683,"3":0.23237261931346204,"4":-0.19574961207805236,"5":-0.0022787026135788787,"6":-0.0008436263273187947,"7":0.03354375935238837,"8":-0.16043574694081703,"9":-0.19261120174440888,"10":0.19045369787916525,"11":-0.11106209193386721,"12":0.05109896938934517,"13":-0.19660115574113138,"14":-0.06009120743526512,"15":-0.08583877771928224,"16":-0.11781843127213565,"17":-0.04771730085544399,"18":0.46191782942914006,"19":0.1024761302885701,"20":-0.13549128579645953,"21":-0.005750903758037643,"22":-0.11411256425312966,"23":-0.009355947090340794,"24":0.07808860537698423,"25":0.4239462457006235,"26":0.000055529014136865164,"27":-0.016542952302717358,"28":0.14161973997677396,"29":0.2153980927023189,"30":-0.014780330471534939,"31":-0.21919515352860208,"32":-0.05334622793173888,"33":-0.04291946858945521,"34":0.0005253792514686223,"35":0.15342586111790335}},{"sx":1,"sy":1,"depth":36,"w":{"0":0.2193882650450739,"1":-0.05294700633835341,"2":0.03396039855835925,"3":0.01883062963313434,"4":0.040599908377293256,"5":-0.3663550258362819,"6":-0.14473963534139458,"7":0.027334773029794722,"8":0.27451006777742326,"9":0.029098915241930715,"10":0.1593552410982576,"11":0.3488628415728209,"12":0.02401235467294163,"13":-0.09595872360645014,"14":-0.05832175928821671,"15":0.12906830653379528,"16":0.0684013283642412,"17":0.26084045957590013,"18":0.1016730482952665,"19":0.2773763509016141,"20":0.16436583013985923,"21":0.10811214935447795,"22":-0.13469266682419473,"23":-0.24069593253328103,"24":-0.025576345562368333,"25":-0.044383775745969675,"26":-0.10963925661336986,"27":0.18641099379601503,"28":0.20721699886693293,"29":0.09868310968527977,"30":0.20242188205891543,"31":0.082663725582455,"32":-0.09374374196949763,"33":0.2702418746689652,"34":0.15029065785185677,"35":-0.21017820011065225}},{"sx":1,"sy":1,"depth":36,"w":{"0":-0.19638721105604307,"1":0.1306934265724272,"2":-0.01683977159740998,"3":-0.006449760638141866,"4":0.09438467656492218,"5":-0.33898117910652587,"6":-0.16481311381005365,"7":-0.23312138903537266,"8":0.0037902947993426303,"9":-0.16206133526004377,"10":-0.0818942142840282,"11":0.30424003225314766,"12":0.00815882580691876,"13":0.09654006657359021,"14":-0.14660246754589412,"15":0.03067929134098252,"16":-0.2729606728845623,"17":-0.020001279525900466,"18":0.029590238644408528,"19":-0.049070017295297155,"20":-0.06141072347167753,"21":-0.0896068529336697,"22":-0.08529620693888207,"23":0.059772243430468205,"24":0.0690675651102316,"25":0.07447635930286342,"26":0.1299647414852539,"27":0.09893899947716026,"28":0.1342461979831026,"29":-0.014535349990832993,"30":0.03549028066634372,"31":-0.05604704267956931,"32":-0.1752315323705972,"33":0.30805286864343584,"34":-0.04788269595660724,"35":0.055109696554337936}},{"sx":1,"sy":1,"depth":36,"w":{"0":-0.19846088518443283,"1":-0.06680703240039379,"2":0.1088632222100447,"3":-0.2696328623311829,"4":-0.14475758233836117,"5":0.030543882475733346,"6":0.03619730804960592,"7":-0.04944820649139454,"8":-0.045061139573732256,"9":-0.058743044835202964,"10":-0.22204549012856176,"11":-0.15930684204348977,"12":0.04738254323006356,"13":-0.017910401780315555,"14":0.2087824133492359,"15":-0.02800963108582241,"16":0.20192654159339302,"17":-0.30287339703434185,"18":0.10504260461527558,"19":0.10340456190317807,"20":-0.00880534331639063,"21":0.3394756655245695,"22":-0.08727444991064122,"23":0.15275406242702647,"24":0.15962641819772228,"25":0.002629966381602795,"26":-0.1850669651079651,"27":0.27707707354899913,"28":-0.2189654217508382,"29":0.2456301505304202,"30":-0.14569928184587883,"31":0.14167710463310243,"32":-0.18839421016558822,"33":0.06728828759809329,"34":0.2264255336791837,"35":0.038658386742504915}},{"sx":1,"sy":1,"depth":36,"w":{"0":0.048489313897655394,"1":-0.2692592121194508,"2":0.2828398260912421,"3":-0.06769804485033602,"4":-0.029470719948373646,"5":0.05860021099011053,"6":-0.1594792050315614,"7":0.06543718762462121,"8":0.043328281520393294,"9":-0.04228317616007061,"10":-0.06047120744844917,"11":-0.3079225908085579,"12":0.13670878570979741,"13":0.024172596485179675,"14":-0.35566792598447455,"15":-0.02431941392666631,"16":-0.10657155108870317,"17":0.06469616177991123,"18":0.04968081406461251,"19":-0.2180606992642805,"20":0.20262883976260013,"21":-0.13068298957490182,"22":0.028968073442773228,"23":0.13290902542859684,"24":0.1769013749227836,"25":0.10880010222737976,"26":0.07175799467542283,"27":-0.32173579662777035,"28":0.10818843643384046,"29":-0.17435151683253824,"30":-0.18600013991982361,"31":0.3123793996027468,"32":-0.005215292053938203,"33":0.07176995239181924,"34":-0.2745408578664368,"35":-0.16018673867917674}},{"sx":1,"sy":1,"depth":36,"w":{"0":0.1613091640830933,"1":-0.30422692269583773,"2":-0.1689621811896721,"3":-0.009392418571807375,"4":-0.01435465624511185,"5":-0.3489408032932314,"6":0.10322600517106584,"7":-0.32263149360454885,"8":0.18890160282025903,"9":-0.21404657805614982,"10":0.09354878909537753,"11":0.17757314517482664,"12":0.05278090738463487,"13":0.01148791008188736,"14":0.0016829536722518708,"15":-0.09685809033319868,"16":-0.06629172090055198,"17":-0.37992022167433226,"18":-0.27437978121484063,"19":-0.2539650778268584,"20":0.10079293010713337,"21":-0.11185398523552012,"22":0.10190129256395232,"23":0.06258341557418216,"24":0.1166418139302316,"25":-0.281216434089899,"26":0.09101691152772955,"27":-0.08245460192403845,"28":-0.11682852557471836,"29":-0.18155143579872213,"30":0.023182115129561778,"31":0.05171530897709922,"32":-0.012981279609192736,"33":-0.07029537017552347,"34":-0.09244666023986164,"35":0.09165126099947765}},{"sx":1,"sy":1,"depth":36,"w":{"0":-0.04947794724194018,"1":-0.1324405007931403,"2":-0.06733742212565194,"3":-0.2193731487120803,"4":0.05160737601123089,"5":-0.17218961206167815,"6":0.033765627305779644,"7":-0.10615964790682013,"8":0.059167077622078706,"9":0.023149286262316847,"10":-0.0007900827028093165,"11":0.06868684434679363,"12":0.18429863103935834,"13":0.01799167270521418,"14":-0.003788805899415828,"15":0.00745969210258704,"16":-0.3044783000018795,"17":-0.10884611360099773,"18":-0.10651251758848392,"19":0.08260942872671952,"20":0.19759732784870565,"21":0.19135256733459863,"22":0.10670849722646027,"23":0.012307171378995905,"24":-0.23011805100131844,"25":0.08714234694041198,"26":0.2128374688149417,"27":0.14568660409032858,"28":0.09493612061110623,"29":-0.3173031870669419,"30":-0.0812600248500063,"31":0.05172007482112452,"32":0.3022727614733388,"33":-0.020599582174830718,"34":0.1259238858693731,"35":-0.09678042847460899}},{"sx":1,"sy":1,"depth":36,"w":{"0":0.36034238228892995,"1":-0.26557036273653933,"2":-0.20218587088761486,"3":0.13716081524259505,"4":0.1947891125565539,"5":-0.08254801582155316,"6":-0.07575989000363084,"7":0.0969738831497346,"8":0.0066138013375238594,"9":0.23880341712145192,"10":0.26936886828597584,"11":0.21173821016851746,"12":-0.05161959563999356,"13":0.010880318750973282,"14":-0.08146394456014656,"15":-0.17210078811443705,"16":0.15003481346769018,"17":0.04362027776064423,"18":0.02678505358872438,"19":-0.1687643075798005,"20":0.0647841238211109,"21":0.08743874732108847,"22":-0.1427161201425298,"23":0.009540516536734212,"24":-0.09458718716868537,"25":0.26785060755993323,"26":-0.06599095202692302,"27":0.15090632663066092,"28":-0.05039436604037104,"29":0.01834413149118491,"30":0.16189339961029345,"31":0.14491872827664012,"32":-0.4364251352460268,"33":-0.010721576441928211,"34":-0.06259439064642286,"35":0.05752392704462644}},{"sx":1,"sy":1,"depth":36,"w":{"0":-0.002976124014456302,"1":0.01970653622269179,"2":-0.11975594710785945,"3":-0.2273387105948527,"4":-0.004762185317914653,"5":-0.08419521301610697,"6":-0.02898142148087691,"7":-0.07861092678403728,"8":0.14911217969717797,"9":-0.5875639060251417,"10":-0.09904277600834467,"11":0.10334102471055986,"12":0.13279306837655283,"13":0.05434729340038593,"14":-0.20810543137821486,"15":-0.22342647944670815,"16":0.0669616586263174,"17":0.0634192131383109,"18":0.14227700274336064,"19":0.12315535538406558,"20":0.23141683532305163,"21":-0.019341051881953522,"22":0.08207585151317544,"23":0.44728399347814474,"24":-0.08711378945850025,"25":-0.24378739634386962,"26":-0.05052298729774578,"27":-0.03365877279935829,"28":-0.20478385787166148,"29":-0.10060011707069266,"30":-0.12591867814970034,"31":0.3020240665969054,"32":0.02829343101677923,"33":0.38222037668050984,"34":-0.04217363060393704,"35":0.4914664881690238}},{"sx":1,"sy":1,"depth":36,"w":{"0":-0.01657836485748286,"1":-0.1024853829836981,"2":0.04124865147259082,"3":0.2392399787465921,"4":-0.0009172961530136551,"5":0.022292199729044483,"6":0.04561978527929117,"7":0.09784498101341212,"8":0.005582432675147478,"9":0.2498517581885579,"10":-0.13673993635583123,"11":0.06505269067923489,"12":0.25382060805986073,"13":-0.22176494416987028,"14":0.3488862192553196,"15":0.12481137211509072,"16":0.11335416753582274,"17":0.3334817491647904,"18":-0.3868032048448918,"19":-0.03070518594422049,"20":0.04844581796118166,"21":-0.19222276630821036,"22":-0.024398878650575044,"23":0.16541879129617218,"24":0.1861820300794091,"25":0.10091001623258904,"26":0.1195958668797996,"27":0.0020346958140536444,"28":0.06802506792151396,"29":0.13634905591444402,"30":-0.18279075591265087,"31":0.032057195552228655,"32":0.15955791345641646,"33":-0.03344216763938452,"34":0.1234471886258263,"35":-0.06874779561011497}},{"sx":1,"sy":1,"depth":36,"w":{"0":-0.26100495529433526,"1":0.08770504932876541,"2":-0.17084586688433742,"3":0.019395887394822137,"4":-0.08813556235696378,"5":-0.03975991603815424,"6":0.06297656593249863,"7":0.25095998765465033,"8":-0.07558859137936437,"9":-0.2296176944858167,"10":0.03722578572915062,"11":0.18117644956888898,"12":0.12012641463439275,"13":0.22404845208531576,"14":0.2036412081086058,"15":0.06079233304757933,"16":-0.1737415307078704,"17":0.02350930023472466,"18":0.07550857581125683,"19":0.11166240485030655,"20":0.15375722314965126,"21":-0.11405439158504445,"22":-0.004338729568274745,"23":0.1935293958770338,"24":0.0013439939829651174,"25":0.0226623123208346,"26":-0.09668367320766454,"27":0.18882184731932036,"28":0.05956040613116743,"29":-0.09536404843644906,"30":0.16841526201028423,"31":-0.35982062528292547,"32":0.07146382003478483,"33":0.04042720526218367,"34":0.26271752676206206,"35":-0.04961939793060941}},{"sx":1,"sy":1,"depth":36,"w":{"0":-0.15785562716706536,"1":-0.0691730283769206,"2":-0.24772197839315613,"3":-0.000037150620952491996,"4":0.23441284313221336,"5":0.21530701995395557,"6":0.08067805833330587,"7":0.1292662339900482,"8":-0.13778550205321122,"9":0.19295299906461771,"10":0.3359293944391853,"11":0.24661073562396119,"12":-0.0513256448474609,"13":0.31520594964550663,"14":0.12188747205424764,"15":-0.1228294584565522,"16":-0.06135308582678497,"17":0.26123987158822537,"18":-0.05963785034920601,"19":0.17014940068323545,"20":-0.08025401977924551,"21":-0.10699432256620257,"22":0.0007124960717816769,"23":0.1352973313775814,"24":0.1849203330144738,"25":0.20408632290021983,"26":0.30632838448754307,"27":0.033282010259224386,"28":-0.19652470209880069,"29":0.16274197669675433,"30":0.1866856485137328,"31":-0.11992623365304031,"32":0.29966234184872187,"33":-0.06833077422945229,"34":0.18744133696508355,"35":0.05184365953106833}},{"sx":1,"sy":1,"depth":36,"w":{"0":0.09058628986682114,"1":0.26266215702134177,"2":0.22304962896383806,"3":-0.08094689654014016,"4":0.21829767556514457,"5":-0.021383224440455473,"6":-0.05683334500615415,"7":-0.07985839019593807,"8":-0.2260409169987821,"9":-0.00015203440682643894,"10":0.15200870753219595,"11":-0.0673216366517142,"12":0.15358591719051706,"13":0.1142972271545055,"14":-0.25889199122768336,"15":0.4330861792933334,"16":-0.3021933737717628,"17":-0.01889565191627124,"18":-0.0006824708546200051,"19":-0.05643141146642249,"20":-0.030103124099819172,"21":0.07880248648275845,"22":-0.2360861956875713,"23":-0.08250218897242217,"24":0.028838763734013336,"25":0.19490150665497513,"26":0.15969923959133167,"27":-0.2455460198971121,"28":0.25068051643473593,"29":-0.05585045899650774,"30":-0.1293942529283302,"31":0.31708632382966023,"32":-0.18459381351548576,"33":0.08540223957618455,"34":0.1430706972933543,"35":-0.10407576245227329}},{"sx":1,"sy":1,"depth":36,"w":{"0":0.0007461306205640403,"1":0.23527044073729353,"2":0.1419357761696788,"3":-0.1438188819154684,"4":-0.29739120642586325,"5":0.07626737447899302,"6":-0.10530148923757919,"7":0.04948110361186536,"8":-0.11890924546842883,"9":-0.06394906710120149,"10":0.046394612493986104,"11":0.10757945845917659,"12":-0.14261428080437272,"13":0.15022075675335364,"14":0.005016666046272852,"15":-0.16939030939974517,"16":0.0635166485277701,"17":-0.3111191182317825,"18":0.16318215840862313,"19":0.11831274115507125,"20":-0.025725937601269754,"21":-0.0922221479843371,"22":0.13449986287787638,"23":0.19568018269967524,"24":0.035156434762539115,"25":0.2534555052876573,"26":-0.05244857118298647,"27":0.0705786849733249,"28":0.20072514512728432,"29":-0.26824901778736926,"30":0.04209079803193114,"31":0.062201708111973925,"32":0.19188216904779443,"33":-0.14958938918675208,"34":0.11655713328949657,"35":0.06709790638613806}},{"sx":1,"sy":1,"depth":36,"w":{"0":0.14789819901704435,"1":-0.12897771575040104,"2":0.12371670943423387,"3":0.24379959839526125,"4":0.0016279059686024298,"5":0.07052339194142244,"6":0.05637869558341088,"7":-0.17770295281475035,"8":-0.270480630301899,"9":0.22941823822085103,"10":0.17814457826413835,"11":-0.277602491335765,"12":-0.15925916839237497,"13":0.2199387919806519,"14":-0.20657093839869264,"15":0.08785898141025178,"16":0.500196000035509,"17":-0.15059267907653706,"18":-0.04440819758787744,"19":0.25121983852814184,"20":0.17192076471981482,"21":0.003713170591397777,"22":0.25450754089922834,"23":-0.055858447638969445,"24":-0.02435794879709496,"25":-0.10750642999977933,"26":0.09422016546603759,"27":-0.03034463181700806,"28":0.3271355331841085,"29":0.18030663286215526,"30":0.12779735272624107,"31":-0.08323578074025748,"32":0.0532353702830977,"33":0.15313006279992222,"34":-0.08778481951823493,"35":0.14738128971476108}},{"sx":1,"sy":1,"depth":36,"w":{"0":0.01141937750740923,"1":-0.11000372084333102,"2":-0.059261341354086325,"3":0.006250268359954103,"4":-0.08125078547684224,"5":0.20052944955743454,"6":-0.08989487250307152,"7":-0.13856272687306714,"8":-0.04948165929173489,"9":-0.02702774290508781,"10":-0.20079193723153813,"11":0.08613001375628594,"12":-0.018681141396695085,"13":-0.15750850280273387,"14":-0.09208991502950681,"15":-0.05379477261656613,"16":0.18422894777633325,"17":-0.1786978506028685,"18":0.14680994276976936,"19":0.3180147843825827,"20":0.19552691532793,"21":0.04778905899090603,"22":-0.05900042317878021,"23":0.027996730428365483,"24":0.17798566792895865,"25":-0.12390362946518788,"26":-0.017499549549087973,"27":-0.09588647834581827,"28":0.06668992094911186,"29":0.025522948659247036,"30":0.11855218859698138,"31":-0.16110847047162602,"32":0.040873313731214646,"33":0.23817738764322588,"34":0.13020529149459364,"35":0.11622363208871489}},{"sx":1,"sy":1,"depth":36,"w":{"0":-0.18261340976340734,"1":-0.293926955851171,"2":-0.14745858051811153,"3":0.007634873048869042,"4":-0.11635008582048093,"5":-0.05216846790026943,"6":0.05817123042477327,"7":0.08319738252774467,"8":-0.06244420360214237,"9":-0.09422384682352178,"10":-0.048126864056762766,"11":0.10215604253030981,"12":0.11754399890760574,"13":-0.03621718780529005,"14":-0.04321684882248501,"15":0.051610449701045946,"16":0.17167615952783943,"17":0.33656010318351415,"18":-0.1716673546355897,"19":-0.17852984268841776,"20":0.04571957874436803,"21":-0.03651659549213363,"22":-0.17851088702819087,"23":-0.03810601823721712,"24":0.019220190282804778,"25":-0.12841179693801097,"26":0.15293495247553782,"27":0.09803576822618308,"28":-0.06661079944755632,"29":-0.0070508488740485134,"30":-0.12476330123178433,"31":0.031101452758404542,"32":-0.30353716519463836,"33":-0.07757367872528566,"34":-0.10911998521314249,"35":-0.2931525761771353}},{"sx":1,"sy":1,"depth":36,"w":{"0":-0.05910756071158143,"1":-0.04965865935619728,"2":0.36501049792807555,"3":0.2595362370469363,"4":-0.021442944675504318,"5":0.0791832116166132,"6":-0.016394787917120044,"7":0.1462512536945744,"8":-0.18598916924500153,"9":0.037241318355118964,"10":0.308683260082461,"11":-0.3071378191489933,"12":-0.12922245425688467,"13":0.3302329103547836,"14":-0.06600280311213713,"15":0.000009601565935723491,"16":0.36343146557316625,"17":0.1442987848909282,"18":0.013537449494449632,"19":0.1595523280463007,"20":-0.02978603282243575,"21":-0.24385014028836585,"22":0.03482966837398972,"23":0.06226607131153461,"24":0.021531938082565687,"25":0.353792804167865,"26":0.0949799550517518,"27":-0.27101253085685223,"28":-0.07346302321347321,"29":-0.279424788800757,"30":0.29197613283352875,"31":0.1360069865465152,"32":-0.408004906022574,"33":-0.0646609946355102,"34":0.030325083854609743,"35":-0.1803067731575436}},{"sx":1,"sy":1,"depth":36,"w":{"0":0.41317590235908375,"1":-0.1465423880134087,"2":-0.04757749499282232,"3":-0.0303534411097768,"4":-0.18073510223083591,"5":-0.1699772450223775,"6":0.07523911173837053,"7":-0.08981075710518982,"8":-0.013494272708045084,"9":0.006681021123536839,"10":0.09654887804702547,"11":-0.06668538719839395,"12":-0.03169760593528531,"13":-0.07077655039557826,"14":0.1498157266681302,"15":-0.400863717660001,"16":0.2798887743229855,"17":0.01466086162947265,"18":-0.0675005581638268,"19":-0.332873707803396,"20":-0.1894877566123473,"21":-0.27636316780757186,"22":-0.20692943044216675,"23":0.4319124938747781,"24":-0.0986208231982168,"25":0.18712845377455292,"26":-0.06467511396241907,"27":-0.00024881948767735987,"28":-0.19545694291236657,"29":-0.27813679590291307,"30":-0.043426405904629525,"31":-0.14474916250322903,"32":-0.19796846404791413,"33":0.07783971951970482,"34":-0.057384562120944047,"35":0.31287289743124325}},{"sx":1,"sy":1,"depth":36,"w":{"0":-0.06718925943165896,"1":0.17998068006373125,"2":-0.02771182423469185,"3":0.2750183853202639,"4":-0.3216368477681507,"5":0.2959714326238209,"6":0.2624410719019462,"7":0.21272190090581553,"8":0.05500618505435379,"9":0.05835049539887531,"10":0.1168227624903092,"11":-0.12809348294178766,"12":-0.03049917731679735,"13":-0.20105735913685358,"14":0.08149866382157953,"15":-0.2706872564153251,"16":-0.08960854680717657,"17":0.055183368532783626,"18":0.12369422506896381,"19":-0.17147414686079704,"20":0.007576638845253354,"21":0.05067030693319741,"22":-0.26826701399000147,"23":-0.12734800670430943,"24":0.011814530801597847,"25":0.09798507685561939,"26":0.012420491984057891,"27":-0.004644467956296861,"28":-0.14441330607107122,"29":-0.10853486845750815,"30":-0.056774835949415604,"31":-0.32959201285397455,"32":-0.10384052913430403,"33":0.10848900579865171,"34":-0.0751922896166486,"35":-0.07875553974518859}},{"sx":1,"sy":1,"depth":36,"w":{"0":-0.03427580033381691,"1":0.019782670972303767,"2":-0.23887613525976797,"3":-0.23340821385832272,"4":-0.07115029870429,"5":-0.26244874527435874,"6":0.21840194231734822,"7":-0.09859583904258297,"8":0.3330090243230332,"9":-0.017423962959522903,"10":0.04168947272465284,"11":-0.10661201830194535,"12":0.18801506059812367,"13":0.17464800866963684,"14":-0.05089119318421798,"15":0.1783963970317549,"16":0.047992747653612645,"17":0.09034954082113505,"18":-0.05315734951390272,"19":0.20276506909764802,"20":0.014391536575571526,"21":0.10872065714196479,"22":0.2321334121117228,"23":0.1892130272637109,"24":0.06543103693104191,"25":-0.02220822689121491,"26":-0.12910812757287618,"27":0.0013888571232568815,"28":-0.08104200523069123,"29":0.22186485568706646,"30":0.18953612724209046,"31":0.020725230101854928,"32":-0.07107653572707935,"33":0.31757925911897317,"34":-0.13832848936119882,"35":-0.16700615103433883}},{"sx":1,"sy":1,"depth":36,"w":{"0":-0.009530593417012657,"1":-0.04279374766340445,"2":-0.2386588861998781,"3":0.23016250466949348,"4":0.04373436218443782,"5":0.0822722090943912,"6":0.07568422850548703,"7":-0.0597458993380318,"8":0.21162544808434777,"9":-0.06753501665477257,"10":0.06582115654240808,"11":-0.14007235885204922,"12":-0.10652576475595671,"13":-0.04070144041305394,"14":-0.21311891400258795,"15":0.0415118685723971,"16":-0.32905637544782257,"17":0.24014510705036393,"18":0.10013142225639478,"19":0.1425799484069918,"20":0.10031812197130353,"21":0.037214442617331395,"22":-0.0668356677569977,"23":0.2112019899866851,"24":-0.06565012545167627,"25":0.08000890530463993,"26":-0.33097944066516616,"27":0.12165941257851971,"28":0.036641211674693114,"29":-0.0076788610009710535,"30":-0.34824835206211807,"31":0.1259396998183145,"32":-0.03966751961999314,"33":0.3340789507501293,"34":0.09824940144696966,"35":0.4102346550532769}},{"sx":1,"sy":1,"depth":36,"w":{"0":-0.021754015368283208,"1":-0.10136953089527584,"2":-0.012491668488423953,"3":0.2300707279981306,"4":-0.08457072820827954,"5":-0.01247758551805868,"6":0.17655075459720831,"7":-0.09413288658388637,"8":-0.12768273352359166,"9":0.05744914364897176,"10":-0.14081917266156802,"11":-0.1333924378066683,"12":-0.05998084643458428,"13":0.1845735845336514,"14":-0.3315123081557625,"15":0.002225323828799022,"16":-0.26547132353326663,"17":-0.3950710992829363,"18":0.17015705202621784,"19":0.0009864500398173639,"20":0.2662593328675658,"21":-0.05038330454167519,"22":0.20598966276111777,"23":0.16903565574210214,"24":-0.22017496476075632,"25":-0.22149446092893302,"26":-0.12105808316615287,"27":-0.1023372971478979,"28":-0.054428325889373366,"29":0.09265311934404884,"30":-0.08462521964924728,"31":-0.01234027317016614,"32":-0.30700394359172817,"33":-0.38242179035699897,"34":0.10518157928771098,"35":0.184822394070771}},{"sx":1,"sy":1,"depth":36,"w":{"0":0.239243705149216,"1":0.21769286658793516,"2":0.06702575828820698,"3":0.09041905872150713,"4":-0.1340297814228421,"5":0.0348562439067611,"6":-0.0868135607687678,"7":0.14676721615436195,"8":-0.1608446073135043,"9":0.03436483904954232,"10":0.11868469569491814,"11":-0.14185320509773092,"12":0.30186764895182566,"13":0.128303904268924,"14":0.1327964330375635,"15":-0.0829588403377899,"16":0.03784202978028634,"17":0.140157192312989,"18":-0.05762633902212883,"19":0.13315312448646438,"20":0.11501104188486369,"21":0.09884364564492247,"22":0.18947061946397695,"23":-0.35131775087290495,"24":0.059345239338464154,"25":-0.20412766725009748,"26":0.0901374669788527,"27":-0.31050112440356015,"28":0.18071007886307885,"29":0.11018117399872047,"30":-0.05950697355922213,"31":-0.018089739516251317,"32":-0.1752089336887617,"33":0.16764825917099313,"34":0.14932317220030536,"35":0.1007792313444353}},{"sx":1,"sy":1,"depth":36,"w":{"0":-0.14257633385409405,"1":0.12680575925865684,"2":0.3176290056270978,"3":-0.031817551165549796,"4":-0.09828876708670788,"5":-0.01943645816758097,"6":0.17509482055352357,"7":-0.06432384405350958,"8":0.2002870723055984,"9":0.053260211496188856,"10":0.21563617086181208,"11":0.1262918217998323,"12":-0.15644602655880097,"13":-0.06467040668188542,"14":0.15838015621653176,"15":-0.133311320374007,"16":-0.1351556090648612,"17":-0.14099526686090014,"18":-0.09138552883786483,"19":0.06407343521390732,"20":0.3255177739019783,"21":0.12201368764481392,"22":0.08842990780767335,"23":0.2311677022950439,"24":0.0740059137077558,"25":0.0054166331462017206,"26":-0.2905325058623509,"27":0.13367858656196424,"28":0.05333718456994958,"29":-0.3752474997071623,"30":-0.051457731095551545,"31":-0.12189536726719764,"32":-0.1739133743647078,"33":-0.08086115041996127,"34":0.10011257817348687,"35":-0.04281036496304838}},{"sx":1,"sy":1,"depth":36,"w":{"0":-0.09406017947136086,"1":0.019678125352136203,"2":0.19946757376975985,"3":-0.19269508499649668,"4":-0.10197830740767708,"5":0.13156754480631802,"6":0.1750607981441093,"7":-0.12262584376318425,"8":0.18986504052801534,"9":0.37797666691661896,"10":0.08976028294545205,"11":-0.056464408762122185,"12":0.0023817928269798316,"13":-0.28448207131859743,"14":-0.12711014681640465,"15":-0.01921533741783277,"16":-0.04058160350992323,"17":0.13729122978358319,"18":0.04831617692245109,"19":0.0719903334083986,"20":-0.04971735291074336,"21":0.27804988150153426,"22":-0.055115203442033966,"23":-0.12165690032133812,"24":-0.1383910546576107,"25":-0.09679234830992896,"26":-0.11274012492116953,"27":0.21987286604990694,"28":0.05271638213787449,"29":-0.04082608604370602,"30":0.01475653233339055,"31":-0.3233502560068332,"32":0.1176974957686786,"33":-0.05680220133206677,"34":-0.018708592672504017,"35":-0.34929116015965767}},{"sx":1,"sy":1,"depth":36,"w":{"0":-0.228572986038839,"1":-0.024588997754502392,"2":-0.20047855992544175,"3":0.1743974374381189,"4":0.0017912249214496428,"5":-0.13229059221038317,"6":0.1958280217960511,"7":-0.034085591016793294,"8":0.11723596139759355,"9":0.010113429933129768,"10":-0.16485884975737888,"11":0.08769303269959393,"12":-0.1778338694969555,"13":-0.10098280396970108,"14":-0.11215306669953005,"15":0.15380938620168377,"16":-0.17963856990626983,"17":0.12263439817474386,"18":0.08899045805309273,"19":-0.04126293682431315,"20":-0.03534472287611737,"21":-0.2983810645187798,"22":0.06203889203482799,"23":0.2252448016560742,"24":-0.20310400595659078,"25":0.05163749235022613,"26":0.09664808307285365,"27":0.09030583738746945,"28":-0.3928974342396371,"29":-0.2541529390353405,"30":-0.0910728623991508,"31":0.3689709906428187,"32":-0.09700907278071168,"33":-0.0671494165832125,"34":-0.1416389067075446,"35":-0.11122786998195106}},{"sx":1,"sy":1,"depth":36,"w":{"0":0.29837415768507236,"1":0.1543651649260099,"2":0.24894704629787978,"3":0.03476635056476326,"4":-0.04287206313181645,"5":-0.1896333168924344,"6":-0.3117605131274067,"7":0.031627139008818056,"8":-0.08237029620359798,"9":0.030371656150371892,"10":0.13434926083102025,"11":-0.025111278045572408,"12":0.007316017813346049,"13":-0.3048649635712749,"14":-0.07280494331995832,"15":0.004527841479694952,"16":0.15017726614074087,"17":0.12594001607990166,"18":0.17986438018614642,"19":0.0991553108333083,"20":0.1451610095522824,"21":-0.036302487942871726,"22":-0.3194715533699826,"23":0.010460391300340374,"24":0.08824432649498092,"25":0.21241707884506694,"26":0.15815318841726783,"27":0.22274898089294654,"28":-0.02967545635287885,"29":0.17577855940603554,"30":0.08892699135839173,"31":0.06161906579998941,"32":0.2894982665821943,"33":-0.20010840670574162,"34":-0.17759888350142114,"35":0.25421265418361666}},{"sx":1,"sy":1,"depth":36,"w":{"0":-0.09592761409762782,"1":-0.08546295271517312,"2":-0.23844190056246115,"3":-0.081900635049571,"4":-0.22805689788480518,"5":0.12137296950419142,"6":-0.14879053179854423,"7":0.020731035537821352,"8":-0.15701920647233494,"9":-0.03615454326360925,"10":-0.15341774034872394,"11":0.10197122059705864,"12":0.08239757379182902,"13":-0.06125003170664994,"14":0.11502360009032127,"15":-0.06850713101418493,"16":0.14477102163083547,"17":-0.2447253639134632,"18":0.18613811140082792,"19":0.10678532076105712,"20":0.20793635521474652,"21":0.08277133530172416,"22":0.05398088920653212,"23":0.021077537536293853,"24":-0.13840584123674682,"25":-0.007919067821537494,"26":0.0602057083321592,"27":0.013051121734990925,"28":-0.05009232798964,"29":0.05679330728883831,"30":-0.17763594106799466,"31":-0.08710532729114898,"32":-0.2657492234837754,"33":0.04122353797621403,"34":0.3128820566965642,"35":-0.2005820741506045}},{"sx":1,"sy":1,"depth":36,"w":{"0":-0.40267909455421713,"1":0.23214254643761048,"2":0.2526062938992304,"3":0.39409427574351164,"4":0.06683450249363149,"5":0.2180141291133877,"6":-0.09989370670909865,"7":-0.0012516774486421827,"8":-0.5127848940220271,"9":-0.1299177354825506,"10":-0.1617219771086097,"11":0.004313619644305965,"12":-0.24733457742331585,"13":-0.07330685298079287,"14":0.18710531232887054,"15":-0.04751149732874173,"16":0.19050425049372452,"17":0.03846778141685492,"18":0.07762963511371233,"19":-0.029149317664660744,"20":0.049827654208726084,"21":-0.075634430443348,"22":-0.00808028177109156,"23":0.031128869715611636,"24":0.057363737665614145,"25":-0.2595724955457893,"26":0.009365273779221374,"27":0.13330054818807258,"28":-0.2033561527234111,"29":-0.022322684083863564,"30":-0.08871859589905028,"31":-0.0446428579255385,"32":-0.062098582577709914,"33":-0.013333626416562617,"34":-0.210148878359544,"35":0.015155583841148141}}],"biases":{"sx":1,"sy":1,"depth":64,"w":{"0":0.09785455719468666,"1":0.1046787059879376,"2":0.09853647650469799,"3":0.10161803774671455,"4":0.10247853148087126,"5":0.10335620142016842,"6":0.10015097315082128,"7":0.10172784182137341,"8":0.10251541134837303,"9":0.10033990075211412,"10":0.09808117112018805,"11":0.09127221732925093,"12":0.09805977124334794,"13":0.09842304437196514,"14":0.10264328152314539,"15":0.10329912975220283,"16":0.1037446106391625,"17":0.0977234874088957,"18":0.10253154155760974,"19":0.09798697430433352,"20":0.10297515158587324,"21":0.1009145255897386,"22":0.1004073000063102,"23":0.09380164940305852,"24":0.10098493636038859,"25":0.09806119949810278,"26":0.10378580034281265,"27":0.10244611434647112,"28":0.09807681777863987,"29":0.10361932124634096,"30":0.09930400302153512,"31":0.10146175017301545,"32":0.10039423726084377,"33":0.09772304667431718,"34":0.10842584745931216,"35":0.10802625251681103,"36":0.10442859963362536,"37":0.09454629658485256,"38":0.10375063732823767,"39":0.09891112742487716,"40":0.09759743335065797,"41":0.09732994223638457,"42":0.10637058819933431,"43":0.11480106680508052,"44":0.09549691345006375,"45":0.1069128979255277,"46":0.1038138388475216,"47":0.09885002064517928,"48":0.10342554301771173,"49":0.10014376678822381,"50":0.10002837945994084,"51":0.09482488872423567,"52":0.09847388092814709,"53":0.09653334167893726,"54":0.09748192640065292,"55":0.11007996932311925,"56":0.09903057486032629,"57":0.10147785253432513,"58":0.0974253680086821,"59":0.1028016613695924,"60":0.09930266668523202,"61":0.09885868269422267,"62":0.10171726975944204,"63":0.10059646683262041}}},{"out_depth":64,"out_sx":1,"out_sy":1,"layer_type":"relu"},{"out_depth":32,"out_sx":1,"out_sy":1,"layer_type":"fc","num_inputs":64,"l1_decay_mul":0,"l2_decay_mul":1,"filters":[{"sx":1,"sy":1,"depth":64,"w":{"0":-0.011730929655801784,"1":-0.14627372486419785,"2":0.06340521607624991,"3":0.17862913264936064,"4":0.17128304995837815,"5":-0.10882264599724369,"6":-0.05054470368135523,"7":-0.04102917947094833,"8":-0.049624911424394506,"9":-0.12202737487634432,"10":-0.2313735889225004,"11":0.0926083780534226,"12":-0.03711966363720516,"13":0.02089852600660227,"14":0.18273177513288505,"15":-0.005644129724667718,"16":0.05017936542942722,"17":-0.056258699124169816,"18":-0.012038743089423948,"19":-0.15743465563311324,"20":0.1846354709594595,"21":-0.0409576285437386,"22":0.008142441919181563,"23":0.014397757868993763,"24":-0.041915540723080014,"25":-0.06583381504973067,"26":-0.03438607067214486,"27":-0.06441132112918994,"28":0.0049532509869619785,"29":-0.03835483330656248,"30":-0.012884580224325851,"31":0.024027087250475702,"32":-0.08028754430348745,"33":0.16073592672512313,"34":0.12846720213654542,"35":0.04917898832856553,"36":-0.051227430077886986,"37":0.2317925771588386,"38":-0.2956226346381703,"39":0.020092835444002973,"40":-0.0635032230956549,"41":-0.08595028763167528,"42":-0.04267158644439063,"43":-0.09545017378915799,"44":0.27545133902613217,"45":-0.017576378552909926,"46":0.1350923683177003,"47":-0.02237288064322416,"48":-0.040438892114809784,"49":-0.018146402160389565,"50":0.2695209730457417,"51":-0.04441678808671254,"52":0.24891406280976275,"53":-0.09487322537261499,"54":-0.02788294643438824,"55":0.16145662804589578,"56":-0.2626610513871966,"57":-0.10800490024905712,"58":0.20943103944498423,"59":0.1199828853816375,"60":0.04507853879885616,"61":-0.10395668758379085,"62":-0.13430685080247437,"63":0.10988748115182992}},{"sx":1,"sy":1,"depth":64,"w":{"0":0.011056191262629099,"1":-0.011002171492892924,"2":0.09556286781495325,"3":-0.17802383855828213,"4":0.09169969067676216,"5":0.09890676546921637,"6":0.03094521929922365,"7":-0.14851806702291107,"8":0.06336086270945526,"9":0.047667983230828694,"10":0.1595279253442429,"11":0.056693650008470764,"12":-0.02723361053987339,"13":0.12798244971489522,"14":-0.04012780082093054,"15":-0.01869477354091445,"16":0.07182645622867294,"17":-0.19994049760208005,"18":0.04265835900953552,"19":0.014867498105377807,"20":0.0065579916436327695,"21":-0.03842482281158714,"22":-0.14225114948309966,"23":-0.24220778529802883,"24":0.04969706085668232,"25":0.0012661761972740811,"26":-0.12109650888889587,"27":-0.0740346113288626,"28":-0.06719050877241702,"29":-0.22554745372009286,"30":0.19265248772204802,"31":-0.19676753848377448,"32":0.132315518336664,"33":0.04903592516643051,"34":-0.10148904957736564,"35":-0.07166209289719118,"36":-0.1049390625656356,"37":-0.024368122938311587,"38":0.015860630621371476,"39":0.1568685817295746,"40":-0.19480792144477513,"41":-0.08767849337649608,"42":0.12480561936121118,"43":-0.10943099509319762,"44":-0.2737247394607578,"45":-0.1834244091187948,"46":0.11268188980615455,"47":-0.1122132660369827,"48":-0.014096503454760618,"49":0.005773312623164047,"50":0.20001990017197743,"51":-0.06897691619229038,"52":0.11442060738613,"53":0.030145582594759947,"54":-0.06927867897788738,"55":0.26006588687589244,"56":-0.04989388138773226,"57":0.05016228344163048,"58":0.06219139322308677,"59":0.2369356183835905,"60":0.27506819677722166,"61":-0.04323642016091243,"62":0.036847834684785336,"63":-0.11092981733213865}},{"sx":1,"sy":1,"depth":64,"w":{"0":-0.14034595521975812,"1":0.13815251854349936,"2":0.06997314632648095,"3":0.04268184954566977,"4":0.11778467710269006,"5":0.11096376879925061,"6":-0.20677237973837034,"7":-0.037034756732234275,"8":-0.11362249143688359,"9":0.0035444414084380605,"10":0.04211292499957074,"11":-0.09415363558491491,"12":0.01061057911513534,"13":-0.00885608716932529,"14":-0.014758437496172372,"15":-0.04894594671869514,"16":-0.07185448051421824,"17":0.2886268185930776,"18":-0.12992634591724395,"19":-0.0973943190525716,"20":-0.0887118496513917,"21":-0.08343354244284598,"22":-0.10285324328300849,"23":0.0022840624925994347,"24":0.09090475022308087,"25":0.07706978949952095,"26":-0.01118705565285977,"27":-0.1724864000180128,"28":-0.17875629907090454,"29":-0.03464805933632308,"30":0.12856692083224652,"31":-0.17558222909165663,"32":0.0927111502245615,"33":-0.1698494451184828,"34":-0.14582244502602013,"35":0.2211966143913182,"36":0.06598262412837899,"37":0.12261585545995776,"38":-0.16295742722483034,"39":-0.17397239224263863,"40":-0.10111417902244454,"41":-0.005545462147254218,"42":-0.22938115665986994,"43":0.022266105304855503,"44":0.03954286947024205,"45":-0.044165363632229775,"46":0.058253895471873755,"47":0.12155060437049854,"48":0.09251627689370442,"49":-0.07838827262693993,"50":0.009223579411563014,"51":0.11451407572777879,"52":0.040458430311837046,"53":0.3940671329323933,"54":-0.10497555289563708,"55":-0.04780962573342712,"56":-0.06334729449004385,"57":-0.007604356732182531,"58":-0.25136534806703226,"59":-0.0963825511827778,"60":-0.02698787090597077,"61":-0.0940098907616448,"62":0.030818642008464587,"63":0.11898586402755235}},{"sx":1,"sy":1,"depth":64,"w":{"0":0.16777367203621976,"1":-0.01284378933361751,"2":-0.10035043310361068,"3":0.21135824591855185,"4":0.10254646119178448,"5":-0.09464819795474161,"6":-0.16434205805422697,"7":-0.0825139416943502,"8":0.03525553068574385,"9":-0.06432387871631158,"10":0.06232931241794535,"11":0.21502746891851524,"12":0.16712577924079547,"13":0.18693834172073232,"14":-0.034920765440976435,"15":0.08825406754716666,"16":0.030375337728082534,"17":-0.11178695594416324,"18":0.17022826661894874,"19":-0.059948861907787726,"20":-0.10514424847505965,"21":-0.1496911429980891,"22":-0.07941806211804116,"23":0.020682624285383016,"24":-0.03920901780131694,"25":0.08185373613179822,"26":-0.07538058915590781,"27":-0.2053355891494193,"28":-0.09977418816044277,"29":0.039178096178647176,"30":0.02763461512147009,"31":-0.17948134548230366,"32":-0.1203426010629828,"33":-0.049042803884195366,"34":0.13250565943689993,"35":-0.09550909435849453,"36":-0.21385270993472152,"37":-0.3310253248288232,"38":-0.1490023474298593,"39":0.017537666400860123,"40":0.03597062152825601,"41":0.14616599983961814,"42":0.08502326535357266,"43":0.0211420210993499,"44":0.0676357491393878,"45":-0.07467700965234557,"46":-0.004302646111871279,"47":-0.09963599167658983,"48":-0.0861929144644987,"49":0.2311548162137952,"50":0.16827411167043063,"51":0.1680205794651243,"52":-0.0524629702758838,"53":0.17743383226373302,"54":-0.17741216780041938,"55":0.03721408247185773,"56":-0.051247754578313334,"57":-0.14924873621435852,"58":-0.10444616540671671,"59":-0.021016900195372452,"60":-0.11323430076458321,"61":0.2641373995261916,"62":-0.1005153857050789,"63":-0.09490851445266899}},{"sx":1,"sy":1,"depth":64,"w":{"0":-0.12536449087966564,"1":0.19356687935978903,"2":-0.18486804296270554,"3":-0.0914837443150014,"4":0.12211622696366937,"5":0.09983258098107699,"6":0.06937013325056827,"7":-0.16183622972122738,"8":-0.10838523056702558,"9":-0.028498322784083166,"10":-0.018293462779487218,"11":-0.1168864077922155,"12":0.252183010526144,"13":-0.1596218696830423,"14":0.04325863744999215,"15":0.11809041393754315,"16":0.0997497638000086,"17":0.03754423124950076,"18":-0.04871891151703192,"19":0.06580292981720583,"20":0.3077998237928561,"21":-0.040690895781885686,"22":-0.03685832994183551,"23":-0.11607718701669233,"24":0.057710212654559286,"25":-0.07123085057319882,"26":0.04631842422951199,"27":-0.09232395374541985,"28":-0.005504668694353456,"29":-0.061893186938112035,"30":0.23883188015155643,"31":-0.03876846535228696,"32":-0.12953629010721462,"33":-0.06198624607938085,"34":0.07540485999289781,"35":0.07230486806004892,"36":-0.10934705761023246,"37":0.16132948377030445,"38":-0.07483498021415658,"39":-0.027850590278129035,"40":0.25287833836613116,"41":0.08246819199846081,"42":-0.044672183217480295,"43":0.09230309426937457,"44":0.1253564771477725,"45":0.35541180525813076,"46":-0.010106707685844547,"47":-0.08778232621146809,"48":0.0935248368843912,"49":-0.07431625300178725,"50":-0.022542309783718444,"51":0.09976094657740671,"52":0.03327095495074254,"53":-0.07874733375698306,"54":0.01218787511548033,"55":-0.08870134539322953,"56":-0.0985995199628832,"57":0.09874272878035116,"58":0.11020863481998348,"59":0.19022448245337495,"60":-0.043413642758409886,"61":0.004741803763740138,"62":0.05568396367704942,"63":0.08072957190142839}},{"sx":1,"sy":1,"depth":64,"w":{"0":-0.007580388543541055,"1":0.1657597674673615,"2":-0.22213733526037593,"3":-0.06765739285651105,"4":0.010159324827788927,"5":0.16436200145252472,"6":-0.12127958850696026,"7":-0.01907501285625337,"8":-0.0022596421244785534,"9":-0.010360835407915596,"10":-0.021062466103662567,"11":-0.05824379977773906,"12":-0.04189548184212344,"13":-0.0034170398315792067,"14":-0.004213323484944334,"15":-0.19409852470072464,"16":0.015659782211181274,"17":0.011518932663115308,"18":-0.25465054566645473,"19":-0.11556624913356235,"20":0.017814248065283398,"21":0.1127730407947613,"22":0.24025282375944715,"23":0.030377710142364723,"24":-0.059100466456889704,"25":-0.16964951851238508,"26":-0.307558978313126,"27":0.13309026623784068,"28":0.08716714288385269,"29":-0.16620008088763383,"30":0.1398710514194348,"31":-0.18588744314999062,"32":-0.25886900509878186,"33":0.048168675402729184,"34":-0.12937696178636834,"35":-0.005152173817896875,"36":-0.09718842955802734,"37":-0.16915968513135424,"38":0.1477306533476138,"39":-0.05195463335608004,"40":-0.08405333900013615,"41":-0.1485256884294426,"42":-0.22047033299231222,"43":0.0337297103128822,"44":0.32596094415085636,"45":-0.0464116342786562,"46":-0.03864533023953923,"47":-0.03954116400544181,"48":-0.04395180947719369,"49":-0.22340509747316545,"50":-0.056393564742166884,"51":-0.029732696797899135,"52":0.016537521907572593,"53":-0.02836498104125581,"54":-0.060264010701623766,"55":0.006264919972157418,"56":0.11370303491585446,"57":0.032165447041454395,"58":-0.03917856763343734,"59":0.3825166755480483,"60":-0.13748764257618945,"61":-0.23608241166769323,"62":-0.1474459700277228,"63":0.19091929414988512}},{"sx":1,"sy":1,"depth":64,"w":{"0":0.07923592671882783,"1":-0.013204373429972483,"2":0.1793846335012131,"3":0.11771388934523384,"4":0.14519040085556179,"5":-0.04102233256031296,"6":-0.041612470956142206,"7":-0.2610086741334233,"8":-0.14599734536602954,"9":0.10907012925681213,"10":-0.01969317462950599,"11":0.18139956944592564,"12":-0.01692858120375308,"13":-0.054759047027339657,"14":0.1398344489520403,"15":-0.06472879461501252,"16":-0.05500089140902664,"17":-0.010370148668467022,"18":0.011058491189184236,"19":-0.06144739967873336,"20":0.16957132998254681,"21":-0.1495334239385603,"22":-0.01795789558235417,"23":-0.17644519590312255,"24":0.06710565141005888,"25":0.00034166681407868664,"26":0.16023721768301674,"27":0.1605295621832638,"28":0.2209646894253688,"29":-0.04457115120946806,"30":-0.15245216912080678,"31":0.08602278794566555,"32":0.1822867064747952,"33":0.042384689965113805,"34":0.28962251179679593,"35":0.16874875406802667,"36":-0.12304078846725833,"37":-0.038986609999018304,"38":0.08557106237489709,"39":0.08853202234294578,"40":-0.08615394200559541,"41":0.0849249568251181,"42":0.00669843276314493,"43":-0.05199896316313258,"44":-0.13028321989389055,"45":0.1480367764394767,"46":-0.0904341888290471,"47":-0.05109190402741902,"48":0.04473439112120859,"49":0.08120773985517472,"50":-0.20276906356046345,"51":-0.11340651764665391,"52":-0.137890370682996,"53":-0.12070710111110826,"54":-0.04293138276322936,"55":0.22147133950705464,"56":-0.02242861378865812,"57":0.05418451785643658,"58":-0.03895898259191176,"59":-0.18173862522935721,"60":0.014999508822204532,"61":0.019955439212902618,"62":-0.08907336918054735,"63":0.29117333760978187}},{"sx":1,"sy":1,"depth":64,"w":{"0":-0.20906620542391122,"1":-0.19507595672228006,"2":-0.064588482067619,"3":-0.060047988270272315,"4":0.04185500691997404,"5":-0.005995408978257854,"6":-0.1055635038277272,"7":-0.1398821341406783,"8":-0.06460844073198042,"9":0.20704184170560921,"10":0.09900628941693379,"11":0.04851622402921797,"12":-0.06992187733977338,"13":0.09285105594499908,"14":0.23107996920821094,"15":0.15106612831571736,"16":-0.004077980410201938,"17":0.1450623913280909,"18":-0.012750062753988468,"19":0.0985506730997505,"20":-0.027493508100752254,"21":-0.01691860042656273,"22":0.09902759090015877,"23":-0.22658642496973327,"24":-0.021393981326082324,"25":0.0740213171579183,"26":-0.00648244043201685,"27":-0.1084992939576024,"28":-0.13641699170646254,"29":0.24590803060084676,"30":-0.08527874440446236,"31":-0.18406208425751663,"32":-0.19477115680018633,"33":0.06764201549480482,"34":-0.045931496795056696,"35":-0.03169890653181967,"36":-0.03999327027915515,"37":-0.19571990460554792,"38":0.05202407550807037,"39":0.001681567638101321,"40":0.018836034764831117,"41":0.09277512562655298,"42":0.07355778423683994,"43":-0.21846698114999627,"44":-0.09218403291089526,"45":-0.04869203271868562,"46":-0.20255310844827507,"47":0.29029865472376126,"48":-0.24709004345712038,"49":-0.01115765867588,"50":-0.24687792384119664,"51":0.07256967004586684,"52":-0.24664440387023223,"53":0.0414668321333053,"54":0.2994672494655284,"55":0.010883870149803977,"56":-0.01943163729617447,"57":0.06088619557273176,"58":-0.33958270351245773,"59":0.11278715889697466,"60":-0.1258098938468477,"61":-0.09565094244851421,"62":-0.01668850353688257,"63":-0.056689261818166636}},{"sx":1,"sy":1,"depth":64,"w":{"0":0.2794365744303588,"1":-0.0017369743842656714,"2":0.0382591188000875,"3":0.22027204490977945,"4":0.2593471687080411,"5":-0.1166583622212418,"6":0.11730859383473012,"7":0.16659819295940673,"8":-0.009924227477910856,"9":0.06829090943115584,"10":-0.17269363794929035,"11":-0.06800963576154541,"12":0.05291257805306023,"13":0.044995519495319145,"14":0.11350119311116491,"15":-0.00037544944465980987,"16":-0.32125679550033986,"17":0.053699176980879774,"18":-0.021257354451003952,"19":-0.07557368155532763,"20":0.022041430971998347,"21":-0.1387268521256083,"22":0.03970113910575947,"23":-0.00008622870384638619,"24":0.027614085699152167,"25":0.09068703215854536,"26":-0.24257292023239857,"27":-0.18210759067908583,"28":-0.04897178212374049,"29":0.0018168077575553992,"30":-0.13211813982833928,"31":0.22660274545315184,"32":0.14541353206238683,"33":0.057456970444719355,"34":0.029025159501030524,"35":0.061175696462879944,"36":-0.0477163760464353,"37":-0.12855414114745403,"38":-0.07570631779529971,"39":0.08538410059207234,"40":-0.04167762734182908,"41":-0.19964911796830356,"42":-0.017533025585769243,"43":-0.05345065088086197,"44":0.10519830596504148,"45":0.22363468964045843,"46":0.07060743771819737,"47":0.03650796680858014,"48":0.041395603948095425,"49":-0.12373935584108646,"50":0.0022603297069274824,"51":0.37536049397209376,"52":-0.08358088127009865,"53":0.043264865533021245,"54":0.1024940346188585,"55":0.07041193149296467,"56":0.01647815569856824,"57":0.045671956834864365,"58":0.040610622127854296,"59":0.0036711126876366705,"60":0.036383557475285384,"61":0.05463769678377816,"62":0.09304496008379355,"63":0.04395800639997403}},{"sx":1,"sy":1,"depth":64,"w":{"0":0.31470974343151975,"1":-0.019648167607984615,"2":-0.05422090958662601,"3":-0.19857042204648281,"4":0.06466650508833592,"5":0.2827232230554353,"6":-0.1406545746582642,"7":-0.1674967459967042,"8":-0.05650727596972424,"9":0.05356484244299847,"10":0.05234046518976654,"11":-0.16250198599104068,"12":0.14553786722401665,"13":0.029387685782881232,"14":0.019503603759703725,"15":-0.09418129090417283,"16":0.09484526041025522,"17":-0.06756627525217931,"18":0.06486987164936915,"19":0.01250439661520844,"20":-0.13623149701123713,"21":-0.1556409506067153,"22":-0.13219846816196695,"23":-0.14317019189090927,"24":-0.09812802404709188,"25":-0.3259451952016542,"26":0.09940291072179945,"27":-0.038064328831233694,"28":-0.062494722126250776,"29":0.13803496663513148,"30":-0.008819365164730012,"31":-0.18545260895438356,"32":0.09336683332468824,"33":0.13573621559700702,"34":0.15633053787430987,"35":-0.0010743955206915907,"36":0.07414558069121537,"37":0.07264196771983994,"38":0.03948915770041338,"39":-0.0911682167447073,"40":0.10014164840800775,"41":-0.09407597295102024,"42":-0.0222085668482275,"43":-0.1923996422286338,"44":0.10192869495644333,"45":0.1059821548008618,"46":0.14196756068496239,"47":0.13093793327459247,"48":-0.19393249023168443,"49":0.1578796475614054,"50":0.08862508589520147,"51":-0.12287798135991826,"52":-0.024424963357062998,"53":-0.16288309489280928,"54":0.02974559689443632,"55":-0.02486516277280054,"56":0.07376617440076116,"57":0.11452553446267205,"58":-0.12167813726987267,"59":-0.020734590213938055,"60":-0.18065124492848425,"61":-0.10378261809584556,"62":0.24399557660908125,"63":-0.0156201938921201}},{"sx":1,"sy":1,"depth":64,"w":{"0":-0.1422663008546254,"1":-0.03697382195164716,"2":-0.23129409546354054,"3":0.13361105779067473,"4":-0.01732157424598918,"5":0.13934224864243153,"6":-0.11905599944450725,"7":0.13134511928706397,"8":-0.11635735369901454,"9":-0.09592326756236375,"10":-0.010469767211893324,"11":-0.3404936395524104,"12":0.029307803369763297,"13":-0.1985096522294131,"14":-0.015534862902150125,"15":0.0005015327434553926,"16":-0.03929735288072016,"17":-0.19578482320094584,"18":0.05210702205568196,"19":0.1454963371664155,"20":0.2966637741462332,"21":-0.05732809758971902,"22":0.09900343407880291,"23":-0.03488226722286269,"24":-0.07794542098579507,"25":0.029208555310974556,"26":0.24452505782439202,"27":0.19914663832951013,"28":-0.14162532982510573,"29":0.006378118952735997,"30":0.08771814069645072,"31":0.1059917765958147,"32":0.01598688701431005,"33":-0.03766571274220363,"34":0.12579760317433844,"35":-0.003070807036035595,"36":0.24678465335549218,"37":-0.0710796336972614,"38":0.016709461591859147,"39":-0.14178200772931,"40":0.010348353935837553,"41":-0.0014994969945433293,"42":0.1316163729126674,"43":0.22571413863953976,"44":-0.18393002560507968,"45":0.16007384331364244,"46":0.014824999864298432,"47":-0.15505456623255254,"48":0.09257519718769631,"49":0.12276685940540993,"50":-0.019515840524685846,"51":-0.0014166487557993458,"52":-0.05703179322261394,"53":-0.15197690071928105,"54":-0.027091119250728733,"55":0.19953045208303258,"56":-0.08987043417628911,"57":0.20132014143260504,"58":-0.29020327162431436,"59":0.00005648431961322682,"60":-0.05894576886150053,"61":-0.10628043613368907,"62":0.03114875029654713,"63":-0.12388580963072535}},{"sx":1,"sy":1,"depth":64,"w":{"0":0.30312274713462367,"1":-0.13605007431524813,"2":0.17584417543598727,"3":0.13101435415517507,"4":0.03172240342812406,"5":-0.04490534290579774,"6":0.15371844471494847,"7":0.110357718979474,"8":-0.05247272587500715,"9":0.117171062794005,"10":-0.39751994080913533,"11":-0.11252425525406125,"12":-0.052683854393780205,"13":0.3331839116214041,"14":-0.059263804684750634,"15":0.11408135806916482,"16":-0.012357973478798932,"17":-0.03001462447584364,"18":0.02916517671231418,"19":-0.02413017079053748,"20":0.047266093919536116,"21":0.05984475373329118,"22":-0.06612460597494432,"23":-0.013147187508566747,"24":0.006094924356151595,"25":0.1528367707229468,"26":0.20808176947558632,"27":0.012735410733671836,"28":-0.08617515765980864,"29":-0.2532882005208071,"30":0.01615372757327945,"31":0.035528207371746605,"32":-0.16816990773254573,"33":0.025001664748399544,"34":-0.2101384347645921,"35":-0.18063537835392,"36":0.014024614106697636,"37":-0.07976181905351129,"38":-0.04482430702901644,"39":-0.1073992872034401,"40":0.08733261212202757,"41":0.020519571081096897,"42":-0.13897049492449337,"43":0.19662420781787412,"44":-0.18193734314535234,"45":-0.10855896817597022,"46":0.10720312699499379,"47":-0.06444198473525702,"48":0.025876515876802265,"49":0.25405570067747496,"50":0.19007462259725047,"51":0.11247631530890545,"52":-0.005298140938974827,"53":0.03269478484537634,"54":-0.07305430975693707,"55":-0.0895931347450504,"56":0.04367452792702313,"57":0.030530891347060253,"58":0.04806792320475758,"59":-0.11216930915485519,"60":-0.22628900416670675,"61":0.13527395236751008,"62":-0.25225197378784436,"63":-0.09243194343997585}},{"sx":1,"sy":1,"depth":64,"w":{"0":-0.07116509567265099,"1":-0.0931059182651621,"2":0.12315595112290831,"3":0.023294570444444225,"4":0.03107588753517786,"5":-0.03340249770902988,"6":0.004741172666294963,"7":-0.245800593914334,"8":-0.19927604272736255,"9":0.05841285698118574,"10":-0.011173564399796884,"11":0.05932491182837335,"12":-0.028128709961596502,"13":-0.1538064013841012,"14":0.06929655078451659,"15":-0.27212100581961335,"16":0.13274020314242002,"17":-0.03875649225853587,"18":0.14066822731713535,"19":-0.03767549454444411,"20":0.11765021701410992,"21":-0.10536535925008365,"22":-0.06517297824050047,"23":0.10117511376054956,"24":0.023649084127501926,"25":0.028203002014755296,"26":-0.07911064455120974,"27":-0.05059507965891819,"28":-0.23376836326385078,"29":-0.048513215643295,"30":-0.018203718050898852,"31":0.027789853637229973,"32":-0.0019137445669424802,"33":-0.055830401655292475,"34":-0.16325352380202443,"35":-0.06396392335072412,"36":0.15687834584035595,"37":-0.016440647291461698,"38":0.018311128896686884,"39":0.002817932343100857,"40":-0.02035164083172954,"41":0.054844743883073234,"42":-0.07900935607852898,"43":-0.20274826212989513,"44":0.024104166079381338,"45":0.141245009407357,"46":-0.04642269508031706,"47":0.042565631239240384,"48":-0.08254461060915609,"49":0.03949513760330156,"50":-0.11305063826346724,"51":0.022746563526710326,"52":0.2634925145484176,"53":0.1913472953497599,"54":-0.18437506311990887,"55":-0.03751633063827548,"56":0.018093866740261946,"57":-0.025893835635362603,"58":-0.06905601605746435,"59":0.15444792859657155,"60":-0.003995676425519272,"61":-0.015342604318041898,"62":0.11205098405151519,"63":-0.0037437615963411197}},{"sx":1,"sy":1,"depth":64,"w":{"0":-0.030324378549403667,"1":0.06399053937609453,"2":-0.12747389612129112,"3":-0.19036745274767264,"4":0.05655593186241649,"5":-0.12464922270005753,"6":-0.015282405858820392,"7":0.12333377402975584,"8":-0.0621655402037593,"9":0.05707557235445269,"10":-0.22350468135781126,"11":0.03246719073809638,"12":0.021290617641679197,"13":-0.18872078089938263,"14":0.16355268254842184,"15":-0.14555674381388609,"16":0.011959715175006005,"17":-0.1453337717664198,"18":-0.10954666279418376,"19":-0.024358763631107234,"20":0.0714265620369617,"21":0.1506170736686576,"22":0.10917240486249698,"23":-0.013429167663337816,"24":0.08516395806686422,"25":0.10826576510278281,"26":-0.06380048730334724,"27":-0.06789479619122918,"28":0.044064636005278164,"29":-0.09281819642118429,"30":0.017372799396610145,"31":0.00018182427690550184,"32":0.18460615685084755,"33":0.15874647635536004,"34":-0.019378888692313658,"35":-0.11749763896764097,"36":-0.13346771648859054,"37":0.11655031056336632,"38":-0.05140180820260893,"39":-0.11520961960982305,"40":-0.026618095702764022,"41":0.04888927574834908,"42":0.091969628830564,"43":-0.08038262438197291,"44":0.04100194255618813,"45":0.12014941567636152,"46":0.045849632272130784,"47":0.06378526811379573,"48":0.12830892337058955,"49":0.041769001800018225,"50":0.22013854983309708,"51":0.063472316198504,"52":0.047862800504207575,"53":0.06908279560107403,"54":0.07171375691812328,"55":-0.12692127862596983,"56":-0.16674139237230065,"57":0.1913520046643117,"58":-0.062403393324602624,"59":0.03148273465045924,"60":0.23911728158011808,"61":0.25458889556438813,"62":-0.02525525354815357,"63":0.1880210310218337}},{"sx":1,"sy":1,"depth":64,"w":{"0":-0.011000650886465025,"1":-0.1859212243574103,"2":0.06905314614035735,"3":-0.16755612738151404,"4":-0.06427992661969004,"5":-0.056606709882920374,"6":0.048789919124419746,"7":-0.1351506086934182,"8":-0.10251323603646564,"9":-0.03997121192062844,"10":-0.004306199200738305,"11":-0.08519535763414023,"12":0.04127319267559949,"13":-0.15412751665070548,"14":0.10229998937110196,"15":-0.11539430732386033,"16":0.1922041268769804,"17":0.05702232425768455,"18":0.04096555887993511,"19":-0.014587744271832738,"20":0.008392111716773416,"21":0.0028555578567439795,"22":0.1462616362966853,"23":0.0032935044105115905,"24":0.06450037825750454,"25":-0.058512295921738136,"26":0.020477199402545606,"27":-0.09481456847279653,"28":0.04998762274472253,"29":0.09316075972215583,"30":0.12411800467237216,"31":-0.06199171676292143,"32":0.15376659048614677,"33":0.021298361348219427,"34":-0.061106657241536765,"35":-0.05733117812716899,"36":-0.18172684286201277,"37":-0.05714726789036771,"38":-0.15854700908097563,"39":0.007358138295469055,"40":0.1028787265386597,"41":0.08450507585590988,"42":-0.11706219960694765,"43":0.2225049482442855,"44":0.06463697152855993,"45":-0.13455391177263895,"46":0.16306251868007665,"47":-0.00900628291032941,"48":0.08281630167442297,"49":-0.15969977386135378,"50":0.059324397264520885,"51":-0.1558796822016544,"52":-0.11810949716086788,"53":0.08470992720007692,"54":0.12220869630716068,"55":-0.022803666325428462,"56":0.008421640856017421,"57":0.10898982643167549,"58":0.2155847548711557,"59":0.07590680914925534,"60":-0.008528318556156914,"61":0.12631614877832162,"62":-0.1886272272020932,"63":0.1793570456734096}},{"sx":1,"sy":1,"depth":64,"w":{"0":0.11589861331025758,"1":0.14793966409645135,"2":-0.1513234684852489,"3":-0.017949006869088593,"4":-0.16405658583705773,"5":-0.050659371729451265,"6":0.06977930800836495,"7":-0.07370111746075021,"8":0.0019144393395527108,"9":0.11908293842078829,"10":-0.09023800197908542,"11":-0.1449020842628401,"12":0.02946632967359836,"13":0.10233414667857439,"14":-0.05437862540628965,"15":-0.11715206807764539,"16":-0.20076677790424685,"17":0.039732240029364436,"18":0.28181880716483293,"19":0.09617715085421066,"20":0.15463263624440385,"21":-0.13841433996475425,"22":-0.2830977958718094,"23":-0.03037522589137236,"24":0.1615524665323131,"25":0.1322790847839527,"26":-0.00858794754103279,"27":-0.02719432261175917,"28":-0.26432729624851026,"29":-0.2298724269285955,"30":-0.13418362735583406,"31":-0.2594813993277825,"32":0.13460883301021495,"33":0.08382852845978639,"34":-0.010947837903212227,"35":-0.12721006775212407,"36":0.2714359502387582,"37":-0.0816996541704147,"38":-0.31956092842060113,"39":-0.19052947010003946,"40":-0.1568514719328029,"41":-0.039981579578952445,"42":0.19060364889019207,"43":0.0789069029408926,"44":0.024553261616622715,"45":0.03367139181868619,"46":-0.055896281446088866,"47":-0.07558873476331812,"48":0.05262471255927314,"49":0.02505083179072918,"50":-0.20127793433751573,"51":0.2501076681327071,"52":0.1339376332586506,"53":0.007678468102036365,"54":0.07961189499844493,"55":-0.13118731711255258,"56":-0.05752642934546493,"57":-0.04433093135134771,"58":-0.22208514426396728,"59":0.11727236392474427,"60":-0.036696286362883836,"61":0.09456138246148774,"62":-0.005200054670505602,"63":0.10061292293118405}},{"sx":1,"sy":1,"depth":64,"w":{"0":-0.02186039187875338,"1":-0.07501131559595711,"2":0.02873490096672857,"3":-0.17856432731015787,"4":-0.12544393368807283,"5":0.02448627718011214,"6":0.11768979711344246,"7":0.0942837858217911,"8":-0.14638730592715116,"9":-0.008253825731995814,"10":-0.05523115548592151,"11":0.010219384654793679,"12":0.0453672021111862,"13":0.0664947396475186,"14":-0.030226947224779446,"15":0.1374711992534904,"16":-0.14171440803550925,"17":-0.26634481292534906,"18":-0.016353005827629507,"19":-0.006800812129889492,"20":-0.200590325673302,"21":0.029433810135424676,"22":-0.07024501762315502,"23":-0.04625374165765604,"24":0.08151047388027749,"25":-0.011986149324334686,"26":0.06123219125056105,"27":-0.14515356679347194,"28":0.16705667265894528,"29":0.3463347627827978,"30":-0.12335475501836302,"31":-0.2290522570464344,"32":-0.1404953674108292,"33":-0.00804907363652456,"34":-0.05362099289656786,"35":-0.03361869154010246,"36":0.101711300969709,"37":-0.006602167819872527,"38":-0.33022459022344125,"39":0.04405264435117233,"40":-0.05005761577149241,"41":-0.24885978542771803,"42":0.03803191402182816,"43":0.08259013433253687,"44":0.03057536200978291,"45":0.08485733537504023,"46":-0.13537555751522282,"47":-0.081661493778268,"48":-0.06598858342809166,"49":-0.19078235675485256,"50":0.24468394461695628,"51":-0.16903955466172735,"52":0.1064867191383766,"53":-0.08283165143365007,"54":0.15150005880267012,"55":-0.0970650983797152,"56":-0.3234481463017498,"57":0.021644093750883324,"58":0.07936963868144473,"59":-0.0009445094646819314,"60":0.16142623021342845,"61":0.037457528554566924,"62":0.14709221360679767,"63":0.003537412487185266}},{"sx":1,"sy":1,"depth":64,"w":{"0":0.11267685428357198,"1":0.03334670561452737,"2":0.061069511952092786,"3":0.04169722658025728,"4":-0.014815096133455226,"5":-0.058279768119358207,"6":0.09333432739670498,"7":-0.2939632341189863,"8":-0.011775356062517747,"9":-0.023306404963734716,"10":-0.02783336375738137,"11":-0.17856386703913488,"12":-0.023766294551001464,"13":0.12706662796180987,"14":0.1336696270451761,"15":0.06071877896139202,"16":-0.02435998630554771,"17":-0.004221579019897686,"18":-0.20109179796200213,"19":-0.11990390141276194,"20":0.053495237573969394,"21":-0.014385128706468613,"22":0.12318215453380364,"23":0.08455164948360468,"24":0.2634853044379612,"25":0.007091556340502355,"26":-0.06898247860830958,"27":0.11295723869190186,"28":-0.04442296202934277,"29":0.23297907785674787,"30":0.16028678154268136,"31":-0.17733827485101708,"32":0.09262143965017242,"33":0.05156668496262923,"34":0.18544800348713403,"35":0.03217524840517834,"36":-0.299571083861003,"37":0.13322717086833594,"38":-0.1666269909219701,"39":-0.18603774131013517,"40":0.19631668620222695,"41":-0.13061548165383777,"42":0.1877478648864481,"43":0.06004420579037784,"44":-0.0774320450915759,"45":0.10423304728665067,"46":-0.11760192015840223,"47":0.1816909300661541,"48":-0.09182902682067387,"49":0.08476959565762754,"50":-0.05289098984879835,"51":-0.012752086478479153,"52":-0.011122680172302559,"53":-0.12616634939976418,"54":-0.07066851028757748,"55":0.07373280460153235,"56":-0.14354531965711656,"57":0.05655853047250133,"58":-0.058348485990847326,"59":0.10291790650467207,"60":0.008887561825313873,"61":0.07210997474407171,"62":-0.17154070036063235,"63":0.0064750649985787076}},{"sx":1,"sy":1,"depth":64,"w":{"0":-0.21100555603916385,"1":-0.06618769773638414,"2":-0.13681506019110576,"3":0.28405196570511954,"4":0.2876555825553588,"5":0.029029834852671743,"6":-0.019277736640549763,"7":0.07605266428866889,"8":-0.05417658789766491,"9":0.10316602075789308,"10":-0.09635324429612727,"11":-0.06683866923684748,"12":-0.21156337198008104,"13":-0.1172914661818774,"14":-0.06811919388957677,"15":0.0861227944526946,"16":-0.24203456855186925,"17":0.2196453271332656,"18":-0.047757232905067365,"19":0.058997027245261006,"20":-0.1154131264373512,"21":0.07391161766373297,"22":0.015216415959038788,"23":0.026275242595308234,"24":0.04267323201554276,"25":-0.1295141629038285,"26":-0.26182929984683506,"27":-0.28766659454820054,"28":0.1838489658702778,"29":-0.1758974784519305,"30":0.09655666683205574,"31":0.06054905737922151,"32":0.05858984419089863,"33":-0.06471662503423734,"34":-0.06750151656948233,"35":-0.08078280638637125,"36":-0.010001873774738563,"37":-0.061754637212603145,"38":-0.22099352320188054,"39":0.011562182597255987,"40":0.15667821417466302,"41":0.07344405883179579,"42":-0.04698216162248282,"43":0.07894352023665273,"44":-0.20354939875523517,"45":0.07010316049296607,"46":-0.0918042995279159,"47":0.04145932846638646,"48":0.05850316523341542,"49":0.106792559532347,"50":0.020739798000512,"51":-0.12787442313139183,"52":-0.03410342423089873,"53":0.1614466695770177,"54":-0.1710298197160098,"55":0.05077885554384171,"56":-0.06747120204442378,"57":-0.10652213351362723,"58":-0.14015605167359685,"59":-0.1810115345186418,"60":-0.1447698515650416,"61":-0.014347336171858646,"62":-0.32222519134452526,"63":0.050411098328340564}},{"sx":1,"sy":1,"depth":64,"w":{"0":0.0875267713764469,"1":0.04028126436336096,"2":0.01363125749509526,"3":-0.2515508088653777,"4":0.17629731718371364,"5":-0.1360584564480549,"6":0.023069833766503955,"7":0.13540514691166222,"8":0.08507259116475087,"9":-0.09555442023262392,"10":-0.2839196997532602,"11":0.02249068381909287,"12":0.09951293796818457,"13":-0.13814493749141515,"14":0.07125020632720702,"15":0.1559767462516489,"16":-0.1483347160511303,"17":0.06640788488431276,"18":-0.15145257728880368,"19":-0.27314384165783434,"20":0.07148616322009342,"21":0.09847326482030143,"22":0.06673286539287944,"23":0.17102596422180721,"24":-0.10083557469361834,"25":0.16670526217298437,"26":-0.14043602875487549,"27":0.0858637429414102,"28":0.15317519377298422,"29":-0.0077980410387000505,"30":-0.037981982668303674,"31":0.15207092887926787,"32":0.05520824271498805,"33":-0.06922826810342154,"34":0.10877026590315172,"35":-0.027371420404268473,"36":0.06889240262250619,"37":-0.10163782111706747,"38":0.21188822408744215,"39":-0.11280253904627384,"40":-0.16934407706256027,"41":0.04805664961712785,"42":0.0130855188586759,"43":-0.016221497467302948,"44":-0.018905466840038878,"45":-0.01680106795379766,"46":0.14099019152409353,"47":0.11732054722658554,"48":-0.16405704256026168,"49":-0.15538408813443746,"50":-0.23905042867442336,"51":-0.10751141893264346,"52":-0.024905662373546453,"53":-0.044695254626383615,"54":0.09240502569578851,"55":-0.32515152212794657,"56":-0.01005299619945677,"57":-0.1911937278235702,"58":-0.06951358237965279,"59":0.12082435006884573,"60":0.006557612908781009,"61":0.1152799642591628,"62":0.21616783268729675,"63":-0.03377952012546517}},{"sx":1,"sy":1,"depth":64,"w":{"0":-0.012651879190974559,"1":-0.042581707231080804,"2":0.02435215653361361,"3":0.10992197619200673,"4":-0.009120882878459368,"5":-0.12053452581782985,"6":-0.08173111858800629,"7":0.254370789370955,"8":0.05507576770492062,"9":-0.008162944023938598,"10":0.07437365024186698,"11":-0.02520785824856757,"12":0.19430362792126182,"13":-0.06045111806430183,"14":-0.08614208453869518,"15":-0.13100618455670604,"16":0.09837011782036091,"17":-0.06702284297449422,"18":-0.10030487971063443,"19":-0.1124863136094118,"20":0.1573054448949669,"21":-0.01939702406928956,"22":-0.004754146897870937,"23":0.13148343399471912,"24":-0.11075586296779884,"25":-0.21070432607519662,"26":-0.040310660614202916,"27":0.14657912390438146,"28":-0.034773028172281055,"29":-0.13485075681004938,"30":0.05291767171599012,"31":-0.15942212733988353,"32":-0.021842657784453788,"33":0.03289649412512937,"34":-0.10592167082706086,"35":-0.0022721767132450944,"36":-0.08933164220756969,"37":0.1675590813231683,"38":-0.1640565991901174,"39":0.17462538895340593,"40":0.0444984886078534,"41":-0.04792531813338914,"42":-0.2974904348722116,"43":0.10603661541966786,"44":-0.33529775855201116,"45":0.0107193355828697,"46":-0.18719464711560888,"47":-0.09698228103830173,"48":-0.24234956666712193,"49":-0.0611368438868961,"50":-0.15429646120828297,"51":0.3068606100233351,"52":-0.12082991798987218,"53":-0.018335143946347096,"54":-0.0003868304924155814,"55":-0.05238510276888812,"56":-0.015507980464444794,"57":0.1272318219360742,"58":0.0029818329002615496,"59":0.0490263110947852,"60":0.0175670248746298,"61":-0.006556481719162636,"62":0.083559045085278,"63":-0.22409848269932814}},{"sx":1,"sy":1,"depth":64,"w":{"0":-0.03996667297267907,"1":0.16280853503708492,"2":-0.144172415612775,"3":-0.08141372859304265,"4":0.1002798592586937,"5":0.06732100303194845,"6":0.1044613759577864,"7":0.1237610482834727,"8":-0.030021089262301674,"9":0.11985859161443929,"10":-0.0422983430205439,"11":-0.1810794419827668,"12":-0.03744230598673958,"13":0.06915465040223573,"14":-0.036194975516555455,"15":0.0831747004888429,"16":0.1897669589961324,"17":-0.09324104593518164,"18":0.08198605817893961,"19":-0.10978936427848056,"20":-0.02814014773409336,"21":0.15549594217264687,"22":-0.06785954588566148,"23":-0.06453099951540787,"24":0.05565227877402342,"25":-0.08115043111532699,"26":0.05125093300302109,"27":-0.23126261760267922,"28":-0.16369349773231995,"29":-0.028697126653306104,"30":-0.0994877281487392,"31":-0.036172164341859006,"32":-0.0733267878823832,"33":-0.054555028855208215,"34":-0.00005639888227341249,"35":0.09376076459213331,"36":0.1342924927467118,"37":-0.05373940413857921,"38":0.07916133203207995,"39":-0.11515954135222893,"40":0.028099560861213353,"41":-0.18121672288845697,"42":0.1174751085525926,"43":0.09160396284980327,"44":-0.050774186603230104,"45":0.005630547154260771,"46":0.13979873037138776,"47":0.1193613792931238,"48":0.0450212141110033,"49":-0.029711722155509324,"50":0.14328177195016847,"51":-0.001882559527295472,"52":-0.11290559100963544,"53":0.061602690673287414,"54":-0.188120128086615,"55":0.158284512144704,"56":0.03171853358650859,"57":0.0002584967572330958,"58":0.07637000663216842,"59":0.04314531905079216,"60":-0.07067097399051911,"61":0.07271041711992957,"62":0.16313099332644937,"63":0.043827015399261364}},{"sx":1,"sy":1,"depth":64,"w":{"0":-0.13370311517295483,"1":-0.117118057234981,"2":-0.22093629401916307,"3":0.2128579152242521,"4":0.03379103547525497,"5":0.2977088401762431,"6":-0.015601324447526661,"7":-0.02054086330980927,"8":-0.29636309964209434,"9":0.056310574999516305,"10":0.06380490187053937,"11":0.09417068702179518,"12":-0.017736334439839914,"13":-0.15039444976709862,"14":-0.2903718152870554,"15":0.05695192057706229,"16":-0.1276271996342029,"17":-0.02237417205588995,"18":-0.04713158510362628,"19":0.15552860094468032,"20":-0.022952317986733195,"21":0.018761242290473542,"22":0.011126526050002706,"23":0.10084973494080772,"24":-0.07085714067287979,"25":-0.16626086900173512,"26":0.2172748723372467,"27":0.057449892408079795,"28":0.05306872424327315,"29":-0.24843051756281595,"30":0.17747853146741843,"31":-0.033949226172924514,"32":0.043556705800885616,"33":-0.17265065272471558,"34":-0.029730041922886998,"35":0.15644325064986633,"36":0.13238041285375157,"37":0.21809804780137726,"38":-0.023689571251769185,"39":-0.20987816191078826,"40":0.12249140608363736,"41":-0.05574461554023659,"42":-0.08795487954914684,"43":-0.11023721684253653,"44":-0.09587219458521118,"45":-0.0636324896716474,"46":0.12052911020977433,"47":-0.15850041159580264,"48":0.03825417687380463,"49":-0.028574354801558254,"50":0.1271663704327026,"51":0.041290554499177685,"52":0.048244440356701855,