{"layers":[{"out_depth":36,"out_sx":1,"out_sy":1,"layer_type":"input"},{"out_depth":64,"out_sx":1,"out_sy":1,"layer_type":"fc","num_inputs":36,"l1_decay_mul":0,"l2_decay_mul":1,"filters":[{"sx":1,"sy":1,"depth":36,"w":{"0":-0.2328079312560829,"1":-0.16925141502864577,"2":0.03921217405064482,"3":-0.058184523452302433,"4":0.0061441381944491325,"5":0.2970546372610932,"6":-0.10600756738458644,"7":-0.018566853560548637,"8":0.04747907543441884,"9":-0.03513648055551348,"10":-0.08086403104952015,"11":0.13016228787654274,"12":-0.07135627632699233,"13":-0.016899631599172373,"14":0.07868736039688592,"15":0.15349191500461853,"16":0.46622448179560433,"17":-0.1861793665321698,"18":0.24848390288898192,"19":-0.09907611799462031,"20":-0.1399238464679199,"21":-0.025454209414228643,"22":0.03831957544212494,"23":-0.340213196878246,"24":-0.22479467956346746,"25":0.06788910565932618,"26":-0.08923917749927704,"27":-0.15026425320500164,"28":0.07571207544683625,"29":0.0875141533535275,"30":-0.08053411731129663,"31":-0.05005218376779967,"32":0.13795005857086864,"33":-0.02707392344028421,"34":0.006162752294639749,"35":0.04354283355911858}},{"sx":1,"sy":1,"depth":36,"w":{"0":0.0038843892886806087,"1":-0.04510418744961048,"2":0.18555551561231132,"3":0.11108984571821681,"4":-0.358163403295781,"5":0.0072454091423525555,"6":0.1600898152431165,"7":0.08840666093540053,"8":0.15449637432226906,"9":-0.329648408949501,"10":-0.09033134090985033,"11":0.1525596941587089,"12":-0.26710989950025404,"13":0.026700791735974734,"14":-0.01753838918602052,"15":0.11110883383502618,"16":-0.20483852921561532,"17":-0.3333527951686634,"18":0.17826863433161474,"19":-0.007806913844871302,"20":0.23260192851691666,"21":0.08915242848979159,"22":0.062354841387224955,"23":-0.3426421679903809,"24":0.029460940815947828,"25":0.16786768707690702,"26":-0.3273646849329738,"27":0.14989503913596752,"28":0.1260696726591166,"29":0.05778514765225405,"30":0.06934594486552711,"31":-0.0954283701701957,"32":-0.053785829327460254,"33":0.2703585764372955,"34":0.1928382340673125,"35":0.37421935687980074}},{"sx":1,"sy":1,"depth":36,"w":{"0":-0.031052249404460504,"1":-0.038481703649710576,"2":0.43641528742904623,"3":0.016502239763823933,"4":-0.15018144149900814,"5":0.05573698472860113,"6":0.26314326526291093,"7":0.32878193923107807,"8":0.14652473503692529,"9":0.06995747957268193,"10":0.15861049421736517,"11":0.2622701429896912,"12":0.11079939427784584,"13":0.16002069163434698,"14":-0.15431920347082445,"15":0.3011512058149976,"16":0.23403695188702542,"17":-0.004918297952806717,"18":0.1925222151661272,"19":-0.14551796467948078,"20":-0.24882678601832423,"21":-0.21758266966277995,"22":-0.11728898370850219,"23":-0.08110849310142332,"24":-0.0814928397994794,"25":0.013182989860766825,"26":-0.08384528273127945,"27":-0.013664721800775161,"28":0.21334613951824835,"29":0.09718541567123284,"30":-0.1192023475220355,"31":0.3068057782553737,"32":-0.09738466124245393,"33":-0.059574814333464246,"34":-0.0024458134748546654,"35":-0.11468660482219292}},{"sx":1,"sy":1,"depth":36,"w":{"0":0.3535613359772911,"1":-0.08484712218198158,"2":0.41728053263538234,"3":-0.12462215797816058,"4":-0.039034928480205365,"5":0.21127827428017776,"6":-0.0007334221163950394,"7":-0.19069374806599493,"8":0.13786306483212604,"9":0.03734805412357284,"10":0.22304209288734592,"11":-0.08289316561801602,"12":0.10904813210688663,"13":0.19059559099265816,"14":0.18300634437252258,"15":0.055111065594712655,"16":0.11401044150860366,"17":-0.3003112862430779,"18":-0.00978800829288339,"19":0.15892212837606032,"20":-0.09006751414783946,"21":-0.037997937807251365,"22":-0.07142471730533011,"23":-0.15849305089728022,"24":-0.03607984900641116,"25":-0.00252960541784155,"26":-0.018538516388320832,"27":-0.16277133038132152,"28":0.2248163994844453,"29":-0.04174872034075566,"30":-0.16990496694962837,"31":0.0416811673567481,"32":0.2827565494542531,"33":0.017232256442940793,"34":-0.05638911790976252,"35":-0.11038605198828383}},{"sx":1,"sy":1,"depth":36,"w":{"0":-0.14002000286022967,"1":0.07733978069179222,"2":-0.038175465413972216,"3":0.004827717323194857,"4":0.15479729872581535,"5":0.007035250955877566,"6":-0.03739409493540665,"7":0.01838682178311452,"8":0.09802451194961309,"9":-0.12472125710196179,"10":0.12012562904948393,"11":-0.13368317320069348,"12":-0.15882325907314085,"13":0.30021108529068274,"14":-0.2407447331075951,"15":0.16627285123092783,"16":-0.056888572157702745,"17":-0.1288590394737284,"18":0.3462883100719474,"19":-0.0799663659653769,"20":-0.19209204481358555,"21":-0.0890863851279806,"22":-0.2529956036746392,"23":0.12810872244692534,"24":-0.23871641367441346,"25":-0.09201962036468964,"26":-0.02922827674003769,"27":0.013347235986704344,"28":-0.25251356235024236,"29":-0.13258860299802433,"30":-0.02184275122909965,"31":0.34900863746779737,"32":0.10045821417563768,"33":-0.08052513927836928,"34":0.2174141527129792,"35":0.2655280142538075}},{"sx":1,"sy":1,"depth":36,"w":{"0":0.1211645963314414,"1":0.23476370207364003,"2":0.0169980668324934,"3":0.20355315168178223,"4":-0.11862047647281652,"5":-0.2002197677258045,"6":0.013945334743576282,"7":0.05202282899251457,"8":0.0873647061640398,"9":0.13526195248422052,"10":-0.18037192408293168,"11":0.07593982515610975,"12":0.15585939627681006,"13":-0.058983118053956986,"14":-0.10539016835247708,"15":-0.1400499965220228,"16":-0.5527435238956032,"17":0.13242322604622295,"18":-0.0013748771648889977,"19":-0.18919307876864982,"20":0.04338117564936854,"21":0.0896900826317262,"22":-0.00910213194761496,"23":0.14832145546067813,"24":-0.11535107376578668,"25":0.13427864333353468,"26":-0.2464987289259796,"27":0.05478755547239551,"28":-0.04358834053920593,"29":0.3206483556174301,"30":-0.1503790425452232,"31":0.037429734567604116,"32":0.26098578140185974,"33":0.009274060944625068,"34":0.06542716179779842,"35":0.02368128537860229}},{"sx":1,"sy":1,"depth":36,"w":{"0":0.03815818238480827,"1":-0.04161661501499179,"2":0.11765396411562944,"3":-0.01015729864471649,"4":-0.1796993314197387,"5":-0.03833071463833515,"6":0.3081617053892578,"7":0.10479225938976407,"8":-0.005103914100902157,"9":0.14666896174633243,"10":0.05480771057773364,"11":0.001227961673061369,"12":-0.105383426795894,"13":-0.03419387189513108,"14":-0.09192538837372616,"15":0.2328906977491656,"16":-0.03329849794819646,"17":0.2787061965262961,"18":-0.4220855639255056,"19":0.05307391612233336,"20":0.07171429903403158,"21":-0.13782376970364257,"22":0.0549315023551738,"23":0.22553607571745243,"24":-0.03487331039319185,"25":0.33994242225405497,"26":-0.007752102740426219,"27":-0.09979296237605204,"28":0.13617187606762413,"29":-0.08961564645161126,"30":-0.055650678263031494,"31":-0.11546675561574177,"32":0.09480716420559164,"33":-0.048349146516932895,"34":-0.09712847623971688,"35":0.0395526176988142}},{"sx":1,"sy":1,"depth":36,"w":{"0":-0.1177355757873982,"1":-0.06711429014635023,"2":0.12326984685163032,"3":-0.04702936469518058,"4":0.07019824698551881,"5":0.08438381048934258,"6":-0.10593015732937314,"7":0.1367130686719967,"8":-0.019804341584035153,"9":-0.2008814937694161,"10":0.07871109000815689,"11":-0.044117640153492614,"12":-0.15066868913283626,"13":-0.016422852680035935,"14":0.18239415536301654,"15":-0.18030424647333612,"16":-0.07428636392090018,"17":0.11341376149096206,"18":0.009429952010038052,"19":-0.23019480890254632,"20":-0.5300652098430777,"21":-0.02142205923213144,"22":-0.007481835760100305,"23":-0.13182033792952472,"24":0.06969605084762767,"25":0.06347473524234086,"26":0.1944672552497463,"27":-0.11502606031708727,"28":-0.0781238239972154,"29":0.18806219731109333,"30":0.05853980802402528,"31":-0.061760977991510486,"32":0.24921782749648913,"33":0.46818250393782385,"34":0.1335917965412865,"35":-0.09867496945427112}},{"sx":1,"sy":1,"depth":36,"w":{"0":-0.31732496732600335,"1":-0.15191086960326933,"2":0.21222003142299256,"3":0.009377304531871791,"4":0.19573959103198285,"5":0.032069152195182915,"6":0.16997002532409933,"7":0.09134133065395546,"8":-0.2873292776551587,"9":-0.05875979268973505,"10":0.07949330296972941,"11":-0.03679616128195675,"12":-0.14476538103819772,"13":-0.1281636862017154,"14":-0.21925045025350343,"15":0.18953073788022023,"16":-0.11417128955131628,"17":-0.2709054227939505,"18":0.08180984426581002,"19":-0.04642443537855771,"20":0.12052811245320559,"21":-0.27070165216025777,"22":0.36154766751032197,"23":-0.2225141170514551,"24":-0.07759415695900077,"25":0.14745281812637764,"26":-0.06955660273238208,"27":0.18128316876021414,"28":0.09533482461286343,"29":-0.057422153936546774,"30":-0.14279720671363783,"31":-0.04779521073773833,"32":0.06767507371687319,"33":-0.08300999155908537,"34":0.148068573500009,"35":0.23471005784751514}},{"sx":1,"sy":1,"depth":36,"w":{"0":0.18940640491168637,"1":-0.0806902883881079,"2":-0.02575709849692073,"3":-0.01876201299377785,"4":0.05835861076385779,"5":0.1586633329782996,"6":0.670076682226851,"7":0.28158633167294855,"8":0.14923254525003832,"9":-0.2419126259752681,"10":0.036479764112049014,"11":-0.028183328217698304,"12":-0.15124644978182186,"13":0.19941294358333245,"14":-0.0219743182710845,"15":-0.22467556986363293,"16":0.022518678091906778,"17":-0.049309035503266326,"18":-0.15876759840430898,"19":-0.06869952603620512,"20":0.021301427846411074,"21":-0.09690849695268074,"22":0.22001635613275733,"23":-0.03176721511487888,"24":0.02727903096091171,"25":-0.011741284610982006,"26":-0.04469303773415168,"27":-0.052995837236557056,"28":-0.0895557334312212,"29":-0.034005669232379576,"30":0.21246486189336464,"31":0.19110603577455243,"32":-0.4028219017688878,"33":-0.2327425110944554,"34":-0.2461174936531917,"35":0.14611732864558305}},{"sx":1,"sy":1,"depth":36,"w":{"0":-0.09266323586274287,"1":0.19990556884804733,"2":0.2280150040636606,"3":0.12072864670020142,"4":-0.22557298772181472,"5":-0.16417394801320992,"6":-0.19724198606604137,"7":-0.14904442754003025,"8":-0.03247957772560394,"9":-0.051260142474429116,"10":0.12677581634522356,"11":-0.04268513477838604,"12":0.1007946072872783,"13":-0.07539641567342753,"14":0.040845321976731484,"15":-0.11017784734274383,"16":-0.11527234584102272,"17":0.10204157934471136,"18":0.026799206636361723,"19":0.19203299047520078,"20":-0.16508897450101098,"21":0.13530106030271893,"22":-0.10195208609221033,"23":-0.23386866797991213,"24":0.2573825564503908,"25":0.216600335923091,"26":-0.03916285796342221,"27":-0.04779495789962037,"28":0.16534837780420522,"29":-0.010391249473146515,"30":-0.3199255502227062,"31":0.02302600472072124,"32":0.06816813140237574,"33":0.3168519396088595,"34":-0.1490245327747977,"35":-0.04672086627649588}},{"sx":1,"sy":1,"depth":36,"w":{"0":-0.2612818390208824,"1":-0.25489058607404574,"2":0.24513334116633445,"3":0.3728985301541066,"4":-0.05754302627767432,"5":0.10270029863839938,"6":-0.15757112353189093,"7":-0.12381242822675553,"8":-0.1672987590729567,"9":0.0024549291660364075,"10":0.03309666189710983,"11":0.0984953742486875,"12":-0.19482933472875058,"13":-0.24358656932641745,"14":-0.09088660057765353,"15":-0.12040340462488612,"16":-0.17062259953385497,"17":0.07898533194031047,"18":0.261264642872858,"19":-0.08358835105434873,"20":0.3365986700024407,"21":0.21568129249514642,"22":0.22761511701458131,"23":0.1496432839292272,"24":-0.23087175077376682,"25":-0.09601940438479391,"26":-0.14092047336895994,"27":0.08401322437198022,"28":-0.08954717402474621,"29":-0.08601003110693423,"30":0.22080977732244622,"31":0.19285958189881558,"32":-0.061182298245894925,"33":0.003408706733858864,"34":-0.0666290588081596,"35":-0.11074291080893862}},{"sx":1,"sy":1,"depth":36,"w":{"0":-0.025100415400745278,"1":0.05706427245680917,"2":-0.1623801201654035,"3":-0.05119401104180625,"4":0.001926118605245853,"5":0.20041784195054949,"6":-0.13154923294488963,"7":-0.10335116974652461,"8":0.0707228734866969,"9":-0.01816525148806281,"10":-0.1343332469416153,"11":0.02023848227392258,"12":0.18969920936050663,"13":-0.4058210798223997,"14":-0.2752708933462286,"15":0.014295256338634656,"16":0.21619842920237128,"17":-0.02359292154356682,"18":-0.1034739065330422,"19":0.07161657350015661,"20":0.13466341260067877,"21":-0.19903597584483274,"22":-0.12641534649923025,"23":-0.26203021350879624,"24":0.017476210716059225,"25":0.01971818432517985,"26":0.08296428737264018,"27":-0.12433924742330271,"28":0.03389092570638865,"29":0.1652862358819762,"30":-0.16251576522792582,"31":0.15658533045368914,"32":-0.15536990138774914,"33":0.23947978523111602,"34":-0.1308380179301481,"35":0.01003327151152548}},{"sx":1,"sy":1,"depth":36,"w":{"0":0.06509291876400324,"1":0.14567997769153276,"2":-0.2670301194339428,"3":-0.06352217322038821,"4":-0.2872130735875691,"5":-0.3204661168323859,"6":-0.03586224076293782,"7":-0.2874930331113216,"8":-0.15316168736497662,"9":-0.0989996690482225,"10":0.10233165251951815,"11":-0.19211277340351998,"12":0.13341772554237596,"13":-0.026387308673770798,"14":-0.2836495265514661,"15":-0.07041359255316539,"16":0.18922875706868772,"17":0.14422654690704292,"18":-0.14748148820620308,"19":-0.29573226417146126,"20":0.06657679575225171,"21":-0.016790898037780947,"22":-0.008218276433341288,"23":-0.05628123256612216,"24":0.1645460137259821,"25":0.08474747155696194,"26":-0.030061645435751776,"27":-0.2097263535456498,"28":0.2847894728568832,"29":-0.011629000002019108,"30":-0.24640621743777893,"31":-0.09108678679966539,"32":-0.017616310078214955,"33":-0.10775839441429139,"34":-0.19861163117307393,"35":-0.31049074613592775}},{"sx":1,"sy":1,"depth":36,"w":{"0":-0.03286772297600019,"1":-0.1282005572275344,"2":0.0606301489805313,"3":0.20890572154943593,"4":-0.15508404264857908,"5":0.17563674397300263,"6":-0.47303194509306706,"7":-0.003873372498016193,"8":0.28793923536325705,"9":0.10148860087586331,"10":-0.07665629889597116,"11":0.056040469134488506,"12":0.09755980217880124,"13":-0.189336428584096,"14":0.018893675001063048,"15":0.0014248911282864105,"16":-0.1295220924790415,"17":-0.044981831288281565,"18":-0.12865350369362566,"19":-0.10523821811363344,"20":0.018322804177744657,"21":0.0072184348822882,"22":0.21835580556086798,"23":-0.16171288762513358,"24":0.024157393243016363,"25":-0.011304190148625385,"26":0.06928598307024,"27":-0.012758366760491947,"28":0.05140769601968917,"29":0.10091409004977832,"30":0.05280234048662582,"31":0.15668174927977105,"32":-0.12081347316578124,"33":0.0339929265749749,"34":0.06644603623855039,"35":-0.026391206735014498}},{"sx":1,"sy":1,"depth":36,"w":{"0":-0.0218438440002147,"1":-0.13423388271886671,"2":0.03615886976407456,"3":0.02083626761781364,"4":0.012439844139595695,"5":-0.08129169530550988,"6":-0.2991507684360922,"7":0.19869811461565673,"8":-0.05392604199474355,"9":-0.09748026314412546,"10":0.20312927003237258,"11":-0.223167477048497,"12":0.4922133427738771,"13":-0.15352838568014882,"14":0.17668375502716951,"15":0.0544231139144358,"16":-0.06857560267290094,"17":0.12643409237485628,"18":-0.3021546862928943,"19":-0.0015335144763088159,"20":-0.22481296397431386,"21":-0.04609161378551793,"22":0.04460488912613479,"23":-0.2523895271466812,"24":0.08950354501147072,"25":0.2683093325702783,"26":0.1935310056659471,"27":0.13549303498419468,"28":0.05996454128989748,"29":0.14092016104921556,"30":0.05124864592926046,"31":-0.3801116154086803,"32":0.02185347136707454,"33":0.317263110154074,"34":0.05988139786736036,"35":0.2635825390986697}},{"sx":1,"sy":1,"depth":36,"w":{"0":-0.026774765055100097,"1":0.07151677742002387,"2":-0.16248259489650113,"3":-0.16203339411781417,"4":-0.029914832691430426,"5":0.12686355950003583,"6":0.013381267857693484,"7":0.21912799699855134,"8":-0.005118058929492492,"9":0.18993580189031264,"10":-0.12430769308635035,"11":0.14383562245503068,"12":-0.056126671573024874,"13":-0.1382409444323217,"14":0.02703442667228858,"15":-0.09118222877453862,"16":0.12629126974779706,"17":0.08898116573812025,"18":0.08111691416561015,"19":-0.24229979379728828,"20":-0.057956165537949154,"21":-0.09493304735994977,"22":-0.0025771052339040408,"23":0.19398971377051435,"24":0.16200272680433453,"25":-0.06597142217451643,"26":0.3009800778679547,"27":0.04073743189155552,"28":0.011240018998981144,"29":-0.34009882012322323,"30":-0.3953869619195092,"31":-0.000610067582864591,"32":-0.16235454722106119,"33":0.11317495362456675,"34":-0.08755501295077299,"35":-0.2281078560292049}},{"sx":1,"sy":1,"depth":36,"w":{"0":0.01246969845422588,"1":-0.10953444641424057,"2":0.021837860421422037,"3":0.28126837500029683,"4":0.016858177598400716,"5":0.30832062463510695,"6":0.17154481372465927,"7":0.07353026999523724,"8":0.05296520681897893,"9":0.030842729763523792,"10":-0.04319180396045555,"11":-0.010275734846040913,"12":0.0701702127934409,"13":-0.019374558077952388,"14":-0.19764116266420395,"15":0.14817076552383862,"16":0.025977682722587166,"17":0.12526504220435086,"18":0.051868535923103615,"19":0.02398922310458789,"20":-0.16389161939184432,"21":-0.053554468952545224,"22":-0.12396096705316717,"23":-0.16493586888093836,"24":0.16561106637863737,"25":-0.0018345911479190923,"26":-0.22309333368880963,"27":-0.16185210442985204,"28":0.11673408183007007,"29":-0.21150424870963058,"30":0.08918593856855747,"31":-0.294973531457706,"32":0.18313293588188967,"33":-0.16035203445756702,"34":0.18752152461366023,"35":-0.08471465995257951}},{"sx":1,"sy":1,"depth":36,"w":{"0":-0.03729158072698039,"1":-0.09179635737247194,"2":-0.13631115500901786,"3":0.0027037634682428083,"4":0.1477969494070431,"5":-0.2257481059346911,"6":-0.017413996517592713,"7":-0.016901814828282912,"8":0.07343437853754052,"9":0.21032271132028016,"10":0.09657287039190723,"11":-0.0965677156273859,"12":-0.179087467905751,"13":0.25221662959489366,"14":-0.10553961257026337,"15":-0.28442231956052993,"16":0.3199214965429682,"17":-0.021295681105465574,"18":0.04819830603781956,"19":-0.1103416975101685,"20":-0.02927675836801416,"21":0.08913111898887686,"22":-0.044420940098639755,"23":0.014020537320070553,"24":0.17551147303066333,"25":0.17997438392733991,"26":-0.014362700548006181,"27":0.18117993476202915,"28":0.14814275459788206,"29":0.17447075440156076,"30":-0.07359853127357097,"31":-0.02080319687368266,"32":0.3030798631315985,"33":0.10326550692796628,"34":0.1679828789941189,"35":0.14508733380527175}},{"sx":1,"sy":1,"depth":36,"w":{"0":-0.15308531874801679,"1":0.2677494009745107,"2":0.052415244760233175,"3":0.14452195537588602,"4":0.28202613763642415,"5":0.3402465343315066,"6":-0.30240604147379313,"7":0.11849031053062686,"8":-0.30528322083598297,"9":0.07401954962357725,"10":0.13963755042645074,"11":0.1214671793916937,"12":0.043171146399387156,"13":0.06554521833620479,"14":0.10849283759541561,"15":-0.06381749546524919,"16":0.18208945496146084,"17":-0.2787606256617086,"18":-0.08646571526011779,"19":0.15067180297567243,"20":0.1974757185340186,"21":-0.1129987801666674,"22":0.13180481890685905,"23":0.08798455726777622,"24":-0.18864920843906657,"25":-0.14248428903595103,"26":0.07863888082223851,"27":0.2469088598647151,"28":0.048508941452133594,"29":-0.09490104943288845,"30":0.3841861672475939,"31":0.03197895200189263,"32":-0.15975305526638056,"33":-0.01581039217980282,"34":0.14149898679564193,"35":0.3183079046853315}},{"sx":1,"sy":1,"depth":36,"w":{"0":-0.010341680243008064,"1":-0.3084511479382374,"2":0.0420532462684486,"3":0.10155457726125579,"4":0.4208898398393575,"5":-0.03331711756168315,"6":0.14519278645383554,"7":0.3039019389875961,"8":0.10528924392031505,"9":0.0618619427484952,"10":0.12147017212441821,"11":0.05368166367444132,"12":0.2047353735444431,"13":-0.07266414742392363,"14":0.09299697305921414,"15":0.07494465745121322,"16":0.025269775522458366,"17":-0.13564453271827226,"18":0.1361189014190829,"19":-0.08186927456742453,"20":-0.028604505935297373,"21":-0.11623998449924618,"22":0.011106582291742129,"23":-0.057724528371931184,"24":0.04600603543015822,"25":0.030816534618626622,"26":0.2929068803814784,"27":0.06316352167955573,"28":0.2515387212358903,"29":0.19163179189018695,"30":0.21330083319725557,"31":-0.2120283909418435,"32":0.009384863577587504,"33":-0.45257151122731043,"34":0.11624441458828456,"35":-0.02429311319966698}},{"sx":1,"sy":1,"depth":36,"w":{"0":-0.2528672282290097,"1":-0.07619759656098254,"2":-0.10104241577959952,"3":-0.2084273054818869,"4":-0.007078611117655764,"5":0.04599206015763247,"6":-0.038166643486047536,"7":0.15997688590768233,"8":0.056541437017413425,"9":-0.3297725932136403,"10":-0.2792887194879537,"11":0.18170112457949789,"12":-0.0786764115293886,"13":-0.18656319177424233,"14":0.053091147523903794,"15":0.061286021148135424,"16":0.2674312297093186,"17":-0.11222526859185036,"18":0.018076663057297455,"19":-0.06649799704470484,"20":0.4191532829301688,"21":0.05054713191396007,"22":-0.16981051594637048,"23":-0.21663047471962607,"24":0.31105287600909465,"25":0.11596586350689571,"26":0.04444106593624285,"27":-0.2504631150222351,"28":0.029140385281686144,"29":0.12356595858128194,"30":-0.05114857380692702,"31":-0.03872805634862173,"32":-0.11665103183404697,"33":0.19623184825286508,"34":0.022950575942995377,"35":0.17901882826386256}},{"sx":1,"sy":1,"depth":36,"w":{"0":-0.40239467572703824,"1":-0.09346793795005508,"2":-0.09657851394947396,"3":0.27487463158567105,"4":-0.03447567678766762,"5":0.13961023774511835,"6":0.054187297748844634,"7":0.0869615565219226,"8":0.2792003130712882,"9":-0.06499438017036928,"10":0.06073073085205873,"11":-0.03510852235242387,"12":-0.07800737598736059,"13":-0.09458978345951942,"14":-0.030585987236898343,"15":0.1655239921185402,"16":0.1274990343714887,"17":0.05333265322235411,"18":0.2711805000324918,"19":-0.1309679791815909,"20":-0.15390276264664635,"21":0.2944612056486439,"22":-0.22585926217474914,"23":0.007388621729148787,"24":0.3936513802200491,"25":0.004482344950294123,"26":0.12149619188858438,"27":-0.2962041212473825,"28":0.1771741710183337,"29":0.0003425168332095187,"30":0.03224383077069976,"31":0.013714902043130004,"32":0.016570043984073156,"33":-0.300834567251615,"34":-0.020167227293678838,"35":-0.2713024358383911}},{"sx":1,"sy":1,"depth":36,"w":{"0":-0.2888679973690271,"1":0.26139775282229166,"2":0.2681739770240836,"3":0.23456975311170633,"4":0.22338156818134897,"5":-0.12482276319248589,"6":0.24251352440344606,"7":-0.036107116114110924,"8":-0.17514464150040468,"9":0.23117606095075993,"10":0.17813863980536457,"11":0.226030113224984,"12":0.06365758771868715,"13":-0.2096352168620747,"14":0.010195851508669777,"15":0.14323812667030605,"16":0.01643963738063878,"17":0.1926360164480113,"18":-0.052173979235180246,"19":0.03310136374306617,"20":-0.18543499909555236,"21":0.259734574959642,"22":0.10579976268778847,"23":-0.3978550060321203,"24":0.23492407782890584,"25":-0.14927032529364712,"26":-0.04421080294297353,"27":-0.03953656843761634,"28":-0.20695544988803916,"29":-0.06644007512780617,"30":0.1187772715163124,"31":0.0813449313412821,"32":-0.04822981807829776,"33":0.09327556795502862,"34":-0.005084355805637425,"35":0.32087700685617904}},{"sx":1,"sy":1,"depth":36,"w":{"0":-0.11106633766385975,"1":0.13872308789791168,"2":-0.19809849996908835,"3":0.19625550302266473,"4":-0.16465519157653954,"5":0.08473675750763414,"6":-0.046055719886314544,"7":0.11106308388970774,"8":-0.3312592945122841,"9":-0.10148009959671052,"10":-0.027760405093672523,"11":-0.07305612233685449,"12":-0.14984330491111866,"13":0.05328589982351677,"14":-0.0261460027497259,"15":0.15728136107693053,"16":0.2071090698762096,"17":0.14025814635033831,"18":-0.3008030989711385,"19":-0.02021678256739001,"20":0.23235491244514936,"21":-0.1353977580440641,"22":0.06922021063407705,"23":0.15552724415862867,"24":-0.23274821338790527,"25":-0.05732804082241577,"26":0.37860465346344435,"27":-0.07093923176016023,"28":-0.033365182804675673,"29":0.19146414978576942,"30":0.10712717028105698,"31":0.06188399642787288,"32":0.16410443505956768,"33":-0.13039829138189066,"34":-0.059345767904627825,"35":0.2757810065750296}},{"sx":1,"sy":1,"depth":36,"w":{"0":-0.06298144333120657,"1":0.15566510639089443,"2":0.0004975266731097917,"3":-0.046969029507354855,"4":0.11798182002490153,"5":0.017753787041905916,"6":0.31081560974961503,"7":0.013985686002790187,"8":0.20283364225219624,"9":0.1400112357862642,"10":0.06700528496487322,"11":0.12288559820923449,"12":0.323690222916929,"13":-0.0413428007261089,"14":0.201924275959481,"15":-0.23527539593630323,"16":0.11444819767354131,"17":0.1944909364424328,"18":0.23644715007710712,"19":-0.217251527508836,"20":-0.09080792747853032,"21":-0.027157631020406026,"22":-0.1499475893329584,"23":-0.17069900045292755,"24":-0.10108430862659372,"25":0.15967146454931358,"26":-0.17544412591880368,"27":-0.01342951154112186,"28":-0.0276192420670282,"29":0.007224798613712318,"30":0.18371896020045056,"31":0.0022116524075351082,"32":-0.10771174617946512,"33":0.10930939880986947,"34":0.2223929566674962,"35":0.02820726368048184}},{"sx":1,"sy":1,"depth":36,"w":{"0":0.0102274929187798,"1":-0.013023295329129252,"2":-0.1796211158131784,"3":0.04422260805576335,"4":0.15850141425627004,"5":0.23578237753453227,"6":-0.42354822609796233,"7":-0.21993424824650262,"8":-0.009552896681269681,"9":0.12734141353956702,"10":-0.09792754408181673,"11":-0.0892906218264377,"12":0.17966210478055408,"13":0.03630191691961168,"14":-0.18972334396027488,"15":-0.09709261495741066,"16":-0.13301209462940025,"17":0.019923490452062806,"18":0.08167885316644101,"19":-0.06727176159690655,"20":-0.049437242898262235,"21":0.3538067306291246,"22":-0.13412990299737307,"23":0.19853215868978363,"24":0.038993861496814705,"25":-0.062382758617997774,"26":-0.22096059635983376,"27":-0.24895865477585483,"28":0.22168545565959522,"29":-0.1493737287804078,"30":-0.02560970336198717,"31":0.016000251978564285,"32":0.11383949341427091,"33":-0.057731539252295024,"34":0.29821017348635653,"35":-0.1588676787884486}},{"sx":1,"sy":1,"depth":36,"w":{"0":-0.08484927080168805,"1":-0.21354940322286675,"2":-0.17641349631392408,"3":-0.12051396635007333,"4":-0.03567830780372673,"5":-0.19198029309196543,"6":0.07369326741066658,"7":-0.08426907216628071,"8":0.1231605064937905,"9":0.14767926247691662,"10":-0.21153748035308537,"11":0.09774025062645701,"12":-0.17294559723487313,"13":-0.07311212108094085,"14":0.2052676843488448,"15":0.07410249184590216,"16":-0.30113858676474003,"17":-0.2345308902705643,"18":0.24645473353924802,"19":0.07924025298986358,"20":0.04877747588291114,"21":0.2055239830810489,"22":0.07330410491012336,"23":-0.1736799417867886,"24":-0.19015670653988367,"25":-0.08927231301507096,"26":0.17309641400921216,"27":-0.01745010945006233,"28":-0.050402717511311035,"29":-0.1261256174212289,"30":-0.09018124962890152,"31":-0.20785749425638478,"32":0.08029244828921248,"33":-0.08232668377637974,"34":-0.1500504958909587,"35":-0.04221867864830287}},{"sx":1,"sy":1,"depth":36,"w":{"0":0.1552145318761546,"1":-0.14405069769231388,"2":0.1103723635384483,"3":0.2346366954704725,"4":-0.03548803174473062,"5":0.035286391065107836,"6":-0.12869233885765233,"7":0.0670209905850215,"8":0.05315727907588892,"9":0.2731533062773458,"10":0.04997032749039494,"11":0.017100146163056454,"12":-0.1100999999470554,"13":-0.02494422668420552,"14":0.051006305061309286,"15":-0.29032144528245885,"16":0.007723173720488672,"17":0.10052748696275969,"18":-0.17086218639929293,"19":0.1448459325129546,"20":-0.3614694167399479,"21":-0.07255060408343084,"22":0.08876442582463002,"23":0.33023070491875606,"24":-0.27061081457830644,"25":-0.006151914302531111,"26":0.1938568138523647,"27":0.1388437256936489,"28":-0.10914236213336283,"29":-0.21084595565143488,"30":-0.02284871367227069,"31":0.23278745037607187,"32":0.24113423001424655,"33":0.10096822937734713,"34":0.1493529020063193,"35":0.08511373253806692}},{"sx":1,"sy":1,"depth":36,"w":{"0":-0.14967592263857268,"1":0.008497216523124367,"2":-0.10670718695249613,"3":0.004364570201517155,"4":-0.3135626843194271,"5":0.22503636031633265,"6":-0.0256816243193252,"7":-0.04684206583609126,"8":-0.11299026450617279,"9":0.3653677595156478,"10":0.12115107242370889,"11":-0.13323265768939455,"12":-0.052689763219483016,"13":0.22946493332271314,"14":-0.16638113547742728,"15":-0.062436578042347736,"16":-0.26946500581512906,"17":-0.05134447820761086,"18":-0.14003700566362165,"19":0.35612050185638056,"20":-0.2642932639001747,"21":0.18389156415910526,"22":-0.3664631169856174,"23":0.01371558329705803,"24":0.2415424572064028,"25":0.11865257560512225,"26":-0.09410034816930749,"27":0.1851799737520189,"28":-0.19127403525375664,"29":-0.22645957035313993,"30":0.31016571155647327,"31":-0.3107237454551377,"32":-0.015179869154582758,"33":0.040635107776312934,"34":-0.2911701679215942,"35":-0.14283378068884403}},{"sx":1,"sy":1,"depth":36,"w":{"0":0.10369534056160014,"1":0.04628433764687551,"2":-0.0770773704782176,"3":-0.18878250891277645,"4":0.033971151622093104,"5":-0.15444746274717516,"6":0.09593132023339107,"7":0.04699539717099655,"8":0.11154181057964907,"9":0.2435189086257412,"10":0.054077702920415874,"11":-0.14699356629569132,"12":0.049628540977862345,"13":-0.08169997687942308,"14":0.041686338243860914,"15":0.3046263812439449,"16":-0.03608535431622849,"17":-0.3775392916192924,"18":-0.08620750611814926,"19":-0.13811277664444108,"20":-0.06643795826988101,"21":-0.060006990291743834,"22":0.040532728312255434,"23":0.1911810569738874,"24":-0.0820968223776192,"25":0.2948664148910276,"26":0.14082027208668474,"27":-0.045404690786200255,"28":0.08212276960347586,"29":0.284890474983985,"30":0.14085107260478605,"31":0.07139702697115073,"32":0.10106458972023163,"33":-0.09238297445196633,"34":0.14022212875534795,"35":0.18295117000580136}},{"sx":1,"sy":1,"depth":36,"w":{"0":-0.14496982218322244,"1":-0.31502234017604747,"2":-0.523417739591612,"3":-0.027832808197830045,"4":-0.0910766398340027,"5":-0.23636394590228513,"6":0.0042163168294643595,"7":-0.12681018787928472,"8":-0.18504889494780702,"9":0.16043163571669197,"10":0.13621000409095463,"11":0.039766423526353,"12":0.1011201878769136,"13":0.1829322680435214,"14":-0.20479997767161126,"15":0.050399371064686456,"16":0.18214788465979814,"17":0.09515469183792465,"18":0.06217529550902808,"19":0.06329500265701256,"20":-0.04323106405887049,"21":-0.06187786428927017,"22":0.14130430646221137,"23":0.45180744005036905,"24":0.08023358324452337,"25":0.6565536075460172,"26":-0.09118225131881033,"27":-0.016919518317664653,"28":-0.01159499108822339,"29":-0.018186583321278576,"30":-0.11758502419996918,"31":0.24799815203190204,"32":-0.3567627835185831,"33":0.08379835015700456,"34":0.0471298753615989,"35":0.08672731256926637}},{"sx":1,"sy":1,"depth":36,"w":{"0":-0.06812695711218729,"1":-0.310798877602318,"2":-0.20482934585466367,"3":0.034181380811833445,"4":-0.11042812065612832,"5":-0.19473637591261006,"6":0.1798031864000225,"7":0.23554978922032357,"8":-0.05225129040339277,"9":0.006003394617555796,"10":-0.00492733614164088,"11":-0.03581198141191937,"12":0.10226214884385228,"13":-0.16312394673794176,"14":-0.009018240677025178,"15":0.09743744446579622,"16":-0.08335647059200627,"17":-0.06464577907752436,"18":0.04568816187250367,"19":0.059069699888780636,"20":-0.002148974797524544,"21":-0.2001890475369625,"22":0.032933308847977925,"23":0.37224703242719337,"24":-0.10883246739896188,"25":-0.05077694968019095,"26":-0.3791885319524179,"27":-0.3841690888853832,"28":0.08434978322710683,"29":0.22994587980959239,"30":-0.23185822477957693,"31":-0.11106638373207521,"32":-0.22570163428394718,"33":-0.32067662634767885,"34":-0.08721816574059697,"35":0.1149986795721125}},{"sx":1,"sy":1,"depth":36,"w":{"0":0.06794471475248841,"1":-0.3091074778893557,"2":0.36112351930354686,"3":-0.0039977166369768585,"4":-0.06837217658790326,"5":-0.13649392883964775,"6":-0.1135002812899335,"7":0.040849534950403034,"8":0.1243963817822283,"9":0.08833837586188723,"10":-0.18603351670447224,"11":-0.03276299359914252,"12":-0.3303924858881198,"13":-0.23436757684903678,"14":-0.06846975106218593,"15":-0.22161943960239466,"16":0.1493116221998353,"17":-0.17610217064543593,"18":0.2415377640976342,"19":0.1572176977771354,"20":0.039352548339079266,"21":-0.12705979238050083,"22":-0.02418501644823458,"23":0.2271524830463415,"24":0.16470234174123713,"25":-0.32380851894669693,"26":-0.08741475572548836,"27":-0.08430663184245493,"28":0.16490525000776704,"29":-0.002235039051001516,"30":-0.23781318386961214,"31":-0.22901864958115437,"32":-0.13397831728826123,"33":0.17283968516334114,"34":-0.17026985303308262,"35":-0.055049231735554476}},{"sx":1,"sy":1,"depth":36,"w":{"0":0.1165681679310779,"1":0.028000292104034066,"2":0.10483521368387402,"3":0.18189366228665135,"4":0.20439522815717834,"5":0.13247606359967642,"6":-0.20391326358235246,"7":-0.24566446424431232,"8":0.010385747814009206,"9":-0.030001755483813,"10":0.06937628887013006,"11":0.16538847830558306,"12":0.02919023059854169,"13":-0.11615079762952787,"14":0.16352795835155431,"15":-0.04591304081661088,"16":-0.19663882197619878,"17":-0.09798944094682648,"18":0.06136261839299759,"19":0.026604039333027216,"20":-0.024458451909610646,"21":0.10655490842686391,"22":0.01288980141908073,"23":-0.07296526886695937,"24":-0.32068293009983295,"25":-0.03446641143645974,"26":-0.166461581254443,"27":0.15589897037194725,"28":0.12849879116614818,"29":-0.12957971243667502,"30":-0.04744726701667536,"31":-0.03624043165779341,"32":-0.03124009047606455,"33":0.34239693299057683,"34":0.21353142403186637,"35":-0.20346686404774678}},{"sx":1,"sy":1,"depth":36,"w":{"0":0.14567861437448168,"1":-0.08659588318028083,"2":-0.0028342853344599803,"3":-0.013576013949908854,"4":0.08399538133384095,"5":-0.04682582041747738,"6":0.05678103323130321,"7":-0.30621244708032613,"8":-0.1545967255483709,"9":-0.020905575939512786,"10":-0.006277155068876078,"11":-0.29763998464948116,"12":-0.03151214496005919,"13":-0.16458971722356647,"14":0.25106626516217156,"15":0.09980007516448915,"16":-0.11054840243126804,"17":-0.06565296411927873,"18":0.03235215389398156,"19":-0.3229633185096623,"20":-0.2984737049625684,"21":0.10329312473252275,"22":0.1093605926150963,"23":-0.05307190832719179,"24":-0.05114309512453986,"25":0.008092504262276827,"26":0.03901818963865094,"27":0.054677122174939315,"28":0.1121452479953702,"29":0.04833431084036232,"30":0.042588670024793884,"31":-0.14040060423537687,"32":0.06022093260415314,"33":-0.15368047970902765,"34":0.07000186708102962,"35":-0.20449467264972254}},{"sx":1,"sy":1,"depth":36,"w":{"0":-0.2326764641497009,"1":0.07019778295848314,"2":-0.10229720895829521,"3":-0.17830487695288602,"4":-0.17381790139657505,"5":0.26752989211866046,"6":-0.30718517252427563,"7":-0.05865553525654424,"8":-0.2024569204770915,"9":-0.1348132896997327,"10":-0.15778695593164377,"11":0.08933448847529452,"12":-0.036466455008738234,"13":-0.25992810804634914,"14":0.2979880291051562,"15":-0.09737619016910544,"16":0.30513353133062904,"17":-0.06613319066645651,"18":-0.044380645699572736,"19":0.1466859209320414,"20":0.2823641759378401,"21":0.33499256877583916,"22":-0.002429963830188776,"23":-0.20328919877977125,"24":-0.20907638038691534,"25":0.034372787424232346,"26":-0.2209166307695332,"27":-0.13674693939333635,"28":0.23706164605644658,"29":0.1557933513022512,"30":0.020918399295039587,"31":-0.2848854792670748,"32":-0.0950844246940988,"33":0.1626782492198034,"34":-0.26205744526504177,"35":0.1516157352902682}},{"sx":1,"sy":1,"depth":36,"w":{"0":-0.16034596208170201,"1":0.17340953161510053,"2":-0.10529040395749122,"3":0.10324151545497331,"4":-0.08519862399097007,"5":-0.18214119957917244,"6":0.08277152474612362,"7":-0.050175037443853814,"8":-0.22215554617914035,"9":0.04074663341980125,"10":0.06987831285815316,"11":0.22312919077802373,"12":0.07069686894145268,"13":-0.016305852350310162,"14":0.08810640390410528,"15":-0.018235666540543195,"16":-0.006745673171352877,"17":0.09650797749828792,"18":0.19067419618785272,"19":0.08198404088050595,"20":0.06827391719265759,"21":-0.0922662980837446,"22":-0.28324626922869717,"23":0.026423058446042612,"24":-0.13671181505246266,"25":0.22552782446431202,"26":0.3632360628603618,"27":0.18661658229498818,"28":0.11713539610121503,"29":0.2021335521221515,"30":0.17681161210789043,"31":-0.2582774763169689,"32":0.07775242745813939,"33":-0.019731400717195105,"34":-0.022689753723738167,"35":-0.14808685591679324}},{"sx":1,"sy":1,"depth":36,"w":{"0":-0.06067569395441158,"1":0.1999908121145432,"2":-0.052750798526972086,"3":0.02229879855336583,"4":0.26602016212284235,"5":-0.08213674756008381,"6":-0.10960019304631885,"7":0.13974366523212312,"8":-0.3952206725219002,"9":-0.055910502603189,"10":-0.07665842155485594,"11":-0.06182469426155023,"12":-0.023997634125726395,"13":0.19560208265793272,"14":-0.11281584548002034,"15":-0.3895607603887737,"16":0.1924272691877798,"17":0.013649859517539891,"18":0.005771125641167817,"19":0.037371363725897194,"20":-0.14523491316148887,"21":-0.08726263060807884,"22":-0.03135660230382088,"23":-0.1087228023351521,"24":0.15440512358621303,"25":0.18046940290655594,"26":0.01253000741494447,"27":-0.0384738471515491,"28":0.06937993048027076,"29":-0.21975953829271194,"30":-0.036805831705758435,"31":-0.03026912203472082,"32":-0.07363501546828119,"33":0.3390530119760313,"34":-0.021571297832319983,"35":0.16512484605479846}},{"sx":1,"sy":1,"depth":36,"w":{"0":0.24689702017705184,"1":0.15886893024863796,"2":-0.18388675699655713,"3":-0.09511966901054018,"4":0.1783699893118285,"5":0.008428294223038162,"6":-0.006567928207934306,"7":-0.22305463710030451,"8":0.15138413575687104,"9":-0.1188501979588652,"10":-0.06701102891934863,"11":0.24143685979605617,"12":-0.07579884536703078,"13":0.12901655840688883,"14":0.06888922825925126,"15":0.000787161127628365,"16":0.20303646991024407,"17":0.02909486857259272,"18":0.019847487628063053,"19":-0.1629103264790401,"20":-0.04626127156699039,"21":-0.3465655551456511,"22":-0.21600104433383516,"23":-0.14660502417525387,"24":-0.020519746740841248,"25":0.24505855642520752,"26":-0.29403300348609734,"27":0.08272487605242937,"28":-0.2388343379737447,"29":-0.04264847351454109,"30":-0.10101470462072291,"31":0.27270671333470814,"32":-0.22171346236685657,"33":-0.41930628202913534,"34":-0.2718131811907123,"35":0.1342428019299587}},{"sx":1,"sy":1,"depth":36,"w":{"0":0.2961901741830755,"1":-0.04544940254699708,"2":0.20442515632920205,"3":-0.22078814687899592,"4":-0.09634865182829222,"5":-0.022819600031063862,"6":-0.1798810904150339,"7":0.14084360576647437,"8":0.15523764309554486,"9":0.07770929075888945,"10":0.023338275235568223,"11":0.1723753886403108,"12":0.07415949693308052,"13":0.08070134460262501,"14":-0.15113053679294633,"15":0.14950702231182939,"16":-0.09934145905703949,"17":-0.14463282233302044,"18":0.13493855285271147,"19":0.12002604444515344,"20":-0.0014938695082706089,"21":0.09864657402193773,"22":0.08378567615353326,"23":0.03870156551429872,"24":0.06655870093346318,"25":0.11149391852111996,"26":0.06011215721827171,"27":0.055044655269181245,"28":0.2341903335534875,"29":-0.2492515862345824,"30":0.030143809172051835,"31":-0.14624400184078068,"32":-0.4121742466812077,"33":-0.19887966339980395,"34":0.11751408959307286,"35":-0.16925083384950804}},{"sx":1,"sy":1,"depth":36,"w":{"0":-0.10157567519996442,"1":-0.020468639515028295,"2":-0.08193744472672135,"3":-0.03194460428589889,"4":0.058425612084069004,"5":-0.13030547715828314,"6":-0.06429309446416456,"7":-0.04960704650592894,"8":-0.0054734883059561765,"9":-0.10216005878500127,"10":-0.01313782804625395,"11":-0.13916263633480458,"12":0.2691461439704217,"13":0.15097971332109072,"14":0.09783706143366812,"15":0.19046678943183964,"16":-0.13320025154966866,"17":-0.31595107382238535,"18":0.16823440136293824,"19":0.08623492493643106,"20":-0.25584039690143523,"21":0.009375975080192939,"22":-0.2990237500514654,"23":0.18682770982396166,"24":0.1308312970887236,"25":-0.12946455989997585,"26":-0.09244598693751106,"27":0.16142332457442768,"28":-0.11590032455200838,"29":-0.26630450393938054,"30":-0.024425815482688507,"31":-0.17610618800265043,"32":-0.174841249191282,"33":0.12224976256798761,"34":-0.08322375609114548,"35":0.16181120602906615}},{"sx":1,"sy":1,"depth":36,"w":{"0":0.18911161531940107,"1":-0.16637046662458704,"2":-0.06826267723353599,"3":-0.06055164765632054,"4":-0.21970905416273254,"5":0.21350170245153768,"6":0.015082376023300287,"7":0.12356126163620466,"8":0.09116528301041221,"9":0.16212792230519374,"10":0.016002846594939932,"11":0.0071314893583319565,"12":-0.05565398488780916,"13":0.1398011241139306,"14":0.08575770069859628,"15":0.12591790060461772,"16":0.026612188889352684,"17":0.1202453394496289,"18":0.3266806451119443,"19":-0.16080803809099112,"20":0.010294269048299418,"21":0.09812289401296793,"22":-0.18505009633032674,"23":0.21650603093736234,"24":0.15284291037368491,"25":-0.423436606609309,"26":0.024513118309098348,"27":0.16969286058561636,"28":-0.12856064327974728,"29":0.0873059762232683,"30":0.06062169336537854,"31":-0.2582540185756772,"32":0.1958464230748412,"33":-0.11549932888407147,"34":-0.3911172276472501,"35":0.2169140678749124}},{"sx":1,"sy":1,"depth":36,"w":{"0":-0.13290342481924114,"1":-0.3694615504407616,"2":-0.17849374438802476,"3":0.03855048191444046,"4":-0.023785644813342853,"5":-0.011038244761374154,"6":0.11880099459159597,"7":0.475034516812665,"8":0.010496085098855076,"9":-0.12106485355418654,"10":0.03484428314885757,"11":0.29293268997200167,"12":-0.24697529211011918,"13":-0.21881964304287777,"14":0.19951797939591628,"15":0.0654052702822301,"16":-0.2006867835993656,"17":-0.025299579449805137,"18":0.14504171061168059,"19":0.34556697438449296,"20":-0.3393365450586224,"21":-0.2550019895102535,"22":-0.08715538288380716,"23":0.25056359712480086,"24":0.3781549565584343,"25":0.023460435047532244,"26":-0.05093389665561805,"27":-0.014379340406165354,"28":0.033588569782047925,"29":0.06059392863203804,"30":0.3557875478072725,"31":-0.14555332498847573,"32":-0.099923789604422,"33":-0.25529775920620856,"34":-0.04883327079129504,"35":0.02232553959178129}},{"sx":1,"sy":1,"depth":36,"w":{"0":0.08067411317631806,"1":0.040243067568681526,"2":-0.008622627138115405,"3":0.011414358547420634,"4":0.31883243345583334,"5":-0.15708951532256035,"6":-0.24859268305102128,"7":-0.11763894703662434,"8":0.13803293091517324,"9":-0.07881176999758588,"10":0.09599443357675717,"11":-0.04245051767096593,"12":0.1051281059664635,"13":-0.07991743720688746,"14":0.07889482750763578,"15":-0.03578075775580826,"16":-0.27296859016503794,"17":-0.42720436481262475,"18":0.2126949808376867,"19":-0.24804879439530386,"20":0.05300505337718187,"21":0.09700852343042073,"22":-0.20149174848953583,"23":0.016269497953887928,"24":-0.09746541440772144,"25":-0.057426041044533103,"26":-0.18858957528609813,"27":-0.3522241936148881,"28":0.16766223276217013,"29":-0.0738641830605226,"30":-0.07644044631176083,"31":-0.2771873745866251,"32":-0.06850804165154971,"33":-0.07324997374918193,"34":0.25590875717897765,"35":-0.4070746337677142}},{"sx":1,"sy":1,"depth":36,"w":{"0":-0.11048850847943491,"1":-0.08557114392745767,"2":-0.05754304516455439,"3":0.01617982862877921,"4":-0.15686428162072263,"5":0.22293204129856234,"6":-0.17667377385612634,"7":0.03874779299095186,"8":-0.48361168193176646,"9":-0.14921090159859385,"10":0.3345493232325791,"11":0.18736978634049734,"12":-0.07945388309479265,"13":0.051950585593220425,"14":-0.3068055246911981,"15":-0.006243471458348043,"16":-0.0090844346254711,"17":0.1782116149723445,"18":0.1383270164037452,"19":-0.07827745643217388,"20":0.0016237710336215714,"21":0.02433882908874906,"22":0.24681793402616012,"23":0.2808554986915693,"24":0.079564412129402,"25":-0.00750889023175473,"26":0.11140510439483686,"27":-0.2461759521247344,"28":0.1333573532860077,"29":0.05208548135904949,"30":0.16883154876160655,"31":0.2138213175122093,"32":-0.1658309871645818,"33":0.07756247416801512,"34":-0.05031549040614251,"35":0.10136540555147436}},{"sx":1,"sy":1,"depth":36,"w":{"0":0.0792173650118573,"1":-0.48079501328871216,"2":-0.29121012089880005,"3":0.1649512506600951,"4":0.2664230652746977,"5":0.33281302578454813,"6":0.02257323539871192,"7":-0.07474017748815465,"8":-0.11033561483196058,"9":0.2832608867223619,"10":0.09521163182741708,"11":-0.12008857765459449,"12":0.06867885770008812,"13":0.15676716321516734,"14":0.08310214714848028,"15":-0.2080154965928236,"16":0.14581406609670625,"17":0.10676259065746802,"18":0.07815886118416378,"19":-0.32341511238762677,"20":0.15160392924765548,"21":-0.012533168368811704,"22":-0.20673282247126182,"23":-0.21233400500169922,"24":-0.22509072730195567,"25":0.1251142890558448,"26":0.12422261168954002,"27":0.14429747358345588,"28":0.11849359643786807,"29":0.3091069857870931,"30":0.07767652927311552,"31":0.1534276963491338,"32":-0.5056475921898252,"33":0.016912486518908913,"34":-0.0036035742862412113,"35":0.14976633760058647}},{"sx":1,"sy":1,"depth":36,"w":{"0":0.025553943229639307,"1":0.44666856456996396,"2":0.23330346277978128,"3":0.12212569010849676,"4":0.03578211816321766,"5":0.17366995200039284,"6":-0.28891881304109635,"7":-0.11927038285029914,"8":0.15277976744281566,"9":0.002027398216717387,"10":0.09876639123934987,"11":-0.12326805456876366,"12":0.2315973113185329,"13":0.14597898926640854,"14":-0.02293816400353368,"15":0.05152316839182747,"16":0.3205006964431499,"17":0.25668397978086976,"18":0.19534371434533893,"19":-0.11026131961644946,"20":0.1761691405631074,"21":0.13660167370944276,"22":-0.13313510407614834,"23":0.18673982800836053,"24":-0.023709149431359697,"25":-0.09520171291518083,"26":0.02249977835287432,"27":0.03442371518505047,"28":-0.01365706012088163,"29":0.363676308103588,"30":0.41835088548612126,"31":-0.18190236359394085,"32":-0.09938030193055923,"33":0.07419926724244659,"34":0.020178222851193407,"35":0.1155208817806869}},{"sx":1,"sy":1,"depth":36,"w":{"0":-0.3379333363011573,"1":0.20786294043696424,"2":0.0073136065867012165,"3":-0.16432873946138674,"4":-0.16594688129319884,"5":0.07109358663336278,"6":0.016003453581930314,"7":0.16777248122706107,"8":-0.19018231165411942,"9":-0.11637088662108674,"10":0.11691511401246917,"11":-0.03733764389203971,"12":0.10275832722027817,"13":0.2616556527835496,"14":-0.029137566949370725,"15":-0.20058655683087312,"16":0.2695860540054237,"17":0.09420573437331281,"18":0.16204328261819548,"19":0.18102315044626127,"20":0.22204123376205556,"21":0.1017556294505185,"22":0.1839993350440506,"23":-0.07838753981498958,"24":-0.0645994966846791,"25":-0.05538729915977719,"26":-0.17586328295742892,"27":-0.038288779862236416,"28":-0.33297741243441203,"29":-0.09351222508716282,"30":-0.14032587524104645,"31":0.10786640688946514,"32":0.09988598380507621,"33":0.21445486464763702,"34":0.02527585395939333,"35":0.07385173219228675}},{"sx":1,"sy":1,"depth":36,"w":{"0":0.0016297149283060022,"1":-0.11463499766104614,"2":0.20047794645065506,"3":-0.0649174172094475,"4":-0.17817753309936557,"5":-0.2819813854831689,"6":-0.22692420594381474,"7":0.041805324660782975,"8":0.12077069751210344,"9":-0.11671009680857493,"10":-0.1248829812808212,"11":-0.08132209361992182,"12":0.22239400220202588,"13":0.2691654718825164,"14":0.13532075141410746,"15":0.0981917381849721,"16":-0.09160455025774857,"17":-0.11593296048407052,"18":-0.04540905571056546,"19":0.3280676952463073,"20":0.018561268063338833,"21":0.01693968033901648,"22":0.22281789415901074,"23":-0.01405057474800334,"24":-0.29361742205246427,"25":-0.12058381984648237,"26":-0.005115689583711372,"27":0.15978656978743838,"28":-0.18607835230877987,"29":-0.015857520578160866,"30":0.1508246449331693,"31":-0.09821056554420662,"32":0.19885663453755126,"33":0.08204451473298427,"34":0.11232820433954895,"35":-0.05455113010503611}},{"sx":1,"sy":1,"depth":36,"w":{"0":-0.16141999709286683,"1":0.20979083822318448,"2":-0.13638833012232857,"3":0.3072905428549591,"4":0.054576479370323526,"5":0.13712237842918953,"6":0.18770176978838155,"7":0.0699145040058328,"8":0.13333471986367582,"9":-0.033558271530587366,"10":-0.26113687986202627,"11":-0.11812051664902115,"12":0.2384004792080838,"13":-0.3433965097333846,"14":0.0030048902290709537,"15":-0.13215409157035124,"16":0.062121639738229525,"17":0.0492034141561382,"18":-0.2629521235124879,"19":0.2943605187737023,"20":0.016987884044190472,"21":-0.03920103125385969,"22":0.10315608700729445,"23":0.07450229950942748,"24":-0.05723608653736015,"25":0.29706703403077644,"26":0.29147050696580684,"27":0.3516256145208748,"28":-0.08901691817511778,"29":-0.11560845054702096,"30":0.002369542372379886,"31":-0.2186016629434149,"32":0.353739339140709,"33":0.01823454740227212,"34":0.15721741189138738,"35":0.06918277266878031}},{"sx":1,"sy":1,"depth":36,"w":{"0":0.17372078547189362,"1":0.03924907527784655,"2":-0.2207020783570892,"3":0.27249759356475745,"4":0.21341201478719124,"5":0.1445867412205878,"6":-0.12392509527103934,"7":-0.12442630170624995,"8":0.09575068917175518,"9":-0.1551745439837475,"10":0.0716578950489423,"11":-0.027451553729462414,"12":-0.3281415318356503,"13":0.04048486274962619,"14":-0.06682113034105899,"15":-0.04641578421355599,"16":-0.16857537595297056,"17":-0.27113411401581683,"18":0.07719568792915478,"19":-0.11524466810882078,"20":-0.13869277746875855,"21":0.029870557500209827,"22":-0.04333041003537422,"23":0.15269435525171515,"24":-0.08484763369399256,"25":-0.41570648703251917,"26":-0.2087481957768524,"27":0.08356642964551636,"28":-0.06572769599213676,"29":0.09630868017446348,"30":0.12829594229299207,"31":-0.14934227404602632,"32":0.14175296171967858,"33":-0.18494308113279595,"34":-0.2588173300057633,"35":-0.13582526599468717}},{"sx":1,"sy":1,"depth":36,"w":{"0":-0.07447802317010971,"1":-0.09416082326081035,"2":0.25340076731795413,"3":0.3651107926132153,"4":0.09139468419154848,"5":-0.05825215030067577,"6":0.1713001813867984,"7":-0.11830544848675308,"8":-0.024853552490618668,"9":-0.14719991692108653,"10":0.09061376591492007,"11":-0.19387504882647022,"12":0.35476952161274977,"13":-0.00098548256353159,"14":-0.1646242320077012,"15":-0.04147021037824966,"16":0.11100112879540287,"17":-0.010043321387971461,"18":-0.0634371062238977,"19":0.26725321544762703,"20":-0.5108688127716962,"21":-0.018668679329978236,"22":-0.00286899290917258,"23":-0.3281327027999757,"24":0.3229559377388004,"25":-0.06152299141003977,"26":-0.08048635963777581,"27":0.043672040997811606,"28":-0.05608273883763384,"29":0.06478808994762965,"30":0.024008128505829066,"31":-0.12195743458848281,"32":0.052577625793651044,"33":0.1962543738495524,"34":0.34023227599385636,"35":-0.12389497266400751}},{"sx":1,"sy":1,"depth":36,"w":{"0":0.21038791952714825,"1":-0.036114287908467116,"2":-0.07394827469956067,"3":0.24458056007782814,"4":-0.02475284855161668,"5":-0.03860283278248619,"6":0.3314028143762846,"7":0.15145904640396754,"8":0.38833840906185196,"9":-0.12126950619196407,"10":0.20216041444729746,"11":-0.09712850920136794,"12":-0.20064675544528546,"13":-0.4358878624472543,"14":0.10123355604164042,"15":0.03361701985606152,"16":0.04608847789313833,"17":-0.31556932028235163,"18":0.24704051329091442,"19":-0.05509698107424062,"20":-0.23248613350944455,"21":-0.04597318295147416,"22":-0.027971950695080277,"23":0.09172786936814023,"24":0.03863336743548866,"25":-0.11862830536970397,"26":-0.0029290415249647946,"27":0.4022731958271825,"28":-0.12446342687197008,"29":0.22898507427024042,"30":0.004435417731632711,"31":-0.08516363918697224,"32":0.18845811568436813,"33":-0.1507240914464135,"34":-0.1978468200351775,"35":-0.1562376678641475}},{"sx":1,"sy":1,"depth":36,"w":{"0":0.1671659038395266,"1":-0.02972081637286661,"2":0.28636483658647527,"3":-0.14706170013380598,"4":0.04468755759601688,"5":0.2764072938640894,"6":0.04604865939773622,"7":0.07753094320305064,"8":-0.014959268926247198,"9":0.04793413325906889,"10":-0.09879631893748977,"11":0.07694296712724123,"12":-0.1560429693899726,"13":-0.0618320508405782,"14":0.19277242442087592,"15":0.09181532161983898,"16":-0.12623697080135995,"17":0.31680661266189464,"18":-0.044578937842965745,"19":0.07816668418337282,"20":-0.1192019551222659,"21":0.11945469921229036,"22":0.2920262142061397,"23":-0.012936066623432768,"24":0.25902079965366226,"25":-0.00969086283047539,"26":0.2656342581691868,"27":0.013467336133745168,"28":0.0027988593256949744,"29":-0.03626599267053874,"30":0.08636279087325277,"31":0.04519184224883898,"32":0.2705430888924922,"33":0.3126647947906798,"34":-0.055550759973611745,"35":0.027148862705166466}},{"sx":1,"sy":1,"depth":36,"w":{"0":-0.22161069153525936,"1":-0.1266411086549835,"2":0.04719998778086337,"3":0.4451188123369191,"4":0.15287617248162202,"5":0.43495558524533906,"6":0.08404969346029108,"7":-0.1767845801489223,"8":0.0824603821838289,"9":-0.04259172989929943,"10":0.20185810190134498,"11":-0.22497377992350204,"12":0.057288358403614924,"13":0.24064333001032429,"14":0.0550608559662675,"15":0.13792887744390073,"16":0.02888050739921875,"17":0.022379045426527154,"18":0.06935727366662738,"19":-0.0066737156343018335,"20":-0.010071056327081414,"21":0.2291181841953529,"22":-0.18079625319393483,"23":0.12286360744118177,"24":-0.11349655692928717,"25":0.17876281874427039,"26":0.09537000734618721,"27":0.3028257105912154,"28":-0.14097810621114554,"29":0.0027095516839823986,"30":0.005680877107833596,"31":0.016267386474800125,"32":-0.1279418043811141,"33":-0.33780253774443164,"34":-0.010793165278842757,"35":0.11901636556663163}},{"sx":1,"sy":1,"depth":36,"w":{"0":0.2772508189204642,"1":-0.2461912357775061,"2":0.08981270687415675,"3":0.19502815718563965,"4":-0.23404110843410605,"5":0.08252007612191582,"6":0.24638323111225163,"7":-0.06718048553736289,"8":-0.01824478241921601,"9":-0.13126232664765936,"10":0.19392079283421526,"11":0.07425941423078404,"12":0.2038630819418762,"13":0.034968168418570166,"14":0.015945214587924937,"15":0.049651512347541005,"16":-0.1747067439165642,"17":0.10621161848200046,"18":-0.024963325745674666,"19":-0.11588761390082429,"20":0.12737283258777385,"21":-0.23283646453994675,"22":-0.05269338478778011,"23":0.22487093326013557,"24":-0.13534407439080834,"25":-0.02950340689753988,"26":-0.05110315483447272,"27":0.06313965213543044,"28":0.11032443774037728,"29":0.012158395842065375,"30":-0.06467777745560203,"31":0.032497257135269506,"32":0.28973956952781466,"33":-0.4533682236154774,"34":-0.38452252817786203,"35":0.05800093061233411}},{"sx":1,"sy":1,"depth":36,"w":{"0":-0.010073599364769282,"1":0.26555214935287735,"2":-0.12099287074427811,"3":-0.19826836867944173,"4":0.05201301035511909,"5":-0.022607600658523005,"6":0.0955583958031699,"7":-0.06795155418514466,"8":-0.14789359262193486,"9":-0.047550324586512656,"10":-0.035006234187010925,"11":0.10113881318815703,"12":0.2125152105722997,"13":0.22625802315497062,"14":-0.4191815477399961,"15":0.09441472681655569,"16":-0.2123956992565205,"17":0.3170703280121408,"18":-0.2003991023278942,"19":-0.20746435174671715,"20":-0.33238707190018785,"21":-0.26281559517860964,"22":0.008542834277734512,"23":-0.2356559928775745,"24":-0.03733144955062623,"25":0.14887897972848427,"26":-0.2601800934699281,"27":-0.12280108542273271,"28":0.08627316429054095,"29":-0.025367001308206863,"30":0.040941709962794934,"31":0.05051913915496967,"32":0.005430700633569724,"33":-0.15356594541936663,"34":-0.4190835675605075,"35":-0.07836887127457161}},{"sx":1,"sy":1,"depth":36,"w":{"0":-0.1969815682160213,"1":0.04222595841064401,"2":-0.38454868690854144,"3":-0.09337131257508459,"4":0.050506179452281794,"5":0.244481188507575,"6":0.4028611138670176,"7":-0.08655980231052351,"8":-0.011641330624026733,"9":0.021113075563449737,"10":0.29523468725607205,"11":0.0865598021526081,"12":0.13885596012868465,"13":0.1893505382641165,"14":-0.22656284630850015,"15":0.07721405456230071,"16":-0.18600640283956035,"17":-0.0192911405048504,"18":0.09515117923279959,"19":0.20962292466617358,"20":0.09785803946727113,"21":0.0017130327523591277,"22":0.14566001464133246,"23":-0.10728591665834665,"24":0.020270201564711654,"25":0.05335043149895569,"26":-0.11154499995002083,"27":0.21119364014223685,"28":0.2040429523494193,"29":-0.2576226725532633,"30":0.10260281603904496,"31":-0.11014235224774412,"32":-0.3294688534207234,"33":0.039461068217999794,"34":0.06287056869607288,"35":0.15693158157115494}},{"sx":1,"sy":1,"depth":36,"w":{"0":-0.18548249433350916,"1":0.0656235309942888,"2":0.003629577340401783,"3":0.07745350304340246,"4":-0.0020282418884855504,"5":-0.0803133926488859,"6":-0.3396147271932866,"7":-0.12297782626934571,"8":0.0883367908964147,"9":-0.261529349406439,"10":-0.2222674667428346,"11":-0.17162918081799214,"12":-0.1754519047556908,"13":0.10257197964720348,"14":-0.13844642579215682,"15":-0.05047550685050151,"16":-0.12653147037670381,"17":0.16760608604735494,"18":-0.057299143991365264,"19":0.31701642141657055,"20":-0.16774085935567631,"21":-0.1272025510696348,"22":-0.26365820036693866,"23":0.012617638948749975,"24":-0.04596389325634036,"25":-0.13613392472775443,"26":-0.26689795349280077,"27":-0.12983930544100322,"28":0.10680022527483059,"29":-0.052243221947183005,"30":0.0316352274377092,"31":-0.006739509300670677,"32":0.17196579945117182,"33":-0.04420985100246069,"34":-0.004727338516043453,"35":0.1783140375549908}},{"sx":1,"sy":1,"depth":36,"w":{"0":0.10161051158558279,"1":0.17725872280902635,"2":0.03460038266256881,"3":-0.045730134611429885,"4":-0.1877219395711013,"5":-0.17005833615307023,"6":0.0006290039898957669,"7":0.33362106368632327,"8":0.23663652149607262,"9":-0.5794151313960566,"10":-0.22342004311266872,"11":-0.23575063700097584,"12":-0.3388047207847681,"13":0.36002521997192,"14":-0.1642350539511211,"15":0.08917700300217307,"16":0.16257297762969958,"17":-0.17381102743474355,"18":0.22149693680292512,"19":-0.29923878718408964,"20":-0.1425458210301766,"21":0.09590752632877986,"22":0.017990510689251577,"23":0.03540650585537572,"24":0.26696641466811216,"25":-0.043719154950475896,"26":-0.019247005659498172,"27":-0.2099907594289812,"28":0.02017470773541592,"29":-0.008821005648791035,"30":0.26395258519220033,"31":0.12920658554006098,"32":-0.08209151614779271,"33":-0.03790716627149913,"34":0.009561692622838538,"35":0.1953706459437646}},{"sx":1,"sy":1,"depth":36,"w":{"0":-0.39895116743548364,"1":0.009005692144222855,"2":0.194101506259828,"3":0.09512545522722979,"4":-0.032007257674245976,"5":-0.08477727808668681,"6":0.17504686366521366,"7":0.012709065641463478,"8":-0.021059971964006486,"9":0.23328796050554151,"10":0.05691030211934836,"11":-0.21416390290142331,"12":0.0034194359550537372,"13":0.2918958370776444,"14":0.00855255268826274,"15":-0.1128847484763164,"16":-0.003883639203843844,"17":0.2563178380309085,"18":0.2286667618299559,"19":0.20121616465838493,"20":0.039262763213701535,"21":-0.0048669822492273035,"22":-0.07453933500775153,"23":0.14638248727141395,"24":-0.30488356215281065,"25":0.1332005937214033,"26":-0.1966958938175108,"27":-0.268555489072348,"28":0.19554537348881082,"29":-0.025276226163717132,"30":-0.140568594381322,"31":-0.2118962971626671,"32":0.05811975784808595,"33":0.007766307231481527,"34":-0.09750042427575578,"35":0.006311907715708232}},{"sx":1,"sy":1,"depth":36,"w":{"0":-0.1065203671965863,"1":0.166083593977526,"2":0.12572586580048772,"3":-0.24027710171220384,"4":-0.14960246695580773,"5":0.0500542117402188,"6":-0.1626897010942924,"7":-0.19364960208364,"8":0.06589765197381146,"9":-0.011222340797974812,"10":-0.031883218310322765,"11":-0.16637701602778934,"12":-0.10481844023067026,"13":-0.26978476421739506,"14":-0.004932622827072865,"15":0.09974127910140006,"16":-0.12013723889855735,"17":0.2574438062761527,"18":0.140033884782184,"19":0.02636414565599353,"20":0.20657778082659925,"21":0.032849978547728906,"22":-0.10096439769533651,"23":0.11101259494570001,"24":-0.010177813424700536,"25":-0.19491624881142294,"26":-0.022387879977419974,"27":-0.037107153712121,"28":0.1008293288062216,"29":-0.07301931682106523,"30":-0.04356997325607886,"31":0.1931911885487334,"32":-0.1365598819983933,"33":-0.031852657836662274,"34":0.018809281932836562,"35":0.0655797315023396}},{"sx":1,"sy":1,"depth":36,"w":{"0":0.04674866838553208,"1":-0.3026897630556878,"2":-0.10757439466044952,"3":0.009014206419302695,"4":0.1590123113843664,"5":0.16784821799343932,"6":0.05795302187100192,"7":-0.1344592175254333,"8":0.05888647052813105,"9":0.09413982434542303,"10":-0.17233748506496052,"11":0.010858828109847818,"12":-0.045067887117561385,"13":0.10780972811951911,"14":0.14563958893783943,"15":-0.2158795199325207,"16":0.05948462159765785,"17":-0.19228184714958088,"18":0.06775368324852946,"19":0.09382157528373611,"20":0.045438052952336945,"21":0.010322821962394493,"22":-0.12934126376779662,"23":0.19473400767493504,"24":0.18068641804105182,"25":-0.0667925014395414,"26":0.40503925661970686,"27":0.07932811112883632,"28":-0.20158532447522395,"29":0.06104728231789992,"30":-0.07697865954637174,"31":0.11052932565675168,"32":0.018593236344535108,"33":0.04557949033530644,"34":0.189778952483728,"35":-0.1412268124218372}}],"biases":{"sx":1,"sy":1,"depth":64,"w":{"0":0.09974975062493462,"1":0.09979811598912952,"2":0.10027587517857797,"3":0.09954737306711924,"4":0.09984794242885711,"5":0.09949925376144723,"6":0.10006685772822962,"7":0.09986664587515037,"8":0.09989927838830882,"9":0.09962901352778025,"10":0.09989275235003754,"11":0.10016036786715816,"12":0.10006269339166664,"13":0.09996763558752818,"14":0.09996692087311354,"15":0.10001775764776463,"16":0.09992431315314683,"17":0.10008209481616424,"18":0.09969146101412901,"19":0.10008825079268252,"20":0.10030971700680075,"21":0.09969218752938694,"22":0.10001980559455871,"23":0.09969371372603558,"24":0.10015145756436108,"25":0.09993353839110942,"26":0.09975693429636741,"27":0.09991785596948044,"28":0.10019539197870786,"29":0.10018919830728315,"30":0.10001345677259171,"31":0.10017263307951577,"32":0.09999236375427611,"33":0.09994676498474635,"34":0.10008700590799391,"35":0.0994201005419753,"36":0.0998081414805352,"37":0.10001136705562405,"38":0.10028209698680676,"39":0.1000041318064913,"40":0.10013383329035873,"41":0.10027171963206105,"42":0.09984028300948423,"43":0.09999543232255893,"44":0.1001997664660165,"45":0.09976445542699412,"46":0.0996059428994102,"47":0.10039511826874044,"48":0.10016426242780083,"49":0.10004849654864713,"50":0.1002007778684498,"51":0.09998874502556657,"52":0.10000472089007424,"53":0.10042922650714338,"54":0.09998727159965629,"55":0.10093271666143087,"56":0.09996988968918429,"57":0.10008635809755193,"58":0.09983127623518827,"59":0.09998968999589217,"60":0.09991952627633323,"61":0.10035653067356323,"62":0.10036260465953169,"63":0.09991951754545467}}},{"out_depth":64,"out_sx":1,"out_sy":1,"layer_type":"relu"},{"out_depth":32,"out_sx":1,"out_sy":1,"layer_type":"fc","num_inputs":64,"l1_decay_mul":0,"l2_decay_mul":1,"filters":[{"sx":1,"sy":1,"depth":64,"w":{"0":-0.11452985965982092,"1":0.12118251456363223,"2":-0.0738800992486171,"3":-0.018116176433200862,"4":0.0139701821876933,"5":-0.0878999343006151,"6":0.11217428852508793,"7":0.18551680288882147,"8":-0.016065179972183288,"9":-0.10256941658506033,"10":0.017902991627335413,"11":-0.17946107150801272,"12":-0.10406905693646887,"13":0.0256743684661128,"14":0.10076827011320257,"15":-0.25564485903005146,"16":-0.049078919133401094,"17":-0.15798288611469907,"18":-0.055494377006019516,"19":0.2033866622919503,"20":-0.05990805699418714,"21":-0.021998712593483835,"22":0.11903481896377138,"23":0.12886065070241473,"24":-0.22660368104776235,"25":-0.025411024315235262,"26":0.07008633859946706,"27":0.0785749099114327,"28":-0.03568303622177554,"29":0.007406359483923353,"30":0.05660790875671148,"31":-0.021379887183063512,"32":-0.030381064112081354,"33":0.12991293246010444,"34":0.025024122784719938,"35":0.17656289489026308,"36":-0.05948662139325194,"37":-0.05864422553977613,"38":0.20392578944971107,"39":-0.027272666625531045,"40":-0.20455652633124252,"41":0.13433225564220067,"42":-0.058476905612369574,"43":-0.10842021150053438,"44":-0.09159787505345404,"45":-0.16066133016013498,"46":0.18006552928537373,"47":0.11551072617439748,"48":-0.04355279065673899,"49":0.042149670785367466,"50":0.031080308256664017,"51":-0.019046126301855804,"52":-0.16154830218348637,"53":-0.2026324064746412,"54":-0.14064045710704437,"55":0.1393312322960306,"56":-0.038710144985057905,"57":0.04031672091059659,"58":0.04672372262209422,"59":-0.13637666293426315,"60":0.07057206854366843,"61":-0.22102713919446912,"62":-0.06078244571186251,"63":0.06713949622424957}},{"sx":1,"sy":1,"depth":64,"w":{"0":-0.16492085875117918,"1":-0.148767648698551,"2":-0.2275964012374949,"3":0.17166088612165636,"4":-0.027851759953109557,"5":0.033479858775030145,"6":0.007506380333275345,"7":-0.2164342625670437,"8":-0.02092150133470624,"9":0.09270903016059157,"10":0.09206065767767643,"11":-0.2635463599629371,"12":0.014225690046485927,"13":-0.12546461701311987,"14":-0.34104021602183704,"15":-0.11503026612733605,"16":0.09153644930379382,"17":0.17540283815201463,"18":-0.10876663093298597,"19":0.02538600605361965,"20":-0.012759312412220938,"21":-0.07897545756200469,"22":0.17364288677450235,"23":0.018604318643550232,"24":-0.05468766684370619,"25":0.030587986550703217,"26":0.005851829972516102,"27":0.05159396731371854,"28":-0.1727343326744241,"29":-0.09613122551365953,"30":-0.141913253752949,"31":-0.11205937380170546,"32":0.06411589376475522,"33":0.051178594276445874,"34":-0.05850839854576587,"35":-0.2368711292549022,"36":0.2177124440763911,"37":0.052600083361287193,"38":-0.11164685447160343,"39":-0.18630579811261022,"40":0.0882298717742049,"41":-0.054971068020748505,"42":0.10967214909386616,"43":0.24350459543954295,"44":0.02090081963906648,"45":0.004374797377912684,"46":0.20851958657419364,"47":0.04972636670272634,"48":-0.1654789921176323,"49":0.15605079191932988,"50":0.07315984659426283,"51":-0.08229917376978779,"52":-0.06493194132102562,"53":-0.08653073597447147,"54":0.20747277834636058,"55":-0.23015616494011615,"56":0.09994427225365533,"57":0.32300900738699445,"58":0.13854394034489645,"59":0.26220596822742004,"60":0.18716636711629953,"61":-0.4529913753693485,"62":-0.10183546794499884,"63":-0.07874639722860448}},{"sx":1,"sy":1,"depth":64,"w":{"0":-0.1681669947796598,"1":0.0022181672531989233,"2":0.08777949107716024,"3":0.08864000663428276,"4":-0.041066137212009614,"5":0.08531026379876491,"6":-0.12002289705176739,"7":0.14938814130096972,"8":0.05544212593957604,"9":-0.20475184519982023,"10":-0.021748118256725023,"11":-0.1271849256998754,"12":-0.09317667382566816,"13":-0.018652146077791688,"14":0.008474256407132225,"15":0.222491615155299,"16":-0.12636275016993437,"17":0.020535535314248135,"18":0.02232028037211248,"19":0.03775570141495499,"20":0.09938573424769952,"21":0.12306480226315018,"22":0.017856598383167978,"23":-0.3081239283061007,"24":0.16718906892733976,"25":-0.2581603029737448,"26":-0.2140922162357789,"27":0.17058212021728328,"28":0.19029087918805956,"29":-0.08890694576554246,"30":0.09111071324075523,"31":-0.03384453056162604,"32":-0.19616922737639567,"33":-0.10600343985019714,"34":-0.05953089104270243,"35":-0.0024156580615703497,"36":-0.020437605921958427,"37":0.18483888775951118,"38":0.03245389273310355,"39":0.022043942104695933,"40":-0.102847537220309,"41":0.17763835817675622,"42":0.14717570590092738,"43":-0.2756245286697891,"44":-0.27882540001886197,"45":0.0024137325854281383,"46":0.02875698336436786,"47":-0.2688183646008697,"48":0.282116435485413,"49":0.15806954497545925,"50":0.0160426853036139,"51":0.11703256921485246,"52":-0.0320938251467198,"53":-0.10922888714905844,"54":0.01793575554753545,"55":-0.06385687015731212,"56":-0.04811840914539846,"57":-0.049696588225274466,"58":-0.20980922658342044,"59":-0.006602275309712128,"60":-0.18121214719095013,"61":0.06833907343316761,"62":0.15387020817696323,"63":0.10071952905027327}},{"sx":1,"sy":1,"depth":64,"w":{"0":-0.19105950067229127,"1":0.07259931647658183,"2":-0.031772877943409855,"3":-0.129325355186764,"4":0.019980248741212236,"5":0.1417210836744621,"6":-0.006412031940957642,"7":-0.07898396944626568,"8":-0.05616338083949392,"9":-0.05428623330750345,"10":0.10271387056849272,"11":-0.03447762029309503,"12":0.2854394764770291,"13":-0.0877764352436852,"14":-0.10636521015239872,"15":-0.034886638060673894,"16":-0.004044055868356298,"17":-0.03359502693597454,"18":-0.1901893064066853,"19":-0.11615091270347534,"20":-0.09612792457708803,"21":-0.1032898516043676,"22":-0.06103837852772166,"23":0.12083772211370865,"24":-0.06506298888538274,"25":-0.045498759715688404,"26":0.10423293563546313,"27":-0.046184398488189844,"28":0.07308801566553369,"29":-0.22166404159373831,"30":0.2549392730911534,"31":-0.18718685136033514,"32":-0.11634948844311327,"33":-0.2984952719263499,"34":-0.1488637671491848,"35":0.21301019944525612,"36":0.055507437586294145,"37":0.22359649102808937,"38":-0.12293888409065298,"39":0.03943340621881157,"40":0.17429841278580277,"41":0.20750148574249105,"42":0.13680178980856966,"43":0.002447869389690904,"44":0.04050789954025967,"45":-0.023137178528859492,"46":-0.110849263559297,"47":-0.09394489228825058,"48":-0.16299306060979635,"49":-0.2574074718954136,"50":0.009726014032137492,"51":0.08097119786478606,"52":-0.0844652046878623,"53":-0.12418168882983198,"54":-0.15895467155279416,"55":-0.034441401066016994,"56":0.023139176054798153,"57":0.1358978617862051,"58":0.11043442386145086,"59":-0.024665820843981588,"60":0.020899992983242854,"61":-0.29105358659470937,"62":0.3396168072377041,"63":-0.15297967657901093}},{"sx":1,"sy":1,"depth":64,"w":{"0":-0.17175912288208137,"1":-0.1658620222870793,"2":-0.06335591921782066,"3":-0.07942782825824904,"4":0.0082524010057904,"5":-0.12252015868645223,"6":0.044231475539191704,"7":0.033674113105193,"8":0.0212328796052266,"9":-0.1138820589731793,"10":0.1544974130750575,"11":0.07247800909551336,"12":-0.02178547131121432,"13":0.07337583725775701,"14":0.021475602569753355,"15":0.08040159000353926,"16":0.17052758958344993,"17":0.10528585429816759,"18":0.31855394870323117,"19":-0.19886450852635856,"20":-0.11526473946892042,"21":0.1132450286775887,"22":0.14295127338276759,"23":-0.022825620045705413,"24":0.014738185878573637,"25":-0.07340343434882612,"26":0.08738326872577298,"27":0.042885531633205215,"28":-0.28426492425126015,"29":-0.009847169251532511,"30":-0.012447377116969966,"31":0.07804267689188399,"32":0.017405201232451706,"33":-0.0646746600032102,"34":0.021167741362589414,"35":0.04711994063124947,"36":0.07830708139526027,"37":0.07350303929017933,"38":-0.28958321336787135,"39":-0.01966180466480343,"40":-0.14522770589451758,"41":-0.022027520087913022,"42":-0.10254285685475625,"43":0.08120559302250374,"44":0.1700694696113122,"45":0.09526305863168967,"46":-0.0924315331729672,"47":-0.061292398769267536,"48":-0.004862719721746958,"49":0.23027029089403261,"50":-0.037696178621667686,"51":-0.09293649679081524,"52":-0.134676496338922,"53":-0.15078134391027342,"54":0.12081127949514747,"55":-0.07500141992809127,"56":-0.003621576610403461,"57":-0.06871656968762073,"58":0.03516531414300733,"59":-0.08711930705719757,"60":0.007031374715017082,"61":0.05350245146339376,"62":0.006455021303716496,"63":0.03250782116020965}},{"sx":1,"sy":1,"depth":64,"w":{"0":0.019632351362341427,"1":-0.2721986840429334,"2":-0.2174006990250983,"3":0.14180528879271806,"4":0.020813420232146253,"5":-0.1273879145759107,"6":-0.0787034522481959,"7":0.014149540364130263,"8":0.047758477460149835,"9":-0.10687134787708231,"10":0.02656748995908324,"11":-0.098532821311765,"12":-0.24770952236480004,"13":0.02247445546008337,"14":-0.28025106182386156,"15":0.03634041074007664,"16":0.07805485923071546,"17":-0.09605044814092326,"18":0.11728242246295444,"19":-0.09336351169943012,"20":0.060728399162961855,"21":0.0963312393705761,"22":-0.08379928772024173,"23":0.10699822110226818,"24":0.01934822430517995,"25":0.030628203482435168,"26":0.10771725313563633,"27":0.041709658107402355,"28":-0.09927618483040182,"29":0.11080709285172502,"30":0.033454174413896316,"31":0.1268827431930761,"32":-0.02348633268609918,"33":0.10751370451252602,"34":-0.08025522349012497,"35":0.14135721621747235,"36":0.05210024590605161,"37":0.056973894547075174,"38":0.06465953899847487,"39":-0.05689063415407935,"40":-0.04448127489296731,"41":-0.07139777985364085,"42":-0.08343215170308067,"43":-0.07135466580361181,"44":-0.09905984922368913,"45":-0.17279172032826615,"46":0.2090293645324591,"47":-0.08969259660166352,"48":-0.11779304274637137,"49":-0.09002526011565529,"50":0.14364989699425704,"51":0.03550189691067415,"52":-0.19888900778379906,"53":0.17000914943313652,"54":-0.04799231656512986,"55":-0.14294802366899823,"56":-0.10356474205058769,"57":-0.013829026223420715,"58":0.11693633088544923,"59":-0.1537240540928496,"60":0.2905396150739624,"61":-0.02353955419281457,"62":0.11878277924652308,"63":-0.006638331933244341}},{"sx":1,"sy":1,"depth":64,"w":{"0":0.11839444166886659,"1":-0.22613392657367706,"2":-0.03612528095385758,"3":-0.038102225887380214,"4":0.26036507096728667,"5":0.01049228180460971,"6":0.12449576645414236,"7":0.015337530272504661,"8":-0.1954779005980248,"9":0.06489464282338184,"10":-0.0005792649377977978,"11":0.054801775498289976,"12":-0.02357494476873226,"13":-0.16374775890306548,"14":-0.09740674998142593,"15":0.1456999742019567,"16":-0.25475842809157495,"17":-0.06099202025462681,"18":0.025677962362828287,"19":-0.1347765752336675,"20":-0.04601786968632127,"21":-0.0007087573472933473,"22":-0.08839734647061469,"23":-0.033270697810060076,"24":0.07845707019765628,"25":-0.07679266124330915,"26":0.24047460733172765,"27":0.06423311395371274,"28":0.03147179657609599,"29":-0.10786213105122407,"30":0.14033433901628667,"31":0.030742426402587338,"32":-0.09148798747201749,"33":-0.11523169606542431,"34":-0.22922564731146944,"35":0.0393172122220209,"36":0.09833817838713023,"37":0.10779938635366287,"38":0.264722401267119,"39":0.1378278082388102,"40":-0.14161364077612015,"41":0.04962550600510222,"42":0.0635701451980391,"43":0.07684930349556873,"44":0.01624623480521465,"45":0.17351842014951094,"46":-0.08112053445213975,"47":-0.2335848383624855,"48":0.18065471929841448,"49":-0.027293212815188646,"50":-0.10522897159631414,"51":-0.03024502893172914,"52":0.04223019666760953,"53":0.03186371781796737,"54":-0.012476461875941373,"55":-0.08007395383838234,"56":-0.13580342358292094,"57":0.09586251856237968,"58":-0.15017582495483303,"59":-0.19962931568412243,"60":0.0093413749135312,"61":-0.1935065480376026,"62":-0.09530121086735127,"63":0.11800169997675496}},{"sx":1,"sy":1,"depth":64,"w":{"0":-0.06399724492129084,"1":-0.10252911328605824,"2":-0.13795077322708352,"3":0.04438495568352601,"4":0.052551993130434516,"5":0.02890920845203013,"6":0.18056227096710695,"7":0.030925372782442704,"8":-0.10651010346918154,"9":0.08374610830282754,"10":-0.03175732286191212,"11":0.08763679886185041,"12":-0.17670542444997686,"13":0.11650626175665162,"14":0.24250310968510497,"15":-0.021126979837810197,"16":0.03929287344169618,"17":-0.30857113119962915,"18":-0.13937634221010028,"19":0.22283506827619137,"20":0.07682037526102592,"21":-0.08264832314381661,"22":0.13683727238004648,"23":-0.013670489206464256,"24":0.03941359125784574,"25":0.0750513562285278,"26":-0.03752335515369345,"27":0.06607463833793235,"28":0.02653327562906261,"29":0.053582635528398335,"30":-0.016048334287443265,"31":-0.09737421201828285,"32":-0.046818207265274046,"33":-0.14791205651454317,"34":0.19646698700688703,"35":0.09677144903531644,"36":0.17165865504912278,"37":-0.06056708377403991,"38":-0.11862033709457066,"39":0.295674742829593,"40":-0.08878340584053945,"41":-0.12132108999172306,"42":0.2712833219996009,"43":0.06884438280285222,"44":0.023746882561648235,"45":-0.01057220850941961,"46":-0.10710710146234874,"47":-0.1347796384676032,"48":-0.14295079195680796,"49":0.23690299770592485,"50":-0.06491906589938518,"51":-0.1282536853218352,"52":0.1881537283074268,"53":-0.06854437513834834,"54":0.08839621506762621,"55":0.09790883467670503,"56":0.03563571697878175,"57":0.06943449338758796,"58":0.0008338890112099042,"59":0.22562628908961022,"60":0.06325953090024275,"61":-0.06843045589940444,"62":0.10864663477363953,"63":-0.10352074749033524}},{"sx":1,"sy":1,"depth":64,"w":{"0":0.08262453794367229,"1":-0.1415940055638047,"2":-0.046103591487730994,"3":0.07400233159532542,"4":-0.08670945613823133,"5":0.1086446668779234,"6":-0.09028498023919149,"7":-0.025657082137508173,"8":0.12019756605888342,"9":-0.00936851405034198,"10":-0.05390406597355265,"11":0.24270497295339272,"12":0.1909540170317109,"13":0.019680954078320954,"14":0.09390513329099211,"15":-0.11046354073410616,"16":-0.12678036403019355,"17":0.08658666762241522,"18":0.12569044542996952,"19":-0.29828753485889337,"20":-0.2668586172855136,"21":-0.019508800288979875,"22":0.053200656864401764,"23":-0.10810080601914282,"24":-0.1016526088274972,"25":-0.04665083574422786,"26":0.05856541445971214,"27":0.2313027621017349,"28":0.05754611107623798,"29":-0.020050867101915375,"30":0.0545330029507503,"31":0.09937714321118125,"32":-0.09277813906837032,"33":-0.10709319301743081,"34":-0.17315084799007344,"35":0.1930781067279174,"36":-0.04710510777876218,"37":0.012407569049294563,"38":0.04884357578594673,"39":0.12006187252347694,"40":0.033085224817556935,"41":-0.019534622913619397,"42":0.1270027968198904,"43":-0.038238021120498775,"44":0.11936561392691894,"45":-0.12857552792438093,"46":-0.13191381837921437,"47":-0.0018057852464993178,"48":0.08256757854231894,"49":-0.1908229325756281,"50":-0.12903743214580538,"51":-0.027463639588067856,"52":0.16579041237288264,"53":-0.08413108719420412,"54":0.022274809089962384,"55":-0.2805596410499026,"56":-0.15769113568983523,"57":0.06803634009179048,"58":-0.019970382722206883,"59":-0.16651401878226432,"60":0.07874390621659394,"61":-0.08666473816541025,"62":-0.13161368889352715,"63":0.02585758132132032}},{"sx":1,"sy":1,"depth":64,"w":{"0":0.0768559022739509,"1":0.016116898052299582,"2":-0.04590097207565885,"3":0.0802400331546743,"4":-0.10119734319259777,"5":-0.029853148052463363,"6":-0.18618765920767494,"7":-0.004770099516299577,"8":-0.17617318755742128,"9":0.22665069933000795,"10":0.3313897287910261,"11":-0.04707068057555958,"12":0.18177088987112552,"13":-0.036728223127935236,"14":0.025923804367584753,"15":-0.12249859574743893,"16":-0.10336767041646808,"17":0.05758834694314675,"18":0.37017334443159916,"19":-0.108370112066671,"20":0.06076231493558528,"21":0.2783925164705664,"22":0.13960783591653458,"23":0.11215469702394021,"24":-0.06992095729435563,"25":-0.18718808565611658,"26":0.06821230975709157,"27":-0.030033683722437587,"28":-0.13331590859910758,"29":-0.06175853387992784,"30":-0.07679119734076582,"31":-0.06665358203143042,"32":0.07376851374111643,"33":0.06660924352530562,"34":-0.005510637226555898,"35":-0.1407222942596808,"36":-0.040400800808986545,"37":-0.10487469343630379,"38":-0.08609196061727394,"39":0.021167823914486246,"40":-0.036294852334368716,"41":-0.14722804474565743,"42":-0.06228017524199386,"43":0.09186773771247465,"44":0.1344017980323522,"45":-0.0912334687238386,"46":-0.17338402691678795,"47":-0.08225937334735811,"48":0.004869723054753134,"49":-0.12603425553212966,"50":-0.047241869842986166,"51":0.10894987192289118,"52":0.06798055658199198,"53":-0.06707969225597217,"54":0.14187066378298221,"55":-0.10081472486511607,"56":0.2008926672060488,"57":-0.0865263267320525,"58":0.1526166535355684,"59":0.1633489736747755,"60":-0.27669893729320766,"61":-0.10150055269053303,"62":-0.05482789927328015,"63":-0.09184257071125548}},{"sx":1,"sy":1,"depth":64,"w":{"0":0.049729454970508145,"1":-0.16404885453348775,"2":0.08905867922997476,"3":-0.05471048016803054,"4":-0.038891049620233945,"5":0.05487358673703335,"6":-0.04641228874713837,"7":-0.0962802293286459,"8":-0.30177800177818265,"9":0.08731619294804659,"10":-0.08452338503378137,"11":0.07406576460487518,"12":0.11412421036947878,"13":0.16380989236150253,"14":-0.15717243414882123,"15":-0.11271271937139075,"16":0.09406854172409619,"17":-0.10833728559897017,"18":0.04235374850834154,"19":0.042383009396183786,"20":-0.12345546327504839,"21":0.07943511879842126,"22":0.053254302348214905,"23":0.15232963224158597,"24":-0.19138234593317038,"25":-0.06028477068894489,"26":0.032202085173479694,"27":-0.0778690166191958,"28":-0.08089252545770338,"29":0.12164436056708354,"30":0.12410388903700954,"31":0.17871216303666662,"32":-0.3530701764650724,"33":0.19979389245475354,"34":0.020929733146014276,"35":-0.0433306824346113,"36":0.0846288232526834,"37":0.03630161608228166,"38":-0.1774265985341984,"39":0.06506432706340301,"40":-0.028096356658373362,"41":-0.03498994708034983,"42":-0.040008420402598145,"43":0.08486092062386938,"44":0.016432396948519577,"45":-0.07942769936212765,"46":-0.05512992517037926,"47":0.01930648396691144,"48":0.015114139967665896,"49":-0.3251403445665289,"50":0.011160516450076572,"51":0.11136987843846524,"52":-0.030838161112616877,"53":-0.1909035914908868,"54":-0.15590665613399862,"55":0.00017925068508733215,"56":0.05334108240728131,"57":-0.011731344128020979,"58":0.16391329023319118,"59":-0.15478406825948474,"60":0.06189038983147711,"61":-0.32235172364705783,"62":0.11182936446925351,"63":0.006944229338967472}},{"sx":1,"sy":1,"depth":64,"w":{"0":-0.028360584976216126,"1":-0.05469982704829057,"2":-0.01096358250952893,"3":0.015500653444423786,"4":0.04531931516580564,"5":0.03582025986648623,"6":0.08325262898629826,"7":-0.0018859285530128142,"8":-0.09050108252580966,"9":0.08207392533798694,"10":-0.027802194062544257,"11":-0.0781356946362947,"12":-0.038047210426652066,"13":-0.028624791197613502,"14":-0.08766628320325663,"15":0.10290989389474377,"16":0.18620335141758784,"17":-0.0510006414086934,"18":-0.10889128552590872,"19":-0.12628903462725827,"20":0.053788633515555996,"21":0.004574994827825889,"22":-0.14766551938274924,"23":0.09381814843472601,"24":0.10823970423676925,"25":0.03459440488352861,"26":-0.042080602596437984,"27":-0.08491605033971446,"28":-0.2029829795117117,"29":-0.045916087883770516,"30":-0.13090404719238607,"31":-0.036300412198723146,"32":0.2113751302693841,"33":-0.11394064871803601,"34":-0.08162098843893792,"35":0.13523019837555314,"36":0.011234026304548122,"37":0.05683539782753518,"38":-0.054777392019677185,"39":0.01725482991693195,"40":-0.043321378371047936,"41":-0.056947513789924166,"42":-0.0622272879891728,"43":0.16792272884492274,"44":0.03724006967215396,"45":0.15624040273437315,"46":0.0014213468857190823,"47":-0.13160280704919267,"48":-0.07779662151161941,"49":0.1949985076148197,"50":-0.20501851422328526,"51":-0.3092600808963769,"52":0.15335244521018096,"53":-0.01893879877730214,"54":-0.062163477130345555,"55":0.16026630455289495,"56":-0.06996142466429482,"57":-0.0673975644861895,"58":-0.010110836272388833,"59":-0.039498688805326275,"60":-0.08917663644785732,"61":-0.04049017510856338,"62":0.1386807353981265,"63":0.1414037890879548}},{"sx":1,"sy":1,"depth":64,"w":{"0":0.11471144605161458,"1":-0.09499136364793344,"2":-0.03686373606213987,"3":0.03620042823942853,"4":0.012770316280499024,"5":0.14650261085427885,"6":-0.213195788032513,"7":0.0468804507097807,"8":0.16437018683401097,"9":-0.046712593989458095,"10":0.15749765058413037,"11":0.11594240237261466,"12":-0.1519573621010398,"13":-0.08645318464411647,"14":0.19140983581507415,"15":-0.03779167950149264,"16":-0.01022664862535887,"17":0.1544347861018747,"18":0.08537813955691101,"19":-0.1738921290092236,"20":0.03643431805878672,"21":0.033867353567154465,"22":0.08570413189840541,"23":-0.08040875624898436,"24":-0.15442306872744357,"25":0.0970480866858556,"26":-0.09804351206775881,"27":0.15565052960661227,"28":-0.13555721291380946,"29":0.07479310066210179,"30":0.13702192873825952,"31":0.16044060017718442,"32":0.17962150496950433,"33":0.19865538250023962,"34":-0.0884044914121693,"35":0.13963729454313245,"36":0.08179814738963792,"37":0.08297199396629007,"38":-0.1917934136727804,"39":-0.0008125031487795491,"40":0.11629263716397759,"41":0.045864404375948166,"42":-0.29391791857925825,"43":-0.06535674950708625,"44":-0.05483686950130858,"45":-0.017038348086688408,"46":0.1247582453590315,"47":-0.14857391013174423,"48":-0.04961892926931225,"49":0.046440847428495774,"50":0.05258149185248902,"51":0.0018673449325933603,"52":-0.07180439415608582,"53":-0.07703453930121897,"54":-0.04505091501817227,"55":0.029524140031193597,"56":0.1892744433165162,"57":0.06231054013670552,"58":0.13145820820022566,"59":0.10746135471206562,"60":-0.008502671810179148,"61":-0.04305060883701951,"62":-0.12483297317014261,"63":-0.01057994477778035}},{"sx":1,"sy":1,"depth":64,"w":{"0":-0.10547253381850012,"1":0.16055069290515037,"2":-0.12107674628364427,"3":0.011555665223658196,"4":0.05784443948759218,"5":0.1983074359310895,"6":0.017742352952736535,"7":-0.14713883467419658,"8":-0.10324201765298689,"9":0.10044442688772597,"10":-0.08907676849293253,"11":0.061499810388246784,"12":-0.0994647150647482,"13":-0.09695981677249309,"14":-0.017351926296824863,"15":-0.29790996144439835,"16":0.038145720655785816,"17":0.15434586665339262,"18":0.01958830084042912,"19":-0.11832050150528532,"20":-0.03564719122445766,"21":0.004265089360813169,"22":0.04904797893679218,"23":-0.30275408787422237,"24":-0.14802476826563876,"25":-0.0723134403177278,"26":0.05335988992610066,"27":0.03259703534511063,"28":-0.03863795399642347,"29":-0.050820268892651836,"30":-0.1469147532475462,"31":-0.055112533927202424,"32":0.27718151191425733,"33":0.09501600979642505,"34":0.04593523434464771,"35":-0.02873162500956045,"36":-0.13843134374552116,"37":-0.04052839992361107,"38":0.03436964028707235,"39":-0.11600565841338294,"40":-0.04866108613047162,"41":0.12301158383788663,"42":-0.1674212705384229,"43":0.0975037146962915,"44":0.16802120770923093,"45":0.16587475326449672,"46":0.20707577463527874,"47":-0.039194508581365056,"48":-0.0262634578939277,"49":-0.11430169999240257,"50":-0.06460307127313843,"51":-0.0005032105539989508,"52":-0.20742155985640248,"53":-0.18273918643524,"54":-0.018168899632248384,"55":-0.16056714924598228,"56":0.1874818838363827,"57":-0.1507979207638463,"58":-0.37095588561123277,"59":-0.009850035687628652,"60":-0.12375635127859809,"61":0.006893667939551993,"62":-0.125684649378112,"63":-0.06706790695982356}},{"sx":1,"sy":1,"depth":64,"w":{"0":-0.17612616144584156,"1":0.05520397966870621,"2":0.0817429633291995,"3":0.11972664094951435,"4":0.012345566969716308,"5":0.29082835639586857,"6":0.10038967906769858,"7":-0.04263507181572311,"8":0.3912200260788318,"9":0.14443773971901674,"10":0.013813903615878339,"11":0.176922231640186,"12":-0.16468855456226544,"13":0.05595705089240171,"14":0.06724055540841445,"15":0.06345168069480808,"16":0.10557098912117524,"17":-0.060862966683476585,"18":0.14355324661898633,"19":0.08215593780573988,"20":-0.0916671073718436,"21":0.14934775090355332,"22":-0.19164138669340666,"23":0.00903756605197295,"24":0.03416871271800708,"25":-0.028208147253726015,"26":-0.08975182960654969,"27":-0.028524767185223586,"28":-0.11693687018218928,"29":-0.11017492155194979,"30":0.05256727212631354,"31":-0.33674919806415565,"32":0.05396823830438182,"33":0.02626664391745791,"34":0.08853081110556331,"35":0.07799216777287774,"36":-0.29298244204000207,"37":-0.10839821992656251,"38":-0.14920848544371,"39":0.1566847918078548,"40":-0.016104853925879528,"41":-0.031931362256379735,"42":0.09790112394288092,"43":0.05606171174220862,"44":0.22095389326481704,"45":0.11908873322732434,"46":0.09532123578840838,"47":-0.08078085425092939,"48":0.02592842170890862,"49":-0.046186134424122456,"50":0.024534633866669774,"51":-0.2352816384550379,"52":0.05535220411299652,"53":-0.202208897904793,"54":0.02873666413014726,"55":-0.09988513292846397,"56":-0.3578865727281814,"57":0.05913600451785672,"58":0.04242766966397055,"59":0.03279366247975271,"60":0.2618914044812104,"61":-0.1653766315110444,"62":-0.1269119382085235,"63":0.048649530910514015}},{"sx":1,"sy":1,"depth":64,"w":{"0":0.03966838799064411,"1":-0.014888193231798033,"2":0.1966294595206056,"3":-0.36595167394002803,"4":-0.027537180856163725,"5":0.032088504928991554,"6":0.15099103134540454,"7":-0.06719138223484773,"8":0.05423594039460325,"9":0.17110169196696043,"10":0.18660009872904493,"11":-0.0439938539060525,"12":0.00004994366701285509,"13":-0.06054976884949097,"14":-0.023754604421475672,"15":-0.05082718496737413,"16":0.00889471387493826,"17":-0.034662025819074585,"18":0.07532741248486316,"19":0.034734754603934166,"20":0.18878478140239352,"21":-0.04359922854563966,"22":-0.010409682729859294,"23":-0.11076889618743273,"24":0.09044283707716055,"25":0.07411718093389139,"26":-0.1016551233541824,"27":0.04763571668163375,"28":-0.030533073617746105,"29":-0.05910271849249953,"30":-0.08648296985309714,"31":0.20066822504354928,"32":-0.24704972097723005,"33":0.2379671492446591,"34":-0.09577151148005222,"35":0.21534494391762293,"36":-0.06481867104725784,"37":0.12316092813276645,"38":-0.0129456853560601,"39":0.05043705806225096,"40":0.12343464403097895,"41":-0.006186169255391241,"42":0.029738742086156556,"43":0.05385410329112199,"44":-0.11440849024895045,"45":0.1970183779655504,"46":-0.13686137098725878,"47":-0.0166581516806265,"48":0.10959450911735102,"49":-0.3335880054277573,"50":0.19110316165242155,"51":0.013816122064308276,"52":-0.03613483623484484,"53":-0.17668476257550794,"54":0.2914695950957838,"55":0.08971359029238346,"56":0.04547169444197993,"57":0.04151514816662768,"58":0.0929052551651168,"59":0.08582697387484302,"60":-0.120513100968215,"61":-0.11409997837954414,"62":0.0762497570021623,"63":-0.20934242827371313}},{"sx":1,"sy":1,"depth":64,"w":{"0":0.3206151044143883,"1":0.022487978016858992,"2":-0.21415714188921947,"3":-0.06133338181592266,"4":-0.06831318122601827,"5":-0.07568341261604081,"6":0.05418086909381687,"7":-0.22371211332907806,"8":0.1340500988791951,"9":-0.12036484003611427,"10":0.1415109295300335,"11":-0.16505204930077708,"12":-0.08101224700597409,"13":0.014302506180430807,"14":-0.07303344582470829,"15":-0.21277825817874313,"16":-0.018145151129122662,"17":0.030328283164197514,"18":0.08930493887413427,"19":0.1375605465744566,"20":0.01679199305224281,"21":-0.05562056147456868,"22":0.10252536935406044,"23":-0.050170303439446125,"24":-0.2426992560407222,"25":-0.2184142419961684,"26":-0.08413102872239271,"27":-0.06042974830199228,"28":0.03577103205949172,"29":-0.06336148926334333,"30":0.000012259831256159068,"31":0.05609883567049336,"32":0.12226544645988326,"33":-0.09378045907773713,"34":-0.03224141994870645,"35":-0.07972915194372474,"36":0.03349597373968342,"37":0.044742634765326285,"38":0.030214819956129478,"39":0.033870394175967794,"40":0.041139249849956,"41":-0.27685989382194687,"42":0.2629434769781233,"43":0.008916778358142849,"44":0.13707076180625818,"45":0.37332176670521183,"46":0.06555521069747651,"47":-0.21530161977479625,"48":0.05496292341210774,"49":0.16585897291819413,"50":0.05286931435973583,"51":-0.2518398322205774,"52":0.019734672059161937,"53":0.012958315675512571,"54":-0.0010428251384469987,"55":0.12969413907778435,"56":0.00675860549747173,"57":-0.09684540728356462,"58":-0.21135881073246893,"59":-0.16429647047443405,"60":-0.26811865628931486,"61":-0.19381606375649657,"62":-0.16286282826235512,"63":0.1172553951799483}},{"sx":1,"sy":1,"depth":64,"w":{"0":0.14574834194095845,"1":0.027097929966961216,"2":-0.02413100742743574,"3":0.09263644567206017,"4":-0.062434481234842694,"5":-0.050200818518274806,"6":-0.1503576560432221,"7":-0.03755214009476664,"8":-0.13114837767670384,"9":0.012687358118530638,"10":-0.04918793245779952,"11":-0.1664491964324651,"12":-0.00036455974589413094,"13":0.21223806715004842,"14":-0.06907634705272936,"15":0.13587578481226795,"16":0.06565311066712796,"17":-0.39328992662446655,"18":-0.12383570534322985,"19":0.09415552165320147,"20":-0.11522931501328978,"21":0.11026862042798834,"22":0.08340531284300233,"23":0.07488443507546298,"24":-0.020622003648927297,"25":0.046811816312485995,"26":0.10065943077588337,"27":-0.024913915108606553,"28":-0.02307296554804132,"29":-0.14124002691634147,"30":-0.14897509529235098,"31":-0.0342923346527547,"32":0.012232118123628311,"33":-0.08690787209863146,"34":-0.013112519765031826,"35":0.012449754236335596,"36":0.09256732296881108,"37":0.024312644519846778,"38":0.1448075388369965,"39":-0.005944698257858645,"40":0.12868030968710806,"41":-0.02873108679907534,"42":-0.18073727894700942,"43":0.21297116979365702,"44":-0.09475731333407127,"45":0.025546361958955245,"46":0.14670944024734,"47":-0.08383600097138137,"48":0.01946037859054365,"49":-0.059161088126991335,"50":-0.0012255679534272119,"51":0.01824758153981587,"52":-0.0409102536090804,"53":0.2272336882076992,"54":0.04782864195135674,"55":0.17804497476883854,"56":0.04755172151949062,"57":-0.056295585908581525,"58":0.008633533003792984,"59":-0.029201801400270563,"60":-0.052853744170460744,"61":0.03210598230312778,"62":0.22248410324863305,"63":-0.018860377209922785}},{"sx":1,"sy":1,"depth":64,"w":{"0":-0.21553619325643625,"1":0.04489064305227701,"2":0.1219820511028049,"3":-0.07302104765185932,"4":-0.02623329603500852,"5":0.11151759782123205,"6":-0.03392761678878753,"7":-0.2029315376508866,"8":-0.0018022313744123764,"9":-0.11805493637282855,"10":0.1314701830519463,"11":0.13639405278546576,"12":-0.09250495427546639,"13":0.12945465141373452,"14":0.04394172157249874,"15":0.10982020730118423,"16":-0.11362067326083183,"17":0.06126826405284682,"18":0.018742821827700387,"19":-0.029643611068038454,"20":-0.08160846486430184,"21":0.05714390364508797,"22":0.017078535770260393,"23":-0.014522846159083207,"24":-0.051778196850977815,"25":-0.07540499676167127,"26":-0.2053421810404903,"27":-0.1061341063740857,"28":0.005570199503311222,"29":0.02839719990864368,"30":0.016146294452516325,"31":-0.01159685273388347,"32":0.2115372045163672,"33":0.13242833348950842,"34":-0.07841405285236194,"35":-0.08764862843443667,"36":0.031843865592767126,"37":0.11556017819419269,"38":0.01186551904845286,"39":-0.2655297180071152,"40":0.04467526499285742,"41":0.21555939383435255,"42":0.24335616795352466,"43":-0.24553200222311947,"44":0.0530423526270392,"45":-0.1406718580195689,"46":-0.0023196619722345457,"47":0.20887863502733792,"48":-0.024371850716403104,"49":-0.04567292181794852,"50":0.310811837487591,"51":-0.1523767315305111,"52":0.056755800357633265,"53":0.14872376487896807,"54":0.0031162226069835113,"55":0.3104111744074699,"56":-0.1522652865779043,"57":-0.045056832369220264,"58":-0.06369502389463096,"59":-0.06307190741803234,"60":0.15117329493651147,"61":0.10257773215571109,"62":0.16477304245372315,"63":-0.09439520230477826}},{"sx":1,"sy":1,"depth":64,"w":{"0":-0.024754019763979986,"1":0.04771923099486362,"2":-0.12748506920090985,"3":0.07508390186791945,"4":0.005577008535921183,"5":0.03812681610245073,"6":-0.09805265126576931,"7":0.07804086545357636,"8":-0.021921674163363703,"9":-0.2078685762321662,"10":0.12439073954178857,"11":-0.05412976736118577,"12":0.065159975611761,"13":0.16599441516424523,"14":-0.07093562702282533,"15":0.0787128264821414,"16":-0.28997286799792443,"17":0.1368616025269954,"18":0.004449291024065132,"19":0.14686145324692643,"20":0.17293853625734945,"21":0.12694352312770105,"22":-0.021149954592629343,"23":-0.14130390623675887,"24":0.05781237921536935,"25":-0.06237318164871866,"26":0.09303903189723034,"27":0.0494371928197855,"28":0.21721872980385837,"29":-0.07883284824505389,"30":0.008085099795098107,"31":-0.027344620605877994,"32":0.2582635413885755,"33":-0.2886807064899902,"34":-0.18120113198159638,"35":0.12899060540610296,"36":0.07476069877437257,"37":-0.050555103505407296,"38":-0.05650452872064877,"39":-0.04510260105193236,"40":-0.07376601272583871,"41":-0.053359479820705026,"42":-0.19198540041610748,"43":-0.10446835896626662,"44":-0.018727609839672817,"45":-0.01961257530522463,"46":0.2809355433318837,"47":-0.17389526799058472,"48":0.04168258927012014,"49":0.12842388682016592,"50":0.20083607878221435,"51":-0.06374104427879117,"52":-0.2572588866990357,"53":0.003174103754591284,"54":0.008798321393622915,"55":-0.03890597264029523,"56":-0.06922496338731488,"57":0.12015243305844729,"58":-0.051509678274207896,"59":0.14931607522652754,"60":-0.06747349473870992,"61":0.0015426560843265862,"62":0.15013394933870133,"63":0.002776401838929857}},{"sx":1,"sy":1,"depth":64,"w":{"0":-0.03165981283951689,"1":0.2068767607824735,"2":0.06677224358498224,"3":0.18688331948300918,"4":-0.11674912699036795,"5":0.10842101091711277,"6":-0.09250137679064682,"7":-0.05314943723350688,"8":0.02383150249845537,"9":-0.12526144852003396,"10":0.006222998843765116,"11":-0.10239477478219769,"12":-0.25049212754027594,"13":0.033131132220169994,"14":-0.028619295692073318,"15":0.08651551717162591,"16":0.1594844145917316,"17":0.10208528541392306,"18":0.047164898479424316,"19":0.005118206260279909,"20":0.0005972053749347571,"21":-0.056240637216971825,"22":-0.028625153887702814,"23":0.015505756396177591,"24":-0.022768764094154764,"25":-0.1715229274458458,"26":0.2767035332961758,"27":0.006014090187159326,"28":0.03337777682844508,"29":0.18298496288358462,"30":-0.05670896720440571,"31":0.008269642530495199,"32":-0.054616178080617826,"33":-0.06982346873831134,"34":-0.2589323268303229,"35":0.1434765008648511,"36":0.1719024951978614,"37":0.007213297968272159,"38":0.077865074334844,"39":-0.11120424362935478,"40":0.0830196154916359,"41":-0.031268510667343895,"42":0.21806241826574127,"43":0.06312408348518367,"44":-0.10341347327449828,"45":0.25545220007052416,"46":-0.11598254847962843,"47":-0.2035879362876285,"48":0.056557822988660356,"49":-0.02656086402687062,"50":0.10734074252272703,"51":-0.009781921973265119,"52":0.04880912187692145,"53":-0.2493744373479479,"54":0.05290847561896694,"55":0.08735961109658381,"56":-0.25066003209185567,"57":0.07426120936687691,"58":0.43031526697164363,"59":-0.3218154916897618,"60":-0.024700728510294933,"61":-0.014079492550612704,"62":-0.07670219429962502,"63":0.1363074928684154}},{"sx":1,"sy":1,"depth":64,"w":{"0":0.058353542164223664,"1":-0.16851431747324253,"2":0.0644905395643118,"3":0.050458577495363754,"4":0.18113371045746485,"5":-0.127119031437772,"6":-0.14099701429544526,"7":0.03871466857363851,"8":-0.006518326229585897,"9":0.0696841399591955,"10":-0.08279944635742885,"11":0.008812420786086173,"12":-0.031824635873201404,"13":0.13161528521100202,"14":0.20375907654383987,"15":0.1834002501788302,"16":0.1896785353308646,"17":-0.20187906124994923,"18":-0.08595272764660561,"19":-0.09736202534776184,"20":0.1732452719243604,"21":-0.10180964196034334,"22":-0.02039732856949035,"23":-0.22126411322912592,"24":-0.18276903934193536,"25":-0.05931232860048612,"26":-0.06671213820287981,"27":0.307275687837951,"28":0.12422018342407923,"29":-0.09128270323821709,"30":0.15215197266505315,"31":0.11901966961259848,"32":-0.06226084398018832,"33":-0.04016113707077279,"34":0.0618639507617277,"35":0.09270478842384708,"36":0.11733099592321676,"37":-0.05168106696411242,"38":-0.13021917024463278,"39":0.23125504399547012,"40":-0.06996198439481556,"41":0.026733493079139213,"42":0.07485521186693733,"43":-0.12037423457175912,"44":-0.1592721976679867,"45":0.01071867442764369,"46":0.04357387442574847,"47":-0.07254575627359651,"48":0.07418891899326542,"49":-0.22880178584252583,"50":0.03624433204507263,"51":0.05783228380275805,"52":-0.03847586593594087,"53":0.09082654970242436,"54":0.13104463026412913,"55":0.020124760310667806,"56":0.04844723741290293,"57":-0.033057132322985475,"58":-0.021963053318874146,"59":0.12693850057109654,"60":-0.1332628058338021,"61":0.1571498104064778,"62":-0.10378844559461838,"63":0.05159301396586439}},{"sx":1,"sy":1,"depth":64,"w":{"0":-0.13328519087862445,"1":-0.28521709150042385,"2":-0.130255805911089,"3":-0.04232859570497555,"4":0.09663935001507283,"5":-0.06793637060210465,"6":0.029582926217857956,"7":-0.2557073334918722,"8":-0.08505624908513383,"9":-0.01573389746759419,"10":0.03544663714268712,"11":0.1405593486481015,"12":0.22328537139835938,"13":0.04687543026176288,"14":-0.21476599612726144,"15":-0.04442555637376297,"16":0.15807546848610862,"17":-0.1816101722506225,"18":0.05332598137760081,"19":0.14055581311826038,"20":-0.19192883532444846,"21":-0.0945717756233721,"22":0.07272133734661285,"23":-0.09928741378468672,"24":-0.022239738407698707,"25":0.04912548146083538,"26":-0.021793456485790057,"27":0.04687514809951104,"28":-0.011929887120816414,"29":0.12479467408632823,"30":-0.1285083186871631,"31":0.004542156980718075,"32":-0.020206569154187056,"33":-0.14963814653528812,"34":-0.22089639594677055,"35":-0.19587808373325308,"36":0.18958369294545188,"37":-0.005085428728851404,"38":-0.16672514465085148,"39":0.12700758782720967,"40":-0.050476690028105266,"41":0.0792351295286965,"42":-0.006721673737995775,"43":0.015581120317845627,"44":0.06844812956898882,"45":-0.06907619166774713,"46":0.13749574785736202,"47":-0.06924670147675373,"48":-0.23766388375531722,"49":0.14502925863475916,"50":0.015480025804003737,"51":0.06591013853062985,"52":0.016686556380697153,"53":0.0016101673036946315,"54":0.15192514859100223,