{"layers":[{"out_depth":36,"out_sx":1,"out_sy":1,"layer_type":"input"},{"out_depth":64,"out_sx":1,"out_sy":1,"layer_type":"fc","num_inputs":36,"l1_decay_mul":0,"l2_decay_mul":1,"filters":[{"sx":1,"sy":1,"depth":36,"w":{"0":0.08723940492598403,"1":-0.11530927628609632,"2":-0.05581234443593969,"3":0.0677645433472387,"4":0.11953779685119408,"5":-0.0693094291625729,"6":-0.6186584016777578,"7":-0.012490385269773314,"8":-0.0969282012161696,"9":-0.04641087656487262,"10":0.046494355089241664,"11":0.028634596906814955,"12":0.19635971701363436,"13":0.2053961334849268,"14":-0.1121587861476543,"15":0.09527575024384502,"16":-0.5157308401311579,"17":-0.15348244174679004,"18":-0.0021294428364490533,"19":-0.0018655502903988058,"20":-0.07673187368218465,"21":-0.3009486876826695,"22":-0.3219017945006175,"23":0.004910207334098228,"24":0.06262637192316865,"25":-0.30026106664602215,"26":-0.25184557342033553,"27":0.1790347414358262,"28":-0.46327769018658527,"29":0.0037573314993172525,"30":-0.10411700236656313,"31":-0.10776122551665719,"32":-0.17310844788905708,"33":-0.03872815597919858,"34":-0.23822598522902208,"35":-0.18356187994488085}},{"sx":1,"sy":1,"depth":36,"w":{"0":-0.04857454841834823,"1":-0.13335293470778242,"2":0.03688683413389384,"3":-0.05628833071467554,"4":0.011653688421943868,"5":0.2495516188273101,"6":0.7026508527996785,"7":0.17766786876185223,"8":0.2697557552747647,"9":0.09885489032539177,"10":-0.21229023455952653,"11":0.2404117382565435,"12":0.027419443889186546,"13":0.25597987598339716,"14":0.33916716444742306,"15":0.20703700581497048,"16":0.16880969667535156,"17":0.1347777989555897,"18":0.18763996190226945,"19":0.15869313895929002,"20":-0.15430696846721642,"21":0.3621113092863385,"22":0.22857502882104544,"23":0.02624142815862244,"24":-0.276461485107973,"25":0.13847754144174634,"26":0.4192568324357403,"27":-0.0752049413970795,"28":0.12567769097104126,"29":0.2543899443405015,"30":0.09152704418828628,"31":0.2313272034807829,"32":0.1798279426518321,"33":-0.21647357436256243,"34":0.09413539557512961,"35":0.3814574146585496}},{"sx":1,"sy":1,"depth":36,"w":{"0":-0.6126293429421266,"1":-0.04037278125213973,"2":-0.08816864852808814,"3":0.021374335515894117,"4":-0.25599185471944785,"5":0.1610599641847924,"6":-0.04002878873269174,"7":-0.05380156671239429,"8":-0.17460275020791619,"9":-0.4474098442061582,"10":0.4300970247702177,"11":0.31102476431005277,"12":-0.057946508128475634,"13":-0.640389966070914,"14":-0.2254165665401833,"15":0.25476511134188945,"16":-0.14869725922076749,"17":-0.09680267963643516,"18":0.12655914372507665,"19":-0.14719664430934812,"20":-0.0711823825032032,"21":-0.142383058767407,"22":-0.2023982669276225,"23":-0.46312226342876744,"24":0.004688176305818078,"25":-0.21176383564701598,"26":0.5858239032343239,"27":0.5731637451382046,"28":0.06407128645437456,"29":-0.07870118808640174,"30":-0.02185328685453529,"31":0.03621380503952456,"32":-0.3388192981776261,"33":0.010586811245793476,"34":-0.2383343635969389,"35":-0.3055450439378874}},{"sx":1,"sy":1,"depth":36,"w":{"0":0.20748178220261548,"1":-0.41626518912851196,"2":-0.25211724818537695,"3":-0.024050652074117357,"4":-0.12269191157364556,"5":-0.12027121678675842,"6":-1.1815509978564134,"7":0.2013995114801355,"8":0.09456441635308466,"9":-0.9709993591434393,"10":-0.10697443053830455,"11":-0.3068520887043891,"12":0.07880487702081734,"13":0.08759571497955837,"14":0.013065380400192826,"15":-0.0015064147677536302,"16":-0.0639748774420781,"17":-0.13847166000516184,"18":-0.23684523095116486,"19":0.07077185773743443,"20":-0.14947441053367255,"21":-0.2839250557258141,"22":-1.0579628567773522,"23":-0.014194682978871147,"24":-0.42175883727058266,"25":-0.15365502913651483,"26":-0.26255924032807165,"27":-0.08587412032330594,"28":0.1479858109503445,"29":0.1357964145425699,"30":-0.19945389699190844,"31":-0.015251722560806145,"32":-0.28212561697284627,"33":-0.02704836660446338,"34":-0.3125083624476919,"35":-0.1910962715107163}},{"sx":1,"sy":1,"depth":36,"w":{"0":0.01760772688183628,"1":-0.2756361852717425,"2":0.06840875294986437,"3":-0.16870184366268443,"4":-0.46787297476084716,"5":-0.1758647340898029,"6":-0.1117293252534781,"7":0.0554673104915336,"8":0.5710575132215542,"9":-0.03381892235646596,"10":0.027065679443037945,"11":0.03963962676700935,"12":-0.00939784869329123,"13":0.1720988683145889,"14":-0.03483163655297242,"15":-0.05076991103190025,"16":0.19803476678648152,"17":0.08723973761667045,"18":-0.23440071333692017,"19":-0.14646773371459934,"20":-0.3182680921757923,"21":-0.34012231351259403,"22":-0.31716364733449204,"23":0.0315330289617669,"24":0.06260525098521089,"25":-0.0093853202273804,"26":-0.17659295181606072,"27":0.20081444368721074,"28":0.004293201873444032,"29":0.19996473923697006,"30":-0.20069000510943938,"31":0.24494540319193034,"32":0.18438271536025339,"33":0.18460990545482123,"34":-0.22980415867768159,"35":0.2035313364044787}},{"sx":1,"sy":1,"depth":36,"w":{"0":-0.3424389099746792,"1":-0.1958905266037505,"2":-0.23260916507244042,"3":0.2600344601092921,"4":-0.21647293402249623,"5":-0.004500342027111786,"6":0.0952049204730547,"7":-0.03380891770262571,"8":0.1503167388113078,"9":-0.28429331526858614,"10":-0.06115030658937335,"11":-0.005071553537142726,"12":0.026165053910582468,"13":-0.04747390271358103,"14":-0.13999138593140553,"15":0.12888125953207444,"16":-0.2532992905234246,"17":-0.048803748931188586,"18":-0.27817901088977126,"19":0.3051067899942223,"20":0.1708090441636904,"21":-0.25358707393560054,"22":-0.2887884990908658,"23":-0.16334200073587044,"24":-0.28185141491153276,"25":-0.062475154154845176,"26":-0.0278420307295212,"27":-0.16592571402844306,"28":0.08172923678625159,"29":0.014479325383349305,"30":0.27605790593307056,"31":-0.05174834836208039,"32":0.13577645647621714,"33":-0.1731723823000347,"34":-0.13942965444922775,"35":-0.14057937460734157}},{"sx":1,"sy":1,"depth":36,"w":{"0":-0.17143912451298016,"1":-0.2716371078852839,"2":0.10225810014205168,"3":-0.12442875336228683,"4":-0.3245273367470529,"5":-0.013457691462348492,"6":-0.37716612220248097,"7":-0.28382185373466,"8":-0.008443126562807823,"9":-0.11644453590879307,"10":-0.1591679040928342,"11":0.1320780161035918,"12":0.16598012504760687,"13":-0.09362266754083631,"14":-0.2461416351604503,"15":0.2065986843764038,"16":-0.010572529805546555,"17":-0.002338633968167372,"18":-0.2296441596706579,"19":0.12029122909625378,"20":0.0009653500345215152,"21":-0.016358253396016754,"22":0.012851966761060651,"23":-0.022139994171652383,"24":0.06685932640780283,"25":-0.0473203657064972,"26":-0.11578691870888921,"27":-0.07470407925770675,"28":-0.195965329211883,"29":0.05008386722115308,"30":0.09427528415585948,"31":-0.012988278406903938,"32":0.024438361154081902,"33":0.03061536169130566,"34":-0.07663086280719866,"35":0.04881597108720318}},{"sx":1,"sy":1,"depth":36,"w":{"0":-0.025020535154300465,"1":0.09326592875139678,"2":-0.3200841653931152,"3":-0.04477236638011574,"4":0.12048103426504317,"5":-0.042993277873957444,"6":-0.13139757608273891,"7":-0.29133168106944646,"8":0.003197415843814326,"9":0.0907652606589781,"10":-0.022489006321521215,"11":-0.1511053303603749,"12":-0.22725993922989998,"13":-0.18019753741799838,"14":-0.04167320081217522,"15":-0.1742179339501124,"16":-0.09250987148917565,"17":0.34947007060132396,"18":-0.22117510471500318,"19":0.12923861061016867,"20":0.03138255955329019,"21":-0.3841860782597406,"22":-0.2960850742363058,"23":-0.005152378224593084,"24":-0.043162049274649776,"25":0.00010193404368101218,"26":-0.270058762845994,"27":0.052304270356549824,"28":-0.23581154020180473,"29":-0.033708500863845164,"30":0.30357649340651144,"31":-0.10695868594653607,"32":-0.09194978193581459,"33":-0.4699537378877892,"34":-0.3131202776455284,"35":0.004421096416197993}},{"sx":1,"sy":1,"depth":36,"w":{"0":0.35025773034055796,"1":0.0020796815327977095,"2":0.2943224516864503,"3":0.13114304026381066,"4":0.7464745649085432,"5":0.24850774228616265,"6":0.26824152359073794,"7":-0.06285210464919595,"8":0.2295594186780535,"9":0.6400702372060603,"10":0.16406853293830176,"11":-0.27113434336198333,"12":0.3139241255481062,"13":-0.08060266671570689,"14":0.02294724137361356,"15":-0.11977833408109337,"16":0.07979436225463701,"17":0.35799872580280523,"18":0.21306480803463831,"19":0.13021636647881815,"20":0.6701779241329441,"21":0.22923924611361884,"22":-0.10444731359589737,"23":-0.005088065770303862,"24":0.20644936237061384,"25":0.36655780206787764,"26":0.7292356761950041,"27":-0.13762488403474896,"28":0.14388565748866097,"29":0.09706372887481664,"30":0.22248032330689982,"31":0.17654158192664787,"32":0.7413851555172205,"33":0.20477182835299176,"34":-0.1472426290591934,"35":0.4135782679325449}},{"sx":1,"sy":1,"depth":36,"w":{"0":0.13087803966555153,"1":0.07381981083860344,"2":0.12227157714928989,"3":-0.025497437154870545,"4":-0.2942503971209411,"5":-0.1339720182195748,"6":0.010995018403268518,"7":-0.01331288057579717,"8":0.1034131947722133,"9":0.029716686957739158,"10":-0.1440803849235044,"11":-0.12703746865710958,"12":-0.03689035418089437,"13":-0.2436488833727047,"14":-0.0004318438335722155,"15":0.07239076591898486,"16":-0.1770996559635712,"17":-0.03996286787902463,"18":0.17598833831806435,"19":0.0711408159291311,"20":0.3084613435080787,"21":-0.34529567172351167,"22":0.20720494378887105,"23":-0.0668616910325049,"24":-0.09525284323446628,"25":0.18496532896044518,"26":-0.13898836666358924,"27":0.14085552514253535,"28":-0.32254444232317037,"29":0.016158644194044766,"30":-0.06325831372390932,"31":-0.3308528667374341,"32":-0.05803316309854689,"33":-0.17777082368150782,"34":0.1204012370949318,"35":0.064013659762462}},{"sx":1,"sy":1,"depth":36,"w":{"0":-0.007021916205635765,"1":0.18259194579000887,"2":0.1588987358754242,"3":0.04875787599446242,"4":-0.46141640081791774,"5":-0.8048594297657762,"6":0.30544681484056746,"7":0.08265078409930623,"8":-0.2352576843244498,"9":0.12979991807876842,"10":-0.44911836949790684,"11":0.35197657744318833,"12":-0.3636562239637479,"13":-0.42524022253505883,"14":0.1434948691620587,"15":0.23226384538697176,"16":0.22081797526966543,"17":-0.0567922715132155,"18":-0.3405055742927042,"19":-0.05850593728798369,"20":-0.28320416448377206,"21":-0.6455986368410936,"22":0.18093650142303833,"23":-0.05069762233280468,"24":-0.014521605512446877,"25":-0.09064142105702527,"26":-0.3384920661581316,"27":-0.25856181437888714,"28":-0.030825174766005978,"29":0.15927744148030232,"30":0.17844658191761864,"31":-0.3201634195744883,"32":0.13073116738506046,"33":0.0037812351492365194,"34":-0.20159073012029252,"35":0.24921679358753768}},{"sx":1,"sy":1,"depth":36,"w":{"0":-0.17717923807909153,"1":0.15918816551248668,"2":0.12443733139259798,"3":0.04804489770367636,"4":-0.04773730115785245,"5":-0.19409087824671334,"6":-0.2470880005926827,"7":0.1373585402095654,"8":-0.005523537439145564,"9":0.047019808343181375,"10":0.08408977535684126,"11":-0.3312268325274936,"12":0.25015658430042237,"13":0.04750987923910588,"14":-0.03210964342615363,"15":0.03386898894860773,"16":0.06041545227297685,"17":-0.15880417553977436,"18":0.040583120353325064,"19":0.24422556613378069,"20":0.0033424058986334802,"21":0.0003787011448005862,"22":-0.519590589960591,"23":-0.09176869784873763,"24":-0.07710656579170529,"25":-0.11502211487763779,"26":-0.465510008645791,"27":-0.21938737849785658,"28":-0.10184234605405297,"29":-0.2099193753850367,"30":-0.07061119007439277,"31":-0.18805881505198974,"32":-0.0588883176272546,"33":0.11241455815487682,"34":-0.16172153601962128,"35":0.048939909235849684}},{"sx":1,"sy":1,"depth":36,"w":{"0":0.15621751227026856,"1":-0.15645188051635717,"2":-0.22698535244672996,"3":0.19105824514619196,"4":-0.15952310769468614,"5":-0.1362534400310392,"6":-0.02311833139923392,"7":-0.18956772544602488,"8":-0.2578399411208113,"9":0.02459005505231902,"10":-0.33811328831420706,"11":-0.0499379558589509,"12":0.07803127500777293,"13":-0.0550300520583889,"14":-0.02999717923409657,"15":-0.3646543994621511,"16":-0.03270539872438432,"17":0.014861256968395124,"18":0.23691985826615988,"19":-0.13982744091336421,"20":0.09014075997603845,"21":-0.213446267509574,"22":-0.3512185093701112,"23":-0.0561342923743046,"24":0.10044070992100881,"25":0.048402006715478126,"26":0.30797124726547104,"27":-0.28310684620644405,"28":0.29893351646431965,"29":-0.14337986504786487,"30":-0.0479982487864237,"31":0.12196225692071863,"32":0.03637029032199237,"33":-0.22462468026791904,"34":0.06624443721489616,"35":-0.016530659369056254}},{"sx":1,"sy":1,"depth":36,"w":{"0":-0.08113993879182373,"1":0.010279205661734233,"2":-0.1622776860521976,"3":-0.009942649534278149,"4":-0.0011279102195727918,"5":-0.02168338804679965,"6":-0.1912840094049716,"7":0.04514681674844686,"8":-0.2103184844170527,"9":-0.034923795744086106,"10":-0.15733498915196248,"11":-0.30193344763531726,"12":-0.07949458337087624,"13":-0.19699173893123426,"14":0.006562060373827589,"15":0.1253417086332292,"16":-0.059558450389677435,"17":0.19685591463505303,"18":-0.489903459672095,"19":-0.10131018210687233,"20":-0.1241433019130231,"21":0.014183724502860406,"22":-0.19568572348805122,"23":-0.043410391632510086,"24":-0.16609969806715533,"25":-0.20213669717794477,"26":-0.11626108980353594,"27":-0.21889948922736246,"28":0.1394064327492522,"29":0.23082995254992097,"30":0.012156678532481683,"31":0.041359401202816296,"32":-0.3534338447783905,"33":-0.1607687738900899,"34":0.16395206352675312,"35":0.10949780405266826}},{"sx":1,"sy":1,"depth":36,"w":{"0":0.31709607451662253,"1":-0.03696939848198541,"2":-0.04368172405129104,"3":-0.012531018974307303,"4":-0.030630396481256553,"5":-0.06341575686640759,"6":0.03884984840784309,"7":0.1853172048996769,"8":0.1751727779076253,"9":-0.09780539710487335,"10":-0.07401124935329638,"11":-0.05691830583598579,"12":-0.00442527373212873,"13":0.25603660502271813,"14":0.1399517411336943,"15":0.0011748007109896657,"16":-0.08617577475217465,"17":0.007620687567402519,"18":-0.2564076970418327,"19":-0.062224459711496864,"20":-0.12973413870882405,"21":-0.06245022137562885,"22":-0.26676734984434886,"23":0.04452127783123383,"24":0.09234624416180688,"25":-0.09729805563062092,"26":-0.38558498107716177,"27":-0.19831960825076977,"28":0.17114507513465746,"29":0.11330298723078655,"30":-0.10813356695751962,"31":-0.18685253794480364,"32":-0.28293583536124045,"33":0.026163726202464564,"34":0.011742706315279188,"35":-0.20637854544674605}},{"sx":1,"sy":1,"depth":36,"w":{"0":0.14721806659689937,"1":-0.18754091492219174,"2":0.2503058568399752,"3":-0.3446243341690342,"4":-0.037450801610896485,"5":0.1491010754666249,"6":-0.18900321660344319,"7":0.14273073202421258,"8":0.19817809355202762,"9":-0.12211734731002921,"10":-0.3330824078713453,"11":-0.08017908822949851,"12":0.3071955415278726,"13":-0.31851071114540996,"14":-0.3069546321522479,"15":0.0012083835313153437,"16":0.16760794535714044,"17":-0.04296813005315355,"18":-0.2788069463449382,"19":-0.3326612400253264,"20":-0.013925501439123867,"21":-0.06280431299514153,"22":-0.22263040568645742,"23":-0.1250118414550641,"24":-0.060526707412638825,"25":-0.2538189233072204,"26":-0.09101720699914155,"27":-0.07590637494394285,"28":-0.014108872539389857,"29":-0.03557302237153191,"30":-0.1623322821577543,"31":-0.08392014465363415,"32":0.04020956250319763,"33":-0.08306977227858744,"34":0.39157923977112497,"35":-0.02320537428236571}},{"sx":1,"sy":1,"depth":36,"w":{"0":0.27355345476344173,"1":-0.05745309439958535,"2":0.22434775700141502,"3":-0.17433182046071402,"4":0.03893581711514604,"5":-0.20720563822524563,"6":-0.06342885062571357,"7":0.16990273927106295,"8":0.03785771939390599,"9":-0.00016745619188862366,"10":-0.0984981950694274,"11":-0.034843981209553905,"12":0.2815031300847961,"13":-0.013435085092996148,"14":0.09819762226747494,"15":0.05466469223409003,"16":-0.12229599408952103,"17":0.07102767853570398,"18":-0.15036878330827144,"19":-0.15826277547492495,"20":-0.18005337766076884,"21":-0.03509019270470848,"22":-0.25087008596647936,"23":-0.20123883360899253,"24":0.1194599024356626,"25":-0.31713965898360097,"26":-0.21241634460610948,"27":-0.019939950294676115,"28":-0.013609682060733054,"29":-0.1667938470274729,"30":0.16036373904247142,"31":-0.11850527152798415,"32":0.2863929648745782,"33":0.44192327639900497,"34":0.44351322398447685,"35":-0.12274140610024611}},{"sx":1,"sy":1,"depth":36,"w":{"0":0.08546985323436626,"1":-0.10645018840814864,"2":0.009664645055276595,"3":-0.09404233381692931,"4":0.292978330154992,"5":0.02478695727826791,"6":-0.2646534282022177,"7":0.1164840148775545,"8":-0.06599292471368706,"9":0.09914345871532938,"10":0.012721787830292437,"11":0.04131418512450638,"12":-0.0007160170346233422,"13":-0.16210729504971813,"14":0.046660308184859924,"15":0.13366050330650084,"16":0.25840643102344085,"17":-0.3130017869525882,"18":0.023172069639380892,"19":-0.11386780572005194,"20":-0.28572951085539494,"21":-0.1988717285248497,"22":0.021553337870807265,"23":-0.2770671619122284,"24":-0.07170744923494048,"25":0.0764365608255538,"26":0.34574738519851844,"27":0.03254191783911523,"28":-0.21215520495913798,"29":0.04943821371314743,"30":-0.4140026235127373,"31":0.24195788356362458,"32":-0.01987394049042437,"33":-0.1968983560771151,"34":0.04471221808630271,"35":-0.1074323722488781}},{"sx":1,"sy":1,"depth":36,"w":{"0":-0.09231703682904462,"1":-0.4647295929069083,"2":0.253211593387541,"3":-0.30207874132232976,"4":-0.18926433008676424,"5":1.061665856880103,"6":0.03761705073182542,"7":0.019983281789533684,"8":-0.1767810018836801,"9":-0.3864416946195953,"10":0.824774749006742,"11":-0.10971732464109366,"12":0.014316638209913505,"13":0.5392063797025503,"14":-0.14688951065106895,"15":-0.10630545005773537,"16":-0.492916975130281,"17":-0.08646069061105632,"18":-0.05624139038342818,"19":-0.3112394921869964,"20":-0.4675150018019726,"21":0.7430390605381674,"22":0.04277848808277935,"23":0.17885740428232338,"24":0.1289891517711222,"25":0.15246349098037884,"26":0.30718225360553764,"27":0.004472897670205842,"28":-0.2751680010985969,"29":0.1770024678587247,"30":-0.09074738338758173,"31":-0.012684000029518604,"32":-0.29806837041067114,"33":-0.38424718752147097,"34":0.030520704789360375,"35":-0.4716566838153081}},{"sx":1,"sy":1,"depth":36,"w":{"0":0.02490907712456008,"1":-0.235161416808265,"2":-0.303802966247615,"3":0.044726496303540704,"4":0.015046383196454597,"5":-0.25222064538245453,"6":-0.2605031970316024,"7":0.39588693698468547,"8":0.3207857123145891,"9":-0.19733905565813095,"10":0.0033672468511986623,"11":0.056752941288883335,"12":-0.14044630425561247,"13":-0.3690360574664523,"14":0.0824804321565526,"15":-0.026277755334892107,"16":-0.1218807915681248,"17":-0.04980234523247414,"18":-0.06741125206531677,"19":-0.20995495195992056,"20":-0.18522235124240788,"21":-0.20982972155728472,"22":0.049744798606600645,"23":0.4297779758473942,"24":0.267456172953131,"25":0.013081525089229284,"26":-0.02597412468406913,"27":-0.16164016848302015,"28":0.1020501520491295,"29":-0.3485901450434332,"30":-0.08661510897167014,"31":0.08878180294999917,"32":0.146347258202024,"33":-0.02221199945211528,"34":0.2253332805673429,"35":0.042906951023713065}},{"sx":1,"sy":1,"depth":36,"w":{"0":-0.04537847024645458,"1":0.11432842264929781,"2":-0.17169013011680606,"3":-0.2795727782365711,"4":0.12844077095783943,"5":0.12922408955363274,"6":-0.28249484267557745,"7":0.007350229738771504,"8":-0.0014266139627332629,"9":-0.19048438489259886,"10":-0.1798458035512301,"11":-0.044523976616719405,"12":0.19264565352172963,"13":-0.048486863669245976,"14":0.3248391555368526,"15":0.4210829833366535,"16":-0.24054586899931749,"17":0.23454741459021997,"18":-0.2980120046296122,"19":-0.1761833399270204,"20":-0.1123478467074613,"21":-0.00871059251807648,"22":-0.04826894676370616,"23":-0.12400253184889845,"24":0.20736861418591976,"25":-0.07259836586360457,"26":-0.16066062858225266,"27":0.23803673501223113,"28":-0.00950210797355881,"29":-0.23392850401413784,"30":0.0161737341733304,"31":0.377646161955567,"32":0.1661054955517645,"33":-0.22971544914981115,"34":0.02245781482287525,"35":0.1303830983385217}},{"sx":1,"sy":1,"depth":36,"w":{"0":0.06838157445146631,"1":-0.18970788329073343,"2":-0.10682587980486552,"3":0.0305634871849556,"4":0.6069133581525984,"5":0.30703407769206975,"6":-0.004897270233690936,"7":0.2473114158581818,"8":0.3257091696565781,"9":-0.048327075633187354,"10":-0.24677020000857705,"11":0.1255998553418017,"12":0.15406077188081532,"13":0.22277563643519724,"14":0.004791085762419027,"15":0.47077545252680425,"16":0.004875244402726099,"17":-0.11637865444898698,"18":0.37619687216620884,"19":0.3542141472929346,"20":0.31444878703089707,"21":0.19301499147226805,"22":-0.5018685709463688,"23":0.643466106580783,"24":0.5352195725187295,"25":-0.037164932147094334,"26":-0.1161348767118406,"27":0.19874825670074373,"28":0.07348915545544836,"29":-0.09159333857830682,"30":0.008465113522358644,"31":0.22654673757811641,"32":0.06897511278978341,"33":0.2668571585344129,"34":-0.23664004282049614,"35":0.22647489537618104}},{"sx":1,"sy":1,"depth":36,"w":{"0":0.10455853812265929,"1":-0.08595441702581313,"2":0.008324777876205577,"3":-0.07390406191524859,"4":-0.2531317062260593,"5":-0.07602288728653586,"6":-0.9000024621580192,"7":0.17913607305704057,"8":-0.0982394741749585,"9":-0.48249531992913836,"10":-0.09846850684145604,"11":-0.14912229407493816,"12":0.14229569094589645,"13":0.02169252824538668,"14":0.08333140180679585,"15":-0.24249660360465547,"16":-0.012486690839743035,"17":-0.15283627192295246,"18":-0.4255083722394692,"19":0.000864282916080975,"20":-0.4506050368418841,"21":-0.2317654602053579,"22":-0.8871577177821461,"23":0.01955101377063698,"24":-0.028653537789205864,"25":-0.2608535676478335,"26":-0.3043990068069142,"27":0.012537165053581328,"28":-0.28350760674525544,"29":-0.15796742776200756,"30":-0.0009316506116414416,"31":0.15782961912150917,"32":-0.23681830721266767,"33":0.21908362875961274,"34":-0.22093206382802516,"35":-0.13791919428251426}},{"sx":1,"sy":1,"depth":36,"w":{"0":0.0574604017086217,"1":0.0005262220832195876,"2":-0.2298242701429227,"3":-0.0034370615614663716,"4":0.11477180723448631,"5":-0.21566061508446868,"6":-0.10658770365167598,"7":0.014933695378842628,"8":-0.06673784215490007,"9":-0.48003226033673113,"10":-0.057506067289735,"11":-0.08463531265080489,"12":0.13749488487683512,"13":-0.11084898238065642,"14":0.20204489226246725,"15":0.15390777771380007,"16":-0.20280504975786845,"17":-0.21176603190159418,"18":-0.14877422563833295,"19":-0.35260178601524095,"20":-0.21572358708731276,"21":0.006760924721356413,"22":-0.12874799467050807,"23":0.253995180997358,"24":0.19442571380333779,"25":0.18463230288276855,"26":-0.013997535439293947,"27":0.09391776984793038,"28":0.04583558837243076,"29":-0.3282268825735932,"30":0.19426329010312157,"31":0.1455287123790669,"32":0.30993518634648437,"33":0.051700002822371374,"34":-0.03410131821385952,"35":0.28996200074107414}},{"sx":1,"sy":1,"depth":36,"w":{"0":0.118605034279999,"1":0.36872992815157674,"2":0.1564620876821865,"3":-0.028698862055138236,"4":0.28774732754243565,"5":-0.273733696139395,"6":0.1126802295240524,"7":-0.11138426388676963,"8":0.03598543822847559,"9":0.10186287743306854,"10":0.5197861730775312,"11":-0.39276523263883445,"12":0.1570205016598593,"13":-0.107520470977833,"14":0.05763360324560647,"15":0.10165688255105508,"16":0.24755068379425307,"17":0.1595324555932228,"18":0.2251529475177943,"19":0.10984383801108773,"20":0.7872249527374893,"21":-0.23936537862236915,"22":-0.011979248694012904,"23":0.07184757769945266,"24":0.10955074770163481,"25":-0.23872575942006863,"26":0.43964598478456457,"27":0.008124935339750266,"28":-0.2153168814460282,"29":0.5032443069318516,"30":-0.03962428502503735,"31":0.05434510075741148,"32":-0.0027567187383471707,"33":-0.2115983789869873,"34":0.26351639155108453,"35":0.37367737168587195}},{"sx":1,"sy":1,"depth":36,"w":{"0":-0.05762221646914943,"1":-0.21530063761571536,"2":-0.05846578081522278,"3":0.047307787721202754,"4":0.03476390162801359,"5":0.05031052713464105,"6":0.45990132119721183,"7":-0.00034422905315361973,"8":-0.10974453388843995,"9":-0.012008620591088117,"10":-0.3503261625405631,"11":-0.14695389435009068,"12":0.038958462735787465,"13":0.17576667340224217,"14":-0.023870738287863423,"15":-0.1827890793175073,"16":-0.23622175016278868,"17":0.07237657518186363,"18":-0.120535186747978,"19":-0.215557861096103,"20":-0.25891158979334883,"21":-0.10435307242115795,"22":0.06813497087964063,"23":0.01836587996542565,"24":-0.042407975123718356,"25":-0.14920348544639314,"26":0.10439348100696551,"27":0.14776099469640228,"28":0.11860625744097752,"29":0.037175896030860134,"30":-0.04024544724740524,"31":-0.14305656972676128,"32":0.11733115286179135,"33":-0.0847496454208291,"34":-0.047640759729281786,"35":-0.007140740446084804}},{"sx":1,"sy":1,"depth":36,"w":{"0":-0.07451732366898131,"1":0.44511686725690064,"2":0.03594070216063857,"3":0.10206940748792699,"4":0.40889614359232507,"5":-0.06450879077796158,"6":0.009767686948035783,"7":0.24611473052793503,"8":0.6966780934152363,"9":0.17541001604670278,"10":-0.47609503984326323,"11":-0.4605899086739905,"12":-0.05944486244495769,"13":-0.03483166943778644,"14":-0.22316812665337588,"15":0.15998612681844587,"16":0.023143358335893843,"17":-0.1448761311319144,"18":0.2019339038624486,"19":-0.3045346533472895,"20":0.2730676098940277,"21":0.5399865461705283,"22":-0.5039420650430986,"23":0.08387561165916503,"24":0.039889523979876995,"25":-0.5187493096664949,"26":-0.7408938829884433,"27":-0.5277870737587026,"28":0.078612945998074,"29":0.018118367831195453,"30":-0.2133993683435016,"31":0.3681000323797248,"32":0.03891495439667161,"33":0.2643515042564439,"34":-0.14793685114038999,"35":0.3056508553390732}},{"sx":1,"sy":1,"depth":36,"w":{"0":-0.1213238824910986,"1":-0.14578831397228637,"2":-0.3177690872176908,"3":0.24571537812871577,"4":-0.06387820657868139,"5":-0.24844660920963876,"6":-0.8082778687325461,"7":-0.01524435845784541,"8":-0.04813468123434096,"9":-0.7009208803767594,"10":-0.04551308772845161,"11":-0.15071975810090113,"12":0.18458578636168024,"13":-0.08782126099595373,"14":0.12133426714868645,"15":0.18610408779240165,"16":-0.2437741578886127,"17":0.010211547875690691,"18":-0.198411120237102,"19":-0.17477705025609774,"20":-0.08398963218953334,"21":-0.3904483188364398,"22":-0.6359093650065021,"23":0.009684462039416615,"24":-0.036896036504554384,"25":-0.11827164831383333,"26":-0.2136984892375496,"27":0.11592671431687647,"28":-0.26761318861385486,"29":-0.20152871232431974,"30":-0.17295179408562994,"31":-0.17690032107338757,"32":0.07438822365954623,"33":-0.0789970729238987,"34":0.018256833403865483,"35":-0.015368045303254153}},{"sx":1,"sy":1,"depth":36,"w":{"0":-0.24403223682736364,"1":0.2233030595055039,"2":-0.18868854498294466,"3":0.16393381061705176,"4":-0.2583489055496535,"5":-0.28050065463489177,"6":0.049574456641996355,"7":-0.2706291157859349,"8":-0.24217997361750182,"9":-0.17052771771149552,"10":0.03441392912524809,"11":0.1507439761515003,"12":-0.32411915161162713,"13":0.4513250101922839,"14":-0.07487819956775879,"15":-0.04180761714471054,"16":-0.15500003281512192,"17":0.03340754143538074,"18":-0.014925577360155247,"19":-0.14816746484476187,"20":-0.15046880504763596,"21":-0.1419489361020922,"22":0.2320647646370842,"23":-0.09224803172979992,"24":0.054584310834095186,"25":0.2753736611307337,"26":-0.10966026606660759,"27":0.07150150047028281,"28":-0.18104261542127723,"29":-0.24334630410439093,"30":-0.08993817408892052,"31":0.01754069504338274,"32":-0.2067924031851041,"33":-0.10679599935102964,"34":-0.02892937604184601,"35":0.058667227782709865}},{"sx":1,"sy":1,"depth":36,"w":{"0":0.1408591901726454,"1":0.21283851912726515,"2":0.27918421619915246,"3":0.11841557758513156,"4":0.1396714757627686,"5":0.06203020145880344,"6":0.26505914824604293,"7":-0.10825751169944414,"8":0.12817041144343636,"9":0.424431324153725,"10":-0.226305082311617,"11":-0.15009086039650577,"12":-0.02358141458607948,"13":-0.04085892899942073,"14":0.10543825347348795,"15":-0.4035449913327079,"16":0.004303756844935123,"17":-0.026079688121263322,"18":0.33035108855933815,"19":0.33868927253400344,"20":0.24777319005649176,"21":0.17984285980214226,"22":0.30090166692910736,"23":-0.11646903446387452,"24":0.09840417972215901,"25":0.4857659078420937,"26":-0.23551479279899887,"27":0.004172021783365089,"28":0.09635959888627191,"29":-0.10426524630389002,"30":0.23301125703137063,"31":-0.10635797989606047,"32":0.2963735537746964,"33":0.07661521094592127,"34":-0.0529961704764192,"35":0.4257732379823537}},{"sx":1,"sy":1,"depth":36,"w":{"0":-0.13337296425737696,"1":-0.1279532559583642,"2":-0.11797674714754239,"3":-0.13862058609298755,"4":0.19405500101148077,"5":0.485472061341754,"6":0.04883071873707067,"7":0.2142365299588538,"8":-0.33587665913186,"9":0.09202115680466268,"10":-0.25274663843117456,"11":0.0011314135070788081,"12":-0.18956888531140548,"13":-0.2317688596443323,"14":-0.08126740340961155,"15":-0.009963427578373799,"16":-0.15857632914401265,"17":-0.10650847873088591,"18":0.033721216818768406,"19":0.08950731349458992,"20":-0.15002263615025238,"21":0.10321146082534263,"22":-0.33598070115243744,"23":-0.302404614399615,"24":-0.032320509965136045,"25":-0.12479326000314221,"26":-0.22492759049799096,"27":-0.002815396332802835,"28":-0.21741808357502387,"29":0.06523174276371801,"30":0.21434685159884997,"31":0.06997072435457127,"32":0.012268752747845038,"33":-0.07799349014274748,"34":-0.2349943425653019,"35":-0.15383921216321295}},{"sx":1,"sy":1,"depth":36,"w":{"0":-0.2829041942186085,"1":-0.12854112195753797,"2":-0.053081465490514894,"3":0.04636729570983293,"4":0.05042652279052187,"5":-0.33577340183708165,"6":0.02151219526845064,"7":0.3118750295113942,"8":-0.15804371091676422,"9":-0.1341927464417826,"10":-0.22907546244187146,"11":-0.15442341142523747,"12":0.15420077603833945,"13":-0.3604395851539649,"14":-0.05419856669055794,"15":-0.044171477589334186,"16":0.19220804336967134,"17":-0.0567633216071687,"18":0.025739234255714772,"19":0.18763725963539685,"20":-0.26263808170207154,"21":-0.021681584539487445,"22":-0.1914971149518434,"23":0.3295821435825405,"24":-0.17981397525517032,"25":-0.13932785175916393,"26":-0.19553013736665242,"27":-0.0289775812664131,"28":0.08389515163887201,"29":0.0077925818854928915,"30":0.13086990660477965,"31":-0.222271217607348,"32":0.1928188017654693,"33":0.32804645880518224,"34":0.13422428551078774,"35":-0.15163924078012508}},{"sx":1,"sy":1,"depth":36,"w":{"0":0.0009144745531980207,"1":-0.11263135625798212,"2":-0.30720422877087344,"3":0.11060861299074032,"4":0.10046648361598545,"5":0.014907931005581371,"6":-0.17372205017483294,"7":-0.08928838043279039,"8":-0.2780264694869527,"9":-0.17489610035316783,"10":-0.1991199218599523,"11":-0.06260727492540603,"12":-0.014552346199224835,"13":0.05839583238922376,"14":0.19450217969151098,"15":0.01310275688597419,"16":-0.01869632653699834,"17":0.16234728748150132,"18":-0.04328563764786764,"19":-0.1365829386612196,"20":-0.3540141822488007,"21":-0.23272378969199622,"22":-0.17508783462163627,"23":0.31897560293981103,"24":-0.13272275503601233,"25":-0.17432180223925486,"26":0.07873991219115946,"27":-0.05897159848944577,"28":-0.08642263027867239,"29":-0.08909351055386802,"30":0.03899196709475462,"31":0.12992342273998433,"32":-0.2112701661368835,"33":0.05117770166801561,"34":0.14013955652504956,"35":-0.04329429126270942}},{"sx":1,"sy":1,"depth":36,"w":{"0":-0.041515677135714614,"1":0.24694244079489913,"2":-0.10041146171663166,"3":0.008795679413275434,"4":0.013692537107759598,"5":-0.07393264141215802,"6":-0.16917360919205396,"7":0.018235871471155005,"8":0.3735834678029544,"9":-0.15886939257767232,"10":0.05040514885568661,"11":0.1274435409564623,"12":-0.037077677281754776,"13":-0.20381264365147087,"14":0.01476022424679747,"15":-0.32090755150809613,"16":0.056862636050354215,"17":0.1398575303538985,"18":0.26013485809886017,"19":0.044393827330689986,"20":0.13098411102967658,"21":-0.35965162705215076,"22":0.13888900129585507,"23":-0.0014063765482251777,"24":-0.22732450516926658,"25":-0.09715476067542445,"26":-0.18014616123689295,"27":-0.07017066574418677,"28":0.09651653834479912,"29":0.12351876059659432,"30":-0.15119449387679978,"31":0.008515120478033393,"32":0.5698681707240855,"33":0.04638156869777519,"34":0.1792314359541785,"35":0.010959193143669787}},{"sx":1,"sy":1,"depth":36,"w":{"0":0.07851172344489148,"1":0.07686634793990449,"2":0.1758332632007208,"3":-0.2599402898441257,"4":-0.24109396831763819,"5":0.2324739340124758,"6":-0.03541390441633688,"7":0.01196316204892762,"8":0.07027676208125751,"9":0.01957712972219879,"10":-0.11600613567170959,"11":-0.003474256015249709,"12":-0.10579657989929332,"13":0.003098343264561825,"14":-0.18444836141870763,"15":-0.10811764523768558,"16":-0.09213505537112142,"17":-0.28601579466824517,"18":-0.078774847265936,"19":0.26858172320157364,"20":0.08085472372176519,"21":0.024656467163520896,"22":-0.2226178206688754,"23":-0.05581423890567594,"24":-0.1275876295813868,"25":-0.3544664877973893,"26":0.0807447241280077,"27":0.05756040112811615,"28":0.021125402619003922,"29":-0.034296072823898405,"30":-0.17979715562096582,"31":-0.09399073592212726,"32":0.09150233936559415,"33":0.4888934335253784,"34":0.04926494111719921,"35":-0.3291324178242486}},{"sx":1,"sy":1,"depth":36,"w":{"0":0.15569385341328354,"1":-0.18087679360622033,"2":0.1701944282945326,"3":0.09017911512398566,"4":0.21565275614616483,"5":0.09251334654618774,"6":-0.38744647814097005,"7":-0.14220798223179873,"8":-0.03450977110566058,"9":0.04602982048004196,"10":-0.30549114060166416,"11":0.047008993892107616,"12":-0.01619695489409184,"13":-0.15840100931948628,"14":0.29440111822956816,"15":0.1418898490664858,"16":0.5444907484003607,"17":-0.1270354945206408,"18":0.1347079878980089,"19":0.35073931381908563,"20":0.23659329495760956,"21":0.07644689158845594,"22":0.07872124263453997,"23":0.22776527368262753,"24":0.34822730650482586,"25":0.09110268706810373,"26":-0.07933912691724358,"27":-0.31309765241118553,"28":0.07458246232591817,"29":-0.09382646949685247,"30":0.5710138669739115,"31":-0.0003444235628499964,"32":0.002720706309760823,"33":0.06587585180629253,"34":-0.016658186304914523,"35":0.07484210490189987}},{"sx":1,"sy":1,"depth":36,"w":{"0":-0.1803185177411769,"1":0.04947869756660262,"2":-0.6143959867829333,"3":-0.223503757497614,"4":-0.20281320313810658,"5":-0.35047960101785486,"6":-0.8323497700720855,"7":-0.17650208496400657,"8":-0.03204394774119181,"9":-0.2831688884290116,"10":-0.07943841036133037,"11":0.18068578247652473,"12":-0.30719158865330537,"13":0.23077969511310667,"14":0.03475869853618745,"15":-0.01946609125789417,"16":0.16863108284876382,"17":0.11284428146887063,"18":-0.07765698882325424,"19":-0.011862612154679679,"20":-0.11801859881640339,"21":-0.3616234027571034,"22":-0.8077463007114517,"23":-0.09487885859862939,"24":0.1134797618818044,"25":-0.10685593478906759,"26":-0.20344927693652587,"27":-0.08761718146425412,"28":0.08475060378409906,"29":-0.2693669367826587,"30":-0.123384618660276,"31":0.1483380085745015,"32":-0.0795092121556991,"33":0.00233493455660832,"34":-0.06005619502693095,"35":-0.23515156962994951}},{"sx":1,"sy":1,"depth":36,"w":{"0":-0.14716418930121344,"1":0.11295361862681161,"2":-0.06200686266515871,"3":0.09816970116167542,"4":-0.16627862402825025,"5":-0.46391960473783767,"6":0.7964580104505419,"7":-0.07607868652789611,"8":-0.1178918953224651,"9":-0.007172447448263623,"10":-0.34976219877026943,"11":-0.20285875489662253,"12":0.0995935728078309,"13":-0.358110874078623,"14":-0.34344759234851335,"15":0.08179603314716945,"16":-0.07329220717101056,"17":-0.19906698276671095,"18":0.22930372916801053,"19":0.1205396490745439,"20":-0.023953190651199868,"21":-0.3492220111563328,"22":0.7272030190917941,"23":0.23987116639031078,"24":-0.21703807074174022,"25":-0.5846918382975065,"26":-0.23368245593189949,"27":0.2357650674144902,"28":-0.02189801805184541,"29":0.19864919913913873,"30":-0.3087595320150529,"31":0.0032735375446223524,"32":-0.03239869238052883,"33":-0.2051848855508558,"34":0.013417540216773008,"35":0.43769917404143904}},{"sx":1,"sy":1,"depth":36,"w":{"0":-0.04279817908674035,"1":0.3328456216815194,"2":0.05310868521632753,"3":0.07306393226442795,"4":0.03508726819180325,"5":-0.13869702414010088,"6":-0.39248949117149834,"7":-0.1885048432133158,"8":0.11760556671488545,"9":-0.03245465326918794,"10":0.01317771488923206,"11":-0.3094683974567625,"12":0.05194947987993484,"13":0.13375917760152922,"14":0.051437467555326556,"15":0.1818322437500114,"16":-0.2809281578932434,"17":0.04098076133741344,"18":-0.022804491378338135,"19":0.169380051249844,"20":-0.22693650694186918,"21":-0.15876163539966331,"22":-0.19316306073392625,"23":0.26748190058779586,"24":-0.32343139335793264,"25":0.004742597449324559,"26":-0.07183650114859202,"27":-0.014178880630222494,"28":-0.20980787139309798,"29":-0.19283342034690293,"30":0.08085660185507443,"31":-0.09648560222053673,"32":0.12633132207086523,"33":0.11719751304727218,"34":-0.1290005775648609,"35":-0.18386840114921035}},{"sx":1,"sy":1,"depth":36,"w":{"0":-0.15193851251000834,"1":-0.2533701143416959,"2":-0.3448723554419357,"3":-0.36639523121172496,"4":-0.08109297791803628,"5":-0.15174771524281147,"6":-1.6203612284489104,"7":-0.1838982047543386,"8":-0.5149535901939738,"9":-0.829209079363464,"10":-0.11838031539366535,"11":0.03850365102624391,"12":0.052098062798487464,"13":0.11268695585382402,"14":-0.02115320718200364,"15":-0.04990774036907133,"16":-0.273418295201416,"17":-0.31499482467505124,"18":-0.034633757474322145,"19":-0.0053100133116539576,"20":-0.46902400393967714,"21":-0.44901630205276,"22":-1.4524658267899195,"23":-0.3214581595806951,"24":-0.15544440714504099,"25":-0.2391875774852332,"26":-0.18198100732604358,"27":-0.39994576014196936,"28":0.2681342114477622,"29":-0.1186546137721449,"30":0.11982927856570852,"31":0.0067440529571966895,"32":-0.1663248295453053,"33":0.044013973681699,"34":-0.07229773649863337,"35":-0.4671113908053778}},{"sx":1,"sy":1,"depth":36,"w":{"0":0.11913923816989458,"1":0.05563609836421996,"2":0.125947456000963,"3":-0.1430101056241501,"4":-0.14061221413483632,"5":-0.22184723745965748,"6":-0.07426947083265067,"7":-0.056711833104022835,"8":-0.17189745244737561,"9":-0.37419404689045527,"10":0.07376914793115434,"11":-0.05101023334882329,"12":-0.1569463317930446,"13":0.00141250667837067,"14":0.2429422481001457,"15":-0.2144132562764376,"16":-0.02655943676687826,"17":-0.12206378185210358,"18":0.0019062094931808827,"19":0.09494060188860882,"20":0.061258972672120805,"21":0.10926848174178413,"22":0.05229566421148783,"23":0.004242715643663258,"24":0.030045215366412963,"25":-0.0985589974261096,"26":-0.5416845365294836,"27":-0.0004392754541553195,"28":0.14442567700933834,"29":-0.15145975065790926,"30":0.06918836284756444,"31":0.10747794244181641,"32":0.1749935074654452,"33":-0.10402727666969902,"34":-0.20159635010701546,"35":0.11467774382004348}},{"sx":1,"sy":1,"depth":36,"w":{"0":0.15978643884806426,"1":-0.21548501474965712,"2":0.06486723830313917,"3":0.24158536210799403,"4":0.2691183153616085,"5":0.1390144956465248,"6":0.09045075473566228,"7":0.08137897310163687,"8":-0.21628653645847148,"9":-0.11562151474169652,"10":-0.33777132108879476,"11":-0.06360994851043725,"12":-0.19050808110825834,"13":0.12315704761879716,"14":0.20333604993450938,"15":-0.20547996357819243,"16":0.03953449401758749,"17":0.1416371171717343,"18":0.10750097506436122,"19":-0.009865971646487883,"20":-0.10771444752112214,"21":0.094783798005349,"22":0.03057544353690123,"23":-0.12604282766331562,"24":0.26179840456766496,"25":-0.18009913045085207,"26":0.0438727555087011,"27":-0.12675629528648413,"28":0.1547661382326336,"29":-0.4174102050307689,"30":0.03592586566030857,"31":0.08337601388361678,"32":-0.25271219372100395,"33":-0.0294258833390969,"34":-0.07195553479314723,"35":0.2033123457890633}},{"sx":1,"sy":1,"depth":36,"w":{"0":0.05982862270058208,"1":-0.049917156409798304,"2":-0.3059705576143987,"3":0.3081847692109057,"4":0.020683578329577988,"5":-0.2538952934762852,"6":-0.135967041582142,"7":-0.003869812369920826,"8":0.02432162790332162,"9":-0.30849598433520525,"10":-0.13921291648584547,"11":0.090886552852086,"12":0.060530809153425964,"13":-0.045701819097200155,"14":0.04022113715120531,"15":-0.05917831460399272,"16":-0.016963403526214987,"17":0.0734859912644456,"18":0.05014017123458938,"19":0.01365911149449903,"20":0.0466665560050165,"21":-0.0563002824379081,"22":-0.004843270022539959,"23":0.046251849339812856,"24":0.009249281493721818,"25":0.040934321216077756,"26":0.16583632578543642,"27":-0.045095812975576126,"28":-0.2860728721796899,"29":0.09889582854201874,"30":0.03914726076436463,"31":-0.15301580359359562,"32":-0.08287715096956334,"33":-0.22732571646446476,"34":0.026283063996317895,"35":-0.019484139961175317}},{"sx":1,"sy":1,"depth":36,"w":{"0":0.1438128194383215,"1":-0.2363054968004921,"2":-0.010139098777786654,"3":-0.1656365763430101,"4":0.2815603671728662,"5":-0.06872984562541792,"6":-0.25753406152733743,"7":-0.310962509173506,"8":0.020860120763038136,"9":-0.03679489291505687,"10":-0.09347847924453667,"11":0.2720008937387763,"12":0.19949201143859,"13":-0.11951740201226115,"14":-0.36194323211298896,"15":0.11748539201169379,"16":-0.04258130081156094,"17":-0.046887831587426494,"18":-0.0014202755998419683,"19":0.14987002361540533,"20":-0.1690615580227798,"21":-0.15108134473372567,"22":-0.11646255765176736,"23":-0.10988761948560676,"24":-0.08460500029931955,"25":0.19453399417349684,"26":-0.280136120666598,"27":-0.09273503923491738,"28":0.21643871068735265,"29":-0.07941015241220592,"30":0.29785781177174897,"31":-0.0046399777230369255,"32":0.32029858522175164,"33":-0.1712574666847665,"34":-0.0039647241430484665,"35":0.009399900405350771}},{"sx":1,"sy":1,"depth":36,"w":{"0":0.12746980933874189,"1":-0.009610486972634929,"2":0.05425136099009736,"3":0.14759022889887458,"4":-0.2835038544723293,"5":-0.3107603330103258,"6":-0.254049170767997,"7":-0.32090106234544963,"8":0.1655858824079104,"9":0.275655502897174,"10":0.02381760298313172,"11":0.2866808351030434,"12":0.08749897419716068,"13":-0.1830190911185966,"14":0.15045741263912585,"15":-0.1470351051652651,"16":-0.35858448553691175,"17":0.055615296963737994,"18":-0.21836119916892618,"19":-0.1997828703114667,"20":0.21908896686624998,"21":0.10423646764130581,"22":-0.15690869476132313,"23":-0.33692648741591696,"24":0.12026347752207626,"25":-0.1485298201810455,"26":-0.32029708248919025,"27":0.005056663800544651,"28":-0.057021977148258775,"29":-0.1200489486350754,"30":-0.20040450792154907,"31":-0.09466080264669804,"32":-0.29810222701136985,"33":0.27312536659557374,"34":-0.08694561213044574,"35":0.38566608609705805}},{"sx":1,"sy":1,"depth":36,"w":{"0":0.24458428778487354,"1":0.2016241841859632,"2":0.029919129974628346,"3":0.04933805536415022,"4":0.36602161029805963,"5":0.14167752133099312,"6":0.43424023584277,"7":-0.12762959181712907,"8":0.36575099937030325,"9":-0.1642475645502249,"10":-0.3599214498179169,"11":0.15954948646815564,"12":-0.07879717932982211,"13":-0.0011903887516079748,"14":0.15733874903800907,"15":-0.016069574472219263,"16":-0.10832794593174028,"17":-0.15034894037785607,"18":0.5552811831069042,"19":-0.029651717992784286,"20":0.3256594545522489,"21":-0.01242794624468214,"22":-0.06396182984127777,"23":0.32206062274781866,"24":0.38967216397912585,"25":-0.04363854610841775,"26":0.018973826648157003,"27":-0.04303352350593635,"28":0.07761901805800166,"29":-0.020709200334532097,"30":0.39561962713543763,"31":0.015639088657304887,"32":0.5911984558261554,"33":-0.16051059384969232,"34":0.03473351736454288,"35":0.43884585693155453}},{"sx":1,"sy":1,"depth":36,"w":{"0":-0.12931992295516118,"1":-0.08065661481511625,"2":-0.10905487518670841,"3":0.04401885203754688,"4":-0.06875943155610825,"5":-0.41540904677197754,"6":-0.04748289726455866,"7":-0.027683455176373654,"8":-0.1641371616902813,"9":-0.1323721427958361,"10":-0.22157097061015432,"11":0.16387479221719387,"12":0.10020221089957378,"13":-0.2546163572709253,"14":0.051069612126482894,"15":0.3437944915713626,"16":0.15616942153106714,"17":-0.2039782546343885,"18":-0.008251142581435398,"19":-0.03624896910730119,"20":0.18876840203656142,"21":0.16441720542199262,"22":-0.12032508095103928,"23":-0.2435163763965763,"24":0.15316128980650193,"25":0.13776371998056167,"26":-0.049620604990537,"27":-0.24138744970173895,"28":0.07062161808616976,"29":-0.09183583113910603,"30":0.035589373813896805,"31":0.0759448005890698,"32":-0.10657021729680079,"33":0.14195659163595784,"34":0.022794346277385292,"35":0.14652210134976176}},{"sx":1,"sy":1,"depth":36,"w":{"0":0.011737187865287584,"1":-0.12531969304184484,"2":-0.46144783991780414,"3":0.24106550835269952,"4":-0.1207453315487744,"5":-0.018559088793327193,"6":-0.01643694613527281,"7":-0.28383620895514045,"8":0.1820763217205803,"9":0.170643465250361,"10":-0.1670817751555614,"11":-0.0492317012057333,"12":0.04570981130326535,"13":-0.08651213100000638,"14":-0.033241166078401475,"15":-0.06931592321438783,"16":-0.23810974747436828,"17":-0.025158360112396888,"18":-0.09164595608360326,"19":-0.27851811092377415,"20":-0.206973338974352,"21":-0.2463307738418612,"22":-0.359236292110699,"23":0.05901885867301323,"24":-0.0436763938168707,"25":0.08645799509964158,"26":-0.10086530234089203,"27":-0.22535416357044646,"28":0.010163755711587381,"29":0.21071907215710584,"30":0.272921020063576,"31":0.349818673085174,"32":-0.0193444651960398,"33":-0.18330984039130913,"34":-0.3223100229761886,"35":0.0469991490210285}},{"sx":1,"sy":1,"depth":36,"w":{"0":0.161950663960219,"1":0.08288052401358112,"2":-0.28827453324389213,"3":0.05521392115188186,"4":-0.0839516617246701,"5":-0.18744309133493867,"6":-0.3777875515179769,"7":-0.09257863374892791,"8":-0.20698646073945107,"9":-0.16080874060660383,"10":-0.0045550143091658505,"11":-0.31261497272945343,"12":-0.14433413780949697,"13":-0.18201544602636743,"14":0.2969306008249459,"15":-0.2703389800690329,"16":0.03189697619792086,"17":-0.30330507530720435,"18":-0.16560418253867076,"19":-0.13316626533839063,"20":-0.11186898846274389,"21":0.09196948216309603,"22":0.20731284410192538,"23":0.2904463496903283,"24":-0.1596047975703411,"25":0.11291520967143383,"26":-0.004568146346834382,"27":0.09562207158000532,"28":-0.1364241169666078,"29":0.16651054650574287,"30":-0.12232861872438826,"31":0.04648006494709186,"32":0.09124002811839195,"33":0.02808211615327218,"34":-0.3742145837716025,"35":0.20803970020064325}},{"sx":1,"sy":1,"depth":36,"w":{"0":0.04396661227848836,"1":-0.16688707789918653,"2":-0.24110813859747385,"3":-0.02388561649236565,"4":0.02597031172004783,"5":-0.21127420642103373,"6":0.047214162607968777,"7":0.034719915313699355,"8":-0.22064095711755935,"9":-0.10127482848455194,"10":-0.06320728418218277,"11":0.11668853502364888,"12":-0.08375053347323798,"13":-0.21489654579696896,"14":-0.14632982883630327,"15":0.008108203348901714,"16":-0.10005763390677126,"17":0.12951172556718568,"18":-0.05474999468244989,"19":0.020428665933226405,"20":-0.19208978009557998,"21":0.052844492160538416,"22":-0.10676608497282845,"23":-0.0856603772724021,"24":-0.12653591810984816,"25":-0.23061669812832725,"26":-0.09516250974098993,"27":-0.005990234868043496,"28":-0.15972695055618494,"29":0.005511245611058973,"30":-0.06798862171323261,"31":-0.32694916368350474,"32":0.0018139208465488995,"33":0.41473369584470177,"34":-0.033922269999496955,"35":0.14216650739646483}},{"sx":1,"sy":1,"depth":36,"w":{"0":-0.027686757366319193,"1":0.010088020332922824,"2":-0.21761350443210736,"3":-0.06939786165565473,"4":0.12942894415541076,"5":-0.1094248890300872,"6":-0.08985023646307175,"7":-0.20331675654018863,"8":0.1365467559004452,"9":0.09681078795274364,"10":-0.11188783828259496,"11":-0.23594787572703746,"12":-0.1572303625866837,"13":-0.189497202651339,"14":-0.03193696157741327,"15":-0.09181190263647625,"16":0.08398082731069703,"17":-0.13292696044528712,"18":-0.1450102187714873,"19":0.2476515069521475,"20":-0.07685034400942753,"21":-0.13976147017629895,"22":-0.01460327111225093,"23":-0.028345845098078467,"24":-0.03719199476930618,"25":-0.2006173729422659,"26":-0.10444816449310657,"27":0.03381739068080692,"28":0.052788510822397675,"29":0.2553172630539913,"30":0.017546785070211745,"31":-0.11778257008255344,"32":0.18572417083810813,"33":-0.024926287657003634,"34":0.2378578204106949,"35":0.29324285573113185}},{"sx":1,"sy":1,"depth":36,"w":{"0":-0.01753482377261844,"1":0.24077790684752137,"2":-0.11252582288700233,"3":0.2395363726726781,"4":-0.1446599875059435,"5":-0.632236013598664,"6":0.06549872009106085,"7":-0.3755848346013039,"8":-0.2444630307476927,"9":-0.23297892722053973,"10":-0.2478207690614963,"11":-0.12209392286837965,"12":-0.06901542758324249,"13":-0.2449511054058912,"14":0.03707575378459559,"15":0.16548572962738176,"16":-0.3551059989583358,"17":-0.19384256380237502,"18":0.13745171303209522,"19":0.005213814405971985,"20":-0.0959591027829979,"21":-0.4878455780130577,"22":-0.4467762116084822,"23":-0.06723283802873611,"24":-0.21590455849916892,"25":-0.08289124192738741,"26":-0.18346677516561136,"27":-0.05973946642359466,"28":0.10650738996636065,"29":-0.09045333253523462,"30":-0.2741190601494253,"31":0.07585685827539491,"32":0.19360014478548435,"33":0.27288796062098414,"34":0.16943840280994663,"35":-0.152909235786448}},{"sx":1,"sy":1,"depth":36,"w":{"0":-0.31098570311404133,"1":0.024260710882257265,"2":0.46530827720751267,"3":-0.23479433368745975,"4":-0.14297768472059674,"5":0.009535623894113781,"6":-0.17473687786130324,"7":0.0030957748031484778,"8":-0.44913004472270135,"9":0.03759079360727469,"10":-0.4047037814136075,"11":-0.1664953110263203,"12":-0.023936810995417345,"13":-0.02040701323393441,"14":-0.044493619888663696,"15":0.13385339278738254,"16":0.06374031385737416,"17":0.011505138972636155,"18":0.16919528312525361,"19":0.2402406834172174,"20":-0.04082341907134939,"21":-0.04885925671898518,"22":-0.04705111035378063,"23":-0.1765301668965507,"24":0.20147222542767787,"25":-0.2077955152878083,"26":-0.19812829093028775,"27":-0.02120042186798295,"28":-0.22512871766150108,"29":-0.07627178131236437,"30":0.09613103569202446,"31":-0.2558657877923244,"32":0.19074823777839886,"33":-0.06770016885373427,"34":0.03693351004859152,"35":0.12441930881656568}},{"sx":1,"sy":1,"depth":36,"w":{"0":0.03141173066398928,"1":-0.4653724672185199,"2":-0.26465735450708033,"3":0.2387885947619422,"4":-0.04434073669045681,"5":-0.24022429096527598,"6":-0.8433248993693142,"7":-0.08226084947752219,"8":-0.14966607282442504,"9":-0.5772654864807577,"10":-0.2723226349751783,"11":-0.15582214203279912,"12":0.374143804355105,"13":0.2872602669585951,"14":0.051792906452107906,"15":0.20379430978516602,"16":0.04731097904960913,"17":0.013179903265496172,"18":-0.14069589899535567,"19":-0.19956547154430687,"20":-0.10180571330005853,"21":-0.022620707537981698,"22":-1.0472164020497832,"23":0.06685717849347723,"24":-0.18940904126875627,"25":-0.52576262954742,"26":-0.0019407512676584316,"27":0.07309413038534805,"28":0.21285607560456377,"29":-0.4026952002339534,"30":-0.2569902931427737,"31":-0.24923185236141954,"32":-0.1679406299462835,"33":-0.02207954896211693,"34":-0.007384683638574433,"35":-0.2261905985489069}},{"sx":1,"sy":1,"depth":36,"w":{"0":-0.2839309118267931,"1":-0.07021270607355785,"2":-0.06932614426075227,"3":-0.06959644519807341,"4":0.030808558740341867,"5":0.1592935162641066,"6":-0.23734756317597475,"7":-0.5520062615808148,"8":-0.26734643998708674,"9":-0.1026282383069646,"10":0.11502849385322281,"11":-0.1380351860413384,"12":-0.24801769567991672,"13":-0.38664117115206237,"14":-0.16987229860175027,"15":-0.014460055317240556,"16":-0.21315011053680347,"17":0.1555731180809814,"18":0.004607982196395627,"19":-0.09958539551122443,"20":0.043295461479870415,"21":-0.2408629682160548,"22":-0.21662832081264727,"23":-0.10652976862501201,"24":-0.025619638901127003,"25":0.09528598306196492,"26":0.06734046708436589,"27":-0.02899260283632976,"28":0.056230835508514265,"29":-0.13776725331837836,"30":-0.4064276854255886,"31":-0.06623758275964219,"32":-0.07711209064019799,"33":-0.0601026025929306,"34":-0.2869494288984087,"35":-0.07944272619316513}},{"sx":1,"sy":1,"depth":36,"w":{"0":-0.4132152739624192,"1":-0.3898373094666381,"2":-0.5617564433163768,"3":-0.010749864376563247,"4":-0.42182032853618984,"5":-0.3138096097663206,"6":-2.024665637979577,"7":-0.3108320904274625,"8":-0.01256043206659606,"9":-0.77460186089307,"10":-0.48403134791475055,"11":-0.5020431422200401,"12":0.11833337181095452,"13":0.3552216639018448,"14":-0.027734736948906453,"15":-0.05499385281216282,"16":-0.2473852862368411,"17":-0.12230991451770067,"18":-0.689240940315633,"19":-0.11151632446346678,"20":-0.4060406949665306,"21":-0.6841222759043487,"22":-1.820955611996025,"23":0.20366738146672714,"24":-0.21343609481602338,"25":-0.7234807167449103,"26":-0.24073718571222524,"27":-0.32915802250135184,"28":-0.03201628098098773,"29":-0.4067429779018372,"30":-0.29372632711493757,"31":-0.06353964551588101,"32":-0.47775022643588194,"33":0.1340477736133628,"34":-0.07879992525617147,"35":-0.25010431925431637}},{"sx":1,"sy":1,"depth":36,"w":{"0":0.20269911716995392,"1":0.15217620883795444,"2":0.13981537656126003,"3":0.18019223184108665,"4":-0.10077873650450694,"5":-0.17344323535904355,"6":-0.4501643211662082,"7":0.11723109623378129,"8":-0.16184771607129775,"9":0.013744029965862424,"10":-0.042362543901513346,"11":0.19215724826457237,"12":-0.0674583950737411,"13":-0.23069538882663035,"14":0.13667736971673802,"15":-0.06718340230569027,"16":0.04116517249998018,"17":-0.3894282596622766,"18":-0.07363461140716858,"19":-0.17524966567089378,"20":-0.11119017403602972,"21":-0.2896436664225594,"22":-0.17057115721988428,"23":0.044411346971759,"24":0.08148000633048537,"25":0.15508224273457433,"26":-0.21262116551688007,"27":0.0426526764685923,"28":0.08497843230958245,"29":0.07300950145058673,"30":-0.06329013242123241,"31":0.09947040179570257,"32":-0.08303311756642259,"33":0.15955739173038458,"34":0.17518234635966096,"35":0.1877972071380145}},{"sx":1,"sy":1,"depth":36,"w":{"0":-0.21389421544660536,"1":-0.5185640339824609,"2":-0.2941358344028289,"3":-0.2694047555445633,"4":-0.45415136240242004,"5":-0.4887289172720989,"6":-2.1467733385645764,"7":-0.508814999049896,"8":-0.13537549387605824,"9":-0.9594693786221724,"10":-0.14793348694396258,"11":-0.020124619398861184,"12":0.00039240233988641125,"13":0.21342427926411248,"14":-0.324721486528363,"15":0.2403097763086685,"16":-0.19470121153197126,"17":-0.31947237861330147,"18":-0.21579516780953906,"19":0.03418986042629063,"20":-0.20574442143982297,"21":-0.3413597706775452,"22":-1.6885307151628635,"23":-0.13345139029380162,"24":0.060554352122608554,"25":-0.61801843969662,"26":-0.3302818052626112,"27":-0.043658241896393606,"28":-0.18029487020789692,"29":-0.3911079417602793,"30":-0.14768990728109269,"31":-0.33872453134716274,"32":0.008596673937642624,"33":-0.036146357053513774,"34":-0.11675642743956907,"35":-0.24645714468723476}},{"sx":1,"sy":1,"depth":36,"w":{"0":0.10536252360756412,"1":-0.051875147926450565,"2":0.24119553512282038,"3":-0.39639022891214254,"4":-0.3169876227719598,"5":-0.224220837408495,"6":0.049823850122456326,"7":-0.009864315079757142,"8":0.07303127069930872,"9":-0.3975294295815454,"10":-0.006202332202606802,"11":-0.3471819880576142,"12":-0.15340178826623255,"13":-0.019521026112598677,"14":0.042090481908118475,"15":0.34690047125028717,"16":-0.17660460174511877,"17":-0.008721632787356527,"18":0.20999713466550743,"19":0.12931083777083827,"20":-0.04066158998958129,"21":-0.23902803748983423,"22":-0.3209985201389798,"23":-0.16442765813582397,"24":-0.2346582089177661,"25":-0.12999868767468642,"26":0.04702095999277918,"27":-0.10992161697505312,"28":0.07946789710522897,"29":-0.057447422230847624,"30":0.16524058024545776,"31":0.29362547053648025,"32":0.05370813975053935,"33":0.311422272068658,"34":-0.14278143526055997,"35":0.415902746592752}},{"sx":1,"sy":1,"depth":36,"w":{"0":0.4029147044019526,"1":0.06418610469283567,"2":0.07975654709054125,"3":0.11499908872024528,"4":-0.08250546877673465,"5":-0.5490335276407105,"6":-0.13777501914338194,"7":0.05106796121115562,"8":0.17487764633175618,"9":0.41615982378245103,"10":-0.02500923064918928,"11":0.11623890922313962,"12":0.6347780513791532,"13":0.036031575805241293,"14":0.19966944313264062,"15":0.48702752447869097,"16":0.28499208516377045,"17":0.0018756693094754999,"18":0.09142325743669592,"19":-0.025845564225834977,"20":-0.2428380740725586,"21":-0.17164181442960186,"22":-0.3064030946156374,"23":0.22194143440607017,"24":0.18360607065023796,"25":-0.05982306796108632,"26":-0.43101849818477944,"27":0.14828727674885905,"28":0.4473949405615485,"29":-0.12375211925754129,"30":0.3946843689403069,"31":0.23386822917631794,"32":0.3686144775865719,"33":0.33129800107690643,"34":0.7682583780622875,"35":-0.10811316806904413}},{"sx":1,"sy":1,"depth":36,"w":{"0":-0.1753755165137734,"1":0.04525353690438127,"2":-0.0778741993114183,"3":0.01577854081390622,"4":-0.3168455297937322,"5":-0.12891315253751412,"6":-0.46704191927706745,"7":-0.2283442318406339,"8":-0.10056898231290415,"9":-0.0692953400216463,"10":-0.27995170124957863,"11":0.14273061225143258,"12":-0.25966477058974036,"13":0.07226140011906504,"14":-0.27447257868712105,"15":-0.05409426726222373,"16":-0.1968679637342351,"17":-0.15083864170379935,"18":-0.1881154919990411,"19":-0.14539828601187238,"20":0.2214450751580849,"21":0.13308055769307126,"22":0.14585027858730967,"23":0.026922017557116276,"24":0.2250648646150478,"25":-0.03761324083323363,"26":0.13281034360595112,"27":0.2522241287381233,"28":0.187245950677995,"29":0.2112496337597659,"30":0.252717616960427,"31":0.33661717499997196,"32":-0.10457629447958143,"33":-0.005359107808496976,"34":0.20476141320374625,"35":-0.1359409863479287}},{"sx":1,"sy":1,"depth":36,"w":{"0":0.08134507820953504,"1":0.044302844803155654,"2":0.3885152026357858,"3":-0.1722343859897323,"4":0.3763235199035418,"5":-0.1615539539305119,"6":-0.4004855994493471,"7":-0.1899292777456286,"8":0.360867219979947,"9":-0.3087378752865247,"10":-0.2551920700217929,"11":-0.295863194020705,"12":0.2824740660553132,"13":0.2035862315563916,"14":0.1256730886565059,"15":-0.2892234514299278,"16":-0.15917283765684148,"17":-0.17700487222013306,"18":0.16641213052401618,"19":0.08283567537736992,"20":0.10952205116160219,"21":-0.3290743161950694,"22":-0.3472722076846746,"23":-0.2062550468328122,"24":0.04853286513310615,"25":-0.06734587735959362,"26":-0.2927110583658665,"27":-0.3320603277542848,"28":0.08863315924458093,"29":0.36816266306780004,"30":-0.2593119895958514,"31":-0.05370509368181994,"32":0.4657168354011843,"33":0.01354371946899256,"34":0.1259482737190601,"35":0.20991317810048402}},{"sx":1,"sy":1,"depth":36,"w":{"0":0.009394056607709996,"1":-0.5398028720377376,"2":-0.8591318040570072,"3":0.09085697202043608,"4":-0.5689393679370536,"5":-0.5795444604002026,"6":-3.1466017079410373,"7":-0.10313176594404612,"8":-0.25751219125632135,"9":-1.502803584972206,"10":-0.6737262215588505,"11":-0.2702752711033311,"12":-0.06496093355427757,"13":0.3258502841884288,"14":-0.33407598013145146,"15":-0.08856906681620685,"16":-0.07252866754794046,"17":0.013005475721944541,"18":-0.9461320075317395,"19":-0.2768357208319216,"20":-0.6295239902586703,"21":-1.027482005647415,"22":-2.48624438295371,"23":-0.32092941881025366,"24":-0.0012162327956414672,"25":-0.9746045661534729,"26":-0.5158990722941557,"27":-0.04445685167899866,"28":0.016484402772847975,"29":-0.4729685594011238,"30":-0.34873496379143415,"31":-0.2794899331664074,"32":-0.3187978092730644,"33":0.09837358314161262,"34":-0.7554364630537604,"35":-0.7998661825233793}},{"sx":1,"sy":1,"depth":36,"w":{"0":0.1128645218032573,"1":0.17681827476972894,"2":0.024676353300413234,"3":0.009106343375043492,"4":0.0037717655674478364,"5":-0.1586509161749399,"6":-0.39048657925638613,"7":0.02165357637182105,"8":0.22722593254701695,"9":-0.04862449972322006,"10":-0.4052065511517467,"11":-0.19648052076751096,"12":-0.199790399719589,"13":-0.3713575690955641,"14":0.003969454289623495,"15":0.001477141006730533,"16":0.01336639742291643,"17":-0.15757953013894035,"18":0.2640893924495893,"19":-0.07120666337597475,"20":0.04455611957305087,"21":-0.077390728285716,"22":-0.2263813056328104,"23":0.06845893858424411,"24":0.15805232291887725,"25":0.07353515452791251,"26":-0.02344504608817554,"27":0.3001107702248338,"28":0.0016028029314768026,"29":0.15605829172475671,"30":0.05734129610621468,"31":0.2710955371765419,"32":0.1306194256279547,"33":0.22535592667174312,"34":-0.16049212395737858,"35":0.1310562742504373}}],"biases":{"sx":1,"sy":1,"depth":64,"w":{"0":0.08647678636213851,"1":0.1273026200205312,"2":0.06174016550831653,"3":0.06803188662292559,"4":0.1296036362851598,"5":0.0941107566106136,"6":0.09298718910085803,"7":0.0878906988956115,"8":0.15858079195612484,"9":0.10333619480840898,"10":0.11389658050283077,"11":0.10803774027636767,"12":0.10355419917372749,"13":0.08083468459657732,"14":0.08806986794381977,"15":0.1015497785720441,"16":0.12440272426341117,"17":0.10185556515972194,"18":0.057099743475573186,"19":0.11386105571250107,"20":0.11208726708266598,"21":0.1471508850662654,"22":0.07886258060824605,"23":0.11136680660648436,"24":0.12973348829333217,"25":0.10005250671228669,"26":0.1210968713433807,"27":0.08349452669014938,"28":0.07350190517623156,"29":0.12913736420683433,"30":0.08846425862592745,"31":0.10167013899997608,"32":0.10196105498789887,"33":0.11934531551488602,"34":0.09226774245857666,"35":0.13144755484571538,"36":0.08408844792582942,"37":0.10058588462324318,"38":0.08769724066149107,"39":0.07116880636114663,"40":0.10278041058226053,"41":0.10620280307373135,"42":0.09247938570933831,"43":0.10550680702716311,"44":0.1172741638773165,"45":0.15027406057070605,"46":0.11121365685873512,"47":0.10698282221004392,"48":0.0915875614558576,"49":0.10415150786004639,"50":0.11042910690434156,"51":0.09336184096286869,"52":0.108267161189097,"53":0.08048565612678321,"54":0.08010238006869741,"55":0.04230320667223671,"56":0.10359949086998102,"57":0.06279405290139878,"58":0.11391328795073856,"59":0.18718641933983118,"60":0.09807934955048082,"61":0.12777088284540083,"62":0.020602286523344636,"63":0.116609076767091}}},{"out_depth":64,"out_sx":1,"out_sy":1,"layer_type":"relu"},{"out_depth":32,"out_sx":1,"out_sy":1,"layer_type":"fc","num_inputs":64,"l1_decay_mul":0,"l2_decay_mul":1,"filters":[{"sx":1,"sy":1,"depth":64,"w":{"0":-0.09193854727671325,"1":-0.12118401453316542,"2":-0.39143771708636116,"3":-0.7484375836063982,"4":-0.03456089483902965,"5":-0.047850741296271114,"6":0.18027387987123353,"7":0.28164522608001236,"8":-0.18251478410041083,"9":-0.3351722980776385,"10":-0.9033770026833141,"11":-0.2627891407554546,"12":-0.08269101422857299,"13":0.19899492373448718,"14":-0.12991173613338017,"15":-0.09683724444581032,"16":0.021482313666455186,"17":-0.09978532474425053,"18":-0.16229983483307237,"19":-0.04531956174924742,"20":0.03055585356381235,"21":-0.04328543567748905,"22":-0.3744076565073263,"23":0.13289379233285228,"24":-0.3076607185315856,"25":-0.13049988890289402,"26":-0.08443234203335205,"27":0.02193816214714801,"28":-0.24658993753893643,"29":-0.37030706353377746,"30":0.012551652284946618,"31":-0.1015387502374107,"32":-0.06472613956578094,"33":-0.06083755229934772,"34":0.07299200462860744,"35":0.057775036942558276,"36":-0.2703941080495306,"37":-0.5329649273164112,"38":-0.09109952031238618,"39":0.021235582251396344,"40":-0.22299392536572982,"41":-0.12463606749713106,"42":0.07922996835280353,"43":0.09508401597510843,"44":0.15533309416887187,"45":-0.35906342432478955,"46":0.03624061561313288,"47":-0.16536039778473416,"48":-0.12475661602195792,"49":0.057302249185618125,"50":-0.13207695279615542,"51":-0.44292247447911437,"52":-0.07452888338133118,"53":-0.3117749267174475,"54":0.035496934562472944,"55":-0.39674553017614717,"56":-0.16003952135711327,"57":0.09547149080486526,"58":0.048406303624508984,"59":-0.24385884925643772,"60":-0.06945213053676157,"61":-0.2747546019070599,"62":-1.367608824538788,"63":0.08321968603397478}},{"sx":1,"sy":1,"depth":64,"w":{"0":0.09309045693747851,"1":-0.09492442192643086,"2":0.008821489036808287,"3":0.20123466049293226,"4":0.057306380194707324,"5":0.13957034922553863,"6":-0.08930453181029911,"7":-0.22368744380936056,"8":-0.009047610399278622,"9":0.18131000099998312,"10":-0.12458427407248024,"11":0.1614603761418569,"12":0.20807337961118844,"13":0.03827971637047248,"14":-0.03060195634147639,"15":-0.019468117899541233,"16":0.08797151825906056,"17":-0.09016542348967324,"18":-0.184262379471039,"19":0.13116020414462382,"20":0.04343395988679581,"21":-0.020670447380029617,"22":-0.1696827726818813,"23":0.159805872613478,"24":-0.1077915002720781,"25":-0.017123695414783355,"26":-0.21661961605916236,"27":0.11696167233610776,"28":-0.06677233809845765,"29":-0.19508674816478425,"30":-0.0990988437489237,"31":-0.05056149637620487,"32":-0.14701725418799638,"33":-0.055818366955817204,"34":-0.02082327462114104,"35":0.17766200008878083,"36":-0.037481813667733156,"37":0.018122370254292485,"38":0.1412835256990192,"39":0.15032809751634743,"40":-0.0775468020737795,"41":-0.15217935960550794,"42":-0.023079947306587644,"43":-0.025227563956486412,"44":0.05725062497345165,"45":-0.038885160424536956,"46":-0.01859699800353301,"47":-0.0469576856444967,"48":-0.10794265086380041,"49":-0.13844938489400163,"50":0.00947817780290058,"51":-0.11845340633400658,"52":0.18615624479452322,"53":-0.061132479698967346,"54":-0.08631015092487035,"55":-0.03326385586769615,"56":-0.15469170626577186,"57":0.025764391406795296,"58":0.017479372721129954,"59":-0.1575467722722791,"60":-0.2610209152150012,"61":-0.057128214195633145,"62":-0.026686435767337965,"63":0.12823397122539792}},{"sx":1,"sy":1,"depth":64,"w":{"0":-0.13701927744431988,"1":-0.07684880004111365,"2":-0.15552532702317476,"3":0.039511524097007034,"4":0.016712974585338245,"5":-0.09568261754849672,"6":-0.12604139766858893,"7":-0.09829118189864493,"8":-0.019036511175222207,"9":0.02909524447457449,"10":-0.057066979496051884,"11":-0.11754666139185153,"12":0.03820523832913938,"13":-0.20696093603214935,"14":0.034979802782379485,"15":0.12472684891725876,"16":0.1806803227987075,"17":-0.10286233116280095,"18":-0.12348108267202897,"19":0.23940687794997484,"20":0.06732386986689406,"21":0.098363030543589,"22":-0.2870721842375203,"23":0.04382515507308743,"24":-0.012443530528858248,"25":0.05843016887190721,"26":-0.19936471750731835,"27":-0.09494006814613512,"28":-0.01618846556206202,"29":-0.12040515626372005,"30":-0.07183779458258953,"31":0.1449125393163712,"32":-0.08444516718100653,"33":-0.07591906375767078,"34":-0.056673464852138665,"35":-0.05381690024559591,"36":0.002682332159105317,"37":-0.2895047436309694,"38":-0.05004186731455691,"39":-0.2114898215185184,"40":0.20774754490724784,"41":0.17268521509791637,"42":0.1083583105839626,"43":-0.05994586344224556,"44":0.2557776910161679,"45":0.2588978468928517,"46":0.1481090224681483,"47":-0.018440445699433327,"48":-0.12900589413213734,"49":0.1877758765532051,"50":0.08277693229913735,"51":-0.1514485060328706,"52":-0.08800789530815645,"53":0.09851686550962589,"54":-0.18673089791885547,"55":-0.11919698959012497,"56":-0.035191286773323005,"57":-0.10401434730526356,"58":0.12712496141820842,"59":-0.11720684827473771,"60":0.06782898371683277,"61":-0.07045209153154963,"62":-0.16060489589784563,"63":-0.02371974000704698}},{"sx":1,"sy":1,"depth":64,"w":{"0":-0.036048674534175554,"1":-0.3811823478202429,"2":-0.2286337925015888,"3":0.1887611611332496,"4":-0.015056421162150375,"5":0.11460744780307837,"6":0.02265775543279,"7":-0.00614426908198565,"8":-0.09842970613482845,"9":-0.08730075133521625,"10":-0.0314412736824411,"11":0.1166219552685161,"12":0.1292803238820571,"13":-0.28413303610067225,"14":0.09853503000004253,"15":0.1111564311748206,"16":-0.14128439293172182,"17":0.015649099679954728,"18":0.013698172144413373,"19":0.13403622358351178,"20":0.036265619348611104,"21":-0.18353794566918158,"22":0.12558958223392439,"23":0.08845992676650592,"24":-0.1644279835564623,"25":-0.3014806599065692,"26":-0.05911358286450442,"27":-0.012519521670027813,"28":0.08053129410835921,"29":-0.03718475743879577,"30":0.18458415077573606,"31":0.16262320145476364,"32":0.053475331853835274,"33":-0.028773637374750714,"34":-0.09657954145375255,"35":-0.15905621711900877,"36":-0.11672139558639692,"37":-0.015815160542118203,"38":-0.09765591263041504,"39":0.08398780127668695,"40":0.027571376488742506,"41":0.010342178104129015,"42":-0.1428892705581102,"43":-0.030531365791273146,"44":-0.01331716570069043,"45":-0.09143849133274273,"46":0.16047706268464307,"47":0.13028973143180309,"48":0.23811589448147424,"49":0.22346924763814127,"50":0.10462953752255888,"51":0.02752177256106703,"52":0.14313245970335464,"53":-0.0010762507234641932,"54":-0.07971042986373444,"55":0.0011163934443261094,"56":-0.21177955284221076,"57":-0.0651088911439014,"58":0.12746045049016402,"59":-0.022838403677501513,"60":-0.041859349621339484,"61":-0.08779784854498686,"62":-0.0725531855697288,"63":-0.1494652775786105}},{"sx":1,"sy":1,"depth":64,"w":{"0":0.10267348774963617,"1":-0.38057296858447776,"2":-0.048912365570262614,"3":-0.4599025289845385,"4":-0.01736789422847992,"5":0.03709080639797125,"6":0.07048067858646628,"7":0.08873641265069176,"8":-0.19161968226732537,"9":-0.08973616202024554,"10":-0.08106233780372893,"11":-0.10346335313870676,"12":-0.07832294720961286,"13":-0.13908674080571612,"14":-0.047805374746782044,"15":-0.06536900232059747,"16":-0.003025507202650128,"17":0.13874449608419762,"18":-0.08380507772345264,"19":-0.10715675146234888,"20":0.19216404212279645,"21":-0.203980553765476,"22":0.06431538507038428,"23":-0.048121409177019896,"24":-0.2677064129904243,"25":-0.17947323625427042,"26":-0.11246265262721308,"27":-0.017209875695470507,"28":-0.09475713851636365,"29":-0.40049529310220777,"30":0.15333040152470773,"31":-0.09475258634361637,"32":-0.0031910846421278403,"33":-0.11634650276621489,"34":0.005371422650419053,"35":0.02170828141615723,"36":0.026229986635362725,"37":-0.1488615442535142,"38":0.1550862065227115,"39":0.018357673492230258,"40":0.05162172381310451,"41":-0.18564982184751005,"42":-0.02632963431389432,"43":0.014625381611345538,"44":-0.2722908593148764,"45":-0.3715948259971125,"46":-0.08558440622653238,"47":-0.027575347071092677,"48":0.004569353319175933,"49":-0.24197828653315365,"50":0.09724536877685276,"51":-0.08008797988580103,"52":0.218513179839489,"53":-0.15225183851995341,"54":-0.14466929129546233,"55":-0.09626263731203416,"56":-0.1328035925388017,"57":0.04978234416096998,"58":-0.11093071988006496,"59":-0.1618514867655669,"60":0.05419354135769932,"61":-0.037396749517369855,"62":-0.5315420376913326,"63":0.09537979750510694}},{"sx":1,"sy":1,"depth":64,"w":{"0":-0.05284451790368997,"1":0.32493182341452925,"2":-0.07607060113247263,"3":0.05819033319157446,"4":0.2025617447120708,"5":0.11398158903293115,"6":-0.1633945315222709,"7":-0.15332072460665733,"8":1.2668780198384755,"9":-0.039594782430140585,"10":-0.15236748662929497,"11":0.018241935079389364,"12":0.02637699587591189,"13":-0.2351492235838551,"14":-0.08338293252635759,"15":0.2065139773511344,"16":-0.2017553019154434,"17":0.236521843578933,"18":0.6490849851279082,"19":0.24674373794445778,"20":0.332970541176877,"21":0.7021212000577055,"22":-0.04039429764536356,"23":0.04181597336762694,"24":0.6685774841009543,"25":-0.17782239333192731,"26":0.6903602647092658,"27":-0.0628045053918084,"28":-0.1950467045754094,"29":0.5610441660146065,"30":0.010952461020603335,"31":0.007410324332507209,"32":-0.04874955179788577,"33":0.2447167444496229,"34":-0.013772925521190926,"35":0.48004552840799103,"36":-0.034805249347142415,"37":-0.5383870364153706,"38":0.05598570290265326,"39":0.048991996616221785,"40":-0.016381081258455745,"41":0.1594005790434685,"42":-0.11664322820843409,"43":0.13408709313537182,"44":0.08567247878493922,"45":0.5805977006965612,"46":0.00921387885862553,"47":0.11527366283078824,"48":0.011760394298218657,"49":0.18620900366084314,"50":0.016262284445981323,"51":-0.37389204035583484,"52":0.08013431587736095,"53":-0.034788183588848345,"54":-0.1896013619747485,"55":-0.15784061906266802,"56":0.05277781589448382,"57":-0.18289316916249418,"58":0.13736447749863834,"59":0.6289149012459397,"60":-0.1488368076588159,"61":0.21415445205608796,"62":-0.02414778700519131,"63":0.20539267687030838}},{"sx":1,"sy":1,"depth":64,"w":{"0":-0.007663196208166364,"1":-0.08643716421144475,"2":-0.17218162668573223,"3":0.1571718344757621,"4":-0.0017039755621013435,"5":0.1724822752968337,"6":0.04058914699297764,"7":0.06122223037835814,"8":-0.09163316335232584,"9":0.018235805276428055,"10":-0.364477095472427,"11":-0.07608585878061731,"12":0.00874087640029929,"13":-0.30142688297880665,"14":0.10088325732751592,"15":-0.012648246771109579,"16":-0.09781031026831404,"17":-0.048323389292091214,"18":-0.05997738613125204,"19":0.17993794780188974,"20":-0.035832100397025515,"21":0.0018623550569424085,"22":0.10766576910573022,"23":0.19869381185959872,"24":-0.03959578775262375,"25":0.02508724309136097,"26":-0.054148080008857145,"27":-0.3280795405614412,"28":-0.0507880770229382,"29":-0.0272916043609567,"30":0.1413510009523912,"31":-0.004870363812579799,"32":-0.010157391119862535,"33":-0.06266891647351473,"34":-0.17442017307055416,"35":0.26739652650580686,"36":0.22060664776537167,"37":-0.041365846636763216,"38":-0.1666426876793229,"39":-0.08354650862035345,"40":0.0801035938392279,"41":-0.07993598506165886,"42":0.14034814415084237,"43":-0.08753035573429793,"44":0.08062132228041984,"45":-0.08731601084549102,"46":-0.19528429121331561,"47":0.026008747167254667,"48":0.04451335143579613,"49":0.18075059007403815,"50":-0.019833287210209914,"51":-0.09102158757423515,"52":-0.24499060249529991,"53":-0.1569727946725539,"54":-0.29005968487491923,"55":-0.08053504804967138,"56":-0.19473713934157602,"57":0.18116495619064904,"58":0.15882868912325646,"59":-0.06345862297770762,"60":-0.095324928687981,"61":-0.12984846260076324,"62":-0.09271150954664759,"63":0.20584186626199064}},{"sx":1,"sy":1,"depth":64,"w":{"0":0.03891983021344874,"1":0.23495974508999753,"2":1.1973641287691315,"3":0.10182857420616184,"4":0.04071934798944649,"5":-0.30141775509173874,"6":-0.24360104591505,"7":-0.04464909625107171,"8":-0.6862214866023634,"9":-0.06484068329009438,"10":-0.23513945007173226,"11":0.14189901140429298,"12":0.04444847434444408,"13":-0.14259644825612464,"14":0.05742293229102161,"15":-0.08660887701772817,"16":-0.0006912131427758827,"17":-0.21790546644478534,"18":0.36638872517425314,"19":-0.05419213421677858,"20":-0.027028995468645105,"21":-0.4333071633156776,"22":-0.01540467066249237,"23":0.12120675214987041,"24":-0.20779183903386078,"25":0.024272790648709047,"26":-0.09179054859781512,"27":-0.14724737980044428,"28":0.08359138868111153,"29":-0.1684266082853264,"30":0.07848561895644711,"31":0.14893300928259412,"32":0.00011515226357319862,"33":-0.1972857295735288,"34":-0.23133532269097026,"35":-0.0022693780356376966,"36":-0.08607110917690129,"37":0.5864861431216847,"38":0.13653014314213174,"39":-0.16501489225821453,"40":-0.056423241004906616,"41":-0.13864265363569747,"42":0.06006335896031343,"43":-0.09527576511770024,"44":-0.03162883388862361,"45":-0.06788685975868151,"46":-0.1147108309215265,"47":0.007675700602198995,"48":0.03390125989270074,"49":-0.09760853238863226,"50":-0.10527557237465696,"51":-0.1583813402452206,"52":-0.0024237325460064727,"53":-0.05000655424379398,"54":0.06065275849282219,"55":-0.2499018798899282,"56":0.15188609855717158,"57":0.37792034766813104,"58":0.05608088802799175,"59":-0.24177991470727034,"60":0.006581900111093064,"61":0.09503809730626844,"62":-0.05307840247729015,"63":0.0773303154009122}},{"sx":1,"sy":1,"depth":64,"w":{"0":-0.1185428042529705,"1":-0.003728239196018964,"2":-0.1694419789054979,"3":0.19560135062932268,"4":0.11517208499274614,"5":-0.012084942560640632,"6":0.005505138522362388,"7":-0.11106462325334551,"8":-0.11251071445034395,"9":0.28484973626060256,"10":-0.06443375530476338,"11":-0.22110803855144653,"12":-0.1138241577546323,"13":-0.1463674554381497,"14":-0.10662336614123437,"15":0.10677095879382423,"16":0.17566744901347955,"17":0.016773393937219494,"18":-0.44978640889313165,"19":-0.02213505575577516,"20":0.08641676840683458,"21":-0.08962211420172309,"22":-0.09400845892375409,"23":0.12944483614090954,"24":0.20818471672895653,"25":-0.15230665483872444,"26":0.05247135171684381,"27":0.009719497671101631,"28":0.04896533641970232,"29":0.2231319716185895,"30":-0.33769178775005365,"31":0.12293812380105339,"32":0.15956586922321472,"33":-0.03630879205725207,"34":0.028357209685813133,"35":0.008382660269410787,"36":-0.09833971724645829,"37":-0.3935840508058042,"38":-0.06617167431261319,"39":0.15527752932297428,"40":0.09984034635323513,"41":0.0366610677908124,"42":-0.08236668621555937,"43":0.10122369132917913,"44":-0.07979372498519516,"45":0.28014301855991397,"46":0.1432762807875626,"47":0.05367350002024456,"48":-0.03859010889377555,"49":0.10232464467780863,"50":0.06169321898728123,"51":-0.1760094365478119,"52":-0.15908166520668107,"53":0.19590137174537908,"54":-0.28508608095943955,"55":0.2891773067906534,"56":0.008605819249595366,"57":-0.036543480995002875,"58":0.19897367014060208,"59":0.3027909670821692,"60":0.01753773536448993,"61":0.2924520492775175,"62":0.37573355144561554,"63":0.06545752453729183}},{"sx":1,"sy":1,"depth":64,"w":{"0":-0.26087462743148737,"1":-0.1037997625973141,"2":-0.17376025578216192,"3":-0.1877285106278682,"4":0.010895850368899233,"5":0.004640398610097302,"6":-0.07671916444249807,"7":-0.218303402877467,"8":-0.24835775617330094,"9":0.07099327898713971,"10":-0.08688731757221235,"11":-0.07173482131555081,"12":0.0041585658250942285,"13":0.16093432907605656,"14":-0.12859718947775692,"15":0.05613602523964813,"16":-0.03448549153741085,"17":-0.03473612153062841,"18":-0.0056432736525461056,"19":-0.1369355502970408,"20":0.14514729062745008,"21":0.048274668105861056,"22":0.265197440851526,"23":0.03098535744991235,"24":0.13395291954645486,"25":-0.11850504310194483,"26":-0.15601177753784093,"27":0.05842274611309766,"28":0.07419385983904767,"29":-0.021975756899069967,"30":-0.14626111208104844,"31":0.078956942806864,"32":0.14726821227878978,"33":0.06528563440563294,"34":-0.04414627734917075,"35":0.031929212099815335,"36":0.17767442913918638,"37":-0.35126630408082293,"38":-0.04272137902999591,"39":0.031159283234579345,"40":0.14315302169016347,"41":0.09532961973133369,"42":0.02039151509916259,"43":0.08284056369431277,"44":-0.1844031596955803,"45":0.038499668729250036,"46":-0.026811064128050115,"47":-0.30360755593588773,"48":0.08804137475757927,"49":0.016247992231660107,"50":0.07961218596967498,"51":-0.30633535683087704,"52":0.032435127050051075,"53":-0.01127685133957123,"54":0.019630378483447286,"55":-0.06692666680645885,"56":0.24911198293428272,"57":0.07522825769063292,"58":-0.10444120256858067,"59":-0.03460455385267112,"60":0.015526169314674106,"61":-0.24960184990502451,"62":-0.11004576591774382,"63":-0.020359637255773198}},{"sx":1,"sy":1,"depth":64,"w":{"0":0.17389205181030798,"1":-1.155848584218223,"2":-0.3230617426156185,"3":0.08154141974802519,"4":0.04955701466336308,"5":0.126157494599683,"6":0.018928922091717884,"7":-0.02643741519402415,"8":-0.11340652754926266,"9":-0.19400781694249047,"10":-0.9576926962866344,"11":-0.2749495404398975,"12":-0.006441513205788148,"13":-0.17261852852569415,"14":-0.12690810115262757,"15":-0.12404728587813812,"16":0.10582339662362027,"17":-0.007520240092232031,"18":-0.06724535353760797,"19":0.030324291326608264,"20":-0.01438901007425448,"21":-0.12834671978181414,"22":-0.28511420141297233,"23":0.052362118182323496,"24":-0.14189602871012091,"25":-0.5099677050210577,"26":-0.4041483257752497,"27":0.12558118759663814,"28":-0.5576633258998431,"29":-0.5458448882763093,"30":-0.10124474275925889,"31":0.17911659192335638,"32":0.18260959667099355,"33":-0.2911320307284586,"34":-0.008921101157831292,"35":-0.019325213691379343,"36":-0.0844239579990514,"37":-1.6827254751328413,"38":0.06464456262807414,"39":-0.04490913862717851,"40":-0.17373190971363903,"41":-0.19404013549414056,"42":-0.21745519351478101,"43":-0.11162927499109802,"44":-0.19415629581866473,"45":-0.42434902388354423,"46":-0.06723202011575506,"47":-0.020099715076535563,"48":0.02865946092034044,"49":0.13729044914988928,"50":0.14791538094998177,"51":-0.9578560144678304,"52":-0.018111890666406102,"53":0.0016259897038411032,"54":-0.1221278298562626,"55":0.12673340578459438,"56":0.1785132165718988,"57":-0.125186387259875,"58":-0.04489734580564267,"59":0.05051422485483939,"60":-0.13068485382213496,"61":-0.44452742925787325,"62":-0.022728487965862652,"63":0.0037930895088894604}},{"sx":1,"sy":1,"depth":64,"w":{"0":0.06658937526334857,"1":-0.3213383463298343,"2":0.057164956017389565,"3":-0.20382618387046603,"4":-0.058786708714333814,"5":0.051867002122355926,"6":0.024653318969103902,"7":-0.20198285859134604,"8":-0.15114044685450156,"9":-0.261247319675872,"10":-0.3210788617679617,"11":-0.14548373142060833,"12":0.1907852975250011,"13":-0.09664753149251581,"14":-0.131991783474191,"15":0.08241330955384721,"16":-0.16417851153198612,"17":0.08429661867407075,"18":-0.2580785061336784,"19":-0.17370443762606422,"20":0.1135189973962664,"21":-0.023664826246778275,"22":-0.06314441701808166,"23":0.15679390762932113,"24":0.033912090619683324,"25":-0.0688787452580013,"26":0.12169084526774956,"27":-0.12809825353006715,"28":-0.12243985774417351,"29":-0.3709117332744834,"30":-0.02421435207937872,"31":-0.00033151092158392867,"32":0.026966233754107925,"33":-0.11697565699655865,"34":0.055207635763088084,"35":0.19129383171263806,"36":-0.0964975547568854,"37":-0.31142565135140415,"38":0.04401775731613377,"39":0.0003381340629726932,"40":-0.05848742085644628,"41":0.02698308540085643,"42":0.10588503007791257,"43":0.06467344926298174,"44":-0.08801293207061753,"45":-0.19963040100385143,"46":-0.013122143737942392,"47":-0.3523783618126488,"48":0.019646509617974293,"49":0.016831277828599014,"50":-0.18637778454190196,"51":-0.3299018552159987,"52":-0.04841299883314212,"53":-0.180910524010527,"54":-0.1405588223667443,"55":-0.44739326830071235,"56":-0.10880349433244617,"57":0.016533603234391094,"58":-0.18381345007065258,"59":-0.07766581709251615,"60":-0.08477019032191027,"61":-0.17097260794513308,"62":-0.7957877567649042,"63":-0.011784768360247664}},{"sx":1,"sy":1,"depth":64,"w":{"0":0.010136870761758066,"1":-0.5437015328624645,"2":-0.20575331742851302,"3":-0.17360042888418534,"4":-0.23361724603698936,"5":-0.01310738367056369,"6":0.2229707245796272,"7":0.07262553097438712,"8":-0.23510020415518923,"9":-0.2331122254967499,"10":-0.2705559150986273,"11":-0.09533165079451823,"12":0.11588555640592056,"13":0.24424869398598087,"14":-0.10447367528907982,"15":0.23242240257552055,"16":-0.27631642659141753,"17":0.12838536130767886,"18":0.4085985589450743,"19":-0.24492019132001705,"20":0.04969000340659692,"21":-0.31237191287742566,"22":-0.20599402559395646,"23":-0.07199347938970606,"24":-0.5248839937729132,"25":-0.07190839877889589,"26":-0.22284457497937976,"27":-0.01683788243320996,"28":0.6407417331144079,"29":-0.14513438449623153,"30":-0.009831484433348215,"31":0.06441895595261049,"32":-0.00846625991256238,"33":-0.06345477629032649,"34":-0.17217913263211884,"35":-0.14372209419851173,"36":0.1570782265004984,"37":-0.783021429121054,"38":0.19332654354723114,"39":-0.09973197861405007,"40":0.12429105750002806,"41":-0.19877680528264408,"42":-0.0392864517152083,"43":-0.012687425087650498,"44":0.04520240886862239,"45":-0.44597064882782894,"46":0.09958714730954037,"47":-0.11478560680568867,"48":0.10370121671475943,"49":0.010646199457322347,"50":0.06330113807111762,"51":-0.11380322611855055,"52":-0.18090504716241515,"53":0.12494255867715368,"54":0.28114569451216087,"55":0.0650659793198706,"56":0.06411913121312823,"57":0.03989818354937414,"58":-0.24611688663510314,"59":-0.2338306910146391,"60":-0.1657129766499603,"61":-0.11948490577758741,"62":-0.038275533757471954,"63":-0.01848496529730774}},{"sx":1,"sy":1,"depth":64,"w":{"0":-0.17236389848110248,"1":-0.051613285648015934,"2":-0.07369741109564434,"3":-0.09043253925621522,"4":-0.07010825047352363,"5":0.09122804096539344,"6":0.1629070384597265,"7":0.10879852528866532,"8":-0.19867953565527827,"9":-0.031404880702424816,"10":-0.12080622711618542,"11":-0.026743635126927852,"12":0.20602454219555427,"13":0.1470421536297431,"14":-0.029718674947388977,"15":-0.08498533138563433,"16":0.46436653181641646,"17":0.018204405991111165,"18":-0.17719826645081546,"19":0.12062044066041046,"20":-0.09230378850114226,"21":-0.2726206555279015,"22":0.039661713466765745,"23":-0.13025463495287923,"24":-0.20313885484755972,"25":-0.24999529569584963,"26":-0.11159852909126344,"27":-0.15585907599283022,"28":-0.12859919613431917,"29":-0.09808263867594985,"30":-0.1622667331157293,"31":0.05521938120481687,"32":-0.012050730833250917,"33":-0.020078943422718896,"34":-0.12725064543828554,"35":-0.02388443016506574,"36":-0.059926125507070875,"37":-0.42461930614308163,"38":-0.03889808230423767,"39":0.12641588059834194,"40":0.18150452657472843,"41":-0.16067840672417982,"42":0.2295631678405152,"43":0.10496437945287716,"44":-0.12664115847120105,"45":-0.17406351057623873,"46":-0.08902327818242872,"47":0.06409920380906164,"48":0.035075947915432684,"49":0.24261764468045985,"50":0.08624280933463617,"51":0.10219647089930511,"52":-0.22163814535417026,"53":0.04108433384109096,"54":0.1157122391134959,"55":0.050797348043582914,"56":-0.06687756190974393,"57":0.056973724355059374,"58":-0.1580858302589237,"59":-0.34857593230815276,"60":-0.107532881232368,"61":-0.1658325687246776,"62":-0.06905627163755133,"63":-0.18462226899259412}},{"sx":1,"sy":1,"depth":64,"w":{"0":-0.07946940604539011,"1":-0.3637974612011279,"2":-0.26660969417680713,"3":-0.20290456034704335,"4":-0.04886464645866909,"5":0.11286998876659568,"6":0.0810024661232144,"7":-0.20208204056662304,"8":0.003982859042792682,"9":0.22439091688223733,"10":-0.09487455612660514,"11":-0.15619846652905198,"12":-0.07640777278252653,"13":-0.29144260719728615,"14":0.019178806771732896,"15":-0.12327333519123658,"16":-0.2198273590940041,"17":-0.03885680623933379,"18":-0.5729960182006262,"19":0.16728641400794664,"20":0.12359197197496354,"21":-0.46218230361640167,"22":-0.11648311460742325,"23":-0.03731431185892843,"24":-0.13634077021582633,"25":-0.0943684382413729,"26":-0.15778272236725915,"27":-0.08210340662255641,"28":0.005235297951786398,"29":-0.21061888096245887,"30":-0.23423170455516715,"31":0.1389992753339433,"32":-0.08387078426650182,"33":-0.06549683899412269,"34":-0.15594684146854534,"35":0.0672461606356937,"36":-0.17352619420477827,"37":-0.0995742030717788,"38":0.023993940967454337,"39":-0.2647109800102872,"40":-0.11807553771913919,"41":-0.07662389919760754,"42":-0.09600052820691304,"43":-0.1447522054998955,"44":0.16366824126210325,"45":0.035538660333045036,"46":0.029357901835581145,"47":0.07834041672865068,"48":-0.039919370491235694,"49":-0.12210549099856868,"50":-0.31435872872810733,"51":-0.08967337302566522,"52":0.022704250364644706,"53":-0.10288543743990815,"54":-0.12271291863518091,"55":-0.033632449303588545,"56":0.3344963946932038,"57":-0.18181293447349575,"58":0.045072087170530566,"59":0.08632468677186309,"60":-0.1803875406610268,"61":-0.12643253196942442,"62":-0.3326320191103123,"63":-0.09764599396327413}},{"sx":1,"sy":1,"depth":64,"w":{"0":0.018843581102069486,"1":-0.3785647842357174,"2":-0.0825230329767954,"3":-0.5317033349879616,"4":0.017141273602186154,"5":-0.007320162911253167,"6":-0.07861328625127323,"7":0.32767016490404394,"8":-0.1347922315838413,"9":-0.26576692812252195,"10":-0.6133746326006485,"11":-0.07293864226836291,"12":-0.021684124574273912,"13":0.10438794134382007,"14":0.23024595658150984,"15":0.010132459439240425,"16":0.06112734828555559,"17":0.009118670064343389,"18":0.007950167845271739,"19":-0.1515414434719916,"20":-0.030471086279167513,"21":-0.18249430266716923,"22":-0.13438907930532412,"23":-0.19920849984076996,"24":-0.11730654335126944,"25":-0.4947696659576369,"26":-0.3543423445995288,"27":0.0364193639589764,"28":0.029807372992113352,"29":-0.5195907467369203,"30":-0.17585952003471303,"31":-0.08737839473785912,"32":-0.04353676822660603,"33":-0.21949441151454913,"34":-0.2942379684558716,"35":0.02724475555344449,"36":-0.055637541535055735,"37":-0.4586729898025637,"38":0.32552894597813814,"39":-0.20469189945345484,"40":0.034216053388284005,"41":-0.037757101379998284,"42":-0.1776466643999651,"43":-0.08317055532666624,"44":-0.04326705823288942,"45":-0.29817393331075537,"46":-0.11536447798831842,"47":-0.024062067955858444,"48":-0.06724469279647854,"49":0.12511614201162607,"50":0.035249386778036074,"51":-0.4793577373266246,"52":-0.16588385612731602,"53":-0.22198333815299684,"54":-0.03883789511754665,"55":-0.4495534655419637,"56":-0.02634612932756344,"57":-0.45376841749028946,"58":-0.21748281915848047,"59":-0.1535311712532924,"60":-0.07557750015075179,"61":-0.22561393687595163,"62":-1.1003997101865983,"63":-0.032117464403388786}},{"sx":1,"sy":1,"depth":64,"w":{"0":-0.08826202973098628,"1":-0.20061142254517286,"2":0.03538710149819063,"3":-0.14288643910436596,"4":-0.07919428428927403,"5":0.13130313700153684,"6":-0.09632281329702919,"7":0.3352926529697476,"8":0.011204965227767478,"9":-0.0242890650558674,"10":-0.2896614841733791,"11":0.14260071261111598,"12":0.0869723158194455,"13":-0.12801552798709226,"14":-0.11011752282244276,"15":0.0292907333357113,"16":0.11701197542162808,"17":-0.0935459861026666,"18":-0.24699769918525555,"19":0.014557920980689726,"20":-0.0043794098575212935,"21":0.04777608255180437,"22":0.030271409152268784,"23":-0.129421665530379,"24":-0.048547508725687576,"25":-0.12418773846703389,"26":0.01748627225181297,"27":-0.0898614821398796,"28":-0.24529437634117524,"29":-0.22590553582859055,"30":-0.08647901217655767,"31":-0.14122973485638332,"32":-0.10104984441851285,"33":0.061471688663193746,"34":-0.1238520060719972,"35":0.0482578592390057,"36":0.058959729941596366,"37":-0.46034127699278465,"38":0.06994305357166414,"39":0.013428218191927499,"40":-0.05307153517726476,"41":0.057441903440133876,"42":-0.06665450742248856,"43":0.029102065081259905,"44":0.2222763638950298,"45":0.08764822885505681,"46":0.07861092484210923,"47":-0.16003016182893276,"48":0.19762640852445637,"49":-0.05646536228044627,"50":-0.0145153227117759,"51":-0.14499025276312652,"52":-0.10356957437196199,"53":-0.04910387979838607,"54":-0.17844903906083748,"55":-0.046831661177859946,"56":-0.01841558589872847,"57":-0.1401785618862087,"58":0.08872912513201084,"59":0.22826759680654646,"60":-0.09382499159448816,"61":-0.003317606771465526,"62":-0.11674295916679335,"63":-0.02379461877574914}},{"sx":1,"sy":1,"depth":64,"w":{"0":0.035382407685892445,"1":-0.10611334710697205,"2":-0.18265032968717354,"3":0.12316740813816043,"4":0.026938041005302144,"5":0.15795095092618808,"6":0.04146360369302512,"7":0.0727361803045832,"8":-0.16604307740528607,"9":-0.10865307903157152,"10":-0.09119801690783286,"11":-0.10791878024839265,"12":-0.18326447721249853,"13":0.07767496692705192,"14":-0.06779647823702183,"15":-0.13039689065926252,"16":0.06886224446077813,"17":-0.18111988116081,"18":-0.07496703246707943,"19":0.08163775894152975,"20":-0.10144759123465871,"21":0.08824575545377616,"22":-0.11886248037051489,"23":0.056306265812020605,"24":-0.16486776565504918,"25":0.15636920222739825,"26":0.08840705880660138,"27":0.1286380276062422,"28":-0.045259239823843694,"29":0.03473523986695821,"30":-0.09670505833629726,"31":-0.22253586403057657,"32":0.2831716382476513,"33":0.03700196063163179,"34":0.08968162135472726,"35":-0.001405749659570366,"36":0.15659009075733926,"37":-0.08637015841621908,"38":-0.0821022937052151,"39":0.003523093925990842,"40":-0.02303047602662152,"41":-0.09558683373131385,"42":-0.07237183376993235,"43":-0.13989242795333767,"44":-0.019803114267970278,"45":0.005440908893534203,"46":0.10366788600876592,"47":-0.15183247963184912,"48":-0.10812910965972101,"49":0.06384466828453902,"50":-0.07038920654003532,"51":-0.054664110300164916,"52":0.1524226938238866,"53":0.07677238114046218,"54":-0.022177019570859585,"55":-0.3023847106749019,"56":-0.05322541203700924,"57":-0.06440871799159219,"58":0.025827651595462294,"59":0.029823871194593073,"60":-0.2607661139071446,"61":0.04087847012432058,"62":-0.08569923407386004,"63":-0.0815659469739723}},{"sx":1,"sy":1,"depth":64,"w":{"0":0.03218542349449582,"1":-0.22975540782391998,"2":-0.2102815277551061,"3":-0.024410438374386615,"4":0.003135960484480268,"5":0.01835239340985016,"6":-0.21555960995698234,"7":-0.060080560835120464,"8":-0.15541560578360294,"9":-0.02327209158533292,"10":-0.09263729543398076,"11":-0.06549756035839845,"12":-0.08026334465851215,"13":0.2502615415599409,"14":-0.052396302967031086,"15":-0.0015363387592646968,"16":-0.014600726971944117,"17":0.07851691780941256,"18":-0.1725973262759186,"19":0.02397094977842964,"20":0.10129491031012124,"21":0.055535726697867834,"22":0.04523006474170057,"23":0.0206749768441638,"24":0.2150556989643102,"25":-0.04869671204673417,"26":0.05511515780948269,"27":0.13986982343886653,"28":0.020954258568359384,"29":0.039491198275995155,"30":0.03746991707531363,"31":0.08026327874003512,"32":-0.1888691983753692,"33":-0.011179889774788463,"34":-0.18581909595736867,"35":0.03484593156193111,"36":0.03153608798176356,"37":-0.2040930204430256,"38":-0.29229044765729456,"39":-0.16391050406564103,"40":-0.021700894611480174,"41":0.08975351086259473,"42":-0.15952942871925613,"43":-0.18559275386915156,"44":0.09335837821728234,"45":0.081762462322596,"46":-0.0007678827666261943,"47":-0.1767514941052125,"48":-0.19107633168854168,"49":-0.11776521439720339,"50":0.055676625287556084,"51":-0.1240516830672593,"52":-0.0827071013393586,"53":-0.2935742364168494,"54":-0.12339549879497179,"55":-0.22817689300521501,"56":0.1819547619703115,"57":-0.17195427336205435,"58":-0.059473512577974834,"59":0.04102560874138321,"60":0.10827122340973003,"61":0.18187133386304435,"62":0.08225037749396091,"63":-0.11306416631127107}},{"sx":1,"sy":1,"depth":64,"w":{"0":0.005138188382363466,"1":-1.3004617892372548,"2":-0.2180514715044025,"3":-0.243299281960585,"4":0.020786385269127867,"5":-0.20274241912722854,"6":-0.002700541338612383,"7":0.04369484346627353,"8":-0.32720131722400353,"9":-0.38319360065093405,"10":-1.2183977414494611,"11":-0.32319791618609717,"12":0.021823961870497486,"13":0.029012006774739942,"14":-0.1251600749523769,"15":0.08504466439347781,"16":0.32466237599821846,"17":0.050185521915300076,"18":-0.3455531811557692,"19":0.08211753312397937,"20":0.01350383748226166,"21":0.08136643223414473,"22":-0.043319608251542345,"23":0.09702073389907682,"24":-0.09968118132122768,"25":-0.6696009087538338,"26":-0.27679640202154154,"27":-0.03178199851082723,"28":-0.588599590259123,"29":-0.6774381904262704,"30":-0.147876787783274,"31":-0.008130956792296092,"32":0.12132818329450745,"33":-0.0790349210080037,"34":-0.008236238256370498,"35":0.11223534987246815,"36":-0.11563508962270744,"37":-1.7895158101156319,"38":-0.0632333010089586,"39":0.019465267749610746,"40":-0.04546794127714487,"41":-0.038465784909941333,"42":-0.03316304440639359,"43":-0.07531303319988399,"44":0.16573468627785018,"45":-0.5002114362940623,"46":0.09677546686241884,"47":0.05535990013023284,"48":-0.09688724822866474,"49":0.10257837587898634,"50":0.028478239328784755,"51":-0.8754242291291957,"52":0.12876489896499127,"53":0.06240090146681242,"54":-0.07983041531429211,"55":-0.21379823643707593,"56":-0.07385581336401295,"57":-0.11216657317713036,"58":0.13701550608150118,"59":0.20877507197259565,"60":-0.0076125278580137954,"61":-0.3801036633596426,"62":-0.5050127972117027,"63":0.06670272893877967}},{"sx":1,"sy":1,"depth":64,"w":{"0":0.038973469008184415,"1":0.05265288931341641,"2":-0.13623315829977375,"3":0.042540736471317626,"4":0.1633158847057413,"5":-0.37826821171621416,"6":0.0251161309769643,"7":0.290157429753844,"8":-0.08262537946387674,"9":0.03892801411689513,"10":-0.15115517406512538,"11":0.16823459791759143,"12":-0.05786668194466703,"13":-0.06701935883968081,"14":-0.14614015599577607,"15":-0.21222621443845036,"16":0.05874710239760297,"17":0.0028772638061609805,"18":-0.1368307477063591,"19":-0.10338069376157752,"20":-0.04869837001172676,"21":-0.18381463720358276,"22":0.13703706307042296,"23":-0.01324185161152528,"24":0.01994488957738558,"25":0.12205688287278821,"26":-0.03445397767552675,"27":0.07501946202030227,"28":-0.2536107878934213,"29":-0.016554514121086623,"30":-0.1548341728940999,"31":-0.24270444383242798,"32":0.15478637254048613,"33":-0.07315068424534969,"34":0.15689038850286108,"35":-0.2577301576975234,"36":-0.12503035775565705,"37":-0.12674595992707924,"38":0.14039305505669844,"39":-0.04170214124948527,"40":0.006766854600872894,"41":-0.08865760532120107,"42":-0.05610445706392418,"43":0.03958472656277662,"44":-0.03139802773747091,"45":-0.05092565698015839,"46":-0.10508334720103982,"47":-0.06899303606071766,"48":0.05690500645515119,"49":-0.0988402599795117,"50":-0.1875631425923939,"51":0.01460581946162311,"52":0.06271599982376262,"53":-0.04645264934613525,"54":-0.07105243299655863,"55":-0.1893768493683736,"56":-0.04543866414712071,"57":0.1536743778200717,"58":-0.033895021555957715,"59":-0.04101520237785627,"60":-0.0957785568623077,"61":-0.10570383525760246,"62":-0.17448348955193732,"63":0.0011513888712387347}},{"sx":1,"sy":1,"depth":64,"w":{"0":0.08640901371706865,"1":-0.9229496174556843,"2":-0.11960151787210195,"3":-0.10179908408507277,"4":0.2390064429257112,"5":-0.0765990592143679,"6":0.027676328755408576,"7":0.09537973372147736,"8":-0.07147482530241413,"9":-0.07935635958196956,"10":-0.7474691000736937,"11":-0.2057485742698692,"12":0.023496386505071746,"13":-0.06454394185270755,"14":-0.1417052084930445,"15":-0.013560698197445256,"16":-0.14067315175733078,"17":-0.11131497818532869,"18":-0.4826930929619034,"19":-0.17266187109906372,"20":0.05137289681724264,"21":-0.20675074387672776,"22":0.15668069605982213,"23":0.06200899679429033,"24":-0.07024699691045812,"25":-0.2561325418037009,"26":-0.07756175688961608,"27":-0.01805716813721611,"28":-0.17665891830552158,"29":-0.30494295927093157,"30":0.02327422913630727,"31":-0.05346954363425348,"32":-0.07378432858475348,"33":0.0801769484678573,"34":-0.18154006208776166,"35":0.047264865445242533,"36":-0.23298890030563366,"37":-1.2671208533488703,"38":-0.06771802174303125,"39":-0.23055579211695873,"40":-0.03773748683705455,"41":-0.02876098166119279,"42":-0.1361537655576602,"43":0.08978581918038983,"44":0.30865239432248004,"45":-0.0663218075463528,"46":-0.313541625046684,"47":0.19632369565049088,"48":-0.3688641485214468,"49":0.07467197951434737,"50":0.1210018338514332,"51":-0.8901492850934165,"52":0.1523988227265358,"53":-0.19644887719584764,"54":-0.3393725399516424,"55":-0.12905832137410878,"56":0.03445452882539152,"57":0.1825792863834381,"58":0.013394698066155841,"59":0.09087790825527774,"60":-0.007033232842632068,"61":-0.22776183281865706,"62":-0.10849021120398601,"63":0.15632951949446366}},{"sx":1,"sy":1,"depth":64,"w":{"0":0.08143219419643354,"1":0.13952000745695275,"2":-0.2723290884338579,"3":0.16731983092071856,"4":0.02161976373878084,"5":0.1288010560663296,"6":0.08704065714684327,"7":-0.06179920575142637,"8":-0.18810936866163133,"9":-0.15604992175695598,"10":0.026495758495073983,"11":-0.09086700375981054,"12":-0.03869255758694435,"13":-0.031003797149718182,"14":-0.3635982887628911,"15":-0.0752470009095924,"16":0.11722456402803808,"17":-0.04863686445147746,"18":-0.46773928620027894,"19":-0.0661634876953938,"20":0.056721748674453225,"21":-0.019136040380053145,"22":0.03094786050317662,"23":-0.0340448763836042,"24":-0.17857722291352018,"25":0.010357513585776112,"26":-0.15456789010696093,"27":-0.08901614655490697,"28":-0.3487101753030042,"29":-0.16293194899585267,"30":-0.16921575015056445,"31":-0.0226912147215716,"32":0.04591022570804451,"33":-0.005039979472126869,"34":-0.12953149765350214,"35":0.03122540305445189,"36":-0.08763796035201825,"37":-0.11648769364348405,"38":-0.08209427128383569,"39":-0.06467393536261086,"40":-0.06936721761518384,"41":0.15923170519043311,"42":0.07452536507224437,"43":-0.0371888971048257,"44":0.08264093527109957,"45":0.15460482018337046,"46":0.09417859709893174,"47":-0.17782226768098675,"48":0.26373751779837057,"49":-0.2913319752794498,"50":-0.13751094817048387,"51":-0.16431777463289157,"52":0.06840238154203775,"53":0.11683728333249845,"54":-0.23435107860998358,"55":-0.1851991119575814,"56":-0.09697823409400118,