{"layers":[{"out_depth":36,"out_sx":1,"out_sy":1,"layer_type":"input"},{"out_depth":64,"out_sx":1,"out_sy":1,"layer_type":"fc","num_inputs":36,"l1_decay_mul":0,"l2_decay_mul":1,"filters":[{"sx":1,"sy":1,"depth":36,"w":{"0":0.07337100644274618,"1":0.06282134248952789,"2":-0.07137397678642858,"3":-0.14645656830044232,"4":-0.17624691363844922,"5":-0.23378774736204136,"6":-0.47312535861877714,"7":-0.19421812018490997,"8":0.13604455099170606,"9":-0.10441762932409422,"10":-0.2249475455765863,"11":-0.016812632553207633,"12":0.12739935405733452,"13":-0.27203509499244605,"14":-0.1519368523496658,"15":0.016496514641957345,"16":0.10273720056841333,"17":0.14575916044439774,"18":0.20274694142470295,"19":-0.039956242519574456,"20":-0.17128863018677085,"21":0.18496736495130375,"22":0.3049388394409018,"23":-0.1897653692012276,"24":0.11988433590768467,"25":-0.07499419292321131,"26":0.00008823488562416304,"27":-0.12592940057055818,"28":-0.0014316760119764825,"29":-0.15690977314147359,"30":-0.15371017519314464,"31":-0.08786498094404309,"32":0.04899583103528243,"33":0.26734170808361707,"34":-0.18476186647385734,"35":0.11815522787017463}},{"sx":1,"sy":1,"depth":36,"w":{"0":-0.1375810212228935,"1":-0.19227379150798987,"2":0.005127903970929993,"3":-0.0848024299440959,"4":-0.053236865844550375,"5":0.024516420235881197,"6":-0.05523146467780031,"7":0.12302571640907306,"8":0.214641468755187,"9":-0.19502587335862087,"10":0.18501075760866728,"11":0.026915108773459696,"12":-0.036176969527005914,"13":-0.1219089769912068,"14":0.07034051695423454,"15":0.0007550275298796262,"16":0.006304594452886211,"17":0.1634839225353571,"18":0.07834253581241296,"19":-0.11641848402305739,"20":0.14966819222775724,"21":0.21378762550887018,"22":-0.21937026814442878,"23":-0.12860441329655503,"24":-0.12482352765506435,"25":0.1993710773717933,"26":-0.07019244236241803,"27":-0.000819028802147924,"28":-0.09543192100171016,"29":-0.005585044639387122,"30":0.08194688922156966,"31":0.05283541613237925,"32":0.23998526078863947,"33":-0.12441236888887698,"34":-0.041371343805858045,"35":0.24995293471936253}},{"sx":1,"sy":1,"depth":36,"w":{"0":-0.181744854167009,"1":0.2522224355252994,"2":-0.37035209920345524,"3":0.2726730292192301,"4":-0.1559402829678187,"5":0.03161580315364005,"6":-0.026245733009227144,"7":0.004170202330622124,"8":-0.3914899315060215,"9":-0.1575083609419211,"10":-0.22788836533172024,"11":0.09810441362973898,"12":0.07323928810719606,"13":0.20375646773052963,"14":0.006339810608339948,"15":-0.010576343798953641,"16":0.19668899992543126,"17":-0.027100524738809532,"18":-0.17897261710623674,"19":0.021810431830599643,"20":0.1689420137150387,"21":0.14580155488720106,"22":-0.5660302958352272,"23":0.24095923574853745,"24":0.3324325087736273,"25":0.1582173677684975,"26":0.19683150442210565,"27":-0.26774701318006855,"28":-0.13340373972425365,"29":-0.049753527547179564,"30":-0.24784921055327913,"31":0.24012572017034786,"32":0.11428702097244735,"33":-0.10310450926367899,"34":-0.11266042844061348,"35":0.1369471131912802}},{"sx":1,"sy":1,"depth":36,"w":{"0":0.04183456774991872,"1":-0.25663331605079687,"2":0.10443764429711193,"3":0.09388945442435885,"4":0.01964918327708395,"5":-0.34036762213406757,"6":-0.06483285256723412,"7":0.09647244386362358,"8":-0.04856589816058799,"9":0.14735752352090695,"10":0.27197338763840817,"11":-0.08693928162549444,"12":0.18262994349634157,"13":0.2510322252445677,"14":0.15218549079202776,"15":-0.2228471099920048,"16":0.15646985896988722,"17":0.12567827651638025,"18":0.022130625188328343,"19":0.01108229327232763,"20":0.044179208358991064,"21":0.22955380550870438,"22":0.27732398581788326,"23":-0.2554033779173166,"24":0.15015723330037545,"25":-0.11218696199355963,"26":-0.10715581984756675,"27":-0.047477460731736004,"28":0.051831731110372585,"29":-0.18946113333475081,"30":-0.15990873643161624,"31":-0.1913849881413518,"32":-0.2614100449724064,"33":0.13504966226457707,"34":-0.045149716387612775,"35":-0.000648312192380705}},{"sx":1,"sy":1,"depth":36,"w":{"0":0.018837641500942946,"1":-0.0463212815855733,"2":-0.06323558599573732,"3":0.1198814721012276,"4":0.02781120205038365,"5":0.08033045268958171,"6":0.20627113252525844,"7":0.3796453692521917,"8":0.10522857803412056,"9":-0.14143095586158605,"10":0.3234872716578226,"11":0.1174403268775904,"12":-0.22040468417467615,"13":0.21876223695498945,"14":0.2582133464912905,"15":0.2210872913009191,"16":0.0804711300881461,"17":-0.13961940598000366,"18":-0.006745294180053976,"19":0.168878343590227,"20":0.14368648622590818,"21":-0.12297891104172926,"22":-0.02572014511792807,"23":0.017194810580323187,"24":-0.11523374665630765,"25":0.1477287502711991,"26":0.12055771734059198,"27":-0.20606490419901785,"28":0.131468480726352,"29":-0.0028997442474299555,"30":0.2879462354202697,"31":-0.3178250845573505,"32":-0.013491767588703631,"33":-0.02820874974498262,"34":0.28033586810912714,"35":-0.12421758359085062}},{"sx":1,"sy":1,"depth":36,"w":{"0":-0.07055895905587875,"1":-0.16939887709756854,"2":-0.05847874411587198,"3":0.0878123782241614,"4":0.33834030380033203,"5":0.03080966860238159,"6":0.033341622480594,"7":0.1411689940273968,"8":0.010454120703780125,"9":0.13884617650095366,"10":-0.12142470977777618,"11":-0.10596767925974936,"12":-0.14047005133676033,"13":0.030014549377187772,"14":-0.2825990114267157,"15":0.02272740586367877,"16":-0.17908549204901783,"17":-0.34369454031651064,"18":0.18494797434756297,"19":0.2641679236081632,"20":0.1678782314283722,"21":-0.0069515606361136555,"22":-0.09056237441087325,"23":-0.056488230782235735,"24":0.23584182480644478,"25":0.2829641659634452,"26":0.032905519737235885,"27":-0.12808904187530945,"28":-0.2011378477744308,"29":0.010146144654678838,"30":0.09710737022173568,"31":0.09672269662682013,"32":-0.008900492985091357,"33":-0.165033810818485,"34":0.38466920998693144,"35":0.14960749763690553}},{"sx":1,"sy":1,"depth":36,"w":{"0":0.03763475073979794,"1":0.2512722307256328,"2":0.026018040735594394,"3":0.47804246268506356,"4":-0.001370317885986305,"5":0.07689603692980458,"6":0.16316039189633905,"7":0.04913285655665083,"8":-0.12204803322878961,"9":0.15545951668631067,"10":0.09294373548560507,"11":0.101133556074249,"12":-0.17011300173290436,"13":0.18132101402871947,"14":-0.024538393591197825,"15":0.10788491541190272,"16":-0.0757271845325199,"17":0.22508687759776191,"18":0.011067790006056467,"19":-0.0344178676428495,"20":0.09211939063837064,"21":-0.12288005114764179,"22":0.010110520796286654,"23":-0.08367193062669136,"24":-0.1841429911457978,"25":-0.21559625828179244,"26":0.15138472106547296,"27":-0.1968214226699632,"28":0.10727153104750556,"29":-0.13566526685964547,"30":0.1906275909223329,"31":0.03440568896647773,"32":0.21083261407715428,"33":-0.06208313819102832,"34":-0.24585685152286502,"35":-0.09283839560283579}},{"sx":1,"sy":1,"depth":36,"w":{"0":-0.14989260181517905,"1":0.30483616666199476,"2":-0.028696326757764345,"3":0.2056585803475877,"4":0.16777292260304996,"5":-0.03863217635775531,"6":-0.031510686543833044,"7":0.12966212789842113,"8":-0.022635372193525936,"9":0.18244158314790918,"10":0.2071866429516771,"11":0.1120787409127958,"12":-0.25634489232133917,"13":-0.007325723888888967,"14":-0.13477402954974602,"15":-0.1236761148073311,"16":0.25840130113696813,"17":-0.11705160023404786,"18":0.08585888058968902,"19":-0.01644773682858987,"20":0.10066322796516157,"21":0.04573226392806523,"22":0.007029276224496715,"23":-0.1439495793519531,"24":-0.054919518458056385,"25":0.09306322552317023,"26":0.10241726153152025,"27":0.1354363277693116,"28":0.13553270771488846,"29":0.13645564164148302,"30":0.025290589823890416,"31":0.14110573981149602,"32":0.14637011446761203,"33":0.006627281008016517,"34":-0.0010877075181261148,"35":-0.09959897697603788}},{"sx":1,"sy":1,"depth":36,"w":{"0":-0.2490756428776545,"1":0.11894809869847019,"2":-0.06348651102352854,"3":0.06217170218070489,"4":-0.17145440691076186,"5":-0.001950600809591301,"6":-0.15171467654301649,"7":0.055255052455524166,"8":-0.30295182577136903,"9":0.29960047496330794,"10":0.11339826978233429,"11":-0.06601963216710287,"12":-0.4404894319005445,"13":-0.23893585635534384,"14":0.10605962300734316,"15":-0.27134409407162374,"16":0.02449104032531379,"17":0.06924820145768322,"18":0.07885319256970906,"19":-0.08859794810947601,"20":0.34931428026789707,"21":0.4441075851560915,"22":-0.029189127209806806,"23":-0.28037480253057706,"24":-0.05493063883364196,"25":-0.28846013575279184,"26":0.06815446489315875,"27":-0.13253755081780758,"28":-0.025888392717517975,"29":-0.40775996003000253,"30":-0.3553513763548954,"31":-0.10858865681726505,"32":0.04715079147543295,"33":-0.061877903139084194,"34":0.43891370109355304,"35":-0.08605228385996813}},{"sx":1,"sy":1,"depth":36,"w":{"0":-0.021515672723347163,"1":0.21156809491687306,"2":-0.11056331852693192,"3":-0.2676904211605837,"4":-0.08223584694274884,"5":-0.06557839464628809,"6":0.18636396318734277,"7":0.023229814141109684,"8":-0.22765971910949154,"9":0.30296507724471194,"10":-0.13415889072414947,"11":-0.49527839162123155,"12":0.21288056212878495,"13":-0.23818922483660177,"14":0.19198980100603452,"15":0.044192967438163235,"16":0.15393141900702678,"17":-0.03713152057383726,"18":0.06990267279067751,"19":-0.049247431210476936,"20":0.04787475744938184,"21":-0.33850382500097137,"22":-0.05473360834563289,"23":-0.09279501528536438,"24":-0.05490569213753251,"25":-0.2208165009382902,"26":-0.11208231481928611,"27":-0.06832973884322555,"28":0.21586266139962884,"29":0.0020245001945217644,"30":0.12839622379135143,"31":0.17961203577376902,"32":-0.2324520214992966,"33":0.21288267775321365,"34":-0.0008056972849473352,"35":0.06569669939814558}},{"sx":1,"sy":1,"depth":36,"w":{"0":-0.2192215223125383,"1":0.05633757057328995,"2":0.07007466427873267,"3":-0.2128151394968104,"4":0.024136470472192563,"5":0.047770580435500226,"6":-0.20977947182713094,"7":0.24789687779424766,"8":-0.12196173395117096,"9":-0.15321646557407118,"10":0.17574537996319026,"11":-0.02905186950534863,"12":0.041807652845142936,"13":-0.2018070177972952,"14":-0.05933425090399791,"15":0.1840731253795264,"16":0.08573329635813476,"17":0.18144827390246385,"18":0.08366059695914993,"19":0.14746497908596978,"20":0.08906582519885702,"21":0.08792349665624581,"22":-0.26825842147939993,"23":-0.14955265114277946,"24":0.027650268942021168,"25":-0.30023110068817366,"26":-0.16525475202454287,"27":0.030812352676490424,"28":0.025359754501941553,"29":-0.0937363878624073,"30":-0.12088173708610014,"31":-0.11532020200559122,"32":0.1259441258453684,"33":-0.12279007502997084,"34":0.15551238397014192,"35":-0.07358977595087518}},{"sx":1,"sy":1,"depth":36,"w":{"0":-0.06684162964157445,"1":0.2581329844375533,"2":0.020468439636786958,"3":0.15935281375527816,"4":-0.03798143788764784,"5":0.0640170608143584,"6":-0.2942545230662987,"7":-0.15685437207526753,"8":0.009070292014042134,"9":0.13102014237469267,"10":0.017736673387288966,"11":-0.009047353489869889,"12":-0.00809756610746765,"13":-0.08040077191100241,"14":0.11255901812050131,"15":-0.28498025667612936,"16":-0.1450896511909374,"17":-0.03264269838622468,"18":-0.09264718633210303,"19":-0.00222042407383887,"20":0.09929585607690333,"21":0.06229384592662171,"22":-0.20478133168381388,"23":-0.027698577715980402,"24":-0.02625003623102478,"25":0.18203526802168976,"26":0.45045397515211655,"27":-0.07748434180603549,"28":0.23112551929737193,"29":0.019933322447473912,"30":-0.13048163394839782,"31":-0.11605299991200924,"32":-0.19419428751231926,"33":-0.07263960344410127,"34":-0.03284888077835052,"35":-0.17103653812355343}},{"sx":1,"sy":1,"depth":36,"w":{"0":-0.06876914366305582,"1":0.017619469984863228,"2":0.007622299367626904,"3":-0.028602438336648245,"4":0.017579650032992455,"5":0.24252818661777248,"6":-0.007248636034898623,"7":0.10831287821022106,"8":0.1170135206296124,"9":0.31954574129526425,"10":-0.035619380796968206,"11":0.15595028389799334,"12":0.004374635755120186,"13":0.05972583471194395,"14":-0.07993594045703345,"15":0.0719592900518933,"16":0.002622204636392003,"17":0.3084839266122496,"18":0.06390786057281166,"19":-0.3170888010844584,"20":-0.07602516794703246,"21":-0.05488524254461125,"22":-0.02368352281019493,"23":0.17689970069693237,"24":-0.18874894189071598,"25":0.06690701037420578,"26":0.022049095617142106,"27":0.047390434579477836,"28":0.3061017727720681,"29":-0.2883458521166266,"30":-0.12064962157536055,"31":0.3270734719261709,"32":-0.019951315028133788,"33":0.3305578037904927,"34":0.3435002854301089,"35":-0.2248217881796581}},{"sx":1,"sy":1,"depth":36,"w":{"0":0.18559482089658777,"1":-0.0922031321502772,"2":0.028812586971476078,"3":-0.09055340319069405,"4":0.0571434041717191,"5":-0.2421787861500749,"6":-0.16583237645888554,"7":0.1343707678402327,"8":0.03176095226412202,"9":-0.30435251490213455,"10":-0.3657065867369811,"11":-0.3838256899322196,"12":0.24637200393530798,"13":-0.06249044086231039,"14":-0.13114446324906662,"15":0.11461532041844234,"16":-0.26578087267982226,"17":-0.03977236396758249,"18":0.026759560098133336,"19":0.03515453431244023,"20":0.13899237856264565,"21":-0.13627185550584694,"22":0.11251526843824153,"23":0.07425616599717155,"24":-0.052625256626263474,"25":0.04521622487738023,"26":0.16652501676967854,"27":-0.04705559293085863,"28":0.48504340299889576,"29":0.20357684528987463,"30":0.19126439667162287,"31":0.00369586510733941,"32":0.3616098381066285,"33":0.28534888137960807,"34":-0.01991849155342883,"35":-0.06955540522935998}},{"sx":1,"sy":1,"depth":36,"w":{"0":0.13899837215902097,"1":-0.084405452921842,"2":0.021541974741450875,"3":0.19243303742637635,"4":-0.08670733378877828,"5":-0.1272291055880847,"6":0.08947213454227634,"7":-0.0800948284801688,"8":0.1600040230406973,"9":-0.22364904414976317,"10":0.21958120201011402,"11":-0.19295157945037486,"12":-0.05754732496138041,"13":0.2933135474099,"14":0.5448548415376291,"15":-0.033380612197727755,"16":0.03830338218345317,"17":-0.3010015252287117,"18":0.03477738334381264,"19":0.2297272276943577,"20":0.23034327376224656,"21":-0.30565092741855837,"22":0.183725548705916,"23":-0.012760446570377908,"24":-0.06792023414618796,"25":0.06126448825787691,"26":-0.005263121710429008,"27":-0.27283853002232716,"28":0.1568200680006679,"29":0.07828697428022312,"30":0.06388283790080411,"31":0.10422814992827574,"32":0.09054066134068638,"33":0.2037835986559644,"34":-0.4145531142929628,"35":0.26397061652340925}},{"sx":1,"sy":1,"depth":36,"w":{"0":0.18907039300745884,"1":-0.056494865242467884,"2":0.30205073784303615,"3":0.22386243768839564,"4":-0.3212076156998238,"5":0.12849103773281795,"6":-0.34451452234935614,"7":-0.15720958817560965,"8":0.25557082759425614,"9":-0.07113257052103318,"10":-0.0904779390015062,"11":-0.2684778471080202,"12":0.027747771650352485,"13":0.040962785862641765,"14":0.1886287728899535,"15":-0.20564811367031072,"16":0.10182177647876517,"17":-0.0217239989812662,"18":-0.2028813157961246,"19":-0.11368354495400415,"20":0.012144462780930407,"21":0.06442436194668442,"22":0.08729212524951686,"23":-0.05213729804571023,"24":0.4666887116706365,"25":-0.07072272252112041,"26":0.17881667103610985,"27":-0.285439426702894,"28":0.19041391074551686,"29":-0.10577702827252028,"30":-0.0852948970572057,"31":0.06822566830698754,"32":0.022234534683715123,"33":0.15406168439140575,"34":-0.0818931569578739,"35":0.07681281830250399}},{"sx":1,"sy":1,"depth":36,"w":{"0":0.13177488938459384,"1":-0.02987014957829771,"2":-0.23747172279267179,"3":0.11076258457768817,"4":0.00573452541198058,"5":-0.13626718611961744,"6":0.06825080043311219,"7":0.020355607896870628,"8":-0.09222754024225191,"9":-0.16366780236961304,"10":0.0037076506219455474,"11":0.11585032818825257,"12":-0.3397361544370501,"13":-0.1782044199465091,"14":-0.21518911531130283,"15":0.0771942912339233,"16":0.02505510641537719,"17":-0.009348265121347114,"18":0.002578170144189652,"19":0.003175721429201101,"20":0.1330355668735265,"21":-0.034384197079239884,"22":0.061460914665366066,"23":0.10171831224652726,"24":-0.2602888981534486,"25":-0.07562744695718074,"26":0.0535751453993933,"27":0.28705194239151693,"28":0.26467503873271364,"29":-0.22370387220949667,"30":0.11622055479392658,"31":-0.021339444327023695,"32":0.11898694059919702,"33":0.0734491010095534,"34":0.17910602983460125,"35":0.2240046294182824}},{"sx":1,"sy":1,"depth":36,"w":{"0":-0.2516380956764658,"1":0.15792738026695777,"2":0.12063276641405221,"3":-0.013055079278270073,"4":-0.31989243741421164,"5":-0.005172858213353014,"6":-0.07064744587200136,"7":-0.1790392447590117,"8":-0.09231908729401533,"9":0.13713368632019565,"10":-0.39796735289416374,"11":-0.003070791947750018,"12":-0.15513383075901122,"13":0.16692342950036979,"14":-0.13719700004510377,"15":0.27059105310941783,"16":0.2335571864900285,"17":-0.14959504508614888,"18":0.1956125642496794,"19":0.23712953378248797,"20":0.14581570163969637,"21":-0.06330757232555018,"22":0.045093458413314254,"23":-0.12044060450504157,"24":0.06132723770468182,"25":0.018423829953444344,"26":0.3901665156350173,"27":0.1124439923505985,"28":-0.2759118460662884,"29":-0.07875973111577482,"30":0.05551376954292858,"31":-0.00220328188558302,"32":0.03663887251586695,"33":-0.2257912773849686,"34":-0.03704938949873548,"35":-0.1294150470292152}},{"sx":1,"sy":1,"depth":36,"w":{"0":0.3348194525361767,"1":0.2239985583209189,"2":-0.046924176504981506,"3":0.08286747659714734,"4":-0.13327652967350515,"5":-0.17814161545429316,"6":-0.08121932964112186,"7":-0.3308899655540255,"8":0.004797988764374515,"9":-0.13675804477533507,"10":-0.12647747140194684,"11":-0.12261426711338762,"12":-0.36790092797209856,"13":0.034891105727742025,"14":-0.3201999108474446,"15":0.10838270479124187,"16":0.12300746471301076,"17":-0.14896805432397942,"18":-0.022746192679801883,"19":0.1540590243347371,"20":0.09947833889683405,"21":0.029176017365049427,"22":0.10179236780347041,"23":-0.08391788598331869,"24":-0.2929158227647476,"25":-0.198824812763967,"26":0.1903326084989471,"27":0.0020406974294391576,"28":0.125052385773363,"29":0.4412794824631639,"30":-0.250249896415328,"31":-0.07861111477624469,"32":0.10134730641460528,"33":0.0162587524100954,"34":0.14271123872812294,"35":-0.052336811174192276}},{"sx":1,"sy":1,"depth":36,"w":{"0":-0.12259198105083824,"1":0.1131895189133129,"2":0.1992058840367469,"3":-0.22172444874142072,"4":0.1721889641515879,"5":-0.017288389278834998,"6":-0.046248930813636846,"7":-0.1908987103715748,"8":-0.21578192938307506,"9":0.09415509217417814,"10":-0.037874246490060465,"11":-0.164248008610418,"12":0.07741304535832141,"13":0.1768025218260574,"14":-0.0400877731981641,"15":0.0792884028579227,"16":-0.29007575647753925,"17":0.0650052925613975,"18":-0.16162456898530303,"19":0.030851163667217185,"20":0.05318532075265384,"21":0.1948463516919496,"22":0.13527440598484688,"23":0.12647962351802486,"24":-0.04649903513539385,"25":-0.08207619860552917,"26":0.04384954949183127,"27":0.14252977101389724,"28":0.11909912262867665,"29":-0.0497719097322997,"30":0.08065834222772768,"31":-0.12792834593818597,"32":0.08460205170666708,"33":-0.003454076039603301,"34":-0.43863767697549466,"35":-0.07144590646012268}},{"sx":1,"sy":1,"depth":36,"w":{"0":-0.5346895016020564,"1":-0.09847508346504519,"2":0.1895109208107689,"3":0.11252870576856004,"4":0.027995237828438994,"5":0.0860438166617894,"6":0.003649104962591344,"7":-0.01977100400605026,"8":-0.3324554948434642,"9":-0.06973625104624918,"10":-0.4393722974867809,"11":-0.028626988710207687,"12":-0.15105040682349127,"13":-0.03728565691974646,"14":-0.22307649542009292,"15":0.046227143917544754,"16":-0.1866090496137734,"17":0.16867458115014514,"18":0.018191264333788613,"19":-0.06445584538924733,"20":-0.0922297685293216,"21":0.1108754980720203,"22":-0.34189875105645745,"23":0.18561427605825545,"24":0.2199362205880987,"25":-0.1156768663970002,"26":-0.11534630845214448,"27":-0.06964823970682549,"28":-0.07714388915180198,"29":-0.025441952654074833,"30":0.185284226133026,"31":0.10382967093514577,"32":0.10092651619988448,"33":0.03149192132270809,"34":0.01586744953555192,"35":0.20189768356225427}},{"sx":1,"sy":1,"depth":36,"w":{"0":-0.3717829506292117,"1":0.004165882468202866,"2":-0.053854957106441434,"3":0.19342869888137693,"4":0.26562927071337616,"5":0.1777713414673232,"6":-0.2202608246404938,"7":0.11812119843481476,"8":-0.035176675128044746,"9":-0.08126089556397237,"10":-0.24058022317069602,"11":0.1464753379947642,"12":-0.1574578054500487,"13":0.24796798028961753,"14":0.1450840190921086,"15":-0.1371965753127892,"16":0.1426306843990062,"17":0.05193454679435227,"18":-0.30806638232649075,"19":-0.24658032361642807,"20":-0.09679608746927988,"21":0.035742054154112614,"22":-0.10773401703408018,"23":0.19938074368510458,"24":0.09170985377233631,"25":0.12780862114505465,"26":-0.15268040454688558,"27":0.1843828227943237,"28":-0.009966177661894799,"29":0.2352341517415002,"30":0.09937595614461435,"31":-0.021845954735054615,"32":0.1438346454076862,"33":0.07162152284584768,"34":0.05878197707215931,"35":-0.11239654691866396}},{"sx":1,"sy":1,"depth":36,"w":{"0":-0.35754251112208985,"1":-0.08132586668437264,"2":-0.2019637623911966,"3":-0.2947300066147151,"4":-0.0025698747985095334,"5":0.15090515618929776,"6":-0.03711069475029952,"7":0.21237203572964083,"8":0.005112965754029572,"9":0.005731284968119269,"10":0.010794767876002889,"11":0.309464050422012,"12":-0.1676020596469136,"13":-0.08283638045594073,"14":0.1925794269312912,"15":0.03862065687391714,"16":-0.2286196791780966,"17":-0.09100403451185081,"18":0.18115056745911803,"19":0.15257839164589557,"20":0.22706663857622394,"21":-0.07221203293016608,"22":-0.12571705485278595,"23":-0.06277356274829997,"24":-0.12214632065086749,"25":-0.19025741460040327,"26":-0.09538088508442931,"27":-0.03437475051490468,"28":-0.16747436918002603,"29":0.09189931985300437,"30":0.3115613736265231,"31":-0.05819745387430282,"32":0.29930809974281397,"33":0.218004942462106,"34":0.08574030929259059,"35":0.19014483405171637}},{"sx":1,"sy":1,"depth":36,"w":{"0":0.014618585750170235,"1":-0.05629929298401628,"2":-0.12159950600903993,"3":0.1505991550380808,"4":0.11281579688537881,"5":0.1247814673276807,"6":-0.022668234649357147,"7":-0.14274927733628645,"8":-0.16009077431793464,"9":0.337663971933906,"10":0.5214227225122088,"11":-0.41284484372257674,"12":0.277991050262434,"13":0.07813146809886483,"14":0.03002542091229141,"15":0.16754595572396053,"16":-0.06721365173571835,"17":0.2887821852512007,"18":0.12257767708911729,"19":0.08179498911798408,"20":0.06588436328853654,"21":0.034290165471310446,"22":-0.3183555600608896,"23":0.39639874691008664,"24":-0.025706333790834396,"25":-0.27899043291985715,"26":0.14019320348151645,"27":-0.3602624966794913,"28":-0.06667324762810727,"29":0.001725925092667943,"30":-0.16741909767835078,"31":0.2403632920406651,"32":-0.057800072087854946,"33":0.19327189085059862,"34":0.054462309944471,"35":-0.15782240175942686}},{"sx":1,"sy":1,"depth":36,"w":{"0":0.04393624841844367,"1":-0.01678282752429348,"2":-0.05817945928345725,"3":-0.04588624286193245,"4":-0.023875543980063283,"5":0.048547000325372604,"6":0.09638280762665973,"7":0.057016598946094135,"8":-0.0409605574679858,"9":-0.031951359770592706,"10":-0.20406161529735492,"11":-0.27977792763334747,"12":-0.0921650996507715,"13":0.014103355780119564,"14":0.03408107163612587,"15":-0.14255782954266583,"16":-0.06987983816599672,"17":-0.012979431418071789,"18":-0.05415493226332424,"19":-0.3174528919208209,"20":-0.19617213354151494,"21":-0.24859482352300313,"22":0.05577899666394186,"23":0.03214551343925089,"24":0.06579526948529874,"25":0.09265826959751051,"26":-0.21503974009664542,"27":-0.01659749655574417,"28":-0.15669686366469476,"29":0.06428486987099064,"30":0.14940040086831366,"31":-0.028942417758473525,"32":0.15788755302282131,"33":-0.4939908281842983,"34":0.053175000840802615,"35":-0.1747376398291737}},{"sx":1,"sy":1,"depth":36,"w":{"0":0.021179253775448482,"1":-0.27448625470411303,"2":0.01896823723750342,"3":-0.1284125484927665,"4":0.05629401103200861,"5":-0.15181200157174002,"6":0.29804472693022543,"7":-0.16141825559625114,"8":-0.29572437926122974,"9":0.11579775861856037,"10":-0.024070764060396346,"11":0.13436185861548774,"12":-0.14890150567814048,"13":0.01945737292276938,"14":0.12674580715245026,"15":-0.12163378479852946,"16":-0.2784715298324195,"17":-0.11487179543147902,"18":0.2236620118722,"19":0.013497824484079851,"20":-0.014153085120228611,"21":0.06154325912865678,"22":-0.16026325040023887,"23":0.06054958250075238,"24":-0.01192350211351062,"25":0.25691118978648503,"26":0.03937363316070223,"27":-0.15493973636343292,"28":-0.03584961932540057,"29":0.03806987206980085,"30":-0.07683450971322653,"31":-0.02070026045531583,"32":0.174646814035714,"33":-0.02514675649882003,"34":0.19249027973673274,"35":-0.1103068379255323}},{"sx":1,"sy":1,"depth":36,"w":{"0":-0.3134934778629294,"1":-0.09923189844714643,"2":-0.32218663812928766,"3":0.15446149150302071,"4":-0.027646317879546394,"5":0.034760530882373825,"6":-0.048558060612624646,"7":-0.04151044157076708,"8":0.04075146849686302,"9":0.15628983406560013,"10":0.03173622128331876,"11":-0.13677895940561635,"12":-0.017559140278393424,"13":-0.11091657589983588,"14":-0.34395884104258717,"15":0.11912106820036032,"16":0.30301506825406843,"17":0.18790307187964983,"18":0.19625374803733175,"19":-0.026975283322938737,"20":-0.10604349199409177,"21":-0.12423354702635657,"22":0.05727497527045836,"23":-0.07881834754419764,"24":-0.2003039425051974,"25":-0.1829368529753355,"26":-0.04289894140100802,"27":0.0111356107262329,"28":-0.17563744839912918,"29":0.01888471298840854,"30":0.44299138947036515,"31":-0.07357920708042044,"32":0.2372780530682534,"33":0.045990222502067614,"34":-0.23888054319806243,"35":0.02108517560156807}},{"sx":1,"sy":1,"depth":36,"w":{"0":-0.2333005459531748,"1":-0.0006258737009272959,"2":0.12876907338471535,"3":-0.2654474209069646,"4":-0.1426114138772419,"5":-0.05319010593913502,"6":-0.16525362693718462,"7":-0.0024958467091245676,"8":-0.024415889030007666,"9":0.1419373126923373,"10":0.02961289093864295,"11":0.07154694748680722,"12":-0.059420942005433394,"13":0.14856125426954545,"14":-0.23157435531541506,"15":-0.21216464054074252,"16":0.06504607564108968,"17":-0.060621814708865,"18":-0.07005312937064946,"19":-0.03897095566238332,"20":0.11623102683871896,"21":0.0971127392850791,"22":-0.11232767271636064,"23":0.31362042531245576,"24":0.16769120092398426,"25":-0.0006401129282738015,"26":0.019064942345693572,"27":-0.0076048743208740385,"28":-0.27814355270094593,"29":-0.02263389257726445,"30":0.1346139016096366,"31":-0.11406198386957711,"32":0.016564740743202293,"33":0.2870191590910295,"34":0.055729958612559256,"35":0.0059789935999716515}},{"sx":1,"sy":1,"depth":36,"w":{"0":-0.2634724284695217,"1":0.0076080536725530185,"2":-0.16836703059117858,"3":0.016233965529129677,"4":0.1629315149476152,"5":0.21224283793588217,"6":0.1332992986731086,"7":0.15743005523333378,"8":0.07866206014065764,"9":-0.156803837058654,"10":0.12415903621763712,"11":0.03547328071540665,"12":-0.0676790858363341,"13":0.16863747937242302,"14":0.016407306492321246,"15":0.1702151522308353,"16":-0.012183144820332718,"17":-0.014646776152401569,"18":0.08247166785253211,"19":-0.07876372335542653,"20":0.03479039379368144,"21":-0.04220468522777555,"22":0.3832469994492966,"23":0.10897263659025677,"24":-0.26238630815902186,"25":-0.17126007111902172,"26":-0.10419632600107927,"27":-0.07522152670358444,"28":0.23655612916791022,"29":0.014363465758663768,"30":-0.2541859589427687,"31":-0.12044857497739427,"32":-0.16860593082478784,"33":-0.05352481515382043,"34":-0.05192131875511887,"35":-0.14172792203209175}},{"sx":1,"sy":1,"depth":36,"w":{"0":0.15680734738506028,"1":-0.2303712083577279,"2":-0.12289794217721517,"3":-0.2460743483109942,"4":-0.053418863448280916,"5":-0.19922498387481508,"6":-0.16509219213735227,"7":0.30666922423753656,"8":0.14948768629805356,"9":0.04987936303950929,"10":0.17795221263766084,"11":-0.029098194456351673,"12":0.3402443006485074,"13":-0.003453018532172549,"14":-0.008598996156582226,"15":-0.05416094840354747,"16":-0.13616679639117915,"17":0.07211884497507211,"18":0.04243474241375614,"19":-0.04932529123204773,"20":-0.12152704894916168,"21":-0.0617501554983871,"22":-0.1880760650275142,"23":0.0236313220020344,"24":-0.05416990782881431,"25":-0.08766715035601977,"26":0.37818390450624856,"27":0.03808992875303511,"28":0.046200080495670114,"29":-0.17861897061285945,"30":0.10452007692606144,"31":-0.27400411304390043,"32":0.24630136195998714,"33":-0.1275632758540956,"34":0.17112223679955685,"35":0.13426190180137704}},{"sx":1,"sy":1,"depth":36,"w":{"0":-0.14875058163959165,"1":0.11041733065246769,"2":-0.12350090127278573,"3":0.08526355199182498,"4":-0.024013323859448304,"5":-0.3090858500664203,"6":-0.08714053235345737,"7":-0.07916512798604897,"8":-0.07220440238470426,"9":0.017012403303877068,"10":0.09262338284745823,"11":0.08766172923581947,"12":0.047093117305157396,"13":0.013283503247475553,"14":0.16752613450176165,"15":-0.13627408897613574,"16":0.24596172878668301,"17":-0.221893900743444,"18":-0.14764202533492074,"19":0.1854085903912417,"20":-0.09975385836125374,"21":-0.013084110128415694,"22":-0.192363615512709,"23":0.21890523242074422,"24":0.21382602844376705,"25":-0.21128545015132869,"26":0.09201487550902157,"27":0.12738100284532955,"28":-0.03773843192215384,"29":0.28971221911395134,"30":0.12911502004024014,"31":0.07573642680015687,"32":-0.1965709555307733,"33":-0.10904336006042505,"34":-0.14812950330376323,"35":0.16488306319095108}},{"sx":1,"sy":1,"depth":36,"w":{"0":0.029045740425655834,"1":0.010904743119872053,"2":0.07120118157819241,"3":0.2308517091686972,"4":-0.4027846758847461,"5":-0.07263092589990695,"6":-0.10678878528829226,"7":-0.01498520844674485,"8":-0.0722793624872159,"9":0.11826276416481625,"10":-0.29068332774401495,"11":-0.06842795798475301,"12":-0.06805674297795208,"13":0.1450329523507555,"14":0.08362713355023406,"15":-0.12664062583582153,"16":0.27301131580393706,"17":0.11029364755505576,"18":0.007949225897622612,"19":0.05578378188897152,"20":0.20405292018843307,"21":0.028545398667213978,"22":-0.03911832754212488,"23":0.3069576502315662,"24":-0.23732157203060375,"25":-0.08343236674606526,"26":0.08307929617369393,"27":-0.022161907841236582,"28":-0.19007944212474945,"29":-0.4764817023213583,"30":0.09715309868650664,"31":0.04617686626234015,"32":0.1565432546510192,"33":-0.1707670986188527,"34":0.19567674802470006,"35":-0.2815253692117331}},{"sx":1,"sy":1,"depth":36,"w":{"0":-0.38228674410177543,"1":-0.14518714342573133,"2":0.11193708247115094,"3":0.007329097975183428,"4":0.1313499896313771,"5":0.20716037447840205,"6":-0.11204733377006931,"7":-0.06429595744635762,"8":0.1458239742592283,"9":0.24434648833836017,"10":0.2875505889730597,"11":0.2488074622978168,"12":0.05862509133523595,"13":-0.12565039591851004,"14":-0.01737676306110064,"15":-0.059694576863768764,"16":-0.2317483740152521,"17":0.28920677650080834,"18":0.07554243411689436,"19":-0.2818727016511422,"20":0.17332812758656652,"21":0.38328271188971996,"22":-0.238239032704878,"23":-0.29364398792695423,"24":-0.03298740971013411,"25":-0.040529282656143945,"26":0.18227453869478766,"27":0.2157073808256277,"28":0.2813978525657308,"29":-0.24362230434999765,"30":0.3895918360257553,"31":-0.04646582532836452,"32":0.10463827068631078,"33":-0.03527120206033128,"34":0.1857636990269113,"35":-0.005420755061249292}},{"sx":1,"sy":1,"depth":36,"w":{"0":0.13053329362381855,"1":-0.0704609306457941,"2":-0.12385725486875587,"3":0.21397997784870262,"4":0.27408675333212873,"5":-0.0226219931012806,"6":0.15970706177052385,"7":-0.041231057767887255,"8":-0.14516544246234972,"9":0.12435687484194605,"10":-0.08654751133896153,"11":0.09742710159484028,"12":-0.08060850063736844,"13":0.004880886413380933,"14":-0.141497319294851,"15":0.2613163954381463,"16":0.42323120629417554,"17":-0.1798586132762135,"18":-0.35030333393393565,"19":-0.04633000378383757,"20":0.13589320266944066,"21":-0.31931184300842547,"22":-0.024955520671103,"23":-0.1357867565787567,"24":0.09707423606226914,"25":0.11464110753501895,"26":-0.006406244826776562,"27":-0.12637959596187356,"28":0.03346477173771286,"29":0.18628719218929027,"30":0.3071627572387872,"31":0.1076454700624082,"32":0.017934064520349676,"33":-0.1215626272579988,"34":0.11357895048586801,"35":-0.216911151382743}},{"sx":1,"sy":1,"depth":36,"w":{"0":0.09939577808649347,"1":0.1295960029748723,"2":0.07851882217073315,"3":0.22383661346440964,"4":-0.20315683969459325,"5":-0.02792047585746167,"6":0.026650665641464562,"7":0.04244346437605286,"8":-0.14730771680402596,"9":-0.21140400712676763,"10":0.22222585202292475,"11":-0.10782110829776352,"12":0.050642648545475163,"13":-0.175857455715071,"14":-0.07623586591791832,"15":-0.09116790600272723,"16":-0.12909046854995626,"17":-0.032140214725827,"18":0.4884602412444628,"19":0.10196855439442391,"20":-0.1263657057297823,"21":-0.016952105088119944,"22":-0.08227761187920754,"23":0.014017472739415407,"24":0.09055525610815486,"25":0.4180989286510157,"26":0.00011157131138276168,"27":-0.008998723012878924,"28":0.14160305325681022,"29":0.24128471172564844,"30":-0.032167821533391316,"31":-0.23454293225503053,"32":-0.05967984846562123,"33":-0.0764805901453826,"34":-0.027876075220461195,"35":0.10224501192272975}},{"sx":1,"sy":1,"depth":36,"w":{"0":0.23480224779969577,"1":-0.08191414729793622,"2":0.033810340871412,"3":0.017196347164224076,"4":0.03587991238166048,"5":-0.3516768380533894,"6":-0.15896093007796322,"7":0.005980142339213691,"8":0.27414493137017043,"9":0.00024147291921051622,"10":0.1884611296381176,"11":0.36268880008348847,"12":0.0059079295801425045,"13":-0.11421783585068015,"14":-0.07966562356443749,"15":0.12435908131614477,"16":0.051867056584067164,"17":0.28310480400967897,"18":0.10403184828424444,"19":0.27336820517652655,"20":0.18209149104758837,"21":0.10839979536719274,"22":-0.14429372933907897,"23":-0.2514878807416609,"24":-0.019873646006261857,"25":-0.06491505058149502,"26":-0.0936624326322167,"27":0.20197041052524328,"28":0.21053402932582305,"29":0.0898463297080973,"30":0.18635834728585615,"31":0.06634924761562487,"32":-0.12676282005013764,"33":0.23339334205014342,"34":0.11850155908429781,"35":-0.2254201415205994}},{"sx":1,"sy":1,"depth":36,"w":{"0":-0.1941870623126881,"1":0.1451534564007023,"2":-0.02736438399078548,"3":-0.016447791544329557,"4":0.11011016001268693,"5":-0.33641879481935155,"6":-0.1656905465385996,"7":-0.24457448272577972,"8":0.021357792112198435,"9":-0.1461399131544789,"10":-0.06786543259861977,"11":0.3034949850128925,"12":0.004347463761935443,"13":0.06991759411354638,"14":-0.15886594273282784,"15":0.016621988609052223,"16":-0.2751666170953059,"17":0.005410958503626954,"18":0.02216817024755213,"19":-0.05290439298976501,"20":-0.05472795395813845,"21":-0.09425874843462306,"22":-0.07861466524260094,"23":0.05499129569480186,"24":0.12322526830455101,"25":0.099239352569678,"26":0.13296454329520743,"27":0.11461091597713176,"28":0.12386165240295266,"29":-0.0269111143873438,"30":0.03262219697774931,"31":-0.06751435830479946,"32":-0.17373420311705803,"33":0.2532458886656385,"34":-0.05044265589482981,"35":0.04494094336295748}},{"sx":1,"sy":1,"depth":36,"w":{"0":-0.18908392780120237,"1":-0.0645535929447002,"2":0.1294668830588707,"3":-0.263456982365598,"4":-0.15325431549469756,"5":0.031611193395190966,"6":0.03476485604285257,"7":-0.04661216249749798,"8":-0.03947802142520625,"9":-0.04945695620944752,"10":-0.2335974799262908,"11":-0.16506622031663912,"12":0.06685527378806344,"13":-0.029740210655581762,"14":0.20436875945959887,"15":-0.03545839188726583,"16":0.2106131491125977,"17":-0.3117186568951349,"18":0.11192196365631837,"19":0.10998201986979336,"20":-0.016500966401930012,"21":0.3542826344334427,"22":-0.10826819077269832,"23":0.14897821541399334,"24":0.15718364110923772,"25":0.0063949333837808224,"26":-0.1873446176694772,"27":0.269741368525391,"28":-0.20692288366221245,"29":0.2061955236365163,"30":-0.15180328661334133,"31":0.13995579276538003,"32":-0.17791515469752575,"33":0.10301194069015178,"34":0.23056796011389522,"35":0.06156772417188233}},{"sx":1,"sy":1,"depth":36,"w":{"0":0.05406978278642404,"1":-0.26669476034713185,"2":0.27459904474082886,"3":-0.06856967326125465,"4":-0.02463049511943493,"5":0.027701857644645975,"6":-0.14873344221514576,"7":0.06710561321625888,"8":0.03168404718215239,"9":-0.06823102037396346,"10":-0.06540520566523728,"11":-0.3050367408237942,"12":0.11849575699120883,"13":0.01100429573691329,"14":-0.3558541356286562,"15":-0.012742250332917237,"16":-0.11078818601769434,"17":0.08279516637830717,"18":0.050545360024671214,"19":-0.2206157251862583,"20":0.21767189814294635,"21":-0.1312516034136023,"22":0.014617875126643125,"23":0.13356137586932842,"24":0.18055060028719608,"25":0.10094935509100404,"26":0.06925821619129129,"27":-0.31941118438414157,"28":0.10040879454846528,"29":-0.1830010000635079,"30":-0.18345634277317535,"31":0.31447727307262213,"32":-0.027687328171896286,"33":0.04981437618523705,"34":-0.2781882661099142,"35":-0.1635887234320541}},{"sx":1,"sy":1,"depth":36,"w":{"0":0.15980405408135917,"1":-0.30669044624498226,"2":-0.17108604660712173,"3":-0.006225179233201797,"4":-0.013907460841301372,"5":-0.35294851717605447,"6":0.09491585957816609,"7":-0.3190339353919129,"8":0.17473189207556866,"9":-0.22212709190793736,"10":0.09555950745106898,"11":0.1862287255796469,"12":0.05218670279301813,"13":0.017820631212008886,"14":-0.00038770624890070666,"15":-0.09325545304659608,"16":-0.06294821498517494,"17":-0.3841732145698876,"18":-0.2797457119805217,"19":-0.25197603670234,"20":0.09649888764433455,"21":-0.1148879167487877,"22":0.08664476428421258,"23":0.06508818638953494,"24":0.09943469627843371,"25":-0.29215467641209847,"26":0.09471311191702292,"27":-0.07704446269330072,"28":-0.1178679572144074,"29":-0.17749364922579014,"30":0.02443170405988812,"31":0.056548165450514234,"32":-0.00740232603957125,"33":-0.06676195040219364,"34":-0.08922859649894792,"35":0.09650836779444}},{"sx":1,"sy":1,"depth":36,"w":{"0":-0.054350767568136345,"1":-0.1296593489141034,"2":-0.058840571467849864,"3":-0.21576815095472643,"4":0.04135529729286311,"5":-0.19454131971070077,"6":-0.002846266307874329,"7":-0.12303376697390234,"8":0.056333242720206754,"9":0.02465323429783709,"10":0.00758245537114421,"11":0.0682236012149123,"12":0.19003720006118377,"13":0.008452758389424357,"14":-0.0029140259855522494,"15":0.0011627969181453402,"16":-0.30071629137396094,"17":-0.11609461641885387,"18":-0.1049753810571553,"19":0.08750442462313797,"20":0.18071550333314212,"21":0.18018934495423483,"22":0.07279865509473583,"23":0.0017172013751076446,"24":-0.2381599626459066,"25":0.0734324945184009,"26":0.21542422546407028,"27":0.14535550537615222,"28":0.08554879145423946,"29":-0.3262079171643606,"30":-0.08309820970744942,"31":0.05133480629059007,"32":0.3089915173717389,"33":0.004093263969299135,"34":0.13669219548677242,"35":-0.10077493168165827}},{"sx":1,"sy":1,"depth":36,"w":{"0":0.3574856916923158,"1":-0.2690153715167418,"2":-0.1935772451117379,"3":0.14440037289053306,"4":0.1932740309415294,"5":-0.12030523311075043,"6":-0.09173204349805261,"7":0.06546257261673455,"8":-0.005321796545071971,"9":0.22733658802497467,"10":0.278195701540654,"11":0.199709827296806,"12":-0.053524553324902004,"13":0.022766598195592902,"14":-0.07437098768243777,"15":-0.16820393297235098,"16":0.15580011873236882,"17":0.029878036000788304,"18":0.030625914139542722,"19":-0.16826846933430542,"20":0.06389659281407445,"21":0.07322756219657064,"22":-0.16674232347633805,"23":-0.032770756397976566,"24":-0.10233268871052215,"25":0.24821126281912265,"26":-0.07936578988384219,"27":0.140366833052248,"28":-0.0500993440187772,"29":0.028780337868960164,"30":0.1688950469261604,"31":0.1479197482484249,"32":-0.4372018680800845,"33":-0.00974635380289857,"34":-0.018739029560577977,"35":0.059185432659598844}},{"sx":1,"sy":1,"depth":36,"w":{"0":-0.016909790983799754,"1":-0.018177700453934655,"2":-0.13831711198857377,"3":-0.24341899056637856,"4":-0.030209183089015688,"5":-0.12698924317610838,"6":-0.09317549518133932,"7":-0.08637279218933577,"8":0.13622700869793025,"9":-0.601512631374364,"10":-0.11481478541683864,"11":0.08893832851368302,"12":0.11399707079832731,"13":0.04195881973513086,"14":-0.2120089955227164,"15":-0.23245898254883854,"16":0.05251154109098583,"17":0.0435783870137794,"18":0.13406906527320145,"19":0.10788753389326484,"20":0.23231048900746898,"21":-0.050658751796419786,"22":0.01997010003888157,"23":0.4354487088702855,"24":-0.09346468354551557,"25":-0.24902836329068015,"26":-0.07224409610434109,"27":-0.046591022981061436,"28":-0.2111246485547789,"29":-0.10170093570225575,"30":-0.13346104026704272,"31":0.2805248057829537,"32":-0.0018086552805955654,"33":0.35799054557390797,"34":-0.04714369731751024,"35":0.4539789089346563}},{"sx":1,"sy":1,"depth":36,"w":{"0":-0.015427452493939118,"1":-0.1356595163321853,"2":0.029822364607912603,"3":0.2408005990849273,"4":0.007182612384375712,"5":-0.02421018506671499,"6":0.08972696961928449,"7":0.08931944840086092,"8":-0.015834854047465426,"9":0.25013557933826286,"10":-0.11816439157241604,"11":0.10120043529193791,"12":0.23883710947375322,"13":-0.2466213392245027,"14":0.32348336221500684,"15":0.10478559056678553,"16":0.09463388586833582,"17":0.37119831268072534,"18":-0.39024121335330514,"19":-0.03974260139548706,"20":0.0682233424263064,"21":-0.20995452568183898,"22":0.01092963579742593,"23":0.15984808786273177,"24":0.20321065458817733,"25":0.14176826371066753,"26":0.08512389219412445,"27":0.02222561762967547,"28":0.06479352596805205,"29":0.1388176483815388,"30":-0.19700533091043604,"31":0.00441295109221086,"32":0.08596962680146876,"33":-0.09414879830522806,"34":0.07924845255249265,"35":-0.10463949122111793}},{"sx":1,"sy":1,"depth":36,"w":{"0":-0.24865062565573753,"1":0.09168778865483979,"2":-0.16636473717855063,"3":0.033574001590381625,"4":-0.08676515953545504,"5":-0.009815589566609497,"6":0.06773910791275355,"7":0.2877339607266782,"8":-0.06945784714907832,"9":-0.21045666453483308,"10":0.014516236917449868,"11":0.20425398292791258,"12":0.11811600848290055,"13":0.21987586943200535,"14":0.22192512494947972,"15":0.07135393026936036,"16":-0.17259620937377187,"17":0.01731781829192939,"18":0.06291732299736558,"19":0.1267356233540229,"20":0.13753582254276556,"21":-0.08133044450756452,"22":0.0045783530818055244,"23":0.22086166230083268,"24":-0.004005432057988654,"25":0.021579077510740462,"26":-0.0875218645516956,"27":0.2124763435992974,"28":0.06150471936771361,"29":-0.1258440175816181,"30":0.20402923514665558,"31":-0.3562421639836043,"32":0.1001205314108163,"33":0.062311071567554326,"34":0.25631850303646975,"35":-0.024660772777776858}},{"sx":1,"sy":1,"depth":36,"w":{"0":-0.15941702576534347,"1":-0.10944559203476042,"2":-0.24036200151064377,"3":-0.009335958263928188,"4":0.22520860266915127,"5":0.19481297127802666,"6":0.10397950889896211,"7":0.10963493915489865,"8":-0.14088173699118064,"9":0.20546915857127446,"10":0.3503623483918495,"11":0.25818306709375155,"12":-0.05990538102972051,"13":0.3182159264155914,"14":0.11244486980996912,"15":-0.12740898931235115,"16":-0.07587812941240141,"17":0.27742722325402386,"18":-0.062275828623711206,"19":0.15785095024118367,"20":-0.08387805730194912,"21":-0.11765606825383991,"22":0.020951089625275806,"23":0.11833216945371679,"24":0.1914759821306436,"25":0.22118433126283527,"26":0.30226169979662976,"27":0.04636672874218883,"28":-0.20344519410166612,"29":0.17781480737762642,"30":0.18826062437626884,"31":-0.1332785917242621,"32":0.283916864645026,"33":-0.09007803270972645,"34":0.15829627669659674,"35":0.03374965756439356}},{"sx":1,"sy":1,"depth":36,"w":{"0":0.08435329285595021,"1":0.25666292233426213,"2":0.2109769065336433,"3":-0.08490064462810963,"4":0.22550667271549948,"5":-0.04429316285574647,"6":-0.04130886661924756,"7":-0.08658593449389655,"8":-0.2290260414710396,"9":-0.005286371237486265,"10":0.14301155822070327,"11":-0.07037439561096508,"12":0.1441503468207401,"13":0.10485610947234965,"14":-0.27622375087924694,"15":0.44339826708039026,"16":-0.31249948112009285,"17":-0.027138469046778538,"18":0.007723150605378313,"19":-0.05296715303726485,"20":-0.02270821448333955,"21":0.054649969411258305,"22":-0.2210635187014632,"23":-0.08371055457183482,"24":0.023957435895286566,"25":0.18385267488894833,"26":0.15058876801533658,"27":-0.24238184748027533,"28":0.24402100090358622,"29":-0.05631146752357575,"30":-0.13430774823760896,"31":0.31766975488046395,"32":-0.19574526164027992,"33":0.0785900228547587,"34":0.11160514950302516,"35":-0.11155842826725998}},{"sx":1,"sy":1,"depth":36,"w":{"0":-0.0029363229282231063,"1":0.24599979130788102,"2":0.13722039883703413,"3":-0.15161709647456367,"4":-0.29278992383999514,"5":0.08387085334830789,"6":-0.12817392029710134,"7":0.05382302048494834,"8":-0.11419087192806908,"9":-0.07638973719505204,"10":0.043282009093414654,"11":0.11212414909556255,"12":-0.14975609745921906,"13":0.16122176494947618,"14":0.010537770171533267,"15":-0.16410768296501924,"16":0.05489480268028975,"17":-0.31341663623932764,"18":0.16929842332326617,"19":0.11172370002856712,"20":-0.02865040518867699,"21":-0.07682104995994479,"22":0.10422249555881495,"23":0.19627076408305025,"24":0.028971580391917995,"25":0.2396743052591888,"26":-0.046901014026625894,"27":0.07465173450414632,"28":0.19588540992522108,"29":-0.26921782980645165,"30":0.049954303588403776,"31":0.06834370121843257,"32":0.2027684994317151,"33":-0.14038823430247402,"34":0.09862125641765668,"35":0.08130220439589621}},{"sx":1,"sy":1,"depth":36,"w":{"0":0.1450779008074818,"1":-0.13768854099910002,"2":0.1199434213254424,"3":0.25489248395736963,"4":-0.0061221612086815435,"5":0.06887949986833354,"6":0.07605621488767728,"7":-0.1778759469609176,"8":-0.2854751488194223,"9":0.22509270313088875,"10":0.20940999225449008,"11":-0.27191775718907224,"12":-0.1630608808668789,"13":0.18946536165926442,"14":-0.2138565734412672,"15":0.09706763441626245,"16":0.49295924028395843,"17":-0.142700793639324,"18":-0.05300943543119017,"19":0.2561979480861475,"20":0.17966676595919978,"21":0.0028644428213219627,"22":0.2825257201185307,"23":-0.0570682759145043,"24":-0.027575086072773855,"25":-0.11013628967591016,"26":0.10748960705624686,"27":-0.030706332618821167,"28":0.33166841346523157,"29":0.15602164576304872,"30":0.12020330872797211,"31":-0.07498854196911556,"32":0.03712166723895182,"33":0.1282074588812993,"34":-0.08336446994343873,"35":0.13475208372216374}},{"sx":1,"sy":1,"depth":36,"w":{"0":0.013807704043204928,"1":-0.11385318377098468,"2":-0.056016491336037484,"3":0.008860174265751431,"4":-0.07756553663405459,"5":0.21199210479334998,"6":-0.08738206472266549,"7":-0.14757584083651906,"8":-0.06708142069250743,"9":-0.02617094517892206,"10":-0.20799093218922582,"11":0.07601746731006404,"12":-0.02264600113384473,"13":-0.16017723859709246,"14":-0.09600777719064492,"15":-0.056377803836039665,"16":0.18317682262172905,"17":-0.18187325219623532,"18":0.15557392672227818,"19":0.3191685695048564,"20":0.20404231775207848,"21":0.042898196088553345,"22":-0.044915139837080745,"23":0.019136796589635595,"24":0.172749285571067,"25":-0.12177687076949971,"26":-0.024680273463198826,"27":-0.10151712027241659,"28":0.054112056064718236,"29":0.033240785084529254,"30":0.11151984731889464,"31":-0.16031179645246615,"32":0.029839169045390395,"33":0.23209150776663137,"34":0.1349741692097551,"35":0.11193069027440607}},{"sx":1,"sy":1,"depth":36,"w":{"0":-0.18397487896834444,"1":-0.293165402606676,"2":-0.1454628291637729,"3":-0.0012348412229713165,"4":-0.11705742696536785,"5":-0.0571460844157014,"6":0.05686903260489472,"7":0.07877926888532302,"8":-0.06129200133114618,"9":-0.10508743876972333,"10":-0.046875678954776186,"11":0.0979108566545895,"12":0.1187007068439471,"13":-0.030709837276269195,"14":-0.04462842226115644,"15":0.052866789216512194,"16":0.16905785911083965,"17":0.31971517708834435,"18":-0.1710618700354064,"19":-0.17960972850896192,"20":0.04540510108270749,"21":-0.04770910074320333,"22":-0.18239883792901684,"23":-0.041290706037858005,"24":0.011718340972888644,"25":-0.13265854788777945,"26":0.1559857235311459,"27":0.09436829009544659,"28":-0.06729695751877457,"29":0.0013155225730795243,"30":-0.12721941894798697,"31":0.03826647681064285,"32":-0.30291415729390947,"33":-0.0752375016703561,"34":-0.11588603517149679,"35":-0.294257750411244}},{"sx":1,"sy":1,"depth":36,"w":{"0":-0.060958915153201676,"1":-0.03181026075410038,"2":0.3790715054604753,"3":0.26491056190502904,"4":-0.03333216339763292,"5":0.10004344514831792,"6":-0.01923991185403008,"7":0.1636307298774642,"8":-0.20286664176141722,"9":0.061819105627022565,"10":0.2957470961566073,"11":-0.3125212605103149,"12":-0.11427979928599302,"13":0.3214562033607652,"14":-0.050978228182069124,"15":-0.014738163411364111,"16":0.37675621617559174,"17":0.1359678632395196,"18":0.018027205408432417,"19":0.16028989149319198,"20":-0.0463905704889068,"21":-0.2367149009215904,"22":0.0366980203633789,"23":0.0769527256921806,"24":0.00604250947787676,"25":0.37502458989871323,"26":0.09111151084157502,"27":-0.28246495186382553,"28":-0.06796434926316669,"29":-0.2833997240415361,"30":0.3005688054674561,"31":0.1290597152248529,"32":-0.41255040534745335,"33":-0.035668591909852804,"34":0.05265765497727302,"35":-0.15301148799087372}},{"sx":1,"sy":1,"depth":36,"w":{"0":0.40352694124714883,"1":-0.1464163036218233,"2":-0.04217447356842251,"3":-0.027552468911962766,"4":-0.17809053707753011,"5":-0.16518055848783228,"6":0.07515841368215706,"7":-0.06551298673313898,"8":-0.012452517441314875,"9":0.016123052608050657,"10":0.1004243070764094,"11":-0.06676906639023725,"12":-0.0304787360125706,"13":-0.06875504362479776,"14":0.1555995271044407,"15":-0.3991651336007727,"16":0.28194259299969127,"17":0.007648408888277195,"18":-0.0672812688192583,"19":-0.33294406228730916,"20":-0.19185704574734536,"21":-0.27276931131181825,"22":-0.20190836141529828,"23":0.4515952508869248,"24":-0.09610736118306742,"25":0.19379975715847647,"26":-0.06090673191215256,"27":-0.0029494748419638633,"28":-0.1926055567800429,"29":-0.27569408578489374,"30":-0.04219076535269745,"31":-0.1428640066016262,"32":-0.2013580298133831,"33":0.08535853276268729,"34":-0.05778773892598606,"35":0.3273840784663116}},{"sx":1,"sy":1,"depth":36,"w":{"0":-0.06778900767407357,"1":0.20052349957677754,"2":-0.02601042018236551,"3":0.2781380607373978,"4":-0.3191479885422776,"5":0.31535179590353324,"6":0.2518928709251001,"7":0.21535993759312644,"8":0.06118827265792392,"9":0.06463917419295438,"10":0.12748907527851897,"11":-0.13374895318668645,"12":-0.024967173022255696,"13":-0.2087485293602284,"14":0.08406763678389009,"15":-0.2676700829395217,"16":-0.08373122282003187,"17":0.047917872357699114,"18":0.1265383385986607,"19":-0.1699623065429304,"20":0.017684478280472767,"21":0.06318458262033623,"22":-0.26233474397797424,"23":-0.13480777079936268,"24":0.014922727496444728,"25":0.10060693693104208,"26":0.021231003723450614,"27":-0.009659210753160593,"28":-0.1400479167035109,"29":-0.11897341194017415,"30":-0.058588784004802004,"31":-0.3265653896867815,"32":-0.10507664608130089,"33":0.12271025711616174,"34":-0.0543893842744585,"35":-0.06873434415766112}},{"sx":1,"sy":1,"depth":36,"w":{"0":-0.036696475352360376,"1":0.025678151103756087,"2":-0.2426523707380532,"3":-0.2359683654053267,"4":-0.07115878616642039,"5":-0.2942832527366309,"6":0.24238786647856037,"7":-0.11476051360422147,"8":0.3483681828032341,"9":-0.005392085885860726,"10":0.04100748070493721,"11":-0.11982601816837081,"12":0.19041445506913637,"13":0.20474245095834598,"14":-0.049342834288234785,"15":0.17055622625997266,"16":0.046274797589839,"17":0.0784795999004474,"18":-0.04441399610150362,"19":0.20014491295992473,"20":0.015695404988071475,"21":0.07520186979361883,"22":0.22506508320277568,"23":0.17991787387507435,"24":0.07750269810746946,"25":-0.02443191108279235,"26":-0.11711477890904232,"27":-0.003906454840406721,"28":-0.08940523799714292,"29":0.24805498233386483,"30":0.19456591580149799,"31":0.01843151575920378,"32":-0.03241253541632363,"33":0.3138281011849675,"34":-0.12532617671300064,"35":-0.173659443280107}},{"sx":1,"sy":1,"depth":36,"w":{"0":-0.009959085977435557,"1":-0.10027093448233541,"2":-0.2637420882276932,"3":0.22291535720079533,"4":0.03593474312487973,"5":0.0841079375021828,"6":0.0751254852914691,"7":-0.06910312290772144,"8":0.2235188724518644,"9":-0.09408169400868283,"10":0.05735809773031707,"11":-0.14547852942955025,"12":-0.1298517390132226,"13":-0.04253382722525559,"14":-0.21103997965311305,"15":0.03989642514175088,"16":-0.3467947937953099,"17":0.2180431148544989,"18":0.09235305897758017,"19":0.14143210810922657,"20":0.11626752249173684,"21":0.020966240896615525,"22":-0.07983446666866491,"23":0.21241861297937112,"24":-0.04048037833976335,"25":0.07962657360718421,"26":-0.3487534733063674,"27":0.10722175472290339,"28":0.028099715874087633,"29":0.01393852551084163,"30":-0.34769846873434496,"31":0.118771782528558,"32":-0.06918315564965673,"33":0.2774377390051504,"34":0.07258233191710572,"35":0.36905598520223615}},{"sx":1,"sy":1,"depth":36,"w":{"0":-0.018658063843497438,"1":-0.09673624664900497,"2":-0.009394214225160541,"3":0.23692328506545865,"4":-0.08979704603357158,"5":0.004946299975703016,"6":0.19684346090711088,"7":-0.09868373523833532,"8":-0.12945995902045057,"9":0.04815667410640225,"10":-0.13766785510707844,"11":-0.13009543076854557,"12":-0.06400098441107459,"13":0.18779795027858714,"14":-0.33160678444043545,"15":0.004336274562621162,"16":-0.2627491473883945,"17":-0.39127922332740667,"18":0.16876366895997416,"19":0.006953294652789379,"20":0.26117763198680943,"21":-0.03941348258078638,"22":0.22391483842424073,"23":0.16953741247759263,"24":-0.22337842313361492,"25":-0.2268187669585366,"26":-0.11496714683594728,"27":-0.09512869628603486,"28":-0.06124115118975755,"29":0.08696711095728725,"30":-0.08179076432830949,"31":-0.0069356577687590204,"32":-0.30308318499443115,"33":-0.3835138497384325,"34":0.11393499272406223,"35":0.1912694910698294}},{"sx":1,"sy":1,"depth":36,"w":{"0":0.24067466771032608,"1":0.19975837883740213,"2":0.07817504282259463,"3":0.08800052842353988,"4":-0.14187587877315222,"5":0.0340742105376298,"6":-0.08124904166896711,"7":0.14266565487598698,"8":-0.16349494861085132,"9":0.048742836202075784,"10":0.10656730504281431,"11":-0.14598601845481488,"12":0.30958065293895065,"13":0.11705447910924059,"14":0.13412490433916538,"15":-0.08114715789190563,"16":0.03652813360239267,"17":0.1279600894882941,"18":-0.05516527480714167,"19":0.13191959568464565,"20":0.11452675752746057,"21":0.10437267222282343,"22":0.20065084321143162,"23":-0.35311741147609155,"24":0.04739789074560033,"25":-0.1961612340909893,"26":0.08705803719147213,"27":-0.3149463160151257,"28":0.18017544075270742,"29":0.10986157391352588,"30":-0.06663380506846031,"31":-0.008603237172120057,"32":-0.18092785354239693,"33":0.17425040104037615,"34":0.13260776390043333,"35":0.09892101132209236}},{"sx":1,"sy":1,"depth":36,"w":{"0":-0.14055178194899157,"1":0.15046645280394072,"2":0.3191654244896803,"3":-0.0302377643805513,"4":-0.10121605352031203,"5":-0.001921203153206868,"6":0.1966374298575848,"7":-0.06110280408913448,"8":0.1790373969689818,"9":0.0521830943085153,"10":0.19560660212591344,"11":0.1315498554302146,"12":-0.16272022882890447,"13":-0.05691490955599918,"14":0.1733171056510282,"15":-0.12088621889371014,"16":-0.13610892401444372,"17":-0.13635057375808313,"18":-0.08067611557742445,"19":0.06763111407224559,"20":0.3118957028383084,"21":0.1440597713988417,"22":0.09203882445964004,"23":0.23321329559110707,"24":0.029199949710388418,"25":-0.0065632056372303595,"26":-0.29606557710326786,"27":0.1344175055998938,"28":0.05628615814526272,"29":-0.38002203075495616,"30":-0.02455308783077662,"31":-0.11332605230152847,"32":-0.17385872432671032,"33":-0.055923889774939076,"34":0.10213323549320866,"35":-0.013574353981149536}},{"sx":1,"sy":1,"depth":36,"w":{"0":-0.09437365997312623,"1":0.024530554653413025,"2":0.20429833390811242,"3":-0.19195726594680312,"4":-0.10803937598298459,"5":0.10901749197271138,"6":0.20405863702342972,"7":-0.09974477024147498,"8":0.18340211113621274,"9":0.3725563316580277,"10":0.11006625504803529,"11":-0.03822878982075267,"12":-0.01179306966558967,"13":-0.2833233492054286,"14":-0.11364607856536965,"15":-0.008518644337421473,"16":-0.0434999653659642,"17":0.1592900916678133,"18":0.05614042817718583,"19":0.07261824551540759,"20":-0.04422989378538154,"21":0.28306958488984174,"22":-0.043499257413118254,"23":-0.11469969549343531,"24":-0.14390756171531735,"25":-0.09398696023855645,"26":-0.11191749441368168,"27":0.23372327804667015,"28":0.0522547770638951,"29":-0.03770027427747498,"30":0.032401980024816805,"31":-0.3251155012362325,"32":0.09515256538727751,"33":-0.06295243491849453,"34":-0.015940183542766304,"35":-0.34848356975400024}},{"sx":1,"sy":1,"depth":36,"w":{"0":-0.22656020070254687,"1":-0.02441815028791362,"2":-0.20350695725553794,"3":0.17288311712037127,"4":0.0035137809957327976,"5":-0.1383104402106901,"6":0.19253937991102885,"7":-0.04167951718718373,"8":0.14271266188627962,"9":0.009773574486701544,"10":-0.15538423229969137,"11":0.08890381441676719,"12":-0.1796272982246494,"13":-0.09807840094470983,"14":-0.11164362707466516,"15":0.1634072447264383,"16":-0.17904589014137454,"17":0.12250831487250462,"18":0.08338222167436912,"19":-0.04569424438616932,"20":-0.032087041911470805,"21":-0.3035584897219844,"22":0.04772417766961872,"23":0.2122718041261469,"24":-0.18861367031288334,"25":0.061157890811130544,"26":0.11649809047834596,"27":0.08765561140957498,"28":-0.39043499124129205,"29":-0.25234353733721454,"30":-0.09187587764033546,"31":0.3785179297754089,"32":-0.09463731071590789,"33":-0.06748780867371613,"34":-0.1322397797044383,"35":-0.10994279528091562}},{"sx":1,"sy":1,"depth":36,"w":{"0":0.29198325074625714,"1":0.17977440227814462,"2":0.25009707454354285,"3":0.04027520586822328,"4":-0.04371698416305667,"5":-0.1976768858203313,"6":-0.32301475844415983,"7":0.016794753797407084,"8":-0.08624190570402891,"9":0.01722163840415041,"10":0.1309376863406225,"11":-0.02264231881231163,"12":0.008179027872817187,"13":-0.30532118943854314,"14":-0.06760594064939336,"15":-0.0008232065548477212,"16":0.1568378304319429,"17":0.13011210197044057,"18":0.2012039619856848,"19":0.09681455104668513,"20":0.15248292231410032,"21":-0.03632030599800874,"22":-0.33085488284783976,"23":-0.01597548532847007,"24":0.08082964541521856,"25":0.22533470167209652,"26":0.12784892385179691,"27":0.2196895020728628,"28":-0.027298190118388372,"29":0.17156560976530028,"30":0.09004668434537826,"31":0.06101477888163698,"32":0.2719418932770302,"33":-0.19139920567528723,"34":-0.16154515352379376,"35":0.25753864064209175}},{"sx":1,"sy":1,"depth":36,"w":{"0":-0.09547495379501349,"1":-0.0853587428600658,"2":-0.24242766676174424,"3":-0.08259985142671586,"4":-0.2186688566347289,"5":0.10884000893310852,"6":-0.14608965929242596,"7":0.009866481585275708,"8":-0.15873868983915843,"9":-0.03495972486084853,"10":-0.1587746657190897,"11":0.09328645737681066,"12":0.0862149801170824,"13":-0.07533181930216536,"14":0.10911554992624431,"15":-0.07472297126994597,"16":0.14227026045413518,"17":-0.24816333702686025,"18":0.18946123133299694,"19":0.11309795018621895,"20":0.21673438323055874,"21":0.07789750839306395,"22":0.05570595545311247,"23":0.01920393996086396,"24":-0.14556445435228235,"25":-0.0016918751929691697,"26":0.05278988813949999,"27":0.012993108146216131,"28":-0.048056388156281125,"29":0.047630131184866344,"30":-0.18191688345750487,"31":-0.09198114373873925,"32":-0.2668721662351669,"33":0.04078932679916954,"34":0.2862715483613428,"35":-0.197863530824819}},{"sx":1,"sy":1,"depth":36,"w":{"0":-0.4045647429150999,"1":0.20586689126599628,"2":0.2527340058969137,"3":0.3909097514433814,"4":0.05252772958562994,"5":0.22760454019886428,"6":-0.10492290072315513,"7":-0.0019108365907169556,"8":-0.5125447642906378,"9":-0.13334051023679638,"10":-0.1560916607590557,"11":0.011775290328299368,"12":-0.24901034304831088,"13":-0.07137936067882163,"14":0.1861387933785724,"15":-0.048170774462956575,"16":0.18763079358198093,"17":0.01701864321577096,"18":0.07927295423649795,"19":-0.03186032347682911,"20":0.043708707364845584,"21":-0.07387793494050998,"22":-0.01306451231857404,"23":0.02880668299828573,"24":0.054988498698039186,"25":-0.2617918907290308,"26":0.011811581720722587,"27":0.1402549914589645,"28":-0.20307324421116546,"29":-0.02014101183292723,"30":-0.08996321116161889,"31":-0.045770261489442854,"32":-0.06458771555028125,"33":-0.01360800558972706,"34":-0.21315839907217163,"35":0.014613537082701277}}],"biases":{"sx":1,"sy":1,"depth":64,"w":{"0":0.09952269397745474,"1":0.1006587182109198,"2":0.09964546419986671,"3":0.09915554900787221,"4":0.10037090270634842,"5":0.0996756681657247,"6":0.10041115874247233,"7":0.09960754519519736,"8":0.10006559845375554,"9":0.10004460919825031,"10":0.0999682375965448,"11":0.09908167606057235,"12":0.10018846793704136,"13":0.09877351671566262,"14":0.10074803719231995,"15":0.09986849869451539,"16":0.10070108583718418,"17":0.10001534978510791,"18":0.09992595218267158,"19":0.09981049012228886,"20":0.10044612443728781,"21":0.0999212039712767,"22":0.10045149886785297,"23":0.09916738082562106,"24":0.09988829450583371,"25":0.0998469250214655,"26":0.10014921550430855,"27":0.10036641314864239,"28":0.09991176197482998,"29":0.10011097965999652,"30":0.10005804876044513,"31":0.10052270692182878,"32":0.1003809815710349,"33":0.09984077950685931,"34":0.10095845994937726,"35":0.10071653586800791,"36":0.100295060264017,"37":0.0991148449851627,"38":0.10055481899757701,"39":0.09998950491975542,"40":0.09996574810219033,"41":0.10021050422840407,"42":0.10027656281815307,"43":0.10139750832236541,"44":0.09979608565564123,"45":0.10159292379870914,"46":0.10026190550768288,"47":0.09985948061982254,"48":0.10033417875591549,"49":0.0990752067293267,"50":0.0997649219443918,"51":0.09948686235478424,"52":0.09960584113366427,"53":0.09927849403812539,"54":0.10006276507911457,"55":0.10047715001484742,"56":0.10017897036148125,"57":0.10035932370810531,"58":0.10094979933431801,"59":0.10124901672827322,"60":0.1001203156338542,"61":0.09950737472929232,"62":0.10013360386509242,"63":0.10021685988146854}}},{"out_depth":64,"out_sx":1,"out_sy":1,"layer_type":"relu"},{"out_depth":32,"out_sx":1,"out_sy":1,"layer_type":"fc","num_inputs":64,"l1_decay_mul":0,"l2_decay_mul":1,"filters":[{"sx":1,"sy":1,"depth":64,"w":{"0":-0.017762330004730893,"1":-0.15817568056525846,"2":0.06916850773547821,"3":0.14798550184902068,"4":0.1585588184670594,"5":-0.11782410963569702,"6":-0.05163129858687527,"7":-0.05446835985398855,"8":-0.07736980232189367,"9":-0.11820139016616407,"10":-0.230179496049474,"11":0.07700597478425175,"12":-0.041208970590053816,"13":0.03859503460044601,"14":0.17905876961567946,"15":-0.020336472533389025,"16":0.04804184831988828,"17":-0.05097598711540534,"18":-0.013504737700426952,"19":-0.14548469106345305,"20":0.19264392686583034,"21":-0.0044783815965663545,"22":0.030210800038528118,"23":-0.004865518501351415,"24":-0.0378590311723938,"25":-0.07379388977434767,"26":-0.035446084054383396,"27":-0.06064135370457329,"28":0.01744381728380384,"29":-0.03272603956320152,"30":-0.010644452560286906,"31":0.026994801301483785,"32":-0.10293266323347512,"33":0.16153702280114132,"34":0.12470006602726642,"35":0.018705776832549932,"36":-0.057088223044130804,"37":0.23390730919876787,"38":-0.28911868923354533,"39":0.008955069236568403,"40":-0.08378502541647587,"41":-0.08985249949259225,"42":-0.024985097828457765,"43":-0.08376767939361751,"44":0.3030718326239433,"45":-0.004024102345065458,"46":0.1256890135757616,"47":-0.01806860028360866,"48":-0.056033322796894824,"49":-0.024590319678070394,"50":0.26703576561679004,"51":-0.06255723127288168,"52":0.26675024285061044,"53":-0.09636191740976156,"54":-0.025798879901039563,"55":0.168693640608962,"56":-0.2604895770993219,"57":-0.132454703838404,"58":0.2005352586223369,"59":0.11522345974571065,"60":0.04546739706460674,"61":-0.11083956000499649,"62":-0.1457281168397982,"63":0.11286092780709593}},{"sx":1,"sy":1,"depth":64,"w":{"0":0.011610483954233967,"1":-0.007507866781924264,"2":0.07945329383177029,"3":-0.1742398246877896,"4":0.10593694056824292,"5":0.08213045712005727,"6":0.03473762883609128,"7":-0.15684054133756117,"8":0.06481694068380751,"9":0.05035169068034345,"10":0.15549991221978957,"11":0.0432142907491612,"12":-0.025024930977669155,"13":0.13448736761585098,"14":-0.033688699462792265,"15":-0.01656578184311527,"16":0.07807591241102005,"17":-0.19632294713827916,"18":0.04478397510469813,"19":0.010706396533111043,"20":0.0031004447914054502,"21":-0.040862459227772395,"22":-0.14256932628134159,"23":-0.25415936154670726,"24":0.049603340828372644,"25":0.0036467382096349444,"26":-0.12061950455936307,"27":-0.07619283858729714,"28":-0.05100232631418792,"29":-0.22485711725711716,"30":0.1919687219456489,"31":-0.19612343309743616,"32":0.14240273304915035,"33":0.05480153609955695,"34":-0.11288180108606277,"35":-0.05870834925132702,"36":-0.10513326732473345,"37":-0.015802009669805,"38":0.02097056233865268,"39":0.16058366329755677,"40":-0.19238230719622687,"41":-0.09435814972846925,"42":0.1243989738402836,"43":-0.1076660530980182,"44":-0.2729888372368575,"45":-0.18157705888607753,"46":0.11121067398775974,"47":-0.12100820369509432,"48":-0.017369804157198254,"49":0.00012419294219611886,"50":0.20275553275069244,"51":-0.07172332853930304,"52":0.11453979197804619,"53":0.03134526398732366,"54":-0.06057510558733041,"55":0.25762045096249014,"56":-0.0485849816154183,"57":0.049995823365916174,"58":0.07844257866623865,"59":0.2393297629455246,"60":0.28254134079299653,"61":-0.05041002322314701,"62":0.03618281981551127,"63":-0.11628075185458138}},{"sx":1,"sy":1,"depth":64,"w":{"0":-0.1382552419098237,"1":0.15119685513146805,"2":0.06935681607040486,"3":0.042710255279095895,"4":0.11624210722362527,"5":0.10938443108029748,"6":-0.20226582711393443,"7":-0.028487736467478885,"8":-0.10459625010684862,"9":0.004279062804752025,"10":0.042422885947484786,"11":-0.08296577249240301,"12":0.020684927111076938,"13":-0.007597869539634053,"14":-0.015168256218928427,"15":-0.03384350544916943,"16":-0.07400053519680592,"17":0.28322863096921264,"18":-0.13133859139113763,"19":-0.0944600273394055,"20":-0.08953341230136873,"21":-0.0830874873796077,"22":-0.10764219074597707,"23":0.022125859618213117,"24":0.09245941367617633,"25":0.06872677055644834,"26":-0.010353882532449335,"27":-0.16682546519393895,"28":-0.17397003163490674,"29":-0.02469357917930217,"30":0.13066863790617844,"31":-0.17410914009435427,"32":0.11673052373449055,"33":-0.17478467539061257,"34":-0.142908211053118,"35":0.22742739093466008,"36":0.06464330515457366,"37":0.12663660292723114,"38":-0.15571913921778796,"39":-0.17369107125572764,"40":-0.10095331752831165,"41":-0.0004033691922012543,"42":-0.22898879340068565,"43":0.02580456047474056,"44":0.030238395592474928,"45":-0.027050132559978308,"46":0.058579461764904646,"47":0.12145312351714184,"48":0.09263494495770137,"49":-0.07587839891443583,"50":0.009325210077467373,"51":0.11604742722307028,"52":0.04609671952371489,"53":0.4089690330838908,"54":-0.1007635808462939,"55":-0.04140831180398633,"56":-0.06536727771330374,"57":-0.001925785587768478,"58":-0.24452899929417116,"59":-0.08379523915787429,"60":-0.02480280184847925,"61":-0.0840618134356441,"62":0.02899097254310338,"63":0.12061710718149432}},{"sx":1,"sy":1,"depth":64,"w":{"0":0.169104065332715,"1":-0.011332069841012267,"2":-0.09089194033428441,"3":0.2235185475091354,"4":0.13261845542444778,"5":-0.08096933696398252,"6":-0.16802924443291015,"7":-0.0706518852788628,"8":0.04874883624772894,"9":-0.06292329853670979,"10":0.06702737466606169,"11":0.21535150673812878,"12":0.17437810870110707,"13":0.1814755362945124,"14":-0.021939783746287536,"15":0.08968374508092929,"16":0.02990279852509833,"17":-0.11246494588310907,"18":0.17182984578732552,"19":-0.06453459175177532,"20":-0.10598134568751767,"21":-0.14360752707308397,"22":-0.07241812198079388,"23":0.022979929990053907,"24":-0.04117212886914117,"25":0.08351451426948625,"26":-0.0760433132719739,"27":-0.20217659393773424,"28":-0.09919771597043109,"29":0.03855659144702145,"30":0.036939831391552,"31":-0.16620250286548888,"32":-0.12398976415658886,"33":-0.04744411085202721,"34":0.15502105593969184,"35":-0.07394978900090599,"36":-0.21275656280406724,"37":-0.3222548936726015,"38":-0.15054498538766217,"39":0.0184043287974615,"40":0.023112571540541502,"41":0.1650966351643008,"42":0.08519382429044083,"43":0.01978468952497956,"44":0.09491100611287469,"45":-0.06624247892928048,"46":0.0009140877595522421,"47":-0.08115336033242115,"48":-0.0834298795626107,"49":0.2379808379082683,"50":0.16521389278064247,"51":0.1966662170857336,"52":-0.0475727545503839,"53":0.18100080576428584,"54":-0.1717857197570191,"55":0.0461163157076857,"56":-0.04711544506133089,"57":-0.13016742115872054,"58":-0.08941915164175614,"59":-0.03488060656630888,"60":-0.11679340670047086,"61":0.2827595101538975,"62":-0.09301762491726379,"63":-0.09299682324036487}},{"sx":1,"sy":1,"depth":64,"w":{"0":-0.12599487766843176,"1":0.19560524130674187,"2":-0.2055942992817167,"3":-0.12573886203665335,"4":0.10208576377033494,"5":0.04882739578300609,"6":0.08373331415329048,"7":-0.16690908210635683,"8":-0.1033274817278318,"9":-0.028663679934115283,"10":-0.035476069931608456,"11":-0.11403633749262562,"12":0.2673829273986507,"13":-0.18163023809222628,"14":0.00746178139194428,"15":0.09872414554745858,"16":0.11399378180672377,"17":0.03684319069405042,"18":-0.05640025622906724,"19":0.06914659520810407,"20":0.3063582772265626,"21":-0.05712014627990527,"22":-0.046385842312165644,"23":-0.14087625422699968,"24":0.058640656598928365,"25":-0.09474616781034359,"26":0.05627565633840022,"27":-0.09066509992197362,"28":-0.022486676595689137,"29":-0.08484537690585915,"30":0.23219222790275382,"31":-0.03958274448895656,"32":-0.12217038855679907,"33":-0.09178906613666193,"34":0.07351602523800439,"35":0.07085954735188973,"36":-0.10592325931319728,"37":0.15421604777428427,"38":-0.08907637806443848,"39":-0.04709980930701788,"40":0.2386753346698067,"41":0.08086845076293035,"42":-0.04297780202182979,"43":0.06028223336013294,"44":0.11396364783941632,"45":0.3266017284562615,"46":-0.01284582197575327,"47":-0.08955455000374613,"48":0.09356894366653377,"49":-0.08203239937573963,"50":-0.01609097074452651,"51":0.10828421470549801,"52":0.042721393628060586,"53":-0.07117287943180856,"54":-0.009243850238513733,"55":-0.08671003211879388,"56":-0.10196790391509815,"57":0.1040357293235301,"58":0.10239916254280745,"59":0.19779967102658216,"60":-0.04827173031572821,"61":0.03140155914713908,"62":0.049132417469012146,"63":0.08748731482189194}},{"sx":1,"sy":1,"depth":64,"w":{"0":-0.007641838473974447,"1":0.16884202234464388,"2":-0.22325208221287085,"3":-0.07073925472193526,"4":0.03737638471582107,"5":0.15020472225504244,"6":-0.10801910891633862,"7":-0.014729394211802534,"8":-0.005054920205964576,"9":-0.00801639132436482,"10":-0.020295920974917944,"11":-0.05874328416997692,"12":-0.03380652328976934,"13":-0.007264172381835667,"14":0.01228855153812053,"15":-0.19674773949050298,"16":0.021233637577087492,"17":0.012925797893265596,"18":-0.25350328711220466,"19":-0.1118147897099334,"20":0.017297871012187677,"21":0.1217376070530161,"22":0.25016629890935776,"23":0.02765406445842197,"24":-0.05470474058136076,"25":-0.16570831479971246,"26":-0.30691543521582276,"27":0.13610101435396815,"28":0.10578005883103951,"29":-0.16459850509473417,"30":0.14392589415967658,"31":-0.1838096087494112,"32":-0.25945793153203317,"33":0.0391847411977189,"34":-0.12822328918866785,"35":-0.003518961006547688,"36":-0.09741722375404967,"37":-0.16064703608362627,"38":0.14571533839985684,"39":-0.05358547568987712,"40":-0.08824487827233861,"41":-0.1456750080175184,"42":-0.21560291309015966,"43":0.03878728442147644,"44":0.3468907205969244,"45":-0.018587716244365438,"46":-0.04542283781742903,"47":-0.03172164667004868,"48":-0.03378975950057253,"49":-0.2255889381719269,"50":-0.055951137936574254,"51":-0.012320398115307057,"52":0.020132286306200873,"53":-0.019114969634724945,"54":-0.04225513470305557,"55":0.007913143050940399,"56":0.12241192756065963,"57":0.03833799058300428,"58":-0.02189896530184203,"59":0.3911549719267875,"60":-0.13096549537473748,"61":-0.234092091810862,"62":-0.14835457692691573,"63":0.19094194852030263}},{"sx":1,"sy":1,"depth":64,"w":{"0":0.07367780246822937,"1":-0.006696992182728691,"2":0.16200800156783352,"3":0.12567021762321667,"4":0.15524911644155498,"5":-0.03254288098381325,"6":-0.049165761839826586,"7":-0.25528309859877657,"8":-0.14526536675586887,"9":0.10333423476543949,"10":-0.02408491995131705,"11":0.17050722720301814,"12":-0.027798763946031063,"13":-0.05382409979193779,"14":0.1305817912411056,"15":-0.0707896816749574,"16":-0.059081938815048425,"17":-0.010533029978452466,"18":0.014096606394786567,"19":-0.05871875162670408,"20":0.16751260452551575,"21":-0.14715635150066447,"22":-0.02402843601679212,"23":-0.17204776673817973,"24":0.07071278809674272,"25":0.006091192768457199,"26":0.15104218174677725,"27":0.15564471958762113,"28":0.24349721536903904,"29":-0.044497626568806375,"30":-0.16094592038550543,"31":0.0815441086872142,"32":0.2099147482107794,"33":0.05069690169834226,"34":0.2880567738573814,"35":0.17508717934394236,"36":-0.1313703709972868,"37":-0.034898494276122384,"38":0.09504686428398883,"39":0.08973889914439233,"40":-0.07617066997544172,"41":0.08980770290896713,"42":-0.00921819175089623,"43":-0.037480944134365216,"44":-0.136350228887113,"45":0.1819488390569972,"46":-0.0959307188193968,"47":-0.06064496634906298,"48":0.045396735435606156,"49":0.0759116564851438,"50":-0.20104371405011598,"51":-0.1159090215837587,"52":-0.14349983123988871,"53":-0.12547838919187926,"54":-0.023015577630511434,"55":0.20997488576363085,"56":-0.014592090339344551,"57":0.03733714171255484,"58":-0.00723886323139958,"59":-0.1559457762678049,"60":0.017610536320387,"61":0.007518325592041117,"62":-0.09055814981068548,"63":0.2850882776171835}},{"sx":1,"sy":1,"depth":64,"w":{"0":-0.20834326891999963,"1":-0.19306805639542068,"2":-0.06245267509595519,"3":-0.06523864876219672,"4":0.06172221538302471,"5":-0.012943635560182977,"6":-0.08570783403902868,"7":-0.12126179739689306,"8":-0.06260652519135167,"9":0.20059884752189858,"10":0.09977023391024083,"11":0.05360139901538985,"12":-0.07267147817791117,"13":0.09692845469506152,"14":0.25447216494943586,"15":0.15343483489898407,"16":-0.002926596366667187,"17":0.1562389188193108,"18":0.005796814412000979,"19":0.10628333351904,"20":-0.02683553761328131,"21":0.006977634091692519,"22":0.11501805617399471,"23":-0.2184185901561233,"24":-0.01997108405484456,"25":0.08537350240520346,"26":-0.002326092336481291,"27":-0.10730696190968178,"28":-0.1326424289257873,"29":0.2573230633351859,"30":-0.07182141793262904,"31":-0.17972435119758431,"32":-0.1871260396845411,"33":0.06960915009935024,"34":-0.04091334540689285,"35":-0.031458883179563545,"36":-0.04167734743268852,"37":-0.18617543688055627,"38":0.04736904302407226,"39":-0.0010488707104269598,"40":0.025937669041313786,"41":0.09617776691908983,"42":0.07934960516281511,"43":-0.21899489489537202,"44":-0.07961089607063487,"45":0.0035441631407975185,"46":-0.20704471416639847,"47":0.29503794500937336,"48":-0.23168841735838758,"49":-0.008795542922144366,"50":-0.24675476255558507,"51":0.07803021816252922,"52":-0.24727193382959528,"53":0.04399002199558524,"54":0.3160927681138932,"55":0.0063826598282285905,"56":-0.013494663965863931,"57":0.0715929882939462,"58":-0.3545977002401495,"59":0.1157139918488867,"60":-0.12730291814141936,"61":-0.08546021563191097,"62":-0.01539868854802299,"63":-0.05493805431595891}},{"sx":1,"sy":1,"depth":64,"w":{"0":0.2742322207407795,"1":-0.008198446206204326,"2":0.03917131629004778,"3":0.21117194157695135,"4":0.262298610287311,"5":-0.11567090914658926,"6":0.12478031687678369,"7":0.16691447780131138,"8":-0.026482209325487612,"9":0.061030766669331646,"10":-0.17985027055766062,"11":-0.07046488542895187,"12":0.044763124375999996,"13":0.04384090963461042,"14":0.1277066291866655,"15":-0.007981842972933022,"16":-0.3186915764397658,"17":0.05717729578709649,"18":-0.028317875298616776,"19":-0.06135589408469556,"20":0.023492917551050797,"21":-0.129850916905531,"22":0.04602728554406588,"23":-0.018368416457043964,"24":0.03250086453149808,"25":0.1049732860678806,"26":-0.24094764393827947,"27":-0.18617099954832775,"28":-0.026331817698571628,"29":-0.001130478887631177,"30":-0.13735505487567157,"31":0.22098319405779923,"32":0.13504325241912896,"33":0.057863654241990026,"34":0.011646336309639875,"35":0.008153695040754614,"36":-0.0561371390020199,"37":-0.13596389543114648,"38":-0.08018984128412314,"39":0.08434534608262063,"40":-0.03643633638132073,"41":-0.20761438130195195,"42":-0.007414286119624944,"43":-0.05961277810769823,"44":0.10208564517841946,"45":0.26214642770106705,"46":0.062400628762809184,"47":0.033470111651354904,"48":0.0708810657343332,"49":-0.12905357260621944,"50":0.002811778972991113,"51":0.37006546556729636,"52":-0.08163282211916612,"53":0.04228713236238527,"54":0.11420469212719805,"55":0.0708879138191414,"56":0.024120043244078643,"57":0.0295526846622696,"58":0.03898522125576163,"59":0.006513662681679483,"60":0.041760116644049675,"61":0.035882106276052685,"62":0.08210891216427868,"63":0.0400981712136656}},{"sx":1,"sy":1,"depth":64,"w":{"0":0.3123780101654716,"1":-0.02282629075860932,"2":-0.051822615970269055,"3":-0.20109540148602076,"4":0.03787379911666204,"5":0.2605294173034601,"6":-0.13152398190538692,"7":-0.17775881601585328,"8":-0.0742738322310878,"9":0.05931377500416067,"10":0.04653039992924076,"11":-0.1734413030481407,"12":0.12656288681290798,"13":0.03541625042158062,"14":0.028515980201621226,"15":-0.11143428751079014,"16":0.09222597250276607,"17":-0.060594230283622576,"18":0.0660708099337751,"19":0.014741672942256557,"20":-0.1332158761018436,"21":-0.16021535040168072,"22":-0.12679683885214127,"23":-0.14798916203795318,"24":-0.09670898632036261,"25":-0.3381966630058337,"26":0.11039659472806587,"27":-0.042726256216641334,"28":-0.06603278139922922,"29":0.12335055479622009,"30":-0.014271166098081359,"31":-0.1937860505747697,"32":0.06634001530060364,"33":0.1357535535668186,"34":0.13917628758549644,"35":-0.010538387478104098,"36":0.06984060051904821,"37":0.06448278119861066,"38":0.032344365952151385,"39":-0.09538900708925221,"40":0.09553563047786139,"41":-0.0991716716037332,"42":-0.009521959399064073,"43":-0.2104021197751015,"44":0.08038948409452043,"45":0.08915140848579542,"46":0.13669976233214146,"47":0.11213480296416793,"48":-0.19285126633540392,"49":0.15332684874968372,"50":0.08955622254604903,"51":-0.14130578509398647,"52":-0.02449013177327022,"53":-0.17095271050927188,"54":0.044006363181890294,"55":-0.019322567760407316,"56":0.06921290401586018,"57":0.10094105984078931,"58":-0.1449875412375574,"59":-0.024888702655718162,"60":-0.17731201541182096,"61":-0.1086091857396077,"62":0.22876285030816962,"63":-0.020426679157991807}},{"sx":1,"sy":1,"depth":64,"w":{"0":-0.1454869251093918,"1":-0.05391234296450118,"2":-0.25078247180629826,"3":0.16418096360120024,"4":-0.03233381419858649,"5":0.14725375192586682,"6":-0.13231256541207975,"7":0.13496839154182788,"8":-0.14898943047659802,"9":-0.11292376374848623,"10":-0.02469869333709405,"11":-0.35359096199575624,"12":-0.08263079448555977,"13":-0.2257959241626744,"14":-0.036170909405356166,"15":-0.021790201917373405,"16":-0.09877886730800488,"17":-0.2040846850566545,"18":0.08725628001306172,"19":0.12737226828526924,"20":0.2983703435965705,"21":-0.060497534507727435,"22":0.04262436172875032,"23":-0.02940989082778089,"24":-0.065444630142932,"25":0.0691118106713307,"26":0.20943324850876277,"27":0.16292432994026784,"28":-0.11089042422329688,"29":-0.007597747218716174,"30":0.08380352270772497,"31":0.07826648390133618,"32":-0.004668075494853797,"33":-0.0027394451816108545,"34":0.1779295498640459,"35":0.0005707173181823975,"36":0.21912868961511156,"37":-0.07349435310568589,"38":0.035262026979947736,"39":-0.14400407781635632,"40":-0.0015921305657158795,"41":0.05607831283025006,"42":0.08093419450748876,"43":0.2890416634882323,"44":-0.23068509952206792,"45":0.24895346244827699,"46":-0.04320101008661931,"47":-0.18371481651502128,"48":0.08210426957162922,"49":0.08054976494474116,"50":-0.011322587973329114,"51":0.01689316341125712,"52":-0.05214254404055513,"53":-0.15689206397873018,"54":0.013861258512451654,"55":0.16276366775265505,"56":-0.07328003173528691,"57":0.15748995150961775,"58":-0.2379187650684365,"59":0.04443041232770764,"60":-0.05322217540180852,"61":-0.12451453140218212,"62":0.007114766401665688,"63":-0.12955739500868682}},{"sx":1,"sy":1,"depth":64,"w":{"0":0.30468728903777065,"1":-0.1438484898070317,"2":0.1767875129690818,"3":0.11176513721027753,"4":0.005339937220665744,"5":-0.02863297112543421,"6":0.1428817849008877,"7":0.13025863361801163,"8":-0.054407399939183455,"9":0.11281569646545332,"10":-0.39954364778951873,"11":-0.09999054401067001,"12":-0.048051589935980854,"13":0.3004602038554323,"14":-0.08409813967328876,"15":0.0922059204728204,"16":-0.014730251714859756,"17":-0.02994704949972864,"18":0.0275487987457627,"19":-0.010974648576102291,"20":0.04389574233574961,"21":0.05558407639398937,"22":-0.07384030332967909,"23":-0.05014257077448475,"24":0.010580480078053378,"25":0.17215258625675273,"26":0.20072344571756226,"27":0.013934574622846441,"28":-0.08582046167241136,"29":-0.26855177213515036,"30":0.011869566788254819,"31":0.027154115571723012,"32":-0.17824627954704858,"33":0.02559830472871428,"34":-0.18591664338818634,"35":-0.21752757373011944,"36":0.00817888336078519,"37":-0.0768899299926755,"38":-0.04630343648186487,"39":-0.11428948241047798,"40":0.07615295234327364,"41":0.04716475931503212,"42":-0.1352206052839882,"43":0.18613114516605084,"44":-0.18954811115253353,"45":-0.10552556232003378,"46":0.10054369792163304,"47":-0.04958841185017734,"48":0.03509311099425202,"49":0.25277077988989394,"50":0.1863669360520448,"51":0.11910514424882099,"52":0.006475456292393596,"53":0.052069996561656666,"54":-0.08644653151592106,"55":-0.0841075925955637,"56":0.04074852812170376,"57":0.027038199060535575,"58":0.06131260847987423,"59":-0.09791163227883865,"60":-0.2346341296930423,"61":0.13493974351156043,"62":-0.25314872817094974,"63":-0.08817659369029134}},{"sx":1,"sy":1,"depth":64,"w":{"0":-0.07186875088301226,"1":-0.09258305065874509,"2":0.11746646130558196,"3":0.02219501963649732,"4":0.024350488366799882,"5":-0.02031882663819839,"6":-0.01206000872102146,"7":-0.245610523610863,"8":-0.19305376858141782,"9":0.05657812402836588,"10":-0.011653996264202313,"11":0.06481299755425066,"12":-0.017955412866495376,"13":-0.15415311626263917,"14":0.06119768356236899,"15":-0.2759029989543003,"16":0.12280484716777865,"17":-0.04083836055899588,"18":0.13115035954111032,"19":-0.043288041646822525,"20":0.11132403562158905,"21":-0.10203549242488529,"22":-0.06705006729226368,"23":0.09151474179716475,"24":0.02518821873245034,"25":0.03662210393441183,"26":-0.08587598393117069,"27":-0.04854042264191543,"28":-0.23917332886513426,"29":-0.05725522562379495,"30":-0.02326046751716589,"31":0.020345863254969503,"32":0.002783691639909383,"33":-0.06446075554510833,"34":-0.15844629998882712,"35":-0.07435066216385393,"36":0.1550737748019613,"37":-0.01865214372698715,"38":0.020499382901302775,"39":-0.0005365712661976185,"40":-0.0257418699205517,"41":0.06707244086488097,"42":-0.07653806955603568,"43":-0.19106762662887958,"44":0.02052986734450127,"45":0.14328408358218994,"46":-0.043809311890896756,"47":0.046616238731130674,"48":-0.10159708069945933,"49":0.03362989137055704,"50":-0.11362013555320875,"51":0.03737574223752846,"52":0.26112210619863935,"53":0.19465221215672224,"54":-0.18879540471969483,"55":-0.04227363044202732,"56":0.012947974540650982,"57":-0.03276395040716686,"58":-0.06447936037176044,"59":0.15725491302156977,"60":-0.0050789654011173194,"61":-0.012595488225056233,"62":0.10883280307987798,"63":-0.008113648946274685}},{"sx":1,"sy":1,"depth":64,"w":{"0":-0.025764817410983874,"1":0.0494014715907887,"2":-0.11796705100346279,"3":-0.16302691467552535,"4":0.06830983083113465,"5":-0.09610125202140907,"6":-0.04547639720816229,"7":0.09680272649604181,"8":-0.07603153651282728,"9":0.058669541424975574,"10":-0.2070382368172482,"11":0.03432748697847507,"12":0.03076480500029028,"13":-0.1686066717591825,"14":0.22573663207544087,"15":-0.08584289808189502,"16":0.029306032987973834,"17":-0.13552941056724688,"18":-0.10160057789132663,"19":-0.049135862498671155,"20":0.07435977840971487,"21":0.13802849992409374,"22":0.1333930338231633,"23":-0.00467326184584801,"24":0.08589190874478735,"25":0.12155761482766571,"26":-0.06106126698553527,"27":-0.0655662844027783,"28":0.004336907169308501,"29":-0.07574027014544572,"30":0.027278266075993984,"31":0.013586669289805174,"32":0.13565344350411912,"33":0.1642643494404584,"34":-0.027927753308048132,"35":-0.11191229362202833,"36":-0.12014165030088331,"37":0.13455695416124683,"38":-0.04553088405263909,"39":-0.08593668334195109,"40":-0.010235518829937883,"41":0.017460838353577535,"42":0.10414237614271561,"43":-0.0775292069767962,"44":0.05739994479510525,"45":0.06083933849039585,"46":0.06807410342263541,"47":0.082542851094515,"48":0.12972641383368214,"49":0.0572933570628219,"50":0.21481883069177035,"51":0.04053108376881942,"52":0.02905295154715722,"53":0.04429065462407538,"54":0.09818716422476448,"55":-0.13261340219824574,"56":-0.1782408556778719,"57":0.21562887216842488,"58":-0.08177409960278936,"59":-0.011959520162583403,"60":0.23511818742367158,"61":0.25166986643704514,"62":-0.009278525958442498,"63":0.20281515679490206}},{"sx":1,"sy":1,"depth":64,"w":{"0":-0.011604213290691326,"1":-0.17340887839697622,"2":0.06089750582775525,"3":-0.17082939587258444,"4":-0.06414614683568769,"5":-0.0777451518809183,"6":0.07353651666185208,"7":-0.10643870423812722,"8":-0.09403036202973869,"9":-0.03258265026277716,"10":-0.025184955856569807,"11":-0.08420095732039852,"12":0.041998249575070604,"13":-0.15448736760544474,"14":0.08925933009504149,"15":-0.14022478987252726,"16":0.18350245809518778,"17":0.050744666268872744,"18":0.023783981526284966,"19":0.003682754846532441,"20":-0.0016758796674396365,"21":-0.004786724717056755,"22":0.1400549340936311,"23":-0.0203561136764045,"24":0.06646616676481053,"25":-0.06413711835572333,"26":0.028487704965406552,"27":-0.0981978807735766,"28":0.08448964023629311,"29":0.06033076592059662,"30":0.10695855819006676,"31":-0.08457978616463722,"32":0.1915843646568189,"33":0.019781887811277453,"34":-0.07445171323332962,"35":-0.07518647020471006,"36":-0.18899152650213308,"37":-0.08044143068946218,"38":-0.16104744794311057,"39":-0.006632648445357812,"40":0.10370812335061995,"41":0.09530516542421401,"42":-0.11452607316084773,"43":0.21105934606610627,"44":0.044208893621747104,"45":-0.08840522562524021,"46":0.15527535430955408,"47":-0.016360990972182382,"48":0.10415244359597371,"49":-0.16864877680660478,"50":0.058631061403977856,"51":-0.14690109733035742,"52":-0.12209048983569581,"53":0.10213700184792897,"54":0.14636392136716148,"55":-0.02470727133807934,"56":0.01127320900712788,"57":0.09310070797410899,"58":0.25084952008823985,"59":0.12111212303874243,"60":-0.004742631866935658,"61":0.13912121702622263,"62":-0.19856093456781404,"63":0.15955230689498529}},{"sx":1,"sy":1,"depth":64,"w":{"0":0.12225149507799427,"1":0.15078859538665582,"2":-0.14797120183380616,"3":-0.009789623779407222,"4":-0.15204850016700008,"5":-0.06233724696121345,"6":0.08236746979978705,"7":-0.07258583745902203,"8":0.02081660890289958,"9":0.13086555198913669,"10":-0.08831376250835961,"11":-0.14199505012691546,"12":0.04772119261503717,"13":0.11452463653495909,"14":-0.043302578752899966,"15":-0.1143691334022554,"16":-0.19611600201598872,"17":0.026766088103741904,"18":0.2775117051768231,"19":0.10759202578814435,"20":0.15652843753987522,"21":-0.13928059589965236,"22":-0.2749176150360343,"23":-0.00652381570447689,"24":0.16302523494756407,"25":0.1202854395792278,"26":0.004706229765289386,"27":-0.01858806254363093,"28":-0.2559908498347526,"29":-0.22462018060826444,"30":-0.12828782766909952,"31":-0.2533343224024223,"32":0.15331462594849676,"33":0.07571672250465242,"34":-0.009149636191936195,"35":-0.1197636293409734,"36":0.2755988845225526,"37":-0.08598938047493966,"38":-0.31725982264512936,"39":-0.19099392236480608,"40":-0.16279001964979287,"41":-0.040260086107123144,"42":0.1971895534245238,"43":0.08575625745002496,"44":0.03702044385420774,"45":0.04647933229623164,"46":-0.05244975160587159,"47":-0.07677853520706493,"48":0.06681711627172184,"49":0.024594074339800324,"50":-0.19859654573028968,"51":0.25905378833474946,"52":0.14145605701455566,"53":0.013447149086091797,"54":0.09229858280569683,"55":-0.11381258242418069,"56":-0.062343617227483175,"57":-0.0216093754776666,"58":-0.21690889943759278,"59":0.11616577638916534,"60":-0.04013310536055494,"61":0.09649393298636215,"62":-0.00698375016966018,"63":0.09707778891680226}},{"sx":1,"sy":1,"depth":64,"w":{"0":-0.02275075054961138,"1":-0.07396881798288467,"2":0.02622665232273011,"3":-0.17808977859449981,"4":-0.11870970666875777,"5":0.025058116498882864,"6":0.11542558770245406,"7":0.09772925630577287,"8":-0.1471696123469728,"9":-0.006717832724898073,"10":-0.05601690465386843,"11":0.015698283863312717,"12":0.045011311944597426,"13":0.07419600265622361,"14":-0.022985990101015232,"15":0.14464379987063752,"16":-0.14257928448671572,"17":-0.26644575295742695,"18":-0.013529477547375289,"19":-0.005316186814851373,"20":-0.20138967620003956,"21":0.03358587490760467,"22":-0.0661729870506647,"23":-0.04121856125681482,"24":0.08242021610367799,"25":-0.012558313606475155,"26":0.05986620692229728,"27":-0.1400960312394898,"28":0.16595748949717284,"29":0.3601430395362149,"30":-0.11662788542927333,"31":-0.2283210103562085,"32":-0.1302822790053653,"33":-0.005554936601278113,"34":-0.05262083856337241,"35":-0.025830494464997834,"36":0.10460766122753018,"37":-0.008200633008706756,"38":-0.3300380863188013,"39":0.04682296881728319,"40":-0.046764655552684886,"41":-0.2422850728559253,"42":0.03518373912946219,"43":0.08406143476375413,"44":0.034195320036443516,"45":0.09029182212370017,"46":-0.13255371023954937,"47":-0.07893404562264997,"48":-0.06280105671635332,"49":-0.18915260013350554,"50":0.24456822790060545,"51":-0.16999341647995928,"52":0.10709469143224526,"53":-0.08851836010355664,"54":0.14818344043954756,"55":-0.10199704089522967,"56":-0.32444320809193516,"57":0.02440139477238294,"58":0.07054663470685528,"59":-0.00740190495157258,"60":0.15754590548866787,"61":0.040113418495645,"62":0.1484156295272835,"63":0.0026743351290439933}},{"sx":1,"sy":1,"depth":64,"w":{"0":0.1120470062410704,"1":0.047837978313550154,"2":0.05802507817143039,"3":0.06991677488193714,"4":-0.02641503858936094,"5":-0.06724048572019634,"6":0.05995893179631828,"7":-0.309777036695972,"8":-0.016754165201329288,"9":-0.020480626275990243,"10":-0.02327700464631951,"11":-0.18829334626905456,"12":-0.016562550234061925,"13":0.1369518802372955,"14":0.1228175821191083,"15":0.06449811578297253,"16":-0.03648052518216546,"17":-0.014502532390377005,"18":-0.2088306772180869,"19":-0.13802284920699476,"20":0.05510306971960319,"21":-0.02813383886968676,"22":0.11346656707260695,"23":0.08294443230617661,"24":0.26152944447765514,"25":0.007361441711906055,"26":-0.07729762173721158,"27":0.127507377200015,"28":-0.04134506435457962,"29":0.23397115342913377,"30":0.15409948765023151,"31":-0.18982588472579284,"32":0.10532250611331093,"33":0.044359299880190106,"34":0.20360651889974077,"35":0.06339753772166018,"36":-0.2935649799367556,"37":0.1412565209029556,"38":-0.1539060613187956,"39":-0.17949305841199148,"40":0.18512557081707656,"41":-0.1189756700873276,"42":0.18522998712288577,"43":0.06683280230168885,"44":-0.08219804679241963,"45":0.05912787126096713,"46":-0.11851726612403851,"47":0.18027595202746088,"48":-0.14008610043036962,"49":0.0773220746602909,"50":-0.05377251065770148,"51":-0.012247051829861544,"52":-0.008918037203119997,"53":-0.13019474683635102,"54":-0.06041464763092255,"55":0.06861854167426198,"56":-0.15034253198207934,"57":0.04352879574392642,"58":-0.03809972512946279,"59":0.10637666866170685,"60":0.00655201048082876,"61":0.08059058946666872,"62":-0.1712075483107628,"63":0.0006245570749810657}},{"sx":1,"sy":1,"depth":64,"w":{"0":-0.2113913323095473,"1":-0.06005115410193571,"2":-0.14152604033675933,"3":0.29515961622114534,"4":0.2840366307393071,"5":0.030448934099539842,"6":-0.019680098246497198,"7":0.08501097027467885,"8":-0.04733668454876067,"9":0.10100061662873579,"10":-0.09994589619054833,"11":-0.0635714526297362,"12":-0.19796426099197506,"13":-0.11254559458936858,"14":-0.06745431470945275,"15":0.0946724687893908,"16":-0.2273998285113671,"17":0.22024472645098153,"18":-0.05331886435497345,"19":0.062414624687619574,"20":-0.11468234527202183,"21":0.08101309168764362,"22":0.017086403504056994,"23":0.03386997909869173,"24":0.04076294499829118,"25":-0.13143303289442088,"26":-0.2570714178801056,"27":-0.28711867163436594,"28":0.18166782626014655,"29":-0.1704972656189501,"30":0.09746569405409655,"31":0.054441095424853536,"32":0.09149168993400301,"33":-0.06594547212192059,"34":-0.08411267863127644,"35":-0.06094000812961146,"36":-0.0007807134604123512,"37":-0.06236073618719538,"38":-0.2179956238517311,"39":0.02026372759844307,"40":0.1779662320861869,"41":0.07425622607235312,"42":-0.045803102796323124,"43":0.0790565960354253,"44":-0.21163283773972896,"45":0.06969017020977072,"46":-0.07598552628163652,"47":0.04024491739730906,"48":0.06563849648574875,"49":0.10690625441390053,"50":0.02506675104058961,"51":-0.13972786403750667,"52":-0.04253576200122514,"53":0.14561891686390982,"54":-0.17620814184079328,"55":0.05123462162315115,"56":-0.07069840401383061,"57":-0.1001320122805791,"58":-0.14873444114971882,"59":-0.18616981033213367,"60":-0.13997004748870331,"61":-0.014421475290022148,"62":-0.3182550706909121,"63":0.04893368016004693}},{"sx":1,"sy":1,"depth":64,"w":{"0":0.09459614054533744,"1":0.04104914286736601,"2":0.030398372747200118,"3":-0.25979340081440594,"4":0.19881711297719712,"5":-0.11012935720142017,"6":0.03795779149570769,"7":0.15250534042764066,"8":0.08565096233899741,"9":-0.10285360474871866,"10":-0.27152536707508507,"11":0.013524117377138914,"12":0.07411075657124302,"13":-0.1638633169195392,"14":0.0686830084130646,"15":0.15514409521110728,"16":-0.15180937393616525,"17":0.054160776267459944,"18":-0.1337897936135477,"19":-0.26861189395501456,"20":0.07271547314763342,"21":0.12086287167155552,"22":0.05634262596230747,"23":0.1776216136137498,"24":-0.09398615767024972,"25":0.16329886195605886,"26":-0.14919019295378894,"27":0.08748393572494799,"28":0.18156843119495378,"29":-0.028271843981294825,"30":-0.0409259376471984,"31":0.15930516463140126,"32":0.026298240799902766,"33":-0.06991264417504661,"34":0.13741866342020528,"35":-0.03474100814555769,"36":0.06339405737799465,"37":-0.10423320742255879,"38":0.21198605757855604,"39":-0.12247155887996648,"40":-0.2001032533961295,"41":0.0453681798279254,"42":-0.00032030287618782776,"43":-0.010980790433284598,"44":0.01445109573292772,"45":0.015697265277845134,"46":0.13162060445154783,"47":0.121917307147629,"48":-0.18540981727584194,"49":-0.16558946155849769,"50":-0.2433328806822169,"51":-0.10331778950087928,"52":-0.02112821373283868,"53":-0.026281600214145426,"54":0.14125996833532964,"55":-0.31231915053690157,"56":0.007774654730632283,"57":-0.1977986871296804,"58":-0.027266116919407342,"59":0.10980797763025693,"60":0.01386482769157438,"61":0.11732734518932532,"62":0.20893055747442124,"63":-0.035863985437799444}},{"sx":1,"sy":1,"depth":64,"w":{"0":-0.00909996805069938,"1":-0.051152326961102675,"2":0.03390617396652496,"3":0.11782812473914983,"4":-0.006560504202710622,"5":-0.11822843265647129,"6":-0.09500348099476065,"7":0.2423015671960218,"8":0.07126956786541586,"9":-0.0063831291796261755,"10":0.08402354709698392,"11":-0.0029484586324148364,"12":0.2202248630310063,"13":-0.05486967817704042,"14":-0.08095024169347981,"15":-0.11126066337269348,"16":0.10563312818146449,"17":-0.06711571226850412,"18":-0.10227132240597765,"19":-0.11766211561943735,"20":0.15780723297563715,"21":-0.02276460252187611,"22":-0.0016408562757259596,"23":0.15292062715112278,"24":-0.11287995909392125,"25":-0.21234025440745363,"26":-0.04029552152263104,"27":0.1596830111126097,"28":-0.045540996176714955,"29":-0.12729978718458226,"30":0.05675650241612466,"31":-0.15049055073815074,"32":-0.036064191439046385,"33":0.02424457622239102,"34":-0.10354649671693951,"35":0.0014927030098888289,"36":-0.08018397707303307,"37":0.17425239304643597,"38":-0.1603179711230546,"39":0.17780696779168723,"40":0.04322782711447244,"41":-0.056533276042922034,"42":-0.2903153997523549,"43":0.09399237736503967,"44":-0.3285575319200385,"45":-0.03295490402054888,"46":-0.1606805203772717,"47":-0.09951936487086323,"48":-0.2524972452922449,"49":-0.05419591135486924,"50":-0.1554518779247532,"51":0.3132521819014874,"52":-0.1162374882920926,"53":-0.01981144415721512,"54":-0.0033144434050251634,"55":-0.04990179516671193,"56":-0.014676265113549912,"57":0.15119632680404954,"58":-0.014957062052605271,"59":0.02885864780183752,"60":-0.0005596065021366083,"61":0.0030988644246052323,"62":0.08756436130550486,"63":-0.21978970372716655}},{"sx":1,"sy":1,"depth":64,"w":{"0":-0.045163622968456114,"1":0.15130927697912008,"2":-0.17009534590685232,"3":-0.05964737974982625,"4":0.056519314404472616,"5":0.045800255573640564,"6":0.08573321638283332,"7":0.11532532002276945,"8":-0.04424284156781658,"9":0.12142675954616995,"10":-0.0673071442617481,"11":-0.17258997157322495,"12":-0.06548148890219539,"13":0.05027628483865193,"14":-0.059257809025699056,"15":0.042084960953438916,"16":0.14439841182073096,"17":-0.09780592896097998,"18":0.09169844066286952,"19":-0.11778706577137017,"20":-0.036139692809701286,"21":0.15230872790582783,"22":-0.10120069842295965,"23":-0.06949128047933065,"24":0.058261390097996864,"25":-0.08730516783112366,"26":0.02258220950595126,"27":-0.23673141714206217,"28":-0.15091344104552876,"29":-0.062425926876790626,"30":-0.10845518812714906,"31":-0.0701072331232719,"32":-0.02744478068393084,"33":-0.03932025719508349,"34":0.0359614501536043,"35":0.1873963393114578,"36":0.1391694022652496,"37":-0.07542330990868774,"38":0.10501314324202386,"39":-0.1218188803347795,"40":0.009134020826537907,"41":-0.10723106133736149,"42":0.05934388271939049,"43":0.10340967856534752,"44":-0.08752720714675334,"45":-0.02283255224482324,"46":0.14155708452067983,"47":0.08921955315151854,"48":-0.02000398052125048,"49":-0.05310698935588155,"50":0.15102220587505424,"51":0.01012186375772583,"52":-0.09640587088514706,"53":0.08570791128947133,"54":-0.1886922802463307,"55":0.15593454518417973,"56":0.02187300902846435,"57":-0.037299834812990644,"58":0.1423632860593537,"59":0.08172039291890983,"60":-0.05245006776728923,"61":0.06682595007694604,"62":0.15432202271430315,"63":0.02887590873492691}},{"sx":1,"sy":1,"depth":64,"w":{"0":-0.1295292029678281,"1":-0.12705189067272232,"2":-0.2192712618586096,"3":0.21154901531746986,"4":0.04550215689486715,"5":0.3084852831094389,"6":-0.031766397854704864,"7":-0.008374933788256447,"8":-0.2774326138354609,"9":0.04904338361069695,"10":0.06207105371510788,"11":0.1431395926980854,"12":-0.008579662633912587,"13":-0.16685788566460621,"14":-0.2840292372968853,"15":0.1083223620666791,"16":-0.11775766678505417,"17":-0.018989566857814555,"18":-0.045776234499900446,"19":0.1547314583811206,"20":-0.033090690407695,"21":0.003689829122062183,"22":-0.0018523144343503709,"23":0.1333748089746956,"24":-0.06517623633323974,"25":-0.151694892816841,"26":0.21072548996453533,"27":0.07226264939585168,"28":0.07658809743957597,"29":-0.21965312880628826,"30":0.1738832112209292,"31":-0.028645399209235842,"32":0.06305118953284974,"33":-0.20641646632252578,"34":-0.017426777944732963,"35":0.13976824149337175,"36":0.13649058275460632,"37":0.24013827332601553,"38":-0.025094849812737904,"39":-0.2107390929772936,"40":0.13344249266724936,"41":-0.042725948175456926,"42":-0.08156100373692024,"43":-0.13147263090767833,"44":-0.10321063788358323,"45":-0.03960833348349201,"46":0.12929429607381923,"47":-0.13272612080118298,"48":0.07914357288822772,"49":-0.0008300300093717518,"50":0.11951195923905737,"51":0.05602533277685104,"52":0.05414372045005073,"53":0.09976087839237961,"54":0.0932495612411617,