{"layers":[{"out_depth":36,"out_sx":1,"out_sy":1,"layer_type":"input"},{"out_depth":64,"out_sx":1,"out_sy":1,"layer_type":"fc","num_inputs":36,"l1_decay_mul":0,"l2_decay_mul":1,"filters":[{"sx":1,"sy":1,"depth":36,"w":{"0":-0.23502813943324166,"1":-0.16911519715658901,"2":0.03823082050843159,"3":-0.058560935448729846,"4":0.00602527785427918,"5":0.29596653958199026,"6":-0.1058966585579473,"7":-0.01870879369377958,"8":0.04790148291663569,"9":-0.03467315208634702,"10":-0.08149176985290815,"11":0.13014940115367438,"12":-0.07098631744577373,"13":-0.016912201357319294,"14":0.07898821803713763,"15":0.15337973538845778,"16":0.4629841133390496,"17":-0.18598167957163939,"18":0.24864709520516565,"19":-0.09892594379393757,"20":-0.13990143185151033,"21":-0.027304377233291603,"22":0.039058835839100935,"23":-0.33997526821601687,"24":-0.22536904081345113,"25":0.0679198926186309,"26":-0.08928341634807829,"27":-0.1500503194832684,"28":0.07581453520723774,"29":0.08767904453888244,"30":-0.08083914573143837,"31":-0.050059831099231906,"32":0.13836978619880308,"33":-0.026433751758973865,"34":0.005005476124562177,"35":0.04375461476364603}},{"sx":1,"sy":1,"depth":36,"w":{"0":0.004437665875155283,"1":-0.04485595298117375,"2":0.1856183748866855,"3":0.11095817084941882,"4":-0.35724768324589673,"5":0.008401813738806314,"6":0.16016212933335852,"7":0.08764528529816139,"8":0.15703901761415448,"9":-0.32847980631254514,"10":-0.0900922925304272,"11":0.15192893878311894,"12":-0.26675697066632315,"13":0.028607947745811595,"14":-0.013753812798362691,"15":0.11162546052591858,"16":-0.20439946547159668,"17":-0.33265066287250555,"18":0.17889526673903663,"19":-0.007339512450876903,"20":0.23355813786213278,"21":0.09022445085446447,"22":0.06350879003660363,"23":-0.34271331506043234,"24":0.031949031564246944,"25":0.16886223245560278,"26":-0.32737061605078066,"27":0.14913927785405998,"28":0.1262141029227345,"29":0.059102280555581935,"30":0.07226904732400785,"31":-0.09584966228227497,"32":-0.05207289029383964,"33":0.2715227351246109,"34":0.1926782244037846,"35":0.373337066891718}},{"sx":1,"sy":1,"depth":36,"w":{"0":-0.031151790053916814,"1":-0.038507604466954115,"2":0.4365828204061155,"3":0.016404544525154798,"4":-0.15029273347309607,"5":0.05710698289739174,"6":0.2628234378686759,"7":0.32805055263405486,"8":0.14633638757415643,"9":0.0699283370130819,"10":0.1589386179437359,"11":0.26230279428519354,"12":0.110534076841098,"13":0.1601233124614508,"14":-0.15454168974821497,"15":0.3001200216393907,"16":0.23417300075942674,"17":-0.005040142334338494,"18":0.19222339777840167,"19":-0.1458076127426925,"20":-0.24902338816081215,"21":-0.21627652326394242,"22":-0.11618496778984044,"23":-0.08188302727720279,"24":-0.0809446568028438,"25":0.013271294144829545,"26":-0.08433904008868412,"27":-0.014592190894620419,"28":0.2131969430238288,"29":0.09697086812100901,"30":-0.1192267468671767,"31":0.3064447800926863,"32":-0.0970883929987826,"33":-0.060320913789996024,"34":-0.0024656875805030595,"35":-0.11499017254875538}},{"sx":1,"sy":1,"depth":36,"w":{"0":0.353507608469342,"1":-0.0850826154523918,"2":0.4169809412701311,"3":-0.12482011574945846,"4":-0.03923632390083534,"5":0.209746187193259,"6":-0.0013370688433287042,"7":-0.19069223260154708,"8":0.13746039851956296,"9":0.03766528652386907,"10":0.22313637289571378,"11":-0.08302872153602234,"12":0.10926604049962892,"13":0.19024783698127598,"14":0.18262992872771616,"15":0.05581395667196845,"16":0.11354713741466248,"17":-0.2999240519154186,"18":-0.00901971445584336,"19":0.1592647334209009,"20":-0.09015934664756986,"21":-0.039193867326325085,"22":-0.0704535656328686,"23":-0.15840508277007778,"24":-0.03733910170779628,"25":-0.0028536708728802724,"26":-0.018460849409211125,"27":-0.1627224453292521,"28":0.2248419424581604,"29":-0.042543753638765114,"30":-0.17189124447807647,"31":0.04208143393002391,"32":0.2815812252348767,"33":0.018935807382616198,"34":-0.057042919631802795,"35":-0.11028586063504817}},{"sx":1,"sy":1,"depth":36,"w":{"0":-0.13990156994760966,"1":0.07741949021325033,"2":-0.0378243578485072,"3":0.004829759706168054,"4":0.1547780034189086,"5":0.007712641796755117,"6":-0.03624467096859896,"7":0.019011306761284343,"8":0.09785921227566995,"9":-0.12471184930869406,"10":0.12060956941293027,"11":-0.1331886717850042,"12":-0.1588219588974836,"13":0.30043411942528386,"14":-0.24091402874930848,"15":0.16741785762683845,"16":-0.05701396246166588,"17":-0.12886331292277042,"18":0.34642661582565365,"19":-0.08026384216780912,"20":-0.19188340600829723,"21":-0.08883509132980547,"22":-0.2524141851472025,"23":0.12848345858425272,"24":-0.23879590512294258,"25":-0.09197449964564244,"26":-0.028472693528129332,"27":0.013967249503529367,"28":-0.252236018359448,"29":-0.13224629672689947,"30":-0.021548011350240585,"31":0.35049229148431243,"32":0.1001164151312825,"33":-0.0802678292963734,"34":0.21683710034821949,"35":0.26618850353043294}},{"sx":1,"sy":1,"depth":36,"w":{"0":0.12142157540306216,"1":0.23576621469821005,"2":0.016746398357292646,"3":0.20328175844443375,"4":-0.11760026527202798,"5":-0.20031862013521198,"6":0.01340472212511952,"7":0.05132720348862753,"8":0.08943253455776101,"9":0.13662843806548636,"10":-0.18034653525961214,"11":0.0759497836191672,"12":0.1562160622540067,"13":-0.057876399652424616,"14":-0.10325928369796454,"15":-0.14025357151586668,"16":-0.5525292170073676,"17":0.133566105470278,"18":-0.0013851795499569047,"19":-0.18931604854284126,"20":0.04428328311893582,"21":0.08977919839612877,"22":-0.008998678593478233,"23":0.1476539982383609,"24":-0.1133659576627335,"25":0.13522653752792543,"26":-0.2465263460207245,"27":0.054569197165619435,"28":-0.043569152477238124,"29":0.3216318511439466,"30":-0.14839370685912717,"31":0.03755952413548714,"32":0.2624355634118752,"33":0.009309600859046587,"34":0.06491742281783375,"35":0.02337089487428686}},{"sx":1,"sy":1,"depth":36,"w":{"0":0.03780755972383825,"1":-0.041843008494331875,"2":0.11738487292444255,"3":-0.010411166876396127,"4":-0.1797466372109943,"5":-0.03878138114978389,"6":0.3065119880726526,"7":0.10393521165196463,"8":-0.006528418095402182,"9":0.14620466170497512,"10":0.05386487188902988,"11":0.0007584053122123448,"12":-0.10557514380244051,"13":-0.03496175481591488,"14":-0.0929953778347326,"15":0.23304168519352206,"16":-0.03367948898122712,"17":0.2782250648763296,"18":-0.4225972296157117,"19":0.05268346779037578,"20":0.07155152933711173,"21":-0.13858906733929102,"22":0.052215919595329535,"23":0.22501069670959983,"24":-0.03532385520246948,"25":0.33969809662363504,"26":-0.0085764744195628,"27":-0.10068332832933098,"28":0.13622290912740773,"29":-0.09027098676767568,"30":-0.05599119175935714,"31":-0.1154585777026882,"32":0.09395540539158723,"33":-0.04919291953117722,"34":-0.09711494677925912,"35":0.0395466964357178}},{"sx":1,"sy":1,"depth":36,"w":{"0":-0.11815470762992145,"1":-0.06728157131993504,"2":0.1235582707247609,"3":-0.04697592846547066,"4":0.06972726038242105,"5":0.08518227306917427,"6":-0.10622361944007637,"7":0.13673790329395835,"8":-0.021917070428875998,"9":-0.20143744844758593,"10":0.07889721034237428,"11":-0.04399501923412571,"12":-0.15068196951515522,"13":-0.017919370073993197,"14":0.17944106957213934,"15":-0.1804325696781211,"16":-0.07435467598809326,"17":0.11315214083728428,"18":0.009298477630265296,"19":-0.23014290680151867,"20":-0.5308055704740001,"21":-0.02089239461320574,"22":-0.007035517646580216,"23":-0.13164970421228928,"24":0.06774681062902019,"25":0.06265793081194657,"26":0.1945551127091326,"27":-0.11485996020527683,"28":-0.07832789579339981,"29":0.1864646954597284,"30":0.055498754339254955,"31":-0.06157571080292925,"32":0.24803304877219104,"33":0.4681261845293871,"34":0.13347841410774025,"35":-0.09872513643092272}},{"sx":1,"sy":1,"depth":36,"w":{"0":-0.3171619994067822,"1":-0.15186513918849728,"2":0.21212266612806507,"3":0.009130669129513116,"4":0.19620236479216205,"5":0.033097468017152916,"6":0.1698730010639282,"7":0.09021459120025149,"8":-0.2872363852120364,"9":-0.05857186882700686,"10":0.07957333032789922,"11":-0.036722090181755575,"12":-0.14479440399876795,"13":-0.12764071048179124,"14":-0.21927123101324666,"15":0.18926708356880517,"16":-0.11420559735616666,"17":-0.2707673213670966,"18":0.08184647536606864,"19":-0.04638460151257222,"20":0.12035623150876162,"21":-0.27034393411766267,"22":0.3626565037072968,"23":-0.2226750430977638,"24":-0.07766433882418831,"25":0.14745158950088808,"26":-0.0693890326125866,"27":0.18058524220853253,"28":0.09524707973486793,"29":-0.05729733795969858,"30":-0.14273557652410912,"31":-0.047757545082164024,"32":0.0680431639281658,"33":-0.08265722405736255,"34":0.1473576673230861,"35":0.2342703745189461}},{"sx":1,"sy":1,"depth":36,"w":{"0":0.18722825189122355,"1":-0.07997937780450896,"2":-0.0258295203344851,"3":-0.018501777000970093,"4":0.059605997734542004,"5":0.15885691741462465,"6":0.6707156337250902,"7":0.2827756764158641,"8":0.14940170087885135,"9":-0.24130338809398336,"10":0.036489938792168705,"11":-0.028325431302317808,"12":-0.15102503396314748,"13":0.20050153520212127,"14":-0.01891049433659871,"15":-0.22373772186670274,"16":0.02021627139592534,"17":-0.04882048290929604,"18":-0.15865651023170355,"19":-0.06854250808498688,"20":0.02241239407526236,"21":-0.09711324749118123,"22":0.21916899212373334,"23":-0.031070846061205002,"24":0.027315935286595847,"25":-0.010794062307391753,"26":-0.043948986273970946,"27":-0.051956055698093646,"28":-0.08924303486753912,"29":-0.0323075589500131,"30":0.21575106068240502,"31":0.1915757443059084,"32":-0.4017248286295543,"33":-0.23259075149831768,"34":-0.24568963456839377,"35":0.1466881894486532}},{"sx":1,"sy":1,"depth":36,"w":{"0":-0.09225553562262619,"1":0.19923359648577488,"2":0.2276962008375663,"3":0.12060463247557134,"4":-0.225594383865594,"5":-0.1643671440975184,"6":-0.19734710781802112,"7":-0.1491063801333196,"8":-0.03240372691098585,"9":-0.051561702830747555,"10":0.12640280377803695,"11":-0.04279724969667408,"12":0.10055028289565632,"13":-0.07552583753818208,"14":0.04087444746416012,"15":-0.11006770093002499,"16":-0.11536515939742359,"17":0.10156376794002757,"18":0.0269497327003881,"19":0.19213726402778683,"20":-0.16512372357898283,"21":0.1347651584334175,"22":-0.10198841404827444,"23":-0.23391378024889148,"24":0.2573127893044886,"25":0.21634892595163924,"26":-0.039236886148223675,"27":-0.047826255104990716,"28":0.1650715782653294,"29":-0.010491490320853314,"30":-0.31999579381950705,"31":0.022858281583931953,"32":0.06763721075430275,"33":0.3170980680620301,"34":-0.14936524650732425,"35":-0.046690957759625194}},{"sx":1,"sy":1,"depth":36,"w":{"0":-0.2613258080404833,"1":-0.2539711430057538,"2":0.2456250139220864,"3":0.37302909546183827,"4":-0.05641746514677167,"5":0.10459126029913934,"6":-0.15626379177930386,"7":-0.12436752693087065,"8":-0.16749647576143595,"9":0.0022410619481086883,"10":0.03338355736739038,"11":0.09934481528281816,"12":-0.194858882963622,"13":-0.24349075499396505,"14":-0.09140974027584228,"15":-0.12054753202397357,"16":-0.17008669429972512,"17":0.07952657696774297,"18":0.2611079483215553,"19":-0.08350746017462117,"20":0.33764788684264607,"21":0.21702087735563014,"22":0.22855460592350946,"23":0.1493476710987513,"24":-0.23046007051717413,"25":-0.09579138031610199,"26":-0.1407523192921209,"27":0.0839246927719026,"28":-0.08938916397746893,"29":-0.08586237790487522,"30":0.2208001909339959,"31":0.1930222022515329,"32":-0.06086627156410691,"33":0.0028023208046226078,"34":-0.06544290432738653,"35":-0.11076565800833547}},{"sx":1,"sy":1,"depth":36,"w":{"0":-0.02762700083054547,"1":0.0567487570168165,"2":-0.16247876856554144,"3":-0.051326154287471684,"4":0.002088375762614771,"5":0.199709070639913,"6":-0.1316533704465671,"7":-0.10352402381052786,"8":0.06960327609340018,"9":-0.018247529996499413,"10":-0.134598495992184,"11":0.020271317710155973,"12":0.18951877551559884,"13":-0.4057592175523994,"14":-0.2750181476044563,"15":0.014390928629736783,"16":0.21364981842789524,"17":-0.023712714809856258,"18":-0.1033028210487597,"19":0.07183324707139856,"20":0.1348439118247362,"21":-0.19954548703287117,"22":-0.1265629725554472,"23":-0.26217798607627946,"24":0.016376358044573085,"25":0.019509119641001674,"26":0.08263998086318007,"27":-0.12447417776778831,"28":0.03371229795586765,"29":0.16506790348626757,"30":-0.16255175375108752,"31":0.1564679884582648,"32":-0.15566670120128423,"33":0.23976504739000754,"34":-0.13080973381043026,"35":0.010001930815354063}},{"sx":1,"sy":1,"depth":36,"w":{"0":0.06389688656990701,"1":0.14569102605871848,"2":-0.2669856693671899,"3":-0.06350454334512441,"4":-0.28757819935871065,"5":-0.32028256175865094,"6":-0.03588760169728361,"7":-0.28747703076250053,"8":-0.15370868885076636,"9":-0.09920962440080258,"10":0.1021357852459542,"11":-0.19220927465395826,"12":0.133325164140938,"13":-0.026445997709876424,"14":-0.28366441752350635,"15":-0.0704529049400028,"16":0.18809947044929115,"17":0.14423567948638602,"18":-0.1474499096427536,"19":-0.295696269288813,"20":0.06618470419876021,"21":-0.016644158156330226,"22":-0.008273580884704966,"23":-0.05631344010951132,"24":0.1639356040759793,"25":0.08447582018413193,"26":-0.030197107101676737,"27":-0.20980687948554602,"28":0.2846709415369048,"29":-0.011687339434883193,"30":-0.2464164666832826,"31":-0.09112312768864377,"32":-0.017505673651973627,"33":-0.10799382211642103,"34":-0.19861127844736992,"35":-0.3104676985840862}},{"sx":1,"sy":1,"depth":36,"w":{"0":-0.03402150742803305,"1":-0.12778569067428416,"2":0.060711671935332424,"3":0.208838489956549,"4":-0.15406493243414182,"5":0.17495710891047606,"6":-0.47244376629505735,"7":-0.0040862461668892975,"8":0.2900089546694257,"9":0.10293774282900042,"10":-0.0760623355788152,"11":0.055947367155250644,"12":0.09807983822925603,"13":-0.18664178979534712,"14":0.024417828695230914,"15":0.0012605541807425287,"16":-0.13040919283366575,"17":-0.044577389045225284,"18":-0.12875537195556377,"19":-0.10543162655018813,"20":0.01942950382289188,"21":0.007034450322708619,"22":0.21939340642212732,"23":-0.16180650204427482,"24":0.026276467950931567,"25":-0.01022382849722637,"26":0.06949718375901355,"27":-0.012721393286798726,"28":0.05197273526842262,"29":0.10375529607425614,"30":0.057549132958816265,"31":0.1564071113007473,"32":-0.1182991759065562,"33":0.033654309593480265,"34":0.06761246355830289,"35":-0.026632856751588753}},{"sx":1,"sy":1,"depth":36,"w":{"0":-0.021707112211378714,"1":-0.13349960050808662,"2":0.03615755126896851,"3":0.021045730637427255,"4":0.013519392212613533,"5":-0.0813645750628936,"6":-0.29851848276047094,"7":0.19945505409585979,"8":-0.05214367025671262,"9":-0.09637116013402341,"10":0.20364296031163803,"11":-0.22312141533612403,"12":0.4927088471614546,"13":-0.1516063511334202,"14":0.18027355114161375,"15":0.05423491780685964,"16":-0.06840222421731475,"17":0.1268529972014935,"18":-0.3022887375942273,"19":-0.0018649762461546157,"20":-0.22372687056403526,"21":-0.04580181446320793,"22":0.04501268149884553,"23":-0.2521561378423384,"24":0.09093723428938444,"25":0.2693422204250445,"26":0.19424373352871763,"27":0.13612041139300934,"28":0.06043428142221467,"29":0.14297943212577074,"30":0.05498398166579199,"31":-0.37963777752406647,"32":0.02431726058351064,"33":0.3168236911316285,"34":0.05987225613769814,"35":0.2638743878496396}},{"sx":1,"sy":1,"depth":36,"w":{"0":-0.02710811762834423,"1":0.07109243205253452,"2":-0.16267000440905635,"3":-0.16176542993889856,"4":-0.030421207769484072,"5":0.1257524765704222,"6":0.013106990103154786,"7":0.2199136951876213,"8":-0.006249807932905149,"9":0.18944454949554196,"10":-0.1250895063446018,"11":0.1437687668437388,"12":-0.05616782531048075,"13":-0.13853044745848744,"14":0.026926767636459552,"15":-0.09102925785853762,"16":0.125600239974175,"17":0.08852646537663687,"18":0.08101775715984184,"19":-0.2421358897246995,"20":-0.058484335498235784,"21":-0.09619020181377096,"22":-0.004120883645856453,"23":0.19428540896286417,"24":0.1604299979898479,"25":-0.06636379936917847,"26":0.30114150815833124,"27":0.0412532353413182,"28":0.011245553156189707,"29":-0.3399288712630567,"30":-0.39526403426366047,"31":-0.00010782638195210443,"32":-0.1626763807797774,"33":0.11331875652745252,"34":-0.08804909227541015,"35":-0.22738498307180807}},{"sx":1,"sy":1,"depth":36,"w":{"0":0.015675118999101283,"1":-0.10948641585478801,"2":0.02191976746180034,"3":0.2812281687594656,"4":0.016654914428006873,"5":0.3108225395491926,"6":0.17388930808740055,"7":0.07332425300161947,"8":0.057131695240894606,"9":0.030756057456445857,"10":-0.04292068086289626,"11":-0.01020439368965792,"12":0.0700845185829762,"13":-0.018768459499439505,"14":-0.19621573847312926,"15":0.148288430293904,"16":0.029254885151077256,"17":0.12517394723247535,"18":0.05228521148855695,"19":0.024168829174568314,"20":-0.1636967536137681,"21":-0.05152010406595501,"22":-0.12130150151676312,"23":-0.16508305135600373,"24":0.16957357043037122,"25":-0.0014854092057978213,"26":-0.22288132229699684,"27":-0.16191966591904064,"28":0.11695000180150497,"29":-0.21065543258801647,"30":0.090078773165088,"31":-0.29539521433891547,"32":0.1836771407616539,"33":-0.1598003566874717,"34":0.18810847639594128,"35":-0.08489544048755034}},{"sx":1,"sy":1,"depth":36,"w":{"0":-0.036630043771749145,"1":-0.09348055558674666,"2":-0.13681920767425837,"3":0.002560385152791167,"4":0.14605235768533747,"5":-0.22579428462656845,"6":-0.017658776082900726,"7":-0.017541997070240675,"8":0.07226251617340468,"9":0.2085657987006321,"10":0.09612090879837115,"11":-0.09620132889554855,"12":-0.1796360793300527,"13":0.2503772814794436,"14":-0.109185309785816,"15":-0.28440591686338296,"16":0.31995949712984956,"17":-0.022834743513138186,"18":0.048377533252727305,"19":-0.11033057509425828,"20":-0.03078734718377016,"21":0.08842175239364579,"22":-0.044348542830947905,"23":0.013841975620760696,"24":0.17354456579269353,"25":0.17854104843238497,"26":-0.01455021356993119,"27":0.1809477914845121,"28":0.14758970004232094,"29":0.17260161217499204,"30":-0.0772276765735429,"31":-0.020741417062021313,"32":0.3011009335005407,"33":0.10345116118913686,"34":0.1677282085684468,"35":0.14503996922437554}},{"sx":1,"sy":1,"depth":36,"w":{"0":-0.15326485862491412,"1":0.26747562162090643,"2":0.052396862553369734,"3":0.14471694519412376,"4":0.2819747089218088,"5":0.34084054751829995,"6":-0.30239640493954856,"7":0.11870461219225405,"8":-0.3059309662351139,"9":0.07354558189266588,"10":0.13860744697629127,"11":0.12118711642342353,"12":0.042972710927994186,"13":0.06453670696486928,"14":0.10719825037394058,"15":-0.0629393081202581,"16":0.1819675061594568,"17":-0.27925790120174315,"18":-0.08680809391330407,"19":0.15078285564891897,"20":0.19683578498199783,"21":-0.11231875757355883,"22":0.12995079844804663,"23":0.0883102471028877,"24":-0.1891014443317182,"25":-0.14275023284213367,"26":0.07809385958064274,"27":0.24671625964302038,"28":0.04841111790894335,"29":-0.09530478694488156,"30":0.38375918434562273,"31":0.03303854840367929,"32":-0.1601481931719781,"33":-0.01580542197984611,"34":0.1408514055964249,"35":0.31902715120810743}},{"sx":1,"sy":1,"depth":36,"w":{"0":-0.01006031476840991,"1":-0.30811564088399085,"2":0.042537968304071506,"3":0.1019392537566163,"4":0.42181180273662783,"5":-0.03027903664249828,"6":0.14712828937255654,"7":0.30487802245361223,"8":0.10694898474948109,"9":0.06322397953995532,"10":0.12209455490789475,"11":0.05330110164803031,"12":0.20503407604024082,"13":-0.07114829855993403,"14":0.09556506144160397,"15":0.07515513102700222,"16":0.025830057503642444,"17":-0.13538949138123785,"18":0.13621295425232183,"19":-0.08158643554772324,"20":-0.027551039794071655,"21":-0.11325378159145918,"22":0.012349454290359,"23":-0.05686210004947306,"24":0.04841548174085878,"25":0.03200540559865201,"26":0.2935207429430874,"27":0.06400411089436885,"28":0.2518448968570418,"29":0.1930882886204278,"30":0.21601478857484108,"31":-0.21271541757458648,"32":0.011027864061739797,"33":-0.45253526234582836,"34":0.11661650188929451,"35":-0.024647519239738326}},{"sx":1,"sy":1,"depth":36,"w":{"0":-0.24997954039786552,"1":-0.07619149928212068,"2":-0.10144605226277,"3":-0.20835897306583426,"4":-0.007755245652733418,"5":0.0452209989253419,"6":-0.03873398309158453,"7":0.1601966376669147,"8":0.055675773149221855,"9":-0.3304263267434909,"10":-0.27991246819801235,"11":0.18189962034357657,"12":-0.07861714852118931,"13":-0.18808970878074494,"14":0.05018444069072631,"15":0.06175373097127189,"16":0.2696775747078134,"17":-0.11190633326076002,"18":0.018512779517566,"19":-0.06584647468176456,"20":0.41842444120107436,"21":0.049338467604660166,"22":-0.17015930917402883,"23":-0.2165782750652896,"24":0.3095812763839778,"25":0.11524309301606801,"26":0.04420778909624544,"27":-0.2502557384323825,"28":0.028975231703997115,"29":0.12176100517772045,"30":-0.0542664653758953,"31":-0.038134234209209125,"32":-0.11771257847057363,"33":0.19728122837644682,"34":0.021941216430189852,"35":0.17948144249430367}},{"sx":1,"sy":1,"depth":36,"w":{"0":-0.40277691881750216,"1":-0.09343192818977757,"2":-0.09709744396785905,"3":0.274726501730853,"4":-0.034739310291950945,"5":0.1377442755640878,"6":0.053663562588291934,"7":0.08671673042977783,"8":0.27945098210918007,"9":-0.06520445368420044,"10":0.06045222917923988,"11":-0.03531235112242785,"12":-0.07797736769736921,"13":-0.09490210611445964,"14":-0.030537260399577274,"15":0.1652146010250878,"16":0.12658537441030282,"17":0.05365508264120367,"18":0.27119287345826626,"19":-0.13104028706802887,"20":-0.15406308814196146,"21":0.29329270822962905,"22":-0.226245186763319,"23":0.007263703522409312,"24":0.39296600823443845,"25":0.004293551065443875,"26":0.12127204920261092,"27":-0.2963453936247525,"28":0.17711635434437958,"29":0.00003756899829179731,"30":0.031779568078950195,"31":0.01336235919430018,"32":0.01642583492181119,"33":-0.3007501365762983,"34":-0.02029412163522362,"35":-0.27134767732422405}},{"sx":1,"sy":1,"depth":36,"w":{"0":-0.2886136717480595,"1":0.26113022800588437,"2":0.2680091462412909,"3":0.23436042876898366,"4":0.2221263642597588,"5":-0.12515335176539097,"6":0.24138441142419775,"7":-0.0362886315184346,"8":-0.17672053327150022,"9":0.23043377234699694,"10":0.1780925572475379,"11":0.22633733618353558,"12":0.06355001528869424,"13":-0.21148148420553242,"14":0.007284328648142143,"15":0.14370494673328577,"16":0.016250863247912382,"17":0.19279239811627252,"18":-0.05141204941977041,"19":0.0335745864332303,"20":-0.18631501300412845,"21":0.2594554490601269,"22":0.10515569357465307,"23":-0.39786791689931816,"24":0.23345414631762182,"25":-0.15041093991223145,"26":-0.04448438752938183,"27":-0.03980255732804345,"28":-0.20705626408762504,"29":-0.06843344597528206,"30":0.11491526541668046,"31":0.08141111946111886,"32":-0.05034159180923221,"33":0.09440192305263663,"34":-0.0052457478210677436,"35":0.3209733065364851}},{"sx":1,"sy":1,"depth":36,"w":{"0":-0.11097356065463981,"1":0.13807403588880954,"2":-0.19812204240514214,"3":0.19596182652702862,"4":-0.1648593404426069,"5":0.08536242971846697,"6":-0.047627871903268296,"7":0.11004824913333942,"8":-0.3311645392018315,"9":-0.10141365425690624,"10":-0.027733094887045475,"11":-0.07364016580824682,"12":-0.14978310266173123,"13":0.05344525940783145,"14":-0.025996065260935664,"15":0.15673268605142268,"16":0.20717613306453234,"17":0.13985450698810875,"18":-0.3008146874992277,"19":-0.02032189364890414,"20":0.2320362357614431,"21":-0.13480171980387615,"22":0.069073921394409,"23":0.15493549470016926,"24":-0.23259353727718785,"25":-0.057382368419375114,"26":0.3780548233724877,"27":-0.07193946908497373,"28":-0.03334718556122273,"29":0.19107341127840657,"30":0.10708960879982145,"31":0.06113064305410474,"32":0.16418199813868742,"33":-0.13062315336624145,"34":-0.05983490527423961,"35":0.2750409111767304}},{"sx":1,"sy":1,"depth":36,"w":{"0":-0.06336060573208838,"1":0.15569786934369734,"2":0.0007349508828358888,"3":-0.04691773203006426,"4":0.11786679643466301,"5":0.018151184593833487,"6":0.31161574195261194,"7":0.014271762152694403,"8":0.20338680813467286,"9":0.14042975185921525,"10":0.067088978548911,"11":0.12258874715766553,"12":0.32376389325233673,"13":-0.041283672629509736,"14":0.20226102685865163,"15":-0.23519980386467604,"16":0.11459338080180645,"17":0.19455863380756525,"18":0.23621314000563515,"19":-0.21717270753360368,"20":-0.09099665625857783,"21":-0.02641376246030015,"22":-0.14917092818471464,"23":-0.17020260197628082,"24":-0.1004691831578249,"25":0.15999670992907222,"26":-0.17555839776971233,"27":-0.013192441297004476,"28":-0.027591401041826998,"29":0.0073215675485831765,"30":0.1838906201600572,"31":0.0017109764716259639,"32":-0.10746046312244911,"33":0.10944885688250433,"34":0.22283838992703545,"35":0.02787164645185397}},{"sx":1,"sy":1,"depth":36,"w":{"0":0.009767033728931198,"1":-0.011578587395189813,"2":-0.17983845254115793,"3":0.04409952489791339,"4":0.15866088683117952,"5":0.23561327104228463,"6":-0.42338966964642355,"7":-0.2199307615462284,"8":-0.008394415149734482,"9":0.12797869142307805,"10":-0.09786753106548515,"11":-0.08928159271727551,"12":0.18014800155870492,"13":0.03613276808976865,"14":-0.18951673896834031,"15":-0.09703364658946823,"16":-0.1339470297043851,"17":0.02112082106440412,"18":0.08218979318938882,"19":-0.06711547179139403,"20":-0.04906912829685954,"21":0.35341880586625973,"22":-0.13405748592311786,"23":0.19883485532058828,"24":0.039659653170468614,"25":-0.06185976148747401,"26":-0.22096093271561315,"27":-0.2486750559507973,"28":0.22211997708429457,"29":-0.14919847886250534,"30":-0.02575009268925194,"31":0.01581690032599935,"32":0.11475638749845742,"33":-0.05737875742890032,"34":0.2986013395442984,"35":-0.15879827555879902}},{"sx":1,"sy":1,"depth":36,"w":{"0":-0.0848693494654077,"1":-0.21349013125972033,"2":-0.1763561291969138,"3":-0.12039983788146441,"4":-0.03570489780940952,"5":-0.19184439022933752,"6":0.07397006715017443,"7":-0.08421953117302587,"8":0.12277227512359781,"9":0.14775361940471496,"10":-0.2115167920811312,"11":0.0978005128347753,"12":-0.17287515635046288,"13":-0.07331002627861878,"14":0.20457130075131222,"15":0.07367874133631222,"16":-0.3011642097521778,"17":-0.23462532105698164,"18":0.24622508875587445,"19":0.07879388833664741,"20":0.048696752489175044,"21":0.20585758349954958,"22":0.07312098619963166,"23":-0.17366709806403136,"24":-0.19046696567282442,"25":-0.08920514833469105,"26":0.17326652341800483,"27":-0.017372438339195672,"28":-0.05034643556092371,"29":-0.12617555103911773,"30":-0.09028334228109519,"31":-0.20785445087411794,"32":0.08061430818495041,"33":-0.08289455816402178,"34":-0.14995607075333817,"35":-0.04218865133966277}},{"sx":1,"sy":1,"depth":36,"w":{"0":0.15365825253062398,"1":-0.14392762110281976,"2":0.11011766190956583,"3":0.23454580679899484,"4":-0.03516567420331449,"5":0.03448517179613523,"6":-0.1284808244584055,"7":0.06729149071386656,"8":0.05308923959955151,"9":0.27348071126002166,"10":0.049866060792993695,"11":0.016838790289688058,"12":-0.1096931677226258,"13":-0.02482936176266066,"14":0.050895261601394896,"15":-0.2903849384764851,"16":0.006097553660820931,"17":0.10046140886842912,"18":-0.17117380124897313,"19":0.14502365225788003,"20":-0.36137230420721955,"21":-0.0736267311468178,"22":0.08908217941603984,"23":0.3305844525650352,"24":-0.2708486856281649,"25":-0.0059044339146847565,"26":0.19383654288371022,"27":0.13914779824908052,"28":-0.10909558522988061,"29":-0.21077321762219756,"30":-0.022836355827651148,"31":0.23285355868104765,"32":0.24176816785498562,"33":0.10102668925726774,"34":0.14895890732810968,"35":0.0850393382936633}},{"sx":1,"sy":1,"depth":36,"w":{"0":-0.14969839031601223,"1":0.008356751375154197,"2":-0.1066280056782058,"3":0.00435937910297848,"4":-0.314060357515255,"5":0.22475473144750616,"6":-0.026395106223630824,"7":-0.04693786714405988,"8":-0.11397654720439093,"9":0.36428702712190275,"10":0.12110867783784716,"11":-0.133168224608559,"12":-0.05283585156152216,"13":0.2287377946922141,"14":-0.1683223679172952,"15":-0.0623084618705508,"16":-0.2694631042055627,"17":-0.05137220589304674,"18":-0.1400708523042966,"19":0.35617924520517696,"20":-0.26486684302072905,"21":0.18358652830774444,"22":-0.36685068286532185,"23":0.01361032011761093,"24":0.24027585296697065,"25":0.11777256041125428,"26":-0.0940765601032886,"27":0.1852238678594529,"28":-0.1913745517117999,"29":-0.22736794980882555,"30":0.3082087832865635,"31":-0.3107098216117708,"32":-0.015878401666199537,"33":0.04064538741897613,"34":-0.2911918777781901,"35":-0.1428418779841933}},{"sx":1,"sy":1,"depth":36,"w":{"0":0.10364417800900234,"1":0.04645936639329661,"2":-0.07699777308998312,"3":-0.18867508830825394,"4":0.033787348582750946,"5":-0.15409998041165446,"6":0.09752110133713958,"7":0.047181331560334216,"8":0.11165061404064004,"9":0.24279568781531113,"10":0.05370148583249483,"11":-0.14600501414255188,"12":0.049566393252769486,"13":-0.08207782027038892,"14":0.04074131281448635,"15":0.30464408569582196,"16":-0.03604015175493571,"17":-0.37756836737135646,"18":-0.08624507864367906,"19":-0.13804430866098932,"20":-0.06664426915639364,"21":-0.05993880760483013,"22":0.04159709484026975,"23":0.1915133059857141,"24":-0.08241710755011639,"25":0.2945371266283175,"26":0.14070678190574662,"27":-0.04506578728677164,"28":0.08216759171400652,"29":0.28461501253942967,"30":0.14015489219566854,"31":0.0721889434735073,"32":0.10123629196484712,"33":-0.09275977971426459,"34":0.14083946660299365,"35":0.18343212045673965}},{"sx":1,"sy":1,"depth":36,"w":{"0":-0.1449436322791188,"1":-0.3148634434515337,"2":-0.5232160890460608,"3":-0.027676212766607637,"4":-0.0911645497890135,"5":-0.23650092293272795,"6":0.005919203926338951,"7":-0.12655575891595466,"8":-0.1849293562813618,"9":0.15990986851289649,"10":0.13601097346417595,"11":0.040038896040441675,"12":0.10077351002440295,"13":0.18269224640463458,"14":-0.20588637592988268,"15":0.04961892039420684,"16":0.18212597528966812,"17":0.09475371333322935,"18":0.061621163041475996,"19":0.06268926391953694,"20":-0.04333524993579224,"21":-0.06218175958800193,"22":0.1424854035679396,"23":0.4521845884778507,"24":0.08054854414535675,"25":0.6562824697934725,"26":-0.09134817769256336,"27":-0.01658657480471648,"28":-0.011824258804387169,"29":-0.01806922552053007,"30":-0.11772085984458441,"31":0.2478218073096977,"32":-0.35633385412870383,"33":0.08225827534010083,"34":0.048003195324289746,"35":0.08667857610853111}},{"sx":1,"sy":1,"depth":36,"w":{"0":-0.06812503169650279,"1":-0.31083541441856444,"2":-0.20488806138356636,"3":0.03413690813652651,"4":-0.11041181909588922,"5":-0.1948261080918329,"6":0.17958649348506503,"7":0.23546800197674803,"8":-0.05223633903759343,"9":0.005995144712420785,"10":-0.0051124379334500465,"11":-0.03586053093751804,"12":0.10201130654988995,"13":-0.163177707104107,"14":-0.009056241131191828,"15":0.09716987961225756,"16":-0.08336119937990213,"17":-0.06475617160160456,"18":0.04570789083262102,"19":0.058980172170757246,"20":-0.002168886695247508,"21":-0.2001690481546872,"22":0.03282171879409621,"23":0.3719568650878682,"24":-0.10893378801890258,"25":-0.05082028704083548,"26":-0.37919485703936306,"27":-0.3841554913024005,"28":0.08409785591342112,"29":0.22989718251952845,"30":-0.23186456230603844,"31":-0.11124683081339139,"32":-0.22575022143600762,"33":-0.3206515043190814,"34":-0.08726177445536341,"35":0.11487793885205261}},{"sx":1,"sy":1,"depth":36,"w":{"0":0.07145030770827518,"1":-0.30894901533433516,"2":0.3611083779193846,"3":-0.0037096731101991286,"4":-0.0682716436567143,"5":-0.13536543161902778,"6":-0.11359720796793779,"7":0.0409772495297097,"8":0.12517152807648604,"9":0.0881679032218984,"10":-0.18617188594225303,"11":-0.032798825110750704,"12":-0.33031728921617987,"13":-0.23442897790516207,"14":-0.06878276423735882,"15":-0.2219164619481261,"16":0.15278788964330162,"17":-0.17613548392594985,"18":0.2413184991062156,"19":0.15717926732317464,"20":0.039362563394921,"21":-0.1261269069752299,"22":-0.024253138725356956,"23":0.22711064590259875,"24":0.16556786566638157,"25":-0.3236749232213753,"26":-0.08747547971124905,"27":-0.08431061781654439,"28":0.16496234018752517,"29":-0.0022153637412902377,"30":-0.2377876514267111,"31":-0.22906626441564665,"32":-0.13332006503447735,"33":0.1723131809142805,"34":-0.17029598121094863,"35":-0.05501170187739175}},{"sx":1,"sy":1,"depth":36,"w":{"0":0.11623875217335458,"1":0.02789357350679906,"2":0.10482292026334526,"3":0.18208306529181822,"4":0.2046182837579146,"5":0.13208847762052428,"6":-0.2036869922142208,"7":-0.2455943296901324,"8":0.009958569841947188,"9":-0.03026324440684502,"10":0.06940393778121182,"11":0.16487929204233256,"12":0.028992471390219137,"13":-0.11618478295961085,"14":0.16309617458342823,"15":-0.04586018093099709,"16":-0.1966807125948615,"17":-0.09819594529476697,"18":0.0609990572439877,"19":0.02650542097376939,"20":-0.02428278287267602,"21":0.10647016519738936,"22":0.012380472797193611,"23":-0.0730445106877144,"24":-0.32097044828279714,"25":-0.03457443701292951,"26":-0.1662546250368334,"27":0.1555195633109927,"28":0.12835223699755832,"29":-0.1295702637094006,"30":-0.04723248075988654,"31":-0.03619612173147858,"32":-0.031819775014902345,"33":0.341970917951855,"34":0.21335615956049672,"35":-0.2035522240705612}},{"sx":1,"sy":1,"depth":36,"w":{"0":0.1448501896466706,"1":-0.08668787424721627,"2":-0.0027487451862376316,"3":-0.013548464659872486,"4":0.083958071794679,"5":-0.04659903651242595,"6":0.05717783336999167,"7":-0.3061342707211441,"8":-0.15496642133261432,"9":-0.020922356665749976,"10":-0.006120056300207333,"11":-0.2973833107801681,"12":-0.03138877919378682,"13":-0.16481853129461446,"14":0.25054339111445634,"15":0.09986366231956864,"16":-0.11088639691407697,"17":-0.06595235922029728,"18":0.03242517386521863,"19":-0.32298059532307916,"20":-0.29851040738300766,"21":0.10419372482496055,"22":0.10883199760453857,"23":-0.05296778745964308,"24":-0.05137130876728698,"25":0.007853206246100287,"26":0.03915559644328763,"27":0.054745687987361506,"28":0.11225624400923978,"29":0.048244036598269674,"30":0.042096576839685394,"31":-0.14036114014912393,"32":0.06028292346564961,"33":-0.1537552945738627,"34":0.07087565106357036,"35":-0.20453764209519817}},{"sx":1,"sy":1,"depth":36,"w":{"0":-0.2335320292934489,"1":0.07073816041512371,"2":-0.1027992292366773,"3":-0.17844906722543863,"4":-0.17293588227425172,"5":0.26420092246832305,"6":-0.3074278263719153,"7":-0.05884097867407059,"8":-0.2011257412254761,"9":-0.1335180899944271,"10":-0.1579944974084966,"11":0.08909946047296476,"12":-0.03614914739157761,"13":-0.2583819942884432,"14":0.3009466303056218,"15":-0.09744124845664268,"16":0.3036767984182315,"17":-0.06516726933296078,"18":-0.0442616088870506,"19":0.14666966934992537,"20":0.28338494563828154,"21":0.3325460386863698,"22":-0.002465741279750644,"23":-0.20356166225633243,"24":-0.20833038685975425,"25":0.03517167737890804,"26":-0.22103410810737611,"27":-0.13674779131509127,"28":0.23721466080047304,"29":0.15709892638545958,"30":0.023161129812711536,"31":-0.28490581436870593,"32":-0.09383309538758826,"33":0.16303693781419232,"34":-0.2626579853171509,"35":0.151599284639432}},{"sx":1,"sy":1,"depth":36,"w":{"0":-0.16051716383965167,"1":0.17353342277058365,"2":-0.10528604662943261,"3":0.10325646378666647,"4":-0.08558355337754693,"5":-0.182319712780163,"6":0.08209108928267494,"7":-0.05113888636676344,"8":-0.2225417410859173,"9":0.04054924103725172,"10":0.06993318470910656,"11":0.2229246780187674,"12":0.07049104465923416,"13":-0.016530187527707955,"14":0.08744460988369163,"15":-0.01869978452451117,"16":-0.006826709802821289,"17":0.09676580436829707,"18":0.19056744709007406,"19":0.0817606482104831,"20":0.06799443724727856,"21":-0.09191786927220659,"22":-0.2832219902601793,"23":0.026053875838469277,"24":-0.13649773974932,"25":0.22503349297387248,"26":0.3623305719923418,"27":0.18586142614347329,"28":0.11715808511363716,"29":0.20147856564345062,"30":0.17606539564952547,"31":-0.2589358637059621,"32":0.07766980378492322,"33":-0.02057300894093158,"34":-0.02148447415199065,"35":-0.14889320266334655}},{"sx":1,"sy":1,"depth":36,"w":{"0":-0.05954444607636064,"1":0.2008677097668805,"2":-0.05272688049708003,"3":0.02224791574888923,"4":0.26644794990758686,"5":-0.08209918888254085,"6":-0.11005981714130667,"7":0.13895255215553268,"8":-0.39445757037536633,"9":-0.05564019753269522,"10":-0.0765072141079017,"11":-0.06175720644587165,"12":-0.023898924732921226,"13":0.195613671146682,"14":-0.1129004622720623,"15":-0.38957975649575777,"16":0.1934992448471837,"17":0.014618675054240393,"18":0.005765802115421706,"19":0.03740082311307397,"20":-0.14478097074421373,"21":-0.0871159084260668,"22":-0.03133272966351938,"23":-0.10900887978352485,"24":0.15504977936598036,"25":0.1806951038022638,"26":0.01252097025815059,"27":-0.039019456048832314,"28":0.06938525717154775,"29":-0.21985452217272106,"30":-0.03695723470734284,"31":-0.030258129930584295,"32":-0.07326374348360619,"33":0.3388773891679401,"34":-0.02155464577857079,"35":0.1646792332733397}},{"sx":1,"sy":1,"depth":36,"w":{"0":0.241964880048679,"1":0.15778881813846224,"2":-0.18401392783325307,"3":-0.0952448052820025,"4":0.17812198319332806,"5":0.006938523596864691,"6":-0.006556311702299775,"7":-0.2229921306686637,"8":0.15034607367113187,"9":-0.118702496878203,"10":-0.06716310028462986,"11":0.24117506679778755,"12":-0.0760047283091975,"13":0.13026194823633452,"14":0.07141369270430126,"15":0.0008143765499303263,"16":0.19822081938748426,"17":0.027908486095383718,"18":0.019702972064152557,"19":-0.16302793490613784,"20":-0.04652657791516782,"21":-0.3476076787637161,"22":-0.21648701655757224,"23":-0.14670778047663294,"24":-0.02159348060405924,"25":0.24510618589681232,"26":-0.29422209390126297,"27":0.08231920194528715,"28":-0.23896377686765366,"29":-0.0412340592065313,"30":-0.09827282945198075,"31":0.272841603385138,"32":-0.2213095676984061,"33":-0.41942919421808905,"34":-0.27195811418774407,"35":0.13477595077480037}},{"sx":1,"sy":1,"depth":36,"w":{"0":0.2964771076279064,"1":-0.045438276717848856,"2":0.20428088219692483,"3":-0.220748300922871,"4":-0.09622350386883438,"5":-0.022466783773180697,"6":-0.1796634935117737,"7":0.14109184974344963,"8":0.1558398513976049,"9":0.07786902793228245,"10":0.023475894086260485,"11":0.17260105266543793,"12":0.07421154257394055,"13":0.08089739247715648,"14":-0.15085261712731848,"15":0.14944340653740942,"16":-0.09922281986348604,"17":-0.1444748681051788,"18":0.13498821856182466,"19":0.12016494564706438,"20":-0.0012233913934145474,"21":0.09851014333529431,"22":0.08430983883054481,"23":0.03889472474338941,"24":0.06701680358383766,"25":0.1116155411579034,"26":0.06034268163542926,"27":0.055462087123657494,"28":0.23419330084869971,"29":-0.24905119250290797,"30":0.03029882241952193,"31":-0.1463966124248974,"32":-0.41203163553817146,"33":-0.19848080362880927,"34":0.1173000895436942,"35":-0.16914295193199885}},{"sx":1,"sy":1,"depth":36,"w":{"0":-0.10178416835617225,"1":-0.020624096583362523,"2":-0.08229844321819335,"3":-0.032070632341756986,"4":0.05819718795197244,"5":-0.13068314166390527,"6":-0.06441685255388988,"7":-0.050108097451371666,"8":-0.005616145673464089,"9":-0.10233342954776717,"10":-0.013478373512962123,"11":-0.13925247031932872,"12":0.26893637648271046,"13":0.1506416277403345,"14":0.09705872902104956,"15":0.18923303149752987,"16":-0.13343097877679136,"17":-0.31642939397451236,"18":0.16727452533211631,"19":0.08524775429988059,"20":-0.25608774211283875,"21":0.009206462771343071,"22":-0.2990198206125467,"23":0.1865998496503729,"24":0.13077094499152253,"25":-0.12952769955901408,"26":-0.0928369378426126,"27":0.1609290235871194,"28":-0.11603504320691785,"29":-0.26638640563456356,"30":-0.02461140636197443,"31":-0.1764354906967938,"32":-0.1748503754927038,"33":0.12061354987998356,"34":-0.0830385646661082,"35":0.16149528099850485}},{"sx":1,"sy":1,"depth":36,"w":{"0":0.1884073950183911,"1":-0.16616378646815685,"2":-0.06844940237004529,"3":-0.0609125749073425,"4":-0.21926447931737506,"5":0.2116204267501584,"6":0.013072030845395547,"7":0.12229294462715483,"8":0.09334908475958215,"9":0.16251660010912744,"10":0.016297954428871227,"11":0.0064613704545460416,"12":-0.05561634525205013,"13":0.1426106701725415,"14":0.09081263411137881,"15":0.1256876891544266,"16":0.026364635776627014,"17":0.12045736383605903,"18":0.3261339345209935,"19":-0.16159152397071164,"20":0.011554537712900704,"21":0.097201324965099,"22":-0.18761880328560868,"23":0.2155224710556717,"24":0.1553832275495512,"25":-0.42216394877351865,"26":0.023810506894218365,"27":0.16799979059187337,"28":-0.12804382963252578,"29":0.08976747418290057,"30":0.06617545850292324,"31":-0.25910674695039954,"32":0.1972581040412452,"33":-0.11619488724064117,"34":-0.3908467948190851,"35":0.21566866263405554}},{"sx":1,"sy":1,"depth":36,"w":{"0":-0.13296595483600696,"1":-0.3698159579255302,"2":-0.1783968186870975,"3":0.038756222614607594,"4":-0.02453960645530555,"5":-0.01080937284184316,"6":0.11837612419093202,"7":0.4758068928918916,"8":0.00787068476597789,"9":-0.12217448430115688,"10":0.03478411268482396,"11":0.2930056564941382,"12":-0.24697529508769334,"13":-0.2209257049979382,"14":0.19583090174371828,"15":0.06622113878967227,"16":-0.20086231732359794,"17":-0.02564505078731049,"18":0.1450639970440768,"19":0.34592870553349464,"20":-0.340209615048089,"21":-0.2551321007900486,"22":-0.08826263999040902,"23":0.25070018664878474,"24":0.375863614543367,"25":0.022539546636383526,"26":-0.05056171804384251,"27":-0.01360355117926149,"28":0.03356807899263927,"29":0.058841618442022736,"30":0.35191846861953335,"31":-0.14500294490409685,"32":-0.10217760415414162,"33":-0.2547888124724928,"34":-0.048927381903207084,"35":0.02307262934531458}},{"sx":1,"sy":1,"depth":36,"w":{"0":0.08065320951141092,"1":0.040197007866114735,"2":-0.008571269498564906,"3":0.011525382778040464,"4":0.31862856912342286,"5":-0.15713619643376037,"6":-0.24862750337676834,"7":-0.11768811016637352,"8":0.13788820539024174,"9":-0.07891355473445855,"10":0.09577478336401801,"11":-0.04260127375048417,"12":0.10501491341731775,"13":-0.07996401046360574,"14":0.07855783193691665,"15":-0.03589327691032337,"16":-0.2729655816234218,"17":-0.4271745781389634,"18":0.21266194158432372,"19":-0.24788591642619104,"20":0.05288871857493106,"21":0.09682647490274561,"22":-0.20151914537096266,"23":0.016217373644324042,"24":-0.09768717294308453,"25":-0.05754323222138713,"26":-0.18864165706906558,"27":-0.3522184391150697,"28":0.16733158363745795,"29":-0.07400651794831806,"30":-0.07655899948290247,"31":-0.2771274059807395,"32":-0.06855038874599623,"33":-0.07332334774963288,"34":0.2552655488737954,"35":-0.4070373754225285}},{"sx":1,"sy":1,"depth":36,"w":{"0":-0.1101784739288489,"1":-0.08539007780963104,"2":-0.057916169041531074,"3":0.016040756221237396,"4":-0.1568164413755125,"5":0.22464871052375762,"6":-0.17653251315577934,"7":0.038489183960551246,"8":-0.4829230586540992,"9":-0.1489090841346621,"10":0.33444005036345054,"11":0.1870204093163856,"12":-0.07929433766161638,"13":0.051758384272506015,"14":-0.3066937341648713,"15":-0.006681496167382712,"16":-0.009224792117356021,"17":0.17829752754601047,"18":0.13843167458046304,"19":-0.0781974973736894,"20":0.0015753112754927471,"21":0.024925634500132167,"22":0.24809010974029366,"23":0.2811060348545034,"24":0.07997316036002487,"25":-0.007325397855943739,"26":0.11149174764880031,"27":-0.24631917520256516,"28":0.13331119903689131,"29":0.051938524636888285,"30":0.16856344412554333,"31":0.21322301282305323,"32":-0.16525526518954503,"33":0.07747647724692823,"34":-0.050775088727968626,"35":0.10099206998633707}},{"sx":1,"sy":1,"depth":36,"w":{"0":0.08134441796988626,"1":-0.4809503992308814,"2":-0.290950533111759,"3":0.16521238067267796,"4":0.2659464432674896,"5":0.3331834362528951,"6":0.023225691235229596,"7":-0.07396543375648122,"8":-0.11128148982395003,"9":0.2831086108746316,"10":0.09524990141729385,"11":-0.11944507283279429,"12":0.06876818987332241,"13":0.155506169642015,"14":0.079559171699056,"15":-0.20786086896251388,"16":0.14781157094818212,"17":0.10661870603260314,"18":0.07825737297593036,"19":-0.3231360133055253,"20":0.15050034766384857,"21":-0.011930802555868049,"22":-0.20616488960261048,"23":-0.21196512237815315,"24":-0.2259973692559757,"25":0.12443999678399538,"26":0.12486658124768356,"27":0.14529967779614988,"28":0.11847030127896833,"29":0.30766209211539763,"30":0.0742122198360312,"31":0.1542639466904647,"32":-0.5067540903678939,"33":0.017337853962676442,"34":-0.003845372502150184,"35":0.15048335144303565}},{"sx":1,"sy":1,"depth":36,"w":{"0":0.02627333561335169,"1":0.44669863916575137,"2":0.2339768505216501,"3":0.12217787583697268,"4":0.035785513368318214,"5":0.17517075044708721,"6":-0.28909788022616084,"7":-0.12010258081878585,"8":0.15298778595551324,"9":0.0012064768912610788,"10":0.099392685781042,"11":-0.12320706558112643,"12":0.2307220936059806,"13":0.14621922073225596,"14":-0.023102211667653274,"15":0.050400175186927805,"16":0.32254847395494074,"17":0.25643695210164974,"18":0.19484666580422985,"19":-0.1108253580660014,"20":0.17650872920491262,"21":0.13885669436591896,"22":-0.13402409390789782,"23":0.1859760845271862,"24":-0.022011943223039246,"25":-0.09504517143143033,"26":0.02182137603582692,"27":0.0329429836234507,"28":-0.013683053008969449,"29":0.3635381106941659,"30":0.41900855664152015,"31":-0.18311006343338238,"32":-0.10054331078036377,"33":0.07274725799311949,"34":0.021304182608020278,"35":0.114814442718472}},{"sx":1,"sy":1,"depth":36,"w":{"0":-0.33811694867966163,"1":0.20766885208125294,"2":0.0076335116566042475,"3":-0.16392192539756384,"4":-0.1652812177319737,"5":0.07245542618330635,"6":0.016540783488798505,"7":0.16779217237535518,"8":-0.19124165216512976,"9":-0.11691296869413495,"10":0.11664551815178748,"11":-0.03705210063257808,"12":0.10255667101765958,"13":0.26147656390759993,"14":-0.030095926913913315,"15":-0.20112766347627875,"16":0.26940348951812465,"17":0.09338174068562838,"18":0.16138888467575646,"19":0.18063070849704502,"20":0.22243211032378324,"21":0.10225468317403669,"22":0.18426162449417105,"23":-0.0784434308442416,"24":-0.06528569922794975,"25":-0.05533950819582738,"26":-0.17578616396664076,"27":-0.03835100084372212,"28":-0.33296382218547943,"29":-0.09348017175619769,"30":-0.1399327097343602,"31":0.10849220708957245,"32":0.09997103798008926,"33":0.21321008291906945,"34":0.025696253900979755,"35":0.0741251789449154}},{"sx":1,"sy":1,"depth":36,"w":{"0":0.0017878201846625002,"1":-0.11495365051518391,"2":0.2005805681394584,"3":-0.06553605095234244,"4":-0.1789069627853492,"5":-0.2821676926521397,"6":-0.22663203536418552,"7":0.04102494240301718,"8":0.12072447698777831,"9":-0.11567030036147322,"10":-0.12474748110184834,"11":-0.08138669495476944,"12":0.2229256120573201,"13":0.2678588162927411,"14":0.1351012708351137,"15":0.09856415075187043,"16":-0.0915093885343728,"17":-0.11548161921541449,"18":-0.04434924675089848,"19":0.32885771424272375,"20":0.017871048045660465,"21":0.01738521594545833,"22":0.22416148328986776,"23":-0.013833301501852238,"24":-0.29416322801602385,"25":-0.12114832475421047,"26":-0.0050279900516289906,"27":0.1594348724994053,"28":-0.1862841812010967,"29":-0.016912202541448058,"30":0.1479998392696685,"31":-0.09830502207111655,"32":0.1981305316739213,"33":0.08421337301983788,"34":0.11202175234480664,"35":-0.05495343027065948}},{"sx":1,"sy":1,"depth":36,"w":{"0":-0.15784981139948673,"1":0.2095377493498669,"2":-0.1360944585736098,"3":0.30733987902724674,"4":0.05454634692983584,"5":0.1384669358550636,"6":0.1882174278685223,"7":0.06986082320300688,"8":0.13548013116324317,"9":-0.03337761055059769,"10":-0.2602790597785116,"11":-0.11783410841285118,"12":0.23816195816086533,"13":-0.342522818231301,"14":0.0038405743946969676,"15":-0.13279742144643866,"16":0.0662096672664457,"17":0.04879757398771319,"18":-0.26327561538929356,"19":0.2938527273274593,"20":0.017162112885861905,"21":-0.03761951369757785,"22":0.10380402029671759,"23":0.07441098867615417,"24":-0.05432763891624759,"25":0.297583348356737,"26":0.29156434650733803,"27":0.35142384540219856,"28":-0.0889445663552864,"29":-0.11487938895224532,"30":0.0035822207511463245,"31":-0.21917288491316408,"32":0.35427113354892653,"33":0.017602157272032588,"34":0.1580606420560738,"35":0.06855952456103098}},{"sx":1,"sy":1,"depth":36,"w":{"0":0.17433104706519634,"1":0.039621227993623886,"2":-0.22063189193412167,"3":0.27246007962524166,"4":0.21399582658856747,"5":0.14526965614335025,"6":-0.12349076746104869,"7":-0.1244384380449474,"8":0.09685990435446787,"9":-0.154741721165924,"10":0.07165369079262218,"11":-0.02742351034481785,"12":-0.32772869714895286,"13":0.04113051273291535,"14":-0.06533491258840475,"15":-0.04640260103680954,"16":-0.16813989410265143,"17":-0.2709193959945631,"18":0.07729395417935711,"19":-0.11504871804853423,"20":-0.13826770455480605,"21":0.030543719171549914,"22":-0.04314860725276576,"23":0.15320823936164976,"24":-0.0838283532057384,"25":-0.4153319651313622,"26":-0.2086538402408303,"27":0.0837218351191988,"28":-0.0654958374453745,"29":0.09701339443075423,"30":0.12966046609765697,"31":-0.1492495212744974,"32":0.14352136814734823,"33":-0.18492453546469295,"34":-0.25880671240739905,"35":-0.1358361337971063}},{"sx":1,"sy":1,"depth":36,"w":{"0":-0.07682406765952872,"1":-0.09426830671605212,"2":0.2533475786225678,"3":0.36492172894422825,"4":0.09139152204643267,"5":-0.05908306125648441,"6":0.17030812632823034,"7":-0.11863436417353071,"8":-0.026314829022982333,"9":-0.14695672409887045,"10":0.09031943040887562,"11":-0.19415770159593693,"12":0.35459508539979334,"13":-0.0011872614757520124,"14":-0.1645069965584309,"15":-0.04109689722625225,"16":0.10847917850826055,"17":-0.010034335431576778,"18":-0.06319491769097173,"19":0.2673884144566616,"20":-0.5108953182172048,"21":-0.019746099539743652,"22":-0.003965530314262818,"23":-0.3284732058858877,"24":0.32171171962233414,"25":-0.061549934387206566,"26":-0.08058460455730636,"27":0.04350285691419401,"28":-0.05618970063930248,"29":0.06453824037505126,"30":0.024032904137173478,"31":-0.12189465103265115,"32":0.05179970419752593,"33":0.19632034162485631,"34":0.3400076659725515,"35":-0.12377344730015913}},{"sx":1,"sy":1,"depth":36,"w":{"0":0.21021107158796087,"1":-0.035713866738746554,"2":-0.07387743634880684,"3":0.2448690058509059,"4":-0.023665424232768347,"5":-0.03962895594624583,"6":0.3315443501392589,"7":0.15272843113226334,"8":0.38919106650184,"9":-0.11978251188967066,"10":0.2022932244183767,"11":-0.09726462845644822,"12":-0.20051676757355172,"13":-0.4343505729330679,"14":0.10468729360092914,"15":0.03421865916923488,"16":0.046058279156721504,"17":-0.31519570307189604,"18":0.24687745715154813,"19":-0.05504567672688432,"20":-0.23116283159830028,"21":-0.04673176649745504,"22":-0.02890336694419285,"23":0.09198592878765151,"24":0.040491466228646994,"25":-0.11726792222736503,"26":-0.0029208015069962343,"27":0.4030982176582716,"28":-0.12402128519268761,"29":0.23062936669967357,"30":0.00803244390400201,"31":-0.0850139972491172,"32":0.18918077895375615,"33":-0.1502084730060813,"34":-0.19742157844863306,"35":-0.15577028667622583}},{"sx":1,"sy":1,"depth":36,"w":{"0":0.16424122945432956,"1":-0.03108007701357108,"2":0.28630876294011576,"3":-0.147010632292887,"4":0.04457927237475614,"5":0.27571940718542626,"6":0.0454933524725629,"7":0.07799552451079254,"8":-0.01640420172487248,"9":0.047614499842045535,"10":-0.09914856145269517,"11":0.07617266149729235,"12":-0.15631286885618612,"13":-0.061753220365565534,"14":0.19344580764939523,"15":0.09222886775141594,"16":-0.1289802523657413,"17":0.3153752927308544,"18":-0.045029842975997394,"19":0.07796923141449559,"20":-0.1190676126549721,"21":0.11833723045190395,"22":0.2900547177663742,"23":-0.01316691685685264,"24":0.2579574943479166,"25":-0.009585636559567482,"26":0.2657224731410879,"27":0.013695003010265007,"28":0.0027113814214543334,"29":-0.035803380451891,"30":0.08774234555743403,"31":0.04484660374097838,"32":0.2696090504537077,"33":0.31248871352246727,"34":-0.05546051430583586,"35":0.02728435093587661}},{"sx":1,"sy":1,"depth":36,"w":{"0":-0.22182482789518243,"1":-0.1256231334007289,"2":0.047596200096465535,"3":0.44535991442881157,"4":0.15425217813670805,"5":0.43360042973805435,"6":0.08393774587993205,"7":-0.17710352267766236,"8":0.08351056368029665,"9":-0.0412692579739147,"10":0.20174037754055965,"11":-0.22550052535714601,"12":0.05699891072212019,"13":0.24279467074795769,"14":0.058671387754436415,"15":0.13782647320654093,"16":0.029107938651678496,"17":0.023215923300156604,"18":0.06880736055131337,"19":-0.007388282093108334,"20":-0.008190515648937052,"21":0.22889239706002829,"22":-0.181489180397437,"23":0.1219413115271236,"24":-0.11079095944289415,"25":0.17990946086643797,"26":0.09456954601683776,"27":0.3018384480077842,"28":-0.14072805341832773,"29":0.004554550948217407,"30":0.010286272748234586,"31":0.016163700490590596,"32":-0.12684094421310088,"33":-0.3386922167060062,"34":-0.009975292669140025,"35":0.11857877504280934}},{"sx":1,"sy":1,"depth":36,"w":{"0":0.2758027417437663,"1":-0.2458623030562879,"2":0.08981460143446966,"3":0.1952035072210992,"4":-0.23392932097860447,"5":0.08247815219283618,"6":0.2478586982269774,"7":-0.06609072349167003,"8":-0.01868143389601694,"9":-0.1311757363315292,"10":0.19404365920815503,"11":0.07417331324589783,"12":0.2039456103768345,"13":0.034718705667934315,"14":0.015781433761563005,"15":0.04975737382259323,"16":-0.17641946632640726,"17":0.10618323578706415,"18":-0.02482519560816761,"19":-0.1157869186231382,"20":0.12751136876001287,"21":-0.23304158987722887,"22":-0.05164737087134046,"23":0.2255748949352753,"24":-0.13601780867424662,"25":-0.029490702389604804,"26":-0.05053363629618533,"27":0.064277821173103,"28":0.1101601705518454,"29":0.012342632154349541,"30":-0.06475085181407171,"31":0.03243055123576934,"32":0.28989153716184696,"33":-0.45317545896552297,"34":-0.38452492107790454,"35":0.05851208955357455}},{"sx":1,"sy":1,"depth":36,"w":{"0":-0.010033395766581648,"1":0.2658451084140125,"2":-0.12093922708538708,"3":-0.19823104313953568,"4":0.05217418855993113,"5":-0.022572348154928625,"6":0.09561076183414895,"7":-0.06784785437522006,"8":-0.14779435954250722,"9":-0.04767660469942088,"10":-0.034983734038555384,"11":0.10121647810028832,"12":0.21260272649219122,"13":0.22628742903584342,"14":-0.41916288181795375,"15":0.09443871888908029,"16":-0.21233741735442818,"17":0.31735005931125726,"18":-0.20035361885386285,"19":-0.20744601010366537,"20":-0.33217793696779707,"21":-0.26275839955184366,"22":0.008556582966172302,"23":-0.23557676978035633,"24":-0.03724408312969568,"25":0.14873203824399514,"26":-0.260109260633058,"27":-0.12276546815446068,"28":0.08641537056588965,"29":-0.025320439474881638,"30":0.040901640012944884,"31":0.050618036760564075,"32":0.005722854788811124,"33":-0.15358212516439443,"34":-0.4190472763422518,"35":-0.0782931459927869}},{"sx":1,"sy":1,"depth":36,"w":{"0":-0.19700162444915237,"1":0.04206497932865675,"2":-0.38480859195372574,"3":-0.09334734306899543,"4":0.049476392635313386,"5":0.24460964245841152,"6":0.403305500901949,"7":-0.0866586269850887,"8":-0.009511654418901401,"9":0.02090383841490547,"10":0.2962386786119948,"11":0.08673658450054592,"12":0.13895590274606673,"13":0.1897555059072089,"14":-0.22479454582867797,"15":0.07711692591240198,"16":-0.1860228004143491,"17":-0.01920698121964328,"18":0.09577745961193658,"19":0.20974386943021286,"20":0.09739833882828253,"21":0.0027393696406031996,"22":0.1471286505243135,"23":-0.1069531235069455,"24":0.021534188076470503,"25":0.05303831368108523,"26":-0.11117573852061755,"27":0.21148252346913216,"28":0.2044018085586098,"29":-0.2570832584814282,"30":0.10235773629950734,"31":-0.11138320742226035,"32":-0.32924541720615697,"33":0.04006636280437883,"34":0.06465534118726249,"35":0.1564204453461227}},{"sx":1,"sy":1,"depth":36,"w":{"0":-0.18555256742417228,"1":0.06470716941531378,"2":0.003446649827737476,"3":0.07722572943056684,"4":-0.002113867120942322,"5":-0.08055863985622597,"6":-0.3396403780114517,"7":-0.12299129386266126,"8":0.08783971829017855,"9":-0.2616306786535121,"10":-0.22224148909524707,"11":-0.1716086161735572,"12":-0.1756180018042434,"13":0.1025349731967932,"14":-0.13848441808326162,"15":-0.05059372281683763,"16":-0.1265891554074746,"17":0.1666837029010901,"18":-0.057492262456641643,"19":0.31663801407620745,"20":-0.16775857686045811,"21":-0.1274136401815457,"22":-0.2636989816184358,"23":0.012543855280494983,"24":-0.04638247727216212,"25":-0.13621694110757485,"26":-0.26687823146762346,"27":-0.12989679260970693,"28":0.1066974999901762,"29":-0.0522674204298004,"30":0.031603317082271466,"31":-0.006844866246831426,"32":0.1713699244091666,"33":-0.044235592401105146,"34":-0.00526874154094212,"35":0.17839099305468273}},{"sx":1,"sy":1,"depth":36,"w":{"0":0.10705294632900504,"1":0.17729125846663746,"2":0.034714080507477166,"3":-0.04585096959475201,"4":-0.18916111674153835,"5":-0.1684549850068603,"6":-0.00009611875419500693,"7":0.33284679712529996,"8":0.2356132034239837,"9":-0.5807960285083574,"10":-0.22367238657205146,"11":-0.23507145223411008,"12":-0.3388174857887853,"13":0.35682399251801794,"14":-0.17070802199094323,"15":0.08915262997080639,"16":0.168110911880251,"17":-0.17374125083155395,"18":0.2214730504529748,"19":-0.2991909110691183,"20":-0.14405306942350665,"21":0.09670843554958128,"22":0.017530538892683734,"23":0.035200957698671036,"24":0.2659350188402757,"25":-0.0449295065282033,"26":-0.019534933791798395,"27":-0.210621639142843,"28":0.020186957280592412,"29":-0.011886894494387332,"30":0.2574922142382771,"31":0.13006328734637643,"32":-0.08451583708757611,"33":-0.037825789910536235,"34":0.009291845992861772,"35":0.19551882506577326}},{"sx":1,"sy":1,"depth":36,"w":{"0":-0.3988729756449241,"1":0.009405268288579453,"2":0.1941332508088191,"3":0.0952629763074932,"4":-0.03153709780961133,"5":-0.08470845663563047,"6":0.17626324392960158,"7":0.012952023493532427,"8":-0.02080928821427024,"9":0.23403000665486753,"10":0.05718167359024707,"11":-0.2139991635670313,"12":0.003407201878381717,"13":0.29224809448878064,"14":0.008848205815454006,"15":-0.113155046252946,"16":-0.003850548235282694,"17":0.25664662120832804,"18":0.22863967391913337,"19":0.2010709524511976,"20":0.039872448652971154,"21":-0.00429334479777155,"22":-0.07314177766083843,"23":0.14638315256870243,"24":-0.3044596054603503,"25":0.133563112531992,"26":-0.19648774481331593,"27":-0.2684044263071011,"28":0.19542533710858453,"29":-0.024902907283275457,"30":-0.14037213317859182,"31":-0.21172126749172818,"32":0.05851481984553047,"33":0.007717715161333756,"34":-0.09735183584737896,"35":0.006299372094463013}},{"sx":1,"sy":1,"depth":36,"w":{"0":-0.10694078754135644,"1":0.16598151287068338,"2":0.12662404137370334,"3":-0.240000646137918,"4":-0.14975958157352776,"5":0.051643725731925674,"6":-0.1624165632586435,"7":-0.1934144299069188,"8":0.06550875080764867,"9":-0.011854734244330789,"10":-0.031176577404320466,"11":-0.16592879454643691,"12":-0.10503485448174255,"13":-0.2698554911674018,"14":-0.005679381909049586,"15":0.09978975770629248,"16":-0.11975031867746873,"17":0.2567944744652963,"18":0.1397918521961894,"19":0.026065667660219005,"20":0.20633270116555838,"21":0.03430575474184205,"22":-0.1011855163392162,"23":0.11127127649231985,"24":-0.009878287133597508,"25":-0.19487661250734886,"26":-0.02200633812301725,"27":-0.03702021261936014,"28":0.1007079786439469,"29":-0.07298719678344832,"30":-0.04344354420560931,"31":0.19361859516215574,"32":-0.13689171501449335,"33":-0.03238959456111701,"34":0.01953591612743602,"35":0.06561818431150672}},{"sx":1,"sy":1,"depth":36,"w":{"0":0.04635540502627941,"1":-0.30265286557522875,"2":-0.10796177243438715,"3":0.00879302204714608,"4":0.1587636609215974,"5":0.16667565632708556,"6":0.058649274999445875,"7":-0.13458805737220192,"8":0.05959175563533505,"9":0.09476594643802033,"10":-0.17243037634019703,"11":0.011142721511726487,"12":-0.04437813422004677,"13":0.10758705724515463,"14":0.14535962069811895,"15":-0.2159129572729697,"16":0.05839408118850185,"17":-0.19203449769249542,"18":0.06830730429039522,"19":0.09422123099837132,"20":0.04484615956016598,"21":0.009453555817153977,"22":-0.12720814272043382,"23":0.19513389446867133,"24":0.18018705696797704,"25":-0.0671653107814563,"26":0.4052664174430725,"27":0.07982023319542147,"28":-0.20158373877406063,"29":0.060727324870058996,"30":-0.07854071092763339,"31":0.11092243969489651,"32":0.019431499777337963,"33":0.04639854446960882,"34":0.189349528746804,"35":-0.14123764870368172}}],"biases":{"sx":1,"sy":1,"depth":64,"w":{"0":0.0997578219866931,"1":0.0999172818481974,"2":0.10022597684405188,"3":0.09954654790296448,"4":0.09985075329746915,"5":0.09954288620636717,"6":0.09996129263228502,"7":0.09978315263438965,"8":0.09987452024250706,"9":0.09976528811272208,"10":0.09985660766521812,"11":0.1002135911621588,"12":0.10006157237589254,"13":0.09995766905766008,"14":0.10016044685503682,"15":0.10016575250220328,"16":0.09992539957392543,"17":0.10017669435733768,"18":0.09956460907673031,"19":0.10006996815793866,"20":0.10041377282939856,"21":0.0996588615324086,"22":0.10000201651720006,"23":0.09963011571911436,"24":0.10006684996685067,"25":0.09996626785802941,"26":0.09986619807908902,"27":0.09990914634444892,"28":0.10021269271393643,"29":0.10014197873922623,"30":0.10007118184623474,"31":0.10015392609125394,"32":0.0999776580223663,"33":0.09995464431755315,"34":0.10000969275183955,"35":0.0994699240840771,"36":0.09986996669127815,"37":0.09997788854965084,"38":0.10026985297659613,"39":0.10004150910874562,"40":0.10015725293598461,"41":0.10016085689440267,"42":0.0998235703282768,"43":0.09992499920549164,"44":0.1001529822396751,"45":0.09974278990804557,"46":0.09959110905686182,"47":0.10025852287880224,"48":0.10013750805604156,"49":0.10009630962678466,"50":0.10021166260674952,"51":0.10009791731840531,"52":0.0999564400717014,"53":0.10056060872775531,"54":0.09993517032957439,"55":0.10096764272831082,"56":0.1000204328365159,"57":0.10010691592944482,"58":0.09996228077112615,"59":0.09992353165129345,"60":0.09976595979189531,"61":0.10038654594062978,"62":0.10035564267867643,"63":0.09999623180660122}}},{"out_depth":64,"out_sx":1,"out_sy":1,"layer_type":"relu"},{"out_depth":32,"out_sx":1,"out_sy":1,"layer_type":"fc","num_inputs":64,"l1_decay_mul":0,"l2_decay_mul":1,"filters":[{"sx":1,"sy":1,"depth":64,"w":{"0":-0.11435890310147392,"1":0.12156344089503268,"2":-0.07339814591234162,"3":-0.020379652998002633,"4":0.01427888166408388,"5":-0.08763289557004736,"6":0.11258022332146263,"7":0.18335505878285466,"8":-0.016292831135640732,"9":-0.1037902833822208,"10":0.018502606936434053,"11":-0.17929100179565288,"12":-0.10388660445094895,"13":0.025928019945631965,"14":0.10011327394083983,"15":-0.2577879319393788,"16":-0.04870198241742345,"17":-0.15752962092518688,"18":-0.0585716646297762,"19":0.20188580517064417,"20":-0.06456066401626079,"21":-0.022597572429458417,"22":0.11807180877663753,"23":0.1302361368619323,"24":-0.22655145397464402,"25":-0.02824627267933674,"26":0.07097388580485232,"27":0.07875745180911921,"28":-0.03550555703431291,"29":0.006680651168134874,"30":0.0531234177924458,"31":-0.021189589175761143,"32":-0.030370756234818157,"33":0.12991367341296134,"34":0.025658273965381884,"35":0.17577802231625694,"36":-0.05937806993209026,"37":-0.06081769013925218,"38":0.20444648176798813,"39":-0.027443739438184712,"40":-0.20420384769890645,"41":0.13436187221386495,"42":-0.06146294802229504,"43":-0.11154411569080232,"44":-0.09142411213563507,"45":-0.16046758138847342,"46":0.17903705123825311,"47":0.11075708139549463,"48":-0.04290151044582047,"49":0.03997819765006369,"50":0.03091113506455094,"51":-0.01949690621709339,"52":-0.1609737731858558,"53":-0.20400222433493514,"54":-0.14362821308057108,"55":0.13852052640293538,"56":-0.03874658025860192,"57":0.040954683227985136,"58":0.04684185481722747,"59":-0.1362009538090517,"60":0.06893081156166594,"61":-0.22040825687748075,"62":-0.05994794521323643,"63":0.06522744613562377}},{"sx":1,"sy":1,"depth":64,"w":{"0":-0.16480125825432068,"1":-0.1489076852844793,"2":-0.2267453595075836,"3":0.17076837145199752,"4":-0.02793468669758113,"5":0.03230820675414378,"6":0.007086097268374015,"7":-0.21755167174225,"8":-0.02111801038989276,"9":0.09196269965430122,"10":0.09196369749824435,"11":-0.2635057768398005,"12":0.014806814485683896,"13":-0.12519902838680277,"14":-0.34125437354371174,"15":-0.1158206796663062,"16":0.09180586876198621,"17":0.1748774953044087,"18":-0.11010403692506941,"19":0.02485860840488803,"20":-0.014207172108043441,"21":-0.07850800141471406,"22":0.1725905347925952,"23":0.017722690334929073,"24":-0.054390551612973716,"25":0.02894945543901236,"26":0.005682507613305831,"27":0.05143817318525012,"28":-0.17348680225323046,"29":-0.0963894446937464,"30":-0.1432152468645814,"31":-0.11195842094453008,"32":0.06410791795531944,"33":0.05190253953083821,"34":-0.058184038630461156,"35":-0.23714861697079453,"36":0.21807648654667647,"37":0.05180720490296495,"38":-0.11154765589028233,"39":-0.18568591421606553,"40":0.08892728226081871,"41":-0.054887718770491006,"42":0.10866501476908653,"43":0.2423352506850783,"44":0.020908967941053812,"45":0.004398522513065066,"46":0.2089530989445509,"47":0.0477173973385164,"48":-0.16604086801175885,"49":0.15463380370717209,"50":0.07151072270011657,"51":-0.08258199246597063,"52":-0.06498263231672208,"53":-0.08698482157878393,"54":0.20464730539706522,"55":-0.23020269301339413,"56":0.0995320542929022,"57":0.32272098715464553,"58":0.1378141418485265,"59":0.2619843782775483,"60":0.18702688124113412,"61":-0.45325329015079385,"62":-0.1019852234395001,"63":-0.07918492024197943}},{"sx":1,"sy":1,"depth":64,"w":{"0":-0.16805296842143982,"1":0.0023257568103442253,"2":0.08795013083400328,"3":0.08923073133499879,"4":-0.040881136849860056,"5":0.08566346922320164,"6":-0.1199912694313203,"7":0.14969626758876767,"8":0.0555092564617383,"9":-0.20465834872023309,"10":-0.021611283383759318,"11":-0.1269560309486897,"12":-0.0931170324548279,"13":-0.018647210076791286,"14":0.008667224822179818,"15":0.22266009121927394,"16":-0.12632165595127437,"17":0.020639655052624307,"18":0.022707082897867308,"19":0.03807712596723283,"20":0.09963194107469703,"21":0.12307233764558458,"22":0.01785720769144081,"23":-0.3078253393174227,"24":0.16737855749921624,"25":-0.25790967093654676,"26":-0.2138770408111509,"27":0.17069389530377546,"28":0.19091626792964075,"29":-0.08887019146612908,"30":0.09147473118934212,"31":-0.03376723192601905,"32":-0.1961515741660839,"33":-0.10596356878643466,"34":-0.0592516602219551,"35":-0.0023331450979058137,"36":-0.020329432062614023,"37":0.1849934598848678,"38":0.03247650396830353,"39":0.02203268235271296,"40":-0.10287293924665644,"41":0.17766914361941527,"42":0.1474788473771184,"43":-0.27559983438749247,"44":-0.278799793693119,"45":0.0025629970564581476,"46":0.028871783824055305,"47":-0.26838947372121524,"48":0.28247502637553823,"49":0.15861172808736027,"50":0.01669575758751695,"51":0.11712607617704268,"52":-0.03197420735016968,"53":-0.10892028617811828,"54":0.018984671971688974,"55":-0.06358343689846412,"56":-0.047774715577669234,"57":-0.04967558536892592,"58":-0.2097033039510344,"59":-0.006526211244525478,"60":-0.18115614661603885,"61":0.0684937966487339,"62":0.1538783180050072,"63":0.10110280023097794}},{"sx":1,"sy":1,"depth":64,"w":{"0":-0.1910420101426258,"1":0.07257378254765816,"2":-0.03169987187779116,"3":-0.12931419459397886,"4":0.02003382635235942,"5":0.14154454347421389,"6":-0.0064658639583420295,"7":-0.07900595898769207,"8":-0.05613632470803047,"9":-0.05426960017414192,"10":0.102549183680106,"11":-0.03445867061543745,"12":0.28540288638229316,"13":-0.08783164766367654,"14":-0.10634967820524212,"15":-0.034910119287245626,"16":-0.00409474876683606,"17":-0.03368432779897211,"18":-0.19023472426805027,"19":-0.11609908389509611,"20":-0.0960842945796917,"21":-0.10329698307986063,"22":-0.06116762370587881,"23":0.12068238296195373,"24":-0.06501472047652714,"25":-0.04565338112433569,"26":0.10415427727317637,"27":-0.04618017136589256,"28":0.07310911370931103,"29":-0.22166810464569983,"30":0.25496662683921345,"31":-0.18714046415205254,"32":-0.11634731779153454,"33":-0.2984679515311318,"34":-0.14885014208596045,"35":0.2129907032475552,"36":0.05548849550215993,"37":0.2235440996475608,"38":-0.12296464392065179,"39":0.0393784451020189,"40":0.17428434731509523,"41":0.20748878966381265,"42":0.1367418700047481,"43":0.002502735918996933,"44":0.04050419197123273,"45":-0.023074015539921593,"46":-0.11085792635762351,"47":-0.09423770317776607,"48":-0.16305885630836095,"49":-0.2573827759661039,"50":0.009569829672102334,"51":0.08096378680895036,"52":-0.08449074213320136,"53":-0.12414365221857081,"54":-0.1590871129628699,"55":-0.03442068819705867,"56":0.02316325367952773,"57":0.1357534284591546,"58":0.11042257250730389,"59":-0.024740984104905047,"60":0.02085443213872978,"61":-0.29110013322275086,"62":0.33947734280842634,"63":-0.15296567479868967}},{"sx":1,"sy":1,"depth":64,"w":{"0":-0.17183841198815858,"1":-0.16606343423685038,"2":-0.0637773118473081,"3":-0.08237944216327844,"4":0.008006878428647852,"5":-0.1232934849595437,"6":0.04389681399126626,"7":0.03061732597385565,"8":0.02116868323743594,"9":-0.11504630271296615,"10":0.1543506727857619,"11":0.07239750047308807,"12":-0.021816378409425095,"13":0.0733422075395523,"14":0.020469276122691938,"15":0.07752719364157219,"16":0.17047651071387557,"17":0.1052024598159435,"18":0.31392470094106834,"19":-0.2015463411021266,"20":-0.12077170916326598,"21":0.11219723971684532,"22":0.14064755169065282,"23":-0.023789488011749124,"24":0.014320528063510057,"25":-0.07861777948103185,"26":0.08721449650191006,"27":0.04271669904684545,"28":-0.28440506318809466,"29":-0.011215344726961313,"30":-0.01733668075597684,"31":0.07736178547849114,"32":0.017404751881734192,"33":-0.06461391514237638,"34":0.02104809374120386,"35":0.046031842153267735,"36":0.07770423392803931,"37":0.07031469648574333,"38":-0.2895259797495536,"39":-0.020273218440962786,"40":-0.14528160480346014,"41":-0.022014377969528345,"42":-0.10630095204507814,"43":0.07743775561033821,"44":0.17003421198464547,"45":0.09499369766609529,"46":-0.09440207610921715,"47":-0.06956569327704804,"48":-0.005149319666603331,"49":0.22725818620517244,"50":-0.038958454868855914,"51":-0.09330870822572557,"52":-0.13464455215378512,"53":-0.15220100520607874,"54":0.11514655077160627,"55":-0.07699299152179255,"56":-0.0036598988525788157,"57":-0.06875453160716458,"58":0.03469000034552885,"59":-0.0871428426990777,"60":0.004831173305881646,"61":0.05319439551141161,"62":0.006426287336088504,"63":0.02966447084506536}},{"sx":1,"sy":1,"depth":64,"w":{"0":0.021426466961853498,"1":-0.27238525870513286,"2":-0.2159077049742126,"3":0.14394956945599802,"4":0.02075692415846588,"5":-0.12804095187462558,"6":-0.07929994621889476,"7":0.011481827660921234,"8":0.04713196525087222,"9":-0.10688078911735793,"10":0.026585687286624894,"11":-0.09863455957281264,"12":-0.24593369118708305,"13":0.02384641658365989,"14":-0.28108266798467907,"15":0.03379316655148325,"16":0.07912933484708431,"17":-0.0943462703836701,"18":0.11652111290338231,"19":-0.09604632829561742,"20":0.05579354021254148,"21":0.09624467947833684,"22":-0.0855356065081592,"23":0.10590617379245695,"24":0.018986026648347656,"25":0.026416833848811192,"26":0.1080386835520794,"27":0.04167811030303421,"28":-0.09850295745088454,"29":0.11015372225979403,"30":0.029506205021160192,"31":0.1266306953886307,"32":-0.023479131242568743,"33":0.10935571059797827,"34":-0.08027375180026625,"35":0.14035081220450446,"36":0.05236397074452358,"37":0.054019423737132095,"38":0.06483617693116117,"39":-0.05432191980396162,"40":-0.04235496420947634,"41":-0.07139675307702265,"42":-0.08359670834453656,"43":-0.07492141134757434,"44":-0.09913546501293784,"45":-0.1727380443268335,"46":0.20851745251036827,"47":-0.09318093148620445,"48":-0.11791110259931839,"49":-0.09246671112515317,"50":0.1420902155499352,"51":0.03533765778191426,"52":-0.19778432623610886,"53":0.17162957241308016,"54":-0.05119595666907541,"55":-0.1446459391409189,"56":-0.10316385298634084,"57":-0.013865541414207703,"58":0.11624651102909743,"59":-0.15368662260498,"60":0.29137058415117273,"61":-0.023753715339287638,"62":0.11875496213633158,"63":-0.00741179058652609}},{"sx":1,"sy":1,"depth":64,"w":{"0":0.11843341732297938,"1":-0.2259944552727236,"2":-0.03559207038687489,"3":-0.03815443668789136,"4":0.26086317309635393,"5":0.010646261566522115,"6":0.12439998313807331,"7":0.015193051305225929,"8":-0.19533602880756482,"9":0.06459526724431076,"10":-0.0005998286506115232,"11":0.05494653036503974,"12":-0.02349042981113211,"13":-0.16375005538529985,"14":-0.09722484983617181,"15":0.14561448321979045,"16":-0.25491821225245226,"17":-0.06099274755686484,"18":0.025220082206526117,"19":-0.13478593455933255,"20":-0.04648019655092879,"21":-0.0006343879835728013,"22":-0.08843172565046799,"23":-0.03298367964534097,"24":0.07853748853762992,"25":-0.07694556814571832,"26":0.24050065001092505,"27":0.06420772272293702,"28":0.031439195117091076,"29":-0.10786207968216105,"30":0.14039255223348104,"31":0.030816626671882875,"32":-0.09153090040605683,"33":-0.11530335140414492,"34":-0.22918289167370937,"35":0.039299652997313396,"36":0.09832764159532816,"37":0.10754145298938815,"38":0.264543155352448,"39":0.13800259409513213,"40":-0.14164536816601908,"41":0.04962877150578454,"42":0.06323134800857898,"43":0.07655049060705535,"44":0.016244928855301172,"45":0.17372310145360836,"46":-0.08110369329235989,"47":-0.23411897444434038,"48":0.18045811482621937,"49":-0.027344949925703018,"50":-0.10545473241179248,"51":-0.030238105349975265,"52":0.0421714168834029,"53":0.03149503928249736,"54":-0.012708749305708955,"55":-0.08019327116062358,"56":-0.13576641549080723,"57":0.09589121350018877,"58":-0.15014818906936683,"59":-0.19958220556551684,"60":0.009183107710662374,"61":-0.1936468899248246,"62":-0.09523637546771818,"63":0.11763887177508095}},{"sx":1,"sy":1,"depth":64,"w":{"0":-0.06483616870121153,"1":-0.10393378840733565,"2":-0.13761464509578378,"3":0.04300357170513105,"4":0.053352089353101005,"5":0.02824778901305577,"6":0.1795066240812032,"7":0.03076979548951029,"8":-0.10676406915550032,"9":0.07979468258982408,"10":-0.03191228497759306,"11":0.08677802339114815,"12":-0.17665058994863386,"13":0.11635888029154692,"14":0.24169586765654794,"15":-0.02066723176413003,"16":0.03864510627304818,"17":-0.3105744005099486,"18":-0.14064818679785843,"19":0.2225744569831183,"20":0.07672775886667181,"21":-0.0825405337533309,"22":0.13427398020438397,"23":-0.01564620498467466,"24":0.04009468318563585,"25":0.0742929255712454,"26":-0.039297055802583046,"27":0.06555920819413377,"28":0.02561973354209946,"29":0.053257065445936044,"30":-0.015377164864347535,"31":-0.09737263256883778,"32":-0.04672482443911699,"33":-0.14777461169360565,"34":0.19547348550422144,"35":0.0967986605037669,"36":0.1705299221377316,"37":-0.06005916429847026,"38":-0.11885799479016415,"39":0.29561036760267273,"40":-0.08944856284146173,"41":-0.12116345134902184,"42":0.2705143071154637,"43":0.06898206216534952,"44":0.023660189448683314,"45":-0.011330253953128975,"46":-0.10693934408453651,"47":-0.13472729654506682,"48":-0.14471774994390216,"49":0.2372694171344357,"50":-0.06732517991811515,"51":-0.12843797275805716,"52":0.18647554768002422,"53":-0.0709616133874401,"54":0.08399143862598511,"55":0.09680078337671982,"56":0.03516529012667743,"57":0.06928290004723642,"58":-0.002341611892758692,"59":0.22544244863787594,"60":0.06255371784258941,"61":-0.06880179600933158,"62":0.10847815903990841,"63":-0.10462268896941689}},{"sx":1,"sy":1,"depth":64,"w":{"0":0.08080021237855846,"1":-0.14157190407019896,"2":-0.04732477185086774,"3":0.06978197202830039,"4":-0.08672045258130717,"5":0.10860962446369708,"6":-0.09033073667578763,"7":-0.02572384393425234,"8":0.1201801254440672,"9":-0.010935191241621298,"10":-0.054036794663856275,"11":0.24264451253850067,"12":0.18951929050642846,"13":0.018608669538478628,"14":0.0937657501048519,"15":-0.11065973217733902,"16":-0.12781733319711228,"17":0.08503640569836414,"18":0.12304231058652576,"19":-0.2982886654325733,"20":-0.26720356988652516,"21":-0.020194442210335287,"22":0.053304053123843086,"23":-0.10842706914417397,"24":-0.10164664654114007,"25":-0.04743078344690483,"26":0.05811612241095299,"27":0.2311105657080548,"28":0.05641075912838446,"29":-0.020095044237752224,"30":0.05420608484552933,"31":0.09923911667860949,"32":-0.09276964735789674,"33":-0.10845198795387107,"34":-0.17325123265949244,"35":0.19299513591578785,"36":-0.04799891442075173,"37":0.01239837503239597,"38":0.048599265768565124,"39":0.11751035112936374,"40":0.03134514538754533,"41":-0.019516744655139195,"42":0.12416095230236238,"43":-0.038201297413165476,"44":0.11934019238497072,"45":-0.12858942369370224,"46":-0.13311142729185588,"47":-0.005397054831578657,"48":0.08248501117361225,"49":-0.1908731312516655,"50":-0.1293462687628254,"51":-0.02778657191577234,"52":0.16507923588900428,"53":-0.08662228231433051,"54":0.01986385681496516,"55":-0.28055412847521766,"56":-0.15828202794183813,"57":0.06803001154904613,"58":-0.020012704992052436,"59":-0.1664987402445223,"60":0.07645583442982108,"61":-0.08677879031415738,"62":-0.131611959391975,"63":0.024324132657804944}},{"sx":1,"sy":1,"depth":64,"w":{"0":0.07612315518947999,"1":0.016351445705888704,"2":-0.04636729479363706,"3":0.07990980797027775,"4":-0.1012092614331,"5":-0.030656318974995204,"6":-0.18711161360781642,"7":-0.004672667400374654,"8":-0.17676745196368593,"9":0.2251388252687308,"10":0.3316014227922626,"11":-0.04818875163137282,"12":0.1819867941988761,"13":-0.036995775900823105,"14":0.025955663769066623,"15":-0.12161772346940335,"16":-0.10357106077417486,"17":0.05635845246712461,"18":0.36965050805981725,"19":-0.11000553658629847,"20":0.06022683852398496,"21":0.27828716801600645,"22":0.13794719921014353,"23":0.11001564069124913,"24":-0.07010412673428615,"25":-0.18748474072288024,"26":0.06703213992981709,"27":-0.029627422105269443,"28":-0.13378917228482345,"29":-0.06235329968079452,"30":-0.07701384604616839,"31":-0.06672011682050863,"32":0.07361768289793204,"33":0.06671783775408736,"34":-0.005241650405611248,"35":-0.14039763489485554,"36":-0.04065801084559552,"37":-0.10477677537862456,"38":-0.08605146211704406,"39":0.020875089741699764,"40":-0.03663701946696273,"41":-0.14678448911518566,"42":-0.06211317500992876,"43":0.0917245045384858,"44":0.13457749631364757,"45":-0.09282301156995282,"46":-0.17418456218441639,"47":-0.08358929003735018,"48":0.0039040954784013223,"49":-0.12548891880765076,"50":-0.04837268957029936,"51":0.10911234691547675,"52":0.06751077552848024,"53":-0.06731981805861022,"54":0.14054022496249766,"55":-0.10301549317218858,"56":0.20051249315294745,"57":-0.08708831858210037,"58":0.1515968590964927,"59":0.16315166424998664,"60":-0.2771073704048992,"61":-0.10160366992959755,"62":-0.05499216665980883,"63":-0.09234366565352986}},{"sx":1,"sy":1,"depth":64,"w":{"0":0.050256179466206634,"1":-0.16308720096699664,"2":0.09094686799155455,"3":-0.05366018024976831,"4":-0.03757792438982178,"5":0.05512004015250471,"6":-0.047025018399864324,"7":-0.09682926588998961,"8":-0.30139169377616787,"9":0.08850975170922289,"10":-0.0846210923232352,"11":0.07290649982342264,"12":0.11445324558578529,"13":0.16396071539586177,"14":-0.15768885841380142,"15":-0.11280305195853237,"16":0.09397280902277862,"17":-0.10864997038759637,"18":0.04223812448061416,"19":0.042656065205270446,"20":-0.1233222126148994,"21":0.07931709230650781,"22":0.05081286449225165,"23":0.1517684559797376,"24":-0.1903246409792397,"25":-0.060480142152671376,"26":0.030550182164843474,"27":-0.07809200475479676,"28":-0.07953362755708215,"29":0.11986134809631183,"30":0.12435459546509452,"31":0.17809737918322524,"32":-0.35303786098919093,"33":0.19986899417713833,"34":0.019999630826687556,"35":-0.04354102023466611,"36":0.08365087142823913,"37":0.03649560541481994,"38":-0.17728589458727365,"39":0.06668965105653897,"40":-0.028483448693796893,"41":-0.03501213475987756,"42":-0.039384898662583365,"43":0.0862495336448942,"44":0.01642132134217751,"45":-0.07974748901377803,"46":-0.05553338166401329,"47":0.01944868308862092,"48":0.014133008404879742,"49":-0.32489036748722827,"50":0.010902220181127898,"51":0.11156798153365893,"52":-0.03153831364901643,"53":-0.18989254653150994,"54":-0.15674609389365957,"55":-0.002801035708281196,"56":0.05467875857319032,"57":-0.011740484207449449,"58":0.16277839470735134,"59":-0.1547624855138688,"60":0.06366273503004365,"61":-0.3226520352253856,"62":0.11183075194981276,"63":0.006350722114840943}},{"sx":1,"sy":1,"depth":64,"w":{"0":-0.028317388669914262,"1":-0.05532251113543332,"2":-0.010457631858458638,"3":0.015281307112069256,"4":0.045577902933195975,"5":0.03575810530524742,"6":0.08385797075360836,"7":-0.0019236910539947533,"8":-0.09044699539065537,"9":0.08224204474699169,"10":-0.02777918316168328,"11":-0.07830074065658854,"12":-0.03796335009377945,"13":-0.028678093067653006,"14":-0.08765007579621852,"15":0.10284021048014656,"16":0.18639521956215216,"17":-0.050777774987840696,"18":-0.10843416748187164,"19":-0.12637311870753692,"20":0.05433897711003461,"21":0.0044870910194228664,"22":-0.14706573831346553,"23":0.09472256696122443,"24":0.10864762434305061,"25":0.03492287469657079,"26":-0.04195241834155991,"27":-0.08496638955255816,"28":-0.20317402490523603,"29":-0.04515955499024723,"30":-0.12992284618626562,"31":-0.03566355643784612,"32":0.2113867125574301,"33":-0.11398589343122562,"34":-0.0816419594200396,"35":0.13523848932279312,"36":0.011235667449178265,"37":0.056991897052060606,"38":-0.05478793829563411,"39":0.016771806271452812,"40":-0.04335434775775619,"41":-0.056878991282489424,"42":-0.06182989114574644,"43":0.1679078245675225,"44":0.03717070018651385,"45":0.15619305871365738,"46":0.00214213437497366,"47":-0.1312967995997162,"48":-0.07792772674755354,"49":0.19494496627228,"50":-0.2046591446719629,"51":-0.30921851446767123,"52":0.1535962324810548,"53":-0.018848634978007723,"54":-0.06136806539049736,"55":0.1609822654365397,"56":-0.07013226956285128,"57":-0.0674113214711595,"58":-0.009621462583587495,"59":-0.039495073606392685,"60":-0.08925726415941161,"61":-0.04041353186847639,"62":0.1387874099239229,"63":0.1420393104732047}},{"sx":1,"sy":1,"depth":64,"w":{"0":0.11451047530686702,"1":-0.09270220642628038,"2":-0.035172335099510274,"3":0.03732222111927598,"4":0.012923453663842304,"5":0.147557748971923,"6":-0.21179887317793886,"7":0.048083485437855226,"8":0.1660078849261699,"9":-0.04271449161919803,"10":0.157900347241274,"11":0.11583329963937974,"12":-0.15184699951311975,"13":-0.08648096027441476,"14":0.19250580776022386,"15":-0.03626444836733685,"16":-0.009316043181102502,"17":0.1546232245359932,"18":0.0875212264441586,"19":-0.17306321324747978,"20":0.03877291690075044,"21":0.03377667805480071,"22":0.08552169721366172,"23":-0.07892842764614473,"24":-0.15367703917330408,"25":0.09930695571703764,"26":-0.09830965800861463,"27":0.1567548530879358,"28":-0.13296072084989025,"29":0.07406340702619212,"30":0.13909258337298938,"31":0.16107413751119182,"32":0.17955903702003767,"33":0.19849784104551313,"34":-0.08721266829265018,"35":0.14014341289037432,"36":0.08119710744860045,"37":0.08424290749965323,"38":-0.1918289069991284,"39":-0.0008950753436550346,"40":0.11682225844223824,"41":0.045829295114607455,"42":-0.2928031353969535,"43":-0.0638650713578024,"44":-0.054272092488340064,"45":-0.017074239157299248,"46":0.1246716405494279,"47":-0.14837095013720314,"48":-0.04815879567252805,"49":0.04810319366697453,"50":0.0560677198514346,"51":0.001964119556026289,"52":-0.0710610510336316,"53":-0.07292442403694561,"54":-0.04006491983392526,"55":0.028994991763202378,"56":0.19049941312199606,"57":0.06202749197504638,"58":0.1338552462521643,"59":0.10734446869799347,"60":-0.00727400090596791,"61":-0.042411784957949575,"62":-0.1249389769892946,"63":-0.009033008861217594}},{"sx":1,"sy":1,"depth":64,"w":{"0":-0.10546288022737302,"1":0.1605359981719495,"2":-0.12106566448479761,"3":0.011554607567572458,"4":0.05783914515600103,"5":0.19828928543413407,"6":0.017740729047300337,"7":-0.14712536748897387,"8":-0.10323256821445087,"9":0.10043523350445295,"10":-0.08906861555803255,"11":0.061494181491297116,"12":-0.09945561135161989,"13":-0.0969509423253456,"14":-0.017350338125993327,"15":-0.29788269462092914,"16":0.038142229290051774,"17":0.15433173982970796,"18":0.019586507980806432,"19":-0.11830967197742492,"20":-0.03564392854178141,"21":0.004264698989715408,"22":0.04904348971939002,"23":-0.3027263776820935,"24":-0.14801121999351727,"25":-0.07230682168100266,"26":0.053355006052154645,"27":0.03259405183424022,"28":-0.038634417578017936,"29":-0.05081561746275726,"30":-0.14690130657183786,"31":-0.05510748963890053,"32":0.27715614230487046,"33":0.0950073132602188,"34":0.04593103002761236,"35":-0.02872899528834088,"36":-0.13841867353135906,"37":-0.040524690478244266,"38":0.034366494534879756,"39":-0.11599504075630944,"40":-0.04865663232423127,"41":0.12300032494904346,"42":-0.16740594696143796,"43":0.0974947904677651,"44":0.16800582922175944,"45":0.16585957123569386,"46":0.20705682159804473,"47":-0.03919092122315363,"48":-0.02626105407679244,"49":-0.11429123829363684,"50":-0.0645971583438378,"51":-0.000503164496615447,"52":-0.20740257517046282,"53":-0.18272246085441923,"54":-0.018167236686247857,"55":-0.16055245300658094,"56":0.18746472417040355,"57":-0.15078411867322447,"58":-0.37092193310894384,"59":-0.00984913414280297,"60":-0.12374502422337932,"61":0.006893036982380061,"62":-0.1256731458314338,"63":-0.06706176843135454}},{"sx":1,"sy":1,"depth":64,"w":{"0":-0.17551250735565418,"1":0.055282602052929106,"2":0.08267007376615262,"3":0.11927565805322901,"4":0.0131014696783556,"5":0.29074321215905014,"6":0.10012258745334018,"7":-0.04368564795844389,"8":0.3908421531503166,"9":0.14426270596697763,"10":0.014382991911208528,"11":0.17716821708975664,"12":-0.16450977238148176,"13":0.05616785416726407,"14":0.06698233373777313,"15":0.06205234019182029,"16":0.10559052955864316,"17":-0.06026835067038835,"18":0.1415251150214422,"19":0.08180539806250206,"20":-0.09421258344026223,"21":0.14906238991308776,"22":-0.19209517119196967,"23":0.010173317899399827,"24":0.034868559298006384,"25":-0.03013890417175578,"26":-0.08902658922058503,"27":-0.02861254094437681,"28":-0.11637659248388396,"29":-0.11072342288737419,"30":0.05068060754713301,"31":-0.33657606613059465,"32":0.05387447379965233,"33":0.02622076341262929,"34":0.08871892277410437,"35":0.07736224297045186,"36":-0.29287661342844334,"37":-0.10959702167486839,"38":-0.14913019677186531,"39":0.15695724496778793,"40":-0.016207995978215026,"41":-0.03193800782653415,"42":0.09675470115288495,"43":0.05409637031195833,"44":0.220813248377518,"45":0.12001374607382087,"46":0.09536932416651105,"47":-0.08296965955833722,"48":0.026066160454383893,"49":-0.04754921864373485,"50":0.0243653976614545,"51":-0.23522877118241148,"52":0.05533578666263093,"53":-0.20332807759104737,"54":0.028237269694970972,"55":-0.09952399273845579,"56":-0.35769303009802916,"57":0.05954471332594726,"58":0.04286323017330058,"59":0.032962418404844256,"60":0.2612349382922739,"61":-0.16526738602721447,"62":-0.12650056609208166,"63":0.0481051063219015}},{"sx":1,"sy":1,"depth":64,"w":{"0":0.04035254495524489,"1":-0.015442029455893954,"2":0.19640132946041305,"3":-0.36627983491625765,"4":-0.02797064524671154,"5":0.03098571256201329,"6":0.15091066602226982,"7":-0.0675469025045408,"8":0.05493737639522569,"9":0.17217716645963238,"10":0.18503058621127683,"11":-0.04295030561878036,"12":-0.0003392351170125539,"13":-0.06093494328111587,"14":-0.023855802074014547,"15":-0.051736145075341536,"16":0.008358225212119381,"17":-0.033977983649674345,"18":0.07480862226658737,"19":0.035897832868068934,"20":0.1896730385427531,"21":-0.043211416169100236,"22":-0.009004530746429805,"23":-0.11157718219418762,"24":0.09014822273885327,"25":0.07271876914366633,"26":-0.10097994139542975,"27":0.046818160810430075,"28":-0.031397184453340575,"29":-0.05783169408804128,"30":-0.08639372786020436,"31":0.2002595624870724,"32":-0.2469095905514099,"33":0.23792999317854793,"34":-0.09628483817349281,"35":0.21507261502318664,"36":-0.06388805683126406,"37":0.12262827693643383,"38":-0.013533204064928915,"39":0.049951942518887654,"40":0.12363026107882982,"41":-0.006388962778795673,"42":0.02973975147489821,"43":0.0543019656662715,"44":-0.11472444195264614,"45":0.19789795244881817,"46":-0.135976560275584,"47":-0.0177606977831722,"48":0.10883165212132347,"49":-0.33430488121738683,"50":0.19038849380958942,"51":0.013933794902149889,"52":-0.03601337750363455,"53":-0.1766747050361378,"54":0.28991089204072323,"55":0.09203440762148356,"56":0.04540808025792463,"57":0.04081903132870248,"58":0.09353073770418198,"59":0.0856267273429025,"60":-0.12052061457004662,"61":-0.1152483676570141,"62":0.0752013740697947,"63":-0.20902988333258282}},{"sx":1,"sy":1,"depth":64,"w":{"0":0.3201142068726433,"1":0.022121903891688582,"2":-0.2144392639962528,"3":-0.06133536522062405,"4":-0.06839628562782861,"5":-0.07566869443879833,"6":0.054198116727695686,"7":-0.22385673812948068,"8":0.13404778892014244,"9":-0.12010247981652192,"10":0.14141525859967338,"11":-0.16578513926477825,"12":-0.08102326724591526,"13":0.014278289646390928,"14":-0.07283549030439258,"15":-0.2127738375750539,"16":-0.01772772388233705,"17":0.030120273166416463,"18":0.08934955869278714,"19":0.13649294908289583,"20":0.016636795903551764,"21":-0.05616395323167453,"22":0.10176445076881069,"23":-0.05130931204219299,"24":-0.24280454601763066,"25":-0.21851031962893108,"26":-0.08466085705972591,"27":-0.0604220124647695,"28":0.03611238511617665,"29":-0.06342829615507034,"30":0.00007989665470808992,"31":0.056032774605879646,"32":0.12224458012980963,"33":-0.09373653539310406,"34":-0.032672616802934734,"35":-0.07969498821266714,"36":0.03269901637470046,"37":0.044752628012952676,"38":0.030212572517645024,"39":0.033897698707841546,"40":0.04098912677998829,"41":-0.2768336804417392,"42":0.26371977272583036,"43":0.009053700664520957,"44":0.13707364405568306,"45":0.3725988492211543,"46":0.06475271368188967,"47":-0.21587215411910302,"48":0.054474116826214974,"49":0.1658483400606229,"50":0.05344442250147118,"51":-0.25158471014915607,"52":0.019186350655852728,"53":0.013649448288640459,"54":-0.0006468642358605392,"55":0.12847881887667428,"56":0.006890233630076673,"57":-0.09687092212894002,"58":-0.21154459820980667,"59":-0.16432836645166768,"60":-0.2680525744229458,"61":-0.19384615788321186,"62":-0.16292444516803922,"63":0.1172385460960824}},{"sx":1,"sy":1,"depth":64,"w":{"0":0.14419908606168014,"1":0.027886002732429423,"2":-0.02291341753812219,"3":0.08920066081549985,"4":-0.060928325736508075,"5":-0.05018447858411366,"6":-0.15028349384635883,"7":-0.03775021159390662,"8":-0.1301076008741109,"9":0.01145615771463994,"10":-0.04872373973850181,"11":-0.1665305765600042,"12":-0.0013503630404743732,"13":0.21129760528463346,"14":-0.06914346218011562,"15":0.13684333184276587,"16":0.06523986249243195,"17":-0.39488116887401703,"18":-0.1263316171333665,"19":0.09552840847108209,"20":-0.11487704242322652,"21":0.10937925265538616,"22":0.08233362743753345,"23":0.07527954392504241,"24":-0.01894091531613898,"25":0.045554885524066266,"26":0.10007409105656953,"27":-0.02497972381671178,"28":-0.022445772589129047,"29":-0.1415551085799915,"30":-0.1483901723060591,"31":-0.033507908777599106,"32":0.012176400033881112,"33":-0.08800872805935125,"34":-0.013106014823679908,"35":0.012315264801685951,"36":0.09167322384855045,"37":0.02465349339594817,"38":0.1447098297329443,"39":-0.008387725970037911,"40":0.12729041070309172,"41":-0.028264633108533964,"42":-0.1818728950833829,"43":0.21404382534598254,"44":-0.09475399958235954,"45":0.025680035596870016,"46":0.14638979280389694,"47":-0.08721720102271417,"48":0.019280717750429405,"49":-0.058485975984105106,"50":-0.0004613678550234704,"51":0.018329546311628298,"52":-0.0422639348674455,"53":0.22597688320887502,"54":0.04646584435842917,"55":0.17864037357630436,"56":0.04733184748485077,"57":-0.05650966007535173,"58":0.008439383155058275,"59":-0.02914491118677395,"60":-0.054601790021933806,"61":0.03186823907423206,"62":0.22239961969548944,"63":-0.02039350102988868}},{"sx":1,"sy":1,"depth":64,"w":{"0":-0.21431752508509233,"1":0.0449384012562263,"2":0.12196007892327054,"3":-0.071033476716613,"4":-0.026781827873295708,"5":0.11096653458816462,"6":-0.03464535275852543,"7":-0.20237436642278991,"8":-0.002591809066128417,"9":-0.1171984622683273,"10":0.13067135112714118,"11":0.13715985253439789,"12":-0.09189956947390916,"13":0.13044553072577614,"14":0.043298594192437465,"15":0.10822358377268915,"16":-0.11398304320445099,"17":0.06303929446999615,"18":0.021530592423918703,"19":-0.028984692072334586,"20":-0.08027152983013142,"21":0.058560266421777835,"22":0.01993552190454608,"23":-0.01356849212948373,"24":-0.053379017472549174,"25":-0.07300961175183247,"26":-0.20526982764870813,"27":-0.10695269251693325,"28":0.0030115090406244603,"29":0.029273732672420297,"30":0.016228662334311385,"31":-0.013001525228004077,"32":0.21125850205492713,"33":0.13344475829433014,"34":-0.07866875394705365,"35":-0.08751263253770858,"36":0.03247144729762027,"37":0.11565931255222034,"38":0.011622579591959949,"39":-0.2630151885137654,"40":0.0460675817365184,"41":0.2149337213756138,"42":0.24383002463244047,"43":-0.2444208725203921,"44":0.052969264677122305,"45":-0.14071178907785667,"46":-0.0012747301671958674,"47":0.21386600741705303,"48":-0.02497227517207678,"49":-0.04586915195442914,"50":0.3076983151012928,"51":-0.15300383426343875,"52":0.05924130321148147,"53":0.14892525487574285,"54":0.002479583990956555,"55":0.3101270753149703,"56":-0.15390376242282808,"57":-0.04477897055398755,"58":-0.06446249842486024,"59":-0.06297822301250555,"60":0.15479743437671215,"61":0.10166163661374371,"62":0.16511359996611324,"63":-0.09327959611681394}},{"sx":1,"sy":1,"depth":64,"w":{"0":-0.025085307533239797,"1":0.047110502731707596,"2":-0.127536252866655,"3":0.07541859312286572,"4":0.005438211889961563,"5":0.03835855243002067,"6":-0.09798436639524696,"7":0.07812938875297004,"8":-0.022238078842473995,"9":-0.20804291188554463,"10":0.12440159271072466,"11":-0.0546757218711227,"12":0.06522757465355752,"13":0.16597924034432385,"14":-0.07112944930973716,"15":0.07901250724211814,"16":-0.28991163212922644,"17":0.1360645590582066,"18":0.004848565147839265,"19":0.14602290389833975,"20":0.17305019451179668,"21":0.12665826222930768,"22":-0.021598520960394423,"23":-0.14146851503623187,"24":0.05785221166394031,"25":-0.06252428047226592,"26":0.0922888708004425,"27":0.04951375954682419,"28":0.21747752771875295,"29":-0.07917323448507337,"30":0.00857522394641347,"31":-0.027262867503749573,"32":0.25824584680967916,"33":-0.2886791198287579,"34":-0.18179332308881158,"35":0.1289955126951217,"36":0.07399914174474356,"37":-0.05035514904089849,"38":-0.05635914336693657,"39":-0.045094235918024056,"40":-0.07411683178906806,"41":-0.0533215896731377,"42":-0.1921193593665202,"43":-0.10450540288972018,"44":-0.018970748988740693,"45":-0.019886400700981518,"46":0.2805654438828724,"47":-0.17421613622080315,"48":0.04144543453709251,"49":0.12851484237134908,"50":0.20070251408243917,"51":-0.0637872364360702,"52":-0.25794728734871003,"53":0.0034399930025841674,"54":0.00886493183503965,"55":-0.039755499444058984,"56":-0.06898039334261773,"57":0.12014376781663072,"58":-0.05216485923402112,"59":0.1492129069161618,"60":-0.06738363145599648,"61":0.0014959300844031337,"62":0.1499797116099335,"63":0.0025982593552523227}},{"sx":1,"sy":1,"depth":64,"w":{"0":-0.0317363993869653,"1":0.20771689980385238,"2":0.06559592050688799,"3":0.18831100147802954,"4":-0.1171942755609132,"5":0.10882780422911661,"6":-0.09312910975933739,"7":-0.05194194935081801,"8":0.022384504381945114,"9":-0.12604609233947156,"10":0.007161860050831855,"11":-0.10282496798521416,"12":-0.25042024980380506,"13":0.03336242592461523,"14":-0.02780480087835247,"15":0.0875838278729734,"16":0.15954384332534224,"17":0.10309233861412978,"18":0.04888293520191359,"19":0.003546114423691472,"20":0.0007470935484798445,"21":-0.05631190593491916,"22":-0.027137094809621287,"23":0.01479864932526757,"24":-0.02403746111952871,"25":-0.1699556794568427,"26":0.27717885932453873,"27":0.0067112335339623245,"28":0.03317638618810365,"29":0.18291743156818993,"30":-0.05664220527419479,"31":0.00778400166066741,"32":-0.054890987651324524,"33":-0.06984277326730459,"34":-0.25784600303694843,"35":0.1440863088166638,"36":0.17205896314563288,"37":0.007510683132613746,"38":0.0775983156958222,"39":-0.1114402938464359,"40":0.08334282583102579,"41":-0.031170319723946537,"42":0.21933875167560973,"43":0.06315767877880263,"44":-0.1025750286259952,"45":0.25453071003566885,"46":-0.11691854893498663,"47":-0.20204523756143772,"48":0.05690246087029064,"49":-0.02527691269404792,"50":0.10748813329091798,"51":-0.009662409027639533,"52":0.050439376589631775,"53":-0.24829212531884812,"54":0.05497484959218488,"55":0.08613030076334965,"56":-0.2509095514394106,"57":0.07437230790862963,"58":0.43001818387441537,"59":-0.32162715292132366,"60":-0.02405321274276665,"61":-0.013965039193806934,"62":-0.07627040928904627,"63":0.13735948016641344}},{"sx":1,"sy":1,"depth":64,"w":{"0":0.0558113342942705,"1":-0.16875445406212636,"2":0.0648690890984257,"3":0.04633387869837156,"4":0.1817520501244014,"5":-0.1259472958369547,"6":-0.1390792273111202,"7":0.03978895816476196,"8":-0.004730068625522686,"9":0.07113190476415208,"10":-0.08401405872072096,"11":0.008888674171596108,"12":-0.03341113747027673,"13":0.13065754211172362,"14":0.20366651198590097,"15":0.18516369142922223,"16":0.1885792543975382,"17":-0.2043376278525875,"18":-0.08513986703123134,"19":-0.09293153659208037,"20":0.17917417937680813,"21":-0.10229132583423702,"22":-0.020397171414307077,"23":-0.22038237023850618,"24":-0.1804886748199277,"25":-0.05635578738604629,"26":-0.06780571693564935,"27":0.3068185538342777,"28":0.12413968624338706,"29":-0.0916029672884886,"30":0.1565817464359168,"31":0.11997082967969333,"32":-0.06201026438605527,"33":-0.04175869625613569,"34":0.06070516312800373,"35":0.09319575998722436,"36":0.1151882404054534,"37":-0.04836779902948397,"38":-0.13013735414544544,"39":0.22918779052440444,"40":-0.07210784801398784,"41":0.026188034243093614,"42":0.0738546391652911,"43":-0.11665842449623863,"44":-0.1592295426033366,"45":0.010688335188593816,"46":0.04471144141758811,"47":-0.07156123966117484,"48":0.07363731495519722,"49":-0.22765825280292842,"50":0.039390755636845416,"51":0.05786359579696013,"52":-0.04027695452076838,"53":0.0902629774117277,"54":0.1303247936083118,"55":0.02270612935143166,"56":0.04857046439530303,"57":-0.03284031617020961,"58":-0.02101117297596873,"59":0.12687573737608324,"60":-0.13422181063981933,"61":0.15729426994818377,"62":-0.10428563396149113,"63":0.05173207449671427}},{"sx":1,"sy":1,"depth":64,"w":{"0":-0.13328794147345982,"1":-0.2851805627252393,"2":-0.13019794808553162,"3":-0.04188332213599911,"4":0.09672475363645348,"5":-0.06720193992737163,"6":0.02995826858349025,"7":-0.2556073887031581,"8":-0.0850906271150305,"9":-0.01583405805015846,"10":0.03563681923748661,"11":0.14004342401353073,"12":0.22329838582354158,"13":0.046973765624502756,"14":-0.21472919069093527,"15":-0.044355196983589286,"16":0.1584249143223159,"17":-0.18122754614658246,"18":0.05385929892534716,"19":0.1400978688958852,"20":-0.19200864967055878,"21":-0.09461448392279881,"22":0.07302966921902503,"23":-0.09869327879815985,"24":-0.021970215409749444,"25":0.049673066322696816,"26":-0.021406201376831743,"27":0.046887168440794914,"28":-0.01154928364286749,"29":0.12503860207239778,"30":-0.12819150118395714,"31":0.004601592812840089,"32":-0.020204719706282133,"33":-0.1497280935915005,"34":-0.22108795818574195,"35":-0.1958904690307088,"36":0.1893032338407977,"37":-0.004654168621701945,"38":-0.16649638105444675,"39":0.12710971991516015,"40":-0.05043436942137227,"41":0.0792319777136598,"42":-0.006081832297863742,"43":0.015556433583654642,"44":0.06840808855247596,"45":-0.06917585142986885,"46":0.13706913957184005,"47":-0.06828941369785237,"48":-0.237337197422994,"49":0.14527169160891082,"50":0.016522064849684964,"51":0.0658748869491329,"52":0.01663465860176798,"53":0.0019089024424729514,"54":0.15301955719615842,"55":0.07995704143219276,"56":0.018309322938507063,"57":0.10749195766809537,