{"layers":[{"out_depth":36,"out_sx":1,"out_sy":1,"layer_type":"input"},{"out_depth":512,"out_sx":1,"out_sy":1,"layer_type":"fc","num_inputs":36,"l1_decay_mul":0,"l2_decay_mul":1,"filters":[{"sx":1,"sy":1,"depth":36,"w":{"0":null,"1":null,"2":null,"3":null,"4":null,"5":null,"6":null,"7":null,"8":null,"9":null,"10":null,"11":null,"12":null,"13":null,"14":null,"15":null,"16":null,"17":null,"18":null,"19":null,"20":null,"21":null,"22":null,"23":null,"24":null,"25":null,"26":null,"27":null,"28":null,"29":null,"30":null,"31":null,"32":null,"33":null,"34":null,"35":null}},{"sx":1,"sy":1,"depth":36,"w":{"0":null,"1":null,"2":null,"3":null,"4":null,"5":null,"6":null,"7":null,"8":null,"9":null,"10":null,"11":null,"12":null,"13":null,"14":null,"15":null,"16":null,"17":null,"18":null,"19":null,"20":null,"21":null,"22":null,"23":null,"24":null,"25":null,"26":null,"27":null,"28":null,"29":null,"30":null,"31":null,"32":null,"33":null,"34":null,"35":null}},{"sx":1,"sy":1,"depth":36,"w":{"0":-2219490.6024605497,"1":-2610349.2735267677,"2":-3208939.725209435,"3":-4309341.143552814,"4":-1269125.2877974736,"5":-9912767.44573674,"6":-11774673.886348195,"7":-2927899.492519166,"8":-3962341.901184611,"9":-22867366.060996756,"10":-19067491.527598068,"11":-4299718.871202988,"12":-4335634.98730196,"13":-4347369.952569964,"14":-2513304.242685214,"15":-1240139.6032417035,"16":-2485090.345927145,"17":-3048894.1424120865,"18":-5678550.783934849,"19":-1360199.941863524,"20":-1839335.2538742437,"21":-13265607.543015411,"22":-6910129.091723275,"23":-2601992.3035502494,"24":-4838805.135105878,"25":-20791059.477156572,"26":-23945616.00956282,"27":-1812361.4185460112,"28":-4819865.512254739,"29":-3852318.3348248787,"30":-1611988.1633997697,"31":-1157278.7302756777,"32":-1377037.4255102796,"33":-1892909.336719818,"34":-1858951.8735803359,"35":-2432298.5339360912}},{"sx":1,"sy":1,"depth":36,"w":{"0":null,"1":null,"2":null,"3":null,"4":null,"5":null,"6":null,"7":null,"8":null,"9":null,"10":null,"11":null,"12":null,"13":null,"14":null,"15":null,"16":null,"17":null,"18":null,"19":null,"20":null,"21":null,"22":null,"23":null,"24":null,"25":null,"26":null,"27":null,"28":null,"29":null,"30":null,"31":null,"32":null,"33":null,"34":null,"35":null}},{"sx":1,"sy":1,"depth":36,"w":{"0":null,"1":null,"2":null,"3":null,"4":null,"5":null,"6":null,"7":null,"8":null,"9":null,"10":null,"11":null,"12":null,"13":null,"14":null,"15":null,"16":null,"17":null,"18":null,"19":null,"20":null,"21":null,"22":null,"23":null,"24":null,"25":null,"26":null,"27":null,"28":null,"29":null,"30":null,"31":null,"32":null,"33":null,"34":null,"35":null}},{"sx":1,"sy":1,"depth":36,"w":{"0":-644453.5968150609,"1":-355536.0278303904,"2":-893999.7282918616,"3":-692915.6592933054,"4":-235924.45347757477,"5":-1705430.6328177133,"6":-4368332.36776889,"7":-1092535.083157713,"8":-1251895.6126423948,"9":-1842967.641318372,"10":-7637123.79676188,"11":-281978.5800058849,"12":-158754.14058090115,"13":-378893.1017620008,"14":-559567.0068469759,"15":-283345.31400855235,"16":-819052.1836993835,"17":-377971.08328272105,"18":257324.64074738073,"19":-200975.01017741486,"20":-329000.0572077286,"21":-1409736.996441673,"22":-2068462.3587929918,"23":-515647.0710668872,"24":-1851106.0084462273,"25":-1385297.2059137512,"26":-10448380.302542217,"27":-777644.4031915993,"28":-444879.2782111147,"29":-1061718.9512316892,"30":-284262.2605686819,"31":-351703.0733463466,"32":-215591.15118066588,"33":-364355.01733051694,"34":-329224.9502855921,"35":-1121513.0417764625}},{"sx":1,"sy":1,"depth":36,"w":{"0":-702124.0597359921,"1":-422404.5683967077,"2":-757521.8350663945,"3":-85723.48251159176,"4":-64221.990712952844,"5":-109247.74550558305,"6":-148985.8069734451,"7":-76288.37228310281,"8":-798982.3193788377,"9":-819971.8819237459,"10":-50551.18739309081,"11":-1592261.6544984365,"12":-117530.98953726844,"13":-426971.84821972996,"14":-4302.074360556107,"15":-801267.8396987241,"16":-589183.8622924419,"17":-216508.09838683825,"18":-359577.09567347856,"19":-68972.57257232995,"20":-180458.5037412018,"21":-161684.9255077722,"22":-36960.71392268929,"23":-4826.000477387458,"24":-830622.9078291401,"25":-2408073.185596679,"26":-411792.18396037875,"27":-25071.28491409278,"28":-117531.31325287101,"29":-1402769.8777835935,"30":-41270.87525172476,"31":-55775.57143920951,"32":-9957.346062269562,"33":-63065.10523270422,"34":-198512.73315253644,"35":-397833.6765449588}},{"sx":1,"sy":1,"depth":36,"w":{"0":0.1635745644366969,"1":0.0172341676154374,"2":-0.4736385310463189,"3":-0.2858699584384983,"4":-0.2225559959197389,"5":-0.2681089911614097,"6":-0.4680999011869706,"7":0.14072874111447298,"8":-0.02073295701528852,"9":-0.2508416200688828,"10":-1.1172853511568845,"11":-0.005578619939291496,"12":0.20168939881723155,"13":-0.13896658128483796,"14":-0.15764776446010992,"15":-0.3028689019855913,"16":-0.16331842133787686,"17":-0.21772892943216332,"18":-0.7380856421790065,"19":-0.07943658109656448,"20":-0.11802662123374873,"21":-0.31788009172470555,"22":-0.4720161040282501,"23":-0.1642784665631911,"24":-0.033094225409939185,"25":-0.16048955006544058,"26":-0.5335311481541637,"27":0.04694916533628726,"28":-0.0016376985451874101,"29":-0.1711307643467172,"30":0.03380482632293686,"31":-0.17647993832619996,"32":-0.3069539434363173,"33":-0.2677269069061542,"34":-0.021723577394903045,"35":-0.1685366857389189}},{"sx":1,"sy":1,"depth":36,"w":{"0":null,"1":null,"2":null,"3":null,"4":null,"5":null,"6":null,"7":null,"8":null,"9":null,"10":null,"11":null,"12":null,"13":null,"14":null,"15":null,"16":null,"17":null,"18":null,"19":null,"20":null,"21":null,"22":null,"23":null,"24":null,"25":null,"26":null,"27":null,"28":null,"29":null,"30":null,"31":null,"32":null,"33":null,"34":null,"35":null}},{"sx":1,"sy":1,"depth":36,"w":{"0":null,"1":null,"2":null,"3":null,"4":null,"5":null,"6":null,"7":null,"8":null,"9":null,"10":null,"11":null,"12":null,"13":null,"14":null,"15":null,"16":null,"17":null,"18":null,"19":null,"20":null,"21":null,"22":null,"23":null,"24":null,"25":null,"26":null,"27":null,"28":null,"29":null,"30":null,"31":null,"32":null,"33":null,"34":null,"35":null}},{"sx":1,"sy":1,"depth":36,"w":{"0":null,"1":null,"2":null,"3":null,"4":null,"5":null,"6":null,"7":null,"8":null,"9":null,"10":null,"11":null,"12":null,"13":null,"14":null,"15":null,"16":null,"17":null,"18":null,"19":null,"20":null,"21":null,"22":null,"23":null,"24":null,"25":null,"26":null,"27":null,"28":null,"29":null,"30":null,"31":null,"32":null,"33":null,"34":null,"35":null}},{"sx":1,"sy":1,"depth":36,"w":{"0":0.12296921809236519,"1":-0.12796805443523615,"2":-0.6772224288648299,"3":-0.2075269514792306,"4":0.11593610238022013,"5":-0.7194990355636544,"6":-0.6470538584055189,"7":0.17207702934901772,"8":-0.21288414936800365,"9":-1.1143999538687026,"10":-1.5980849754959825,"11":-0.4453076246111744,"12":0.00375852677426568,"13":-0.048811911719806096,"14":-0.2835875512516354,"15":-0.18577508166808102,"16":-0.33530437499744054,"17":-0.4637971172372957,"18":-0.9494837106960976,"19":-0.3218149165297779,"20":-0.10064871916446104,"21":-0.7534421334636011,"22":-0.8254740786786114,"23":-0.011990112534852946,"24":-0.36407323900002975,"25":-0.5097260950668193,"26":-1.3649592080612947,"27":-0.3742018082713303,"28":-0.28246534640260657,"29":-0.2698064519583819,"30":-0.616867872400819,"31":-0.18469820347602173,"32":-0.2415123377544178,"33":-0.009220079297311364,"34":-0.22251842996405452,"35":-0.2757163174346654}},{"sx":1,"sy":1,"depth":36,"w":{"0":null,"1":null,"2":null,"3":null,"4":null,"5":null,"6":null,"7":null,"8":null,"9":null,"10":null,"11":null,"12":null,"13":null,"14":null,"15":null,"16":null,"17":null,"18":null,"19":null,"20":null,"21":null,"22":null,"23":null,"24":null,"25":null,"26":null,"27":null,"28":null,"29":null,"30":null,"31":null,"32":null,"33":null,"34":null,"35":null}},{"sx":1,"sy":1,"depth":36,"w":{"0":-9.454075199941721e+51,"1":-1.1647076568033564e+52,"2":-8.951165494737756e+52,"3":-1.3113339369399765e+52,"4":-1.2966340268583391e+52,"5":-1.5537983437108099e+53,"6":-2.641293866794671e+52,"7":-2.275106785416492e+52,"8":-1.50190760730129e+52,"9":-1.3283846457153579e+53,"10":-5.49878579672512e+52,"11":-3.218931019416464e+52,"12":-2.3032078521591908e+52,"13":-1.1597769583302985e+52,"14":-2.0526337907063283e+52,"15":-2.861194538766502e+52,"16":-1.3189869682869893e+52,"17":-1.5539221494372643e+52,"18":-8.610812763909993e+52,"19":-1.717540799731649e+52,"20":-1.1554203068851427e+52,"21":-1.3203977193909232e+53,"22":-2.465757112111419e+52,"23":-1.820624403683467e+52,"24":-1.312772046245247e+52,"25":-1.649007860734866e+53,"26":-3.5962930925594485e+52,"27":-3.2769914958882657e+52,"28":-2.723148344423788e+52,"29":-1.2801895655636338e+52,"30":-2.2748646492418828e+52,"31":-2.5046943051344254e+52,"32":-1.256123944535676e+52,"33":-2.1173530126151355e+52,"34":-9.090255539852121e+51,"35":-7.030426770241749e+51}},{"sx":1,"sy":1,"depth":36,"w":{"0":null,"1":null,"2":null,"3":null,"4":null,"5":null,"6":null,"7":null,"8":null,"9":null,"10":null,"11":null,"12":null,"13":null,"14":null,"15":null,"16":null,"17":null,"18":null,"19":null,"20":null,"21":null,"22":null,"23":null,"24":null,"25":null,"26":null,"27":null,"28":null,"29":null,"30":null,"31":null,"32":null,"33":null,"34":null,"35":null}},{"sx":1,"sy":1,"depth":36,"w":{"0":null,"1":null,"2":null,"3":null,"4":null,"5":null,"6":null,"7":null,"8":null,"9":null,"10":null,"11":null,"12":null,"13":null,"14":null,"15":null,"16":null,"17":null,"18":null,"19":null,"20":null,"21":null,"22":null,"23":null,"24":null,"25":null,"26":null,"27":null,"28":null,"29":null,"30":null,"31":null,"32":null,"33":null,"34":null,"35":null}},{"sx":1,"sy":1,"depth":36,"w":{"0":-92813.03265421317,"1":-0.0019094907012204626,"2":-0.15971456496829656,"3":-0.6618272204900796,"4":-23203.163197826314,"5":-0.23454396761955373,"6":-0.4259709132998173,"7":-0.16797737603696858,"8":-0.14123265474629212,"9":-0.5751283275238828,"10":-0.44526687604731785,"11":-23203.43009267575,"12":-23203.315003951197,"13":-0.13507943050836566,"14":-0.1278238537799218,"15":-0.016477678033582882,"16":0.03181054648453082,"17":-0.14128405506264405,"18":-46407.061331832934,"19":-46406.68898439347,"20":-0.3120341261405855,"21":-0.3482435081026391,"22":-0.4375456702773619,"23":-23203.30070614086,"24":-0.17534694703768428,"25":0.008254606071600662,"26":-0.7363714629032914,"27":0.010584542867323425,"28":-23203.422284495628,"29":0.045433204492041766,"30":-0.04447596805120647,"31":-0.2990392672064421,"32":-185626.38511661906,"33":-0.0019212243180875988,"34":-0.10568378270690583,"35":-0.2100230840181699}},{"sx":1,"sy":1,"depth":36,"w":{"0":null,"1":null,"2":null,"3":null,"4":null,"5":null,"6":null,"7":null,"8":null,"9":null,"10":null,"11":null,"12":null,"13":null,"14":null,"15":null,"16":null,"17":null,"18":null,"19":null,"20":null,"21":null,"22":null,"23":null,"24":null,"25":null,"26":null,"27":null,"28":null,"29":null,"30":null,"31":null,"32":null,"33":null,"34":null,"35":null}},{"sx":1,"sy":1,"depth":36,"w":{"0":null,"1":null,"2":null,"3":null,"4":null,"5":null,"6":null,"7":null,"8":null,"9":null,"10":null,"11":null,"12":null,"13":null,"14":null,"15":null,"16":null,"17":null,"18":null,"19":null,"20":null,"21":null,"22":null,"23":null,"24":null,"25":null,"26":null,"27":null,"28":null,"29":null,"30":null,"31":null,"32":null,"33":null,"34":null,"35":null}},{"sx":1,"sy":1,"depth":36,"w":{"0":null,"1":null,"2":null,"3":null,"4":null,"5":null,"6":null,"7":null,"8":null,"9":null,"10":null,"11":null,"12":null,"13":null,"14":null,"15":null,"16":null,"17":null,"18":null,"19":null,"20":null,"21":null,"22":null,"23":null,"24":null,"25":null,"26":null,"27":null,"28":null,"29":null,"30":null,"31":null,"32":null,"33":null,"34":null,"35":null}},{"sx":1,"sy":1,"depth":36,"w":{"0":0.12989410003350713,"1":0.015903018652462676,"2":-1.117913126599302,"3":-0.5636980606518092,"4":-0.4641377954674823,"5":-0.7708213964151387,"6":-0.6182204179300902,"7":-0.31580592150117737,"8":-0.30513622748722447,"9":-1.206337531763168,"10":-2.3029283174498945,"11":-0.26078772950739404,"12":-0.3541940454117993,"13":-0.5318830737539015,"14":-0.2513741108960979,"15":-0.07988245562681491,"16":-0.09517578668130985,"17":-0.05254977591013485,"18":-1.0381320670695093,"19":-0.5762933842324723,"20":-0.0545050191015908,"21":-0.42880598641564943,"22":-1.2836223904409598,"23":-0.0782697457646037,"24":-0.22633464585744023,"25":-0.5807952762301343,"26":-2.1626950198991195,"27":-0.04833349018518615,"28":-0.27907278733842167,"29":0.01784093976972271,"30":-0.35337704296485606,"31":-0.2031973776271703,"32":-0.15306753586999713,"33":-0.019214441453893876,"34":-0.2089262322445911,"35":-0.10699825798721875}},{"sx":1,"sy":1,"depth":36,"w":{"0":-1.3611328912800387e+41,"1":-1.3611328912800387e+41,"2":-0.08845244083744508,"3":-0.09119384749204514,"4":-5.444531565120155e+41,"5":0.006361716846262398,"6":-0.2186516797077593,"7":-0.006156494668012415,"8":-2.177812626048062e+42,"9":-0.19183157763913508,"10":-0.15751006617833133,"11":-0.06220678845209605,"12":-5.444531565120155e+41,"13":-0.25861962891856244,"14":-0.12172413534992428,"15":-0.10062767957359603,"16":-1.3611328912800387e+41,"17":0.1572091279245031,"18":-0.013025860714994501,"19":0.07640565187715681,"20":-5.444531565120155e+41,"21":-0.2425059315126221,"22":-0.0634976602584517,"23":0.02097922825254113,"24":-2.177812626048062e+42,"25":-0.2027514258791634,"26":-0.0733323132307273,"27":-0.3935871887334249,"28":-2.7222657825600773e+41,"29":-2.7222657825600773e+41,"30":0.15185342012789907,"31":0.09340921280332579,"32":-1.088906313024031e+42,"33":-0.22263922779187945,"34":-0.28141634145717875,"35":-0.030640147331521855}},{"sx":1,"sy":1,"depth":36,"w":{"0":null,"1":null,"2":null,"3":null,"4":null,"5":null,"6":null,"7":null,"8":null,"9":null,"10":null,"11":null,"12":null,"13":null,"14":null,"15":null,"16":null,"17":null,"18":null,"19":null,"20":null,"21":null,"22":null,"23":null,"24":null,"25":null,"26":null,"27":null,"28":null,"29":null,"30":null,"31":null,"32":null,"33":null,"34":null,"35":null}},{"sx":1,"sy":1,"depth":36,"w":{"0":-18850.2301447401,"1":-0.01784363209180546,"2":-0.3785615798147474,"3":-0.31396509724694527,"4":-0.022112260915493117,"5":-0.3346425383273204,"6":-0.18262236708608456,"7":-0.16950474256744116,"8":-0.2816518325189136,"9":-0.4211351283924686,"10":-0.9890882590123278,"11":-0.1110966416348952,"12":-18850.257226368743,"13":0.03063896919741878,"14":-18850.26162055766,"15":-18850.294623076203,"16":0.22274393339177515,"17":-0.2784580869230796,"18":-18850.391448428698,"19":-0.29686210652738954,"20":-0.0905222903450772,"21":-0.26427456391777815,"22":-0.5302898080094776,"23":0.14362669012454773,"24":0.11734829498328068,"25":-0.09508973127582636,"26":-1.0681955829155754,"27":-0.19564785087071085,"28":-18850.45084911479,"29":-0.12772282438682722,"30":0.03493752950819894,"31":-18850.20845476534,"32":0.01665505612507482,"33":-150802.08635491243,"34":0.0985272734909938,"35":0.07015312865249819}},{"sx":1,"sy":1,"depth":36,"w":{"0":null,"1":null,"2":null,"3":null,"4":null,"5":null,"6":null,"7":null,"8":null,"9":null,"10":null,"11":null,"12":null,"13":null,"14":null,"15":null,"16":null,"17":null,"18":null,"19":null,"20":null,"21":null,"22":null,"23":null,"24":null,"25":null,"26":null,"27":null,"28":null,"29":null,"30":null,"31":null,"32":null,"33":null,"34":null,"35":null}},{"sx":1,"sy":1,"depth":36,"w":{"0":-5106392.553122245,"1":-4027818.7460363586,"2":-9944492.775230044,"3":-2012099.229069535,"4":-626503.394185029,"5":1103311.315409131,"6":-19638037.21425461,"7":-3284523.8648171495,"8":-7195283.133229353,"9":-75671226.91381931,"10":-7814024.618786845,"11":-20375948.062207624,"12":-10284662.992639786,"13":-5673198.368204999,"14":-5086359.952540008,"15":-7324131.080212462,"16":-6612895.188914827,"17":-2252919.9750201814,"18":-11418222.379319917,"19":-2384455.003419769,"20":-1137859.6129644224,"21":-9945253.049776834,"22":-12917417.100576678,"23":-6678458.460047592,"24":-12981287.739724234,"25":-75690996.3843996,"26":-5041849.679287438,"27":-6141456.113825005,"28":-10959699.4331243,"29":-11174157.113659723,"30":-4752886.916097295,"31":-1730563.2058747057,"32":-2780295.4886036557,"33":-3310274.6052112523,"34":-3151257.654961616,"35":-3575116.204851507}},{"sx":1,"sy":1,"depth":36,"w":{"0":null,"1":null,"2":null,"3":null,"4":null,"5":null,"6":null,"7":null,"8":null,"9":null,"10":null,"11":null,"12":null,"13":null,"14":null,"15":null,"16":null,"17":null,"18":null,"19":null,"20":null,"21":null,"22":null,"23":null,"24":null,"25":null,"26":null,"27":null,"28":null,"29":null,"30":null,"31":null,"32":null,"33":null,"34":null,"35":null}},{"sx":1,"sy":1,"depth":36,"w":{"0":-3.529781401489164e+50,"1":-8.940828318978379e+50,"2":-3.463137675617804e+51,"3":-6.3709625361577495e+50,"4":-8.846506398197141e+50,"5":-1.0745836098674604e+52,"6":-1.4972589381730696e+51,"7":-5.992683822521938e+50,"8":-3.593960602730818e+50,"9":-7.589465173937296e+50,"10":-3.5463425448609186e+51,"11":-3.3768336403892245e+50,"12":-1.7485748229756386e+50,"13":-3.226841956231134e+50,"14":-1.6708422798168185e+50,"15":-4.542539550746367e+50,"16":-5.1406756523814e+50,"17":-1.122794498227896e+51,"18":-3.2439172429513095e+51,"19":-7.939768798865207e+50,"20":-6.709155155896677e+50,"21":-8.588998251377607e+51,"22":-9.840826360328577e+50,"23":-6.811929926353833e+50,"24":-2.3306440943369628e+50,"25":-3.183761445178233e+51,"26":-1.932410334537857e+51,"27":-1.2386168196227627e+51,"28":-4.47372939666374e+50,"29":-3.6078448966579667e+50,"30":-4.007229696617696e+50,"31":-4.408800497548548e+50,"32":-1.1292269760195123e+51,"33":-6.3936238816082185e+50,"34":-6.656743412161022e+49,"35":-4.997072271525462e+50}},{"sx":1,"sy":1,"depth":36,"w":{"0":0.019282310239044465,"1":-0.11400677689369916,"2":-1.3552810162154834,"3":-0.6281738298043923,"4":-0.4756477447863193,"5":-0.7527906578649569,"6":-0.7106929764175315,"7":-0.35513194017021005,"8":-0.31352504636950784,"9":-1.3504501181101967,"10":-2.766238437602672,"11":-0.21286421991815202,"12":-0.10633235298875426,"13":-0.39942617266888525,"14":-0.46157756983613923,"15":0.04484187500320037,"16":0.2001741421060285,"17":-0.35045591231708834,"18":-1.4154873046859748,"19":-0.7629752663874062,"20":-0.12037191173432644,"21":-0.687786150373055,"22":-1.7566456990675765,"23":-0.3000511901843522,"24":-0.346384622566812,"25":-0.5911559692220287,"26":-2.4575062967302066,"27":-0.18490020545783606,"28":-0.43129705569273497,"29":-0.261243341738537,"30":-0.6212325122070069,"31":0.04940824264104415,"32":-0.10207523868550998,"33":-0.2876202068657476,"34":-0.21904389703632657,"35":-0.29358771156493224}},{"sx":1,"sy":1,"depth":36,"w":{"0":-3519605.5265699024,"1":-4454387.230627211,"2":-1811109.7708637095,"3":-8093401.001857772,"4":-2517641.985969501,"5":-16752510.624893261,"6":-14383796.676714228,"7":-4564151.897071363,"8":-5904286.508940464,"9":-26916382.529985588,"10":-39285651.36910762,"11":-2514393.5255574146,"12":-6940383.353608442,"13":-6948634.500349187,"14":-3561053.806670322,"15":-2028096.3904319073,"16":-4184244.6446601376,"17":-5584582.346496829,"18":-6972499.380971682,"19":-1615182.343453891,"20":-3377239.568424397,"21":-24925134.68516162,"22":-12858792.67276996,"23":-2361930.212547073,"24":-7627642.64156268,"25":-21104823.525304776,"26":-42118513.21646831,"27":-40643.57983501033,"28":-7934899.879915989,"29":-4961425.782417367,"30":-1962186.6140427343,"31":-1465878.0867547898,"32":-2921360.6450658427,"33":-2514044.7770261574,"34":-3552837.65682175,"35":-2530506.1323777903}},{"sx":1,"sy":1,"depth":36,"w":{"0":null,"1":null,"2":null,"3":null,"4":null,"5":null,"6":null,"7":null,"8":null,"9":null,"10":null,"11":null,"12":null,"13":null,"14":null,"15":null,"16":null,"17":null,"18":null,"19":null,"20":null,"21":null,"22":null,"23":null,"24":null,"25":null,"26":null,"27":null,"28":null,"29":null,"30":null,"31":null,"32":null,"33":null,"34":null,"35":null}},{"sx":1,"sy":1,"depth":36,"w":{"0":-3304804.716960234,"1":-2944806.3515915615,"2":-6330516.981292795,"3":-1643497.2094539895,"4":-354621.3544620805,"5":-6635063.228384106,"6":-12807839.69544935,"7":-1821600.2260397216,"8":-2150044.2322207284,"9":-55942416.00716757,"10":-5742465.915860175,"11":-14801961.72218618,"12":-8661507.182972081,"13":-4186275.022191783,"14":-3418115.4715870484,"15":-5179127.293778015,"16":-4280976.041103222,"17":-3340118.493725622,"18":-6827109.758075872,"19":-1934280.7410777502,"20":-496685.59687310306,"21":-7133977.129427325,"22":-12022833.107949859,"23":-4614920.267424149,"24":-6059341.290523194,"25":-60912520.09748688,"26":-2719780.1003294596,"27":-4343244.6572970105,"28":-8961129.194408728,"29":-7676978.825366537,"30":-2731068.370783112,"31":-1150385.3275493577,"32":-2565242.8686953937,"33":-2823984.5347095733,"34":-1736910.2850479872,"35":-1780878.5976098818}},{"sx":1,"sy":1,"depth":36,"w":{"0":-167386.57144788912,"1":-237674.64803492156,"2":-635365.8629181484,"3":-41967.23204814789,"4":-8780.704982555684,"5":-19192.381837001023,"6":-107854.23616944869,"7":-46244.56448006242,"8":-601732.1137771108,"9":-0.1442585406782213,"10":-32151.0333828657,"11":-24605.357159633088,"12":-78412.6022348327,"13":-740.0406610493526,"14":-10086.1624430315,"15":-6937.542129266524,"16":-154426.58154308717,"17":-74410.99642119659,"18":-319202.22487910197,"19":-15003.406160095865,"20":-21834.10022805314,"21":-19632.984171213662,"22":-79186.55789914643,"23":-8026.047590970858,"24":-598494.9879507617,"25":-0.19710970293583774,"26":-341146.45675830456,"27":-46939.65368312617,"28":-78412.4700116812,"29":-155591.49930500964,"30":-28723.657726979003,"31":-46980.284381836864,"32":22447.98402088609,"33":-45964.32456362087,"34":-0.23790972628207352,"35":-247887.6751646681}},{"sx":1,"sy":1,"depth":36,"w":{"0":-2838183.502344712,"1":-2204968.4449739945,"2":-4362433.95669075,"3":-996142.8145772927,"4":-1408421.7854640665,"5":-5311619.136716393,"6":-19101156.727843624,"7":-1777845.2994517104,"8":-3159538.683726851,"9":-43868375.661718726,"10":-3323401.749099402,"11":-11783766.410904681,"12":-6522173.02083348,"13":-3233440.593389694,"14":-2395413.52720337,"15":-3654709.421869731,"16":-2800292.098854726,"17":-2139903.5750956032,"18":-5900789.085788316,"19":-1877980.2097706844,"20":-1725533.4207186322,"21":-7098511.761981327,"22":-8564316.580441814,"23":-3797791.160037731,"24":-3167184.2291289913,"25":-46476062.61901719,"26":-10798276.365582388,"27":-4153342.989745964,"28":-6458282.700389238,"29":-6398517.926546466,"30":-2228188.2048736047,"31":-1522077.4973806634,"32":-2776682.386156406,"33":-2097310.7523752223,"34":-888059.0050746241,"35":-2103750.9725005133}},{"sx":1,"sy":1,"depth":36,"w":{"0":-171059.6863613627,"1":-571623.2306227927,"2":-1060565.1778144431,"3":-153411.31368844584,"4":-2911.497457236715,"5":-34457.00127329561,"6":-1969452.4649287327,"7":-496463.0650366723,"8":84753.81652613824,"9":-53451.505777025,"10":-220059.64095743373,"11":-250978.43567643696,"12":-29018.79203943801,"13":-52636.06806405188,"14":-327593.15095367684,"15":-126755.09752526415,"16":18635.012137867714,"17":-89506.12358465297,"18":-1097029.7771435261,"19":-136883.97677305777,"20":-29542.827631761847,"21":-337796.8710282157,"22":-1988980.2303514355,"23":-500806.3598791547,"24":32585.650880641446,"25":-72901.99315906949,"26":-215372.1220691202,"27":-183602.0010373187,"28":-166548.58713506244,"29":-20006.583183189337,"30":-326504.7935114519,"31":-157444.46094284102,"32":-112185.18537706096,"33":-91542.19982654348,"34":-410560.8746266819,"35":-529600.8871787374}},{"sx":1,"sy":1,"depth":36,"w":{"0":-95982.92667148545,"1":0.0044522802696563306,"2":-0.501516131577085,"3":-0.1466738853292979,"4":-52887.850883504376,"5":-124365.88178238337,"6":-0.5879834089927707,"7":0.04907827104306659,"8":-195310.9178022122,"9":-0.21327160255257108,"10":-0.31282530979504797,"11":-0.028014738012458046,"12":-344181.6002919939,"13":-52888.19639176893,"14":-247058.9116458249,"15":-87862.24584189529,"16":0.06752691488946135,"17":0.016527106766217475,"18":-69805.78347314628,"19":-52887.96212823432,"20":-97655.4924090089,"21":-0.17948385504196296,"22":-0.519980705028279,"23":-0.20581561996936903,"24":-150543.29722386046,"25":-0.37515061328995974,"26":-26710.945893562508,"27":-0.14931944609286293,"28":-344181.13114375295,"29":-52887.741359885666,"30":-150543.3992815512,"31":-87862.5584720017,"32":-423103.035801563,"33":-916582.9295156255,"34":-0.19887890499534186,"35":-0.22506824745049273}},{"sx":1,"sy":1,"depth":36,"w":{"0":null,"1":null,"2":null,"3":null,"4":null,"5":null,"6":null,"7":null,"8":null,"9":null,"10":null,"11":null,"12":null,"13":null,"14":null,"15":null,"16":null,"17":null,"18":null,"19":null,"20":null,"21":null,"22":null,"23":null,"24":null,"25":null,"26":null,"27":null,"28":null,"29":null,"30":null,"31":null,"32":null,"33":null,"34":null,"35":null}},{"sx":1,"sy":1,"depth":36,"w":{"0":-0.17102832752705402,"1":0.046640333074046705,"2":-0.08209525931664599,"3":-0.2852014667932949,"4":0.014348104907848247,"5":-0.13214834304441597,"6":-0.19658247475419593,"7":-0.3624898396651245,"8":-0.160948889366355,"9":-0.6953161068784611,"10":-0.6345815230209291,"11":-0.2563283753923807,"12":-0.06333365952696615,"13":-0.5611182172840796,"14":-0.23192409216914042,"15":-0.16824145961637926,"16":0.09701642252223677,"17":-0.03448761879674645,"18":-0.23468736620747455,"19":-0.4077355171207593,"20":0.006372167578641224,"21":-0.23839526276550901,"22":-0.2461959554564794,"23":-0.02347643244064676,"24":-0.08749619367444424,"25":-0.383702974467401,"26":-1.3112550539355565,"27":0.05853437888213067,"28":-0.18863808113658756,"29":0.013724914244017165,"30":-0.5816190030944126,"31":0.05184984410872065,"32":-0.1657739126867968,"33":-0.006922952774525086,"34":0.08122674326240484,"35":-0.09335185389227033}},{"sx":1,"sy":1,"depth":36,"w":{"0":null,"1":null,"2":null,"3":null,"4":null,"5":null,"6":null,"7":null,"8":null,"9":null,"10":null,"11":null,"12":null,"13":null,"14":null,"15":null,"16":null,"17":null,"18":null,"19":null,"20":null,"21":null,"22":null,"23":null,"24":null,"25":null,"26":null,"27":null,"28":null,"29":null,"30":null,"31":null,"32":null,"33":null,"34":null,"35":null}},{"sx":1,"sy":1,"depth":36,"w":{"0":null,"1":null,"2":null,"3":null,"4":null,"5":null,"6":null,"7":null,"8":null,"9":null,"10":null,"11":null,"12":null,"13":null,"14":null,"15":null,"16":null,"17":null,"18":null,"19":null,"20":null,"21":null,"22":null,"23":null,"24":null,"25":null,"26":null,"27":null,"28":null,"29":null,"30":null,"31":null,"32":null,"33":null,"34":null,"35":null}},{"sx":1,"sy":1,"depth":36,"w":{"0":null,"1":null,"2":null,"3":null,"4":null,"5":null,"6":null,"7":null,"8":null,"9":null,"10":null,"11":null,"12":null,"13":null,"14":null,"15":null,"16":null,"17":null,"18":null,"19":null,"20":null,"21":null,"22":null,"23":null,"24":null,"25":null,"26":null,"27":null,"28":null,"29":null,"30":null,"31":null,"32":null,"33":null,"34":null,"35":null}},{"sx":1,"sy":1,"depth":36,"w":{"0":-2007611.4749301688,"1":-180129.57114024245,"2":-1797136.4150396427,"3":-358178.7024809396,"4":-0.11467049526424646,"5":-858079.0760495404,"6":-2592074.6681201314,"7":-2146830.895174136,"8":-2030020.314457283,"9":-28707452.991328873,"10":-1430553.8762430735,"11":-27257060.364331678,"12":-629892.7514531792,"13":-1425703.6042593187,"14":-3761516.517409786,"15":-6888871.4882630035,"16":-1619087.0344785294,"17":-358179.0433497066,"18":-2026608.0824416282,"19":-2052955.4679150179,"20":-1104115.577126834,"21":-1879878.3586962267,"22":-800491.5795629212,"23":-7154607.241697946,"24":-2178490.4398264433,"25":-40235757.00358934,"26":-822257.9356741011,"27":-8574149.284772718,"28":-629893.1606735995,"29":-7014576.09735352,"30":-3697988.184556379,"31":-1129570.0288732052,"32":-0.18252629450951258,"33":-4186837.255343919,"34":-2153234.2390216836,"35":-0.35579093257389}},{"sx":1,"sy":1,"depth":36,"w":{"0":0.009893735870815283,"1":-0.24580335249004062,"2":-1.0190544130382966,"3":-0.0657959704540658,"4":-0.06595249007000134,"5":-0.6537337811454922,"6":-0.7665385770446457,"7":-0.23009297880018123,"8":-0.32623652541311843,"9":-0.33142992103885766,"10":-1.9038054816708674,"11":-0.33604732421124983,"12":-0.3626498939790554,"13":-0.21113065473365478,"14":-0.34727619675435883,"15":0.22100649904694233,"16":-0.2395021700260298,"17":-0.05968521724933367,"18":-1.0356381002583577,"19":-0.18017052809813403,"20":-0.20881307419632933,"21":-0.7175321638311488,"22":-1.163652587958692,"23":0.0992012864193238,"24":-0.06235606199282867,"25":-0.0681033499204502,"26":-1.0547238598551265,"27":-0.09485129816236235,"28":-0.26856809254420805,"29":-0.2013167705957398,"30":-0.13892030349941062,"31":-0.378020993470456,"32":-0.12912182814832085,"33":-0.16686472239268177,"34":-0.26288851442345307,"35":-0.2652614562888818}},{"sx":1,"sy":1,"depth":36,"w":{"0":-4.2603570117896756e+42,"1":-4.2603570117896756e+42,"2":-0.21926358994981776,"3":-0.04270960971137593,"4":-1.7041428047158703e+43,"5":-0.17111343834328283,"6":-0.2024386430359527,"7":-0.19801316113220752,"8":-6.816571218863481e+43,"9":-0.3601450275135337,"10":-0.21551162278126876,"11":-0.07351632959284413,"12":-1.7041428047158703e+43,"13":-0.24534289376313828,"14":-0.15292783653586364,"15":0.08826332290480916,"16":-4.2603570117896756e+42,"17":0.26436082046953635,"18":-0.41995412394380743,"19":-0.2854347447175072,"20":-1.7041428047158703e+43,"21":-0.019946929632921658,"22":-0.1490371750369718,"23":-0.05359260030686223,"24":-6.816571218863481e+43,"25":-0.01958227592554281,"26":-0.0398632964746257,"27":-0.13950162802946575,"28":-8.520714023579351e+42,"29":-8.520714023579351e+42,"30":-0.08389307061765086,"31":-0.1038686883245528,"32":-3.4082856094317405e+43,"33":-0.16560150686874414,"34":-0.23551406817458045,"35":-0.057746207428669316}},{"sx":1,"sy":1,"depth":36,"w":{"0":-4344.573141483916,"1":0.09518415427101222,"2":0.07147502763543205,"3":-0.052026921166695314,"4":-4344.691335417701,"5":-6547.554006030604,"6":0.0950607769376449,"7":0.015073235019608021,"8":-8688.939745725776,"9":-0.27442484510112836,"10":-0.307178012546566,"11":-0.32621590999078026,"12":-17377.45063957688,"13":-4344.407890863665,"14":-13094.467528046882,"15":-0.11240946915349656,"16":0.0762948988022484,"17":-0.0850772868159978,"18":-2202.965764613983,"19":-4344.56218188444,"20":-4344.306690302108,"21":-0.1642913450506848,"22":0.019831306454803955,"23":-0.2379343661893341,"24":-8689.009885767895,"25":-0.16001864178358347,"26":-2203.061226150101,"27":-0.06974478037686553,"28":-17377.55917929809,"29":-4344.237489261488,"30":-8688.749418577443,"31":-0.3321273128500354,"32":-34754.90545423659,"33":-17623.65563460007,"34":-0.01913982856547006,"35":0.016823318594041035}},{"sx":1,"sy":1,"depth":36,"w":{"0":null,"1":null,"2":null,"3":null,"4":null,"5":null,"6":null,"7":null,"8":null,"9":null,"10":null,"11":null,"12":null,"13":null,"14":null,"15":null,"16":null,"17":null,"18":null,"19":null,"20":null,"21":null,"22":null,"23":null,"24":null,"25":null,"26":null,"27":null,"28":null,"29":null,"30":null,"31":null,"32":null,"33":null,"34":null,"35":null}},{"sx":1,"sy":1,"depth":36,"w":{"0":null,"1":null,"2":null,"3":null,"4":null,"5":null,"6":null,"7":null,"8":null,"9":null,"10":null,"11":null,"12":null,"13":null,"14":null,"15":null,"16":null,"17":null,"18":null,"19":null,"20":null,"21":null,"22":null,"23":null,"24":null,"25":null,"26":null,"27":null,"28":null,"29":null,"30":null,"31":null,"32":null,"33":null,"34":null,"35":null}},{"sx":1,"sy":1,"depth":36,"w":{"0":null,"1":null,"2":null,"3":null,"4":null,"5":null,"6":null,"7":null,"8":null,"9":null,"10":null,"11":null,"12":null,"13":null,"14":null,"15":null,"16":null,"17":null,"18":null,"19":null,"20":null,"21":null,"22":null,"23":null,"24":null,"25":null,"26":null,"27":null,"28":null,"29":null,"30":null,"31":null,"32":null,"33":null,"34":null,"35":null}},{"sx":1,"sy":1,"depth":36,"w":{"0":null,"1":null,"2":null,"3":null,"4":null,"5":null,"6":null,"7":null,"8":null,"9":null,"10":null,"11":null,"12":null,"13":null,"14":null,"15":null,"16":null,"17":null,"18":null,"19":null,"20":null,"21":null,"22":null,"23":null,"24":null,"25":null,"26":null,"27":null,"28":null,"29":null,"30":null,"31":null,"32":null,"33":null,"34":null,"35":null}},{"sx":1,"sy":1,"depth":36,"w":{"0":0.09147975810995318,"1":-0.10391581769360761,"2":-0.21380428667240928,"3":-29623.642068543708,"4":-14811.878812723957,"5":-0.19947167806268062,"6":-59247.607331677464,"7":-118495.08610912832,"8":-29624.066983798795,"9":-0.6067182892826748,"10":-29624.194223427774,"11":-59247.557753930065,"12":-14812.040144458497,"13":-473979.5243579244,"14":-14811.786753145325,"15":-14811.965883806295,"16":-29623.67339201649,"17":-473979.52012504364,"18":-59247.676482472336,"19":-29623.917688959966,"20":-0.16535383093174402,"21":-0.06654929360869707,"22":-29624.029139308215,"23":-118494.90145926268,"24":0.01466610325820822,"25":-0.08205065743089011,"26":-14812.666442511194,"27":-59247.254309671305,"28":-14811.977792043232,"29":-0.09698865103566752,"30":-0.31651859572464924,"31":-14811.877378184467,"32":0.07933143827023932,"33":-118494.99533293003,"34":-0.20817286703574264,"35":-0.29509817470027344}},{"sx":1,"sy":1,"depth":36,"w":{"0":null,"1":null,"2":null,"3":null,"4":null,"5":null,"6":null,"7":null,"8":null,"9":null,"10":null,"11":null,"12":null,"13":null,"14":null,"15":null,"16":null,"17":null,"18":null,"19":null,"20":null,"21":null,"22":null,"23":null,"24":null,"25":null,"26":null,"27":null,"28":null,"29":null,"30":null,"31":null,"32":null,"33":null,"34":null,"35":null}},{"sx":1,"sy":1,"depth":36,"w":{"0":null,"1":null,"2":null,"3":null,"4":null,"5":null,"6":null,"7":null,"8":null,"9":null,"10":null,"11":null,"12":null,"13":null,"14":null,"15":null,"16":null,"17":null,"18":null,"19":null,"20":null,"21":null,"22":null,"23":null,"24":null,"25":null,"26":null,"27":null,"28":null,"29":null,"30":null,"31":null,"32":null,"33":null,"34":null,"35":null}},{"sx":1,"sy":1,"depth":36,"w":{"0":null,"1":null,"2":null,"3":null,"4":null,"5":null,"6":null,"7":null,"8":null,"9":null,"10":null,"11":null,"12":null,"13":null,"14":null,"15":null,"16":null,"17":null,"18":null,"19":null,"20":null,"21":null,"22":null,"23":null,"24":null,"25":null,"26":null,"27":null,"28":null,"29":null,"30":null,"31":null,"32":null,"33":null,"34":null,"35":null}},{"sx":1,"sy":1,"depth":36,"w":{"0":-2720100.2930576704,"1":-7911235.033729588,"2":-4296344.339997037,"3":-1030057.5530977553,"4":-1134972.9017467257,"5":-30731877.48748407,"6":-1169867.5511808298,"7":-1970450.4547148026,"8":-7342208.68746294,"9":-5791632.537971696,"10":-1706045.5827629636,"11":-420586.5031172153,"12":-1200754.221262511,"13":-1944633.8632337542,"14":-687105.1943611868,"15":-327868.54554464715,"16":-2147530.1044924827,"17":-8458749.465785015,"18":-1899053.2935045888,"19":-1019315.202628628,"20":-1573907.715098326,"21":-29917597.840372268,"22":-905194.336598853,"23":-1530232.3815244008,"24":-7380505.193462671,"25":-5791632.652749069,"26":-3906156.908920685,"27":-570906.2692044182,"28":-1200754.459216708,"29":-2253336.7534211623,"30":-880028.7714423309,"31":-643215.4385567919,"32":-948873.6994376088,"33":-152113.2847440786,"34":-2756238.319866812,"35":-1527753.428425254}},{"sx":1,"sy":1,"depth":36,"w":{"0":-2.3238193423352788e+51,"1":-5.6829961920196525e+51,"2":-1.8623926288590772e+52,"3":-3.9434243542966016e+51,"4":-5.253793054990949e+51,"5":-6.685427173898704e+52,"6":-9.463200689697716e+51,"7":-2.4413533247122146e+51,"8":-2.079067206201437e+51,"9":-1.1667622893747303e+51,"10":-1.583534317766352e+52,"11":-1.2992998854553681e+51,"12":-6.450886731180822e+50,"13":-1.6419718441010386e+51,"14":-1.4735464241841505e+50,"15":-2.524784096055401e+51,"16":-2.893980642572101e+51,"17":-5.744744229528504e+51,"18":-1.7218932723964379e+52,"19":-4.945618286758324e+51,"20":-4.107914095707953e+51,"21":-5.10362308606687e+52,"22":-6.143936346189732e+51,"23":-2.9793347587970487e+51,"24":-1.028397152357618e+51,"25":-2.0344414557069392e+52,"26":-5.4481654579580904e+51,"27":-7.098913757234328e+51,"28":-2.8703961434531158e+51,"29":-2.127061676441622e+51,"30":-1.6665148013350155e+51,"31":-2.4091586350285052e+51,"32":-7.205467331251928e+51,"33":-2.26271550425124e+51,"34":-6.565306722157496e+50,"35":-3.247854197141849e+51}},{"sx":1,"sy":1,"depth":36,"w":{"0":-45804.22836958768,"1":-0.08894919314027282,"2":-0.04410696571240416,"3":0.2611587938179911,"4":-11451.258519232904,"5":-0.3789552959479611,"6":-0.1475537431923016,"7":-0.029580896096716696,"8":-0.36337830900682294,"9":-0.31892663873504795,"10":-0.9977361661233921,"11":-11451.233118935317,"12":-11451.572841381036,"13":-0.2275050160100696,"14":-0.07417426267403503,"15":0.09649487476471227,"16":-0.20263534889460072,"17":-0.07621391235785656,"18":-22902.36886992639,"19":-22902.23833551879,"20":0.1511990505285038,"21":-0.037844461920385236,"22":-0.39008948468525595,"23":-11451.38131499245,"24":-0.018852742891547848,"25":-0.11847638958117047,"26":-0.8327940212985679,"27":-0.2538732231519531,"28":-11451.322699161377,"29":-0.026183630705463642,"30":-0.158851850261593,"31":0.06710174154774035,"32":-91608.93101997985,"33":-0.08070656214719944,"34":-0.18785616081962986,"35":-0.119527054922782}},{"sx":1,"sy":1,"depth":36,"w":{"0":-0.29302565206506365,"1":-0.1120972030579517,"2":-0.752644681385221,"3":0.08358057530443581,"4":-0.19432008633227718,"5":-0.5688171195613785,"6":-0.41418988984822624,"7":-0.2738652115265045,"8":-0.11184649078502384,"9":-0.6950549283859622,"10":-1.5125031407178222,"11":-0.28967115580401104,"12":-0.33978233181128964,"13":-0.22441620735727644,"14":-0.22128118518169876,"15":-0.16794364630539815,"16":-0.20148583193390235,"17":0.08773069694024961,"18":-0.8446053245335433,"19":-0.4193556610018727,"20":0.09160184281751703,"21":-0.972523481955026,"22":-0.9109128761791571,"23":-0.2665599940680691,"24":-0.290628561246098,"25":-0.3273644612763727,"26":-0.9475607590864443,"27":0.025142580161087186,"28":-0.30964111247574194,"29":-0.12149227334996637,"30":-0.158552948284798,"31":-0.2816631599643862,"32":0.056151546607083234,"33":0.12191380477367544,"34":-0.1625549097733376,"35":-0.43955753564268085}},{"sx":1,"sy":1,"depth":36,"w":{"0":null,"1":null,"2":null,"3":null,"4":null,"5":null,"6":null,"7":null,"8":null,"9":null,"10":null,"11":null,"12":null,"13":null,"14":null,"15":null,"16":null,"17":null,"18":null,"19":null,"20":null,"21":null,"22":null,"23":null,"24":null,"25":null,"26":null,"27":null,"28":null,"29":null,"30":null,"31":null,"32":null,"33":null,"34":null,"35":null}},{"sx":1,"sy":1,"depth":36,"w":{"0":6803.412988795206,"1":2516.0164925328945,"2":-0.013364708992621767,"3":-365812.7060413128,"4":-51991.18565102913,"5":-22419.863166476774,"6":-104618.98100946155,"7":-112331.27115021096,"8":-200322.448782789,"9":-966037.2957462303,"10":-972752.2919433704,"11":-303402.3683593824,"12":-81214.58666263522,"13":-1221770.5841573637,"14":-462220.6649277468,"15":-172007.89479357356,"16":-296402.4930972121,"17":-154751.48326613868,"18":-512819.76268855954,"19":-126369.18773960366,"20":-262726.5754170701,"21":-1046888.7076546325,"22":-284180.3599464455,"23":-88969.08030123287,"24":-911607.9242579232,"25":-467574.4175813801,"26":-63096.5644520447,"27":-243297.84446305138,"28":-137995.82710982033,"29":-226983.3725961541,"30":-96764.48099165881,"31":-52336.55612192622,"32":27214.837677962034,"33":-259185.45994766944,"34":-233787.26311939713,"35":-0.09655640295291364}},{"sx":1,"sy":1,"depth":36,"w":{"0":-0.2563485620543516,"1":-0.2397247598256238,"2":-1.3250005127358184,"3":-0.5472676427440346,"4":-0.36221061172691543,"5":-0.8517432183082143,"6":-0.5912655197988068,"7":-0.25226577807727746,"8":-0.1859640178177672,"9":-1.4866525406099333,"10":-3.1238449335215743,"11":-0.26867317414796194,"12":-0.16834732781553957,"13":-0.8339044226750473,"14":0.023968312226760026,"15":-0.5659628319443503,"16":0.011750002965596716,"17":-0.23446878576535193,"18":-1.230863399677805,"19":-0.3545983719975073,"20":0.054872428729742774,"21":-0.5840100569846074,"22":-1.5772465739389965,"23":-0.21599864105425104,"24":-0.15370915711322822,"25":-0.6280540133623471,"26":-2.534403527111997,"27":-0.7003074201772281,"28":-0.5067795391489616,"29":-0.32609621734950495,"30":-0.6597324420937332,"31":-0.12184458759517851,"32":-0.3572802027777171,"33":-0.02280203139021261,"34":-0.272920179907505,"35":-0.0953297054444228}},{"sx":1,"sy":1,"depth":36,"w":{"0":-1182896.2805394114,"1":-815607.4237037783,"2":-2296229.3094416745,"3":-458639.8194667633,"4":-426692.2160314051,"5":-2565939.8161000926,"6":-4525144.754742123,"7":-646842.4182664528,"8":-1221027.757078509,"9":-19362149.852779288,"10":-2029458.175242946,"11":-5348500.116387367,"12":-3149610.193511231,"13":-2727865.069172136,"14":-1232924.122618891,"15":-1696321.8646065146,"16":-1265799.9635223916,"17":-1125500.395541363,"18":-3136894.4911597,"19":-926881.8423175054,"20":-687977.9363862427,"21":-3786079.4547367604,"22":-4741261.188872072,"23":-1686092.7013763466,"24":-927868.185622911,"25":-21387153.265182357,"26":-1080999.8680313453,"27":-1868962.0201347393,"28":-3078429.4141991767,"29":-2293770.0456774537,"30":-915696.2777543748,"31":-509248.6488184473,"32":-1041624.7435014052,"33":-1275526.5369420678,"34":-258422.8296731294,"35":-572249.9941653928}},{"sx":1,"sy":1,"depth":36,"w":{"0":-147471.32589166096,"1":-145778.83682766755,"2":-291557.31433768244,"3":-18222.427028494418,"4":-11659.578485988925,"5":-3812.9241288266944,"6":-18222.44154041593,"7":-36444.93189292946,"8":-555946.522362699,"9":-0.19178716347085994,"10":-18222.62759167121,"11":499.4421884225246,"12":-87238.87471306104,"13":1907.9947171105568,"14":-14671.135846879808,"15":-5389.370923612355,"16":-140624.61262288963,"17":0.12719163861074745,"18":-5035.4401774554,"19":-3246.1984702438217,"20":-14946.696165739437,"21":-0.16663197700600252,"22":499.5408753441107,"23":0.022557455685811252,"24":-552659.6567340088,"25":-0.038774256028061824,"26":-293491.6185497203,"27":-17723.12657199846,"28":-87238.55531408667,"29":-144369.92197277187,"30":-29000.93041185249,"31":-39756.371248658645,"32":-9347.569337382813,"33":-62584.062227468225,"34":0.023028292680631945,"35":-145778.59382905957}},{"sx":1,"sy":1,"depth":36,"w":{"0":-8222106.717902753,"1":-8637734.881008338,"2":-11395715.5974188,"3":-13724572.305244355,"4":-3830750.9381598174,"5":-32499603.82109646,"6":-38827716.97290061,"7":-9291605.54686144,"8":-11527988.194823712,"9":-74687704.13966045,"10":-60715231.33143984,"11":-19771490.568767697,"12":-13835785.632047888,"13":-9125966.891430655,"14":-7041355.612002659,"15":-7226256.73295029,"16":-8673784.205798369,"17":-9510188.286761658,"18":-17211786.090446707,"19":-4014912.370766438,"20":-4998479.823399664,"21":-39064034.69939943,"22":-21647407.469293054,"23":-8086882.101034765,"24":-15549424.450803926,"25":-74929631.77970007,"26":-78966384.66724487,"27":-4635393.676009312,"28":-15584330.295748284,"29":-16033680.774283383,"30":-5322545.493442374,"31":-3442613.1126668938,"32":-4520327.0903510945,"33":-4480621.782737534,"34":-6974879.40064629,"35":-7964463.372854983}},{"sx":1,"sy":1,"depth":36,"w":{"0":-52903.58585787435,"1":0.11105811078186174,"2":-0.2955524149421167,"3":-0.06438731536001917,"4":-0.008222246300818524,"5":-0.030216739012203758,"6":-0.15319204930162902,"7":-0.22066196301690652,"8":-0.15741129864144837,"9":-0.396063494161188,"10":-0.5013741264489049,"11":-0.07142311620909753,"12":-52903.490741081834,"13":-0.243772024951282,"14":-52903.39793484244,"15":-52903.576312923586,"16":-0.06577452314763482,"17":-0.06373097445697525,"18":-52903.70069714299,"19":-0.310417256640879,"20":-0.21016222083358105,"21":-0.36590646039731706,"22":-0.37108424483701274,"23":0.016546451834952083,"24":0.04804095291925066,"25":-0.4485063258323361,"26":-0.7061903429912673,"27":-0.24947151894239325,"28":-52903.86634920371,"29":-0.21700938680973073,"30":0.11402989143602682,"31":-52903.7579133169,"32":-0.030393928374464866,"33":-423228.5774945232,"34":0.17925138543440514,"35":-0.22981058519121392}},{"sx":1,"sy":1,"depth":36,"w":{"0":null,"1":null,"2":null,"3":null,"4":null,"5":null,"6":null,"7":null,"8":null,"9":null,"10":null,"11":null,"12":null,"13":null,"14":null,"15":null,"16":null,"17":null,"18":null,"19":null,"20":null,"21":null,"22":null,"23":null,"24":null,"25":null,"26":null,"27":null,"28":null,"29":null,"30":null,"31":null,"32":null,"33":null,"34":null,"35":null}},{"sx":1,"sy":1,"depth":36,"w":{"0":0.12832739160436357,"1":-0.17452647251436698,"2":-1.8888695328402998e+42,"3":-1.8888695328402998e+42,"4":-0.16534747457172763,"5":-0.17614362219402294,"6":-0.31703527865989845,"7":-9.444347664201499e+41,"8":-0.19415102201160672,"9":-0.475711331688274,"10":-0.45175268518280515,"11":-0.08964062110108245,"12":-9.444347664201499e+41,"13":-0.0053726749521613385,"14":-0.14111219698851696,"15":-0.2685342346764464,"16":-9.444347664201499e+41,"17":-0.1046306355491286,"18":-9.444347664201499e+41,"19":-1.8888695328402998e+42,"20":-9.444347664201499e+41,"21":-0.07795791000633905,"22":0.08473453312565668,"23":-0.2866749354189882,"24":0.20767627434587035,"25":-0.024141124015391133,"26":-0.6007534973174715,"27":-0.11491505113222036,"28":-0.3503296559776579,"29":0.14747430721471314,"30":-0.07118838486854717,"31":-0.32352756183338627,"32":-0.320641945566505,"33":-0.05662503833315883,"34":-7.555478131361199e+42,"35":-0.10868823936439785}},{"sx":1,"sy":1,"depth":36,"w":{"0":-3287654.792327006,"1":-3322677.9042077046,"2":-3682889.7795287645,"3":-6639571.370757739,"4":-1606764.6739678958,"5":-14111893.712357547,"6":-8493575.94557389,"7":-3331942.411840773,"8":-3282264.538449283,"9":-35973885.36215616,"10":-20155994.5433217,"11":-10730566.567656776,"12":-6800636.381973491,"13":-7144136.915626937,"14":-3696724.3378162873,"15":-3662372.608234017,"16":-3698704.9299574913,"17":-4927271.188677867,"18":-8753179.533965161,"19":-2134637.46021446,"20":-2661456.7611977616,"21":-20601006.51136961,"22":-6379017.4503509095,"23":-4540253.345395141,"24":-5110312.783623011,"25":-35738396.33791711,"26":-18048014.62741508,"27":-5157434.008511192,"28":-7083086.546419707,"29":-6267650.513046303,"30":-2408716.455573918,"31":-1381448.4912353207,"32":-1882910.1542971546,"33":-3217681.2988782465,"34":-3530355.044196194,"35":-1759049.9577248301}},{"sx":1,"sy":1,"depth":36,"w":{"0":-0.12830807633739902,"1":-0.07775934487494729,"2":-0.20458060103216089,"3":-0.4477740186420281,"4":-0.13850265291563635,"5":-0.6583732138489615,"6":-0.7396337721909134,"7":-0.47800821651826925,"8":-0.21909726068159313,"9":-1.2604846448839744,"10":-1.387851670234424,"11":-0.3654672075978686,"12":-0.2761663427263294,"13":-0.7277762562382303,"14":-0.018780935729842744,"15":0.16638445156671253,"16":-0.08380744738343833,"17":-0.387007651608572,"18":-0.4747241957470212,"19":-0.4806454284276741,"20":-0.02499844024161101,"21":-0.8962435388457322,"22":-0.8776740541751633,"23":0.04335238353445991,"24":-0.07298872123605632,"25":-0.18607150906444148,"26":-1.7070665014171487,"27":-0.01631770448119868,"28":-0.531100594873888,"29":-0.057073558134718365,"30":-0.3465836248610207,"31":-0.2625988633179428,"32":-0.14274081225168933,"33":-0.2562855045182203,"34":0.053098165688631224,"35":-0.2933657039920861}},{"sx":1,"sy":1,"depth":36,"w":{"0":null,"1":null,"2":null,"3":null,"4":null,"5":null,"6":null,"7":null,"8":null,"9":null,"10":null,"11":null,"12":null,"13":null,"14":null,"15":null,"16":null,"17":null,"18":null,"19":null,"20":null,"21":null,"22":null,"23":null,"24":null,"25":null,"26":null,"27":null,"28":null,"29":null,"30":null,"31":null,"32":null,"33":null,"34":null,"35":null}},{"sx":1,"sy":1,"depth":36,"w":{"0":-4480293.768990974,"1":-4769555.832678767,"2":-6552235.697307728,"3":-6568974.109392868,"4":-2048812.2533057982,"5":-12261647.170124894,"6":-21013697.358579203,"7":-4914433.407313511,"8":-6268106.285474149,"9":-44203332.99462323,"10":-30071931.147544064,"11":-11216743.002644828,"12":-7840261.734618492,"13":-5379699.64499115,"14":-3410488.945739466,"15":-3666346.838677139,"16":-4805303.0697048865,"17":-5113537.973418791,"18":-9586866.499945855,"19":-1762133.0034770544,"20":-2649676.4424240496,"21":-15953050.710698057,"22":-12127931.709352178,"23":-4740231.550656855,"24":-8300259.796407087,"25":-44310691.51822049,"26":-39132963.66862617,"27":-3116731.7122175815,"28":-8773445.837795699,"29":-8696742.642723626,"30":-2544404.5300264377,"31":-1700996.3781684285,"32":-2125740.1119078295,"33":-2358110.31712518,"34":-3572620.888221356,"35":-4405895.979031712}},{"sx":1,"sy":1,"depth":36,"w":{"0":-3.029959966017399e+42,"1":-3.029959966017399e+42,"2":-0.974609063446087,"3":-0.12270305258860147,"4":-1.2119839864069596e+43,"5":-0.2967838403462506,"6":-0.1540674924626129,"7":0.2749368950292924,"8":-4.847935945627839e+43,"9":-0.13725552986053757,"10":-0.4184141987412001,"11":-0.33784637694504455,"12":-1.2119839864069596e+43,"13":-0.1593977509604871,"14":-0.13455729812360834,"15":0.05762117898120889,"16":-3.029959966017399e+42,"17":0.06471005939231234,"18":-1.0584274843990567,"19":0.01224084714375641,"20":-1.2119839864069596e+43,"21":-0.3504109416753076,"22":-0.19885759111930776,"23":-0.2776502312356329,"24":-4.847935945627839e+43,"25":-0.782528130970598,"26":-0.4502225882280463,"27":-0.020521597606334773,"28":-6.059919932034798e+42,"29":-6.059919932034798e+42,"30":-0.23775873904302944,"31":-0.3016181457033869,"32":-2.4239679728139193e+43,"33":0.04500683820190253,"34":0.07146559581090546,"35":-0.3166725645419681}},{"sx":1,"sy":1,"depth":36,"w":{"0":null,"1":null,"2":null,"3":null,"4":null,"5":null,"6":null,"7":null,"8":null,"9":null,"10":null,"11":null,"12":null,"13":null,"14":null,"15":null,"16":null,"17":null,"18":null,"19":null,"20":null,"21":null,"22":null,"23":null,"24":null,"25":null,"26":null,"27":null,"28":null,"29":null,"30":null,"31":null,"32":null,"33":null,"34":null,"35":null}},{"sx":1,"sy":1,"depth":36,"w":{"0":null,"1":null,"2":null,"3":null,"4":null,"5":null,"6":null,"7":null,"8":null,"9":null,"10":null,"11":null,"12":null,"13":null,"14":null,"15":null,"16":null,"17":null,"18":null,"19":null,"20":null,"21":null,"22":null,"23":null,"24":null,"25":null,"26":null,"27":null,"28":null,"29":null,"30":null,"31":null,"32":null,"33":null,"34":null,"35":null}},{"sx":1,"sy":1,"depth":36,"w":{"0":null,"1":null,"2":null,"3":null,"4":null,"5":null,"6":null,"7":null,"8":null,"9":null,"10":null,"11":null,"12":null,"13":null,"14":null,"15":null,"16":null,"17":null,"18":null,"19":null,"20":null,"21":null,"22":null,"23":null,"24":null,"25":null,"26":null,"27":null,"28":null,"29":null,"30":null,"31":null,"32":null,"33":null,"34":null,"35":null}},{"sx":1,"sy":1,"depth":36,"w":{"0":-13427864.316684486,"1":-14923035.570618093,"2":-5405885.079365642,"3":-5289982.791837607,"4":-4754026.973364273,"5":-61537015.87237736,"6":-49881962.45935689,"7":-12313196.83031261,"8":-11539725.622297075,"9":-113731702.84404075,"10":-88056032.2498526,"11":-39038712.16421908,"12":-13542351.903445551,"13":-8876720.81018737,"14":-9707291.257384874,"15":-14062551.346389204,"16":-12084328.230313355,"17":-14824312.448105164,"18":-1292844.8188133438,"19":-6509083.383584085,"20":-6217344.228348212,"21":-82884625.80777203,"22":-39419788.055635996,"23":-12545640.468655229,"24":-11409312.124674669,"25":-118286334.17877465,"26":-106644239.44477423,"27":-2566467.194460494,"28":-17194978.738724153,"29":-18908260.638743304,"30":-8010590.005881983,"31":-4335979.211257843,"32":-10689612.645891411,"33":-6555758.840031838,"34":-8802438.401295958,"35":-7544965.860657935}},{"sx":1,"sy":1,"depth":36,"w":{"0":0.10980508038214298,"1":-0.0947811312655851,"2":-0.7208709796287532,"3":-0.22100593026043583,"4":-0.43075171066556317,"5":-0.7047501741695987,"6":-0.27759088210290517,"7":-0.08612207595946196,"8":-0.4507800997281473,"9":-1.178036401854246,"10":-1.7324608254687721,"11":-0.3383838521119788,"12":-0.4440566912981742,"13":-0.23876566767087373,"14":-0.10735949709940117,"15":-0.24686148604823324,"16":0.034384397854510564,"17":-0.03527729728129925,"18":-0.9393713013851726,"19":-0.2586330461400046,"20":-0.314672719383644,"21":-0.7957683090633707,"22":-0.8566755200382453,"23":-0.4093455808720756,"24":0.0655356813346838,"25":-0.5393356984828048,"26":-1.7423375565873522,"27":-0.06233488131528145,"28":-0.2857077339904689,"29":-0.3593871473332517,"30":-0.20666864375597943,"31":-0.04120854827523297,"32":-0.3853536587985927,"33":-0.005091547655469953,"34":-0.053160232492888794,"35":-0.44052677509240007}},{"sx":1,"sy":1,"depth":36,"w":{"0":-1921005.070882607,"1":-922932.455740997,"2":-2821181.840523337,"3":-652469.5847431347,"4":-184940.97322533882,"5":1243305.8195542542,"6":-5179254.641264518,"7":-1047011.8265705372,"8":-2093879.4172640229,"9":-24009310.23254871,"10":-454683.56064249296,"11":-6727558.256248967,"12":-3275615.021252621,"13":-2026014.9745647355,"14":-1418837.0106575568,"15":-2217138.5672218218,"16":-2157765.577868905,"17":-850584.2319597214,"18":-2027407.9221846084,"19":-583065.7248419037,"20":-590016.1338537236,"21":-2148209.771371623,"22":-3223859.3390923794,"23":-1989797.5700580915,"24":-3927086.5153034604,"25":-24025887.141633775,"26":-652875.2336114657,"27":-2518687.696699912,"28":-3527456.1128539075,"29":-3436073.752280952,"30":-1104902.4905292508,"31":-548865.083689922,"32":-920583.5181944515,"33":-1093110.8890684817,"34":-1025854.191310333,"35":-1077655.763131083}},{"sx":1,"sy":1,"depth":36,"w":{"0":null,"1":null,"2":null,"3":null,"4":null,"5":null,"6":null,"7":null,"8":null,"9":null,"10":null,"11":null,"12":null,"13":null,"14":null,"15":null,"16":null,"17":null,"18":null,"19":null,"20":null,"21":null,"22":null,"23":null,"24":null,"25":null,"26":null,"27":null,"28":null,"29":null,"30":null,"31":null,"32":null,"33":null,"34":null,"35":null}},{"sx":1,"sy":1,"depth":36,"w":{"0":null,"1":null,"2":null,"3":null,"4":null,"5":null,"6":null,"7":null,"8":null,"9":null,"10":null,"11":null,"12":null,"13":null,"14":null,"15":null,"16":null,"17":null,"18":null,"19":null,"20":null,"21":null,"22":null,"23":null,"24":null,"25":null,"26":null,"27":null,"28":null,"29":null,"30":null,"31":null,"32":null,"33":null,"34":null,"35":null}},{"sx":1,"sy":1,"depth":36,"w":{"0":-1581121.0311690688,"1":-1915187.3500226317,"2":-2306049.07157112,"3":-3418024.659159226,"4":-941225.5448976043,"5":-7288326.71779716,"6":-8807177.008826677,"7":-2072035.7503581296,"8":-2767490.220901692,"9":-12624809.044727894,"10":-15169130.656651422,"11":-1320248.5969341134,"12":-3015661.884685309,"13":-3165525.5940379812,"14":-1472281.5895976736,"15":-825226.7305859182,"16":-1843667.3904037634,"17":-2227898.538202943,"18":-4236466.335117886,"19":-775091.0936909863,"20":-1362916.9857052357,"21":-9969520.135541756,"22":-4979012.1893815445,"23":-1020199.644906263,"24":-3480464.487555407,"25":-10927100.21141901,"26":-19188105.02054575,"27":-331070.46640089306,"28":-3414772.711033698,"29":-2818883.74954352,"30":-757274.7330100145,"31":-765902.2287007002,"32":-913423.765356175,"33":-1005222.6612759583,"34":-1477550.3961009134,"35":-1871178.9840018987}},{"sx":1,"sy":1,"depth":36,"w":{"0":-974036.6499560723,"1":-8507.841999800885,"2":-2081287.0376882514,"3":-409998.18757489783,"4":-306579.82892258285,"5":-77829.41907906639,"6":-406530.52493738,"7":-685065.1154387469,"8":-2094959.210066635,"9":-11269745.619759832,"10":759358.3406443932,"11":-5752839.6963027995,"12":-897281.3616905019,"13":-2664309.409036101,"14":-1220872.2035141215,"15":-1636919.2661335608,"16":-1077894.3999229777,"17":-13149.025049153895,"18":-3605690.9241084093,"19":-956023.4056010995,"20":-664728.201501205,"21":-3091626.6280623544,"22":-260878.19679601787,"23":-1308987.3272970908,"24":-1830011.0705602155,"25":-12218400.870196756,"26":-309733.0913943944,"27":268987.75044358993,"28":-835404.0624455465,"29":-2493528.7957562767,"30":-734374.9135257114,"31":-315872.5285057998,"32":334083.49752683705,"33":-1764040.6537764445,"34":-290490.1729316062,"35":-724734.9883756558}},{"sx":1,"sy":1,"depth":36,"w":{"0":null,"1":null,"2":null,"3":null,"4":null,"5":null,"6":null,"7":null,"8":null,"9":null,"10":null,"11":null,"12":null,"13":null,"14":null,"15":null,"16":null,"17":null,"18":null,"19":null,"20":null,"21":null,"22":null,"23":null,"24":null,"25":null,"26":null,"27":null,"28":null,"29":null,"30":null,"31":null,"32":null,"33":null,"34":null,"35":null}},{"sx":1,"sy":1,"depth":36,"w":{"0":-2336608.4842697554,"1":-1851578.061477022,"2":-1751451.650186576,"3":-7007482.037004217,"4":-1826931.0569107188,"5":-10058245.72895571,"6":-16165870.402094135,"7":-3924688.880807268,"8":-3039310.879339729,"9":-6459993.50818234,"10":-35958826.17335063,"11":-2301359.147128047,"12":-3063133.7463190565,"13":-5370523.121150417,"14":-2279903.4498671605,"15":-897809.3590427386,"16":-2124445.6981393797,"17":-2320377.191808761,"18":-7861397.824859171,"19":-1260022.4234602584,"20":-2664381.677303709,"21":-13718489.357524555,"22":-7899546.07157751,"23":-1701216.5758317257,"24":-2110796.223966806,"25":-6306535.519480481,"26":-45217764.08988566,"27":164228.26076523404,"28":-3847982.939655115,"29":-3592743.554409102,"30":-1448847.6110320115,"31":-1246102.7438732751,"32":-827166.6969487837,"33":-1858606.3131574928,"34":-1508191.373427528,"35":-3641039.1415086896}},{"sx":1,"sy":1,"depth":36,"w":{"0":-137145.90217440153,"1":-1516961.3407154665,"2":-380123.9480116981,"3":-350557.18693246855,"4":-311825.15082713874,"5":-6980427.237966228,"6":-253678.58573472063,"7":-459868.04348034447,"8":-1043028.9349852212,"9":-1396947.2358327538,"10":-1083128.6647537448,"11":-431362.1456235502,"12":-230832.13267336853,"13":-1886463.6526311098,"14":-498353.3604113406,"15":-159949.02968880264,"16":-234699.77468538072,"17":-1691694.7092087497,"18":-1090863.9559633199,"19":-370669.31700997055,"20":-577412.8243348423,"21":-8417525.40295947,"22":-560612.4385067922,"23":-440060.24772090337,"24":-720928.4178278155,"25":-1352038.0449069918,"26":-357114.55049353885,"27":-428963.82320149994,"28":-185922.71477109077,"29":-323971.26558186393,"30":-133708.39378950922,"31":-160843.9801603418,"32":-224610.6680095062,"33":-364370.0596257214,"34":-647942.6838250833,"35":0.14648685743702897}},{"sx":1,"sy":1,"depth":36,"w":{"0":null,"1":null,"2":null,"3":null,"4":null,"5":null,"6":null,"7":null,"8":null,"9":null,"10":null,"11":null,"12":null,"13":null,"14":null,"15":null,"16":null,"17":null,"18":null,"19":null,"20":null,"21":null,"22":null,"23":null,"24":null,"25":null,"26":null,"27":null,"28":null,"29":null,"30":null,"31":null,"32":null,"33":null,"34":null,"35":null}},{"sx":1,"sy":1,"depth":36,"w":{"0":null,"1":null,"2":null,"3":null,"4":null,"5":null,"6":null,"7":null,"8":null,"9":null,"10":null,"11":null,"12":null,"13":null,"14":null,"15":null,"16":null,"17":null,"18":null,"19":null,"20":null,"21":null,"22":null,"23":null,"24":null,"25":null,"26":null,"27":null,"28":null,"29":null,"30":null,"31":null,"32":null,"33":null,"34":null,"35":null}},{"sx":1,"sy":1,"depth":36,"w":{"0":-3500930.726506809,"1":-4559023.749225369,"2":-5353152.16336038,"3":-6852877.640709491,"4":-1783745.2394444796,"5":-9110196.494706834,"6":-10484301.637994537,"7":-2575783.423660914,"8":-5542189.746024711,"9":-44634657.43255647,"10":-12193228.784623818,"11":-12816049.30565378,"12":-8498599.00030438,"13":-7807751.758744192,"14":-3575260.9208026207,"15":-4025173.09477097,"16":-3987366.315379288,"17":-4988910.005912879,"18":-10256993.826548323,"19":-2037947.856295291,"20":-2978523.594115223,"21":-16313418.429795647,"22":-7940738.880901181,"23":-4241781.384467958,"24":-7797058.732887579,"25":-44701977.10534278,"26":-11017193.4971024,"27":-6197400.6529914355,"28":-8652760.457597822,"29":-7421160.0754409,"30":-2379930.804306181,"31":-1420306.8168059397,"32":-1997657.6056587992,"33":-2643835.481241937,"34":-4019955.0123714493,"35":-1636546.8936126644}},{"sx":1,"sy":1,"depth":36,"w":{"0":null,"1":null,"2":null,"3":null,"4":null,"5":null,"6":null,"7":null,"8":null,"9":null,"10":null,"11":null,"12":null,"13":null,"14":null,"15":null,"16":null,"17":null,"18":null,"19":null,"20":null,"21":null,"22":null,"23":null,"24":null,"25":null,"26":null,"27":null,"28":null,"29":null,"30":null,"31":null,"32":null,"33":null,"34":null,"35":null}},{"sx":1,"sy":1,"depth":36,"w":{"0":-1093246.3505985548,"1":-1073969.8916233077,"2":-268492.6632777148,"3":-134246.46160924816,"4":-134246.48407916044,"5":-87287.84958429668,"6":-67123.23858791187,"7":-0.4507875466160068,"8":-107452.44356610368,"9":-0.6868223966424298,"10":-0.4906288577815973,"11":3084.880823999577,"12":-126728.74858253385,"13":3084.699862085714,"14":-36355.83652464839,"15":-33271.27846219606,"16":-536985.2336472679,"17":-1073970.2502710947,"18":-287768.91678003076,"19":-131161.567657817,"20":-557149.7801499031,"21":-67123.39513159086,"22":3084.4553701406862,"23":-0.1350371752185983,"24":-154410.79727968373,"25":-0.37205112060422424,"26":-1.1181971543945939,"27":3084.6467609470174,"28":-126728.7662301251,"29":-0.21721480132582005,"30":-87287.77943432968,"31":-36355.819844150756,"32":-0.2609557434393804,"33":-290847.9107230827,"34":0.11506419062428518,"35":-536984.9769012713}},{"sx":1,"sy":1,"depth":36,"w":{"0":-62789.139624562195,"1":-0.11959090883998891,"2":-0.1703361305681794,"3":-0.14050154843316107,"4":-15697.65414519147,"5":-0.28511105038982565,"6":-0.018616380786525798,"7":-0.1250345037771652,"8":-0.2954896752430686,"9":-0.21069420623470952,"10":-0.272411213104842,"11":-15697.554604649016,"12":-15697.430521747896,"13":0.1639453280750185,"14":-0.006986948988793347,"15":-0.15823503015671042,"16":-0.24481142291014127,"17":0.0986910305771334,"18":-31394.851418851973,"19":-31394.813971691798,"20":0.16268600382828846,"21":-0.40277837751978435,"22":-0.14252466869548297,"23":-15697.715065199405,"24":0.011386571593151994,"25":-0.02361328047967809,"26":-0.10510069585850529,"27":0.2173035478671185,"28":-15697.540530937273,"29":0.04190453469636787,"30":-0.3386715876964964,"31":-0.09742125360306339,"32":-125578.54039100873,"33":-0.14740731054692136,"34":0.10729999887946222,"35":-0.039391759938974806}},{"sx":1,"sy":1,"depth":36,"w":{"0":-409776.25044632866,"1":-314282.7451164181,"2":-90211.26089251989,"3":-541456.5541340925,"4":-289292.46473193826,"5":-1866691.5322141617,"6":-7939775.213764274,"7":-2521986.5309561077,"8":-2116824.645925159,"9":-11829464.766601799,"10":-9842557.20551254,"11":-4710553.55216304,"12":-430921.0848402328,"13":-904085.3513555648,"14":-1889350.6281208459,"15":-311331.8549966776,"16":-338824.97545809316,"17":-933429.054849416,"18":-57789.59955826191,"19":-641173.5713295325,"20":-493045.31580705044,"21":-838259.0122136538,"22":-577723.3690732986,"23":-3936717.0130784176,"24":-1942152.7353827422,"25":-12094116.494747756,"26":-17091268.17423135,"27":-2490047.1659985413,"28":-456746.9767419424,"29":-1476828.755457508,"30":-1000711.058826648,"31":-969023.3191632844,"32":-1041747.6569109457,"33":-1750489.8282954625,"34":-211518.69180097777,"35":-816672.564940357}},{"sx":1,"sy":1,"depth":36,"w":{"0":null,"1":null,"2":null,"3":null,"4":null,"5":null,"6":null,"7":null,"8":null,"9":null,"10":null,"11":null,"12":null,"13":null,"14":null,"15":null,"16":null,"17":null,"18":null,"19":null,"20":null,"21":null,"22":null,"23":null,"24":null,"25":null,"26":null,"27":null,"28":null,"29":null,"30":null,"31":null,"32":null,"33":null,"34":null,"35":null}},{"sx":1,"sy":1,"depth":36,"w":{"0":-0.3798763134931733,"1":-0.1851325919936432,"2":-1.0501191718643617,"3":-0.30533607660118167,"4":-0.39710986172551344,"5":-0.7382818488109687,"6":-0.6581159339395964,"7":-0.11214518324030241,"8":-0.2569200110046923,"9":-0.5654380626204027,"10":-2.0255280559772495,"11":-0.23816310130858448,"12":-0.3124455724678641,"13":-0.1444713816534215,"14":-0.14446273563004403,"15":-0.05457173794861925,"16":0.1090224228777492,"17":-0.14470008816025445,"18":-1.1332145142198116,"19":0.020513715190547854,"20":0.15608185177529446,"21":-0.7515773939662206,"22":-1.2596491850720712,"23":-0.23651139192668702,"24":-0.28831247711514296,"25":-0.6602611722501311,"26":-1.6020603932449367,"27":-0.24521149799879782,"28":-0.13736711916815286,"29":-0.25652550261778434,"30":-0.3283179662057275,"31":0.1238805689778116,"32":0.10414606748611986,"33":-0.16743480270543448,"34":-0.12575599174163965,"35":-0.07778479727965706}},{"sx":1,"sy":1,"depth":36,"w":{"0":-2.1156677802634728e+50,"1":-6.714970502804064e+50,"2":-9.891420153136239e+50,"3":-7.171891985882359e+50,"4":-6.4371694704647926e+50,"5":-8.609074123360132e+51,"6":-6.830146369260249e+50,"7":-1.5619823080231972e+51,"8":-5.309480593963719e+50,"9":-2.962690477339636e+51,"10":-2.499213922342255e+51,"11":-1.741102419619505e+51,"12":-3.6835779482241803e+49,"13":-2.2855581871735257e+50,"14":-1.2724852511597337e+51,"15":-1.6932577118923924e+51,"16":-4.806087954536305e+50,"17":-9.517612119979722e+50,"18":-7.467846250134125e+50,"19":-6.933059311641663e+50,"20":-5.444371958730454e+50,"21":-7.180003742612631e+51,"22":-4.832820173606806e+50,"23":-9.714079026974268e+50,"24":-5.201803883978678e+50,"25":-5.2763813659101174e+51,"26":-1.86182975046261e+51,"27":-1.2295564700826367e+51,"28":-3.513027962989874e+50,"29":-4.41162339796417e+50,"30":-1.4365676710315095e+51,"31":-1.570863055591012e+51,"32":-5.34226967399474e+50,"33":-5.986686958855232e+50,"34":-6.854684551506798e+50,"35":-4.044659388684982e+50}},{"sx":1,"sy":1,"depth":36,"w":{"0":null,"1":null,"2":null,"3":null,"4":null,"5":null,"6":null,"7":null,"8":null,"9":null,"10":null,"11":null,"12":null,"13":null,"14":null,"15":null,"16":null,"17":null,"18":null,"19":null,"20":null,"21":null,"22":null,"23":null,"24":null,"25":null,"26":null,"27":null,"28":null,"29":null,"30":null,"31":null,"32":null,"33":null,"34":null,"35":null}},{"sx":1,"sy":1,"depth":36,"w":{"0":-0.011919461464218819,"1":-0.178771076967576,"2":-0.9744206157828662,"3":-0.5192854155884781,"4":-0.23039028189307661,"5":-0.8863447182293867,"6":-0.906044950679132,"7":-0.29573079227325927,"8":-0.25249145087802144,"9":-1.5559611554307498,"10":-2.0668559730841607,"11":-0.1601120207698842,"12":-0.23458195594296027,"13":-0.5172894662124703,"14":0.11421743617097402,"15":-0.11629261564801845,"16":-0.19884972703165865,"17":-0.30816803733108483,"18":-1.076957039499722,"19":-0.3334080685054688,"20":-0.1256510767873083,"21":-0.906100123462818,"22":-1.0881773271366268,"23":-0.352994627589644,"24":0.08470457464742064,"25":-0.6021461272895522,"26":-1.2264074673260772,"27":-0.5531078380584481,"28":-0.44291167162689604,"29":0.11759109996171432,"30":-0.7866334802601682,"31":-0.2801881887671569,"32":0.009971723207522359,"33":-0.30637930666823115,"34":-0.06511632491086529,"35":0.11114605333144177}},{"sx":1,"sy":1,"depth":36,"w":{"0":-116658.25507001513,"1":-26296.92345393169,"2":-841499.2750355424,"3":-105187.35207258671,"4":-33905.18253648638,"5":-443509.6922588732,"6":-215413.16155236124,"7":-26296.874340233564,"8":-89392.377169702,"9":-1723306.8922772468,"10":-62671.08891725823,"11":-2582.11487824686,"12":-473874.44143164525,"13":-61506.0964010164,"14":-15980.045010225982,"15":-31010.642183964606,"16":-101301.41907172203,"17":-26297.005603204496,"18":-850334.1884450597,"19":-113072.78753835295,"20":-33730.026304830535,"21":-440903.86365911737,"22":-210374.9056539165,"23":-33917.48957565247,"24":-86986.00253689133,"25":-1723306.588491534,"26":-27660.912861453082,"27":-0.10260250879387282,"28":-473874.3524246812,"29":-56467.99341094802,"30":-39185.29890831704,"31":-7809.351080430798,"32":-67192.98203914693,"33":-48621.52066281079,"34":-0.34898779420667425,"35":-210374.81897243526}},{"sx":1,"sy":1,"depth":36,"w":{"0":null,"1":null,"2":null,"3":null,"4":null,"5":null,"6":null,"7":null,"8":null,"9":null,"10":null,"11":null,"12":null,"13":null,"14":null,"15":null,"16":null,"17":null,"18":null,"19":null,"20":null,"21":null,"22":null,"23":null,"24":null,"25":null,"26":null,"27":null,"28":null,"29":null,"30":null,"31":null,"32":null,"33":null,"34":null,"35":null}},{"sx":1,"sy":1,"depth":36,"w":{"0":-533604.8988475684,"1":-104544.63350977782,"2":-2188407.182477317,"3":-237438.93601720643,"4":-218055.50343102962,"5":-1498746.0771464845,"6":-644163.2464055497,"7":-478486.07922589796,"8":-712236.6316821936,"9":-12119994.38384582,"10":-386652.8699507066,"11":-3038033.096340351,"12":-1171510.0995166376,"13":-1258260.1645595264,"14":-819630.9189974994,"15":-367759.4974496746,"16":-517132.4478015712,"17":-257846.58891068,"18":-2375551.2868441357,"19":-749513.9612081178,"20":-145526.0327189993,"21":-1596224.9084132928,"22":-567925.9967710701,"23":-1614371.0086573442,"24":-671832.1988568893,"25":-12119994.403775334,"26":-162503.32045812812,"27":-1525551.2651394336,"28":-1140687.383773797,"29":-1104958.267524807,"30":-847580.7535200166,"31":-193089.08367015526,"32":48733.05451835263,"33":-1038102.7462070959,"34":-0.13004771538044382,"35":-687253.1355525984}},{"sx":1,"sy":1,"depth":36,"w":{"0":-39478.514682176225,"1":0.08226670068217977,"2":0.23660853449134595,"3":-0.06286470262863687,"4":-21768.688328575863,"5":-32769.09002330294,"6":-0.16144392538483768,"7":-0.04074836270626664,"8":-43537.96487703644,"9":-0.06957440727909205,"10":-0.38280261498902346,"11":-0.06116928917984646,"12":-104784.83663525467,"13":-21768.841379075726,"14":-83247.49628945085,"15":-17709.642199233374,"16":0.31124654302187993,"17":-0.27870880807090237,"18":-28710.054343911113,"19":-21768.913970397665,"20":-21768.976779873577,"21":-0.17974516637272087,"22":-0.6000509189205127,"23":-0.013473710439433403,"24":-43537.662421200504,"25":-0.3421952376959447,"26":-11000.475944379146,"27":-0.28630970675892065,"28":-104785.16639021398,"29":-21768.983378197267,"30":-43537.52622368074,"31":-17709.87385169215,"32":-174150.62372684106,"33":-229677.62531951262,"34":-0.2034976966310471,"35":0.031029547493068143}},{"sx":1,"sy":1,"depth":36,"w":{"0":null,"1":null,"2":null,"3":null,"4":null,"5":null,"6":null,"7":null,"8":null,"9":null,"10":null,"11":null,"12":null,"13":null,"14":null,"15":null,"16":null,"17":null,"18":null,"19":null,"20":null,"21":null,"22":null,"23":null,"24":null,"25":null,"26":null,"27":null,"28":null,"29":null,"30":null,"31":null,"32":null,"33":null,"34":null,"35":null}},{"sx":1,"sy":1,"depth":36,"w":{"0":null,"1":null,"2":null,"3":null,"4":null,"5":null,"6":null,"7":null,"8":null,"9":null,"10":null,"11":null,"12":null,"13":null,"14":null,"15":null,"16":null,"17":null,"18":null,"19":null,"20":null,"21":null,"22":null,"23":null,"24":null,"25":null,"26":null,"27":null,"28":null,"29":null,"30":null,"31":null,"32":null,"33":null,"34":null,"35":null}},{"sx":1,"sy":1,"depth":36,"w":{"0":-6.096124667564522e+51,"1":-7.673555835601052e+51,"2":-6.04208921797484e+52,"3":-8.633330998945648e+51,"4":-8.382830870308782e+51,"5":-1.0336704230781547e+53,"6":-1.7277642265229227e+52,"7":-1.555905150006791e+52,"8":-9.815407037923133e+51,"9":-8.9930372842944e+52,"10":-3.71572238250963e+52,"11":-2.1836346507097262e+52,"12":-1.529987569934486e+52,"13":-7.572549607067786e+51,"14":-1.3695448882743934e+52,"15":-1.9494618071531142e+52,"16":-8.614693892422447e+51,"17":-1.0291609409461205e+52,"18":-5.814608564306112e+52,"19":-1.1487682795758421e+52,"20":-7.42752036268714e+51,"21":-8.76329177673309e+52,"22":-1.6105770984451415e+52,"23":-1.239216290326545e+52,"24":-8.5456818007927e+51,"25":-1.11575854535023e+53,"26":-2.434086781480788e+52,"27":-2.2263057905657897e+52,"28":-1.8129711706335325e+52,"29":-8.375646173925691e+51,"30":-1.5193268179285934e+52,"31":-1.7062939520694585e+52,"32":-8.301368341958276e+51,"33":-1.4256576093528402e+52,"34":-6.742686827018245e+51,"35":-4.13484287185986e+51}},{"sx":1,"sy":1,"depth":36,"w":{"0":-8.605777375061785e+51,"1":-1.544174061560137e+51,"2":-1.1372470285022e+53,"3":-1.693444068861298e+52,"4":-1.298159462698095e+52,"5":-9.457499912111893e+52,"6":-2.737080757018749e+52,"7":-2.8476494487100233e+52,"8":-1.7501816297551683e+52,"9":-1.739179188631213e+53,"10":-6.952665704819877e+52,"11":-4.1582756717705497e+52,"12":-2.6838035214599596e+52,"13":-1.477110498629165e+52,"14":-2.6382994589048434e+52,"15":-3.745244893933317e+52,"16":-1.349093870976021e+52,"17":-6.502926688154533e+51,"18":-1.1096331589311659e+53,"19":-2.0871436089176604e+52,"20":-1.1066918724348226e+52,"21":-6.337468275596376e+52,"22":-2.5045328511197556e+52,"23":-2.405729452888356e+52,"24":-1.5006022910997874e+52,"25":-2.162383738956597e+53,"26":-4.530740202111757e+52,"27":-4.20809955102041e+52,"28":-3.225217791991317e+52,"29":-1.6409636182404034e+52,"30":-2.953513389136134e+52,"31":-3.267126858205257e+52,"32":-2.6964955036484234e+51,"33":-2.777567719296593e+52,"34":-1.2973133346972373e+52,"35":-8.178839657862646e+51}},{"sx":1,"sy":1,"depth":36,"w":{"0":null,"1":null,"2":null,"3":null,"4":null,"5":null,"6":null,"7":null,"8":null,"9":null,"10":null,"11":null,"12":null,"13":null,"14":null,"15":null,"16":null,"17":null,"18":null,"19":null,"20":null,"21":null,"22":null,"23":null,"24":null,"25":null,"26":null,"27":null,"28":null,"29":null,"30":null,"31":null,"32":null,"33":null,"34":null,"35":null}},{"sx":1,"sy":1,"depth":36,"w":{"0":null,"1":null,"2":null,"3":null,"4":null,"5":null,"6":null,"7":null,"8":null,"9":null,"10":null,"11":null,"12":null,"13":null,"14":null,"15":null,"16":null,"17":null,"18":null,"19":null,"20":null,"21":null,"22":null,"23":null,"24":null,"25":null,"26":null,"27":null,"28":null,"29":null,"30":null,"31":null,"32":null,"33":null,"34":null,"35":null}},{"sx":1,"sy":1,"depth":36,"w":{"0":null,"1":null,"2":null,"3":null,"4":null,"5":null,"6":null,"7":null,"8":null,"9":null,"10":null,"11":null,"12":null,"13":null,"14":null,"15":null,"16":null,"17":null,"18":null,"19":null,"20":null,"21":null,"22":null,"23":null,"24":null,"25":null,"26":null,"27":null,"28":null,"29":null,"30":null,"31":null,"32":null,"33":null,"34":null,"35":null}},{"sx":1,"sy":1,"depth":36,"w":{"0":-1509699.0694122717,"1":-876680.7665118825,"2":-2319294.481523552,"3":-192116.92112156283,"4":-43320.79528547748,"5":-161407.47021692898,"6":-475083.6180550997,"7":-289911.95373555325,"8":-2911538.087342884,"9":-0.3864938523961665,"10":-192117.34702546068,"11":-6036618.914090543,"12":-336705.21991406934,"13":-67085.39471642053,"14":13618.72654979883,"15":-3018309.4503494943,"16":-1509698.9700637404,"17":-94322.19564577358,"18":-754577.6208441204,"19":-94322.2733069808,"20":-231964.84117824372,"21":-377288.8081042043,"22":-94322.07910299671,"23":-0.08235663159927953,"24":-3005860.692180918,"25":-6036618.762653258,"26":-1564717.3897101255,"27":-97795.1001178994,"28":-336705.38887710846,"29":-3773431.0036413083,"30":-97795.05945597065,"31":-181971.11077067337,"32":108947.97110930599,"33":-0.275342801769443,"34":-754577.6006427192,"35":-782358.7987035693}},{"sx":1,"sy":1,"depth":36,"w":{"0":-39781.23061383477,"1":-0.060644668664489254,"2":-0.17346170565314015,"3":-0.39215254779919045,"4":-0.06628166803051956,"5":-0.15674761594058753,"6":-0.24183987175243968,"7":-0.017535774692095933,"8":-0.049266176748354755,"9":-0.40736028751035613,"10":-0.37723194351306355,"11":-0.12145920172496989,"12":-39781.3823789553,"13":-0.051958920582501816,"14":-39781.34772301311,"15":-39781.2287450461,"16":-0.17943619398486702,"17":-0.008961596956137517,"18":-39781.3945441287,"19":0.09089551611940112,"20":0.043256610073946634,"21":-0.23666005689914235,"22":-0.2841257444517901,"23":-0.14718403387397452,"24":-0.15602288934404132,"25":-0.2757434023663417,"26":-0.5383298205027862,"27":-0.2148051242892255,"28":-39781.37916748221,"29":0.14121781326028204,"30":-0.06470018943686462,"31":-39781.14264884508,"32":0.003670906033349635,"33":-318250.10267945076,"34":0.10125234231731406,"35":0.036518574147295715}},{"sx":1,"sy":1,"depth":36,"w":{"0":null,"1":null,"2":null,"3":null,"4":null,"5":null,"6":null,"7":null,"8":null,"9":null,"10":null,"11":null,"12":null,"13":null,"14":null,"15":null,"16":null,"17":null,"18":null,"19":null,"20":null,"21":null,"22":null,"23":null,"24":null,"25":null,"26":null,"27":null,"28":null,"29":null,"30":null,"31":null,"32":null,"33":null,"34":null,"35":null}},{"sx":1,"sy":1,"depth":36,"w":{"0":-303571.6094923203,"1":-133770.9021934557,"2":-370660.4064014268,"3":-55742.91837615453,"4":-33721.70241141751,"5":-27818.055445599228,"6":-200639.94035012543,"7":-60562.359659104644,"8":-429434.206853226,"9":-7382.036103184368,"10":-54347.11942499704,"11":-973171.6414292526,"12":-76931.24874468762,"13":-51096.450312504436,"14":-21609.64882241456,"15":-424251.96157621156,"16":-243914.91107301885,"17":-124514.02452848681,"18":-168815.4780187052,"19":-39011.63318657052,"20":-144482.18334000636,"21":-28127.666677116376,"22":-26642.177526640968,"23":-7080.261850588648,"24":-447490.91679860215,"25":-822767.2645575115,"26":-250178.86817734074,"27":-175424.14619723835,"28":-76931.41895209724,"29":-532700.9844433027,"30":-35945.42632234388,"31":-51114.89121121091,"32":-25060.599119571,"33":-65895.04709202812,"34":-148431.8804266565,"35":-137617.70977062784}},{"sx":1,"sy":1,"depth":36,"w":{"0":-3145627.4078250574,"1":-3345759.6260771733,"2":-3393468.2060960853,"3":-5997428.767977382,"4":-1693263.7936205594,"5":-13592116.363300696,"6":-15330304.08274923,"7":-3733218.064445692,"8":-5189913.502664972,"9":-26584172.179906297,"10":-26655311.215411864,"11":-7269627.106212652,"12":-5142400.365387078,"13":-5496862.792084253,"14":-3156871.5005201823,"15":-2966409.7710161484,"16":-3439498.00456247,"17":-4285788.37630014,"18":-6859088.964378874,"19":-1805167.8386819276,"20":-2321584.665267008,"21":-16671738.410261571,"22":-9491806.188302934,"23":-3043109.879962097,"24":-6261803.525678416,"25":-26468438.011691976,"26":-34011339.76346166,"27":-1390899.532623053,"28":-5668414.6192630455,"29":-6359208.021927417,"30":-2122025.7785316133,"31":-1450787.6348585405,"32":-1678343.9244706419,"33":-2342258.694453744,"34":-2570136.510182624,"35":-2999743.006368862}},{"sx":1,"sy":1,"depth":36,"w":{"0":-2674076.519703335,"1":-10753122.32697838,"2":-6042282.6360675115,"3":-2542960.973834705,"4":-1817284.219910993,"5":-42771924.222449884,"6":-4177148.505094179,"7":-3548009.0696621877,"8":-12466431.407446703,"9":-7784379.182837904,"10":-7130109.832083333,"11":-5480639.324172657,"12":-2461153.546331747,"13":-11591887.484281283,"14":-3181847.271809262,"15":-1269337.9399431057,"16":-3165916.3397806096,"17":-10443349.000839809,"18":-7117288.661921118,"19":-2479958.5708224215,"20":-4166749.331741005,"21":-51526319.08480519,"22":-3754758.2836414063,"23":-2795246.4283590806,"24":-10575790.924175175,"25":-7788140.705446715,"26":-5941731.647179182,"27":-5657763.237180688,"28":-2198737.641339243,"29":-4218041.704136066,"30":-1223820.1866991173,"31":-1690302.7603379549,"32":-1973114.3560761272,"33":-2671323.05755912,"34":-4579809.983622875,"35":-1731385.6348989583}},{"sx":1,"sy":1,"depth":36,"w":{"0":-9.767938323856864e+49,"1":-3.380719472560989e+50,"2":-1.1383150723779874e+50,"3":2.0487389916561736e+49,"4":-3.01746507096118e+50,"5":-3.4892195696040415e+51,"6":-2.0386970432137086e+50,"7":-8.386315210833746e+49,"8":-1.6465378968352105e+50,"9":-4.29457357687002e+50,"10":-3.872031015787623e+50,"11":-2.4725998550926387e+49,"12":-1.756078292076377e+50,"13":-1.9825921492819174e+49,"14":-3.2416424584811576e+50,"15":-6.394680328151796e+50,"16":-1.9792043670741915e+50,"17":-3.918841857119909e+50,"18":-6.675639604920585e+49,"19":-2.879966009241387e+49,"20":-1.9747425589957534e+50,"21":-3.5088837086636236e+51,"22":-3.846221096862302e+50,"23":-5.997915468904146e+49,"24":-1.6732888841581759e+50,"25":-3.4398068069424807e+50,"26":-2.280425625629049e+50,"27":-7.605265722378302e+48,"28":-1.756078292076377e+50,"29":-1.6762466652932765e+49,"30":-3.1316518713946875e+50,"31":-6.144064605579991e+50,"32":-3.823504435405211e+50,"33":-1.6458035020819527e+50,"34":-3.813496868587825e+49,"35":2.4507638719091287e+49}},{"sx":1,"sy":1,"depth":36,"w":{"0":-1423484.5397966823,"1":-175740.38510308514,"2":-1616807.2658385278,"3":-347070.68952211825,"4":-185139.37605370715,"5":-540931.2926129707,"6":-2207291.4997501937,"7":-439439.226399726,"8":-17828.979428278155,"9":-176018.44604922022,"10":-652815.9878475084,"11":-11894165.036208687,"12":-272611.38129442773,"13":-709676.802902852,"14":-219542.9030143814,"15":-5159559.798250481,"16":-1323295.4009642932,"17":-307581.0152881077,"18":-1813912.806388835,"19":-326228.8455579477,"20":-1080334.3843889618,"21":-1415784.7587129772,"22":-389278.88150150643,"23":-200591.41587836773,"24":-143803.17707422742,"25":-9937573.68619972,"26":-463011.89857844485,"27":-2096417.291737339,"28":-272611.38651292096,"29":-5477957.462879794,"30":-134807.39492418917,"31":-264267.98187481955,"32":-308618.5188974748,"33":-1199232.9898661117,"34":-1813645.0346397737,"35":55003.211822779806}},{"sx":1,"sy":1,"depth":36,"w":{"0":-92268.3969407095,"1":-0.06551922762432494,"2":-0.11094712595995068,"3":-0.19717703705747636,"4":-32120.304035671263,"5":-38825.323406345524,"6":-0.0269444435297293,"7":-0.02889730396632038,"8":-60978.838336318244,"9":-0.3239227331095977,"10":-0.0917411202847343,"11":-15571.247524584103,"12":-123083.32255394047,"13":-16549.58071343892,"14":-77145.39050793489,"15":-27375.55697293409,"16":-0.057383051377683486,"17":-0.05716002852531281,"18":-52912.89881762266,"19":-47691.39125924056,"20":-30489.69718149173,"21":-0.17632069412611182,"22":-0.23025168963929638,"23":-15571.214170494584,"24":-47038.907793883925,"25":-0.006754532500562182,"26":-8336.554762706726,"27":0.16968993981227554,"28":-123083.23132890275,"29":-16549.21118697616,"30":-47038.61076771364,"31":-27375.027893944498,"32":-256962.77964667435,"33":-285687.13157956576,"34":-0.2424177551955289,"35":-0.23180663321985837}},{"sx":1,"sy":1,"depth":36,"w":{"0":null,"1":null,"2":null,"3":null,"4":null,"5":null,"6":null,"7":null,"8":null,"9":null,"10":null,"11":null,"12":null,"13":null,"14":null,"15":null,"16":null,"17":null,"18":null,"19":null,"20":null,"21":null,"22":null,"23":null,"24":null,"25":null,"26":null,"27":null,"28":null,"29":null,"30":null,"31":null,"32":null,"33":null,"34":null,"35":null}},{"sx":1,"sy":1,"depth":36,"w":{"0":-0.1078326721329883,"1":-0.11839597576016604,"2":-1.598826133014557,"3":-0.35115049778968405,"4":-0.24958255429485754,"5":-0.8303653453259732,"6":-0.7186572328638662,"7":-0.22635056082625485,"8":-0.13052532686686397,"9":-0.5878377979624569,"10":-2.5811181832615984,"11":-0.44521969501130293,"12":0.040395042602155,"13":0.11837198877409365,"14":-0.23126135652491564,"15":-0.033587493442864706,"16":-0.20035642783350813,"17":-0.5327913160460335,"18":-1.9280241406919159,"19":-0.2950525322488476,"20":0.02423557877739389,"21":-0.8755762037224344,"22":-1.7975077388499623,"23":-0.42177013625295523,"24":-0.20962594019064046,"25":-0.8726093067061229,"26":-1.347772005572692,"27":-0.19235335821147548,"28":-0.18136344806011576,"29":-0.14577501628387765,"30":0.11141782626056951,"31":-0.13759016832793378,"32":-0.039854921952939944,"33":-0.27480440719615523,"34":-0.20532505599626596,"35":-0.43412130542665067}},{"sx":1,"sy":1,"depth":36,"w":{"0":null,"1":null,"2":null,"3":null,"4":null,"5":null,"6":null,"7":null,"8":null,"9":null,"10":null,"11":null,"12":null,"13":null,"14":null,"15":null,"16":null,"17":null,"18":null,"19":null,"20":null,"21":null,"22":null,"23":null,"24":null,"25":null,"26":null,"27":null,"28":null,"29":null,"30":null,"31":null,"32":null,"33":null,"34":null,"35":null}},{"sx":1,"sy":1,"depth":36,"w":{"0":-6.285032478614971e+50,"1":-1.1326261729219721e+50,"2":-8.278413606096438e+51,"3":-1.238945886691601e+51,"4":-9.486356351047349e+50,"5":-6.915044560547941e+51,"6":-2.0038437647718492e+51,"7":-2.0735187653822e+51,"8":-1.2764774336853099e+51,"9":-1.2690421016273598e+52,"10":-5.057064976000459e+51,"11":-3.0286440295422466e+51,"12":-1.9589893057121327e+51,"13":-1.0767266506224933e+51,"14":-1.918196495013376e+51,"15":-2.7231028238131688e+51,"16":-9.847991066175432e+50,"17":-4.72436756732331e+50,"18":-8.076026186562987e+51,"19":-1.526447092138809e+51,"20":-8.073695809226013e+50,"21":-4.6226347075290563e+51,"22":-1.830832050167836e+51,"23":-1.7526204250340987e+51,"24":-1.0936045204409706e+51,"25":-1.5785888234214877e+52,"26":-3.303607624544482e+51,"27":-3.061590353009947e+51,"28":-2.352595536966615e+51,"29":-1.1982181131992778e+51,"30":-2.1537039719441337e+51,"31":-2.374223153135957e+51,"32":-1.9653064859443762e+50,"33":-2.0240533991182884e+51,"34":-9.437119661569006e+50,"35":-6.010093886302694e+50}},{"sx":1,"sy":1,"depth":36,"w":{"0":-8436154.129821394,"1":-7269906.262691882,"2":-15958422.784848712,"3":-1760569.6221172544,"4":-1664600.2815787497,"5":-13920235.38064982,"6":-31434102.38618418,"7":-4174879.07612093,"8":-6059644.0712368395,"9":-125661605.64347744,"10":-9088002.535256792,"11":-35323672.03829577,"12":-21213531.679825287,"13":-9473642.760158211,"14":-5964660.750666479,"15":-10545940.633504253,"16":-7656597.712823015,"17":-8275363.714631588,"18":-16789530.584740486,"19":-4361612.674568927,"20":-2045351.437813941,"21":-14963306.040359134,"22":-29962904.77300416,"23":-11472644.157438064,"24":-6225240.990311994,"25":-140281633.58529407,"26":-7623237.748496417,"27":-10802653.591437073,"28":-21213531.535097573,"29":-15460477.412095657,"30":-6343559.924490194,"31":-2994110.252176501,"32":-7384134.392472795,"33":-5179507.637790567,"34":-1827503.5983726534,"35":-4441673.9886094155}},{"sx":1,"sy":1,"depth":36,"w":{"0":-0.28883490722845656,"1":-0.21042340706367219,"2":-0.3481481584064017,"3":-0.25267660328758834,"4":0.09484010589227942,"5":-0.6433863246836913,"6":-0.8261403412921345,"7":-0.7136999852103618,"8":-0.15789269529829522,"9":-1.6014434705775318,"10":-3.1928492722598327,"11":-0.29283890581361727,"12":-0.3122789549844992,"13":-0.8543830676721791,"14":-0.15326557735457116,"15":0.03254853660272485,"16":-0.021961585063180994,"17":-0.10378607706632526,"18":-0.3706221739608734,"19":-0.6557255097423363,"20":0.022372504337167805,"21":-0.5282438014974022,"22":-1.939281515554198,"23":-0.5129464633173654,"24":-0.3085480592434198,"25":-0.5059100335117469,"26":-3.066711544253396,"27":-0.18312814952375728,"28":-0.3086885970773498,"29":-0.5069527399754269,"30":-0.6296743499121368,"31":-0.11050888867142417,"32":-0.3037713677311709,"33":-0.16648466046962596,"34":-0.19011718455409643,"35":-0.3205041728097256}},{"sx":1,"sy":1,"depth":36,"w":{"0":-859316.7534851806,"1":-79601.11485869286,"2":-560278.2908972094,"3":-126288.92153746833,"4":-46009.481261341534,"5":-52670.21731071997,"6":-279961.5247494951,"7":-125569.0020513454,"8":10136.853219739221,"9":-19036.911823905393,"10":-111141.60080377189,"11":-3892254.253952656,"12":-41901.275546353514,"13":-295178.61787596124,"14":3816.3047172610645,"15":-1910028.1316436825,"16":-604990.1052093767,"17":-684466.1084002444,"18":-650311.1979935238,"19":-134408.42157202022,"20":-307605.4768820002,"21":133690.32083426963,"22":-58982.182094547476,"23":-89489.53637897126,"24":-63109.278574864446,"25":-3849587.502976013,"26":-38472.57899878804,"27":-50540.68204160596,"28":-41901.23474712085,"29":-1853420.6233606283,"30":17285.450412587685,"31":-8839.457127800273,"32":-89299.37743207358,"33":-272298.5378134142,"34":-478819.03457385075,"35":-112954.84932238783}},{"sx":1,"sy":1,"depth":36,"w":{"0":null,"1":null,"2":null,"3":null,"4":null,"5":null,"6":null,"7":null,"8":null,"9":null,"10":null,"11":null,"12":null,"13":null,"14":null,"15":null,"16":null,"17":null,"18":null,"19":null,"20":null,"21":null,"22":null,"23":null,"24":null,"25":null,"26":null,"27":null,"28":null,"29":null,"30":null,"31":null,"32":null,"33":null,"34":null,"35":null}},{"sx":1,"sy":1,"depth":36,"w":{"0":-27158.918956309783,"1":-92604.52338589486,"2":-22011.337631469774,"3":-36479.91605094594,"4":-22599.165956409113,"5":-850862.2651184051,"6":-53142.27184855965,"7":-15565.446220679247,"8":-12181.338943840823,"9":-40251.03315161556,"10":-83965.53463165002,"11":-9120.004996353504,"12":-33482.905847531336,"13":-5148.193386785116,"14":-37655.428554035636,"15":-18240.311730187717,"16":-22011.25214336159,"17":-92604.64081587733,"18":-11005.560898579126,"19":-48073.34656009923,"20":-27158.8966160281,"21":-850273.9696992828,"22":-53142.13172211562,"23":-4560.173990161646,"24":-12181.452113615935,"25":-40251.23153036168,"26":-83965.40071372128,"27":-9120.280720199125,"28":-28922.812902956353,"29":-5147.7778800158385,"30":-37655.69861713253,"31":-18239.961895125485,"32":-92747.79247855209,"33":-36480.16509559567,"34":0.05401695871787243,"35":-0.03165067901131021}},{"sx":1,"sy":1,"depth":36,"w":{"0":-0.0193753618137869,"1":0.19217203952364895,"2":-0.4429173160660579,"3":-0.1931608385699092,"4":-0.0005767588995147967,"5":-0.6078124219972475,"6":-0.18250016609140673,"7":-0.3653501468977693,"8":-0.42765186459262927,"9":-0.4338096428863051,"10":-0.9121633583629896,"11":-0.262822553549315,"12":0.0030225509578811877,"13":-0.043138744660851984,"14":-0.1858071561554722,"15":-0.08956706444488739,"16":-0.004025975565913799,"17":-0.24836192885202488,"18":-0.7543337307232096,"19":-0.19967194950272185,"20":0.07740126966977527,"21":-0.49709764784933586,"22":-0.5091053812265623,"23":0.012462086681142752,"24":-0.10893316343487927,"25":-0.21880565264475293,"26":-0.8059759051830504,"27":-0.32324830471992255,"28":-0.3189282042166498,"29":-0.16754599738999845,"30":-0.21942673965820017,"31":0.05457975975080368,"32":-0.18790364998150538,"33":-0.014294862505062308,"34":-0.23033050633280486,"35":-0.09740979403021247}},{"sx":1,"sy":1,"depth":36,"w":{"0":null,"1":null,"2":null,"3":null,"4":null,"5":null,"6":null,"7":null,"8":null,"9":null,"10":null,"11":null,"12":null,"13":null,"14":null,"15":null,"16":null,"17":null,"18":null,"19":null,"20":null,"21":null,"22":null,"23":null,"24":null,"25":null,"26":null,"27":null,"28":null,"29":null,"30":null,"31":null,"32":null,"33":null,"34":null,"35":null}},{"sx":1,"sy":1,"depth":36,"w":{"0":null,"1":null,"2":null,"3":null,"4":null,"5":null,"6":null,"7":null,"8":null,"9":null,"10":null,"11":null,"12":null,"13":null,"14":null,"15":null,"16":null,"17":null,"18":null,"19":null,"20":null,"21":null,"22":null,"23":null,"24":null,"25":null,"26":null,"27":null,"28":null,"29":null,"30":null,"31":null,"32":null,"33":null,"34":null,"35":null}},{"sx":1,"sy":1,"depth":36,"w":{"0":-1.3729259359681155e+50,"1":-3.6330733441959144e+50,"2":-1.664519070864438e+50,"3":-2.7593610116763967e+50,"4":-3.3195410531957e+50,"5":-4.609046524740931e+51,"6":-5.586303212066143e+50,"7":-2.7885733722367295e+50,"8":-1.7613878429081023e+50,"9":-1.6030144215580083e+49,"10":-7.2760711819924405e+50,"11":-4.782066495087321e+50,"12":-5.005672238767408e+49,"13":-5.367384248542797e+49,"14":-4.202635012212159e+50,"15":-8.576575056097043e+50,"16":-2.131594313957786e+50,"17":-3.819044500290009e+50,"18":-5.288058830458807e+49,"19":-3.123440648501132e+50,"20":-2.940085784006669e+50,"21":-3.6735054996952656e+51,"22":-2.678993252487318e+50,"23":-1.5647158098461089e+50,"24":-1.5296590818217188e+50,"25":-1.5589543608128837e+51,"26":-3.741378061472088e+50,"27":-1.940501520487676e+50,"28":-2.5879338262332707e+50,"29":-1.8897160779645325e+50,"30":-5.1217146061197734e+50,"31":-7.896036593628599e+50,"32":-3.4679184860504937e+50,"33":-1.8513041080852523e+50,"34":-1.344252744598499e+50,"35":-2.341322265425522e+50}},{"sx":1,"sy":1,"depth":36,"w":{"0":-2748249.428060842,"1":-2817365.2448876034,"2":-3191645.5217854152,"3":-346162.64914619934,"4":-254224.70791672834,"5":-78420.83363808993,"6":-250040.9170204624,"7":-355901.4664249592,"8":-5443251.938660823,"9":-0.2681431590972089,"10":-177950.85473238304,"11":4620.017562795589,"12":-789400.7588365161,"13":54594.64288164216,"14":-65646.24626298161,"15":-41926.80550084233,"16":-2014436.3787885592,"17":-1393760.120171315,"18":-391394.5076182244,"19":-163591.5702772098,"20":-813149.4745285737,"21":-88111.63085527201,"22":20641.73973927904,"23":0.08991177663173541,"24":-5501107.327089251,"25":8010.593154617891,"26":-2865248.983943875,"27":-173330.04128747794,"28":-789400.5985638815,"29":-1373631.500187962,"30":-296318.38285484375,"31":-385472.4758086575,"32":199896.7442582974,"33":-580765.3554825096,"34":-0.15788190143451028,"35":-2064410.8024156028}},{"sx":1,"sy":1,"depth":36,"w":{"0":-186849.31735947667,"1":-0.06645701984511816,"2":-0.09301588491644339,"3":-0.14177278226089676,"4":-46712.33372295433,"5":-0.5192929705853001,"6":-0.15216244643545243,"7":-0.08431731831387505,"8":-0.013580475696077388,"9":-0.6139005105480011,"10":-1.20651606770535,"11":-46712.37292272336,"12":-46712.43125451206,"13":-0.4240331390686807,"14":-0.09354634383060088,"15":-0.1485889501440336,"16":-0.007336041652380214,"17":-0.15884331136172097,"18":-93425.1193124898,"19":-93424.77514756453,"20":-0.10717243291241384,"21":-0.20830278242676376,"22":-0.25091448888497253,"23":-46712.43956673484,"24":-0.22474521363254343,"25":-0.2940199804356732,"26":-0.8098159598455471,"27":0.09447843852830037,"28":-46712.36973092509,"29":-0.07532906666188237,"30":-0.22581593613408196,"31":0.10630114260106868,"32":-373698.8213221977,"33":-0.03037316189609112,"34":-0.33097736687135687,"35":-0.5441889111172833}},{"sx":1,"sy":1,"depth":36,"w":{"0":-4.6167037513173724e+42,"1":-4.6167037513173724e+42,"2":-0.519635859212102,"3":-0.3260098121744144,"4":-1.846681500526949e+43,"5":-0.5704392493208598,"6":-0.0216269662570617,"7":0.10008157035525653,"8":-7.386726002107796e+43,"9":-1.0728665206336607,"10":-1.7370174091079924,"11":-0.43072373061662844,"12":-1.846681500526949e+43,"13":0.13434972374491716,"14":-0.3706369967941802,"15":-0.20561556165691972,"16":-4.6167037513173724e+42,"17":-0.16048814942402478,"18":-0.9757352947683813,"19":-0.17997519574014248,"20":-1.846681500526949e+43,"21":-0.728635592788608,"22":-0.6031358700623518,"23":-0.23689717251989353,"24":-7.386726002107796e+43,"25":-0.4537449339491624,"26":-1.3397059439926136,"27":-0.4240785251967188,"28":-9.233407502634745e+42,"29":-9.233407502634745e+42,"30":-0.33131784614058796,"31":-0.018351425627006025,"32":-3.693363001053898e+43,"33":-0.10378843756301813,"34":-0.18913817653327236,"35":-0.2445282822011005}},{"sx":1,"sy":1,"depth":36,"w":{"0":null,"1":null,"2":null,"3":null,"4":null,"5":null,"6":null,"7":null,"8":null,"9":null,"10":null,"11":null,"12":null,"13":null,"14":null,"15":null,"16":null,"17":null,"18":null,"19":null,"20":null,"21":null,"22":null,"23":null,"24":null,"25":null,"26":null,"27":null,"28":null,"29":null,"30":null,"31":null,"32":null,"33":null,"34":null,"35":null}},{"sx":1,"sy":1,"depth":36,"w":{"0":null,"1":null,"2":null,"3":null,"4":null,"5":null,"6":null,"7":null,"8":null,"9":null,"10":null,"11":null,"12":null,"13":null,"14":null,"15":null,"16":null,"17":null,"18":null,"19":null,"20":null,"21":null,"22":null,"23":null,"24":null,"25":null,"26":null,"27":null,"28":null,"29":null,"30":null,"31":null,"32":null,"33":null,"34":null,"35":null}},{"sx":1,"sy":1,"depth":36,"w":{"0":-0.1993030136080089,"1":-0.11800564603257316,"2":-1.2116295250551103,"3":-0.25955479368826895,"4":-0.10609008723343866,"5":-1.0071339795783734,"6":-0.6753226967717888,"7":0.019177662683840538,"8":-0.1819222755650362,"9":-1.8083242484108994,"10":-1.062115211823786,"11":-0.360077202146042,"12":-0.3888568678518782,"13":-0.627501023450899,"14":-0.30015783447842687,"15":-0.2139166088573327,"16":-0.20760744790712327,"17":-0.10687843550685895,"18":-1.253270623381859,"19":-0.0596068398374338,"20":-0.08610986711923627,"21":-1.2921190275517895,"22":-0.42874332876124027,"23":-0.2346674794598604,"24":-0.17916047244199337,"25":-0.6337384552778552,"26":-1.2577278558301184,"27":-0.12797962015560954,"28":-0.4674733694907714,"29":0.020938884077592458,"30":-0.5373136154346457,"31":-0.3420009030597226,"32":-0.16927937924214423,"33":0.015700794686784522,"34":-0.16164632889695257,"35":-0.13758521244173302}},{"sx":1,"sy":1,"depth":36,"w":{"0":0.0009729307724651934,"1":-0.2862434148629523,"2":-0.9345570818839063,"3":-0.13677115774282805,"4":-0.397850629918179,"5":-0.5719332538986696,"6":-0.44754948287100343,"7":-0.1584857765546142,"8":-0.0507102879666237,"9":-1.5199517344856432,"10":-0.7850039970489144,"11":-0.2211952595803621,"12":-0.11075978033975774,"13":-0.2550690391686012,"14":-0.1352460341594324,"15":-0.20253729879939186,"16":-0.21839075285013693,"17":-0.0721230124027335,"18":-1.1095430148142158,"19":0.04763022162279092,"20":-0.30992809851752273,"21":-1.1695565816697902,"22":-0.246213805870599,"23":-0.20795801794085167,"24":0.19008958099019208,"25":-0.35910517475278736,"26":-1.1191130752345164,"27":-0.1528261309966517,"28":-0.20144402168618047,"29":-0.3421734088964303,"30":-0.3618020616030171,"31":-0.27723540447725425,"32":0.016563282713559228,"33":-0.25381228501912584,"34":-0.3399877771303416,"35":0.05526708003832568}},{"sx":1,"sy":1,"depth":36,"w":{"0":0.15766013221457523,"1":-0.3863551253451671,"2":-1.073418022698497,"3":-0.3278739753511204,"4":-0.4219373285377146,"5":-0.4884298029565203,"6":-0.8168234172270543,"7":-0.09519599040325766,"8":-0.46445244798186136,"9":-1.392846534736727,"10":-0.6695828806954554,"11":-0.25463622376692846,"12":-0.20915511678845972,"13":-0.705467067764463,"14":-0.08761843630464516,"15":-0.058558837094538733,"16":0.19335242499561872,"17":-0.2941326467761585,"18":-1.2180556548229986,"19":-0.3421779251142107,"20":-0.30385558689515485,"21":-1.1370293327023018,"22":-0.10554396392748643,"23":-0.2880593047472513,"24":0.006600093220658721,"25":-0.47724597044734024,"26":-1.119200305950698,"27":-0.35997504208575104,"28":-0.10443542500632429,"29":0.20215854092576263,"30":-0.4022942232835329,"31":-0.0388883440862145,"32":-0.16370744226801737,"33":-0.15242280123096505,"34":-0.07186412608633184,"35":0.008463378245272208}},{"sx":1,"sy":1,"depth":36,"w":{"0":-0.2775991363801559,"1":-0.19128307960985114,"2":-0.25226982733759695,"3":-0.23686951860585803,"4":-0.10582329056459898,"5":-0.7994915678700413,"6":-0.8534144057710367,"7":-0.46660211874566526,"8":-0.30536198146213994,"9":-2.006926470888529,"10":-1.783916614192281,"11":-0.28740946742578477,"12":-0.35411770350483673,"13":-0.6178790105087513,"14":-0.0701821713475257,"15":-0.39030269665876116,"16":-0.19499612694585275,"17":0.09555785237938223,"18":-0.5002227788563385,"19":-0.6657122214964505,"20":-0.3668858030875866,"21":-1.1587544382205623,"22":-0.6180551826989361,"23":-0.45478037471561555,"24":-0.29218621569845,"25":-0.3145669364882321,"26":-2.776593215640273,"27":-0.23116984461325527,"28":-0.743760172212978,"29":0.04000414377196401,"30":-0.9598898878242815,"31":-0.009708247835917314,"32":-0.3569649455461878,"33":-0.20262474707335845,"34":-0.019278305713210236,"35":-0.3123914311008082}},{"sx":1,"sy":1,"depth":36,"w":{"0":-0.1803598930873539,"1":-0.03857506836906744,"2":-0.6257405063948862,"3":-0.028541325999114863,"4":-0.11517479419644994,"5":-0.49953371561191706,"6":-0.4858121002447463,"7":-0.3644549303219886,"8":-0.16385558793566526,"9":-0.8213365109584115,"10":-1.2106140429817713,"11":-0.3020085922293419,"12":-0.38094704932602896,"13":-0.1784188534638766,"14":0.030087481559373106,"15":-0.04912373475914315,"16":-0.32325468054006146,"17":-0.30508642574324274,"18":-0.608337239629777,"19":-0.24188908572537923,"20":0.11245422984277435,"21":-0.541767488263898,"22":-0.41725429991636476,"23":-0.23713410205275748,"24":-0.22661047108505028,"25":-0.30289085924321724,"26":-1.044870954248543,"27":-0.015751209314751356,"28":-0.11886160634400574,"29":-0.200091644382253,"30":-0.41429288559687805,"31":-0.09997993446225915,"32":-0.1859871666847735,"33":-0.1161665800610998,"34":-0.16489800975823052,"35":-0.37962249796048214}},{"sx":1,"sy":1,"depth":36,"w":{"0":-55378.489145527994,"1":-0.23762241829554345,"2":-0.15111603570965154,"3":0.04544553190896117,"4":-22589.226266754493,"5":-11659.805434423655,"6":0.014941951148389572,"7":-0.009965898196848871,"8":-23319.150842448216,"9":-0.18865110240708363,"10":-0.23431684777972733,"11":-10929.642848970565,"12":-57567.91152476287,"13":-11659.600896012187,"14":-23318.89926339997,"15":-0.04970708863749321,"16":-0.15997933912720738,"17":0.012289155190860495,"18":-21859.822511617975,"19":-33518.97064836484,"20":-11659.582572570793,"21":-0.003426827146998698,"22":-0.3638852995655647,"23":-10929.928360064498,"24":-23318.932047400966,"25":-0.1638021733744975,"26":-0.4740461112576957,"27":-0.13692571076037935,"28":-57567.699673600815,"29":-11659.484317582035,"30":-23318.96928904954,"31":0.028048153584976965,"32":-180713.99256040785,"33":-0.18918752274692877,"34":-0.23850568162397245,