{"layers":[{"out_depth":36,"out_sx":1,"out_sy":1,"layer_type":"input"},{"out_depth":64,"out_sx":1,"out_sy":1,"layer_type":"fc","num_inputs":36,"l1_decay_mul":0,"l2_decay_mul":1,"filters":[{"sx":1,"sy":1,"depth":36,"w":{"0":0.022472002152584977,"1":-0.04087852066010415,"2":-0.20815149146869277,"3":-0.1054894287429483,"4":-0.05539320663901609,"5":-0.26430310014726227,"6":-0.6005146943591858,"7":-0.3856651782745221,"8":0.5455915364091721,"9":-0.5678766690057537,"10":-0.1284076232722271,"11":-0.08489455854608724,"12":0.06275374394526176,"13":-0.17986454503956106,"14":-0.023168900341625918,"15":-0.04169640928022085,"16":0.04680597228220127,"17":0.1641582971289179,"18":0.10988670000930503,"19":0.000867805007995623,"20":-0.01364801577855429,"21":0.2939172126837157,"22":0.2244878152760486,"23":0.023281638964286172,"24":0.1044308457583955,"25":-0.25736496956576616,"26":-0.006064908111027109,"27":-0.23936946482304763,"28":-0.060237986575716,"29":-0.18021156375133288,"30":-0.16200751624429152,"31":-0.19481085584695193,"32":0.4525229938377681,"33":0.3210945256796159,"34":-0.1545743847295213,"35":0.4016221977152559}},{"sx":1,"sy":1,"depth":36,"w":{"0":-0.15750090549381957,"1":0.26319430881514466,"2":-0.0306611373561422,"3":-0.14198646462530945,"4":-0.13486465781556475,"5":0.05228998121738772,"6":-0.09810249048656804,"7":-0.01694824245808726,"8":0.04389065022855733,"9":0.033535342231803635,"10":0.2536702354791683,"11":-0.37891828569724206,"12":-0.21323203557452755,"13":-0.19461823842444212,"14":-0.17475374642677716,"15":0.16873150118548716,"16":-0.05017319185580029,"17":0.19127521021392496,"18":-0.05681001007423971,"19":-0.17766508837954173,"20":0.11689236912921892,"21":0.2819066322367641,"22":-0.2755104754690603,"23":-0.3617178803569036,"24":-0.13625127949162733,"25":-0.0773690485749234,"26":-0.0010088011298763598,"27":0.04958866769425125,"28":-0.26719636963835647,"29":0.0044811745130174,"30":-0.11503100684251831,"31":0.037435022684172356,"32":0.9951422034999926,"33":-0.18287872608928582,"34":0.19567700916316164,"35":0.35084831088864327}},{"sx":1,"sy":1,"depth":36,"w":{"0":-0.2741141296669649,"1":0.1401774485321586,"2":-0.22622042891801722,"3":0.3435910731271875,"4":-0.3751739510022105,"5":0.14600190067635077,"6":-0.20148026031057545,"7":0.15887553270846713,"8":-0.11326489413949091,"9":-0.565948427635935,"10":-0.4372037176573289,"11":0.10101151403697942,"12":-0.0092983212846916,"13":0.2207249222025837,"14":-0.015357129593286733,"15":-0.20572218961623312,"16":0.1342334017825737,"17":0.1544915505458627,"18":-0.3403174186804288,"19":-0.043272484632544524,"20":0.034277719589688845,"21":0.1559682095024773,"22":-0.9505761017853182,"23":0.18590386000543124,"24":0.5409411278555315,"25":0.21592960405371323,"26":0.2074048053621466,"27":-0.290090099381905,"28":0.07329968298989448,"29":0.1371148449105418,"30":-0.1896992433585438,"31":0.06567565299389566,"32":0.17120606490791487,"33":0.03585549405368298,"34":-0.1661201012762658,"35":-0.0396032869838589}},{"sx":1,"sy":1,"depth":36,"w":{"0":0.1262234674445887,"1":-0.23209844371992133,"2":0.4225203880982857,"3":-0.02282430874877363,"4":-0.20614650926046935,"5":-0.3438094117016678,"6":-0.00598275890759663,"7":0.5511772787506983,"8":-0.10303944731630735,"9":0.08051610918474786,"10":0.053004111814275806,"11":0.0827310932858647,"12":0.3798015006984102,"13":-0.18599998202262763,"14":0.35492909997975797,"15":0.02383457013563475,"16":0.42656575496997673,"17":0.12649362699172392,"18":0.28988715771821905,"19":-0.005504298867343504,"20":-0.011580594916425106,"21":0.06523208746448483,"22":0.18441488924845978,"23":-0.21840788339182116,"24":0.2334184266283381,"25":-0.18482129077642023,"26":-0.163019753967732,"27":0.03221204721559998,"28":0.27127153933346176,"29":0.002463036637527343,"30":-0.24483210596906405,"31":-0.12577189097371497,"32":-0.36937964062744527,"33":0.40003574286626536,"34":-0.8480082348569281,"35":0.01722412575318141}},{"sx":1,"sy":1,"depth":36,"w":{"0":-0.021401391647460702,"1":-0.23289300274290098,"2":0.1479781033478751,"3":0.13989463958049594,"4":0.1450036763363377,"5":0.2013693298972837,"6":0.15325145537625917,"7":0.10052114383653545,"8":0.2116675368254666,"9":-0.46097094534246996,"10":0.22587300505023913,"11":-0.16108787002907765,"12":-0.21635542408880937,"13":0.06724553606064929,"14":0.30677783583393436,"15":-0.10348450206704381,"16":0.14043631558792954,"17":-0.1780512993091992,"18":-0.19043698806346562,"19":0.12525048156765528,"20":0.0018935240249318805,"21":-0.25224526440089345,"22":-0.038584087095018746,"23":-0.08046659359165888,"24":-0.30173967516394906,"25":0.299368746443966,"26":0.04637497379914753,"27":-0.1878547685027414,"28":-0.17027494448465158,"29":-0.056219994730020824,"30":0.04494103274446426,"31":-0.7187451798703205,"32":0.38625197761304236,"33":0.06419098793439734,"34":0.6378052806617948,"35":-0.041941578638729965}},{"sx":1,"sy":1,"depth":36,"w":{"0":0.17821726057063644,"1":-0.10776548870183394,"2":0.22491528466908522,"3":0.1699540415166034,"4":0.4656854689704317,"5":-0.05547074973637647,"6":0.015912980152186652,"7":0.11031529043522889,"8":0.31537987230143777,"9":0.11304809483211858,"10":-0.013144489636951614,"11":-0.1063845414858189,"12":-0.05966024512274977,"13":0.01239648569330686,"14":-0.07607307275312124,"15":0.015905564026563908,"16":0.036010737595963356,"17":-0.013576401439972524,"18":0.14602493875550757,"19":0.07614041350526037,"20":0.0731059784172616,"21":-0.015017644471428043,"22":-0.04849120334656642,"23":0.004744457870340667,"24":0.13362323016769095,"25":-0.08698530476928125,"26":-0.059769349137690476,"27":-0.21551770341877668,"28":0.014522977777344428,"29":0.07582870087474382,"30":0.15899839269790542,"31":0.005608151426113966,"32":0.9909424709987668,"33":0.21326312718507118,"34":1.366142949962244,"35":0.27545652469119347}},{"sx":1,"sy":1,"depth":36,"w":{"0":-0.13732054693167295,"1":0.29033318272673236,"2":-0.03313802751043955,"3":0.4883432919370394,"4":0.1999458829249505,"5":-0.21387449238360928,"6":0.19478504923479228,"7":-0.013229403934824729,"8":-0.3207770604374757,"9":0.13917380311828761,"10":0.08091945726188636,"11":0.11623841846085049,"12":-0.3766077965526058,"13":0.3666812912050353,"14":-0.04934059451842855,"15":0.11670148543326132,"16":-0.20784167849877797,"17":0.23647066633256714,"18":0.18797879371395534,"19":-0.16646957720769665,"20":0.11892334019229793,"21":-0.2130185287488916,"22":-0.026273574908835515,"23":0.03522523216429067,"24":-0.26117783398710936,"25":-0.32446268316336485,"26":-0.059895896774593754,"27":-0.08668767517191171,"28":0.0960298243760181,"29":-0.11522685609424979,"30":0.07820091223588108,"31":-0.08304791530853196,"32":0.7451663905974533,"33":-0.5709608388269313,"34":-0.3075227711263271,"35":-0.42965753079645796}},{"sx":1,"sy":1,"depth":36,"w":{"0":-0.2935044292211126,"1":0.5194900701864558,"2":0.13107543426627458,"3":0.04062992581417282,"4":-0.0448914425828108,"5":0.2031401826889616,"6":-0.06980273644088235,"7":0.11641749426466426,"8":-0.21911736951650138,"9":-0.08466114643731229,"10":0.0029094270189481903,"11":0.29210747389276903,"12":-0.09222845892825844,"13":0.34670166789090245,"14":-0.14462419363472173,"15":0.19373816127693674,"16":0.10744464138824451,"17":-0.0867702992896717,"18":0.18366081995437283,"19":-0.17997192643373527,"20":-0.01587415991661088,"21":0.03688957645686185,"22":-0.08783483850535657,"23":-0.36415006552078066,"24":-0.09958661170389323,"25":-0.08388724484653744,"26":0.0650606364029175,"27":0.28161458008100126,"28":-0.022040752812792698,"29":0.22834499601583427,"30":0.09666546956543776,"31":0.14066501021724903,"32":0.5651562506337743,"33":-0.09828501435232757,"34":0.0975849896917587,"35":0.276473322064921}},{"sx":1,"sy":1,"depth":36,"w":{"0":-0.21254799589500048,"1":0.025083751764454893,"2":-0.007656514850104949,"3":0.18396453778721217,"4":-0.09622911266242636,"5":0.09103486809756378,"6":-0.09169682078266186,"7":-0.24482311877057783,"8":-0.40295301362858305,"9":0.5353248711973149,"10":0.2204707431032538,"11":-0.1636489442018248,"12":-0.4682530677429767,"13":-0.5336394618301935,"14":0.0649128402781593,"15":-0.4593051351433964,"16":-0.10061212464072866,"17":0.05372876314073607,"18":-0.043855107703774474,"19":-0.03591088776247209,"20":0.265721194881245,"21":0.31212385976010437,"22":0.13159321887139813,"23":-0.47607255938763704,"24":-0.055850530785298384,"25":-0.16196089763832527,"26":-0.008954529767244004,"27":-0.04938326877071196,"28":-0.14106435883748372,"29":-0.6164266793115774,"30":-0.47680108666553334,"31":-0.4561661710799854,"32":0.4400307358035921,"33":-0.14397024734321062,"34":0.6812601174871402,"35":0.21769068331511499}},{"sx":1,"sy":1,"depth":36,"w":{"0":-0.04651272794283994,"1":0.16140906392817767,"2":-0.022523517646683908,"3":-0.36115002320001777,"4":0.11383205070512188,"5":-0.07695615751421649,"6":0.06437590178537064,"7":-0.10821845787525376,"8":-0.2889924610499544,"9":0.4302191105444999,"10":-0.18878318166472485,"11":-0.6267116150376361,"12":0.3945563767148706,"13":-0.39098977177583466,"14":-0.040463971982703045,"15":-0.045007360328217554,"16":0.019001439550791522,"17":0.03791361048281404,"18":0.18288637686303874,"19":0.030911556944218994,"20":-0.04904370672426083,"21":-0.06494803029778191,"22":-0.22763123985030886,"23":-0.06435361993086654,"24":-0.14071607979438358,"25":-0.40447847139611154,"26":-0.0033511548447555484,"27":0.06931405329139029,"28":0.13582416903548278,"29":-0.03763743527174283,"30":-0.20090313257481118,"31":0.12100327890735788,"32":0.008722260910800169,"33":0.3369978630794358,"34":-0.3723492171531236,"35":0.13319302135096542}},{"sx":1,"sy":1,"depth":36,"w":{"0":-0.18663127601307458,"1":-0.14539026979172448,"2":-0.01121755977293514,"3":-0.4415059155537976,"4":0.12024449480741414,"5":-0.04766864404421773,"6":-0.9838896503463979,"7":0.15094893165541637,"8":-0.07757619514520812,"9":-0.24308272789865457,"10":0.5331782090945931,"11":0.020901645723940637,"12":-0.1353955268437929,"13":-0.01633844403429739,"14":-0.2775445899239482,"15":0.08665388173784302,"16":0.0032321653248435916,"17":0.2986081303142756,"18":0.2966485902416364,"19":0.2730390556987359,"20":-0.1798791476580279,"21":-0.002859672337378147,"22":-0.5740710790487824,"23":-0.19914571430222275,"24":0.09680615816286857,"25":0.03184944691319928,"26":0.08178592998822143,"27":-0.06559711754678385,"28":-0.10413762091098004,"29":0.18219360469211632,"30":-0.2071206521443228,"31":-0.19495993723104907,"32":0.4006661831514313,"33":0.21208969367713887,"34":0.4465865171406706,"35":0.36246766282110227}},{"sx":1,"sy":1,"depth":36,"w":{"0":0.05200934435555728,"1":0.23394613684401067,"2":0.2754719493072931,"3":0.08615466653762127,"4":0.19003720126080764,"5":-0.044021793084841505,"6":-0.195656665197359,"7":-0.11565757756703007,"8":-0.09046044882480389,"9":0.06440788028656745,"10":-0.10246469073342057,"11":-0.04022074730041202,"12":0.00746671698936274,"13":-0.0006787289513243142,"14":-0.02604395324814658,"15":0.010576431688642158,"16":0.08421761211297808,"17":0.08990129182737736,"18":-0.06416961170502276,"19":0.08510788111198982,"20":0.2709335254111479,"21":0.2101612581374371,"22":0.17381231107616535,"23":0.20396592121952703,"24":0.20796587424663776,"25":0.28211239402177496,"26":0.254462874729271,"27":0.11450144503228106,"28":0.45734734021971973,"29":0.1419407976276346,"30":0.27103880432444644,"31":0.25228583680095995,"32":-1.2541177821146612,"33":-1.3775035445012103,"34":-1.2647129641838362,"35":-1.2654708406616673}},{"sx":1,"sy":1,"depth":36,"w":{"0":0.1290262353575226,"1":-0.06812711820756516,"2":0.27993670433790496,"3":0.07996489393914959,"4":-0.10561718200425042,"5":0.16919285241405135,"6":-0.07253532866428994,"7":-0.06453527431111368,"8":0.02707709365005807,"9":0.1872259853407727,"10":-0.041089227583432614,"11":0.1725779092700926,"12":0.25280487703093113,"13":-0.18012339232524147,"14":0.1933241691302917,"15":0.17336267834719188,"16":0.10545028115549286,"17":0.045461081467181905,"18":0.027627117394021208,"19":-0.3555634444099396,"20":-0.1636201418787519,"21":-0.1429142217512102,"22":0.041179231641501016,"23":-0.05652207732358129,"24":-0.13961918625495492,"25":-0.05515803341629479,"26":-0.1756395481815183,"27":-0.0935549304128496,"28":0.16606121285189546,"29":-0.5594803068408326,"30":0.17231570982986455,"31":0.10869935729150618,"32":0.3762710569734415,"33":0.6512513199528482,"34":1.199655674660439,"35":0.06301669613645461}},{"sx":1,"sy":1,"depth":36,"w":{"0":0.29530017299517664,"1":-0.0769476976390971,"2":0.13705130139019847,"3":-0.22569203191660656,"4":0.02437477428244728,"5":-0.15561823297658844,"6":-0.21192713741701547,"7":0.0940634947815808,"8":0.03358213512988453,"9":-0.7765746409674754,"10":-0.37279659599066295,"11":-0.46800489667601824,"12":0.2084923703407861,"13":-0.059400581061378625,"14":0.13375576582887555,"15":-0.08080829804948136,"16":-0.30277371078110127,"17":-0.05695922023595515,"18":0.017247185643076677,"19":0.027091341583712125,"20":0.08465481755838734,"21":-0.22409231849533437,"22":0.1051058021112833,"23":0.05529836620209681,"24":-0.2839835798269702,"25":-0.35490405774218325,"26":0.1601582872618718,"27":-0.19379782398847087,"28":0.45584565347081046,"29":0.35075781176227283,"30":0.48016754661899436,"31":-0.04409867917051613,"32":0.5646347157140525,"33":0.31977440276530944,"34":0.23068815199968168,"35":0.005315877448184922}},{"sx":1,"sy":1,"depth":36,"w":{"0":0.12292556232640821,"1":-0.2123288618141439,"2":-0.15130797181900432,"3":0.3491462384566602,"4":0.041122413148000046,"5":-0.08199924230491859,"6":0.11246381147915177,"7":-0.04109379881831808,"8":0.02485704048665426,"9":-0.4861586517429185,"10":0.3045364278682675,"11":-0.09474530463898133,"12":-0.1251088577585446,"13":0.24721393012172224,"14":0.31582524237557097,"15":-0.09674355752426093,"16":0.11215280852774395,"17":-0.2102684251163378,"18":-0.18858976462074928,"19":0.21602576121792355,"20":0.1286969716588042,"21":-0.514173148448045,"22":0.09139091577157336,"23":-0.17900309027456013,"24":0.03792044231386988,"25":0.019263101351064713,"26":0.09477502343769448,"27":-0.276593267432477,"28":-0.16572020986649785,"29":-0.09679084993417363,"30":-0.35232540134664614,"31":0.2864830004537844,"32":0.12781215799309134,"33":0.4594500323345911,"34":-0.5176813413674166,"35":0.7904365795217267}},{"sx":1,"sy":1,"depth":36,"w":{"0":0.34753877776460673,"1":0.004401146548107825,"2":0.36157047397041525,"3":0.23506854095694074,"4":-0.4475128769210011,"5":0.133947870030734,"6":-0.6519145258150317,"7":-0.5001598723766294,"8":0.5287584090588152,"9":0.04113016115183857,"10":-0.11339661234605869,"11":-0.13875549164694848,"12":0.11929376670835153,"13":0.26565562018370537,"14":0.27303693802771417,"15":-0.045317557837630223,"16":0.011287807200189634,"17":-0.20204027618358714,"18":-0.22646528686973127,"19":-0.1410293886113796,"20":-0.08451004774144956,"21":-0.07762527045773188,"22":0.13076918099941845,"23":-0.09394991083352786,"24":0.38200192498091057,"25":0.04877634156345495,"26":0.1374567631332719,"27":-0.12433005337891782,"28":0.14035706653580102,"29":-0.07212466712480081,"30":0.004069645215590699,"31":0.20554963364692105,"32":0.5111463251398825,"33":0.28901310416949305,"34":-0.05518974850025622,"35":0.4280063806370818}},{"sx":1,"sy":1,"depth":36,"w":{"0":-0.016480799595540684,"1":-0.44094686351750967,"2":-0.14078403155360536,"3":0.003942495827240496,"4":0.2709464454609854,"5":0.16275717690040245,"6":-0.030666782324892224,"7":0.1907357168422815,"8":-0.4113558644813419,"9":-0.31201624497870933,"10":0.08321421413066157,"11":0.09029073161890247,"12":-0.3461622641718375,"13":-0.6974934654002709,"14":0.024675695220252206,"15":0.16965313693473658,"16":-0.18688180396398868,"17":-0.41094479130110906,"18":-0.09510817126692103,"19":-0.2728752944299733,"20":-0.17915616474931081,"21":0.24332143131749287,"22":0.046646238458329985,"23":0.09732789893343273,"24":-0.22799123876764193,"25":0.17890180493318578,"26":-0.12197171469973593,"27":0.05608191201909068,"28":0.2339313788619873,"29":-0.6223526449089171,"30":0.3393638644770586,"31":0.1998186590096917,"32":0.08684321610942015,"33":-0.044621186875091826,"34":0.38975510144874115,"35":0.5303298681763677}},{"sx":1,"sy":1,"depth":36,"w":{"0":-0.07206301330759388,"1":0.007046567643925255,"2":-0.02728930333209116,"3":0.15656115882041355,"4":-0.32038885784113186,"5":-0.11369776970666876,"6":-0.011684483844555041,"7":-0.26991098621603027,"8":-0.10172600097401432,"9":0.25889472777317907,"10":-0.5548350388070196,"11":-0.15609927560158068,"12":-0.33074772812076975,"13":0.15347628990790468,"14":-0.21062448542971499,"15":0.28892115304932997,"16":0.32212730754015206,"17":0.10614909982317551,"18":0.3328559058659507,"19":0.3045165305574221,"20":0.08611578665476895,"21":0.008200035966505814,"22":0.2521910132235859,"23":-0.24441701873569072,"24":0.21969737430489963,"25":-0.08745730384456016,"26":-0.10686085845035562,"27":0.3953437762822459,"28":-0.23908934420107034,"29":-0.0825706392238431,"30":-0.16083399842605228,"31":0.20725959382074455,"32":-0.3684535754805087,"33":-0.519124909139413,"34":-0.5143012582213837,"35":-0.28462908405614384}},{"sx":1,"sy":1,"depth":36,"w":{"0":0.4046456225984802,"1":0.31326971297247913,"2":-0.23418576717636716,"3":0.09866409014202912,"4":-0.24619562539117149,"5":-0.17501560816449538,"6":-0.03984554290641104,"7":-0.15979294950182102,"8":0.012932414259070175,"9":-0.3944239656470195,"10":-0.20877401449078956,"11":0.09067619213252634,"12":-0.48594174157789,"13":0.27673148558765265,"14":-0.3514718851360202,"15":-0.20913244515548987,"16":0.13409294234706004,"17":-0.051275888561926254,"18":-0.1550950180355807,"19":0.05942238504519595,"20":0.046992723122691996,"21":0.09968360722650514,"22":-0.08744514326015494,"23":0.06449444101479813,"24":-0.30854124204002253,"25":-0.25832475088353307,"26":0.18037095159221941,"27":0.15620669047275604,"28":0.058637226576465265,"29":0.7110009144094829,"30":-0.24735121370834157,"31":-0.14604458630940784,"32":0.05414583377229794,"33":0.0002938674720785901,"34":0.2370263937419564,"35":-0.052429082269254905}},{"sx":1,"sy":1,"depth":36,"w":{"0":-0.1500859777411591,"1":0.1528606193920924,"2":0.2646487919748767,"3":-0.21481341135522658,"4":-0.11093090538600936,"5":-0.2144947006093511,"6":0.13635757866172268,"7":-0.2008004288514446,"8":-0.14734717696245858,"9":-0.11977526229423066,"10":-0.025981503267598117,"11":0.0588096945215577,"12":0.3164285307574015,"13":-0.09731472407142372,"14":0.18916881704702268,"15":-0.13009333434145184,"16":-0.3137362870001083,"17":-0.048307193503359186,"18":-0.10639399450414871,"19":0.006457404073180554,"20":0.07537367917673145,"21":0.11749254502984736,"22":0.20690240104533386,"23":-0.08518450587201871,"24":-0.10439070428727065,"25":-0.08176435059170696,"26":0.2279022394978248,"27":0.25738458075540804,"28":0.2717625073422083,"29":-0.17819370693519226,"30":0.3238200818792555,"31":-0.12562249739812906,"32":-0.7571943143598404,"33":-0.42523673159731096,"34":-0.828793434265727,"35":-0.16521404909909088}},{"sx":1,"sy":1,"depth":36,"w":{"0":-0.40193820845957007,"1":-0.0014329909288499898,"2":0.6627475428149886,"3":-0.09251304705183264,"4":0.01698531895104836,"5":-0.015757260712643627,"6":0.0012570263109172477,"7":-0.10765918676034814,"8":-0.3575903015043105,"9":0.17590385313352558,"10":-0.448409867938991,"11":0.005185079898173367,"12":-0.17758429353617458,"13":-0.38905109355671863,"14":-0.2818341502754923,"15":0.10540839630226757,"16":-0.09069675922454386,"17":0.09375471245521878,"18":0.39248890081765747,"19":-0.2729409097411209,"20":0.0677396249270193,"21":-0.13114717265943246,"22":-0.12400844810238476,"23":-0.0034368028376998965,"24":0.047763439585020835,"25":-0.2172802137650387,"26":0.02210275277739533,"27":0.12500824180783154,"28":-0.13253453010325264,"29":-0.1677830104094408,"30":0.10757783538789646,"31":0.10914212109946812,"32":0.08559813943888077,"33":0.12859588589041512,"34":0.03679035427019747,"35":0.3617325059047827}},{"sx":1,"sy":1,"depth":36,"w":{"0":-0.4840414320089137,"1":0.1515079047849717,"2":-0.32407867115579686,"3":0.08113878239343283,"4":0.37573961173474396,"5":0.2787150580443035,"6":-0.0940104785648765,"7":0.08551365841030838,"8":-0.06011899581090304,"9":-0.18046888605771527,"10":-0.4384506830301493,"11":0.08341953331039152,"12":-0.26153096051336466,"13":0.18955894702016088,"14":0.02818679467677653,"15":-0.1701528027934287,"16":0.16232104269534378,"17":0.2076259353069986,"18":-0.5768776902783126,"19":-0.10401337122722892,"20":0.0773804155870472,"21":0.006886761509158297,"22":-0.15262708753176793,"23":0.26413322293520364,"24":0.012177887281193293,"25":0.1655749497472212,"26":-0.19719522426477043,"27":-0.1504845886831982,"28":-0.12392833993668612,"29":0.06227025964039735,"30":0.08340918157266043,"31":-0.12304253243196857,"32":0.30610108252996215,"33":0.3453663517333546,"34":0.21805658654377796,"35":-0.16387797655937056}},{"sx":1,"sy":1,"depth":36,"w":{"0":-0.4788102499357003,"1":-0.4199397201258791,"2":-0.4588261228404781,"3":-0.4854946745375549,"4":-0.08744826216674845,"5":0.053513413881783906,"6":-0.14993925716036244,"7":0.29964863379339646,"8":0.23143851346073518,"9":0.002417765470370481,"10":0.02104112521191234,"11":0.2134529012179343,"12":-0.26494534519155594,"13":0.20334787422177134,"14":0.3206109309032614,"15":0.09555448161847532,"16":-0.28488112350477107,"17":-0.20291398888236808,"18":-0.12906818521341523,"19":-0.03539318487243972,"20":0.342278946633234,"21":-0.06921408062962732,"22":-0.09855521027043643,"23":-0.0433268686509864,"24":-0.05454823531410105,"25":-0.13375264301106796,"26":-0.27603019339937945,"27":-0.05112967794992458,"28":-0.09338711942088043,"29":-0.13847348448506536,"30":0.4348198450328304,"31":0.021705086227909655,"32":0.25192594195931844,"33":0.42786014676073997,"34":0.13124531610930132,"35":0.16819038115405255}},{"sx":1,"sy":1,"depth":36,"w":{"0":-0.2948662423658778,"1":0.24379028127856867,"2":-0.057933213707241756,"3":-0.026197426214485984,"4":0.2648252823758185,"5":0.245615726452184,"6":-0.12962088507367367,"7":-0.08304415180910578,"8":-0.3875479188409703,"9":0.29631818500413176,"10":-0.0405840779740245,"11":-0.7788765510192537,"12":0.4087384105293831,"13":-0.014844165355157842,"14":-0.030848766536352056,"15":0.3370481860007304,"16":-0.2496524422298748,"17":0.4271920202663323,"18":-0.010123588968747658,"19":-0.22041155391019848,"20":0.14946547243425737,"21":0.022581232884205455,"22":-0.42757079909567364,"23":0.3060664843105132,"24":-0.08715417936451965,"25":-0.31052878939677164,"26":-0.11677482245624751,"27":-0.5645793920572233,"28":0.0016632040694501493,"29":-0.08768606091352571,"30":0.019833569791500354,"31":0.42005545112552584,"32":-0.1841128898339682,"33":-0.1284068647175445,"34":-0.032833263067660365,"35":-0.3053059804171449}},{"sx":1,"sy":1,"depth":36,"w":{"0":-0.10450373469937667,"1":-0.23068078391186764,"2":-0.00703097618733003,"3":-0.0591560023018733,"4":-0.0759205318119613,"5":0.1961220327964305,"6":0.1221625379558028,"7":0.22683612540263554,"8":0.06338301174326676,"9":0.16664760459416328,"10":-0.3861031686466365,"11":-0.15210821808735628,"12":-0.015863329857126674,"13":0.17619350637790118,"14":-0.06802980870835632,"15":-0.24082196623891616,"16":-0.2593419573781028,"17":-0.2345611312302945,"18":-0.18586169989860576,"19":-0.3776303489755271,"20":-0.12307037409742082,"21":-0.4913061748516108,"22":0.08845729698139773,"23":0.24603092956585912,"24":0.17129993940451252,"25":0.21254455066917877,"26":-0.19871337125901622,"27":0.022776880876143046,"28":-0.12913730442006374,"29":0.08800851298010655,"30":0.13705372604608507,"31":-0.13870933026640325,"32":0.27202451157835295,"33":-0.26225998663203925,"34":0.09061998218735753,"35":-0.25563473750995586}},{"sx":1,"sy":1,"depth":36,"w":{"0":-0.06447403565941588,"1":-0.45568784434342147,"2":-0.25930169829120703,"3":0.04513362561377127,"4":0.20625302578019764,"5":-0.2037099530599082,"6":0.3516958614340433,"7":-0.39371227009827897,"8":-0.5983313766346093,"9":0.05922411289494522,"10":-0.17143388459950729,"11":0.26646837175135735,"12":-0.31522089061379127,"13":0.046109808284155354,"14":0.23459480912920352,"15":-0.3466588740729,"16":-0.2817688197623871,"17":-0.1269102956405685,"18":0.06842417244041042,"19":-0.005662327818820974,"20":0.003987220082287591,"21":0.19779271458493314,"22":-0.35841622343176566,"23":-0.3742009649596365,"24":0.16815561008535382,"25":0.09026204481804531,"26":0.23508888671657607,"27":-0.29949472356954887,"28":-0.022291453160604137,"29":0.3349443738935229,"30":-0.41156627613042607,"31":-0.11682301372006842,"32":0.5592426643611392,"33":0.3068000197856469,"34":0.24459123698700574,"35":0.23332566510103697}},{"sx":1,"sy":1,"depth":36,"w":{"0":-0.3217159434459422,"1":-0.09625928979436027,"2":-0.6756658218237224,"3":-0.1554129077202935,"4":0.03678498375822914,"5":0.2888789632182098,"6":0.13803560914710444,"7":0.241943482240582,"8":0.37501061204849595,"9":0.4826201359470758,"10":0.1596251101702326,"11":-0.4747012935171264,"12":-0.13054727570503782,"13":-0.8784481081153456,"14":-0.6851364660696229,"15":0.11366826779893807,"16":0.41680602717246235,"17":0.04277335239558579,"18":0.19771724023543977,"19":-0.0924922108465192,"20":-0.20127375868043626,"21":-0.3000780586471035,"22":0.005736018407315697,"23":-0.09618272081199397,"24":-0.23882665504419565,"25":-0.14305151301017321,"26":0.046343919235063855,"27":-0.32455664924234334,"28":-0.09819252927403493,"29":-0.39092004243657347,"30":0.13241655886994036,"31":-0.07429091630501315,"32":0.7132706903198771,"33":0.534283929002236,"34":-0.318027305721515,"35":0.54067988750558}},{"sx":1,"sy":1,"depth":36,"w":{"0":-0.4391187130065205,"1":0.03621991166972888,"2":0.08896722987868966,"3":-0.2787207044693338,"4":-0.43365772683782516,"5":0.01440521275725878,"6":-0.21708857729883685,"7":-0.11950364177674934,"8":0.14037893809710505,"9":0.027265425898218794,"10":0.2903407763424991,"11":-0.01184452593836674,"12":-0.07847503293019845,"13":-0.0865354589478185,"14":-0.3641256526622429,"15":-0.24645152380658725,"16":0.03979361635886649,"17":0.1409894017817457,"18":-0.4225546247042142,"19":-0.14324638694434774,"20":0.2551089115014995,"21":0.2045721637830757,"22":-0.003591093957527749,"23":0.2313731189199372,"24":0.06482617950416994,"25":-0.010543222632695685,"26":-0.1629840475489808,"27":-0.159458031644654,"28":-0.4379294590781163,"29":-0.5919520379372306,"30":0.1257103308996899,"31":-0.13391564512470808,"32":-0.28519128729141835,"33":1.0273460772847631,"34":-0.22250956750891085,"35":-0.00014909675010318086}},{"sx":1,"sy":1,"depth":36,"w":{"0":-0.18787006679013482,"1":-0.05974382060465764,"2":-0.29368007760290044,"3":-0.18860645654825628,"4":-0.1336099781530735,"5":0.02668561404895185,"6":0.1704301179906573,"7":-0.04704786681670789,"8":-0.17734868299123951,"9":0.08854379174327656,"10":0.19991621059129489,"11":-0.009725295769134924,"12":0.061355720864231925,"13":0.23377437724252326,"14":-0.24364433970002447,"15":0.27862588739325617,"16":-0.09651510400719102,"17":-0.1788208245576066,"18":0.16571352776665543,"19":-0.11781291474345013,"20":0.09341619696469791,"21":-0.04413374759792194,"22":0.1445815880389464,"23":0.06740574355063705,"24":-0.5960138932815541,"25":0.018985317061171243,"26":0.1128103900741397,"27":0.009806522539725953,"28":0.2453658112826181,"29":0.07552737324239679,"30":-0.31851461641640716,"31":0.0477013913398808,"32":-0.6166531749637262,"33":-0.6675448624767033,"34":-0.3612560697580775,"35":-0.33676754532732384}},{"sx":1,"sy":1,"depth":36,"w":{"0":0.19236516669244202,"1":-0.3579951839943829,"2":0.018299296600124363,"3":-0.27706551625140013,"4":-0.22915873191489763,"5":-0.17159424406147855,"6":-0.2837032433105194,"7":0.06306115152028528,"8":-0.264000746252139,"9":0.23023378187760987,"10":-0.12969017670854946,"11":-0.012145649741020443,"12":0.08837359959558182,"13":0.08083240637461114,"14":0.2792076855258129,"15":0.040489024405979616,"16":-0.032284917795863045,"17":0.11925123529410232,"18":0.08676660067722905,"19":0.03558150246141181,"20":-0.5538584892364773,"21":-0.1473477499659072,"22":0.140947381381374,"23":0.09612333305948555,"24":-0.46021193596431514,"25":-0.3649656489459019,"26":0.09439494007992806,"27":0.4014517734120775,"28":-0.010511986782722695,"29":-0.5476262905907218,"30":0.20036215563687654,"31":-0.027287469718072967,"32":0.24177214911721853,"33":0.10106019284677575,"34":0.4649473665911077,"35":0.2083430974914565}},{"sx":1,"sy":1,"depth":36,"w":{"0":-0.15568471243360837,"1":0.04233798367719415,"2":0.0991176748000308,"3":-0.044243860561712874,"4":-0.19369948859430342,"5":-0.21197300864638308,"6":-0.3878454961072997,"7":-0.1351941031422304,"8":0.043242304841798695,"9":-0.19057611992588339,"10":0.07283959988702798,"11":0.000768908585762307,"12":0.045613888520539374,"13":0.14892009524874705,"14":0.04859579831250843,"15":0.0062622361794740415,"16":0.14459173203037948,"17":-0.14512537547475549,"18":-0.15929392966206335,"19":0.049242788779894554,"20":-0.19484823948885688,"21":-0.043155023222387304,"22":-0.4597739024350255,"23":0.34194373920365073,"24":0.15874410501530517,"25":-0.34667324359184415,"26":0.12092912241383054,"27":0.019005972591222744,"28":-0.16035461387919284,"29":0.3309092990184334,"30":0.22053362076907132,"31":0.17647288270298353,"32":-0.323449388849412,"33":-0.14815980113503438,"34":-0.23277227841007395,"35":0.2575528698631542}},{"sx":1,"sy":1,"depth":36,"w":{"0":0.23982931826154594,"1":-0.012199749708879932,"2":-0.09737783129672992,"3":0.20340619459700088,"4":-0.2924825333848804,"5":0.049663656393959275,"6":-0.3204265227576337,"7":0.01369497079394073,"8":0.06446874378396589,"9":0.240505257841082,"10":-0.6164139899490184,"11":-0.08166490764856942,"12":-0.13804762547468033,"13":0.33039067084958,"14":-0.01908628310497435,"15":-0.19274628684475753,"16":0.3634122545318186,"17":0.2897733451239639,"18":-0.00830531202896646,"19":0.34639826094492004,"20":0.3271316296088596,"21":0.13963091187844875,"22":0.09946082229686927,"23":0.45110884003845886,"24":-0.4064843327548088,"25":-0.19498133129141806,"26":-0.16250987072795567,"27":-0.0643417585795848,"28":-0.23301394486895427,"29":-0.5672946226528309,"30":-0.1456213951729014,"31":-0.001609998951939064,"32":0.08394142968900158,"33":-0.17468908183255846,"34":0.25530587018658013,"35":0.06479376958301783}},{"sx":1,"sy":1,"depth":36,"w":{"0":-0.6121358583819071,"1":-0.24278865048365092,"2":-0.24855544631146742,"3":0.023476500872855362,"4":-0.03156980559752274,"5":-0.26651194097041725,"6":-0.20810332745620164,"7":-0.28643998008088567,"8":0.04032753480962377,"9":0.2372261935139955,"10":0.01134155392699618,"11":0.20786440487241953,"12":0.012774280106726143,"13":-0.18420014577754598,"14":0.08939622634311384,"15":0.10062987646311719,"16":-0.1812944203722373,"17":0.5311817030645594,"18":-0.13653966773514967,"19":-0.3947547355682159,"20":0.21856790171659485,"21":0.16222288723370623,"22":-0.19424186020970288,"23":-0.5558702211623956,"24":-0.1363695663265871,"25":-0.16513672922885633,"26":-0.06485946211802475,"27":0.0055165981501205386,"28":0.3727018401496211,"29":-0.4383280500408732,"30":0.49325371606556057,"31":0.10038197549646191,"32":0.3207553444822028,"33":0.1483067558362124,"34":0.42931974295558617,"35":0.1858526101683792}},{"sx":1,"sy":1,"depth":36,"w":{"0":0.10760331290766074,"1":-0.08414440891253044,"2":-0.3051457342807586,"3":0.1816451959542152,"4":0.10140142524066996,"5":0.0068876780976136745,"6":0.1266372078146132,"7":0.1607022215060057,"8":-0.48554322810052686,"9":0.05984149267589336,"10":-0.14887245396446785,"11":0.13734781505751226,"12":0.04140390019053875,"13":-0.20534970450279186,"14":-0.2440121805002139,"15":0.16425011492618916,"16":0.44556917045437927,"17":-0.2942012888534091,"18":-0.6304449423078097,"19":-0.06402591635266681,"20":-0.008867578236672046,"21":-0.3760779844408056,"22":0.06820632778881608,"23":-0.5818559176824668,"24":-0.014362020637302544,"25":0.04870105840489688,"26":0.19113113837577633,"27":0.012823595904996066,"28":0.3259287295212373,"29":0.23007042884987833,"30":0.194435848867863,"31":0.004569084622041058,"32":-0.2874828380586711,"33":-0.055082540613372366,"34":0.22908698305170822,"35":-0.02823905716868063}},{"sx":1,"sy":1,"depth":36,"w":{"0":-0.08809062679225942,"1":-0.34306040169037716,"2":-0.03846037145034272,"3":0.17655474817507252,"4":-0.3614893803575634,"5":0.1932364659757933,"6":-0.037802214792919314,"7":0.09710718037185143,"8":-0.17827860288383005,"9":-0.25781485277163596,"10":0.4619324412854856,"11":-0.2656109594115525,"12":-0.07541029089249554,"13":-0.19671006181312967,"14":0.14636411932804375,"15":-0.17549092655229506,"16":-0.5251334720240672,"17":-0.3510453905123996,"18":0.49965014414147774,"19":-0.023797481701484855,"20":-0.41055101067731575,"21":-0.193695651134205,"22":-0.23934359154130375,"23":0.015623028259298918,"24":0.09869024907170734,"25":0.44787937819254714,"26":-0.4257591783441904,"27":-0.061719116210397565,"28":0.13850393566296507,"29":0.22718626984328494,"30":0.11690740385591528,"31":-0.036179376220990676,"32":-0.13983673869463126,"33":0.4567245219601899,"34":0.041731038639240804,"35":0.7704094520115444}},{"sx":1,"sy":1,"depth":36,"w":{"0":0.21474176206283385,"1":-0.3880957471063704,"2":-0.05171625962659348,"3":0.0230572636376244,"4":-0.053130374485686055,"5":-0.6970335092801851,"6":-0.0336339180574627,"7":-0.11217087119774158,"8":0.39079899204473284,"9":0.050924294911021975,"10":0.38233842408684693,"11":0.31002021724358036,"12":-0.08817600508297747,"13":-0.1369972511206355,"14":0.056368872460294275,"15":-0.006264791057402868,"16":0.2283721247593608,"17":0.13950376051334482,"18":-0.16409797758665504,"19":0.2567236479884983,"20":-0.17619078126787868,"21":0.21732452410807124,"22":-0.1860153076367682,"23":-0.295277033695588,"24":-0.0005024048381633865,"25":-0.07912941200120073,"26":-0.05848264520543349,"27":0.17067240183677007,"28":-0.1031452182897618,"29":0.17101388617389954,"30":0.1872750471632427,"31":-0.08860071010627575,"32":-0.18305317488306183,"33":0.5461130487085163,"34":0.36408790990806517,"35":-0.2048361244833698}},{"sx":1,"sy":1,"depth":36,"w":{"0":-0.1272244450982074,"1":0.3191745730743478,"2":0.29778821685534357,"3":0.37403293466265475,"4":-0.14485029181706502,"5":-0.7765231863582533,"6":-0.3098713857689548,"7":-0.6083814577354285,"8":-0.033264238852303916,"9":0.1405362164740083,"10":-0.12943952602097883,"11":0.022661649170466053,"12":0.08233633118128947,"13":0.3746105016926526,"14":-0.045505072808398224,"15":-0.0678201044465721,"16":-0.07025708485718007,"17":0.020140104833197902,"18":0.13370232669646714,"19":0.04708330121278663,"20":-0.3788303676302385,"21":-0.43791407568862833,"22":-0.17892129498200068,"23":-0.11640462205690892,"24":0.02433999667147156,"25":0.19498914773152082,"26":0.1510254927002544,"27":0.19079490875468982,"28":0.17681715614948446,"29":0.13174947957677205,"30":0.001308661430142355,"31":-0.0838528691568558,"32":-0.139147410395111,"33":0.7121406393859508,"34":-0.07983730090888251,"35":0.09401670560956782}},{"sx":1,"sy":1,"depth":36,"w":{"0":-0.24213170223878747,"1":-0.3690117188400222,"2":-0.1324229686985306,"3":-0.40132945774105394,"4":-0.372607729944967,"5":-0.10476507881244936,"6":0.23842992404311336,"7":0.04491461961689404,"8":0.0668273213610927,"9":-0.3927933270427717,"10":-0.6506072713513337,"11":0.07688646913373454,"12":0.20626704551264324,"13":0.25591967853104347,"14":0.04935067590884887,"15":-0.03460877605248945,"16":0.16937143819058675,"17":-0.4630487444789318,"18":-0.20780444197392606,"19":0.042198203386689725,"20":-0.16696842455980312,"21":0.05771625959895546,"22":0.02233836708621765,"23":0.08908698722517765,"24":0.01326773085157472,"25":-0.01846459557534554,"26":-0.27504161199483546,"27":0.29913508712299497,"28":-0.1217829916618847,"29":0.34575470255913415,"30":-0.16764471297922529,"31":0.2013544143468262,"32":0.1844722658663433,"33":-0.006149856684748697,"34":0.38669251293786217,"35":-0.08927729209651294}},{"sx":1,"sy":1,"depth":36,"w":{"0":0.30555267116115076,"1":-0.4288007532575097,"2":0.49227950836772766,"3":-0.2867991830849878,"4":-0.265456034772793,"5":0.15689820472216542,"6":-0.1698867342636469,"7":-0.004534271153356871,"8":-0.08613311903982367,"9":0.16430722099461137,"10":-0.32199151143870053,"11":-0.7236654250028624,"12":0.12730235123313438,"13":0.013188778497660312,"14":-0.4009963494656729,"15":-0.06058581661322123,"16":0.25018373051667564,"17":0.1462530981765599,"18":0.027168289895148887,"19":-0.46631880219277927,"20":0.2520060215348523,"21":-0.18051716030376735,"22":0.2905952140168458,"23":-0.0475951392146851,"24":0.18706993766028795,"25":0.22171780320077286,"26":-0.4858434804701491,"27":-0.7244100175722186,"28":0.2718983799430176,"29":0.07682632575714247,"30":-0.31161564197328623,"31":0.13262439064904794,"32":-0.05345770466450851,"33":0.027757988323787165,"34":-0.12177033014495958,"35":0.019660419942851556}},{"sx":1,"sy":1,"depth":36,"w":{"0":0.3203419795175968,"1":-0.30331502782575315,"2":-0.21988457493085764,"3":-0.10347349003252504,"4":-0.10273517350133958,"5":-0.23385708016099332,"6":-0.005301944123247923,"7":-0.21728436834190487,"8":0.2784759864173933,"9":-0.38663730470319096,"10":0.04762127692829937,"11":-0.01014389587897699,"12":0.0878401840964528,"13":0.0586286562455991,"14":0.014750492685866118,"15":-0.2413245575602474,"16":0.03355594785788982,"17":-0.41291852098370285,"18":-0.28672622258029945,"19":-0.3096175973256345,"20":-0.09691556982987304,"21":0.015832819662508813,"22":0.2724716030203263,"23":0.14721302265255304,"24":0.020208763385241087,"25":-0.2790797996095176,"26":-0.04180081605406567,"27":-0.13244204210288915,"28":-0.20566267158780394,"29":-0.18555197326469355,"30":0.15513212104457685,"31":-0.03178751446027848,"32":0.16693937060629185,"33":-0.20695807305236014,"34":-0.00579574146214212,"35":-0.0863401196284036}},{"sx":1,"sy":1,"depth":36,"w":{"0":-0.05901990616864419,"1":-0.18876639043691767,"2":0.07964343268140958,"3":-0.1254424874167527,"4":-0.012684330426479597,"5":-0.26523671774396845,"6":0.1448253940214094,"7":-0.13117522331696088,"8":0.021450907395230086,"9":0.19923528510522953,"10":-0.16774097282035866,"11":0.07549345607510523,"12":0.5383920861758552,"13":0.11992603365489038,"14":-0.14304376875544816,"15":-0.16852058937797237,"16":-0.47009833514126426,"17":0.08703008215432306,"18":0.10348445089559855,"19":0.037195462414462414,"20":0.27931013653160264,"21":0.16085786678994288,"22":-0.08212128958519062,"23":0.08296986592668663,"24":-0.3996924236271597,"25":-0.15440230609617223,"26":0.16868791288431434,"27":0.031219089897587555,"28":0.24975846533953092,"29":-0.6177943370646024,"30":0.002593135036878599,"31":-0.22304965865386397,"32":0.741519524041401,"33":0.2962863359775647,"34":0.03821425580953967,"35":0.04676543529109485}},{"sx":1,"sy":1,"depth":36,"w":{"0":0.3111846453944402,"1":-0.08528339176446335,"2":-0.21595569954022864,"3":-0.033194046794920586,"4":0.25008639643366815,"5":-0.19712579294644192,"6":-0.01816906559999664,"7":0.2175413213917949,"8":-0.18382942237041958,"9":0.20215365546333558,"10":0.2597034289928951,"11":0.12349227086573866,"12":-0.2462695349351933,"13":-0.08790587186109283,"14":-0.28502918476220895,"15":-0.08669463607757256,"16":0.47626658188229004,"17":0.40224169755314126,"18":-0.008310821823788679,"19":-0.24242195726426757,"20":0.22335797772697702,"21":0.3494156773155053,"22":0.04706550072758945,"23":-0.08051734869409703,"24":-0.17263607950376716,"25":0.11530165274778761,"26":-0.10517211197614376,"27":0.03941558523260995,"28":-0.1422012126040399,"29":-0.06857728930782492,"30":0.0736306731770696,"31":0.15321435118218094,"32":-0.7757948653839917,"33":-0.39282245914870634,"34":-0.851329983541266,"35":-0.4991678926449722}},{"sx":1,"sy":1,"depth":36,"w":{"0":0.2850608091733632,"1":0.5509446804735126,"2":-0.24136224040787585,"3":-0.24996101553395,"4":0.1440221925510988,"5":-0.21555967562408127,"6":-0.014873545370048983,"7":-0.21234660026351174,"8":-0.14097464913538266,"9":-0.46717658792980943,"10":-0.07958482722248923,"11":0.1777548869227356,"12":0.015126128633519715,"13":0.08857213470440324,"14":-0.36487169726391094,"15":-0.15533186737793053,"16":0.10648421026470166,"17":-0.036750092372841096,"18":0.11270864838295443,"19":-0.010697119076989026,"20":-0.08683022245993856,"21":0.09865924401378956,"22":-0.0594849764548206,"23":0.1505236448060571,"24":-0.06631368487868443,"25":0.05746156926591577,"26":-0.10086407901507857,"27":-0.2008019821700209,"28":-0.2644270789961533,"29":-0.3739562637698543,"30":0.023345242376400066,"31":0.333332844990629,"32":0.191107117345186,"33":0.6971642428473771,"34":-0.19643477069480392,"35":1.226129948879769}},{"sx":1,"sy":1,"depth":36,"w":{"0":0.2869823241957835,"1":0.1887951276848229,"2":0.17467742888417098,"3":0.12228685760019137,"4":-0.10279178610818886,"5":0.06530110360433651,"6":-0.2829237390686074,"7":0.2280621699966374,"8":0.05407069044865167,"9":0.2561663320523552,"10":-0.03892422839571474,"11":0.14822337590243842,"12":0.4726725592651358,"13":-0.08518029827234233,"14":0.5931713642051362,"15":0.3628478150571428,"16":0.20280353354591482,"17":0.26041913992467197,"18":-0.1068924916213763,"19":-0.06452332546504368,"20":-0.06358478911194607,"21":-0.07463117957719924,"22":-0.3294041650929915,"23":0.20880375329776868,"24":0.025190959652731187,"25":-0.15452201647844588,"26":-0.06943478800845354,"27":-0.022681622579393896,"28":0.15887859043885696,"29":0.07249610829118681,"30":-0.18578819595546597,"31":-0.1194790116697686,"32":0.6881323375290013,"33":0.1441814964664607,"34":0.35352379716359694,"35":0.4164568053531657}},{"sx":1,"sy":1,"depth":36,"w":{"0":-0.3043067328446472,"1":0.06050807666954991,"2":-0.300799321547954,"3":0.07510965650321415,"4":-0.1092246735215033,"5":-0.31537815256401214,"6":-0.03769114014742908,"7":0.3522337999768359,"8":-0.3536625240212932,"9":-0.6027544083321262,"10":0.3351834431922885,"11":0.4547794128575934,"12":-0.3001911630221428,"13":-0.21670827838273649,"14":0.18730647320735136,"15":-0.04024451253944317,"16":-0.151544354515901,"17":0.11100747998472077,"18":0.19978127247558644,"19":0.23082102074564134,"20":0.10720429195462992,"21":-0.28292221880484697,"22":-0.04861300473855781,"23":0.1723502869500848,"24":-0.2264013946535735,"25":-0.11629737083232206,"26":-0.04895069400773237,"27":0.05012120664839276,"28":-0.346088154816174,"29":-0.14840037762027902,"30":-0.03588613737005199,"31":-0.26690893369177326,"32":-0.007824038630096328,"33":-0.0024583895133890917,"34":0.41143251550903637,"35":-0.09019159996859388}},{"sx":1,"sy":1,"depth":36,"w":{"0":0.2852059232144302,"1":-0.00876736594740449,"2":-0.27292874476416756,"3":-0.12982556173736637,"4":0.050792466352369094,"5":0.06561576674891648,"6":0.07542692990552088,"7":0.2651117237912547,"8":-0.15702396255837245,"9":0.11822400779239976,"10":0.3897531404753861,"11":0.10236656607026386,"12":0.055560229006509206,"13":0.19257504752728807,"14":0.07513918717933751,"15":-0.027538600322693438,"16":0.09050035682498203,"17":0.013711028255952723,"18":-0.1427718845816601,"19":0.03464284390893665,"20":-0.10105227821578518,"21":-0.07357186666036504,"22":-0.06363695316654247,"23":-0.15538739320911973,"24":0.023218642900845615,"25":0.0307208666061748,"26":-0.13701739121058581,"27":-0.09013113842985943,"28":-0.14741354436350668,"29":-0.10008410748214759,"30":-0.06460090114940828,"31":-0.22159569056671222,"32":1.178639769171363,"33":0.23989827391807172,"34":1.0444878586264297,"35":0.3549178881721904}},{"sx":1,"sy":1,"depth":36,"w":{"0":0.1408357374833268,"1":0.3809813614354439,"2":0.3414170537111197,"3":0.16310317739479238,"4":0.355754943006549,"5":-0.2536494929643166,"6":-0.21636954807043196,"7":-0.6994938157991493,"8":-0.2742988629553506,"9":0.06655245319112728,"10":0.3881898330237985,"11":0.15816943109067513,"12":0.09757052853634768,"13":0.2838943749567668,"14":-0.34449776018067707,"15":0.47762563705370115,"16":-0.2580325322086475,"17":-0.08926905999252535,"18":-0.09632858654136592,"19":0.13077541344753646,"20":0.21043130856823516,"21":0.1300520659644733,"22":-0.3541460515391458,"23":-0.09996157530623277,"24":-0.18576816216885322,"25":0.023815762767022262,"26":-0.2684559289880112,"27":0.015826293078171322,"28":0.010809216476025006,"29":0.08815972606285839,"30":-0.3951126044186839,"31":0.1620583755386424,"32":-0.050104330451684054,"33":0.3081872563014184,"34":0.4743106579467727,"35":-0.0026009624426946635}},{"sx":1,"sy":1,"depth":36,"w":{"0":-0.5725241561138815,"1":0.18350267466613004,"2":0.22737218887208702,"3":0.11848845946565391,"4":-0.9917365963145536,"5":-0.0376047771721686,"6":0.023339958768342633,"7":-0.0012840816467454663,"8":-0.6642239303457648,"9":-0.057567497817320186,"10":0.20221649571689748,"11":-0.06325703446604121,"12":-0.11391012880704307,"13":0.10385102269370929,"14":0.18003435878708582,"15":-0.029980754267828282,"16":-0.27584467091640724,"17":-0.28424670226166304,"18":-0.20165030549310714,"19":0.1438719853491556,"20":-0.49331494867260656,"21":-0.021111769447489694,"22":0.09436571451485773,"23":0.17056179791783138,"24":-0.09044068938241404,"25":0.1870798658811585,"26":-0.1988026840219813,"27":0.020050674899283895,"28":0.05989619008201477,"29":0.08888932992115448,"30":-0.07797356831487612,"31":0.12929286544183688,"32":0.7996503304261244,"33":-0.4708065063011337,"34":0.6608133633777821,"35":-0.1533958542569602}},{"sx":1,"sy":1,"depth":36,"w":{"0":0.2742083416554714,"1":-0.1368030334774688,"2":0.09411026684642736,"3":0.09652789987072624,"4":0.11481854704736673,"5":-0.0017137059456170357,"6":-0.15846713464153284,"7":-0.7591964015534052,"8":-0.2784754450036497,"9":0.41264095154940644,"10":-0.11171346167018635,"11":-0.26353968546356776,"12":-0.3426297168947135,"13":0.4303924384784693,"14":0.15698142357465455,"15":0.024427442602307725,"16":0.2820343020411875,"17":-0.312012146550746,"18":-0.25087109699990817,"19":-0.19451051757516905,"20":0.13289576027195124,"21":-0.2954048462864123,"22":0.23104410835438113,"23":-0.5360919818732734,"24":-0.09816978529074565,"25":-0.17638084748846955,"26":0.007151396723697589,"27":0.07295697811780777,"28":0.3701540060579972,"29":0.16429329239679152,"30":0.24220476548970793,"31":-0.27945419052783094,"32":0.41663940848399866,"33":1.0245123351974759,"34":-0.09814139493293202,"35":0.7897862010042023}},{"sx":1,"sy":1,"depth":36,"w":{"0":0.12528547484667366,"1":0.0019395993922988874,"2":-0.10424055345825751,"3":0.01804119320596353,"4":-0.2969026116184226,"5":0.0548230315403817,"6":-0.24929455509020873,"7":-0.2225996553643454,"8":0.46232859322500064,"9":-0.01853931717723291,"10":-0.010413150121835194,"11":0.07593030338948427,"12":0.003753190995668374,"13":-0.3365249042663315,"14":-0.34083448239538994,"15":-0.0343044959354914,"16":0.3435987959980751,"17":-0.22227837164198289,"18":0.23808300701753146,"19":0.23844712654466652,"20":0.13201416024838214,"21":0.341079888840134,"22":-0.5100466732881415,"23":-0.1994671574699727,"24":0.30109849835911145,"25":-0.26494562002109445,"26":-0.023497631616744598,"27":-0.006034899312456812,"28":0.11190733324688219,"29":-0.33259041412342044,"30":-0.06870716105332068,"31":-0.38130926874361337,"32":0.017669935601430105,"33":0.6348217446832871,"34":0.36331581774597854,"35":0.10799026512994302}},{"sx":1,"sy":1,"depth":36,"w":{"0":-0.029897917751045815,"1":-0.3096482329467584,"2":-0.32562323767552553,"3":-0.04946945148690022,"4":-0.16144118939131216,"5":0.06271755514509046,"6":-0.2094327623316067,"7":-0.10234440700463177,"8":0.20545912228996444,"9":-0.4488647693388182,"10":0.14470386139300978,"11":0.07170803767764647,"12":-0.013744723182268548,"13":0.009003719270933744,"14":-0.0803894696588366,"15":0.31230781492640325,"16":0.15842528948469514,"17":0.5694954917566994,"18":-0.25337686947366456,"19":-0.12941164809360445,"20":-0.056435482466672356,"21":-0.015153758183065276,"22":-0.322592039850058,"23":-0.1804877640695484,"24":0.021069781552707827,"25":-0.38684049632784956,"26":0.21386959112094808,"27":0.08937779616310217,"28":-0.1586251854243211,"29":-0.11121730323761722,"30":-0.09647522364442507,"31":0.2753384577688402,"32":-0.43103474194268065,"33":0.06609176613671248,"34":-0.16942809687366456,"35":-0.19372445779654834}},{"sx":1,"sy":1,"depth":36,"w":{"0":-0.09848908718160418,"1":0.1501173152876862,"2":0.046839771562744874,"3":0.26936873140632883,"4":0.15259958677832405,"5":0.024510141166215374,"6":0.14795961800450272,"7":0.11345552248687371,"8":-0.2742450726818737,"9":0.20492931909674203,"10":0.35361864419259637,"11":-0.42244829261225336,"12":-0.34137107881499573,"13":0.3550997821488343,"14":-0.2891144728574277,"15":0.18879095177380187,"16":0.33535944960726544,"17":0.0726475261516719,"18":0.17103536258966037,"19":0.17996135057755222,"20":0.2292549725265689,"21":-0.4900861166417005,"22":0.03952483512198141,"23":-0.014815703844301802,"24":0.12065635741188215,"25":0.2650032752399743,"26":0.16732978482136715,"27":-0.18859393876421215,"28":-0.18737051017616693,"29":-0.16644254572985312,"30":0.42305946119020627,"31":0.04223280621966924,"32":-0.8023517254209872,"33":-0.6188453107607909,"34":-0.47144787611845446,"35":-0.8635172699688686}},{"sx":1,"sy":1,"depth":36,"w":{"0":0.35936461821596066,"1":-0.2197954407445983,"2":0.07944805235676498,"3":0.06411059006738798,"4":-0.4460805352879764,"5":-0.24620583167760493,"6":0.03244341660896286,"7":0.0853503037463868,"8":-0.06591923375262941,"9":-0.03362400719889878,"10":0.004322979267064305,"11":0.08964199978061016,"12":-0.0014345499971870938,"13":0.1834741993746839,"14":-0.08191141050088198,"15":-0.2891335712466507,"16":0.37099486677054727,"17":-0.06681744819203998,"18":-0.1825934940361383,"19":-0.23169628864000497,"20":-0.3758236658662549,"21":-0.42207525464148654,"22":-0.2730818608969728,"23":0.58612676280005,"24":-0.2125171489906771,"25":0.18312493836572694,"26":-0.008161967437656549,"27":0.24597910830597114,"28":-0.2569613458275593,"29":-0.2776963150038036,"30":0.043800214745693254,"31":-0.16031874867513685,"32":0.044036181590034223,"33":-0.24377028264374814,"34":-0.174917925534215,"35":0.347938970773219}},{"sx":1,"sy":1,"depth":36,"w":{"0":0.11905176090601786,"1":-0.019805685841838817,"2":-0.11821931089459517,"3":0.4933395750823747,"4":-0.5381797186325796,"5":0.5676574658640412,"6":0.04517020439060175,"7":0.13807781939529543,"8":0.12211186620618109,"9":0.023165126750176967,"10":0.06120472434375383,"11":0.08627944536293437,"12":0.09157432641664041,"13":0.026289386550299852,"14":0.34465248971355356,"15":-0.7182630454111518,"16":0.0926279485158148,"17":0.11137014562666564,"18":0.17496905600501705,"19":0.1408312234045447,"20":-0.17574938214471603,"21":0.10020544565308823,"22":0.009126894145611882,"23":0.03395510037479095,"24":0.13281690983401773,"25":-0.05605024322895342,"26":0.05282500490407163,"27":0.05790075926320063,"28":-0.013951344479869086,"29":0.01680439143137731,"30":0.1812581160726983,"31":-0.5433933316469501,"32":-0.8767570185666932,"33":-1.0437992929690316,"34":-1.0396278461230026,"35":-0.8630612131514487}},{"sx":1,"sy":1,"depth":36,"w":{"0":-0.01126925505206795,"1":0.15419037463115298,"2":-0.4647599740752976,"3":-0.39364776607970836,"4":-0.05537833865280828,"5":-0.12710685263989394,"6":0.19054292130618347,"7":0.04063023357482815,"8":0.416317897544581,"9":-0.018472807622039126,"10":0.04502963120242744,"11":-0.04159196569275988,"12":0.1286988245130386,"13":0.10266236916742716,"14":-0.19237345643897905,"15":0.4520351967173777,"16":0.06193822664393236,"17":0.2053335681442813,"18":-0.05304849246214238,"19":-0.13571175159648258,"20":-0.03719170098876287,"21":0.1924225947528563,"22":0.026606288993776046,"23":0.26438100607121273,"24":0.22826978402678036,"25":-0.08344641430565923,"26":-0.2544957381552392,"27":-0.01939485775803149,"28":0.10754500894433273,"29":0.40328134802433857,"30":0.023748821096212337,"31":0.26805846789024945,"32":-0.5358795746057771,"33":0.015651447233736,"34":-0.5454921599911535,"35":-0.4158828105042788}},{"sx":1,"sy":1,"depth":36,"w":{"0":0.0728292922657036,"1":-0.05938226719628847,"2":0.06277284077815791,"3":0.26356001172934845,"4":0.2593314073789392,"5":0.21927106309393327,"6":0.12742557903364002,"7":0.046852500326619584,"8":0.06472972083861873,"9":0.18836104895912772,"10":0.09592342302002568,"11":0.15143020685724665,"12":-0.036292040372469456,"13":0.054937422595162745,"14":0.0661387540748955,"15":0.018673579852045107,"16":-0.3988471129903975,"17":-0.04654506741229908,"18":-0.025866321246245577,"19":-0.10774079159027411,"20":-0.06284968001841489,"21":-0.09870097223703471,"22":-0.13779046628503053,"23":-0.09935314853548367,"24":-0.05836148083846627,"25":-0.026757345928027088,"26":-0.1242620025849487,"27":-0.10916292297616018,"28":-0.13406641489577437,"29":-0.09942529337115774,"30":-0.17800342518086726,"31":-0.17189089557962112,"32":0.14669922346953657,"33":1.7126920473914948,"34":0.06684542573561666,"35":1.8995972210665613}},{"sx":1,"sy":1,"depth":36,"w":{"0":-0.01302581479819888,"1":0.09378031470386161,"2":-0.34244318538445667,"3":0.3414408327444351,"4":-0.172609198237381,"5":0.038562872569682737,"6":-0.12710566020778186,"7":-0.12372332088083109,"8":0.03158723499636173,"9":-0.2800157480123811,"10":0.13318741139051485,"11":-0.39616643555529946,"12":-0.25447858707540694,"13":-0.0009230930397544894,"14":-0.4799015635054591,"15":0.04085094664742265,"16":-0.15103119070970164,"17":-0.3263166828678484,"18":0.2323813003688583,"19":0.05397312269330508,"20":0.008260224660768452,"21":-0.028181343259214398,"22":0.04134490996617512,"23":0.38219088492771774,"24":-0.2042419433796839,"25":-0.45984164133255284,"26":-0.008798948497187657,"27":-0.07996107398008605,"28":-0.24494632859761314,"29":-0.1902154777782393,"30":-0.2811906910308908,"31":0.033537935499425305,"32":-0.34454032097017334,"33":-0.7182253120329165,"34":0.2591156427268181,"35":0.3157673616576282}},{"sx":1,"sy":1,"depth":36,"w":{"0":0.4298117509873019,"1":0.41453332658863656,"2":-0.17067327699194285,"3":0.05522755333291448,"4":-0.1053351171308197,"5":0.13257612097831875,"6":0.13294676726881086,"7":0.040514494910127284,"8":-0.02960197976802042,"9":-0.0432704056547161,"10":-0.13041877510948371,"11":-0.5395786706755649,"12":0.494191297250592,"13":-0.07620175096876076,"14":0.01482542944568042,"15":-0.1397235874277753,"16":0.047573355885882296,"17":-0.026419044700694304,"18":-0.29428852759325774,"19":0.17466591387154348,"20":0.04641756194820523,"21":-0.08611452283794209,"22":0.07260798023461854,"23":-0.4852834910066742,"24":-0.04269262444762844,"25":-0.20363214735157195,"26":-0.0755161312535294,"27":-0.341330120910925,"28":0.15110927048574124,"29":0.059420266457199486,"30":0.15334431483637906,"31":0.028697444833742657,"32":0.584462818578235,"33":0.5283021726211214,"34":0.23340435225737163,"35":0.6189016982884489}},{"sx":1,"sy":1,"depth":36,"w":{"0":-0.17401979510614002,"1":-0.1645123175655314,"2":0.37412400518287714,"3":-0.14178456216428997,"4":-0.1831976976080563,"5":-0.13087087643497852,"6":-0.21489764036967035,"7":-0.11306919151348659,"8":0.19235937816473722,"9":0.15413643020916926,"10":0.20215860694792157,"11":0.31836811107552226,"12":-0.05605585935941179,"13":-0.23981996848964332,"14":0.44845735435241174,"15":0.02806461587323478,"16":0.10868542793685108,"17":0.003021008681511082,"18":0.30503309765929504,"19":0.11710922143798942,"20":0.383831953195609,"21":0.3426021846579077,"22":0.06628841967490531,"23":0.1660217971557346,"24":0.2323492175961816,"25":0.03912382086153633,"26":-0.29583936355283463,"27":0.04077442894757381,"28":0.002451638623797003,"29":-0.24324802612514165,"30":-0.1410639694919388,"31":-0.1322315792470513,"32":-0.6897245588151606,"33":-0.6490867915278694,"34":-0.36617508884822864,"35":-0.6128476508474453}},{"sx":1,"sy":1,"depth":36,"w":{"0":-0.018067440178542095,"1":0.13005994055512293,"2":0.09182922856744075,"3":-0.09527138220567075,"4":-0.2701085613499032,"5":0.13854481543629923,"6":0.2878187967206003,"7":-0.7379614095771239,"8":0.06953910341602285,"9":0.3189884732845298,"10":-0.048422527076314434,"11":-0.043737020980908564,"12":0.0703111613490979,"13":-0.17863458118535813,"14":0.2333479721960535,"15":-0.14321037464421915,"16":0.02532531156228614,"17":0.04750217895721952,"18":0.2864086279741723,"19":0.10684165523932057,"20":-0.32213993137686947,"21":0.19466224701812299,"22":-0.37231785568868286,"23":-0.32893894397591716,"24":-0.1719859720735267,"25":-0.45739965374652786,"26":-0.20721501102888676,"27":0.36753181994303247,"28":0.06124013934472085,"29":0.09762523189404837,"30":0.1343353006425661,"31":-0.2516325352935743,"32":0.16298573570421432,"33":-0.2357746901748234,"34":-0.03501201113716565,"35":-0.7285215246085597}},{"sx":1,"sy":1,"depth":36,"w":{"0":-0.45146938005034437,"1":0.08550997584205022,"2":-0.479543098958739,"3":0.09004540826843693,"4":0.40929381366932877,"5":-0.6349271693551602,"6":0.13255211699639563,"7":-0.14724156057222998,"8":0.13132554555527917,"9":0.38435784597281797,"10":-0.21446951452179683,"11":-0.030721356221329685,"12":-0.11077254776100735,"13":-0.23937347811648213,"14":-0.0325639387791665,"15":0.05559404663162356,"16":-0.28442197392144314,"17":-0.02061358872696457,"18":0.05142053240880475,"19":0.10630473961676244,"20":-0.17827955371544355,"21":-0.34546679627172855,"22":0.05303403760584464,"23":0.19263914666001364,"24":-0.2857746342280035,"25":0.1037534472362963,"26":0.13693281128242782,"27":0.22602982739855818,"28":-0.33267795088337687,"29":0.03415678625333881,"30":-0.1488707319002727,"31":0.48451749526756177,"32":-0.18123742938599868,"33":-0.12803383043675182,"34":-0.23288545661241794,"35":0.01883143518517579}},{"sx":1,"sy":1,"depth":36,"w":{"0":0.15895718310235077,"1":0.11952236909530714,"2":0.31303189116550634,"3":-0.25782522826376547,"4":-0.05595225325162801,"5":0.1929713485177614,"6":-0.658866851022947,"7":-0.09570633875507438,"8":-0.06273570236090903,"9":0.12208803677155171,"10":-0.033847427247565676,"11":0.03233512657739445,"12":-0.010109499675272806,"13":-0.33460567427044896,"14":-0.018140303561549827,"15":0.08786635587424303,"16":0.008609974424612013,"17":-0.21552590065073146,"18":0.1063763765175834,"19":-0.11745683193579745,"20":-0.10925704473348302,"21":-0.14644253415892095,"22":-0.6077052829145349,"23":-0.047108444575550315,"24":0.47817070758171704,"25":0.3809171548818977,"26":-0.17792108100431106,"27":0.22204426246019524,"28":-0.00017297037450914607,"29":0.38792669345303493,"30":0.03046578267566988,"31":0.2216606620807923,"32":0.4334619219983127,"33":-0.05605625988705279,"34":0.0670894399274842,"35":0.02262783020018942}},{"sx":1,"sy":1,"depth":36,"w":{"0":-0.33600817301886343,"1":-0.3268457286002077,"2":-0.38891393525157997,"3":0.08682426769928435,"4":-0.18418493302406488,"5":0.27842541946964416,"6":-0.1347411756140581,"7":-0.1301098177500261,"8":-0.2882910793397253,"9":0.010013531807001671,"10":-0.129245387680185,"11":-0.10977493261291908,"12":-0.00015685634076993043,"13":0.20654087243821373,"14":0.022448485127553958,"15":-0.07632025754355805,"16":0.13678638120762485,"17":-0.38378249230492817,"18":-0.10244305215550903,"19":-0.15679687949241602,"20":0.39396695249543384,"21":0.10822459916914566,"22":-0.4348242630418977,"23":-0.009487170911714565,"24":-0.17236993710981352,"25":0.05530441693430155,"26":0.1161011862397501,"27":-0.10175783103842378,"28":-0.10204903652314933,"29":0.18654582461305755,"30":-0.20633040549076495,"31":-0.03836487579646472,"32":-0.34155824126684264,"33":-0.04714014988629002,"34":0.6083150549200913,"35":-0.08218595668003667}},{"sx":1,"sy":1,"depth":36,"w":{"0":-0.37192222451551915,"1":0.2927929565616227,"2":0.5393349038135848,"3":0.49936240618271704,"4":-0.041480797601893826,"5":0.12956255672197,"6":-0.11159254511404683,"7":0.267559051318005,"8":-1.115918595037252,"9":-0.21254496508934306,"10":-0.2493164497937399,"11":0.15750057036844622,"12":-0.44108381361375026,"13":-0.6519967844611602,"14":0.23655988068115422,"15":-0.06854489476088392,"16":0.10487189526406418,"17":0.12744371784362982,"18":-0.07226779919066963,"19":0.12052200618138462,"20":-0.02569338992667045,"21":-0.010022893218651437,"22":0.17887165436749927,"23":-0.016254901687201298,"24":-0.036568918744499475,"25":-0.24253392373771218,"26":-0.029577475840367153,"27":-0.008093314358564826,"28":-0.3676476957679429,"29":-0.23490890298456302,"30":-0.19753410650820638,"31":0.09318734076418808,"32":-0.1930679701284243,"33":0.18993324224035224,"34":-0.09108008459013317,"35":0.23084775901216847}}],"biases":{"sx":1,"sy":1,"depth":64,"w":{"0":0.14819060035534093,"1":0.16614602160280353,"2":0.09747108865285119,"3":0.05949484992343651,"4":0.15931460014980425,"5":0.25651483689164545,"6":0.07674139299309124,"7":0.14940088647726874,"8":0.1543538176218863,"9":0.10391950606641454,"10":0.18400080377220945,"11":-0.19669799517480813,"12":0.2178475593375112,"13":0.13457616338169226,"14":0.14604338319658355,"15":0.16317440298345248,"16":0.12425348778044874,"17":0.01580661030624558,"18":0.1021121706430988,"19":-0.010610676091889948,"20":0.11722952561401342,"21":0.13428518912378842,"22":0.11279292268427954,"23":0.05611028274861025,"24":0.11861910268852355,"25":0.17006594090752727,"26":0.18872395788228902,"27":0.11032236125969916,"28":0.0007959041589449146,"29":0.1376692267577106,"30":0.08984417491726902,"31":0.12112998202980205,"32":0.15308233565599402,"33":0.10367484634990146,"34":0.17609136361423153,"35":0.13374230320908728,"36":0.13262965603743698,"37":0.11543859119815172,"38":0.11865097525657263,"39":0.095758437631474,"40":0.14894481400845078,"41":-0.03315755383290532,"42":0.17368398549763597,"43":0.2046178083630052,"44":0.09476590251088235,"45":0.2552244004483325,"46":0.1536097141218507,"47":0.1374590611324435,"48":0.22132191127504203,"49":0.1382315732540573,"50":0.10298374330690392,"51":-0.04005116187938625,"52":0.08837656907690003,"53":-0.13504399500883735,"54":0.00772894796811825,"55":0.3010543728743172,"56":0.09312820295561046,"57":0.21020732575208842,"58":-0.03625629561467182,"59":0.06916238635215569,"60":0.09223678568180194,"61":0.11792389941894388,"62":0.11731756131987064,"63":0.12606069694553682}}},{"out_depth":64,"out_sx":1,"out_sy":1,"layer_type":"relu"},{"out_depth":32,"out_sx":1,"out_sy":1,"layer_type":"fc","num_inputs":64,"l1_decay_mul":0,"l2_decay_mul":1,"filters":[{"sx":1,"sy":1,"depth":64,"w":{"0":-0.29306947804096994,"1":-0.0822801198638149,"2":0.31344689732265457,"3":0.2858705900749381,"4":0.1279615791865958,"5":0.12057383673246648,"6":-0.18001677153034756,"7":-0.120027197436439,"8":-0.05071912688039333,"9":-0.225113468298978,"10":-0.34966724631172963,"11":-0.1944786460014078,"12":-0.05239577641901789,"13":0.0264575140179587,"14":0.2719488641976415,"15":-0.19043799602984304,"16":0.32604172812845833,"17":0.1743284912595675,"18":-0.10913077300086248,"19":-0.17905117702424722,"20":0.0027910332178872474,"21":-0.05056950020296539,"22":0.08553396866477221,"23":0.4403980692592983,"24":-0.25188193147472704,"25":0.10080565483847528,"26":0.036346676424823025,"27":0.009426950608392855,"28":0.05517051063073995,"29":-0.14611714732457226,"30":0.018944598308654352,"31":-0.07372100292490384,"32":-0.15193818315014126,"33":-0.013386391939848658,"34":0.1180345827249066,"35":0.06771405846153121,"36":-0.2677075948689258,"37":0.19762202909543267,"38":-0.2441188753398097,"39":0.0387860274667668,"40":0.1314132969991239,"41":-0.16859959297157406,"42":-0.05660570638302617,"43":-0.112547945945635,"44":0.42290892628458054,"45":0.10477169351054313,"46":-0.038067109849796076,"47":-0.14519313694246286,"48":-0.07730957312662438,"49":-0.13631094570063843,"50":0.0822147759324691,"51":0.024217836999903486,"52":0.17906172431281359,"53":0.009205785492576394,"54":-0.08351629014233682,"55":0.24161758331436067,"56":-0.4469336743396615,"57":-0.21934515123593495,"58":-0.07278363445411588,"59":-0.05634986484561413,"60":0.07503378008442173,"61":-0.09803068516978182,"62":0.14146941615804262,"63":0.05696437478846802}},{"sx":1,"sy":1,"depth":64,"w":{"0":-0.03316404117100516,"1":-0.18765673836268315,"2":0.09411923085605785,"3":-0.2764804438755958,"4":0.04067927822104064,"5":-0.22621531649890894,"6":0.06262004480048843,"7":0.005163144943271363,"8":-0.008611215620969346,"9":0.07022895805254545,"10":0.18678493800731585,"11":0.03832549972811439,"12":0.05702607023305279,"13":0.0441888384124398,"14":-0.07605933818366241,"15":0.062448149464894805,"16":0.006854335910218977,"17":-0.27636522247081097,"18":0.13335650677068267,"19":0.18158521994316948,"20":0.0075973166645607135,"21":0.025113431416992713,"22":0.016552386996180946,"23":-0.27642852921330746,"24":0.12557611030379146,"25":-0.06797622822072774,"26":-0.18559213302144228,"27":0.080627165682419,"28":-0.0982674572505213,"29":-0.31456868384746417,"30":0.09422274672865323,"31":-0.257627011498085,"32":-0.06884252643289702,"33":0.12550882626162335,"34":-0.23304685539172876,"35":-0.2830103446662403,"36":-0.20218339604682417,"37":0.06166935635351958,"38":-0.061346529813826454,"39":0.13794107015299198,"40":-0.21205510498414035,"41":-0.19396182532764497,"42":0.25243571568683393,"43":-0.1668227287925216,"44":-0.1798802062212291,"45":-0.27249936712648,"46":0.17529552199303824,"47":-0.14292531820200147,"48":-0.12157087426154074,"49":0.21235654959198336,"50":0.1643236533489042,"51":-0.17842936133346687,"52":0.12128339679770248,"53":0.39853704674397955,"54":-0.18476685312434452,"55":-0.036097089341767426,"56":-0.20341140623797638,"57":0.014969136201678541,"58":0.1442492736952437,"59":0.38146268815043893,"60":0.20487448838597072,"61":-0.3322584730764489,"62":-0.04573118310192671,"63":0.057984272387314774}},{"sx":1,"sy":1,"depth":64,"w":{"0":-0.11810327839014524,"1":0.27661459153384593,"2":-0.24108220220971854,"3":0.28771793721011885,"4":0.1582781394556744,"5":0.16090638811162705,"6":-0.4668943821889198,"7":0.08636503328423863,"8":0.037120971449061825,"9":-0.05096784707299518,"10":-0.2211829919452993,"11":-0.06831548237354859,"12":-0.1905159273127571,"13":-0.11951550029113711,"14":-0.12565291110487004,"15":-0.07299131302898992,"16":-0.1969362616228983,"17":0.0863268727897143,"18":-0.12950717454495606,"19":-0.25088395342087294,"20":-0.2506237080008214,"21":0.027721714478253535,"22":-0.08841896681290182,"23":-0.10410421639972935,"24":0.027515641296429375,"25":-0.00016311815368175126,"26":-0.03789996727359365,"27":-0.07306063025727856,"28":-0.3869879137013091,"29":-0.14112697306235664,"30":-0.07331766552321815,"31":-0.3597317658104333,"32":0.21828962507057745,"33":-0.2061301952538367,"34":0.06558834638059706,"35":0.1871609888286727,"36":-0.14310087610780706,"37":-0.024610966850874903,"38":-0.4431097449332401,"39":-0.2605264154984004,"40":-0.021413928960657053,"41":0.08249548288254137,"42":-0.018901609048593598,"43":0.15339910764709663,"44":-0.1825495519037469,"45":0.2424323507104304,"46":0.2474713775900635,"47":0.0006118616649646361,"48":0.1324614446337673,"49":0.018071121252364056,"50":-0.2614545965351334,"51":-0.19780003082277003,"52":-0.06176163998317432,"53":0.4181974354245264,"54":-0.304490163866954,"55":-0.016143459261928284,"56":-0.27112214120159467,"57":0.15417912572001488,"58":-0.5463720795146593,"59":-0.14126843153397348,"60":0.03139521484077792,"61":-0.12053656425240569,"62":-0.06606607310604856,"63":0.35377462338983273}},{"sx":1,"sy":1,"depth":64,"w":{"0":-0.048667052943287326,"1":-0.09998687816116564,"2":-0.014911412998146138,"3":0.2688931026117694,"4":0.16832772546118785,"5":0.00029530185597235396,"6":-0.2621756964424783,"7":-0.1394256506956493,"8":-0.10708845075723121,"9":-0.20677633921341,"10":-0.5485264927920198,"11":0.19753238405622311,"12":0.10136356364905208,"13":0.2580655344426668,"14":0.21494473581685958,"15":0.009807017469080408,"16":-0.1869916183150533,"17":-0.534669126895546,"18":0.04648893045500831,"19":-0.22715388911861878,"20":-0.3252990710426843,"21":-0.27896863778563374,"22":-0.003655091068073582,"23":-0.05786662184018687,"24":-0.30091335317093504,"25":0.013542430366244152,"26":-0.16664359972019463,"27":-0.354103913948406,"28":0.002444928127903808,"29":-0.005347339839952111,"30":0.35462095143174654,"31":-0.32534976680282485,"32":-0.19547203308575628,"33":0.01342248995227989,"34":0.099076845741929,"35":0.22867462728796736,"36":-0.5968725557251638,"37":-0.4925285112395332,"38":-0.07333180983487159,"39":-0.022698907768476686,"40":0.11344623829706085,"41":0.10875009135657883,"42":-0.1860731495513017,"43":0.1983521579921989,"44":-0.04865181554184257,"45":0.07978240278922208,"46":-0.26129090980818503,"47":-0.16796790032021844,"48":0.01556420907301275,"49":0.24991340497553075,"50":0.1540019259971916,"51":0.32594777502158956,"52":0.0015322422461907096,"53":0.1347016222456143,"54":-0.3855209989353546,"55":-0.025474423019869324,"56":-0.0970757611270075,"57":-0.5593624198869969,"58":-0.14895584510776935,"59":-0.28329576138002543,"60":-0.025825213077231048,"61":0.35481500485722073,"62":-0.4160988932898548,"63":-0.19185916750813964}},{"sx":1,"sy":1,"depth":64,"w":{"0":-0.37154977425123636,"1":-0.28283532186391147,"2":-0.2124856419623347,"3":-0.12701549051421987,"4":0.19168783431968076,"5":0.05701774187920252,"6":0.12482793394903267,"7":0.30339509424989713,"8":0.06777942511881269,"9":-0.10620132359893364,"10":-0.270846193868767,"11":-0.27799167821915305,"12":0.3552129175837642,"13":-0.5457616536834772,"14":-0.051712014673420924,"15":0.3691153785997678,"16":0.02042577103760339,"17":-0.24311457056186617,"18":-0.06432186275992606,"19":0.030231615814897212,"20":0.11347501671207642,"21":-0.1465988886395718,"22":-0.12597172247871574,"23":0.0013602287703344787,"24":0.024786313091729614,"25":-0.1163884267535549,"26":-0.09973510611997297,"27":-0.06500028224257072,"28":-0.09408639102740056,"29":-0.3239580438882944,"30":0.23703958944803522,"31":-0.17593619150630793,"32":-0.39256573444085147,"33":-0.21765253770077614,"34":0.019740114097468748,"35":0.07246032605947686,"36":-0.5195261087523355,"37":-0.18758483064370074,"38":-0.058893718529577734,"39":0.03637102151603779,"40":0.22352163989693197,"41":-0.11902432811507586,"42":-0.10130890867101265,"43":0.4302068333392865,"44":-0.09790692145027692,"45":0.4580344278495134,"46":0.15678756858411927,"47":0.12467301413775707,"48":0.307628033793073,"49":-0.31948494713583797,"50":-0.18176998670533634,"51":0.06108533257827304,"52":-0.06785830064380015,"53":-0.3198894589380336,"54":0.21472393256530772,"55":0.06940054813321048,"56":-0.3128202855808387,"57":0.1570231390853852,"58":-0.022325344953856532,"59":0.3551702971853575,"60":0.07204409268051722,"61":-0.34306941922440437,"62":-0.006169957086265847,"63":0.04437424492057642}},{"sx":1,"sy":1,"depth":64,"w":{"0":-0.02500719170671517,"1":0.08536504680415379,"2":-0.0971850409608849,"3":-0.11571262641533483,"4":0.09137067253494492,"5":-0.06761599097714575,"6":-0.058022245603292194,"7":0.03314622761437151,"8":0.08499312459053471,"9":-0.06203637703592385,"10":-0.011004295622493268,"11":-0.21377431614890138,"12":-0.08411536575664756,"13":-0.12244859607951071,"14":0.042817729010702195,"15":-0.3299988306171868,"16":-0.04369782537126941,"17":0.08741343430824774,"18":-0.30720196073445466,"19":0.09172862738984942,"20":-0.01231077816936004,"21":0.07019828413120935,"22":0.27895837038093774,"23":0.2049790997179639,"24":-0.042153077908990894,"25":-0.07213770061157287,"26":-0.20641698030292657,"27":0.2824128355883703,"28":0.30429596733007797,"29":-0.24998171379624032,"30":0.06056828803088862,"31":-0.23557032375380654,"32":-0.24289110146468978,"33":0.18118473716379468,"34":-0.21936417301189334,"35":0.05485208933765562,"36":-0.19931119834874444,"37":0.10517077010031188,"38":0.11110434923491751,"39":-0.026265939602546983,"40":0.08005427761819084,"41":-0.19072946842997213,"42":-0.16719057715615807,"43":-0.32419325789241815,"44":0.15895080146513912,"45":-0.09519865834361058,"46":-0.10936338013986015,"47":0.008314655033865912,"48":0.07519518841424393,"49":-0.19032086341290436,"50":-0.05073265280285534,"51":-0.13203423949019347,"52":-0.1444067660078268,"53":0.03395415529230966,"54":0.08851280729913018,"55":-0.039601865751252935,"56":0.05546464749634323,"57":0.19735246180735,"58":-0.034363671013111156,"59":0.35048031314239836,"60":-0.12704550950049698,"61":-0.3192571546201698,"62":-0.07055478076442837,"63":0.11018889930415761}},{"sx":1,"sy":1,"depth":64,"w":{"0":0.005640688049737972,"1":-0.01102054075875509,"2":0.2726448112693719,"3":0.19167882966543184,"4":0.04892493256151993,"5":-0.0549765660377743,"6":-0.4600733536433323,"7":-0.38155322485140675,"8":-0.06497515623630314,"9":0.24722072461982741,"10":0.4008349583519229,"11":0.01611752792468565,"12":0.038439573762352554,"13":0.007048430602180279,"14":0.09858936187077537,"15":0.3214909009580121,"16":0.11551887504499687,"17":0.07073535550379104,"18":-0.040093444226494905,"19":0.0589981858599003,"20":0.10341721504391858,"21":-0.2542912000414684,"22":-0.0031140591924579287,"23":-0.4625699630580604,"24":-0.02790964301242235,"25":0.21977400469587705,"26":0.33095559805860014,"27":0.3138222646468911,"28":0.07506443688231322,"29":0.13399348265970046,"30":-0.1762163579073642,"31":-0.10423451338572691,"32":0.2576640717098032,"33":0.07542060562526376,"34":0.17902525098382363,"35":0.22524387080597427,"36":-0.2318386925491316,"37":-0.24124573569753918,"38":0.06391745985073775,"39":0.13547105910842477,"40":0.09097743632910636,"41":0.04572074046850925,"42":-0.11583081369938139,"43":-0.10409584792069144,"44":-0.20541275826627356,"45":0.2855411068631007,"46":-0.044275546600321694,"47":-0.08556672734797786,"48":0.13950037450838404,"49":-0.05318098078727847,"50":-0.18031166932442058,"51":-0.1623318653031122,"52":-0.15056285588727739,"53":-0.2847640212428054,"54":-0.19847507093875238,"55":0.2298137072780645,"56":-0.019856005342674548,"57":0.09014292789346176,"58":-0.08461043494835617,"59":-0.40256279941661827,"60":0.08953194436372264,"61":0.22603739266787307,"62":-0.07914177791842661,"63":0.48286882283601545}},{"sx":1,"sy":1,"depth":64,"w":{"0":-0.3709024205110593,"1":-0.2116852679972545,"2":-0.015525183358023152,"3":-0.05838142572700542,"4":0.17089335316597598,"5":0.17070979500098002,"6":-0.02714572225060492,"7":-0.2763773810455966,"8":-0.08939424652982055,"9":0.17233923611073604,"10":0.07417651562026152,"11":-0.029608303778589397,"12":-0.2646052394836595,"13":0.041318397388669326,"14":0.4347957366534735,"15":-0.17385269612252574,"16":-0.0021377947533960944,"17":-0.001797522434272349,"18":0.0422074615660249,"19":-0.003919675632135188,"20":-0.11642431785138738,"21":0.12678945455579552,"22":0.04856207670302237,"23":-0.26655769779376176,"24":0.12877709173335433,"25":-0.10383700885748696,"26":-0.17864788273057947,"27":-0.26461546014291204,"28":-0.15587194284288033,"29":0.1943647666558008,"30":-0.13826379662380736,"31":-0.23313096444949785,"32":-0.2653795481985019,"33":-0.05437149596037273,"34":-0.09002756475477366,"35":-0.13122227508978393,"36":-0.015237886452436095,"37":-0.4182346729123215,"38":0.015302189073763711,"39":-0.0754298191642264,"40":-0.05533891004973938,"41":-0.06881279221520742,"42":0.00480621233148152,"43":-0.3714431133155442,"44":-0.04451458527723122,"45":-0.028989764210959123,"46":-0.17797241539480108,"47":0.15967132540283016,"48":-0.4868180545566974,"49":-0.15982898877264287,"50":-0.2179274447180394,"51":-0.17439266074487225,"52":-0.2419798680168318,"53":-0.13980287626783908,"54":0.265371016751496,"55":0.02822031537891193,"56":-0.17578423252182337,"57":-0.07618501754422875,"58":-0.2510955231054567,"59":0.01734546981476421,"60":-0.2617137290747412,"61":-0.1645128667520034,"62":0.020237103182752667,"63":-0.13874855226025165}},{"sx":1,"sy":1,"depth":64,"w":{"0":0.1119597388017788,"1":-0.08528462747099384,"2":-0.11263226043835917,"3":0.4869418036120588,"4":0.353649516128105,"5":-0.1400118119992273,"6":0.012295041810703644,"7":-0.12063749264117779,"8":-0.2751750075358042,"9":0.030735418562636146,"10":-0.3744436104045674,"11":0.1963727598762803,"12":-0.07294751836512135,"13":0.08581799331313365,"14":0.0040123685321865775,"15":-0.2902974662676871,"16":-0.4727880118044622,"17":0.00707119959333543,"18":-0.07383515186401952,"19":-0.20464571902879777,"20":0.04699861187887925,"21":-0.5365538377849307,"22":-0.20311985272405786,"23":-0.02911201252550205,"24":0.30830687476967356,"25":0.05732926436579013,"26":-0.42829036965807743,"27":-0.09423552329879947,"28":-0.17605444434890885,"29":0.0077187309176996,"30":-0.3313399824804022,"31":0.09195177158804269,"32":-0.11914321356709962,"33":-0.002110092630915616,"34":-0.04065457842403979,"35":0.06998718503218396,"36":-0.006870420386462427,"37":-0.21236409956282543,"38":-0.05975927017763699,"39":0.06100923551860765,"40":-0.12127298693361288,"41":0.07877717521899313,"42":0.01013238706437534,"43":-0.10909126678748003,"44":-0.048880066195689346,"45":0.10097764139162053,"46":-0.2220163380402016,"47":0.07757255439697157,"48":-0.11274368749085441,"49":-0.33027452368620797,"50":-0.016070950576165012,"51":0.4522282350545346,"52":-0.2905739613025717,"53":-0.006146963371008775,"54":0.19705473360104972,"55":-0.25154670815586166,"56":-0.1098345823286514,"57":-0.0997792950074638,"58":0.09576639766557818,"59":0.1268396820282103,"60":0.23414837669585262,"61":0.02334970008797271,"62":-0.022753182264683775,"63":0.01294285631664726}},{"sx":1,"sy":1,"depth":64,"w":{"0":-0.14683821471837732,"1":0.10097043144188972,"2":-0.23270066955599328,"3":-0.10740923473565417,"4":0.09135720361251017,"5":0.406725146722197,"6":-0.21728043849660048,"7":-0.03372218073381752,"8":-0.06358065384576662,"9":0.05485303274042068,"10":-0.13196640811239468,"11":-0.07357271202696315,"12":0.28060257208229294,"13":-0.38236342696146747,"14":-0.18707113091524058,"15":0.20953865806372474,"16":-0.0625434370754806,"17":0.02252138419033503,"18":-0.07992619868672887,"19":-0.2813106528405294,"20":0.10761238493156079,"21":-0.35390902060211193,"22":-0.5688781211630403,"23":-0.13084221127071574,"24":-0.014992929803815938,"25":-0.32930216242631727,"26":-0.040989033710637106,"27":0.26832749367126485,"28":-0.18385771005756044,"29":0.13625020638078744,"30":-0.24714762752941397,"31":-0.42295122138099195,"32":0.1262681424374542,"33":0.11042762577564354,"34":0.29948544814744776,"35":0.33919852352933744,"36":0.2113549611458202,"37":-0.15773172108727343,"38":-0.12612915102793923,"39":-0.1872118549913023,"40":0.07042728155775702,"41":-0.18466310472836114,"42":-0.19171347513845366,"43":0.08511072867823065,"44":0.0648512921840508,"45":0.16746035026757217,"46":0.2595517321944477,"47":-0.1795637226093173,"48":-0.2953744596368882,"49":0.23175375211646002,"50":0.09957480728226115,"51":-0.04762099029769792,"52":0.003388765917870793,"53":-0.36634055711952185,"54":0.10674617265398995,"55":0.03993110389811548,"56":0.1632945979721373,"57":0.003041935506818696,"58":-0.008280838447517794,"59":-0.10323208745037292,"60":-0.15276222804212788,"61":0.134203709059593,"62":0.32466050680461,"63":-0.15548756369796166}},{"sx":1,"sy":1,"depth":64,"w":{"0":-0.16376315968625746,"1":-0.15485823742031576,"2":-0.20179333656673687,"3":0.0577374842692069,"4":0.008421961996699177,"5":-0.08252783324466313,"6":-0.39741760777425067,"7":0.22217599957178893,"8":0.022936900122663282,"9":-0.22444302733284138,"10":-0.19814811455734943,"11":-0.21879011891981506,"12":0.13597451042266945,"13":-0.25208613002890795,"14":-0.004434021334538424,"15":0.006091856891139024,"16":-0.01481530218254074,"17":-0.07680824329052736,"18":-0.030486125652322865,"19":0.13486442642453558,"20":0.21257237049545635,"21":-0.0013216484031325709,"22":0.243085540281958,"23":0.1211837780432598,"24":-0.028353024410275627,"25":-0.03285035917378026,"26":0.32916724653665835,"27":0.484827797604509,"28":-0.06178991538124197,"29":-0.02426804994585754,"30":-0.0031434311195761865,"31":-0.19879836989450939,"32":-0.00044304686285659303,"33":-0.001145395932547812,"34":0.1619659754614929,"35":0.11991069387812339,"36":0.20788878221698148,"37":-0.07654118811958607,"38":-0.09620539533015549,"39":-0.24719790043125456,"40":-0.21015118753562212,"41":-0.09192091073161544,"42":0.23377508813407755,"43":0.22656440232740008,"44":-0.23949458351263092,"45":0.07856890407894013,"46":0.1358751506235715,"47":-0.4624617237533316,"48":0.06695350538210255,"49":0.26453639633936316,"50":0.09972284080511896,"51":-0.1664918686163144,"52":-0.15779588369614603,"53":-0.3245795345016492,"54":0.09242943367691468,"55":0.7717975621182537,"56":-0.32026088668737224,"57":0.24190142910660284,"58":-0.2816833670718545,"59":-0.12623452205836852,"60":-0.07182184694270383,"61":-0.04013608652821972,"62":-0.002373103181769597,"63":-0.11910446758237839}},{"sx":1,"sy":1,"depth":64,"w":{"0":0.5095875294019506,"1":-0.22494216507739698,"2":0.03783889139655479,"3":-0.17722837477472944,"4":0.15286313039293797,"5":0.15721910311969617,"6":0.22426673816691428,"7":-0.005994850738349682,"8":-0.09843488170961963,"9":0.04698194538517444,"10":-0.6075575315538684,"11":0.006551822730101656,"12":-0.09314441347626275,"13":0.09914056374388927,"14":0.032939710535919195,"15":0.13017808428788455,"16":0.14789479435546832,"17":0.047398655587058997,"18":0.2203097730631769,"19":0.06728386498248393,"20":-0.1254096399516117,"21":0.20169546901110627,"22":-0.11757676591292376,"23":0.08499113681528125,"24":0.23016678981882466,"25":0.16162865664330295,"26":0.1268219909414015,"27":0.07156089834699668,"28":-0.20696405362085468,"29":-0.3880009229903677,"30":0.028980827330944172,"31":0.1718233864515674,"32":-0.16112808836778494,"33":-0.03497206554715565,"34":-0.48824740574903797,"35":-0.06334857522799152,"36":0.1385897943473946,"37":-0.03617465369573034,"38":0.12938500120843857,"39":-0.017736646556785068,"40":0.21014606043040554,"41":0.09373147376088957,"42":-0.15531336083701758,"43":0.19424672623686087,"44":-0.2491188103010989,"45":-0.04271953323543578,"46":0.07523057273098138,"47":0.048641835971587416,"48":0.02704462066298726,"49":0.4097653645026999,"50":-0.08119042098355564,"51":0.2424716368244797,"52":0.055677230915283926,"53":-0.3381982150944915,"54":-0.3472694010558515,"55":0.08576235166147202,"56":0.03619370745560943,"57":-0.25490471441276347,"58":-0.06550176090292086,"59":0.12512494803833368,"60":-0.1796833074730415,"61":0.2735079416509305,"62":-0.31275378398220355,"63":-0.19879798979870894}},{"sx":1,"sy":1,"depth":64,"w":{"0":-0.0707538401513308,"1":-0.11831681031178082,"2":0.1966709085728815,"3":0.0388439006447176,"4":-0.047401281009698266,"5":-0.04466686895566001,"6":0.08284911571973462,"7":-0.3044268644641574,"8":-0.2589950376518278,"9":0.038441146251333894,"10":-0.01516986975472097,"11":-0.003219127870773306,"12":-0.011042019357463842,"13":-0.16347934899447766,"14":0.03888960721398626,"15":-0.3777726997438246,"16":-0.015212838742161162,"17":-0.09664263026353483,"18":0.09999820713028597,"19":-0.15919611887219637,"20":0.11485966416349777,"21":-0.21504077329826,"22":-0.20581776383220698,"23":0.12610725794055125,"24":0.01640560785763533,"25":0.008221827886605868,"26":-0.08145918375069804,"27":-0.14641695743059643,"28":-0.1584253749638944,"29":-0.015036098252042905,"30":-0.05680933955970069,"31":0.06833429483304904,"32":-0.06841420635958274,"33":-0.06972886725095086,"34":-0.09723901984494454,"35":-0.21412843528425599,"36":0.09419160164220394,"37":-0.03733657075854335,"38":-0.03352614954442602,"39":-0.06303133026911904,"40":-0.05194600984979189,"41":0.09901909303021304,"42":-0.058404341986455804,"43":-0.13525962790945972,"44":-0.02182017573067212,"45":0.03286311579364147,"46":-0.20230165988573742,"47":0.03637714666338759,"48":-0.19438444706190783,"49":-0.004314057790680262,"50":-0.13505163509543136,"51":0.06808449271757411,"52":0.3732581346636989,"53":0.11320955458009062,"54":-0.15199882556350736,"55":-0.0615624938728255,"56":0.11478135093018005,"57":-0.04749580880592913,"58":-0.1296206427044568,"59":0.15893818472068633,"60":-0.009570635481146585,"61":-0.18688493712649987,"62":0.07388853248240133,"63":0.06822107036354572}},{"sx":1,"sy":1,"depth":64,"w":{"0":-0.06619589594883324,"1":-0.04184525389404213,"2":-0.24460647730010746,"3":0.015893358930687423,"4":-0.2951372866537697,"5":-0.020136266809149435,"6":-0.0055880688245864224,"7":0.0125374654582272,"8":0.14742867236000812,"9":0.15413412569441357,"10":0.22527358122404095,"11":-0.2735571786129713,"12":-0.025160757707206747,"13":-0.4612690180267174,"14":-0.11391962662906548,"15":-0.09533116252053227,"16":0.1295455839140011,"17":-0.008630793355703645,"18":-0.05055914971667746,"19":-0.037678437366045786,"20":0.13255303021907067,"21":-0.10189693917133386,"22":0.023086415572034162,"23":-0.28042745239817307,"24":-0.0788829131665122,"25":0.03631677874596784,"26":0.20281527438189648,"27":-0.06298990458746924,"28":0.04636293902559293,"29":-0.22521385145972048,"30":0.24027477536535286,"31":0.1156377550549353,"32":0.15225188848336216,"33":-0.061357481945104424,"34":0.22357184323542245,"35":-0.3678958093927533,"36":-0.16122803481805315,"37":-0.18587710050731188,"38":0.0614681406723861,"39":-0.21988960325315085,"40":-0.04407405132842974,"41":0.04573843554799064,"42":0.08880818175524396,"43":-0.1699982429899208,"44":0.10076558244728895,"45":0.05311920083897789,"46":0.3225091446346884,"47":0.23725613746845606,"48":0.19877143949500797,"49":0.09966858107353663,"50":0.44984412536731244,"51":0.21642173159270817,"52":0.08716413553755907,"53":-0.24949056809912748,"54":-0.09758305344566337,"55":0.14369288295476187,"56":-0.24372018516369848,"57":0.15227004758575627,"58":0.08578765945005581,"59":0.07941175059128805,"60":0.3602040781085432,"61":0.1324752214336362,"62":-0.08963527894642216,"63":0.34893603679085705}},{"sx":1,"sy":1,"depth":64,"w":{"0":-0.0005479030261374746,"1":-0.3461225774843285,"2":0.0007392705445567558,"3":-0.1740325639140336,"4":0.14630077669403474,"5":0.012175518447127835,"6":-0.09153664329508616,"7":-0.35012428971452497,"8":0.025302643638198355,"9":0.22801900309272424,"10":-0.0363150571519627,"11":0.0036924670426960408,"12":-0.0714582080508195,"13":-0.10021236255031157,"14":0.015282817011913573,"15":-0.040134738985992756,"16":0.3275694745100059,"17":0.28302813956046013,"18":0.10184922644386143,"19":0.20646181949082568,"20":-0.10760322564095912,"21":0.061490932155580914,"22":-0.17791522627480896,"23":-0.07047556247218202,"24":0.2763987740183887,"25":-0.19043408508301485,"26":-0.22022440177259442,"27":-0.2103923030341578,"28":-0.21420480239131753,"29":0.18259992748663684,"30":0.23087070235264506,"31":-0.01589511876326886,"32":0.3336556868127167,"33":-0.006986403100555783,"34":-0.024237803655008362,"35":0.12764255494174315,"36":-0.2356659524956591,"37":0.0894373716942352,"38":-0.3161037354717409,"39":0.039899348503146664,"40":-0.012214635186087858,"41":-0.24273158694114624,"42":-0.14753238591442644,"43":0.16746178179881915,"44":0.04718900732123846,"45":-0.33566685570089694,"46":0.3534792589514211,"47":0.012571214189593777,"48":-0.035809571723801094,"49":-0.083320329417919,"50":0.2162884215909093,"51":-0.05514568760389379,"52":-0.32188562811216626,"53":-0.011598144935312176,"54":0.31026583750616593,"55":-0.10880706214443202,"56":-0.11142215069825041,"57":-0.04844895776729692,"58":0.3212297528466891,"59":0.27314450802092866,"60":-0.1434960461413265,"61":0.12226863036163642,"62":-0.4320916272073119,"63":0.2418486234154154}},{"sx":1,"sy":1,"depth":64,"w":{"0":0.2128975913536466,"1":-0.003178299973219721,"2":-0.3980009481382529,"3":-0.18211159836158253,"4":-0.2693490937176973,"5":-0.22146348503458357,"6":-0.2290017134176615,"7":-0.43229201237405823,"8":-0.003927942452512164,"9":0.014469153509806541,"10":-0.028212944449138626,"11":-0.0694929736956876,"12":0.09299430286591191,"13":-0.0060320361008292505,"14":0.059851587401183404,"15":-0.05605748912130077,"16":0.09350364463422361,"17":0.2214657468374111,"18":0.14363673458890164,"19":-0.21048175382524556,"20":0.3324408284529478,"21":0.0799198386480662,"22":-0.1515945859990184,"23":-0.08125644912944445,"24":0.14565874980051163,"25":-0.03433373431865296,"26":-0.12877391011767442,"27":0.3113873814049733,"28":-0.5067282730605407,"29":-0.16750781472672086,"30":-0.111538247420084,"31":-0.40871598610989507,"32":0.12138743245824116,"33":0.008582323705616643,"34":0.06269192788547359,"35":-0.13995234111613047,"36":0.29203866388050115,"37":-0.20962440282305578,"38":-0.3800442874384785,"39":-0.15058498232624792,"40":-0.2722035843559491,"41":-0.07856938731963259,"42":0.2772886343473403,"43":-0.2506903937640733,"44":0.007380128527778993,"45":0.07577686018658814,"46":-0.21381373449010158,"47":-0.15166391844816426,"48":0.29554190275156406,"49":-0.015153682939819776,"50":-0.07049202120350763,"51":-0.008605282252642593,"52":0.2889725181625267,"53":0.10327446949173158,"54":0.17555850698155873,"55":0.02799797534000445,"56":0.03272374241059916,"57":0.05703789641521988,"58":-0.06699071857537497,"59":0.187676020395916,"60":-0.2749630826122921,"61":0.22639073967669646,"62":-0.08130368885681266,"63":0.06493562780076757}},{"sx":1,"sy":1,"depth":64,"w":{"0":-0.18254184691206155,"1":0.08788558311280513,"2":0.11557505492747834,"3":-0.5275805688494374,"4":-0.17295815883440954,"5":0.23467419724524685,"6":0.15843422438467847,"7":0.05448703085278043,"8":-0.3513872626776907,"9":0.12162812076356593,"10":-0.2240367949940108,"11":0.01024787524360781,"12":-0.1283369409237971,"13":0.13725515200511107,"14":-0.20931103303550844,"15":0.15362629068390846,"16":-0.2696457471840791,"17":-0.4746664251219395,"18":-0.09203986956423482,"19":-0.03996592174300016,"20":-0.18950043819916212,"21":0.20689499419628077,"22":0.027925850267100562,"23":0.17312236896539224,"24":-0.14900496525614418,"25":-0.17349056173685903,"26":-0.05643906408972956,"27":-0.06597803565687534,"28":0.05385828023171867,"29":0.14914903658656473,"30":-0.10270007519016434,"31":-0.3157137151357493,"32":-0.30736454468103425,"33":0.04577597475327263,"34":-0.21628106375193495,"35":-0.5274582247118492,"36":0.12890087643581413,"37":-0.04110597545688756,"38":-0.4132392546588355,"39":0.020688125530399466,"40":-0.03717990792837403,"41":-0.3165102353264472,"42":0.1012219041620025,"43":0.06862514619650752,"44":-0.0014376030051477188,"45":-0.023890813285370835,"46":-0.27585687785581425,"47":-0.12908931711658755,"48":-0.22240115800836552,"49":0.10717358760954313,"50":0.2295699737445402,"51":-0.2804302723316239,"52":0.01783060191917832,"53":0.057693096997930855,"54":0.1525453757969554,"55":0.09107234521248306,"56":-0.3272108250226552,"57":0.13105203958316544,"58":0.03292347162391732,"59":0.20105518909179163,"60":0.2085325628730959,"61":-0.20735478853131503,"62":0.1288506231203306,"63":0.1786344314392463}},{"sx":1,"sy":1,"depth":64,"w":{"0":0.33055998737128955,"1":0.28838984979711646,"2":0.04750886788137999,"3":0.15962661925543356,"4":0.04700784920316166,"5":0.2329707239842985,"6":0.12414153262907626,"7":-0.4055345536948772,"8":0.02089597127384152,"9":-0.006954550224714275,"10":-0.26474445129933294,"11":-0.40899870306533065,"12":0.0025050448389949144,"13":0.2613115436277895,"14":0.20068233543283764,"15":-0.029861871734062073,"16":-0.22156359889912886,"17":-0.15951811722130138,"18":-0.2512600318664138,"19":-0.02494532759032781,"20":0.25890196065636056,"21":-0.1775280811827752,"22":-0.10818797172401985,"23":-0.24188826581508385,"24":0.13385641083094926,"25":-0.05869378178293189,"26":-0.02795472841432831,"27":0.03320567891345637,"28":-0.20443837207280394,"29":0.19941712590599872,"30":0.12015347059867298,"31":-0.21659066165914734,"32":0.04354612231199627,"33":-0.13407594657149088,"34":0.035741743403127864,"35":0.08482426373019071,"36":-0.4218131753933498,"37":-0.0035609483605389815,"38":-0.34324486110874103,"39":0.018475440188506463,"40":0.4053298772540558,"41":-0.2716212398381326,"42":0.41636690525043196,"43":-0.03222426046154441,"44":-0.30667769232149056,"45":0.09758458155441194,"46":-0.2731866417940315,"47":0.05332727623479916,"48":0.174064830382818,"49":0.3069782297224365,"50":-0.24396400005941826,"51":0.1175329369075376,"52":0.10428181005442141,"53":-0.4777157970426546,"54":-0.023169261176268274,"55":0.08577833128882888,"56":-0.22318359405231722,"57":0.2241588620706552,"58":-0.09671654076391797,"59":0.17534958234708165,"60":-0.0026479574939688283,"61":0.21966237811074035,"62":-0.2915380010087456,"63":0.2257757874100422}},{"sx":1,"sy":1,"depth":64,"w":{"0":-0.27793647070804917,"1":-0.3804369639979244,"2":-0.30569959191669893,"3":0.1854303672870344,"4":0.15030361638151468,"5":-0.08735748823903876,"6":0.2676688847320418,"7":0.05564901275571474,"8":-0.3320282040273748,"9":-0.18869007446137345,"10":-0.20036683678531247,"11":-0.34769345839102667,"12":-0.4387965801507025,"13":0.02426657910965859,"14":0.21187682162170215,"15":-0.35579286719302267,"16":-0.5023468091160558,"17":0.17657050015206188,"18":-0.43131223205164354,"19":-0.03551281273768801,"20":-0.11907981814616095,"21":0.15984505242740546,"22":-0.05197292185942928,"23":-0.12340127632332534,"24":-0.27992467163547,"25":-0.5254671016703524,"26":-0.5433525792688038,"27":-0.18105108221376154,"28":0.16727078438740925,"29":-0.2174997468942225,"30":-0.10115400529637132,"31":0.1466591668219987,"32":-0.3317531388088956,"33":-0.1515697355664468,"34":-0.1842796162111475,"35":-0.4162177875293552,"36":-0.2777948457832987,"37":-0.32936091760248787,"38":-0.41595934089245284,"39":0.0016652345492199896,"40":0.08673193445818017,"41":0.10913748513161453,"42":-0.07854269698085961,"43":0.16158665754565116,"44":-0.325370441564357,"45":0.15968120132472904,"46":-0.24476096415946386,"47":0.14143412752368947,"48":-0.23023743813177203,"49":0.33919050130870737,"50":0.01890802872056463,"51":-0.3877089703530043,"52":0.007513998845298449,"53":-0.12519908822740378,"54":-0.07802580193933183,"55":0.20207997865952473,"56":-0.13000982637841924,"57":0.10224878127736968,"58":-0.35404726982542567,"59":-0.2507696398891517,"60":-0.21181806112390392,"61":-0.08877466005612127,"62":-0.43381317367279515,"63":-0.23246482655478917}},{"sx":1,"sy":1,"depth":64,"w":{"0":0.24240372414047703,"1":0.23394724476925596,"2":0.1324020427017284,"3":-0.2989733321011891,"4":0.11982065884979519,"5":-0.26146197978173347,"6":-0.023847508731375776,"7":0.12717744076774626,"8":0.319394389972667,"9":-0.16722377797829832,"10":-0.25264630428188817,"11":-0.21215185155052402,"12":0.013075200297986776,"13":-0.44384139168680137,"14":0.30010454985703944,"15":0.29723522671217156,"16":-0.22641781441107606,"17":0.01525479005482011,"18":-0.3452440567062147,"19":-0.24156388085390554,"20":0.33997609865610634,"21":0.19788587535364863,"22":0.13781796627259202,"23":0.4046796491491449,"24":0.15852452655157206,"25":0.17831344165869745,"26":0.04287252452095922,"27":0.12445803169837134,"28":0.21226555704686606,"29":0.08576470448035821,"30":-0.045407124012698905,"31":0.3123256612630377,"32":0.35314240652408885,"33":-0.15866245626081174,"34":0.027918510143759068,"35":-0.11009738725707643,"36":0.32293925133874307,"37":0.09624197751599521,"38":0.28128427633154823,"39":-0.03374331811144453,"40":-0.16817147214206288,"41":-0.16234850767596573,"42":-0.005059350026027467,"43":0.08965901404833411,"44":-0.14860178574485086,"45":0.059673879191530124,"46":0.2928237554685201,"47":0.49149687795315367,"48":0.08479447672019984,"49":-0.12139727722683374,"50":-0.5557143950006771,"51":0.12665324768949016,"52":-0.07168697209187769,"53":-0.17120988599521048,"54":0.08045552093041765,"55":-0.021768149382240733,"56":0.009355142696033304,"57":0.07313999568946458,"58":-0.07578238525850994,"59":0.2882171158641846,"60":-0.08658398199986983,"61":0.1641164712248735,"62":0.3279712393467424,"63":0.21728294859932779}},{"sx":1,"sy":1,"depth":64,"w":{"0":-0.05800607178905203,"1":-0.1912709863510748,"2":0.2164687731874839,"3":-0.26974948460253406,"4":-0.1287861246155546,"5":0.03397371766866238,"6":-0.09729328208788228,"7":0.2527318619778602,"8":0.1882514943258546,"9":-0.1632077252287513,"10":0.023919271937883003,"11":0.404649318013574,"12":-0.005908072760955671,"13":-0.028516509605824678,"14":-0.3262208818501645,"15":-0.06577247237129541,"16":-0.25684073449107264,"17":-0.12704885088993803,"18":-0.020189636308283635,"19":-0.0846302534412228,"20":0.06830897574546375,"21":0.016051308045421556,"22":-0.2619065835278533,"23":-0.02084155531162128,"24":-0.32982922749102084,"25":-0.43960765984874456,"26":-0.20007121315916251,"27":0.058448596268906416,"28":-0.08235219088762324,"29":-0.32561613852680066,"30":0.11892036551802249,"31":-0.2483557624796384,"32":0.05774083864312,"33":-0.23371709355116008,"34":-0.3210914864741423,"35":-0.18595361672258326,"36":-0.16555011217831397,"37":0.0429904533263798,"38":-0.6077847716483811,"39":0.06677935748580202,"40":-0.31353645586972,"41":0.07282147135212388,"42":-0.49298243293251115,"43":0.07974338951833586,"44":-0.7222808012117617,"45":0.239444283084299,"46":-0.2557678585364564,"47":-0.39603816270134196,"48":-0.3969067975207326,"49":-0.573292184020251,"50":-0.08563277928447144,"51":0.4189857709641585,"52":-0.3379921296426584,"53":0.21484346690881917,"54":0.07405179406134994,"55":0.03962256987653007,"56":-0.0449884382519675,"57":-0.2807381277514209,"58":0.1257397573311484,"59":-0.03787976017640227,"60":-0.12408167832643015,"61":-0.5203655910679998,"62":-0.014377688071589772,"63":-0.4644889497860002}},{"sx":1,"sy":1,"depth":64,"w":{"0":-0.23926684819517396,"1":0.3677404837478255,"2":-0.2782936394026128,"3":-0.05392393502238857,"4":-0.14029041543737614,"5":-0.06221253059142025,"6":0.05334789979773113,"7":0.15323890244951557,"8":0.02424375571627413,"9":0.06123783794121537,"10":-0.33224907811409143,"11":-0.21811041845985654,"12":-0.08633804272192803,"13":0.29349674104460866,"14":-0.02046680826292707,"15":0.37710335675223905,"16":0.14670013364680387,"17":-0.13452692353140014,"18":-0.2746275669540711,"19":-0.14534166266891205,"20":-0.058259754460491364,"21":-0.018669286330817794,"22":-0.13670904762965158,"23":-0.27783388549408383,"24":-0.14446360645236142,"25":-0.1790088333566312,"26":0.1648712629882114,"27":0.06262377650930447,"28":-0.21327703890703634,"29":0.045500781748163154,"30":-0.1198067902746527,"31":-0.2709524178806914,"32":-0.4035413627545799,"33":-0.3541532925080647,"34":0.16761119020727736,"35":0.012714069727574164,"36":0.004897178483289213,"37":-0.38958576027928,"38":0.07069811682201917,"39":-0.12984746772311434,"40":0.09794896840915937,"41":-0.20224627198958725,"42":0.3620880290776541,"43":0.25598262681940825,"44":0.14824692888199087,"45":0.14765325834721227,"46":0.3903969992940952,"47":0.14813677751712234,"48":-0.044095436054111224,"49":0.10845998481009204,"50":-0.0629129003795136,"51":-0.055343001849911234,"52":-0.22529918187438547,"53":-0.08673493283268204,"54":-0.2694625131385434,"55":0.4408345943805676,"56":0.05403307466262699,"57":-0.3491460604330167,"58":0.15673617419590413,"59":-0.11111215152917006,"60":-0.40027946356617444,"61":-0.07915595713669618,"62":-0.004315772923382592,"63":0.2750095855758965}},{"sx":1,"sy":1,"depth":64,"w":{"0":-0.20657507874859232,"1":0.11922253220485884,"2":-0.4767928224774,"3":0.044657559375456,"4":-0.18061868345195622,"5":0.42301669489288646,"6":0.12114691237916914,"7":0.09941748362108344,"8":-0.4603724134772882,"9":-0.1443889315809872,"10":-0.08310988981309063,"11":-0.3313120740809116,"12":0.1139868585359528,"13":-0.30722378798639266,"14":0.09537526515643706,"15":0.11840464489427413,"16":-0.3607777602243477,"17":0.31494421549624396,"18":-0.3797267528582615,"19":-0.07233053297307539,"20":-0.3838433497057342,"21":-0.052202877436444195,"22":-0.1275189895397751,"23":-0.15484116367430847,"24":-0.1405216893707061,"25":-0.45400451900457484,"26":-0.06563948555817643,"27":-0.2410766670525397,"28":-0.061340098395183826,"29":-0.5647869947449504,"30":-0.19479083015067838,"31":-0.09848552044914813,"32":-0.2416672884098102,"33":-0.5084570647400598,"34":-0.08387821880288343,"35":0.01775998967394544,"36":0.08842742849722161,"37":0.3312981222472807,"38":-0.4169554848030811,"39":-0.30279441454868833,"40":-0.25551219005323994,"41":-0.024498428166394026,"42":-0.2040462509087627,"43":0.24001469958504965,"44":-0.15718491171320653,"45":0.07890949346285102,"46":0.09472572408615099,"47":-0.12044732408023553,"48":0.10318854035651708,"49":-0.04198988525155533,"50":-0.027402265749713196,"51":-0.02136411675653957,"52":-0.0053033372775731415,"53":-0.34333508082983044,"54":0.07121330728971209,"55":0.41724080744983755,"56":-0.010633316282727292,"57":-0.15188238398720408,"58":-0.114604348783611,"59":-0.03318328352912219,"60":-0.4993331787115885,"61":-0.30593004409328667,"62":-0.0008915365651817841,"63":0.10160866766779744}},{"sx":1,"sy":1,"depth":64,"w":{"0":-0.17095581979525004,"1":-0.028302727660377138,"2":-0.1813806033664613,"3":-0.1352236151461258,"4":-0.21258377341781742,"5":-0.00020328797269656833,"6":0.14632371292042526,"7":-0.0175667976543278,"8":-0.011013725168329177,